{"layers":[{"out_depth":1,"out_sx":26,"out_sy":26,"layer_type":"input"},{"sx":5,"sy":5,"stride":1,"in_depth":1,"out_depth":48,"out_sx":22,"out_sy":22,"layer_type":"conv","l1_decay_mul":0,"l2_decay_mul":1,"pad":0,"filters":[{"sx":5,"sy":5,"depth":1,"w":{"0":0.21886775764828964,"1":0.20480662553379245,"2":-0.33658733198081814,"3":-0.22402583977754928,"4":0.06181779729024783,"5":0.3568053820826732,"6":0.09680524097288726,"7":0.09126913084752104,"8":-0.3588453544850082,"9":0.15461256189870332,"10":-0.07041876641773148,"11":0.016278467153763267,"12":-0.03584078493793896,"13":-0.1839205318389565,"14":0.1119379150501108,"15":-0.27278477898962744,"16":0.03721503424076193,"17":0.3340028473332157,"18":-0.03265747287441752,"19":0.04729806400104807,"20":0.1813683350199097,"21":0.29125051620763714,"22":-0.3828021571668981,"23":-0.21850957471869878,"24":-0.0359076601846188}},{"sx":5,"sy":5,"depth":1,"w":{"0":0.1174892083562829,"1":0.41131761349491236,"2":0.27957776946892715,"3":-0.09920343864464583,"4":-0.11269216843742887,"5":0.45609791786630166,"6":0.1934538059797947,"7":0.26448930364867257,"8":0.2018271812700454,"9":-0.2257056671866059,"10":0.038838999784881534,"11":0.26807416018857605,"12":-0.45583163962766177,"13":0.028087091434658953,"14":0.0297878216180406,"15":-0.24312263979302054,"16":-0.5523291066240108,"17":-0.7108522784030086,"18":-0.25378403642297115,"19":0.08381137248993534,"20":-0.16425007693220983,"21":-0.46039374430750446,"22":0.26543019699380993,"23":0.2586347402984601,"24":0.22720666132288794}},{"sx":5,"sy":5,"depth":1,"w":{"0":-0.35170396270742826,"1":0.28949072502641454,"2":0.4047343804420297,"3":0.1641069037483821,"4":0.13445244661773675,"5":-0.3228554111610582,"6":0.07650064532878631,"7":0.3339768896685759,"8":0.28534050693222335,"9":-0.27669391031899093,"10":-0.37058148098132354,"11":0.28242901573530443,"12":0.08507995877751758,"13":0.272283105555495,"14":-0.4699012457114923,"15":-0.25623352477716554,"16":0.10117762097844475,"17":0.23261356798546734,"18":0.3244325777305505,"19":-0.6154395456389892,"20":-0.2532275504413602,"21":-0.1101566800977896,"22":-0.07293052068049787,"23":0.18610431328802168,"24":-0.5062531924994227}},{"sx":5,"sy":5,"depth":1,"w":{"0":0.42048223054707096,"1":0.09831002680304332,"2":-0.43169614361153896,"3":-0.990859963160811,"4":-0.3528268114061,"5":0.10393466356129329,"6":-0.4281325553503261,"7":-0.4316417740388635,"8":0.13734122184103004,"9":0.2937438344176289,"10":-0.1369676899301473,"11":-0.02081533692928764,"12":-0.03752693999576566,"13":0.12438568265431643,"14":0.2666462081547373,"15":0.07845457021610841,"16":0.01055274456881962,"17":-0.265459540967607,"18":0.038866490603591146,"19":0.3560227971204129,"20":0.17419873874924963,"21":0.2285487769469762,"22":0.024713654555337652,"23":0.19611245027313245,"24":0.255236383732858}},{"sx":5,"sy":5,"depth":1,"w":{"0":-0.27206565991005777,"1":-0.1770845730955015,"2":-0.4280149911498508,"3":-0.8529256161830803,"4":-0.775688961815382,"5":-0.1611208999735572,"6":-0.7526627248748037,"7":-0.6109530174536049,"8":-0.18534231627685369,"9":0.2620770793563608,"10":-0.016848564511782262,"11":0.12094882826293778,"12":0.38375573527148504,"13":0.14209596427774504,"14":0.22516006486423978,"15":-0.04281962159841418,"16":0.2805358632249057,"17":0.49542346152918937,"18":-0.16133850078268153,"19":0.5422199837346258,"20":-0.12372795334781976,"21":0.41428627416372354,"22":0.43369010678276126,"23":0.054643233554387674,"24":0.5189787992159494}},{"sx":5,"sy":5,"depth":1,"w":{"0":0.14584160465664547,"1":-0.3737287138532409,"2":0.040911851325576946,"3":0.3737221221976604,"4":0.23953727070191605,"5":0.11236274698945674,"6":-0.12391308717501413,"7":-0.21609198225010595,"8":-0.26055233691390095,"9":-0.0018642409978044973,"10":0.026745218539961146,"11":0.49746640269600606,"12":-0.2773134806423053,"13":-0.15130923727866116,"14":-0.389031903858161,"15":0.3169060257417445,"16":-0.08437534401808416,"17":-0.010104279072207048,"18":0.009931918239784322,"19":-0.06057442414243877,"20":0.22418725352391722,"21":-0.7629680051099686,"22":0.1614567555494373,"23":0.46957241766356206,"24":-0.06313853990870093}},{"sx":5,"sy":5,"depth":1,"w":{"0":-0.036481889459134165,"1":-0.16705509791935869,"2":0.04930490604112859,"3":-0.3012147138165609,"4":0.1379890024605736,"5":-0.10324220939302874,"6":-0.10065180149331307,"7":-0.15472854008174722,"8":-0.09159433640978597,"9":0.3240501471141511,"10":0.09429362761605921,"11":0.09313842690729762,"12":-0.7709848941906446,"13":-0.2412460512357542,"14":0.12942508175967976,"15":0.30633594825374155,"16":0.378545673401888,"17":-1.0062305909908618,"18":0.3474038613536086,"19":0.6124779242621592,"20":0.26494679806279237,"21":0.4386123696108139,"22":-0.8964121863205146,"23":-0.0013248488525843605,"24":0.2174418258089699}},{"sx":5,"sy":5,"depth":1,"w":{"0":0.15377824123035677,"1":0.25079682331986775,"2":0.001312111967571463,"3":-0.05625786962434959,"4":0.28407909621837457,"5":-0.09092593119097418,"6":-0.04621088326399455,"7":-0.11128861631438969,"8":-0.2824304205575636,"9":-0.04242262324517132,"10":-0.17493903737405744,"11":0.06412470651480948,"12":0.04641705540257988,"13":0.19993342692344995,"14":-0.13004986564322474,"15":-0.1936788155285889,"16":-0.351337665653622,"17":0.1516811319484286,"18":0.051638844789331416,"19":-0.3060545071896901,"20":-0.09603654391017487,"21":-0.12243189177092878,"22":0.22607531943176204,"23":0.2949661375717403,"24":-0.4285519769747383}},{"sx":5,"sy":5,"depth":1,"w":{"0":-0.04461372771315965,"1":-0.07168872274503214,"2":-0.09732931445697478,"3":0.20938502357959946,"4":-0.07783792699988105,"5":0.2699905870075715,"6":-0.11793289385353756,"7":-0.46000260844022883,"8":0.0339145991221077,"9":-0.11139310203331611,"10":-0.04739624161647612,"11":0.1035883251645419,"12":-0.16779347455286484,"13":-0.14113016378382842,"14":-0.05311727710515578,"15":-0.10305931504121271,"16":0.3015977826505426,"17":0.15524880618203138,"18":0.18175998215403172,"19":-0.13011081726301288,"20":0.15377634915078625,"21":0.17007910441642438,"22":-0.14148201862223614,"23":0.31083336358076036,"24":-0.17168055705887256}},{"sx":5,"sy":5,"depth":1,"w":{"0":0.4963469616550313,"1":-0.09611479192126908,"2":0.1390859339331049,"3":0.49112579457593686,"4":-0.06807247840961178,"5":-0.039959132520138364,"6":0.00958731494173279,"7":0.1280793530997312,"8":0.17019116467598044,"9":0.06910349081694586,"10":0.3121140340572006,"11":-0.052552205936305316,"12":-0.07350126028917657,"13":0.05182028477587775,"14":0.010255315748503897,"15":0.062467259025972596,"16":0.06404300598386899,"17":-0.010190193268624607,"18":-0.4905072903113146,"19":0.06049860718159172,"20":-0.036470838552054005,"21":-0.19164050941725574,"22":-0.3185369089547574,"23":-0.6176945873693565,"24":-0.1300502031313881}},{"sx":5,"sy":5,"depth":1,"w":{"0":-0.32891714920991705,"1":0.4818694534989201,"2":0.33332325398381846,"3":0.30096698786587367,"4":0.3849937837245863,"5":-0.016313701459231916,"6":-0.44284704091871085,"7":0.1367925019382506,"8":0.24349206719602062,"9":0.029205787393909895,"10":-0.4017963113457685,"11":-0.7013440848312184,"12":-0.40203580312659776,"13":-0.6744376120670704,"14":-0.2763148207322587,"15":0.3173367250660038,"16":0.3961198999609346,"17":-0.6082286411834829,"18":-0.33531364346161235,"19":-0.12504731998016383,"20":0.5548565924201924,"21":0.2065653218065135,"22":0.44022922871305126,"23":0.30760723630537945,"24":-0.16001199265837743}},{"sx":5,"sy":5,"depth":1,"w":{"0":0.10530118689682746,"1":0.03238212871801891,"2":0.12412309594170072,"3":0.07679237685530048,"4":0.360439225242623,"5":-0.39395958036975776,"6":-0.4128276556162719,"7":-0.46298317917033666,"8":-0.5421123888233,"9":-1.0034185871690189,"10":0.09179951827658968,"11":0.33293643164796394,"12":-0.018983874548740457,"13":0.17981643892863208,"14":0.46701039018982865,"15":0.15674600458187937,"16":-0.0039952981349017595,"17":0.1869052719230848,"18":0.08180426713115227,"19":0.2556893364259615,"20":0.2469939963960428,"21":-0.1394390575370075,"22":0.05454813873209228,"23":0.17549745150124593,"24":-0.1552416242951105}},{"sx":5,"sy":5,"depth":1,"w":{"0":-0.2190618577626606,"1":0.010080731103638989,"2":-0.13964876886261118,"3":0.10071884107893744,"4":-0.05355484421065138,"5":0.18402553043867462,"6":-0.13134084453994826,"7":0.0720898849232314,"8":-0.10876273568424771,"9":0.21959483569825888,"10":0.23182115819916727,"11":0.39999662975658284,"12":-0.9990886599921521,"13":0.00252956927739225,"14":0.4193044271640874,"15":0.23196609474729102,"16":0.06862093876286912,"17":-0.35041815989961267,"18":0.0458004262791269,"19":0.0618362166280314,"20":0.4538536430637434,"21":-0.5462529243480774,"22":-0.20684211709340058,"23":-0.011742092260229185,"24":0.1304583708299283}},{"sx":5,"sy":5,"depth":1,"w":{"0":-0.08308455755608574,"1":-0.08512438411044104,"2":0.40993656121188815,"3":-0.1854770679545514,"4":0.1963773357155342,"5":-0.5334769393817611,"6":-0.1857163633457792,"7":0.3016708532878995,"8":-0.1013138041622681,"9":-0.23395368067929925,"10":0.13511073699895046,"11":-0.47044122989255877,"12":0.29623222348344797,"13":0.20000959875691854,"14":-0.0010456722462097445,"15":-0.4565883162175127,"16":0.29491885164327536,"17":-0.4335263945755169,"18":0.6279582249397626,"19":0.02084284083974274,"20":-0.142440621975012,"21":0.3739049404635134,"22":-0.09437226894999533,"23":0.060352612565568134,"24":-0.03887557026475334}},{"sx":5,"sy":5,"depth":1,"w":{"0":0.029290631164012773,"1":-0.006695615396036776,"2":-0.14974653003449948,"3":0.4128755193913839,"4":0.05639815901013054,"5":-0.0200182930960707,"6":-0.14144257789611867,"7":0.2990020593594071,"8":0.11649022580283584,"9":-0.15907369635789004,"10":-0.010003899615458042,"11":-0.10108794665833742,"12":-0.21061357143231718,"13":-0.21140218245099923,"14":-0.545872100794848,"15":0.029424122769354986,"16":0.21091813882515606,"17":0.1803639167943047,"18":-0.055621545149060946,"19":-0.32408687151993915,"20":0.19399048773654876,"21":0.20504122681535628,"22":0.23012141394128954,"23":-0.06984855502510688,"24":-0.0085814514382377}},{"sx":5,"sy":5,"depth":1,"w":{"0":-0.11525015287382623,"1":-0.30956289650348257,"2":-0.018670990547778,"3":0.3505925588845325,"4":-0.0033829512963307103,"5":-0.07911207740233453,"6":-0.3755646545163094,"7":0.22645992736097842,"8":0.2576517818891068,"9":-0.046546283228429235,"10":0.06624415154789429,"11":-0.7466396774434394,"12":0.28899197201120835,"13":-0.041739870644531316,"14":0.40599937415098614,"15":0.28632455897747305,"16":-0.7265336630049521,"17":-0.06248498641056104,"18":0.12178766430621508,"19":0.36555435398284186,"20":0.42520030535369374,"21":-0.47946328928479437,"22":-0.38060000346296124,"23":0.26316703951842646,"24":0.1688640692656735}},{"sx":5,"sy":5,"depth":1,"w":{"0":0.08753731948531397,"1":-0.3525510451271092,"2":0.09060191727789228,"3":0.04172336796438284,"4":0.26592081027054415,"5":-0.14027525676768351,"6":-0.1985191687824352,"7":-0.015042732038436682,"8":0.0033600926007190655,"9":0.2706478812980718,"10":0.029104510758515733,"11":0.32310664360919233,"12":-0.16651702655364836,"13":-0.0014415051890997144,"14":-0.0012429834400005037,"15":-0.2851478906864998,"16":0.265800310567353,"17":-0.1090830100224653,"18":0.02409980572218056,"19":0.08010503029566828,"20":0.3699378197181399,"21":0.13777510426830805,"22":0.06726727098656114,"23":-0.22800283901597065,"24":-0.5719862947554735}},{"sx":5,"sy":5,"depth":1,"w":{"0":0.0630280609566249,"1":-0.19716162782943164,"2":0.06799889342663805,"3":-0.11945435327041773,"4":-0.791484023249142,"5":0.14083178201993124,"6":0.022374310937601193,"7":0.08592518184758098,"8":0.07286624057925795,"9":0.3906527441274743,"10":-0.003073755606622942,"11":-0.19633906908211518,"12":0.11137451215943037,"13":-0.022202543669206,"14":0.15574287033723633,"15":-0.1361340927335113,"16":0.0007313582050244134,"17":0.01806466955555228,"18":-0.03462541865104089,"19":0.10964625047813376,"20":0.23808221622295875,"21":-0.2124637597340447,"22":-0.13742747211182227,"23":-0.12610399397778913,"24":0.3602563610815491}},{"sx":5,"sy":5,"depth":1,"w":{"0":-0.32911266237435327,"1":0.0018048010050994016,"2":-0.042986430238119606,"3":0.08107236382136757,"4":-0.04243992776023353,"5":-0.01145366065150399,"6":-0.022637706443894068,"7":0.2247632946845015,"8":0.3220693780088969,"9":0.372768792350968,"10":0.0036198037741025924,"11":-0.3903221113041012,"12":0.14794758741563754,"13":-0.3087211308919299,"14":-0.12297762157574306,"15":-0.24531494857728148,"16":-0.3164004168877826,"17":-0.40320145133284396,"18":-0.18992466813444203,"19":0.30729312676008924,"20":0.3377618113631509,"21":0.4567023051720357,"22":0.13176096133313286,"23":-0.17833764031026597,"24":0.051613026799524626}},{"sx":5,"sy":5,"depth":1,"w":{"0":0.1649895235473031,"1":0.04852979927694099,"2":-0.15731307522264829,"3":-0.2569369962721112,"4":0.2641876287275642,"5":0.40019066794196645,"6":0.32324814551416015,"7":-0.1933311557557106,"8":-0.89981002849613,"9":0.43426435866293084,"10":0.14686128707127302,"11":0.4073970324956331,"12":-0.678326718576139,"13":-0.19546717421808155,"14":0.4721031192053734,"15":0.07866119352533685,"16":0.08581027507438198,"17":-0.5384770038901142,"18":0.10136694791546155,"19":0.289980439730135,"20":0.13282619024700226,"21":-0.2656840937183649,"22":-0.383632062960589,"23":-0.08451410529393366,"24":0.03745109896429413}},{"sx":5,"sy":5,"depth":1,"w":{"0":0.23319099896663376,"1":-0.039102014256322426,"2":-0.8168209480269839,"3":-0.3271096358824045,"4":-0.3643863803732035,"5":0.2714990918844516,"6":-0.556100472634266,"7":0.07824749108073825,"8":0.14381821287871516,"9":-0.19990710793189045,"10":-0.5575459326070207,"11":0.5454861959257336,"12":0.494310126275975,"13":0.05200185144682823,"14":0.46345824797479174,"15":-0.06914338445201394,"16":0.017230293765235404,"17":0.2070449625573412,"18":0.15261824571025345,"19":0.06125098067413379,"20":-0.05307271233100676,"21":0.02444699554278964,"22":-0.08031069462798654,"23":0.10894512871444652,"24":0.1030973543745344}},{"sx":5,"sy":5,"depth":1,"w":{"0":-0.4160341704622495,"1":-0.7126027129490546,"2":-1.0218213143418995,"3":-0.40858185068215147,"4":-0.07861984080439344,"5":0.1399438468304749,"6":0.07791043121467794,"7":0.7807397292533979,"8":-0.3079524418572246,"9":0.011369956400020462,"10":0.4252334064588285,"11":0.15537582652645343,"12":-0.4915981559275607,"13":0.4933539854052661,"14":-0.2880221367194992,"15":-0.25838076646447583,"16":0.33956159330217833,"17":-0.07595974526125908,"18":0.40977720338645834,"19":0.025788505508105835,"20":0.3140216289263542,"21":0.20252753071692495,"22":-0.33556768872555803,"23":0.34849106264722995,"24":-0.03046549182176693}},{"sx":5,"sy":5,"depth":1,"w":{"0":-0.36863665132162765,"1":-0.5656009524048953,"2":-0.257579998034841,"3":-0.40335148568313334,"4":-0.2122675177187061,"5":0.5167250722904135,"6":0.2855898947431774,"7":0.7137702712084325,"8":0.1349751179657128,"9":0.2958591430693323,"10":-0.25218360369192394,"11":-0.4131337423448131,"12":-0.31977815043864466,"13":-0.7046196972184172,"14":-0.29483243012996296,"15":-0.01736567563885249,"16":-0.14734978379814362,"17":0.10299005152103621,"18":0.16238835343642793,"19":0.2627452510494724,"20":0.2730913775947081,"21":-0.12795446980155029,"22":0.5150843039585569,"23":-0.07477044967292182,"24":0.3726939308408861}},{"sx":5,"sy":5,"depth":1,"w":{"0":-0.164211491047852,"1":-0.36214081166022777,"2":-0.1191979742801308,"3":-0.018686619472254317,"4":0.2815427560323082,"5":0.10696746857361152,"6":-0.3844678188601766,"7":0.17507653195025663,"8":0.5335169595230966,"9":-0.09157730145999533,"10":-0.1205605898452648,"11":-0.10984430568153224,"12":0.260485970244694,"13":0.027184564553038113,"14":-0.09803682784275689,"15":-0.10781681001291187,"16":-0.02759752765093385,"17":0.2552424340431286,"18":0.2169223610556561,"19":-0.29624313087236054,"20":-0.14835287710243902,"21":-0.06755128027171754,"22":0.30998627873846735,"23":0.3777347806555388,"24":-0.5887870262057476}},{"sx":5,"sy":5,"depth":1,"w":{"0":0.25605255329140547,"1":0.09176316217425998,"2":0.15809964950760222,"3":-0.0756425760644271,"4":-0.196378503199866,"5":0.34101441745097427,"6":0.06855396891656576,"7":0.0682120030950732,"8":-0.5060132411351445,"9":-0.19508684799445336,"10":0.28310565168954466,"11":0.3062021282112755,"12":-0.6205945204337185,"13":-0.2210233834156732,"14":0.18567628725664004,"15":-0.11512478590030205,"16":-0.3465196711166654,"17":-0.041032229548763205,"18":0.11670828245209179,"19":0.1413388378289362,"20":-0.3784730372438292,"21":-0.3859256397858606,"22":0.1272153107136636,"23":0.26328905418422327,"24":0.4328892357609264}},{"sx":5,"sy":5,"depth":1,"w":{"0":-0.612091967621381,"1":-0.6568730038407063,"2":-1.0401239993234053,"3":-0.9338919029060145,"4":-0.5592393701847356,"5":-0.0821518036959885,"6":-0.298107038203807,"7":0.2960007863168607,"8":0.2387515672116772,"9":0.15758764638495293,"10":0.3939624594392072,"11":0.2974611021408165,"12":0.23049133655365459,"13":0.12035645826036928,"14":0.269245356771,"15":0.1610773671612007,"16":0.5182012884657705,"17":0.025364832530677155,"18":0.27218370209116294,"19":0.18361698837252008,"20":-0.055589039804790366,"21":0.031661087464435474,"22":0.2430237937487819,"23":0.0006501524472657431,"24":0.02356994907163279}},{"sx":5,"sy":5,"depth":1,"w":{"0":-0.057152749222616504,"1":0.2275277783730376,"2":-0.31296333228509565,"3":-0.1662244680203014,"4":-0.23653918182907055,"5":0.007032425938713634,"6":-0.32564703385434063,"7":0.23635480178731422,"8":0.1805843970533772,"9":0.10721914012204778,"10":0.03224057062456665,"11":-0.2556950432202634,"12":0.033314952135997715,"13":0.02474449512470156,"14":0.23951571242274483,"15":0.1928221635662372,"16":-0.06668086782232883,"17":0.13012410999683935,"18":0.19130326391319552,"19":-0.48520685356212506,"20":0.370610768974914,"21":0.24648875876701837,"22":0.15258429911914737,"23":-0.0631256090093544,"24":-0.14913068650391512}},{"sx":5,"sy":5,"depth":1,"w":{"0":-0.13842381072267101,"1":-0.2432341523785954,"2":0.2080893324941714,"3":0.5061713755469893,"4":0.6774591489089145,"5":-0.3823535423646347,"6":-0.46059089586221413,"7":-0.3620654970097816,"8":0.06763355154456219,"9":0.3748409145802647,"10":-0.17265702908339456,"11":-0.4398187733945849,"12":-0.6043727259190236,"13":-0.7742662720431038,"14":-0.38588137093526764,"15":0.7489073490886489,"16":0.47080090527744,"17":0.0015092017184112263,"18":-0.02986090900026149,"19":-0.8166620374727809,"20":0.2605922312875036,"21":0.45132387446807737,"22":0.6606602942174522,"23":0.1417626524229277,"24":-0.5232514855352949}},{"sx":5,"sy":5,"depth":1,"w":{"0":0.21360014078598114,"1":0.2963895295390868,"2":0.21435605009746933,"3":0.08161340183705441,"4":0.024151666763484077,"5":0.2479300540071945,"6":0.1510962480710248,"7":0.1619680042388977,"8":-0.1719064264233643,"9":-0.07555923905127811,"10":0.2047101500374241,"11":0.08062192991020971,"12":-0.23298825621368152,"13":0.24498293497225276,"14":-0.009699271413405321,"15":-0.06935616547957082,"16":-0.6680100775158389,"17":-0.41184021922703656,"18":-0.23890574825754793,"19":-0.08178400374319031,"20":-0.39941580909175395,"21":0.09137298120644036,"22":0.21214240932832243,"23":-0.036699473388628466,"24":-0.08711630748955004}},{"sx":5,"sy":5,"depth":1,"w":{"0":0.43400898044335495,"1":-0.07945504252270776,"2":-0.13760584913583682,"3":-0.36681588090843575,"4":0.002751118199271522,"5":0.2366265609505257,"6":-0.385455235524762,"7":-0.692251401082474,"8":0.013092462009718624,"9":0.17413726253331702,"10":-0.34276879891057266,"11":-0.509007520136567,"12":0.3706345821939538,"13":0.08675291306380527,"14":0.17704508468035274,"15":-0.3074767468914813,"16":-0.0926378306977329,"17":0.27524490941946156,"18":0.3366166551744564,"19":0.18367083495367562,"20":-0.1323364071184576,"21":-0.01800597040393384,"22":0.2094434884569119,"23":0.2700019836212548,"24":0.099422405386471}},{"sx":5,"sy":5,"depth":1,"w":{"0":0.01956395060244758,"1":0.36507026803189624,"2":-0.08872075705716245,"3":-0.053392923372192404,"4":-0.09423664199469967,"5":0.20708968661373317,"6":-0.07180928036586312,"7":0.2504127858873934,"8":-0.1768625608974812,"9":0.029973644989551317,"10":0.1353362514290644,"11":-0.2956998856049463,"12":0.05177605069312414,"13":0.1652944795601187,"14":0.03877030314598997,"15":-0.06448177611290815,"16":-0.022548007028214145,"17":-0.5077545624680095,"18":-0.8856180305941909,"19":-0.36786777142779553,"20":0.31598725323128957,"21":-0.13398259430671652,"22":0.12629691090533438,"23":0.4891044617758742,"24":0.4079463491570306}},{"sx":5,"sy":5,"depth":1,"w":{"0":0.3009331009968613,"1":-0.035984478848414846,"2":-0.25019545566763424,"3":0.32904154679165015,"4":0.4649229608372813,"5":-0.0021272867556451757,"6":-0.26347191916699025,"7":-0.35928770891459594,"8":0.13647608146072118,"9":0.5531129093385058,"10":-0.08130206541927296,"11":-0.24263571310062132,"12":-0.39862793585987033,"13":-0.4788541552110093,"14":-0.09881235979557151,"15":-0.22932129806195217,"16":0.146767049127147,"17":0.254949435620415,"18":-0.21333906640818426,"19":-0.28714847758472506,"20":0.21978677496927854,"21":0.25003193109530814,"22":-0.1796032799964812,"23":0.32241230486291234,"24":0.010368965504058136}},{"sx":5,"sy":5,"depth":1,"w":{"0":0.04234855989745862,"1":0.14385485425824,"2":-0.059583608845422985,"3":-0.2727735376406012,"4":0.27764539631823815,"5":0.22963358196342046,"6":-0.09890660634319971,"7":0.2685241071972027,"8":0.1559245254208943,"9":0.14981647192961006,"10":-0.10887384250223112,"11":0.16993288329736803,"12":0.272139011714926,"13":0.38018685084313614,"14":-0.04777177658490317,"15":-0.05012688961722914,"16":0.011967746658767235,"17":0.2626083490788263,"18":-0.009991511031638211,"19":-0.06538880819958375,"20":-0.10631587820617532,"21":-0.06195790075450503,"22":0.08344960952759634,"23":-0.47958542930352527,"24":-1.146084315493553}},{"sx":5,"sy":5,"depth":1,"w":{"0":0.31904853240860237,"1":0.07141620221079294,"2":-0.38914328359272865,"3":-0.12816828673667016,"4":0.07399734646555417,"5":-0.2813262855980087,"6":-0.1506840923276504,"7":-0.06231451660199754,"8":0.27722757904701784,"9":0.2531453661876853,"10":-0.37669600338221737,"11":0.2557947327317046,"12":-0.05874658305868746,"13":0.1532837994618853,"14":-0.02273936476475069,"15":0.1793257149004996,"16":-0.08544326233956281,"17":0.042153563705363224,"18":0.09361509013788966,"19":0.20960219520958157,"20":-0.08380234360682251,"21":0.05132578827480133,"22":0.13367611183027145,"23":-0.5478108326076988,"24":0.014639086809497938}},{"sx":5,"sy":5,"depth":1,"w":{"0":-0.5024577298314539,"1":-0.5938904720224403,"2":-0.038524207573378516,"3":-0.11481242902661895,"4":-0.026515749350697136,"5":-0.293882312410372,"6":-0.1328548107665448,"7":0.05316716755621236,"8":0.15383626351899782,"9":0.1421638477974912,"10":0.18790372461399624,"11":-0.2127041989517795,"12":0.20004638340122216,"13":0.3944996374612923,"14":0.17434622553018003,"15":-0.08081749890661001,"16":0.18303663589131375,"17":0.14532983201450356,"18":0.3298334849561491,"19":-0.04255584394394174,"20":-0.032598231560475345,"21":0.047299494287951355,"22":-0.0504527535966135,"23":0.36972924333393903,"24":-0.3221842208564686}},{"sx":5,"sy":5,"depth":1,"w":{"0":0.2213873419550508,"1":0.1736480157269279,"2":0.3494800002603968,"3":-0.11462998205048473,"4":-0.04567720859506878,"5":0.30470283791765124,"6":0.46931009273235674,"7":-0.049618018994136,"8":-0.3022948678823203,"9":0.0584828442518369,"10":-0.00005012663136677063,"11":0.3858829965268848,"12":0.17977550206390713,"13":-0.430742706765403,"14":0.00016319731860818857,"15":0.17455147859245113,"16":0.23213987657419333,"17":-0.05844620062403067,"18":0.23010171792740128,"19":0.34615240637337885,"20":-0.369302208538555,"21":-0.41712686665032817,"22":-0.6052314900415074,"23":-0.5286953731516747,"24":-0.3563784610973165}},{"sx":5,"sy":5,"depth":1,"w":{"0":-0.2831333576024589,"1":0.39841970115301073,"2":-0.13309119746718348,"3":-0.06852730746347688,"4":0.22197539061035063,"5":-0.08049490167081227,"6":-0.24645183392710307,"7":0.12033679386515089,"8":0.007919674716404212,"9":-0.3137552458490372,"10":-0.004710943049157648,"11":0.0023380892823217578,"12":0.026811438078487095,"13":0.41209212827231473,"14":-0.17058727602323825,"15":0.11360478353456559,"16":-0.15405080310627556,"17":0.08429763323318935,"18":-0.16814068033171795,"19":0.14876338853684762,"20":0.1691773515958586,"21":-0.015782244913701993,"22":-0.20204649218361836,"23":-0.3531974829982357,"24":0.4895462723712402}},{"sx":5,"sy":5,"depth":1,"w":{"0":-0.04366010384355167,"1":-0.09772703344215972,"2":0.10341443619371042,"3":0.6618481738861209,"4":-0.05972951598886071,"5":-0.09361065522803251,"6":-0.4599870210789375,"7":-0.25009192277174547,"8":0.46015901077095395,"9":0.4868541835775925,"10":-0.15257540019565363,"11":0.3435897312192654,"12":-0.1945070987348954,"13":-0.3524580745555619,"14":0.36200992210577676,"15":0.34953104426553666,"16":0.23072877917462248,"17":-0.0039154505582064455,"18":-0.3896092035532938,"19":-0.20903774977879508,"20":-0.011976715071515077,"21":0.15753889809343619,"22":0.23618170196008778,"23":-0.7092086475733312,"24":-0.5527412617439544}},{"sx":5,"sy":5,"depth":1,"w":{"0":-0.09058810240765303,"1":0.49551289787568764,"2":0.2924773838686568,"3":0.0067090306765124055,"4":0.2847070928802263,"5":0.1476470688971402,"6":-0.1937039519879398,"7":0.5873860861777341,"8":0.08331542160091558,"9":0.285076730066623,"10":-0.4920514405134075,"11":-0.15208722730806848,"12":0.08904224493202101,"13":0.2553283651164794,"14":0.2810942590456359,"15":-0.4885017849538079,"16":-0.2380498744298616,"17":-0.6702271754059905,"18":-1.0448000417384002,"19":-0.24676697320469848,"20":0.2086142112408496,"21":0.20844083421504966,"22":-0.0065376250046968575,"23":0.1625974228669565,"24":-0.778363136200123}},{"sx":5,"sy":5,"depth":1,"w":{"0":-0.3502900446505704,"1":-0.6967532658492713,"2":-0.4116609175047329,"3":-0.09774089238976875,"4":0.00800572837746537,"5":0.32392801560558987,"6":-0.012960802647712247,"7":0.3521640393787451,"8":-0.09837512778035992,"9":0.030649669083023728,"10":0.26796086365815514,"11":0.2624363195039427,"12":-0.0292092884690321,"13":0.38981732488018894,"14":-0.261496144712438,"15":-0.4054942140525014,"16":0.16881034597515612,"17":0.5460012555148971,"18":0.11434587531786802,"19":-0.09410091409189243,"20":-0.27793331312530034,"21":-0.05517031563790417,"22":-0.20186186689419833,"23":-0.11842985432683246,"24":-0.561894055555035}},{"sx":5,"sy":5,"depth":1,"w":{"0":-0.14996147038874388,"1":0.7129830560610887,"2":0.28316385924229365,"3":0.46430675675562155,"4":-0.8081798201630216,"5":0.05782743933351379,"6":0.5377666740050757,"7":0.06776804598771076,"8":-0.10529701250396238,"9":-0.5283229223470545,"10":0.24210769855370406,"11":0.2641415063594638,"12":-0.2578965132035183,"13":0.18902565928675102,"14":-0.5666151500309061,"15":0.26554558284182095,"16":0.18842819706801228,"17":-0.22004404674037,"18":0.006919569446364651,"19":-0.5984301163776277,"20":0.018779810153570345,"21":-0.15896695327270915,"22":-0.01891130100335988,"23":-0.008930049882725298,"24":-0.16052849472472788}},{"sx":5,"sy":5,"depth":1,"w":{"0":-0.06209288026903666,"1":0.19605156327753928,"2":-0.10207164877456495,"3":-0.06053826774584522,"4":0.0038647394755922776,"5":-0.12948045591706434,"6":-0.4232424433969942,"7":0.1624085091650699,"8":-0.10232208054588096,"9":0.35421705210536303,"10":0.05315148621441271,"11":-0.4771827435422366,"12":0.26017300212789773,"13":0.05662555092156673,"14":0.13743130623491362,"15":-0.10630631518618673,"16":-0.3869876257566511,"17":0.41769755070151593,"18":0.3145024657879885,"19":-0.2545162408981905,"20":-0.0008484075944090862,"21":-0.5489163653849386,"22":-0.11770120592009138,"23":0.4593855097926572,"24":0.17672461003144066}},{"sx":5,"sy":5,"depth":1,"w":{"0":0.09717534856407162,"1":0.06288877256766519,"2":-0.08446244051536868,"3":0.22861122203210885,"4":-0.2410810871176854,"5":0.20492855985383043,"6":0.16619690504036636,"7":-0.2711762244264441,"8":0.08891127122716407,"9":-0.22464676825702418,"10":0.14308549631336875,"11":-0.024464234832557902,"12":-0.15277456076830406,"13":0.1260893789201595,"14":-0.06556270121230047,"15":0.14771816838804824,"16":0.33417720844479154,"17":0.1771209800819329,"18":0.41512103847411597,"19":-0.026052302071356642,"20":-0.025825195457266845,"21":0.018285238497003593,"22":-0.2027898499234946,"23":-0.6238833452397281,"24":-0.3366864008201023}},{"sx":5,"sy":5,"depth":1,"w":{"0":0.0635375563121114,"1":0.007338511368403493,"2":-0.377137981480918,"3":-0.08955752024914646,"4":0.3276797541594408,"5":0.08018368847094007,"6":0.3069130609155419,"7":-0.13519932166778073,"8":-0.10394798963539452,"9":-0.26378837770159547,"10":0.21616452698712044,"11":0.2893709991733482,"12":-0.16387692748366703,"13":-0.18558347517575882,"14":-0.2742266353448854,"15":0.3161350559838844,"16":-0.206916962530343,"17":-0.23291140624461032,"18":0.07790197621794642,"19":-0.1475391893680534,"20":-0.6102854751510496,"21":0.28998741439892844,"22":0.3687882643908518,"23":0.09905922262686896,"24":0.1926040271461371}},{"sx":5,"sy":5,"depth":1,"w":{"0":0.3281585816116725,"1":-0.13695171342186568,"2":-0.3685724522127308,"3":-0.17320003598324485,"4":0.2836913524930459,"5":0.2055945389099971,"6":0.24824423834041948,"7":-0.4100982397115248,"8":-0.407545923544733,"9":0.24005827218260856,"10":0.25137299126457147,"11":0.26148059917342975,"12":0.08803007289019252,"13":-0.784596043042496,"14":0.166440485575647,"15":0.09672693781058193,"16":0.40065551329028737,"17":0.3104085826933061,"18":-1.2408523108936969,"19":0.31455376066781493,"20":0.08281678090155911,"21":0.3175733389450728,"22":0.2680035019202869,"23":-0.8196132797191942,"24":0.1486475193451378}},{"sx":5,"sy":5,"depth":1,"w":{"0":-0.048456629014204625,"1":0.02242779451134073,"2":-0.29525515289974735,"3":-0.1274916925693807,"4":0.15151340346987727,"5":-0.45940793467463675,"6":0.006047803024033839,"7":0.2424057320831074,"8":0.03198004871715308,"9":0.12973572305195816,"10":-0.19685940696582038,"11":0.00007516398208049727,"12":0.2249844443917902,"13":0.40403031807123063,"14":0.32072248218114835,"15":-0.3067051455978484,"16":0.19014243128353833,"17":0.42100278636056665,"18":0.15601540501122377,"19":0.051153331290913776,"20":-0.8673104608364354,"21":-0.2067003968402714,"22":-0.08804074186608245,"23":-0.020585150060502915,"24":0.19587545874194545}},{"sx":5,"sy":5,"depth":1,"w":{"0":0.28225060185393475,"1":-0.33712190180705925,"2":-0.04600168522631767,"3":0.26680408678462864,"4":0.20875299008571438,"5":-0.2250269663084043,"6":0.2218411133562069,"7":-0.18454033870835695,"8":0.21183674863694638,"9":-0.2380146816133951,"10":0.030981746463699302,"11":-0.14215412777386457,"12":0.31890336613413883,"13":0.018758006277078635,"14":-0.0412716620336079,"15":-0.07326264844051564,"16":0.2049562221943126,"17":0.13659173284187254,"18":0.3135292024524276,"19":-0.8708603924106839,"20":-0.023634016008544086,"21":0.0953083277614643,"22":0.05716886879221464,"23":0.2000025100059193,"24":-0.4846659993724087}},{"sx":5,"sy":5,"depth":1,"w":{"0":0.37237903572891234,"1":0.0741471506974785,"2":0.14403945490438358,"3":0.05701250089912089,"4":-0.2206913409873493,"5":-0.06020799329779525,"6":-0.2172415153128892,"7":0.41844352803757795,"8":0.04784963961906371,"9":0.1250620676136756,"10":0.1379978665800514,"11":-0.16519120814045563,"12":0.28310096948160945,"13":-0.0002926637478556399,"14":0.3044841326396295,"15":0.11553261027453718,"16":0.17219008324518878,"17":-0.12359891765218943,"18":0.1283128421119598,"19":0.22685298115355726,"20":0.06363500069283783,"21":-0.41768841733323336,"22":-0.3906611966243528,"23":-0.8005270763794475,"24":-0.3688508272352589}}],"biases":{"sx":1,"sy":1,"depth":48,"w":{"0":-0.04415843570510371,"1":0.18316793787075836,"2":0.16462225266357336,"3":0.2838471320650725,"4":0.42863815274719896,"5":0.14825456331981016,"6":0.2395153500210914,"7":0.22839704892184834,"8":0.054557702411166614,"9":0.06055140337446749,"10":0.18349596453160708,"11":0.15842733359855438,"12":0.1179128530261332,"13":0.1470527661927734,"14":0.09840880623250485,"15":0.15171556223095056,"16":0.08152277073584197,"17":0.1471236831524229,"18":0.11636065988407056,"19":0.24468393312226874,"20":0.13277865481113413,"21":0.4516091699800245,"22":0.31297108723537004,"23":0.17588907749034546,"24":0.24011965187137582,"25":0.3593624463725893,"26":-0.002222504027782258,"27":0.3862529966443091,"28":0.0793119568498611,"29":0.1886332286177881,"30":0.16340672429699782,"31":0.1592417583519444,"32":0.0715248367385057,"33":0.0706905321018803,"34":0.07920805618659449,"35":0.17722261353334687,"36":-0.001013272979328697,"37":0.23299067360494385,"38":0.3353826463343309,"39":0.5177883746452773,"40":0.2753664195313743,"41":0.1687328114784791,"42":0.10674792930371571,"43":0.2081331264954349,"44":0.19176104333703395,"45":0.13386084341091398,"46":0.08576693751358919,"47":0.09722877073341912}}},{"out_depth":48,"out_sx":22,"out_sy":22,"layer_type":"relu"},{"sx":2,"sy":2,"stride":2,"in_depth":48,"out_depth":48,"out_sx":11,"out_sy":11,"layer_type":"pool","pad":0},{"sx":5,"sy":5,"stride":1,"in_depth":48,"out_depth":96,"out_sx":7,"out_sy":7,"layer_type":"conv","l1_decay_mul":0,"l2_decay_mul":1,"pad":0,"filters":[{"sx":5,"sy":5,"depth":48,"w":{"0":-0.0015702936506575864,"1":-0.0003587815558217771,"2":0.01914091302693781,"3":-0.030852500653179595,"4":-0.030686237355391218,"5":-0.007355158323094028,"6":0.012738198673354498,"7":0.010237952415279833,"8":-0.05279657019888697,"9":0.007316796126728311,"10":-0.01266057954908754,"11":-0.004658022002602357,"12":0.0027027074216963726,"13":0.022912110361056785,"14":0.018865427398402423,"15":-0.04451274569864512,"16":0.03984577074642129,"17":0.0036418237810052485,"18":-0.019023112219288135,"19":0.023186885291947314,"20":-0.030776242691541156,"21":-0.038437656367933976,"22":0.007172411477348364,"23":0.00816253911131888,"24":0.021255063194066417,"25":0.05100094868853473,"26":-0.033352044481714915,"27":-0.001747590142763145,"28":0.013845863627918426,"29":0.023966798303632412,"30":-0.04596554025617388,"31":-0.020224259000855702,"32":0.006952864053805496,"33":0.021056908305923397,"34":-0.012656458557187727,"35":-0.002908774792028053,"36":-0.04181300632005086,"37":0.011496347756898326,"38":-0.028278569191309576,"39":-0.005169149133250009,"40":-0.017761940150955176,"41":0.022294443602788348,"42":0.0002449958562472784,"43":0.005224272303351395,"44":-0.027903825392015757,"45":0.03162497937130598,"46":0.03924847055202365,"47":-0.0008968529569200852,"48":0.00010742687658602073,"49":-0.028687196768614632,"50":0.0020668154400245017,"51":-0.01343140273996064,"52":-0.032442448328054284,"53":0.004679541762415059,"54":0.03849836776568194,"55":-0.011101521567933054,"56":0.017904120138585045,"57":-0.05823733272961973,"58":-0.03336941836919315,"59":-0.05808601781039325,"60":-0.04851575316797494,"61":-0.038066997745664195,"62":-0.028132312221737687,"63":-0.031806871706080556,"64":-0.05230587801918157,"65":0.01770804072794168,"66":-0.010241405237849823,"67":-0.004347013517233853,"68":0.00042316764669587866,"69":-0.007253769480140951,"70":0.003527912046373331,"71":0.001837580989218693,"72":-0.029609340655397366,"73":-0.039543796785211666,"74":-0.03086174418401683,"75":-0.04583639421620225,"76":0.0113333732726471,"77":-0.013735996520979368,"78":-0.0007847963738809984,"79":-0.019587392210292272,"80":-0.022364599407467264,"81":0.008350470261300091,"82":-0.018263316246943294,"83":-0.027540238829838585,"84":-0.023037564729723427,"85":-0.02818047092003161,"86":0.04019563748009884,"87":-0.008490138454314051,"88":0.011422235465212564,"89":-0.02662252045162857,"90":-0.038848329173253586,"91":0.0009530449600242816,"92":0.0015935029029570543,"93":-0.00925899497026912,"94":-0.03109029250882309,"95":0.009158917741188788,"96":0.02196924786980344,"97":-0.016708064336232856,"98":-0.009564923388902304,"99":0.018084650271009323,"100":-0.0017733651020457736,"101":0.028225719483531687,"102":-0.02175396293381534,"103":-0.009331354896243867,"104":-0.014689548019140578,"105":0.03159886007001469,"106":0.020454086792485178,"107":-0.006434341000816671,"108":0.039716943455248906,"109":-0.02271665088143609,"110":0.028666568499779117,"111":0.005128907895916275,"112":0.011096932728199737,"113":0.01880073022674273,"114":0.007862851024836085,"115":-0.028755375868381554,"116":-0.04451980885036434,"117":0.004285609841564659,"118":-0.05926308160973133,"119":-0.011958466903092579,"120":0.013124033582377273,"121":0.01431502503103396,"122":0.0028209004751152613,"123":0.03694318354275174,"124":-0.02828298565718988,"125":-0.03947854308809631,"126":-0.04986004576156847,"127":-0.006784161655794163,"128":0.00708531527820353,"129":-0.04900705611297922,"130":0.016071923190603313,"131":0.0640324403714919,"132":0.018551679534019132,"133":-0.02808168945708472,"134":-0.029736005854577682,"135":-0.015368361971759241,"136":-0.03183605493118463,"137":-0.00905875561923759,"138":0.009591611651396494,"139":-0.030413156208082836,"140":-0.01947653198512603,"141":-0.022016733773289894,"142":-0.02138780835212949,"143":0.0009171077939254023,"144":0.04474779175325832,"145":0.012463144117545214,"146":-0.0064183048459418605,"147":-0.009106821603239702,"148":0.018095584790172054,"149":0.025030877971958916,"150":0.02871908297344046,"151":0.0375585857130539,"152":-0.022440326547228183,"153":0.01591285158317218,"154":-0.013765312586233164,"155":-0.0066210975712526045,"156":0.022602307120176558,"157":-0.033686956248680844,"158":-0.013647113024188695,"159":-0.009437530050841799,"160":-0.014275527549081226,"161":0.016059512210466458,"162":-0.041533177218886344,"163":-0.021863846958560165,"164":-0.000722419240134697,"165":0.009645838989137134,"166":0.019208122018974642,"167":0.01645856449291357,"168":-0.02808497579041842,"169":-0.01382258037185289,"170":-0.04443937007892832,"171":-0.02088287579605006,"172":-0.0054967870334269985,"173":-0.04715301385860248,"174":-0.018496206010094662,"175":0.031135511276505056,"176":-0.026616583619667695,"177":0.009433694120599094,"178":0.003562191214263389,"179":-0.012873525242394636,"180":-0.0363784519720542,"181":0.007717320535960102,"182":0.004915285348217365,"183":-0.02605884718961389,"184":-0.026133753090138368,"185":0.012802505777485504,"186":-0.02003865542310054,"187":-0.07862269664374211,"188":-0.01876075850252502,"189":0.045015983919133126,"190":0.02606425094531044,"191":-0.0058371252642105565,"192":-0.04059079463093149,"193":0.004233295712965974,"194":0.0030435456080522144,"195":0.031207639204752745,"196":-0.02103911661755872,"197":-0.03127602016416172,"198":-0.06415584333714709,"199":-0.01367854455482512,"200":-0.005265820988665543,"201":-0.03338942210059209,"202":-0.007745453665976503,"203":0.02207465284049408,"204":-0.009961743333294434,"205":0.004469232291403506,"206":-0.013458054287914743,"207":-0.010371445748479374,"208":0.024310391244876172,"209":-0.07337095676782092,"210":-0.008977340913373563,"211":-0.0026201639290898363,"212":-0.05093966731606312,"213":0.014986886063489467,"214":-0.005243799556476686,"215":-0.03618837157533024,"216":0.009666726697956861,"217":0.0027908651361053466,"218":-0.033498982577552204,"219":-0.0029075940274317412,"220":0.006910221555181395,"221":0.013079416784792618,"222":-0.008006123710731942,"223":-0.012747214421332875,"224":0.009719729891248115,"225":-0.012791425119645984,"226":0.006565745648236607,"227":-0.033690696904315934,"228":-0.003514774147737418,"229":-0.023128961674520568,"230":-0.004107084476773692,"231":-0.0006441192938544984,"232":-0.03662672277620048,"233":0.027104672692250645,"234":-0.0577348394939433,"235":-0.007944218329970533,"236":-0.003822660126888079,"237":-0.019250929590208007,"238":-0.0027699368480838937,"239":0.022960697873136402,"240":0.009650188312945432,"241":-0.02695528986319891,"242":0.023828873406447827,"243":-0.0023736717225001313,"244":0.023996751194986052,"245":0.0008659049949206584,"246":-0.003612003876073083,"247":-0.05063302900144263,"248":-0.01819711294344623,"249":0.017453916411170466,"250":0.023644161841703742,"251":0.024061949258041237,"252":-0.005032447646961871,"253":-0.011345612519110874,"254":-0.008283451522177429,"255":0.0029192984063164873,"256":-0.012096903802642944,"257":0.010916320668060336,"258":-0.05506655184479319,"259":0.0014169565127280439,"260":-0.007517029893863444,"261":0.0049892305532571925,"262":-0.013449875581101436,"263":-0.029835416993920193,"264":0.007725319565172391,"265":0.0079647761465263,"266":-0.02043758911659959,"267":-0.006803349723271674,"268":0.0014007853172285202,"269":-0.01491110843325169,"270":-0.0459901095104541,"271":-0.02538540370043901,"272":-0.008538638885009935,"273":-0.01673543254153561,"274":-0.0595255474609299,"275":0.0027226593682408763,"276":-0.039534493877389,"277":0.006418611116735829,"278":-0.02077370686749357,"279":0.002738583405458074,"280":-0.01658904603472092,"281":-0.013563854738479889,"282":0.028015315764205795,"283":0.023106594670145118,"284":-0.013981470292480648,"285":-0.001689924467887568,"286":-0.016468229752159263,"287":-0.026222943006056678,"288":0.006392752460857147,"289":-0.02197124615907497,"290":0.02326217534321439,"291":-0.0011335797829137727,"292":-0.00951537375975436,"293":-0.026032090594352637,"294":0.010051368993645915,"295":0.004592868771103591,"296":-0.01700843016104804,"297":0.032414048865408975,"298":-0.0010233057094019122,"299":0.03170795486470135,"300":-0.04068052553689087,"301":-0.028232555953125855,"302":-0.015957304027760952,"303":-0.01970603621214068,"304":0.027998075576352414,"305":0.006514123134440785,"306":-0.045134044859112,"307":0.002730100891618555,"308":-0.01179556786725904,"309":0.0010558776599866022,"310":0.006180770097586041,"311":0.04654180155665637,"312":0.019335907192374747,"313":-0.01932745220638635,"314":-0.009842628759541781,"315":-0.01083730649079037,"316":0.024571232886334216,"317":-0.0009901382556366945,"318":-0.004691885943535577,"319":-0.019347268126906198,"320":-0.01296662809783785,"321":-0.02017577578686318,"322":0.02184045933102933,"323":0.018438381943436995,"324":-0.010022155215905148,"325":-0.024074270406295704,"326":0.018813321577384166,"327":-0.02458860797413678,"328":-0.010783957997012667,"329":0.026804675291884968,"330":0.03254485921272195,"331":0.019016026551518947,"332":0.0059366138085019,"333":-0.01531745498109512,"334":-0.014673486813431787,"335":-0.016444277076754207,"336":-0.023239710882566312,"337":0.05623423942882551,"338":-0.014285140300719208,"339":0.021794110642097467,"340":-0.043717262283686574,"341":-0.005540454690075061,"342":0.009357337669825138,"343":-0.019402361275019105,"344":0.01901578462100684,"345":-0.021430701303983918,"346":-0.026712942275376617,"347":-0.02302973484999425,"348":-0.03418864836490149,"349":0.037558539929856305,"350":0.0009017115731126225,"351":-0.006458695346164414,"352":-0.03737333065508736,"353":-0.08037332199265688,"354":-0.013200092052142435,"355":0.018087927296190548,"356":-0.0404077216843574,"357":-0.041834539901588946,"358":-0.03391189445235631,"359":0.03091336933298543,"360":-0.032845214978156845,"361":0.02416857294579646,"362":0.025702094772847593,"363":-0.005701464663769653,"364":-0.04083873674753589,"365":0.0024761994214732917,"366":-0.011900272830038151,"367":-0.02635787041999917,"368":-0.05006298459200268,"369":0.01180697695521791,"370":0.029434473844798945,"371":0.01125482558862004,"372":-0.001983021804189771,"373":-0.027451124212894456,"374":-0.04704162737126638,"375":0.02092433683701207,"376":0.033315309209046295,"377":-0.034896489908357885,"378":-0.01054125046098693,"379":-0.01923564331217294,"380":-0.01519956964619481,"381":-0.01107502056213498,"382":0.014568466650097594,"383":-0.03283824740153891,"384":0.024254686946480947,"385":0.0020441759704579415,"386":-0.0282538334171812,"387":0.05592404688723222,"388":-0.000021595972615662853,"389":-0.05762914208834465,"390":-0.0005109558279277567,"391":-0.003982864792821458,"392":0.02340895107128096,"393":0.02280814203134134,"394":0.026695167032482266,"395":0.006638093438456377,"396":0.016401426466865213,"397":-0.00593920545671848,"398":0.004942490126481829,"399":0.02574839319812783,"400":0.020257859168075692,"401":0.002902751610484652,"402":-0.040517042675435475,"403":-0.017369469438580504,"404":-0.007842340825335354,"405":0.014963612177335335,"406":-0.012780232629365786,"407":0.03446827599338382,"408":-0.023856731787463142,"409":-0.007824914483599522,"410":-0.054016059304108875,"411":-0.024201949768368827,"412":0.004260421531920502,"413":0.019826948858522583,"414":0.009486369866761551,"415":0.028810177492089813,"416":-0.03356024710769094,"417":0.036894520534022625,"418":0.0007316875378922687,"419":-0.008118274234646412,"420":-0.027836526118142548,"421":-0.03228206467417196,"422":0.005067788576682237,"423":0.004388630348800533,"424":-0.001305205051960273,"425":0.002661406714998887,"426":-0.038183081229202026,"427":-0.021053997069103814,"428":-0.03308848702198627,"429":-0.007160046623638481,"430":0.048505549075900316,"431":-0.046721268107694586,"432":0.011650490681166093,"433":-0.011977106379778548,"434":-0.015237546782281973,"435":-0.04012980012084229,"436":0.014419419087440157,"437":0.00634281560725002,"438":-0.006476261638339093,"439":-0.0009772549542090005,"440":0.02343691252101563,"441":0.02516539338462297,"442":0.028817056910902163,"443":-0.0016755034541239982,"444":0.010252725475196867,"445":0.007886601385899554,"446":-0.014088434705439063,"447":-0.0022093972010745876,"448":-0.007180059945460403,"449":-0.03471197717038136,"450":-0.0023405303767996847,"451":-0.018604283394490065,"452":-0.029205075086115587,"453":-0.01694270827989008,"454":-0.045923938580239645,"455":-0.03389097278563445,"456":-0.010964788588310905,"457":-0.014396325318081852,"458":-0.013030721518942643,"459":-0.02462753555738846,"460":0.012103111563966257,"461":-0.017930075453845475,"462":0.02821072663021541,"463":-0.0052738234796434,"464":0.0074373551910235074,"465":-0.008467237966114299,"466":-0.03956247453786931,"467":-0.019486567866418624,"468":0.010006702322269712,"469":-0.041022210596302726,"470":0.0012882548056764825,"471":-0.04741276888936247,"472":-0.033927269674744735,"473":0.000929363717146555,"474":-0.030742267011108215,"475":0.034060990287294035,"476":-0.042130428730035335,"477":-0.0109161103240667,"478":-0.008496356756948565,"479":0.02428427844817903,"480":0.08016826201836928,"481":-0.017539773303985182,"482":-0.007429365825812843,"483":0.018988350698292834,"484":-0.009654672955025423,"485":-0.0073118962179614675,"486":-0.03948999813105447,"487":0.005110589623180065,"488":0.005784011602308213,"489":-0.030487378474387202,"490":-0.017867732810540323,"491":0.0038855185645873414,"492":-0.028878162126305514,"493":-0.028928782713092745,"494":0.0240938265116255,"495":-0.006968765078252135,"496":-0.0077032951201901935,"497":0.007028207359930534,"498":0.02778591238850342,"499":-0.021208651738876712,"500":0.0047942811101202585,"501":-0.020713892241872218,"502":0.0004250966084423764,"503":0.04435162402231605,"504":-0.003980682442397882,"505":0.031093637445290267,"506":-0.03913102749604843,"507":-0.08376850457435102,"508":-0.00693031774345062,"509":-0.01595748331611433,"510":-0.0133847223988549,"511":-0.03241764614739464,"512":-0.0359941366281875,"513":0.009440689061083266,"514":0.014603992522430845,"515":-0.01782421016824346,"516":-0.009387396211283079,"517":-0.025047452269825913,"518":-0.011159609749830868,"519":-0.03194388991514353,"520":0.007617325687852925,"521":-0.00950765005556987,"522":-0.0008902721853567317,"523":0.007676142680369347,"524":0.012995098961630236,"525":0.009348621719224378,"526":0.027472366258391383,"527":-0.004285996261558291,"528":0.012164506876010625,"529":-0.035028900232604215,"530":-0.014476998242770241,"531":-0.019358776004951343,"532":-0.018081832567098954,"533":-0.005319183294599728,"534":-0.02474622409382967,"535":0.00268054500095566,"536":0.02127799475150604,"537":-0.03540755350505949,"538":0.009931183715261018,"539":0.008331590218756511,"540":-0.01864423677325601,"541":-0.00019898897089955705,"542":0.014569462015082869,"543":-0.03914980531423681,"544":-0.009872404904441176,"545":-0.05974353380058282,"546":-0.03725009140437511,"547":0.0044455892997144015,"548":-0.0682956428886655,"549":-0.010560105135669037,"550":-0.024701897874879277,"551":0.005915852416342924,"552":0.051949739289907336,"553":-0.03414715712449989,"554":-0.02750641025029201,"555":0.014874801993249084,"556":0.04835873284897209,"557":-0.004085270444016025,"558":-0.0020974501830683385,"559":0.0016469088998409616,"560":-0.021766557940772892,"561":-0.013080855936219297,"562":0.02122774017936545,"563":-0.030676753480053772,"564":-0.012350606439415086,"565":0.012432133492013204,"566":0.002300455420957448,"567":-0.0497384814233872,"568":-0.03600565513254634,"569":0.028122347451937996,"570":-0.012510347473186417,"571":0.0010099906566439362,"572":-0.007029309752426137,"573":-0.029728786999651858,"574":-0.08469902013167968,"575":-0.022432821495707873,"576":-0.06015303016469689,"577":-0.021437839943288458,"578":-0.0008897788408330152,"579":0.007498633213078184,"580":-0.0241814913962462,"581":0.012379275975577333,"582":-0.02596771836618514,"583":0.00711155642387239,"584":-0.031132222915155255,"585":-0.0130290359570111,"586":-0.03768241702296655,"587":0.0011003116199731098,"588":0.00864659748968892,"589":-0.029841303979005047,"590":-0.05017927044267031,"591":-0.01295718623177403,"592":0.021016645801028782,"593":-0.015061399097858134,"594":-0.00762716066275321,"595":-0.013667075956832548,"596":0.026849763509181532,"597":-0.02239488507901379,"598":-0.013694007972141759,"599":-0.020652975635155647,"600":-0.01500025374601926,"601":-0.0001747969453350648,"602":-0.014990747043275464,"603":0.05351026187540329,"604":0.002212116109061927,"605":0.005668321244464891,"606":-0.013405820600386555,"607":0.022469590785081824,"608":-0.01726497182269987,"609":-0.023194945537997835,"610":-0.048791891744505024,"611":-0.009825069865131849,"612":-0.012117802633939363,"613":0.0014643484463379157,"614":0.003959051306626282,"615":-0.02306077597561061,"616":-0.018216941633540356,"617":-0.028590909516318156,"618":-0.017640165432767904,"619":-0.02610220904376898,"620":0.006706909370693848,"621":0.008950272050483671,"622":0.003319304500325532,"623":-0.005283167998107476,"624":-0.0020757994410494844,"625":0.012423697166123977,"626":-0.039244166516449,"627":-0.010724292396546797,"628":-0.027938461594564958,"629":-0.006981590907681787,"630":-0.005535710728470228,"631":-0.02334963687422817,"632":-0.015427036606144726,"633":0.016039769290219705,"634":0.014163502048381859,"635":-0.002340312395300589,"636":0.009723929191382746,"637":-0.021070643618862663,"638":0.0023118245979563716,"639":-0.06206911062900277,"640":-0.005204253694768643,"641":0.01055812215527402,"642":0.012024978568441261,"643":-0.008271540100387777,"644":0.006087650223516504,"645":0.004563345688688481,"646":-0.006307998720537652,"647":0.00756360785467098,"648":0.00872220281830598,"649":-0.0040970239354791525,"650":0.019896647091895894,"651":-0.0019428887183936924,"652":0.034253635858730654,"653":-0.022175987837349836,"654":-0.04532842062378729,"655":-0.00454615222001622,"656":-0.007498185880383821,"657":0.021118874601564506,"658":-0.023129664409223347,"659":0.0010530801068871169,"660":-0.028685534883673224,"661":-0.006122133640390175,"662":0.0033457253525797093,"663":0.010644098530728452,"664":-0.0012133610453483952,"665":0.014286619097367207,"666":0.022177141711788684,"667":-0.02765131926514962,"668":-0.028839355764819857,"669":-0.01994304715929771,"670":0.020085998746237354,"671":0.0022751833124240554,"672":0.0002973103945268193,"673":0.021933717543899285,"674":0.029405883874340746,"675":-0.01564481399800833,"676":0.054240538367472405,"677":-0.031083370664025455,"678":-0.008889146351038454,"679":-0.0068338209420069785,"680":0.002702453298192527,"681":-0.007488178406221644,"682":0.02689702808858199,"683":-0.010618770220418513,"684":-0.03625095432212313,"685":-0.013563020029603287,"686":-0.021523134981409626,"687":-0.014851871441390196,"688":-0.023491834783778146,"689":-0.014513842946968933,"690":0.012091074181341342,"691":0.00047575873005872377,"692":-0.011907408032973625,"693":-0.035145729305980415,"694":-0.002993864833544198,"695":-0.007267071459114997,"696":0.015592506170361769,"697":-0.015204420783880252,"698":0.004113362733349431,"699":0.02856715945291227,"700":-0.010030028383628405,"701":-0.03396136114362439,"702":-0.007832254612424592,"703":-0.0030239207592334897,"704":-0.019452172488309164,"705":0.01113496558767716,"706":-0.00933914935673734,"707":-0.007909003967500536,"708":-0.009707456381175957,"709":-0.018549898630994526,"710":-0.052839584863848106,"711":-0.012700290058729871,"712":-0.02287514885768465,"713":0.006959112418908268,"714":-0.013577444826720454,"715":0.010990938540106474,"716":-0.010601601714134237,"717":-0.03528462403372761,"718":0.0354783615962296,"719":-0.012694385786935094,"720":-0.005331136766998455,"721":0.04360098494276679,"722":0.00669817270652858,"723":0.0244791150569593,"724":0.0181325553501822,"725":-0.03486155080227628,"726":-0.007998119412138802,"727":-0.008276914507876383,"728":-0.046097406296462404,"729":0.031470910799833884,"730":-0.0503976882888349,"731":-0.01883457363325807,"732":0.013760834471452378,"733":-0.004479517882524351,"734":-0.032739456138032315,"735":-0.05260554914820753,"736":-0.006073420484665843,"737":0.01226050008955246,"738":0.016588305806004063,"739":0.014818109695422637,"740":0.0032347017858809987,"741":-0.046089782672527876,"742":-0.008837300580410969,"743":-0.03465149451081181,"744":0.07074222664055398,"745":0.00024413499825527604,"746":-0.0021728674528605405,"747":-0.02127328621695759,"748":0.05126408531731153,"749":0.019725015918972764,"750":0.04435041030198326,"751":0.00449855421694896,"752":0.006221347891454204,"753":-0.02381433677368978,"754":-0.02470299787589405,"755":0.10394210533594539,"756":-0.039232690677009935,"757":-0.009364983579452287,"758":0.11963277940195007,"759":-0.003480565105219291,"760":-0.01914564606785818,"761":-0.005999370117987687,"762":0.015047433210059117,"763":-0.04631952508003937,"764":-0.010946326954558196,"765":0.11616495796777505,"766":-0.03200768465689007,"767":0.055575528630598614,"768":0.026927154877403794,"769":0.020212049511324284,"770":-0.022884322449795047,"771":0.014284414519548668,"772":0.04056348542666385,"773":0.02350259538696287,"774":0.022213770489626104,"775":-0.007919946130927141,"776":-0.025775991793543465,"777":-0.017622690687287966,"778":-0.018967980838405212,"779":0.04385453163517305,"780":-0.01208797817075326,"781":-0.012728419343571822,"782":0.013081087634400709,"783":0.014179909210167744,"784":-0.024184449882263204,"785":-0.0020628728715301617,"786":-0.020872503953557556,"787":0.022486464804069385,"788":0.01089027715172473,"789":-0.022126902054680507,"790":-0.02060287980481598,"791":-0.003152339257381828,"792":-0.011087289856321396,"793":-0.017381279418855353,"794":-0.06572466971264337,"795":0.002471515049955167,"796":0.06365757455015543,"797":0.021250902171011474,"798":-0.0406329947440131,"799":-0.04499753249207169,"800":-0.024819265347112658,"801":-0.042944628789320864,"802":-0.035721603593857974,"803":0.023089314515636578,"804":0.00708093307974562,"805":-0.03641570416193011,"806":0.007704097906104736,"807":-0.0027511154607177297,"808":-0.021451696273239177,"809":0.011610718523614111,"810":-0.015443729321731634,"811":-0.0018163254582768019,"812":-0.035936143007599355,"813":0.021225320507815032,"814":0.021130429295770598,"815":-0.02167633080389648,"816":-0.014364464775112525,"817":-0.0340764824521754,"818":-0.0003599158198848453,"819":-0.024849023604611737,"820":0.01630845998908427,"821":0.009539641859074575,"822":-0.020646703871371293,"823":-0.0023700479539284637,"824":-0.0027771534700371885,"825":-0.006180444313137604,"826":-0.0015628600340924332,"827":0.016788381025511268,"828":0.0209768914031778,"829":-0.005976462842991099,"830":0.031167403377633407,"831":0.00013041759270634345,"832":-0.04438697078268911,"833":0.02728795330613516,"834":0.022401738178716196,"835":0.005633780847758565,"836":-0.025123000797954462,"837":0.02850795764910806,"838":-0.03400206736391649,"839":-0.002442520179601994,"840":0.0018180606020163994,"841":-0.038117855289781746,"842":-0.003748566573275845,"843":0.008096178258355085,"844":-0.014719961168259429,"845":-0.022373092692050997,"846":-0.0396911644111659,"847":-0.03875466968246106,"848":-0.008552306205312655,"849":-0.005362119117759953,"850":-0.06386285891185012,"851":0.006636204315733159,"852":-0.02930045319598465,"853":-0.04611881439726529,"854":-0.024540497078671935,"855":0.006895260584985897,"856":-0.01303669228512172,"857":0.012528445060731199,"858":-0.04602531964827016,"859":0.03426010593259594,"860":-0.018391891680297954,"861":0.014695540805460955,"862":-0.008075493542434461,"863":0.01285878971773548,"864":-0.024422116139063275,"865":-0.009316622941603677,"866":-0.017288832101047244,"867":0.00768429696870595,"868":0.016115688299028198,"869":-0.03215986400494447,"870":0.00878002036235095,"871":0.004334985889930721,"872":-0.0053874375055363135,"873":-0.03228773475467089,"874":0.02079884390478269,"875":-0.030545019304630803,"876":0.006733268892385686,"877":-0.03763072619957714,"878":-0.006910350954276161,"879":-0.05605705307219186,"880":-0.0058121593972882465,"881":-0.005819978659748218,"882":0.003074166509652204,"883":-0.012546958852643961,"884":0.013601797412201916,"885":0.018046345860518252,"886":0.004711357161632366,"887":-0.016906932551193524,"888":-0.00040667216382565027,"889":0.014533177754356688,"890":0.008685457545463524,"891":0.007041611713570549,"892":-0.017618616819119547,"893":0.013074708765798729,"894":-0.02641991251890964,"895":0.014282644645236441,"896":-0.048758430044146095,"897":-0.031137565321865467,"898":-0.04238450209366622,"899":-0.0004243021889151303,"900":-0.050174054312334286,"901":-0.00646798394118676,"902":-0.04383279964553959,"903":0.0031021874265086376,"904":-0.004322764552536175,"905":-0.013900753439343504,"906":-0.03754243513140208,"907":0.002302182994807048,"908":-0.02667539145412393,"909":-0.013095818125507674,"910":-0.04931457135833079,"911":-0.0722766523087381,"912":-0.027764447267473045,"913":-0.036522389335852785,"914":-0.029317121230966716,"915":0.02046382067129816,"916":0.015553344212458518,"917":-0.021634764020224115,"918":0.003452109126029221,"919":-0.02891257976851649,"920":-0.02639151647448306,"921":-0.03461933458938253,"922":-0.0023311822237629108,"923":0.006021344830188932,"924":-0.005899774889400858,"925":-0.03627875058039644,"926":-0.013587766839294666,"927":-0.01867635654250745,"928":-0.005283172385384453,"929":0.02722943280262705,"930":-0.04685787054989012,"931":-0.01726552342966815,"932":0.029590831963909082,"933":0.037229419900415686,"934":-0.004841084976441285,"935":0.004865246624072941,"936":0.029299837429667516,"937":-0.01622982080153088,"938":-0.005197159709221919,"939":0.007934527714786978,"940":-0.00792971111596945,"941":0.014613445009363674,"942":-0.009488950229483898,"943":-0.036026271762223526,"944":-0.04133571116657011,"945":-0.0052489373105833554,"946":0.013829413465573018,"947":-0.03937571094399436,"948":-0.012937237909079908,"949":-0.03190938038721722,"950":-0.026108227427655555,"951":0.04874178631232493,"952":0.009171902324490633,"953":-0.03232563899751392,"954":-0.01003621273948562,"955":0.001232266809271909,"956":-0.022155343501387557,"957":-0.035429142499894366,"958":-0.022023924272174398,"959":-0.045364834877545175,"960":0.047463420370382835,"961":0.06774262852941478,"962":-0.04188272810905888,"963":-0.01490360888197631,"964":0.005408781843772707,"965":0.04411702765010321,"966":-0.008016231902615998,"967":-0.04339924769433718,"968":0.013585876902694955,"969":-0.03963040177081562,"970":0.14331000695667725,"971":0.04586427446272317,"972":-0.0775063926087639,"973":0.0671533533882487,"974":0.025640267832473328,"975":-0.01928867566900956,"976":-0.01998736867253556,"977":-0.050193210948898004,"978":0.06573809350306101,"979":-0.038888030448728156,"980":0.0031298448082411564,"981":-0.01176402942313432,"982":0.12143123124741967,"983":0.008000825695916532,"984":0.03035842790213452,"985":0.013826859302186783,"986":0.035418094210149006,"987":0.0719994053545342,"988":0.05817862931605285,"989":0.044799382444568055,"990":0.059269209476107886,"991":0.06376203291461204,"992":-0.07145764691737376,"993":0.00960626027945508,"994":0.0016808802205839218,"995":-0.03825852814402642,"996":0.01170305954660237,"997":-0.033944028185256485,"998":0.05671864550273542,"999":0.0035328659764930766,"1000":-0.07936847110729944,"1001":0.02244259271443216,"1002":-0.05088678596491384,"1003":0.06112911651465389,"1004":-0.07395150193438685,"1005":0.003974278641491691,"1006":-0.0026938448649125217,"1007":-0.03433640160320129,"1008":0.030895059125300488,"1009":0.01877536664977927,"1010":-0.07314577639463124,"1011":0.0008703208637634652,"1012":-0.02563775871813769,"1013":-0.003042082698967864,"1014":0.011027718062420377,"1015":-0.02941939728134373,"1016":0.05441032131690218,"1017":-0.02135484994598745,"1018":0.030837661528373396,"1019":-0.03208275197922586,"1020":-0.035432535030119096,"1021":0.0031045397344989924,"1022":-0.006070276359803809,"1023":-0.026991247630107712,"1024":-0.001869350121701108,"1025":0.0008096844019517108,"1026":0.014353941194439569,"1027":-0.056658944120326585,"1028":0.013196075115078984,"1029":-0.02652118014085297,"1030":-0.003960000934870595,"1031":-0.04305040663302463,"1032":-0.048433628030733124,"1033":-0.019847683636152656,"1034":0.04154163686176717,"1035":0.17031927436126348,"1036":-0.00960706174082554,"1037":0.04275189243055113,"1038":0.016040954799250693,"1039":0.06446596068395871,"1040":-0.04581474052341606,"1041":0.047310587877839885,"1042":0.0006385521887365527,"1043":-0.03580632269531941,"1044":-0.013739421773154905,"1045":-0.018123313790019562,"1046":0.08558514514277263,"1047":-0.023862262098065634,"1048":-0.023671984404501013,"1049":0.06822773151581209,"1050":0.0003028009015130157,"1051":0.001800941348625451,"1052":-0.016075061681186557,"1053":-0.02212022165917304,"1054":-0.0261122054707416,"1055":0.019663001475206502,"1056":0.022050653446498193,"1057":-0.006895313011465464,"1058":-0.05204052037448268,"1059":0.00740763097064341,"1060":0.021089409740824933,"1061":-0.04218436742338562,"1062":0.009248447804033293,"1063":0.04707773508379,"1064":-0.03817872029575267,"1065":-0.03576963678579845,"1066":0.051704067604347315,"1067":-0.03344700087409352,"1068":-0.06747024268390431,"1069":0.040453439469476174,"1070":0.020358714377966255,"1071":0.0028999617301838795,"1072":0.021866065267438225,"1073":-0.011900067294239093,"1074":-0.004960407684686612,"1075":-0.024301878587034555,"1076":0.025375796330545253,"1077":-0.03673879451129233,"1078":-0.057613365255085244,"1079":-0.021614334042740397,"1080":0.002521706918199996,"1081":-0.0016684164851275406,"1082":-0.015084258914941983,"1083":0.0609635964484012,"1084":-0.006983957692271185,"1085":-0.05306419218876243,"1086":-0.048604588982355035,"1087":0.006622517959272057,"1088":-0.026516702815171853,"1089":0.0011515198506346438,"1090":-0.05939106492262789,"1091":0.008025689160166228,"1092":-0.018682017465511323,"1093":-0.019536457220752562,"1094":0.021802606517153576,"1095":-0.028288443018221067,"1096":-0.0018361333522547403,"1097":-0.017035450386573805,"1098":-0.04011868596789357,"1099":-0.021542607637343024,"1100":-0.01784565548254177,"1101":0.020730476263550367,"1102":-0.06797981400388015,"1103":-0.04243644250717945,"1104":-0.0315596958087638,"1105":-0.020180090860087384,"1106":0.0056808779623285675,"1107":0.003836816764394442,"1108":-0.005849101340455403,"1109":-0.023564821972108723,"1110":-0.0017286837318866155,"1111":-0.009638386673137666,"1112":-0.06041587092586644,"1113":-0.009370167071745861,"1114":-0.018251224088084644,"1115":-0.01938983179315337,"1116":-0.0657047961735592,"1117":-0.04155897455416113,"1118":-0.006667594759439676,"1119":0.00038168447064718163,"1120":-0.04700994167925063,"1121":0.030275275062761384,"1122":-0.014944349210768336,"1123":-0.054805773863454775,"1124":-0.027887517495613797,"1125":-0.03940917512902041,"1126":-0.006247673334403874,"1127":0.039756374876190374,"1128":-0.013840749177962009,"1129":0.016103440381264274,"1130":-0.0546700518313737,"1131":-0.06094450426505098,"1132":-0.00832431076460641,"1133":0.011181673571898188,"1134":-0.0183880592493016,"1135":0.002970513828784143,"1136":-0.06621366873626303,"1137":0.013296145483807231,"1138":-0.03802641328204562,"1139":-0.04599329744533136,"1140":-0.03425533404400738,"1141":-0.11580475549121719,"1142":0.0005299362224954929,"1143":-0.01784669237264211,"1144":-0.07499060097611254,"1145":0.0046966488904156166,"1146":-0.03033190299143946,"1147":-0.02987333531624898,"1148":-0.03950012303521341,"1149":-0.013228614629276558,"1150":-0.03776558346645288,"1151":-0.08651532258333157,"1152":0.025523647364306828,"1153":-0.06873159270946147,"1154":-0.012809339082696405,"1155":-0.012104945438049,"1156":-0.017933130803973532,"1157":-0.043434297079487066,"1158":-0.01429584487221787,"1159":0.01870128276549295,"1160":-0.037652186296848036,"1161":-0.004437531778156336,"1162":-0.05082050679824094,"1163":-0.04200111156011077,"1164":-0.07015516334432163,"1165":-0.037282695603931444,"1166":-0.057138685657037294,"1167":-0.04147110766959404,"1168":0.04667735374639582,"1169":-0.015246967465013328,"1170":-0.06135521649822344,"1171":-0.028568858460898513,"1172":-0.02692421560573139,"1173":0.03316288150470806,"1174":-0.06008605451232973,"1175":-0.00940494034131063,"1176":-0.007819089850878114,"1177":-0.0479935221432967,"1178":-0.04234590120122681,"1179":-0.038580531981635705,"1180":-0.006710445252579914,"1181":-0.029211940366953702,"1182":-0.0334779240065991,"1183":-0.045258169609430944,"1184":0.051815102442262284,"1185":-0.002198691623562622,"1186":-0.032229158486007846,"1187":0.014152931287353425,"1188":-0.05336463430149327,"1189":-0.005167101306704241,"1190":-0.039567550092654565,"1191":-0.010317300073435913,"1192":-0.03627618012356954,"1193":-0.04519304847466495,"1194":0.05571520572354982,"1195":-0.029135378092298637,"1196":0.042964434547285164,"1197":-0.01354712581338852,"1198":-0.029819974813824715,"1199":0.030268828309225025}},{"sx":5,"sy":5,"depth":48,"w":{"0":-0.05050694467758835,"1":-0.0633292320164081,"2":-0.05226579366173391,"3":-0.07638287917046635,"4":-0.06094665572155547,"5":-0.0746514085941879,"6":-0.029111693443978365,"7":0.006478773339970907,"8":-0.05686755572866446,"9":-0.05553881394028314,"10":-0.02907114057782659,"11":-0.026694002430121853,"12":-0.019666416212326687,"13":-0.0618335818235787,"14":-0.03320826026166901,"15":-0.14084248715724962,"16":0.008424797475114142,"17":-0.003644786817447574,"18":-0.0676001733116034,"19":-0.09836396527658403,"20":-0.030177728922795948,"21":-0.07379422446974182,"22":-0.04676789206310118,"23":-0.09575810329238721,"24":-0.013236114922442437,"25":-0.04598415685888117,"26":-0.060803724412337626,"27":-0.023420821126468205,"28":-0.03974015587389961,"29":-0.08810885161708004,"30":-0.07722244308687413,"31":-0.03286696829324119,"32":0.003333974172835748,"33":-0.0020193556554868094,"34":0.019265863400671452,"35":-0.048002008364845014,"36":-0.015181501569592297,"37":0.03434032255069719,"38":-0.04252763000808597,"39":-0.008436121121849573,"40":-0.13374618705536961,"41":-0.026212623430646266,"42":-0.02187858778402414,"43":-0.06398999976785234,"44":-0.07108043378666888,"45":-0.07186947939922138,"46":-0.01890659374340713,"47":-0.06426025916292016,"48":0.0059364950458800055,"49":0.0429201236087024,"50":-0.003804961131010338,"51":-0.09528321605610635,"52":-0.07356600103602841,"53":-0.0633071195351173,"54":-0.13489051447129038,"55":-0.02142856861139182,"56":-0.045599875567649814,"57":0.020645346987498862,"58":0.00790871900819695,"59":-0.0479994156003489,"60":-0.07124187115383009,"61":-0.06447396969497882,"62":0.06450601475699513,"63":-0.08107914533327541,"64":-0.03853846316371117,"65":-0.059251118869026974,"66":-0.013609214655088502,"67":-0.07368097863149023,"68":-0.11564652981840465,"69":-0.08015339728710673,"70":-0.07579039753046232,"71":-0.07807671131345559,"72":0.03492884161266403,"73":-0.07208516590024343,"74":0.012361527298917143,"75":0.016639010618148403,"76":0.013728509792109798,"77":-0.05472637518832323,"78":0.011464889566838192,"79":-0.0335174832452778,"80":0.03555529755663697,"81":-0.02537094701160515,"82":-0.06111180774627772,"83":0.0035656647226124136,"84":-0.009812438649170592,"85":-0.028944781773511414,"86":-0.013678181721997876,"87":-0.03400493605887775,"88":0.0781421747714532,"89":-0.0007231477170554066,"90":-0.06256284019980801,"91":-0.029137020877660152,"92":-0.013320358137619805,"93":-0.11089819230770907,"94":0.027002850543915016,"95":0.009867742281420191,"96":-0.0015692397528912288,"97":0.10709336078093303,"98":-0.080667409702202,"99":-0.013633295386980878,"100":-0.07075820744598661,"101":-0.01277377610861845,"102":-0.06687746030544241,"103":-0.019647656749060962,"104":-0.014086975031049418,"105":0.038501066513666,"106":-0.045490681990574586,"107":-0.0022768719876509113,"108":-0.030437470823760228,"109":-0.022751119613610524,"110":-0.01992175664501149,"111":-0.020791277944835013,"112":-0.001492282209921658,"113":0.00010208721767517542,"114":-0.03763178811063936,"115":0.08987036235800352,"116":-0.018266098441411603,"117":-0.130952680496004,"118":-0.030036657043132603,"119":-0.07255152981599168,"120":0.08404042912541182,"121":-0.07606994783855871,"122":0.0048211869887937134,"123":-0.04315167453029218,"124":0.05261611268943796,"125":0.02950849402700812,"126":0.06452037167427327,"127":-0.04172441977549604,"128":-0.014112287484559134,"129":-0.010355456098232265,"130":-0.08390038764683015,"131":0.15153016151958215,"132":-0.04869268484187056,"133":0.01723280384931264,"134":-0.006614793982386612,"135":-0.022346254258680396,"136":0.11871856277618723,"137":-0.021397972588065528,"138":0.06921807163653604,"139":0.020945378124328895,"140":-0.028749542992319133,"141":-0.09960223730359012,"142":-0.005591062610918147,"143":0.11611061875779871,"144":0.0550451083698447,"145":-0.03169507111711199,"146":-0.00122628524371694,"147":-0.008232126781536486,"148":-0.08036419654545146,"149":0.016438983014990888,"150":-0.02484818473618022,"151":0.007636615420961502,"152":0.07343108248386761,"153":0.0071073879317063654,"154":-0.015787489385435678,"155":-0.007888216066013816,"156":0.008001373934474332,"157":0.04158442227597307,"158":0.017193273970172448,"159":-0.07117900500838427,"160":-0.005991144235801719,"161":-0.04176196361520844,"162":0.05531582528068656,"163":0.04387531293379925,"164":0.03310283971463533,"165":-0.0746274789505882,"166":-0.059959111315099366,"167":0.04198561802011037,"168":0.005652352469199702,"169":-0.11672071249643823,"170":0.01634841235927734,"171":-0.028807594730941393,"172":0.015308361348580789,"173":0.03519443210968604,"174":0.046275377544414804,"175":0.006424947261913514,"176":0.07173607336328587,"177":0.06450311404950074,"178":-0.002756264514516719,"179":-0.007652374875782604,"180":-0.05212740038305156,"181":0.08658015259292443,"182":0.10583949416961906,"183":0.06669724107370237,"184":0.004428340224143858,"185":-0.018672765032255595,"186":0.11516295742379157,"187":0.03647220877488459,"188":-0.004055934039940363,"189":0.009422889119245334,"190":0.05802830785146054,"191":0.10070470186489416,"192":0.08780912148828188,"193":0.08509594615635366,"194":0.09648009898751347,"195":-0.2245999150587677,"196":-0.1830504501535764,"197":0.10926794767163041,"198":-0.06419654281890799,"199":0.0408972742619623,"200":-0.008737842441000353,"201":0.03522228913272109,"202":0.05855750562153188,"203":-0.05614199904352168,"204":0.01617476770164383,"205":-0.024943985308998055,"206":-0.00983784956574883,"207":0.020218932841062902,"208":0.02287670687724793,"209":-0.15177435409805382,"210":-0.007114014134724009,"211":0.019523915569528833,"212":-0.13771736650877633,"213":-0.12076694676488577,"214":-0.08024872714148888,"215":-0.010305584846119544,"216":0.021183798544810756,"217":-0.26698166600775686,"218":-0.05700732821197376,"219":0.010913154026769404,"220":0.04238397524285766,"221":-0.04568934395270502,"222":-0.0026384942856626822,"223":0.05967681114274145,"224":0.11389435353987781,"225":0.023377410603951553,"226":-0.06832571306063194,"227":0.07335249542246552,"228":-0.005941638254161308,"229":0.07356277345854795,"230":0.09623372542159439,"231":-0.0026486423850033175,"232":0.03922730802271678,"233":-0.039869114841335894,"234":0.08277444993395106,"235":0.05374077906683921,"236":0.0958189888697488,"237":0.012425165894228188,"238":0.056078740099939225,"239":0.011566810888227313,"240":0.0018792099888167914,"241":-0.031804727646988724,"242":-0.06401437467212906,"243":-0.008254846149974715,"244":-0.08351510020096535,"245":0.01271332040668422,"246":-0.06900038014774341,"247":0.02938991529938765,"248":-0.045035571890912014,"249":-0.011831292312257184,"250":-0.00697503086434137,"251":-0.015177013757126063,"252":-0.07863552187228111,"253":0.0010140873383202341,"254":-0.030127553154298076,"255":-0.0557179380864475,"256":-0.05587117761501205,"257":-0.044520757613682876,"258":-0.026890480539641635,"259":-0.04798506190062882,"260":-0.02295409784870097,"261":-0.08463205428344671,"262":-0.09451307431245837,"263":-0.029439312277072697,"264":-0.03497650743306937,"265":-0.05662588725865472,"266":-0.05195535586168243,"267":-0.07714424470489599,"268":-0.021094264843063634,"269":-0.061189769585099564,"270":-0.05576690552022343,"271":-0.043705114424438016,"272":-0.039401383004670935,"273":-0.009436387145107186,"274":-0.030492518035619275,"275":-0.012724911934716664,"276":-0.05785742759043773,"277":-0.009438828037252142,"278":0.002559386433574274,"279":0.011643914632903008,"280":-0.08382650840263935,"281":-0.0372917148277011,"282":-0.04315075736984679,"283":-0.013557460355536663,"284":-0.03934725958278459,"285":-0.04670185905097227,"286":0.024296343407644937,"287":-0.026311150039996838,"288":-0.05914097466085913,"289":0.011764062147346491,"290":-0.03224853871980856,"291":-0.004141001599070076,"292":-0.07622797405438901,"293":-0.0039669862063719565,"294":-0.03050678048071468,"295":-0.004951351736132885,"296":-0.060486292012192924,"297":-0.04031894207042682,"298":-0.01396687081696313,"299":0.06285934146939422,"300":-0.0474819617945324,"301":-0.018406008742121414,"302":0.02667153650420671,"303":-0.024825103361372627,"304":-0.01695588826502877,"305":0.029944740894322412,"306":-0.044040009981795594,"307":0.0084896813156156,"308":-0.009047261909751997,"309":-0.02152200137461815,"310":-0.01933144149313312,"311":-0.015908429252955044,"312":0.066365851175271,"313":-0.035337640326371676,"314":0.0005832436563738988,"315":-0.027636595314641636,"316":0.0184234121297397,"317":-0.03547395939556757,"318":0.02190183379468688,"319":-0.0224838949490985,"320":-0.03752023621245939,"321":0.014715106112389393,"322":-0.0532030021977901,"323":-0.023387390270762906,"324":-0.0076780580956466405,"325":-0.0519090280222838,"326":-0.02103113906697975,"327":0.02334853198584438,"328":0.010550853712273949,"329":0.02526366403403804,"330":-0.021415758956333592,"331":0.014757802651798737,"332":-0.05106756387008991,"333":-0.09005650152583845,"334":0.001752859643965434,"335":-0.03832057616654256,"336":-0.005447061404349167,"337":-0.04186231744494003,"338":-0.013045206114251154,"339":0.02623926236545554,"340":-0.02647051976212489,"341":0.020971664982361353,"342":-0.03513272803811014,"343":-0.023555203194802976,"344":0.02648319665402057,"345":-0.03083605714662191,"346":0.03755592239119505,"347":0.0560444453868476,"348":-0.05806002887646253,"349":-0.02512780501463501,"350":0.06526785465967298,"351":-0.055233041211818976,"352":-0.045999956746395634,"353":-0.030277354495933072,"354":-0.025999710871565294,"355":-0.016795273704570977,"356":0.010173129531738193,"357":-0.02136726353974908,"358":0.0025810218429403024,"359":0.03303178210685691,"360":0.03802852923029346,"361":-0.07460124603752594,"362":-0.00011108209188351843,"363":0.0025026968006808645,"364":0.006531804582068585,"365":0.045726473254320395,"366":0.021928045615653605,"367":0.035947938783804874,"368":-0.05363477564375415,"369":0.01221221406374819,"370":-0.06052360569317809,"371":0.00511263574896092,"372":0.02564354921220152,"373":-0.030869148953270028,"374":-0.04189658069259748,"375":-0.0187468616118549,"376":0.07947555352917055,"377":-0.05472500863567275,"378":0.04501705574111657,"379":-0.007611481309830319,"380":-0.03130920933936579,"381":-0.02368059589269167,"382":-0.007911970991161836,"383":-0.02741517725924933,"384":0.05594768066437165,"385":0.02964112096909421,"386":-0.023409253843627454,"387":0.01864488133968286,"388":0.023588087022098005,"389":0.11174995315707394,"390":0.1044185760696332,"391":-0.05802489784046996,"392":0.01798186875433797,"393":-0.07187487222319348,"394":0.05914785891821195,"395":0.07728563555567042,"396":-0.03844405777859005,"397":-0.02247967558492907,"398":0.07818420392977135,"399":-0.08069851788275034,"400":0.018349307234919565,"401":-0.04197699196509263,"402":0.005977530706011047,"403":-0.004423979412735907,"404":0.00042897548640436384,"405":-0.035018957793975944,"406":0.07423360843888807,"407":0.029497967354629222,"408":0.0747636515196281,"409":-0.03815021552042327,"410":-0.02400898304327982,"411":0.07880164347974154,"412":0.009653557789467257,"413":0.012932922525228322,"414":0.027456573276884107,"415":0.041835340937567585,"416":0.026936622329731933,"417":0.011921203764387208,"418":-0.01448432238836563,"419":-0.05640701384622577,"420":0.028720164383279068,"421":-0.04705051019367879,"422":0.015623517458266059,"423":-0.05156754888622163,"424":0.0691826971655589,"425":0.002997922617277618,"426":0.019705786560811494,"427":0.02679279253767127,"428":0.04906941982386677,"429":-0.06292629407687737,"430":0.062154304239479354,"431":-0.10701585917409741,"432":-0.018011283655091623,"433":0.03191829112672571,"434":-0.01879282193309053,"435":0.14598373610491133,"436":0.15894047129454497,"437":-0.03452921593569462,"438":0.04559581217589069,"439":-0.026388642938224148,"440":0.004515629671658781,"441":-0.04214326710862363,"442":0.043853456070981234,"443":0.06392287636212202,"444":0.024751138326701987,"445":0.028083090328139396,"446":0.04968724367406787,"447":0.054644795166500025,"448":-0.020792866625856887,"449":0.050254701041002006,"450":0.0004565956229952435,"451":0.09972466519755796,"452":0.03453180125860877,"453":0.014780969748555571,"454":0.06305082556724016,"455":0.02994047091623641,"456":0.06755389783793983,"457":0.02802599983524362,"458":0.05699312099299475,"459":-0.06900699176392412,"460":0.009139778767693833,"461":0.08561682403289717,"462":0.06893647915003535,"463":-0.07120277703018228,"464":-0.03768787611185959,"465":0.012676816735726598,"466":0.05010872042525451,"467":-0.025296012355291296,"468":0.002992251236022905,"469":-0.10465982941928138,"470":0.0017261053657987762,"471":0.01660852432632534,"472":0.13801516367317607,"473":0.030153884975038653,"474":0.04497904472324948,"475":0.031237891934755752,"476":-0.030791924747680763,"477":-0.04362199498720903,"478":0.006698080214237896,"479":0.004085231909257418,"480":-0.00497940497550489,"481":0.012917019188564095,"482":0.058620832097132376,"483":-0.03166857163893619,"484":-0.037919805042486696,"485":-0.06216209405386688,"486":-0.07025362272201216,"487":0.008829558883981499,"488":-0.02354778693940781,"489":-0.033812838462754034,"490":-0.05973692767699473,"491":-0.026664012489467252,"492":-0.06905349112758022,"493":-0.04670783729945809,"494":-0.0010011502245248305,"495":-0.0019871538495704793,"496":-0.0436686256637724,"497":-0.02519555939362279,"498":-0.036609144779762626,"499":-0.02052381699621548,"500":0.003796399202087884,"501":-0.046982273236689756,"502":-0.012821017773092535,"503":-0.03426685116464495,"504":-0.006567679022540503,"505":-0.07979457284177918,"506":-0.03166384755078161,"507":-0.051593318185632044,"508":-0.028630690430030085,"509":-0.03130745008941618,"510":-0.02142032791162104,"511":-0.03135941735114163,"512":0.04463616197559529,"513":0.01233619670076296,"514":-0.11445678831724293,"515":0.07268088033814629,"516":-0.08581966751375443,"517":-0.02985190153247728,"518":-0.01250483379410142,"519":0.02034937312862142,"520":-0.0673849211822459,"521":-0.016258893660526314,"522":0.045663287576423205,"523":-0.04920277336403923,"524":-0.05023358794650225,"525":0.07766665824436535,"526":-0.009135402593634542,"527":-0.009129643941701213,"528":-0.04237001313989514,"529":-0.04795345094901463,"530":0.016627716188216242,"531":0.0751157016632719,"532":0.023233921123206144,"533":0.0023214402695001172,"534":-0.02123095821267054,"535":0.0061803081631429686,"536":-0.03076533498066094,"537":0.009873718577494025,"538":0.018641749044135084,"539":-0.026501000881033417,"540":0.005899982175414497,"541":-0.039083546358195394,"542":-0.02297477215312731,"543":-0.06610735573852797,"544":-0.021790259663848937,"545":0.03656718474887883,"546":0.03198800880282504,"547":0.048828496098650614,"548":-0.014586902906625147,"549":-0.03306956795788918,"550":0.045531361979919804,"551":-0.044528153989103585,"552":0.0006250275417992304,"553":0.028221438818652352,"554":0.00029458827620824994,"555":-0.03268944007318649,"556":-0.02244502685920753,"557":-0.03842574218656947,"558":0.021108845318886228,"559":-0.06485736222270903,"560":0.030010150132551167,"561":0.013200878343324233,"562":-0.07706945838467592,"563":0.04564859807186356,"564":-0.012684297533537692,"565":-0.005807470714461884,"566":0.020903240784894778,"567":0.036284191314781125,"568":0.019664752467880145,"569":-0.011098938955571222,"570":0.03689097074769718,"571":-0.03843553268228334,"572":-0.0311272799862303,"573":0.001962502297400259,"574":-0.03342143772724076,"575":0.034002888620486976,"576":0.0017072217821766994,"577":-0.019947335247949793,"578":0.012462089614687179,"579":0.05227971487468418,"580":0.07976886232730644,"581":-0.04062788654353999,"582":0.012988723387539904,"583":0.03323803348442253,"584":0.015991974623654454,"585":-0.011910838750534412,"586":0.000628137200809735,"587":0.03729393020315649,"588":-0.02280264784650553,"589":-0.012535445570724292,"590":-0.0008243119770543454,"591":-0.06812787379904328,"592":-0.004406431591608405,"593":0.0003809708350670321,"594":-0.013439560763944092,"595":0.016582990015224168,"596":0.09092559704650446,"597":0.039977110598612524,"598":0.024296883849051182,"599":-0.012223518323641753,"600":0.067221317517366,"601":0.060278033533536064,"602":0.002590997327265155,"603":-0.006690077727012948,"604":-0.05035912428027913,"605":0.029188548947664126,"606":-0.024982685344630714,"607":-0.01081093080428157,"608":-0.02423752964170755,"609":0.013464444584696537,"610":0.011259492150625956,"611":0.00045859632310186094,"612":-0.041831040483283156,"613":-0.10792107945456418,"614":-0.08006577680866261,"615":-0.009323203219196299,"616":-0.01090699118172797,"617":0.004861121428018325,"618":-0.0035198580840453144,"619":-0.0433522940900722,"620":-0.04911154891642768,"621":0.03777927108612125,"622":-0.024550511939129178,"623":0.0063204010639254776,"624":0.003725812922641072,"625":-0.06561135292161711,"626":-0.043767499116729384,"627":0.06079265716479772,"628":0.0990585600018491,"629":-0.05442562087701082,"630":-0.03129656951584209,"631":-0.028888382790375675,"632":0.02384433096720394,"633":-0.08579432081159348,"634":-0.0563310399369278,"635":0.017284831047143942,"636":-0.020740605293627236,"637":-0.0012636084869459428,"638":-0.04260073952513022,"639":-0.04040289306691309,"640":-0.023319398826348942,"641":0.025343058268608838,"642":-0.024324174580698264,"643":-0.02476567966699635,"644":0.06569117770892334,"645":0.08687100483050994,"646":0.07786126561814505,"647":0.03670262155958457,"648":0.05562068568935018,"649":0.09132554465734567,"650":0.03270622780038314,"651":-0.026289533583905508,"652":-0.05925166766550729,"653":0.02077718657998651,"654":-0.004755154006623201,"655":-0.0022254300098445137,"656":-0.007105091984894548,"657":0.042559682363973145,"658":0.07873190780442156,"659":-0.0018706991150237858,"660":0.003319734560154885,"661":-0.05002305428753618,"662":-0.0033912184742467977,"663":0.049985622644078874,"664":0.019633913670255475,"665":-0.004482500015721103,"666":-0.0029312457046390297,"667":-0.010672330615178749,"668":0.019191920553706394,"669":0.07393349128287603,"670":-0.042208221340788346,"671":0.01706096812852022,"672":-0.0051352884573183785,"673":0.011534857406912078,"674":-0.0597916479678814,"675":0.07142144593055183,"676":0.11761786381159967,"677":-0.0031881992035767024,"678":0.03870319203764107,"679":0.018770170783686934,"680":0.0011000770573465902,"681":-0.04192760946189773,"682":0.021076693051753092,"683":0.022418233190438026,"684":0.03011693769598456,"685":-0.005465464818754976,"686":-0.016866237237535567,"687":-0.03148289695006983,"688":0.014668504075021831,"689":0.049350423694307054,"690":-0.02565917091965871,"691":0.040479171728454874,"692":0.043663267864496064,"693":0.14239976790884695,"694":0.025122448949471764,"695":0.04785324974649139,"696":-0.02839250115950418,"697":0.10037963685453581,"698":0.05919192468107156,"699":-0.04439936985965151,"700":0.006281663246474884,"701":0.06707025995705054,"702":0.0045952514482208405,"703":-0.0428269533570176,"704":-0.012382058758314034,"705":-0.014998127844179074,"706":0.07797027044677386,"707":-0.020277824987855936,"708":0.023421776106573783,"709":0.00613444742747483,"710":0.015383440321423927,"711":0.038904124832586144,"712":0.02456520407721497,"713":0.05918962750090795,"714":0.01952356766253059,"715":0.00686083377703768,"716":0.07772262217741002,"717":0.05263481795761978,"718":-0.008462521456004743,"719":-0.006697163350354848,"720":-0.0064521253347970976,"721":0.04229533808314923,"722":0.015174499808446661,"723":-0.01873881075057636,"724":0.017041080669569685,"725":0.027698258482056023,"726":0.024814979371434634,"727":0.004488764571727178,"728":-0.024627860815018686,"729":0.026596227045757977,"730":0.09775567939599313,"731":-0.006833041203561569,"732":-0.01863120900553752,"733":-0.018639113818342077,"734":0.020239931707129746,"735":0.028890777824294934,"736":-0.05664534939944791,"737":-0.033955566652758756,"738":0.03699506622112576,"739":-0.022890156849468525,"740":-0.03481130926010658,"741":-0.05353501107858549,"742":0.07820917086425005,"743":-0.040542839746994526,"744":-0.10747123296196671,"745":-0.015415559394122879,"746":-0.0026710534540883854,"747":0.041714183485629185,"748":-0.010060198315924522,"749":-0.0356798987546692,"750":0.08561289822217982,"751":0.05030443946824212,"752":0.019519616324975276,"753":0.00803357363839372,"754":-0.030747316037352822,"755":-0.004511280898772317,"756":-0.021790381403524295,"757":-0.02731919239046475,"758":0.10250593596566883,"759":0.011571187217207868,"760":-0.02307952042999705,"761":-0.062470775550400016,"762":-0.06534055748129959,"763":-0.06299438334634279,"764":-0.09202413500361392,"765":0.0935441382259826,"766":0.016371405183939085,"767":-0.02002025007087451,"768":0.06321372830003529,"769":0.03610418984338502,"770":0.04645485111973965,"771":-0.0056737428337092265,"772":-0.006485458608776499,"773":-0.05594642525637095,"774":0.05725083924313137,"775":0.0022535269960905955,"776":-0.047543936531751874,"777":0.03927262543945389,"778":0.032408099293346926,"779":-0.07804605331295024,"780":-0.019385320211691613,"781":-0.05787866641191711,"782":0.08518021176580391,"783":0.00462900474819832,"784":0.03660398722379196,"785":-0.027040912208892837,"786":0.12064221779422166,"787":0.040653647306424304,"788":-0.019524050978730778,"789":-0.022575030683874186,"790":0.10291031187814059,"791":-0.06027549962109303,"792":-0.01715398492463106,"793":0.03642684847179166,"794":-0.007826354597320414,"795":-0.00933561149048072,"796":0.08043428659414228,"797":-0.032944797082244195,"798":0.001252322413768935,"799":0.049156632441397265,"800":0.07208211088413258,"801":-0.02609709917002541,"802":0.010841614652025246,"803":0.0684609737851697,"804":-0.049141804491735615,"805":0.003974028327955258,"806":0.11195709784527466,"807":-0.0008890628744597206,"808":-0.003859164963039208,"809":-0.003998943389302754,"810":0.027256158227712223,"811":-0.028328540697200665,"812":0.06150305393761914,"813":0.01917990022474771,"814":-0.026065777707647435,"815":0.021433949856799528,"816":-0.0037180372077454784,"817":-0.009221619667993898,"818":-0.0329817968817943,"819":-0.01634354236791417,"820":-0.03859847449016029,"821":-0.035265141252719734,"822":0.04969069273022435,"823":-0.041834334499098944,"824":-0.012332211427635182,"825":-0.051507430952331026,"826":0.01282217987864716,"827":-0.021217147496042747,"828":-0.022383394102138788,"829":-0.07425154160297179,"830":-0.011161911879735661,"831":0.09143558829103526,"832":0.02039798579821937,"833":-0.00746889185013159,"834":-0.020804961314948814,"835":0.04423870122669153,"836":-0.04914374881671459,"837":-0.039511900847641765,"838":0.031066148036502345,"839":0.07993725672549533,"840":-0.07345577578609,"841":-0.0380852612299368,"842":-0.02119793389624302,"843":-0.018564022566083034,"844":-0.05181951411732527,"845":0.02508255885225869,"846":-0.018388690402192254,"847":0.02822170802075134,"848":0.05154546265484214,"849":-0.005730880554434658,"850":-0.05343025137330649,"851":0.002421586032478276,"852":-0.0579050707169123,"853":-0.0045836722371549905,"854":-0.010768585307527894,"855":0.03988477718467509,"856":-0.12127967456918637,"857":0.07505071226629387,"858":0.010113207645325483,"859":-0.0703681880074426,"860":0.01602344728093092,"861":0.05093434310500885,"862":-0.07529690428620865,"863":0.0061399259728301845,"864":0.04579180275601261,"865":-0.041905961906122585,"866":0.05336327113177925,"867":0.0003653929461144208,"868":-0.03865470406747259,"869":-0.0027956589445421952,"870":-0.021795931597189695,"871":-0.015613982125381709,"872":0.009719049908446577,"873":0.025864007937886176,"874":-0.020449384554623633,"875":-0.04983362395208145,"876":-0.05381341719779682,"877":0.00969740994658923,"878":-0.015968640382498882,"879":-0.0012092849238373713,"880":0.00977956280332979,"881":0.04605504310880447,"882":-0.04636668989996713,"883":0.036917441388120746,"884":0.026252459131961038,"885":-0.022604085758428556,"886":-0.04536977780639193,"887":0.008521012539643968,"888":-0.0004839995069228912,"889":-0.06269154593864,"890":0.02088238115423545,"891":-0.016923508743306583,"892":-0.07048731348218767,"893":0.008046495284733403,"894":-0.0607193740358514,"895":-0.01934511417215932,"896":-0.015393598308255695,"897":0.04062895003962025,"898":-0.020005651807728488,"899":0.06189726385313075,"900":0.011760705899544378,"901":-0.02081632697563159,"902":-0.054004979611063125,"903":-0.005463627911860563,"904":-0.007558254596784929,"905":-0.031061556682677266,"906":0.08513305821708583,"907":-0.015184154231228434,"908":0.00922882079441583,"909":0.06601679480281464,"910":-0.008369185108203144,"911":0.09600471741774448,"912":0.013959607455781006,"913":-0.001137434353460687,"914":-0.01837987525136007,"915":0.027388773321346677,"916":-0.06632140829619598,"917":0.09499543414844938,"918":0.021751081647409003,"919":-0.022532699988061865,"920":0.002937884689343582,"921":-0.05678976724482283,"922":-0.05069835581012983,"923":-0.007371894687758374,"924":-0.007089740994502538,"925":0.01764692734417671,"926":0.015352016660941848,"927":0.002086530516429293,"928":-0.035114150238219975,"929":-0.024026626964855483,"930":0.013884456029803992,"931":0.013907875861303813,"932":-0.015184169394390433,"933":-0.06354933173405568,"934":-0.021068360862580023,"935":0.01291407978337713,"936":-0.04801925616506304,"937":-0.03743019387571985,"938":0.03269223757050764,"939":0.019059332858613026,"940":-0.07515467666153554,"941":-0.010005536918055571,"942":-0.0888691488039047,"943":0.01798878873951423,"944":-0.018146265072296445,"945":-0.015255893424446467,"946":-0.002780453894414467,"947":0.018451974299322813,"948":-0.01746211786784075,"949":-0.0381586878012307,"950":-0.04513747484501602,"951":-0.040774367832714084,"952":-0.027472146093083367,"953":0.035830126413722165,"954":-0.011754163740276326,"955":0.03138349996228393,"956":0.01657861308159302,"957":0.08401229357388709,"958":-0.011708643351677829,"959":-0.02259765275723608,"960":-0.07817711708323166,"961":-0.12087752209936015,"962":-0.02826751935256752,"963":-0.007518118918243486,"964":0.08256039571925278,"965":0.05253418720356894,"966":0.05524552823363555,"967":-0.018280562919738612,"968":-0.005431799398742272,"969":-0.07736903725953803,"970":0.04009385165407567,"971":0.14878824231362364,"972":-0.03800602712487018,"973":0.11150521003690465,"974":0.033088604986101715,"975":0.03550843967984607,"976":-0.060870162769162066,"977":0.03449137969019496,"978":0.0024037079805105236,"979":-0.09902312926472918,"980":-0.02521655299772753,"981":0.04475614595669124,"982":0.09534516729862624,"983":-0.0016532879733818233,"984":-0.0957848230536515,"985":0.11360681682308656,"986":-0.0019853355291950237,"987":0.0286253975685084,"988":-0.07599059367324541,"989":-0.02596263121290211,"990":-0.044186497576546385,"991":0.03459493729123794,"992":-0.06038769635288412,"993":-0.1103015578975038,"994":0.07026629499946059,"995":-0.164458323778094,"996":0.007106162753212038,"997":-0.11628680250429028,"998":-0.0010184580357074746,"999":-0.009773762553802407,"1000":-0.07925391611568264,"1001":0.044283058038115754,"1002":-0.05641365130591477,"1003":-0.06158342230098676,"1004":-0.04254600804732416,"1005":0.011771324711982955,"1006":-0.015727028746509247,"1007":-0.05570357828750052,"1008":-0.000832718009835135,"1009":-0.04595911498331274,"1010":-0.03416822085791258,"1011":0.021030698791568634,"1012":0.06033131594891434,"1013":0.005686547383844161,"1014":0.07286043728360359,"1015":-0.04787703343685442,"1016":0.023302184834402162,"1017":-0.05586852195583489,"1018":0.06853169742047292,"1019":0.015490149531010206,"1020":-0.007633703778506285,"1021":-0.08793040594948959,"1022":0.007503096488114706,"1023":-0.06560506036863015,"1024":0.038444223577082,"1025":-0.014761406808073911,"1026":-0.007434364606140734,"1027":0.003497013064202505,"1028":-0.028224148754764287,"1029":0.03916832500734033,"1030":0.04306143803804166,"1031":-0.027547881394628833,"1032":-0.10337238804310642,"1033":0.11426033323848243,"1034":0.03107146197273537,"1035":0.1106512819285482,"1036":0.005481792825945194,"1037":-0.08744907587060216,"1038":0.037689361662480304,"1039":0.06595044354179327,"1040":-0.03340243436048838,"1041":-0.01228997074457198,"1042":0.027874243123901535,"1043":-0.042727501424748265,"1044":0.006741427937759427,"1045":-0.06598070602944708,"1046":0.07343154162143153,"1047":0.009014838001748841,"1048":-0.07556405606994411,"1049":-0.028415684470003942,"1050":-0.012357302439640162,"1051":0.010677955708886216,"1052":-0.0028283280649050837,"1053":-0.11227595888725388,"1054":0.005530752409047327,"1055":-0.04647338053635977,"1056":-0.03950793729125779,"1057":-0.020077849475740105,"1058":0.029465852663709758,"1059":0.0012688247175464892,"1060":-0.08763513203844919,"1061":0.0049800656344343676,"1062":0.1375531774200551,"1063":-0.02779741337391024,"1064":-0.03999221155740467,"1065":0.01248265584568815,"1066":0.1003737843869017,"1067":-0.014664069789954584,"1068":0.04471818808032074,"1069":0.060906539210453414,"1070":0.04469278095872774,"1071":0.06425164716304961,"1072":-0.010893895541761504,"1073":0.043842715997676154,"1074":0.08582422328767822,"1075":-0.035241962140616645,"1076":-0.06265613279308478,"1077":0.10149686097666172,"1078":0.004271284504650068,"1079":0.055648654258754995,"1080":-0.11459289664757634,"1081":0.030822243051864623,"1082":-0.04053164960195328,"1083":0.05784880686182969,"1084":-0.04080675643405424,"1085":0.026569283764683094,"1086":0.041191463734399865,"1087":0.01904498612632635,"1088":-0.10636940923582248,"1089":0.05329151813625851,"1090":0.01698186328031961,"1091":-0.06366817373026425,"1092":-0.001236077178653048,"1093":0.005411271021650837,"1094":0.043421926810401384,"1095":0.011085620824768055,"1096":-0.0737801322794471,"1097":0.00540251998309282,"1098":-0.03077732465886144,"1099":0.035895465485058974,"1100":-0.04103941578524666,"1101":-0.03434381429467742,"1102":-0.032360779194496675,"1103":-0.038503916474654926,"1104":-0.00911823216525659,"1105":0.01582335947020866,"1106":0.057244619728051366,"1107":-0.060479426270010815,"1108":-0.08679459214412037,"1109":0.03512567397725033,"1110":0.03669441497500897,"1111":-0.007815065077329536,"1112":-0.02103372318527454,"1113":0.022201827943201812,"1114":0.09111227755824894,"1115":-0.08430420434707259,"1116":0.037403779891892135,"1117":0.043037713695654053,"1118":-0.026792607114491752,"1119":-0.013869261676562333,"1120":-0.03103732781825585,"1121":-0.02436123295303035,"1122":0.05596249766450474,"1123":0.002585699541353798,"1124":-0.012276984355649851,"1125":0.014814366867251174,"1126":-0.03465867692481611,"1127":-0.0039708350006716665,"1128":-0.05099996769648065,"1129":-0.04915808887828143,"1130":0.021841823443123177,"1131":0.043431447818436615,"1132":0.03207603765936785,"1133":-0.08252283511056253,"1134":-0.009227912962897598,"1135":-0.02092474681907877,"1136":-0.009600064758624505,"1137":0.005618600584902999,"1138":-0.0409742393001441,"1139":-0.026198236997844133,"1140":0.007557003433778372,"1141":0.06366897014029618,"1142":0.0006518796681054894,"1143":-0.010858560242604681,"1144":0.004241524325105855,"1145":-0.020141668554176116,"1146":-0.0038977714415238903,"1147":-0.014037549958260339,"1148":0.09771480276626715,"1149":0.059780026439671036,"1150":0.05234793587707041,"1151":-0.008122723322716323,"1152":-0.014947060510459964,"1153":0.034046264998064305,"1154":0.02039755906715682,"1155":-0.0019458721109922687,"1156":-0.07741024086660124,"1157":-0.019664196341221542,"1158":0.10017110031692827,"1159":-0.04344743722385728,"1160":-0.0505132530160756,"1161":0.0006341441428461891,"1162":-0.04483796308641424,"1163":-0.09173835343619595,"1164":0.04810368897290639,"1165":0.022743722070884344,"1166":0.027167259367336567,"1167":0.11917878410294784,"1168":-0.005946780845439583,"1169":0.03495270059505415,"1170":-0.036055461204251876,"1171":0.016810395437202353,"1172":-0.0007894101025758189,"1173":-0.01794473303724497,"1174":0.016599996367543005,"1175":-0.049640233992585506,"1176":-0.010590812861548317,"1177":-0.04792104256461704,"1178":0.0006573638033512478,"1179":0.01884114178686128,"1180":-0.06375544226971748,"1181":0.018419706572075454,"1182":0.03845710823661706,"1183":0.0144967161873232,"1184":-0.10977185683597097,"1185":-0.04420140054783951,"1186":-0.0406562547103798,"1187":-0.06318378141850903,"1188":-0.03088110219989095,"1189":-0.05817052227667767,"1190":-0.08190770995752303,"1191":-0.06496425947967656,"1192":0.03320712689218846,"1193":0.09725228402301754,"1194":-0.03196059066973808,"1195":0.00542195031100263,"1196":-0.0009151733741610932,"1197":-0.03741256865510722,"1198":-0.05489944173333711,"1199":-0.07144890391731805}},{"sx":5,"sy":5,"depth":48,"w":{"0":0.018734783002398177,"1":0.0721516653744044,"2":-0.05014876219609879,"3":-0.00640353839575289,"4":-0.03903508396190343,"5":-0.024271246193417032,"6":-0.031126109916866165,"7":0.012790179523460407,"8":-0.013681665581232039,"9":-0.031548061658708895,"10":0.013112115003538531,"11":-0.0008442314008114687,"12":0.008340726860279118,"13":-0.04849922946805879,"14":0.006133959637078458,"15":0.02426306314767672,"16":-0.042724176846871284,"17":-0.017173730842739952,"18":-0.017351968382314138,"19":0.040940279753105345,"20":-0.005491379999094371,"21":0.01996520213597383,"22":-0.030007538962518614,"23":0.006990944363292564,"24":0.01851776375761422,"25":-0.0015056222397588478,"26":-0.030541099821375605,"27":0.018871382215918782,"28":0.0546109411102472,"29":-0.006056031540804935,"30":-0.004921853860626464,"31":0.03357294552404191,"32":-0.009749687898763756,"33":-0.010992828933634456,"34":-0.01327215243126169,"35":0.018920075326160486,"36":-0.005370467932113579,"37":-0.008823418556962996,"38":0.02947941756935548,"39":-0.030243858626182486,"40":0.03234660385386095,"41":-0.04766229398076618,"42":0.04992937430598528,"43":0.04395329359958737,"44":-0.017451420711135895,"45":-0.029038010962382472,"46":0.01276852776159362,"47":-0.008032436731409841,"48":0.0015353443301092443,"49":-0.007295227444347014,"50":-0.022725664834128075,"51":-0.02814618107865509,"52":0.01959913634416686,"53":-0.05806622266695616,"54":-0.003912543859426917,"55":-0.0018347655404477082,"56":0.005862583826635235,