{"layers":[{"out_depth":1,"out_sx":26,"out_sy":26,"layer_type":"input"},{"sx":5,"sy":5,"stride":1,"in_depth":1,"out_depth":8,"out_sx":26,"out_sy":26,"layer_type":"conv","l1_decay_mul":0,"l2_decay_mul":1,"pad":2,"filters":[{"sx":5,"sy":5,"depth":1,"w":{"0":-0.9223355782944771,"1":0.11627686791163376,"2":0.2058243800591865,"3":0.008766747158544842,"4":-0.7493497123411617,"5":0.38699343651690143,"6":0.028956025409191784,"7":0.4722874262368187,"8":0.1276480405571012,"9":-0.7601054467321788,"10":0.16645180963655776,"11":0.3937742101236541,"12":-0.03366276048571723,"13":0.388227478158312,"14":0.04353764647268139,"15":-0.14286356767716873,"16":0.35946623257541105,"17":0.28219064411301437,"18":-0.38712070094204937,"19":0.026791610947025386,"20":-0.07552872156918448,"21":0.39401615959279646,"22":-0.2968844196409185,"23":-0.4601328094367602,"24":0.15880966952519104}},{"sx":5,"sy":5,"depth":1,"w":{"0":-0.12176907985759106,"1":-0.16606335210806256,"2":-0.3027740328102444,"3":0.3264160412414249,"4":0.44778113549154247,"5":-0.42785313531571845,"6":-0.3362365050244366,"7":-0.16481027342141663,"8":0.29407952685880945,"9":0.5067434608108616,"10":0.03837104427509553,"11":-0.9742828673160726,"12":-1.5368872636135926,"13":-0.2112238602905743,"14":-0.0031829679141800655,"15":0.8416889071482782,"16":0.2676745856911137,"17":-0.6483716551424276,"18":-0.007910712573032799,"19":0.5710667045797305,"20":0.7640069321575833,"21":0.4650530917595064,"22":-0.6109833339694604,"23":0.05975475325299815,"24":0.3015201624064735}},{"sx":5,"sy":5,"depth":1,"w":{"0":-0.23363390273988996,"1":-0.15843067965489094,"2":0.36629491648863705,"3":-0.5404469660027597,"4":0.650244884857446,"5":0.03358066662264589,"6":-0.39597092190303207,"7":0.4406888312076624,"8":-0.2372667529974049,"9":0.48876129078254554,"10":0.04089584314383152,"11":0.0832644370503936,"12":-0.5046862132706014,"13":-1.1036084653891185,"14":0.5335277634714509,"15":-0.07034932579871052,"16":0.3637376554239784,"17":0.4820682425046822,"18":-0.878082156603296,"19":0.011047840407961335,"20":0.4422356218358127,"21":-0.05847402889662732,"22":-0.007571896178893787,"23":-0.4403518411718497,"24":0.3894756725738822}},{"sx":5,"sy":5,"depth":1,"w":{"0":-0.38066466018029993,"1":0.09529789372213182,"2":-0.22015740415667304,"3":-0.7427113359883755,"4":0.09616342714545419,"5":0.21147990311578385,"6":0.3292426678912177,"7":0.1535113717706526,"8":0.3232963546445816,"9":0.7212948239206178,"10":-0.43418217754357097,"11":0.3094982960833478,"12":-0.48164136600981644,"13":-0.38319245664551993,"14":0.21728485467096464,"15":-0.029587340861406512,"16":0.3426539847817138,"17":-0.4842677313980129,"18":-0.6799698324344626,"19":0.21196273943177926,"20":0.2336348856157707,"21":0.42911734246036387,"22":0.21079412825910276,"23":-0.4344415844431598,"24":0.20783733899743556}},{"sx":5,"sy":5,"depth":1,"w":{"0":-0.06095804592498434,"1":-0.2551252334516083,"2":-0.5450991292048687,"3":0.6855783981788837,"4":0.5804148378387636,"5":0.22092112327496802,"6":0.2658105816114718,"7":-0.36173345363085585,"8":0.578700567537616,"9":0.6717565278505719,"10":-0.10438067957576665,"11":0.27511742916349985,"12":-0.11677734567923602,"13":0.5651159229993654,"14":0.5112914135325668,"15":-0.32735931254765155,"16":-0.09950230522957901,"17":-0.08004086591835528,"18":0.16150491558310576,"19":0.49917213123995297,"20":-0.5533446702250483,"21":-0.5566592451221667,"22":-0.673361467674376,"23":-0.7234622983807173,"24":-0.38808477764312554}},{"sx":5,"sy":5,"depth":1,"w":{"0":0.3420874800242386,"1":0.04139766917384041,"2":0.221641440702578,"3":-0.5781656570558311,"4":0.21406234331142818,"5":0.6491386960781911,"6":0.6848159954520238,"7":0.20337838107464426,"8":-0.7431536924721539,"9":0.3523455346018489,"10":0.4349534759118237,"11":0.3407506302071239,"12":-0.3709305467973581,"13":0.20166724580068063,"14":-0.456021573566421,"15":0.17400659200375476,"16":0.1365170428567626,"17":-1.031791564069691,"18":0.093267847142306,"19":-0.23880462730309487,"20":-0.35983150304479533,"21":-0.39622787158035055,"22":-0.026333394927252556,"23":0.1627985593141326,"24":0.12120629529280219}},{"sx":5,"sy":5,"depth":1,"w":{"0":0.19527392610645888,"1":-0.5161652223615893,"2":-0.474502738065672,"3":0.13711176370977524,"4":0.594034297362943,"5":0.41195000627126077,"6":0.5791476733653509,"7":-0.47983720761775944,"8":-0.7744967687102232,"9":0.22479903785855493,"10":0.36486113054245267,"11":-0.4887751928776518,"12":-0.0168504103106675,"13":-0.7773230321833016,"14":-0.6472202081693349,"15":-0.5852366087718475,"16":0.2387229447932927,"17":0.06842725740641135,"18":-0.3443927733107214,"19":0.38741727051917646,"20":0.23966087697816715,"21":0.039968779383791786,"22":0.5081255583494859,"23":0.42285951458851595,"24":0.2681593089048091}},{"sx":5,"sy":5,"depth":1,"w":{"0":0.3691370160418198,"1":0.3573715743935922,"2":-0.5337615659667054,"3":-0.2826729311596732,"4":0.021785241581419885,"5":0.014242291962640418,"6":0.5701961481541249,"7":-0.40513663535251165,"8":0.02803607148116041,"9":-0.31385414427213343,"10":-0.592572951045001,"11":-0.4781144695231833,"12":0.27370577937110474,"13":0.55738398391343,"14":0.3624351377948223,"15":-0.40341842737997374,"16":-0.32070483772131037,"17":0.3699071153168066,"18":0.25407020482187953,"19":0.433494810356489,"20":0.45074403050591433,"21":-0.2422263584186499,"22":0.29985841848007727,"23":-0.6057733555363348,"24":-0.5290778069977259}}],"biases":{"sx":1,"sy":1,"depth":8,"w":{"0":0.1927475523858794,"1":0.5754965410185192,"2":0.36251882076538944,"3":0.11013135941422798,"4":0.19521775888229922,"5":0.15290997161329198,"6":0.41055110364707703,"7":0.2564945972265365}}},{"out_depth":8,"out_sx":26,"out_sy":26,"layer_type":"relu"},{"sx":2,"sy":2,"stride":2,"in_depth":8,"out_depth":8,"out_sx":13,"out_sy":13,"layer_type":"pool","pad":0},{"sx":5,"sy":5,"stride":1,"in_depth":8,"out_depth":16,"out_sx":13,"out_sy":13,"layer_type":"conv","l1_decay_mul":0,"l2_decay_mul":1,"pad":2,"filters":[{"sx":5,"sy":5,"depth":8,"w":{"0":-0.4487342180887132,"1":-0.010811685961316982,"2":-0.04086244212145243,"3":-0.022712635493149932,"4":0.1337691610206898,"5":0.14882992576878945,"6":-0.14552847873231925,"7":-0.03223401741396334,"8":-0.12848748305015606,"9":-0.32619147489144845,"10":-0.20282284242506468,"11":-0.3937725554016155,"12":0.007551177917498865,"13":-0.006631281310993314,"14":-0.35474507334164335,"15":0.055676976831962204,"16":-0.2328051303205465,"17":-0.10972522265490284,"18":0.22731163937367724,"19":-0.18221107920699936,"20":0.343357351227818,"21":0.17506906443217696,"22":0.06695912661448489,"23":-0.14377956060181768,"24":-0.09035335109656,"25":-0.13121874572683573,"26":0.1207912424393279,"27":-0.35241005587180435,"28":0.11453148100439851,"29":-0.0628501864787469,"30":-0.05358901219626052,"31":-0.021091836692995396,"32":-0.2787263061950621,"33":-0.06924363981915546,"34":0.14279229920405198,"35":-0.25481649715003135,"36":0.052810454227026675,"37":-0.12846002355197397,"38":-0.16102106218947806,"39":-0.26454297699018536,"40":-0.15098969664274,"41":0.3807678436607423,"42":0.30486644512408173,"43":0.03598314524521433,"44":-0.07900836519753505,"45":0.131601473716723,"46":0.17383221462457987,"47":0.17931583172557536,"48":0.172445089604725,"49":0.34842913101082357,"50":0.10020583162973991,"51":-0.06530310502214456,"52":0.06986114832929871,"53":-0.11827472074962708,"54":-0.201604812163894,"55":0.4262991615065459,"56":-0.0006186986387812625,"57":-0.3126914231681503,"58":0.0000013886666796078485,"59":-0.1966229301957704,"60":0.02257877007918996,"61":0.6781901026302072,"62":0.6477719521446238,"63":0.06228791135423546,"64":0.13664416908896812,"65":0.24465823299728626,"66":0.4435496182111111,"67":-0.28780506151477947,"68":-0.3303083168042699,"69":0.26831109075371345,"70":0.513985192906897,"71":-0.21360226967871707,"72":-0.13033835098042834,"73":0.5209880069203978,"74":0.3659087807517789,"75":-0.10462671215368408,"76":-0.03147449657658241,"77":-0.6478014114501796,"78":0.32003263698230666,"79":0.7282345840741048,"80":-0.0018494960609791858,"81":0.16796219488399647,"82":0.14440820497735304,"83":-0.06637004673110337,"84":-0.20277458856810934,"85":0.325592825531537,"86":0.2323448184426159,"87":0.3522986472199334,"88":0.2164949565850945,"89":0.22099284948542544,"90":0.705327857723937,"91":0.24498353724620145,"92":0.19183533728707824,"93":0.3053829779144609,"94":0.19065712846619273,"95":0.18487717737238687,"96":-0.1436165658569459,"97":0.3481811796390231,"98":0.023755617655999716,"99":-0.3230823514166248,"100":-0.3229944947760227,"101":-0.015100257307353461,"102":0.22168480769310536,"103":0.5708418901683049,"104":0.33870346103895005,"105":0.10027895567055484,"106":-0.15776929028204797,"107":0.2452164813635684,"108":-0.14917311771989755,"109":-0.3349024152713105,"110":-0.0927414024619996,"111":0.214142737546317,"112":0.16572996934232218,"113":0.07627253100880285,"114":0.24603752577530225,"115":0.3921396672436566,"116":0.19634729576536925,"117":-0.2643307760353123,"118":0.11348065379991365,"119":0.17608187727819333,"120":-0.04588139634208762,"121":0.1067928621872659,"122":-0.43685998745451865,"123":-0.5412479867658053,"124":-0.1663485894943316,"125":0.23925022395770115,"126":-0.042073501832634815,"127":0.6063996926648854,"128":0.09588867000107924,"129":0.04651885055149056,"130":0.4920473757065068,"131":0.2666352971052994,"132":-0.5420634627212984,"133":0.0321111165626374,"134":0.24117375547852957,"135":0.6682333472216047,"136":-0.361088340116991,"137":0.5391671846745627,"138":-0.07474521605495421,"139":0.13871790734302455,"140":0.03367934245030662,"141":-0.4138433171478193,"142":-0.07386484335194288,"143":-0.46289985266186817,"144":0.07379150972037471,"145":-0.40407169595523,"146":-0.24083424460435068,"147":0.057014140487284926,"148":0.12025120249657552,"149":-0.58913777547933,"150":-0.30948489731814754,"151":-0.06186613047910606,"152":0.20807562139213556,"153":-0.13755172059176418,"154":-0.11012103549068274,"155":-0.003045636279972037,"156":-0.12896253711610456,"157":-0.16338039430963466,"158":-0.1278232246103577,"159":-0.1548619941801823,"160":0.03823697200133677,"161":0.03797869577298981,"162":0.00804282757658701,"163":-0.08654676750384745,"164":0.14721065387157803,"165":-0.5632235391642654,"166":-0.4219651227627011,"167":0.797487309612084,"168":0.48640690060910746,"169":-0.39779744027218206,"170":0.638396916907536,"171":0.30152529588926313,"172":0.05222151435059103,"173":-0.05511927932654339,"174":0.3083738972155837,"175":-0.0636498693182351,"176":0.09712049225927509,"177":0.17671383692285542,"178":-0.530586270374213,"179":0.02180601441695313,"180":0.04640962074295096,"181":-0.018612471130010428,"182":-0.2105914301821792,"183":-0.19356702889878621,"184":-0.12346836950077622,"185":-0.47862302821357416,"186":-0.34621734563946366,"187":-0.1339173757922883,"188":-0.20689574833032484,"189":0.006291663134960693,"190":-0.0588032829435631,"191":-0.2109220102581047,"192":0.30829149331295463,"193":0.2150544495026668,"194":-0.07472945378348,"195":0.3199951206706993,"196":-0.3650281706107216,"197":-0.022879858109930096,"198":-0.2250550357763351,"199":-0.5592047612311356}},{"sx":5,"sy":5,"depth":8,"w":{"0":-0.06800762977103036,"1":-0.1784871192276617,"2":-0.32202493499789453,"3":-0.1911217201398644,"4":0.10878311208703231,"5":0.06524682227301756,"6":-0.18019920950168164,"7":-0.16287275139866494,"8":-0.1804829130319213,"9":-0.015003269144369258,"10":-0.15527043320496742,"11":-0.3693470200167318,"12":0.09577955574999748,"13":-0.12129465916501374,"14":-0.03698106219550073,"15":-0.03126642841279859,"16":0.005307697188497276,"17":-0.1689685021414848,"18":-0.11441351510325694,"19":-0.0688330035897951,"20":-0.05056829189403565,"21":0.06827164710781547,"22":-0.10811396487945349,"23":-0.09820109276206604,"24":-0.14980161572885153,"25":-0.034028044195729704,"26":-0.06941244680364153,"27":-0.2574457434607267,"28":-0.2743002713884376,"29":0.1525018619278725,"30":0.18687393676105146,"31":-0.18078753552068474,"32":-0.297779254805438,"33":-0.16602160763565435,"34":-0.2869693997340049,"35":-0.13107719363451828,"36":-0.2763571898502391,"37":-0.2002753891536245,"38":-0.13114184428594625,"39":0.14226089683193188,"40":0.09946625367324671,"41":-0.018833396254199213,"42":-0.04598127234371664,"43":0.08748342893093403,"44":0.03453305661429757,"45":-0.030698566962380016,"46":-0.10238796494465019,"47":-0.24982527560616008,"48":0.08708207380134939,"49":-0.13232406857993162,"50":-0.07945419498059797,"51":-0.1067880514695961,"52":-0.1074709515540324,"53":0.15182785212274696,"54":-0.054372984137261944,"55":-0.11135544493597556,"56":0.012225370751695346,"57":-0.15941595338799594,"58":0.03795764313506314,"59":-0.18780523554264988,"60":-0.07951075693188023,"61":0.3577921509354707,"62":0.32954986321595625,"63":-0.06533576850064905,"64":0.05434124771937021,"65":0.15617005550853558,"66":-0.057048604303961935,"67":-0.013142997538195289,"68":-0.021422305243209334,"69":0.16531513587812485,"70":0.27814265646198877,"71":0.03981025406490912,"72":-0.03660344772978552,"73":-0.4567321112680931,"74":-0.17165133238057748,"75":-0.20342442663129318,"76":0.014592518942651742,"77":-0.20019248139438273,"78":0.018685832969786823,"79":-0.022573327936056525,"80":-0.07720645024991898,"81":0.33725588040350835,"82":0.1761084666970626,"83":-0.06513673702052183,"84":0.10372044703797552,"85":-0.04526109696956723,"86":0.08557506810930642,"87":-0.012620334478131797,"88":-0.11505469644846071,"89":-0.34645241262533594,"90":-0.08414340775094736,"91":-0.4728014813271914,"92":0.1679583054606065,"93":0.09381374138640018,"94":-0.039138749428366676,"95":0.03903384352792436,"96":-0.2656685115767479,"97":-0.1833948503547614,"98":0.17964812984064052,"99":0.04570904378255372,"100":0.023808321518498893,"101":-0.09954466142379578,"102":0.42799595727674583,"103":0.09803800665951017,"104":-0.37760321793879037,"105":0.47572573830978115,"106":0.04600579624575849,"107":-0.01717037264378669,"108":0.17644922086745096,"109":-0.040541746521542056,"110":-0.17930178661441504,"111":-0.10241067050816721,"112":0.20694715682494935,"113":-0.4341641705848158,"114":-0.2888099714309841,"115":0.0057161623180439205,"116":0.20726286749217038,"117":-0.21705500288907847,"118":-0.21222028716301902,"119":0.04266062405625662,"120":-0.05417206507923368,"121":0.9408146103432782,"122":0.19397771055569965,"123":0.31687488265878644,"124":0.04732147171731013,"125":0.31790134717741353,"126":0.26682926694846415,"127":0.10168469579345792,"128":-0.026080491990964006,"129":-0.09127050491168433,"130":0.09204223606377646,"131":-0.09334525202766014,"132":0.18003359163649577,"133":0.1348091642383103,"134":-0.23888896086589603,"135":0.2840797797274124,"136":0.22076274226491277,"137":-0.10340573968262239,"138":0.5008876900726094,"139":0.3356884366951086,"140":-0.16142542250472344,"141":0.3370465050643218,"142":0.11004991847412071,"143":0.04483745224200844,"144":-0.16632301855876297,"145":0.46306323046111475,"146":0.14461613496401038,"147":0.3165208672031925,"148":0.2793644379958503,"149":0.12961267647886424,"150":0.09742002018636177,"151":0.12498878996828032,"152":0.2983783691291823,"153":-0.2814103400382027,"154":-0.029119741067398053,"155":0.18196466615086523,"156":0.24436944661132248,"157":-0.049455067224609954,"158":-0.24407492093674138,"159":0.37939599009292424,"160":0.11678665747755548,"161":0.822338836031554,"162":0.26480936979233244,"163":0.45127642054895656,"164":0.12388602173189968,"165":0.16128875575338109,"166":0.5002017339054011,"167":-0.029284609272326508,"168":-0.21479285398865103,"169":0.570118139738225,"170":0.14739671175694916,"171":-0.35344700242112587,"172":0.14321057072878893,"173":-0.033237678352726605,"174":-0.3449259069495891,"175":0.3365434588422463,"176":0.4239857913059211,"177":0.07064639820953954,"178":0.5877755902811026,"179":0.14048040632989534,"180":-0.17998004635392195,"181":0.31206751001569355,"182":0.28227292746563526,"183":-0.03830976049504213,"184":-0.2633788963478423,"185":0.16223158123684112,"186":0.0575281941108831,"187":0.05392120696403049,"188":0.27763880061712753,"189":0.18434552524772535,"190":0.18857876530523907,"191":0.140227793326337,"192":0.21558453033951339,"193":-0.3060839276162549,"194":0.010866153160521643,"195":0.18275025344507254,"196":0.07860573476977156,"197":0.028800260143302857,"198":-0.1921921598380467,"199":-0.46044939683443004}},{"sx":5,"sy":5,"depth":8,"w":{"0":0.08859088179506967,"1":-0.1989174372393503,"2":0.02129922114746487,"3":0.23153861304134152,"4":-0.3829223172702215,"5":-0.376488396102168,"6":-0.07439242061839549,"7":-0.11641570436265634,"8":0.17293669210877666,"9":0.45358729573839657,"10":0.12614667606189733,"11":0.13989835657769065,"12":-0.038071964985024215,"13":0.3485936670447832,"14":-0.5355077310396265,"15":0.09024349981809908,"16":-0.0016637209697991,"17":-0.20436378453069667,"18":0.13211674327663375,"19":-0.13312140273620038,"20":-0.09783223467933806,"21":0.16531421437217994,"22":-0.01748209051790453,"23":-0.08943474828439799,"24":0.12494653665355528,"25":0.4381072108624486,"26":0.38142086338655934,"27":0.23469088025965756,"28":-0.013483125823335678,"29":-0.25082445428121747,"30":-0.09560530301723509,"31":-0.23878533991055972,"32":0.31109678617778896,"33":0.23690107233246116,"34":-0.383191599704667,"35":0.04156713260506533,"36":-0.040878629262977306,"37":-0.3364374259116165,"38":-0.8079343285617379,"39":0.0002182793365421044,"40":-0.04053303439769455,"41":-0.21815154734988174,"42":0.030483301818793437,"43":-0.0673135021458619,"44":-0.4177893373988615,"45":0.09563304623242079,"46":0.3143380576975592,"47":-0.3277802063568872,"48":-0.6505443551205958,"49":0.5361607976638587,"50":-0.03338894256733197,"51":-0.012550574433442967,"52":0.18628231574540274,"53":0.11961049131982583,"54":0.016881689267897956,"55":0.005168040612411847,"56":0.2777950310047109,"57":0.01964741367397344,"58":-0.0012348046254313434,"59":-0.33373869949840773,"60":-0.23539725847449203,"61":-0.11446016062424061,"62":-0.565995946071967,"63":0.4617946905517803,"64":-0.08774152080745046,"65":0.08605576418486573,"66":0.49735504332864894,"67":0.04134865620427903,"68":0.4042922941281788,"69":0.03775574078173068,"70":0.10421184154913261,"71":0.1439175345752853,"72":0.07624497426336073,"73":-0.21377217547898,"74":0.03558402336777996,"75":0.03149337102214851,"76":0.2141378217665076,"77":0.01436499193558043,"78":-0.26039656078043416,"79":0.1259805936899689,"80":0.2942890453963188,"81":-0.41227311708867687,"82":-0.1820333065803556,"83":-0.4333896204030381,"84":0.31553310228966003,"85":0.4486428010735262,"86":-0.4226916966920567,"87":0.2398532882511558,"88":-0.6134795746303002,"89":-0.14369635169577744,"90":-0.08959055295620777,"91":-0.13123471054825178,"92":0.8184224564384025,"93":0.5689668529014544,"94":0.4625457007698487,"95":0.4001145572139558,"96":0.1806424987969917,"97":0.033657122415392544,"98":0.24147523163205373,"99":-0.6261331846725915,"100":0.13493435134150247,"101":0.06990106246988138,"102":-0.15512054243983048,"103":-0.003283258998834195,"104":-0.15764604908371313,"105":-0.6158688040634004,"106":-0.029463083310878,"107":-0.6013815215747139,"108":0.3969847383229737,"109":0.46064609865672285,"110":0.2293672618293471,"111":0.6616145334779636,"112":0.03690801134982436,"113":-0.06974448443150635,"114":0.304991675005329,"115":-0.15497358386395235,"116":-0.09826937267346779,"117":0.18418820301024463,"118":0.4610474202007432,"119":-0.5400218402543472,"120":-0.37428286139680556,"121":0.12819285312908957,"122":-0.3420987179600875,"123":-0.1571792710263554,"124":-0.3012769351038898,"125":0.030384871036131314,"126":0.3197336008089442,"127":-0.6047786362792807,"128":-0.07263122942298415,"129":0.22455939361254706,"130":0.34711412175943496,"131":-0.15529196844867266,"132":-0.3917261048301787,"133":0.15139566318033712,"134":0.45244422543469975,"135":0.0731971716451275,"136":-0.6719145744895223,"137":0.2384302458323989,"138":0.32272081335315417,"139":0.42209859466633765,"140":-0.018264853801868243,"141":0.2300495775123532,"142":0.2853521600544069,"143":0.38999281476396985,"144":-0.3909496121569783,"145":-0.004550669289219926,"146":-0.45262134960105854,"147":-0.49652933695967416,"148":-0.006534681128445227,"149":-0.5151285786912634,"150":-0.3478613531854379,"151":0.45835222285826355,"152":0.5520207379057163,"153":-0.44445182980297454,"154":-0.5977393571495762,"155":-0.06369380971066334,"156":-0.03458683421041825,"157":-0.2768060952214161,"158":-0.19148479593589032,"159":-0.2084843761314571,"160":-0.1774515257330994,"161":-0.34735003223262656,"162":-0.3259740228308322,"163":-0.031542454345112395,"164":0.1254798114401428,"165":-0.08824865085797344,"166":-0.2812711265619485,"167":0.6160282459399995,"168":-0.2417720640464398,"169":-0.25010432997006365,"170":-0.11334299994540044,"171":-0.1368847153834252,"172":-0.30190839795507335,"173":-0.24950305604231288,"174":0.25929615047169524,"175":-0.048444628170329684,"176":-0.05118136201375599,"177":0.11175793720815673,"178":0.024594568985869272,"179":-0.16114679155037626,"180":0.05228802538580692,"181":-0.5488435354711655,"182":0.40037014466013127,"183":-0.18089135510600385,"184":-0.21516914020137923,"185":0.17883502262510914,"186":-0.1868794488988124,"187":-0.08118011252634003,"188":0.5091394320615472,"189":-0.195070024835606,"190":-0.3515877418313621,"191":0.15411429246680478,"192":0.013407815426866046,"193":-0.39599777380889506,"194":-0.4143355337881462,"195":-0.13914666257571168,"196":0.3460852741211977,"197":-0.45450555750414623,"198":-0.7783104553000573,"199":-0.37920301881985063}},{"sx":5,"sy":5,"depth":8,"w":{"0":0.11954743880829742,"1":-0.3582546107670277,"2":-0.3001777873779449,"3":-0.04630859256001317,"4":0.13597566131503544,"5":0.026339336530767674,"6":-0.2511474626914184,"7":-0.07576201381296731,"8":-0.21824042682775607,"9":-0.36443290478233026,"10":0.13950769158707038,"11":-0.18156370695504553,"12":-0.359543092102246,"13":-0.02792545010832914,"14":-0.10497425788028493,"15":-0.07579315768735126,"16":-0.34425905907659154,"17":0.11459114643981787,"18":-0.05211226717993475,"19":0.11854270210694019,"20":0.3935059783518893,"21":-0.21675874968001624,"22":-0.34948162928929827,"23":0.34468470873184287,"24":0.05713151533754774,"25":-0.28572794192296697,"26":-0.11225341647530082,"27":-0.6998080630989071,"28":0.19841883816764197,"29":-0.04152114356424552,"30":-0.040271253519647845,"31":-0.12171843848347288,"32":-0.08765859014683738,"33":0.44026672195099736,"34":0.483424111365255,"35":0.2967177617248935,"36":0.21856449911713874,"37":0.34690616722407264,"38":0.16652126414011106,"39":0.2342407872862249,"40":-0.22457867056843311,"41":0.2660000731154658,"42":-0.2014115548146219,"43":0.00669563022330157,"44":-0.12092819971834663,"45":-0.27147199510063885,"46":-0.15922256371975751,"47":-0.16943276990016967,"48":0.2901687843447398,"49":-0.04717006509172708,"50":-0.021805511332895815,"51":-0.06284692019380662,"52":-0.4240288066793119,"53":0.3204825768758331,"54":0.34103234017473444,"55":-0.4917341301259952,"56":-0.2948035318666687,"57":0.7029203948995622,"58":0.8273775631948116,"59":0.8079179848306436,"60":0.08231702272563493,"61":-0.2875671609986245,"62":0.22217483707340668,"63":-0.38419525677049526,"64":-0.061923411740793154,"65":0.7810031831038715,"66":-0.4021023670796422,"67":-0.03491049878449627,"68":-0.11022120950301603,"69":0.14764934797313672,"70":-0.7710260881611856,"71":0.7274932799832455,"72":-0.08173731343210273,"73":-0.612815459704775,"74":0.0035466980536985144,"75":-0.5339057916970709,"76":-0.17480899611517645,"77":0.25213529184463623,"78":0.7802830361236358,"79":-0.008467577744369289,"80":0.14632303346013034,"81":0.6300502694397548,"82":0.45762226606833784,"83":0.41446914869753976,"84":-0.1449457902960406,"85":-0.5084938502859776,"86":0.07548095854034668,"87":-0.2725733101412757,"88":-0.008240595424192223,"89":0.2274562768455439,"90":-0.19939758683267542,"91":-0.1757662611082231,"92":-0.2706606879434311,"93":-0.2297464610807741,"94":-0.5288841408708191,"95":0.040225071435052565,"96":0.05671389207862661,"97":-0.32189605980228114,"98":0.08937725187929617,"99":-0.1674494138631811,"100":-0.37476617676076707,"101":0.05457326220262152,"102":0.8053354572802836,"103":-0.0179335767274474,"104":0.14613753457668968,"105":0.7185447937845233,"106":0.2053853788781928,"107":0.4892168692997448,"108":0.1934584318216252,"109":0.055500517682039514,"110":0.1512547636612558,"111":-0.019022573005686303,"112":0.021291140445681478,"113":0.07492111646275744,"114":-0.5236761217394426,"115":-0.514753937905413,"116":0.21174406770653367,"117":-0.5336578388996607,"118":-0.5626460734882601,"119":1.0797580689347017,"120":0.18378983744432717,"121":0.45848433438161973,"122":0.4892942409282508,"123":0.32423577117371777,"124":-0.35974644111129656,"125":0.02271330559777509,"126":0.633471752654273,"127":-0.7134674549671078,"128":-0.9804787730650976,"129":0.2896814270313013,"130":0.17832973614242612,"131":-0.05498558798457779,"132":0.020404526041814905,"133":-0.05894522260512491,"134":-0.020222946489128188,"135":-0.05946879044979096,"136":0.5321502742974438,"137":-0.569178584504673,"138":-0.388834584506621,"139":-0.3185684207055366,"140":-0.1972504901586504,"141":0.07456064583050026,"142":-0.3072727330239174,"143":0.15718086824919236,"144":-0.1673634802853647,"145":-0.34139431743628845,"146":0.1507120616385415,"147":-0.2641022474257093,"148":0.12023903556087268,"149":0.42421644085601057,"150":0.6962345131396704,"151":0.2291553655854143,"152":0.026623951668038746,"153":0.41993175917769116,"154":-0.02776224163710028,"155":0.18603809898592039,"156":-0.022736040422258127,"157":-0.3210909719108069,"158":-0.8172429876547774,"159":-0.1757250856857013,"160":0.2218433761937803,"161":-0.5104606945909055,"162":-0.12976935834274428,"163":0.009948519590902668,"164":0.02974284787995243,"165":0.7474354249567844,"166":0.4982816555587159,"167":0.2559554209365395,"168":-0.16896911107510224,"169":-0.03956449791012541,"170":-0.10297481854709876,"171":-0.22272938285975216,"172":-0.05511891019095287,"173":0.018384746784556382,"174":0.19404585239507635,"175":-0.10615863693471592,"176":-0.06639599985815545,"177":0.22134248958519107,"178":-0.227597524288444,"179":0.026681413716450043,"180":-0.045281852875664115,"181":-0.2671445249224438,"182":-0.23259073995767302,"183":-0.31918553368733843,"184":-0.1280866289791153,"185":-0.6473089123779093,"186":-0.4109180447410346,"187":-0.5480778826306765,"188":-0.005207665855883236,"189":0.04528858766982302,"190":-0.33497914569434867,"191":0.40033765536578875,"192":0.05194254761173043,"193":-0.05357758795398018,"194":0.4489837515573455,"195":-0.16403070950041,"196":0.004189782781699415,"197":-0.1592683864571143,"198":0.3417897273804554,"199":-0.13795280331778073}},{"sx":5,"sy":5,"depth":8,"w":{"0":0.24459066491244227,"1":-0.1848057247506054,"2":0.41614344859500524,"3":0.05892489000362951,"4":0.4050292467676268,"5":-0.2035856049872123,"6":-0.43424828190319065,"7":-0.09688924312771327,"8":0.4375040729123245,"9":-0.09440152523787762,"10":-0.046543495894437244,"11":-0.04798195084465262,"12":0.1818676322348036,"13":0.46679633642991847,"14":0.23815196151768447,"15":0.3418528527290579,"16":0.24037178572015055,"17":0.06890049524419903,"18":0.28999299774649967,"19":-0.28193645398417067,"20":-0.060383084423921235,"21":0.45993557340271773,"22":0.297309827524594,"23":-0.18552776994277592,"24":-0.02963217675604381,"25":0.3185178592690139,"26":-0.15169248024577225,"27":-0.0938970635799808,"28":-0.09834768485094594,"29":0.25421126292948526,"30":-0.041089407665588364,"31":0.054755682444916555,"32":0.05420842094391356,"33":-0.21226373738759605,"34":-0.2825079786116435,"35":-0.13317289224305695,"36":-0.14109800581466397,"37":-0.5179998965192555,"38":0.30938224066671705,"39":0.19990882272709923,"40":-0.2243303236118775,"41":-0.07272239032242106,"42":0.35732548193088975,"43":0.015615723713521093,"44":-0.08489362487726318,"45":0.295378734789087,"46":-0.003751036078501045,"47":-0.5803352581983875,"48":-0.3295847137740407,"49":0.09246107500411803,"50":-0.1661676477666421,"51":-0.014318048904143791,"52":0.26565715798748474,"53":0.12285468039590099,"54":0.05411203098668165,"55":-0.34458213165649176,"56":-0.11243628158343942,"57":-0.23153186910371948,"58":-0.024665815711376424,"59":-0.37537013557391125,"60":0.10820409834624634,"61":0.424818742735243,"62":-0.0334664804196537,"63":0.4580775132037875,"64":-0.4561190082099186,"65":-0.0022481897166410567,"66":-0.04907582679011464,"67":-0.17940010975053106,"68":0.7171220839086087,"69":-0.14194165827651845,"70":0.4170096499804832,"71":0.21507541036365396,"72":0.18534564189734282,"73":-0.0306956613484825,"74":-0.12080085129579347,"75":-0.10920713923032067,"76":0.28595384832760984,"77":-0.19461171756870435,"78":-0.7610565848966145,"79":-0.14365633418495222,"80":0.12855689796497968,"81":-0.3358763862397833,"82":0.10339058427161762,"83":-0.10187281802907804,"84":-0.47784675673101723,"85":0.07879364266863259,"86":0.045462536528545004,"87":-0.011084043933544917,"88":-0.4016845314371908,"89":-0.06664707135711606,"90":0.12518689562674493,"91":-0.17214669174683442,"92":-0.1260636322865446,"93":-0.03330821729013744,"94":0.15038339552068408,"95":-0.1953950075230895,"96":-0.7781754884651348,"97":0.43011681994175915,"98":-0.11723819340595833,"99":-0.2676945391131528,"100":0.007148338119145487,"101":-0.27320548169615044,"102":-0.3707071639713136,"103":0.2512678980683969,"104":-0.11605432790663259,"105":-0.3491791483443472,"106":-0.4256164423933799,"107":-0.05578973101022939,"108":0.11221628910989148,"109":-0.4198279719840228,"110":0.1650657302457795,"111":0.10179860864350757,"112":-0.2008519576389659,"113":0.23705110170125876,"114":-0.12632359437318874,"115":-0.009736248024121767,"116":0.20985203490191506,"117":0.1938897976924496,"118":0.07514852504391967,"119":-0.061148791669282096,"120":-0.0023492534823205463,"121":-0.09881441275394971,"122":0.09211859154321764,"123":0.06684748716220394,"124":0.028195282698670634,"125":0.09031499929533668,"126":-0.21215395715469904,"127":-0.2739166293539784,"128":-0.26162711418755796,"129":-0.33102825381158907,"130":0.3885042038164142,"131":0.7852875435457872,"132":-0.10069556052286818,"133":-0.12314057737331101,"134":-0.022104030427532183,"135":-0.07091466467884389,"136":-0.3133990978644106,"137":0.4176620012102263,"138":-0.5306779066789958,"139":0.18373945846518663,"140":0.2983763900312617,"141":0.08285649844806392,"142":-0.18446663264172689,"143":-0.12709437995093667,"144":0.24603660016705578,"145":-0.5155319743253682,"146":-0.3159255532122215,"147":-0.17568549144201573,"148":-0.08583163198037234,"149":-0.1720834673844259,"150":0.004459385711208507,"151":-0.3010834850595184,"152":0.3890849809386014,"153":-0.1870810752675894,"154":-0.1509559489662622,"155":-0.5858419731578995,"156":-0.809062784808806,"157":0.010588239640575014,"158":0.38005339689237955,"159":-0.2604298680171407,"160":0.0652147517824147,"161":0.23913962277616246,"162":0.3602837700916925,"163":0.32960846206543015,"164":-0.1008744602498869,"165":0.032858256636465674,"166":0.07212789295395992,"167":-0.7303402747554995,"168":-0.34418334499722586,"169":0.10045416580639023,"170":0.44288455858698017,"171":0.6185905386931677,"172":-0.4924192381276006,"173":0.03750257040237636,"174":0.41739985895686066,"175":-0.2351410351177612,"176":-0.21958180496012944,"177":0.9482622435667236,"178":0.30913064356967335,"179":0.8865899809477391,"180":-0.05178813824558939,"181":-0.018230398654493742,"182":-0.05298526229800448,"183":0.10777207480883233,"184":-0.3274870384461911,"185":0.6771404582467064,"186":0.24352645857043115,"187":0.09482175693279156,"188":0.5043173226640892,"189":0.05180322773503286,"190":-0.1964365988998414,"191":0.5061224861197052,"192":0.2167140894043207,"193":-0.6875187386420956,"194":-0.5730261251650733,"195":-0.83558802934937,"196":-0.36105355917631404,"197":-0.02805152150942926,"198":-0.09678177107559717,"199":-0.04900692636322738}},{"sx":5,"sy":5,"depth":8,"w":{"0":0.24580017338100663,"1":0.37068206463132314,"2":0.19689309514972345,"3":0.12446000965387378,"4":0.14976647503007087,"5":0.1271720106786658,"6":-0.015485042763686964,"7":0.4132165600115019,"8":0.07689703761466173,"9":-0.0803103825645825,"10":0.03599092128374679,"11":0.17382945308844996,"12":0.2612425139922404,"13":0.30446603844870407,"14":0.13793158771862418,"15":0.008804524043963846,"16":-0.04897081713685318,"17":0.06401160136824881,"18":0.11440081390540725,"19":0.07322711582275644,"20":-0.2114099468866226,"21":-0.08196918302756748,"22":-0.09457240210432558,"23":-0.03022127382444636,"24":-0.142564770875181,"25":0.09323673173014622,"26":-0.12303722831845292,"27":-0.07601470958271575,"28":0.025982416250970947,"29":-0.027231301235847882,"30":-0.01396911449594204,"31":0.08352167372727201,"32":-0.17324262366545304,"33":-0.14481834261810314,"34":-0.23068048814205816,"35":-0.05288011440974012,"36":0.1869539284286269,"37":-0.08818625303398953,"38":-0.060224044503316504,"39":0.1822746433629743,"40":-0.07219758771727713,"41":0.3019875921343786,"42":0.05754629920246912,"43":-0.0479098715736882,"44":0.1274211988764723,"45":0.015412016942203224,"46":0.1356423112663222,"47":-0.2418060080615701,"48":-0.15785604753006813,"49":-0.10295019526997104,"50":-0.1633907387542255,"51":-0.2605273708649735,"52":-0.05517472968136217,"53":0.06435336899296128,"54":0.04529493594489298,"55":-0.007822527079479762,"56":-0.1508315716178848,"57":0.06466620381182783,"58":0.19727891380099752,"59":-0.41587026058498816,"60":-0.6054983384534168,"61":0.08661487061184829,"62":0.011771968471821133,"63":-0.16707506002085856,"64":-0.5065870115577151,"65":0.33578176974939244,"66":-0.19055098413628593,"67":-0.026417183268361722,"68":0.00416734264241251,"69":0.01686779882027528,"70":-0.23457859638489376,"71":0.03678875070642515,"72":-0.3216048649691494,"73":-0.1903234025113649,"74":-0.2964915476160058,"75":-0.21050532962306714,"76":-0.034055739846296146,"77":-0.18755160108405283,"78":-0.17236930057219427,"79":-0.5036006180309408,"80":-0.253939043003024,"81":0.13827910606779512,"82":-0.08799523240401567,"83":-0.05964329802854011,"84":0.17674292436610234,"85":-0.12358839793594113,"86":-0.04662842117921727,"87":-0.24780521638884234,"88":-0.33459103702241244,"89":-0.34569448504750555,"90":-0.5290165143179443,"91":-0.2101708430456995,"92":-0.04451829823858929,"93":-0.43746378953132703,"94":-0.5494419394831285,"95":-0.22045604797329912,"96":-0.10196834860306857,"97":-0.4341581219731776,"98":-0.2002724986717619,"99":-0.5793208205195038,"100":-0.3550756060774256,"101":0.15282617700266843,"102":0.10519335833117044,"103":-0.06751193581831198,"104":-0.1558625937665964,"105":0.33754786859406644,"106":0.06386188332713157,"107":0.026950847508024296,"108":-0.04558565559311202,"109":-0.0888089370264709,"110":-0.03316675795603929,"111":-0.43889510423427575,"112":-0.03717017831275009,"113":0.4237879662804355,"114":0.2993231452222736,"115":0.17164953543069636,"116":-0.06735448686142226,"117":-0.27335272795011945,"118":-0.4700379700426262,"119":-0.4393162507821042,"120":-0.4541090398805563,"121":0.5977791660529342,"122":-0.29658588468152247,"123":-0.02252577154956001,"124":-0.19277721871245881,"125":0.10911056225311166,"126":0.029016242351187257,"127":-0.15423883845525999,"128":-0.07321978584527782,"129":0.06609114128189061,"130":0.23007350539785415,"131":0.39696523444686665,"132":-0.1169754513620424,"133":-0.1487812982902714,"134":-0.0211953890641608,"135":-0.3305016590464573,"136":0.20444201473487272,"137":0.004215578572104598,"138":-0.25153997655241034,"139":-0.0717763375711117,"140":-0.07132866894783421,"141":0.06938227462108287,"142":-0.07929338882982145,"143":0.38374868162361553,"144":0.16165106777190336,"145":0.08077085232880866,"146":-0.03309186942525359,"147":0.19229684035859815,"148":0.08109643964872815,"149":-0.16693390975479855,"150":0.10071016466594061,"151":0.39316955067978065,"152":-0.05892816538034622,"153":0.658141992854249,"154":0.16159213909970396,"155":0.5787721090589762,"156":0.4718151536876278,"157":-0.15977115855367374,"158":0.23026846718935978,"159":-0.35893354854578546,"160":0.301007024888497,"161":0.2507115707380015,"162":-0.20995328558047588,"163":0.17553618854668293,"164":-0.44928044628972413,"165":0.28721772502392023,"166":-0.1747550499118412,"167":0.3662870318933233,"168":-0.1367538434895244,"169":-0.5155371466528278,"170":0.07590556989220505,"171":0.0733385126177956,"172":0.15758860858622153,"173":0.07424225452292807,"174":0.38670850340558643,"175":0.25665856895059785,"176":0.43409598016541795,"177":0.11195778007302398,"178":0.23714168031340713,"179":0.11235077255075053,"180":-0.1936763565747662,"181":0.06352390576939182,"182":-0.08627319792073913,"183":-0.034385431488873075,"184":0.45407629292770835,"185":-0.12218487445043881,"186":-0.03626163308690439,"187":-0.012725725943725057,"188":-0.1456117643879217,"189":0.11569881118968105,"190":-0.09975967765384494,"191":-0.28990686895998957,"192":-0.29092256037651193,"193":0.5837359782098196,"194":0.36058786921427577,"195":0.4640166958108401,"196":0.33166818856433206,"197":0.2781451727377986,"198":0.4699334061744724,"199":-0.015595336038373256}},{"sx":5,"sy":5,"depth":8,"w":{"0":0.28354094984976136,"1":0.20151953885837223,"2":0.3896800227119719,"3":-0.1573770197342996,"4":-0.021957285747599677,"5":0.32237119753100574,"6":0.32978075610307966,"7":-0.27821428312796986,"8":-0.21141409072053233,"9":0.7342447874760911,"10":0.3081085824332306,"11":-0.01688626064651838,"12":-0.23398443183100026,"13":0.22590820070692455,"14":0.257472647568202,"15":-0.3031682481886971,"16":-0.4766424577494146,"17":0.6356517682059303,"18":0.38585756408709443,"19":0.28843552284788804,"20":0.0361623684297671,"21":0.055850248290029124,"22":0.031585055825332775,"23":-0.24032418964225186,"24":-0.19858021207244825,"25":0.28756259757321373,"26":0.18652830147938196,"27":0.16947572745931708,"28":0.26487983756165095,"29":-0.1397808137590267,"30":-0.11643335790820519,"31":0.42612806166975714,"32":-0.2874125060240905,"33":0.1979502404269891,"34":-0.07579933127837145,"35":0.14686765315101646,"36":0.46722201133917035,"37":-0.14579799691545403,"38":-0.37856839844357304,"39":0.37309412132496406,"40":-0.0416127790324501,"41":-0.5235463554480091,"42":-0.35792627489151396,"43":0.006006489196697405,"44":-0.0005100831798034338,"45":-0.2549361676440799,"46":-0.2633945346704582,"47":-0.012261422352000685,"48":0.08963885009709208,"49":-0.4993058311613518,"50":-0.5014641032490466,"51":-0.15864199743650967,"52":-0.5325306279021774,"53":-0.04277287220136064,"54":0.055827547801977774,"55":-0.14156790560881125,"56":0.08123685790032412,"57":-0.20685553228159856,"58":0.008188698645031705,"59":-0.12757177139558853,"60":-0.3493036390821596,"61":-0.15936791897184605,"62":0.17739754686591844,"63":-0.3288886291232311,"64":-0.1456158237065651,"65":0.2287220237765221,"66":0.11204328044419269,"67":-0.18083029472685444,"68":-0.05385288380608045,"69":-0.38563895635264145,"70":0.2653950905307164,"71":-0.11191841308226097,"72":0.10572797259887202,"73":0.6010210612585026,"74":0.5338711121684584,"75":0.09187145164499039,"76":0.08136107229799724,"77":-0.27877245251706884,"78":-0.04462890060334651,"79":0.14639215866342567,"80":-0.028482233390746903,"81":0.13245931084952492,"82":-0.07970492013550881,"83":-0.07862591600716594,"84":0.49468852332454183,"85":0.014855609359532984,"86":-0.38687005329767504,"87":0.45644532814714067,"88":-0.2094793460987226,"89":-0.7922203824553832,"90":-0.66494315335932,"91":-0.050547887148295244,"92":0.6422376792297504,"93":-0.04214707320244953,"94":-0.7755950866789376,"95":0.24591119542070372,"96":-0.038183692821864144,"97":-0.8952541186652462,"98":-0.7125262698091855,"99":-0.15078131101236042,"100":0.3598853293177687,"101":0.028732487751701265,"102":-0.6258351673711471,"103":0.17012343289061416,"104":0.25982711643003265,"105":-0.8428792247394765,"106":-0.40928566924594123,"107":-0.25255344889570447,"108":0.2953190782435133,"109":0.1718532413383674,"110":0.05874340528622864,"111":0.06907721472833958,"112":0.28974699233447193,"113":-0.3634200843666718,"114":0.03993042824514173,"115":-0.1477296113852456,"116":0.16418853698285316,"117":0.3846289481320351,"118":0.29039914843105513,"119":-0.40173581823214805,"120":-0.2793294473253099,"121":0.20257245074335875,"122":0.17366070597076977,"123":0.3131504742747951,"124":-0.03835633737072986,"125":-0.07322043238042422,"126":0.1835920703375829,"127":-0.07912892214962618,"128":-0.3764558582418552,"129":0.21821267331238134,"130":0.14699618607518483,"131":-0.201124716124198,"132":0.03769292013507361,"133":-0.2048554986123663,"134":-0.10762982134701024,"135":0.08999612445243914,"136":-0.4398606898656059,"137":0.021851892427916294,"138":0.23453763821687496,"139":0.09365282810450397,"140":0.17023291104792426,"141":0.1235081732163935,"142":-0.31411853024082037,"143":0.16149994838113257,"144":-0.16642978736448133,"145":-0.3074752916920915,"146":0.03410946417218081,"147":-0.3737517791425078,"148":0.21263931849270337,"149":0.29405874840497176,"150":-0.2564877724468605,"151":0.14671112911659057,"152":-0.31968630009619575,"153":-0.6292977998112842,"154":-0.22478022047732665,"155":-0.018137193320317567,"156":0.299005904274896,"157":-0.17410888987006667,"158":0.006534883247596288,"159":0.379435279149771,"160":0.3768195425761346,"161":-0.47350091461745314,"162":-0.2503027951312667,"163":0.04550396744149995,"164":-0.1740034425858825,"165":-0.19462583028498062,"166":0.16373630517080234,"167":0.3316378426728508,"168":0.44154188888992196,"169":0.06970920072153483,"170":-0.13841729304140488,"171":-0.10112606514714907,"172":-0.6514162519375482,"173":0.1727271815022253,"174":0.4036785905338568,"175":-0.21432985532096702,"176":0.02550337650017267,"177":0.6667129819480266,"178":0.5947983303438718,"179":0.20559509070142523,"180":-0.5467990856334961,"181":0.00257554515863186,"182":0.6937856875804295,"183":-0.9385473901697983,"184":-0.31357790601690794,"185":0.7879392828214566,"186":0.4581039802936763,"187":0.5220206075150693,"188":-0.38176326086787005,"189":-0.05744978887132762,"190":0.4753937061493426,"191":-0.02141621314880903,"192":-0.25008845788544015,"193":0.7998607888557929,"194":0.6243053365775367,"195":0.7553681599374755,"196":-0.055242677363930306,"197":-0.5596152155581952,"198":0.12702459668232718,"199":-0.1665199607865838}},{"sx":5,"sy":5,"depth":8,"w":{"0":0.1258463916513909,"1":0.6118551155025075,"2":0.3481506107554107,"3":0.33550058434496566,"4":-0.15376809932558078,"5":0.39545145173576546,"6":0.10750133124037047,"7":-0.28345969847859165,"8":0.06497492467633681,"9":-0.4475428133465666,"10":0.0267511990776077,"11":-0.09336812917114494,"12":-0.33345701786017046,"13":-0.4177383268964639,"14":-0.39727397029482203,"15":-0.02160913262378591,"16":-0.15894249197793742,"17":0.599583893917844,"18":0.2257326080024768,"19":0.2516032474137464,"20":0.07512906270673395,"21":0.2622222418095679,"22":0.3311146466431409,"23":-0.563703643333527,"24":-0.07234007890448542,"25":0.045400792634105895,"26":0.2923749954768782,"27":0.07900593830572739,"28":0.023689124149303294,"29":-0.6459201284893026,"30":0.17625091287438793,"31":-0.32119926731933046,"32":0.059004521007116076,"33":0.1687018567646415,"34":0.17866919987028113,"35":0.00014981087978425397,"36":0.21613282891363159,"37":0.4029471784813906,"38":0.25180667864736633,"39":-0.4180553648846983,"40":-0.61695365952577,"41":0.8690998980861108,"42":0.4377597260698861,"43":0.22812383767009325,"44":0.28579494567629316,"45":0.39285584804458007,"46":0.1039366022046845,"47":-0.39771971584964877,"48":0.09360952452770975,"49":-0.7185314476735329,"50":-0.39432514930497564,"51":-0.11406007755172586,"52":-0.07342614357804038,"53":-0.24093793169146896,"54":-0.08253778259938573,"55":-0.39527228070330933,"56":-0.28252874246627996,"57":0.38348230929573546,"58":0.29093761951413893,"59":0.31362773766893465,"60":0.14609724410724667,"61":-0.001158248935058434,"62":0.17280657157133353,"63":0.07374836689898395,"64":-0.11840594376230269,"65":-0.1966331967078023,"66":-0.25040504607639413,"67":-0.3101312301193057,"68":0.05472653566353114,"69":-0.13878466060691677,"70":-0.2801502242755763,"71":0.18557590485578898,"72":0.46209141673596477,"73":-0.24975141082621458,"74":-0.09079290503102279,"75":-0.3761642337716216,"76":-0.40473201950487925,"77":0.49102294872574104,"78":-0.010473138711192174,"79":-0.24398649231791184,"80":0.04175441594635953,"81":0.4793052493426747,"82":-0.06307504293112359,"83":0.15677601055198195,"84":0.18152355635478692,"85":0.35054143561874496,"86":0.02985877712419648,"87":0.0585404978231605,"88":0.2697235322107674,"89":-0.31563945975358,"90":-0.6593911589200799,"91":-0.4236674782129877,"92":-0.4413127602362425,"93":-0.21706105061633033,"94":-0.7778762011079465,"95":0.3656006610752787,"96":0.04487213467336154,"97":0.33856682906425617,"98":0.6170498551702434,"99":0.01608947149165905,"100":0.03926034067822552,"101":0.6381091180911729,"102":0.300706745646964,"103":0.26520188404807565,"104":0.3632497120455172,"105":0.2153811013005055,"106":0.5567589747611233,"107":-0.09430890008230083,"108":0.06575163409093972,"109":0.002548042409812587,"110":-0.4588118072829484,"111":0.32486366321100035,"112":0.19759483681110188,"113":0.09149099976141972,"114":-0.39579106052564056,"115":0.07750032555273673,"116":0.18145789860384026,"117":0.36003936577088924,"118":-0.654857375924226,"119":0.45209487702847095,"120":-0.5304248873726896,"121":-0.5404522139620426,"122":0.2744808948416191,"123":-0.1711136308395255,"124":0.23003512941901638,"125":0.1048295906984496,"126":-0.10318406462972278,"127":0.1611220855492804,"128":0.5947412730072382,"129":-0.673474193580684,"130":-0.7625442812865615,"131":-0.6194065966681661,"132":-0.3248459381087688,"133":-0.03798948138189343,"134":-0.40271119893545987,"135":-0.44570203476500964,"136":-0.41294735862812326,"137":-0.2978785221951204,"138":0.1426614923298016,"139":0.24467570260112365,"140":-0.022456422656539774,"141":0.21867931694419968,"142":0.4649287838886865,"143":-0.04272062654338485,"144":-0.23407023913212283,"145":0.06783978462045837,"146":0.7044437182587376,"147":0.5872241848250811,"148":0.013128617660703893,"149":-0.12144091749979802,"150":0.49486884792058744,"151":-0.119628020133777,"152":-0.3788007599628933,"153":0.12618301590355702,"154":-0.38317624268744976,"155":-0.03153855627549622,"156":0.1062982838577216,"157":-0.2587502521449149,"158":0.3755442149713426,"159":0.1383918373665331,"160":-0.37913035536716766,"161":-0.05645329793986643,"162":-0.297057193252697,"163":-0.4557950984751385,"164":0.07074799360916674,"165":-0.23187569173796632,"166":-0.0905213506117462,"167":0.16933975333775664,"168":0.12960775933468524,"169":-0.5032763151895537,"170":-0.5054759069539546,"171":-0.9332165607634813,"172":-0.07125136596646003,"173":-0.41180126308127957,"174":-0.30789463876276973,"175":0.3390898797082448,"176":-0.381059452335754,"177":0.26378200048016354,"178":0.3206221639340958,"179":-0.5777825193852278,"180":0.09706831552734896,"181":0.16119084633002842,"182":0.18795487631609684,"183":0.12239851770464324,"184":-0.39908013278088583,"185":0.10607892200442137,"186":0.17783122491085507,"187":0.0999869584359641,"188":0.08707208176915483,"189":-0.07955135421509739,"190":0.6853099474654727,"191":0.04806105605557755,"192":-0.06401941417132304,"193":0.28946646067793347,"194":0.02593875264184507,"195":0.1526695750911414,"196":-0.0596578118971976,"197":-0.07946577718468513,"198":0.5208651507763317,"199":0.04744310910560571}},{"sx":5,"sy":5,"depth":8,"w":{"0":-0.028171155056645684,"1":-0.07269407018684501,"2":0.3222734683470355,"3":-0.09652026764798231,"4":0.08460236115813786,"5":0.1908611896815071,"6":0.11568572467412963,"7":0.21017279690798413,"8":-0.08145467188616512,"9":0.30269014722128995,"10":-0.19832045377957794,"11":0.34178059350360884,"12":0.46643432519262723,"13":0.18448275534001665,"14":-0.27877023130695516,"15":-0.03609960512909932,"16":0.11905073013912511,"17":-0.4643214418966973,"18":-0.4390674411442411,"19":0.046959290194240305,"20":0.2829538487579341,"21":-0.09279373220066575,"22":-0.5875433874898671,"23":-0.22758455447873968,"24":0.07142016849105742,"25":-0.35364076886774715,"26":-0.3332663486002052,"27":0.031513372192207775,"28":0.13494188470962318,"29":-0.17572067542785894,"30":0.005436310155192808,"31":-0.28317993983560114,"32":-0.22989565251733166,"33":-0.5366904497360089,"34":-0.5390919331816052,"35":-0.23977864230837165,"36":0.1197093890116275,"37":-0.3910118321575441,"38":-0.2701746178226395,"39":-0.05280256248191297,"40":0.1662146600178228,"41":-0.08049330109466515,"42":0.5114194191151302,"43":0.24104809540035896,"44":0.11305011736268188,"45":0.10430948030010256,"46":0.3009166983800798,"47":0.26819683979576364,"48":0.011540635777210486,"49":0.05822779629025495,"50":-0.053974405309389684,"51":0.527276040359029,"52":0.7857721550060125,"53":-0.07346411031869804,"54":-0.32801239976181257,"55":0.2618812374773892,"56":0.13081825332198838,"57":-0.5282970345060263,"58":-0.517580038014832,"59":0.4114349853849661,"60":0.48888454713928214,"61":-0.2689911798904686,"62":-0.5541217432254335,"63":-0.029984056120364474,"64":0.020218462474105785,"65":-0.6599226736411452,"66":-0.56384369426936,"67":-0.27829938365140144,"68":0.6406492361474085,"69":0.00760853610049794,"70":-0.6075589584780332,"71":0.06610925162347624,"72":0.13068458404010946,"73":-0.6420912634394415,"74":-0.03446152927494782,"75":0.1978628897318978,"76":0.18102273342443156,"77":-0.025232159824668945,"78":-0.19266910286085273,"79":-0.18817567013531133,"80":0.0021603646872087874,"81":0.3733205676278518,"82":0.4313975429283233,"83":0.2881076598893643,"84":-0.0003835127878139534,"85":0.08104846457332233,"86":0.14212098420527153,"87":0.24914630622016268,"88":-0.6022881487297721,"89":0.2972844342431214,"90":-0.009934897938950358,"91":0.12996748605829084,"92":0.3606867032272307,"93":-0.33252248769368237,"94":0.10632613093080244,"95":-0.08006654534331194,"96":-0.5437557866932853,"97":0.029610417415790662,"98":0.04092278946467916,"99":0.1359889172302222,"100":-0.0853271079148575,"101":-0.07237449112101421,"102":-0.12024558017907004,"103":-0.13699481466512894,"104":-0.40911779575044194,"105":-0.13372919402808633,"106":-0.03694182347699782,"107":0.05573909047616158,"108":0.2405068323870745,"109":-0.26017841321418417,"110":0.0828496143638279,"111":-0.1429329424270632,"112":-0.08880476121999177,"113":0.19951033765857196,"114":0.07040197537325088,"115":0.07924807269262202,"116":-0.21417378365886725,"117":-0.03514304766623274,"118":0.27276769110708465,"119":-0.11007760406914095,"120":0.30414902730849674,"121":-0.22337713127705572,"122":0.4121092858094244,"123":-0.12751843273099725,"124":0.07383066619296687,"125":0.21195067943531218,"126":0.3214639175094507,"127":0.22970667198046926,"128":0.18901746211409176,"129":0.24279779981647232,"130":0.004073122327302499,"131":0.16590327983649844,"132":-0.04256805027724634,"133":0.05093112462349449,"134":-0.053068805824909235,"135":-0.39035589462674997,"136":-0.30771419893961416,"137":0.09709141733882047,"138":0.2632739926350392,"139":-0.13434359192628362,"140":-0.06280768336166437,"141":-0.05933460981511247,"142":0.06887496876650609,"143":0.1664799671699114,"144":0.16357694654147528,"145":0.025453248905516628,"146":0.3172434268419896,"147":0.7651957528356317,"148":-0.13100853582644695,"149":-0.25803807361186043,"150":0.011545611522234107,"151":0.12555767799336018,"152":0.10508968190562194,"153":0.5440700235984832,"154":0.3050331953099762,"155":0.36305851999318495,"156":0.1976674934102374,"157":-0.04540895451782532,"158":0.08489116774979165,"159":-0.38868830668193294,"160":0.10043503165167389,"161":-0.18548041598731688,"162":-0.03508740526255463,"163":-0.46042942721093894,"164":-0.4054803255930051,"165":0.11210014021333463,"166":-0.017697640575374242,"167":-0.2187604251479653,"168":-0.0038240626065138123,"169":0.27082334358064925,"170":-0.10632522162948171,"171":0.0818627731044739,"172":-0.1728080522063786,"173":-0.19453971376544266,"174":-0.01351060586982004,"175":-0.05903918193182369,"176":0.026467997083766976,"177":0.2377141499906356,"178":0.09526671957668123,"179":-0.015504074632851745,"180":-0.34639663104145507,"181":0.0004879753474236323,"182":-0.2708557978747812,"183":-0.09597167591861362,"184":0.05551902460544761,"185":-0.47916333894452007,"186":0.29804599147273225,"187":-0.28978520929629464,"188":-0.8220510664541265,"189":-0.20413828425905997,"190":-0.12333334295134794,"191":-0.09293518894281942,"192":-0.12738016218309176,"193":0.7755682172525393,"194":0.1838318606686715,"195":0.2804138101581133,"196":-0.28648143304704576,"197":0.292537112225517,"198":0.09277047410911998,"199":-0.2982135865608615}},{"sx":5,"sy":5,"depth":8,"w":{"0":0.002606643402993291,"1":-0.04624102311971516,"2":-0.13557472513957888,"3":-0.1968834224706402,"4":-0.25360741033240536,"5":0.07881646562381235,"6":0.17553288188774335,"7":-0.08515815300343099,"8":-0.04303178259022606,"9":-0.0858457232410262,"10":-0.0022372511896633744,"11":-0.19531021308551438,"12":-0.08703819146594545,"13":-0.3018417872911486,"14":0.2149354048618678,"15":0.10935493617676663,"16":-0.13463408873831412,"17":0.41330598017939557,"18":-0.13391806738796244,"19":-0.29762118314083963,"20":0.08967268556687662,"21":0.09895833690800555,"22":0.2540585387996662,"23":-0.08478614054962635,"24":-0.2169672977969711,"25":0.13469418898091717,"26":-0.1496025295388023,"27":-0.25285713987179453,"28":0.5232150654130895,"29":-0.3305640886236899,"30":0.0004912499707078814,"31":0.24221488036989577,"32":0.029564903890356202,"33":-0.13592178186772655,"34":0.13002557368249992,"35":-0.22496212624141773,"36":0.4349763689296954,"37":0.3525897916241208,"38":-0.010237344704630004,"39":0.07953550290110423,"40":-0.20641724231087166,"41":-0.23501631438103712,"42":0.13099410418510513,"43":-0.06510044252958626,"44":-0.2300724880967823,"45":0.05813482868078546,"46":0.1916095645204053,"47":0.0037804497072084628,"48":0.0566888112221821,"49":-0.12740992293503964,"50":0.0831527109997855,"51":-0.16613264091731178,"52":0.01510516237691287,"53":-0.11624803225055774,"54":0.21597448805851371,"55":0.1187261002971383,"56":0.04837432681610423,"57":-0.12300890593631852,"58":-0.11064558655709454,"59":-0.10473239147754516,"60":0.2847339020007817,"61":0.341684972159958,"62":0.3743017824659849,"63":0.49096950212411966,"64":-0.34269610602912565,"65":0.033031345043357925,"66":0.15042682037421853,"67":-0.18831429106912204,"68":0.2114229187308575,"69":0.010723810677181582,"70":0.433282990950593,"71":-0.2883399877304494,"72":0.013178218378942362,"73":0.2219395641435419,"74":-0.11889969151733579,"75":-0.3153687082998977,"76":0.011071298721260165,"77":0.11812786551308581,"78":-0.06043958340932748,"79":-0.06892156394899346,"80":0.06604876766197385,"81":-0.1954845367169177,"82":0.33093956277810166,"83":0.19859242233783314,"84":-0.5689790913419772,"85":0.06616334290644725,"86":0.13736131111588804,"87":-0.08794604390079841,"88":0.19032816861279725,"89":-0.15443879130699711,"90":0.17805373179841733,"91":0.10305886401268738,"92":-0.2192295099107416,"93":0.40981908554555757,"94":0.30951908959013485,"95":0.09607656563851351,"96":-0.002135669653827311,"97":0.18552578087923788,"98":0.25925322903134157,"99":0.13935459077508836,"100":0.12801202874375864,"101":0.22787526892366397,"102":0.3367778912502161,"103":0.2555556274641582,"104":0.17932873950151687,"105":0.06477463833188708,"106":-0.11270178853826496,"107":0.26196739689158044,"108":-0.262154154982788,"109":-0.022958122497062184,"110":0.1694634172512945,"111":0.24475379826860796,"112":0.056973179822052036,"113":-0.059526928839817625,"114":-0.20947296278679492,"115":0.2488535737632574,"116":0.031229298329903038,"117":-0.11604339314798424,"118":-0.15526180425341102,"119":-0.0014776230326616203,"120":0.01712625476300303,"121":-0.086178065853245,"122":0.10865987001392886,"123":0.017884352808562102,"124":-0.15283039435250148,"125":0.34115869752140016,"126":0.22658501021509314,"127":-0.2932283460939391,"128":-0.02811174139853562,"129":0.06352334390112066,"130":-0.09515225832550082,"131":-0.21109635189299503,"132":-0.26377709745513905,"133":0.18114096374322738,"134":-0.0013505877927544525,"135":-0.2134213169527245,"136":0.019751824012685028,"137":0.10469161286104764,"138":0.2717053702925625,"139":0.11578902542828047,"140":-0.4321269472739333,"141":-0.03984001543151898,"142":0.45552796845636195,"143":-0.12380528678844054,"144":0.2634217517575445,"145":0.3381393746724899,"146":-0.044604155525355904,"147":0.12980889198193105,"148":-0.5096621212163697,"149":-0.18696040510761514,"150":-0.08274920329900112,"151":-0.5317585393682055,"152":-0.19486203964446666,"153":0.15554865165667242,"154":-0.2638560961827865,"155":-0.13019828172509929,"156":-0.3086828902478646,"157":-0.09989370021422034,"158":-0.015543044757545617,"159":-0.39111653249998085,"160":-0.2210631145834364,"161":-0.1985157358899512,"162":-0.01872812816941983,"163":0.2272393859416674,"164":-0.0976061302717981,"165":0.20542092329478995,"166":-0.28971342652240273,"167":0.18970624551013068,"168":-0.001862300679209155,"169":-0.05956100544406123,"170":-0.2962708207133921,"171":0.0822641232540805,"172":0.24926090504153234,"173":-0.06184919816187988,"174":-0.35516823464097597,"175":0.3921511487039025,"176":0.3108849294841624,"177":-0.03394641718240694,"178":0.1131265921854829,"179":0.2738427433700404,"180":-0.033646877270416216,"181":0.08374857860942969,"182":-0.3673437665288933,"183":0.16091685523695143,"184":0.2356401317965702,"185":-0.17038440283298112,"186":-0.4295280513925358,"187":0.020717337810290514,"188":-0.08981407763405165,"189":0.14803970064219002,"190":-0.33591173821120757,"191":-0.10579018891565188,"192":-0.03984815285503937,"193":-0.21993366734713612,"194":-0.330353832096499,"195":0.031125820023370016,"196":-0.06294110805843557,"197":-0.07122345317142302,"198":-0.13688198917848293,"199":-0.09924518940585768}},{"sx":5,"sy":5,"depth":8,"w":{"0":-0.15892178081895939,"1":-0.02950135975169834,"2":-0.049972055512223536,"3":-0.2630399110848841,"4":0.18895181589057558,"5":0.013536875064577255,"6":-0.2542374521041156,"7":-0.24256117831960358,"8":-0.05101879699153743,"9":0.10812997030904091,"10":-0.13462488536662587,"11":-0.05364296925654914,"12":0.015244224236701397,"13":0.14736925586287292,"14":-0.192397911123207,"15":-0.1301457778612892,"16":-0.21440278950041336,"17":0.019988576032620487,"18":-0.07112287089569287,"19":-0.1646580092015824,"20":0.05383747322201075,"21":0.11172003719412825,"22":-0.2987597691169971,"23":-0.04330973971357773,"24":-0.07738773957015459,"25":-0.09814804957744164,"26":-0.36165155430194507,"27":-0.22859723954076594,"28":0.2377459226124053,"29":-0.08283986505394032,"30":-0.41358364949003984,"31":-0.04268855272151383,"32":-0.07876743317462412,"33":-0.2901004576254547,"34":-0.06783413233459204,"35":-0.10368711426750471,"36":0.1322657951628153,"37":-0.008086629270815136,"38":-0.36933327856827924,"39":0.14327492044906484,"40":-0.22588187018556058,"41":0.2455565211282537,"42":-0.12076305593320019,"43":-0.26650577444310747,"44":0.21555489542833117,"45":0.04817088280873278,"46":-0.3072099223740814,"47":-0.12316834830847748,"48":-0.46493631511455163,"49":-0.4337699065730776,"50":-0.5086637264506584,"51":-0.6121521447508403,"52":0.19607331896781158,"53":0.08066482197388712,"54":-0.15892211980617063,"55":0.2571080980881099,"56":-0.3622566394640721,"57":-0.13230280474081907,"58":0.19913641288622141,"59":-0.2783712976723482,"60":0.07579180730563996,"61":0.16655914603500266,"62":-0.19295403750843837,"63":0.01527670018655523,"64":-0.4232926533234614,"65":-0.0025198554234502736,"66":-0.23446262638025184,"67":-0.39106223894179176,"68":0.3893089087643914,"69":-0.06115679092517255,"70":-0.2344267991442359,"71":0.18911558294492495,"72":-0.19824098702090856,"73":-0.23963454923037925,"74":-0.18763659343313607,"75":-0.2556841219768129,"76":0.3217751807072411,"77":-0.018541482637712332,"78":-0.38450504456402074,"79":0.1704225164409003,"80":-0.44350092270564767,"81":0.11173923637863784,"82":-0.06433073202853866,"83":-0.33731596484672943,"84":-0.2579710633019296,"85":-0.19973636959317354,"86":0.03337390394887789,"87":-0.13276064534363996,"88":-0.37646250723834396,"89":-0.09388563389501978,"90":0.39651138044244094,"91":-0.19351172010136147,"92":-0.024189525867386444,"93":-0.3768285966189398,"94":-0.12245336632888432,"95":0.09136527277417603,"96":-0.19919537148191882,"97":-0.25810554816601955,"98":-0.1441634768419411,"99":-0.25773364506309737,"100":0.25337407068979556,"101":0.03820047069072444,"102":0.15836490382513257,"103":0.4254539883776275,"104":-0.09798432474494544,"105":0.15009363754976132,"106":0.03579539759924534,"107":-0.41776172642678355,"108":0.6236163038784835,"109":-0.020727785813408287,"110":0.1474470039676944,"111":0.23285164459320948,"112":-0.13568541494470765,"113":0.2555166384156875,"114":0.3405995938127659,"115":0.013708511869584666,"116":0.15503533389518007,"117":0.16220760494055655,"118":0.359031482243048,"119":0.17324659769725292,"120":0.20761931951440535,"121":-0.17773389873397413,"122":-0.4005704682391281,"123":-0.13229364751959738,"124":-0.2292573220631863,"125":0.010995776254516289,"126":-0.11620770387548535,"127":-0.28202302751339925,"128":-0.05213773702526845,"129":0.04644764236484936,"130":0.5106729900486362,"131":-0.23449990019732572,"132":-0.05801399611543231,"133":0.15657846890162902,"134":0.5320962112909005,"135":-0.1696881322276285,"136":0.0008070711529778707,"137":0.2784454897235956,"138":0.0259743210433791,"139":0.005538766397500491,"140":-0.1477085488327287,"141":-0.18778098140339186,"142":-0.1668957697614529,"143":-0.10873374159752235,"144":0.18696684910795602,"145":0.42774829034656137,"146":0.20694917218066014,"147":0.1169187891666373,"148":0.35485536164892945,"149":-0.05475708866685687,"150":0.16209432186556075,"151":0.30904397967083036,"152":0.0213387236417709,"153":-0.012072062666775978,"154":0.5078266421216516,"155":0.5823106334016344,"156":0.18357441526462862,"157":0.04010415829323409,"158":0.9689922407923577,"159":0.322225781703688,"160":-0.055072504873206654,"161":-0.5046727364408078,"162":-0.21519325054880734,"163":0.21212423838364536,"164":-0.642135805194489,"165":-0.06492945736801436,"166":-0.23140686874001773,"167":-0.6290392439346347,"168":-0.294098954498367,"169":-0.07810924232944366,"170":0.37237497864413627,"171":0.03933167276270179,"172":-0.39902878204069,"173":-0.09230940738906808,"174":0.2586349984460674,"175":0.14766497997055042,"176":0.3706579124494475,"177":0.085600681028254,"178":-0.22437985919457695,"179":0.5567014269576032,"180":-0.09119997684088872,"181":0.17399166771647795,"182":-0.038531546737172885,"183":-0.44117287163080876,"184":-0.059980737853527026,"185":0.4417318335298532,"186":-0.05916170454915786,"187":0.4808795459117467,"188":0.0009480945934811667,"189":-0.1830278782601587,"190":0.33273403955774566,"191":-0.2740001591651147,"192":0.1622987726597426,"193":0.20066091353479543,"194":0.512444900727281,"195":0.6450137273917136,"196":-0.5623171846596314,"197":-0.12288373984859205,"198":0.5176516309982244,"199":-0.30720912917317167}},{"sx":5,"sy":5,"depth":8,"w":{"0":0.18063004093711119,"1":0.044801634238838754,"2":0.06990933288253863,"3":0.22296205776940267,"4":-0.04629817866004366,"5":0.29560313575452607,"6":0.1746908209501735,"7":0.03184099315868482,"8":-0.050996185434687355,"9":0.059174103193286996,"10":-0.2601877592908664,"11":-0.3660825359587966,"12":0.045282891855927807,"13":0.08404144617464424,"14":-0.47188034605491663,"15":0.1899520630287896,"16":-0.3343359477209647,"17":-0.14869730449710086,"18":0.34945662007068695,"19":-0.17327871250808,"20":0.03711069612196148,"21":0.026727866105021002,"22":0.12923390450312522,"23":0.34402374172664485,"24":0.1823368007638242,"25":0.11498696890190602,"26":-0.3858588010682818,"27":-0.08833375971384438,"28":-0.03443847357690653,"29":-0.1356945710059465,"30":-0.6830165881791963,"31":0.01771352677653566,"32":-0.7422781391089049,"33":-0.43446742278846284,"34":-0.2028845590914824,"35":-0.09831850911207198,"36":0.24727702808917718,"37":-0.31727754120684437,"38":-0.36566452007254835,"39":0.07615144770637863,"40":0.2933637882226383,"41":-0.02718394231847818,"42":-0.08848673994604506,"43":0.2588990165911962,"44":-0.037319821703018036,"45":0.5214568358792976,"46":0.2036243339740813,"47":-0.02044630333720879,"48":0.15498365638911993,"49":-0.08462100967084156,"50":-0.32122689702350526,"51":-0.05092612552114287,"52":0.3598433495690814,"53":-0.03514266981075662,"54":0.08869747874964212,"55":0.009023492895683967,"56":0.0663135075535787,"57":0.08117596167922791,"58":0.30715903139186995,"59":0.36314618550497446,"60":0.17228414191759944,"61":0.5317782810198384,"62":0.35603450822951455,"63":-0.0791045057339658,"64":-0.3059367736213589,"65":0.3027657270693125,"66":-0.37588479031642363,"67":0.22486501661732736,"68":0.2295756447972872,"69":-0.11554308861746433,"70":-0.23227741682854003,"71":0.16852398165574276,"72":-0.5607789878320621,"73":-0.22584721401769375,"74":-0.13329646354278532,"75":-0.068913424095551,"76":0.22782907680965578,"77":-0.242292952935843,"78":-0.29152761686036666,"79":-0.48195576955587954,"80":-0.18269407614364772,"81":0.1885349616822953,"82":0.08821632219252663,"83":0.09564238037470266,"84":-0.23101046116429097,"85":0.12123276868932507,"86":0.35848624049967515,"87":-0.4051829498605641,"88":0.13960046108744917,"89":0.056958501801648,"90":-0.07752100832187539,"91":-0.12067833847691932,"92":-0.023525100759710562,"93":-0.1270212725009874,"94":-0.03948890218829444,"95":-0.1885506071207732,"96":-0.16368448702713995,"97":0.14907671938969413,"98":0.5103923026144339,"99":0.21571689742335343,"100":0.1714500738524543,"101":0.29566970410079496,"102":0.45296271632145374,"103":-0.13850771183736424,"104":-0.28848757356398835,"105":0.5200558271416642,"106":-0.08404266806204508,"107":0.015948039197684224,"108":0.6750011794219797,"109":-0.4163379424447931,"110":-0.5098879880651325,"111":-0.32425409587300075,"112":-0.15644393107476004,"113":-0.3566599250731611,"114":-0.024627098745239356,"115":0.02157560551019455,"116":0.425368397155013,"117":-0.25329069057556236,"118":-0.2121895686450259,"119":0.1271774389470474,"120":-0.02532302613598254,"121":0.061797586319623225,"122":-0.24555970973313038,"123":-0.24257127110802512,"124":-0.2041599176781921,"125":-0.011935695071523512,"126":0.007548388706982223,"127":-0.1185137501598781,"128":0.31056132205341547,"129":-0.3147061837209196,"130":-0.5224002056120816,"131":-0.42701209798293266,"132":-0.05241544253039293,"133":-0.06576229708047196,"134":-0.12081526278648601,"135":-0.08715378105855115,"136":0.1029059184706012,"137":-0.11406995531229142,"138":0.5725926788101816,"139":0.07121450211168301,"140":-0.15677497109140606,"141":0.07404851952151287,"142":0.26551564915919684,"143":0.12635832965290342,"144":-0.4100852107178869,"145":0.5400013871053548,"146":0.3557418706636226,"147":0.2849583571457253,"148":0.2278444708351852,"149":-0.3639401552624134,"150":-0.015219492730642261,"151":-0.07214001064840865,"152":-0.22339851309303688,"153":-0.18870813974340042,"154":0.008405373123361414,"155":-0.006765346619549847,"156":0.012524568328525927,"157":-0.10945900277209654,"158":-0.21330501645774594,"159":0.12788449114526176,"160":-0.10599059170689831,"161":-0.22282159600312804,"162":-0.16386937819025138,"163":0.024837584251865157,"164":-0.10213260362631639,"165":-0.22843644719983414,"166":0.04657622041863153,"167":-0.11168278056950097,"168":-0.0006115235768283465,"169":-0.4733409252391174,"170":-0.6961793068735139,"171":-0.574641916044302,"172":-0.19047474613428717,"173":-0.26758454130422926,"174":0.02879394378984789,"175":-0.04110247190048474,"176":0.017776152581982275,"177":-0.2867305123497685,"178":0.2256230679531586,"179":-0.04185464137247327,"180":-0.6713810455361732,"181":-0.18450775197730182,"182":0.03000540940774926,"183":-0.10963392837022472,"184":0.17927438012791638,"185":0.6187979927027065,"186":0.31672103534729146,"187":0.49440562815232464,"188":-0.6178919638670337,"189":-0.03650961994051075,"190":0.303382231900132,"191":-0.21754013713055115,"192":-0.19192832203441876,"193":-0.1012699282363451,"194":-0.07014147078943829,"195":0.04573770159031259,"196":-0.3114387466814625,"197":-0.3031806205005796,"198":-0.1761363567000423,"199":0.24147417443876396}},{"sx":5,"sy":5,"depth":8,"w":{"0":0.4486721594901957,"1":0.010579965778727296,"2":-0.39346477067027763,"3":0.0608814998877473,"4":-0.09378190516599856,"5":0.09520646461864161,"6":0.09360716662423368,"7":0.10779344190087606,"8":-0.05914305639914262,"9":0.32895620519659635,"10":0.5089553942930156,"11":0.12196603412545962,"12":-0.3016790327027394,"13":0.026767826831380837,"14":0.19002249684721148,"15":0.05127117207922129,"16":-0.15918040656188692,"17":0.6946618007331495,"18":0.034295687702686845,"19":0.1614702190097247,"20":0.15660522049825665,"21":-0.16734827962643573,"22":0.046555559225126386,"23":-0.322485894428773,"24":-0.06683240901115667,"25":-0.12396014043896006,"26":-0.7009420691105578,"27":-0.2695901617967241,"28":0.23860398379055484,"29":-0.28507786816678743,"30":-0.12961134665447208,"31":-0.16303737635815024,"32":0.09598934991935273,"33":-0.8525951098230439,"34":-0.405757781351611,"35":-0.5340976333753149,"36":-0.3943039704890289,"37":0.13870057315894657,"38":-0.45862238508571024,"39":-0.43805174766171584,"40":0.055528132425553364,"41":-0.2458533971946628,"42":-0.23021705503559017,"43":-0.14217710841649553,"44":0.17168655934998392,"45":-0.22909795593296475,"46":-0.0032302575796969075,"47":-0.21475217529787682,"48":0.285605017783495,"49":-0.006592403496985283,"50":0.5247259891895072,"51":0.11748396891256131,"52":-0.31922572489500217,"53":0.201753001959677,"54":0.27047969606660877,"55":0.1962990165780859,"56":-0.23247198470371763,"57":0.7111544159109822,"58":0.6818961154453081,"59":0.3790495770013554,"60":0.12265547139923277,"61":0.2607938107087469,"62":0.1924378701878476,"63":0.12424905077280005,"64":-0.24574337376584912,"65":-0.4552698291111207,"66":-0.1998695651894833,"67":0.1655400076337769,"68":0.42560095051779834,"69":-0.22289995346105584,"70":-0.30105639605660683,"71":0.11379985495239753,"72":-0.2523156661946982,"73":-0.673360713383899,"74":-0.826644670309353,"75":-0.32964491337624074,"76":0.13550544669926626,"77":-0.15113970477963076,"78":-0.4913467397268802,"79":0.2337697527025035,"80":-0.023195625664133548,"81":-0.43321142480827174,"82":-0.6816619277654385,"83":-0.6493230846643698,"84":-0.1418852237381827,"85":-0.19311369048065036,"86":-0.5884538374999194,"87":-0.5293972462816747,"88":0.5027992802578959,"89":-0.05120378702919855,"90":0.2683836843274344,"91":0.15605795721948917,"92":-0.34568730443475987,"93":0.40340078204075136,"94":0.040557650115512996,"95":-0.07792751202454162,"96":-0.6077505169059771,"97":0.5969612018361606,"98":0.7690462487651772,"99":0.01987192920379097,"100":0.2504603473210494,"101":0.09001847739116785,"102":0.45199332140028475,"103":-0.09123604936967124,"104":-0.34001566866348987,"105":0.19340089378952482,"106":-0.1693226085910058,"107":0.11010648417165132,"108":0.21011608311431823,"109":-0.18618758027341953,"110":-0.20687303107050106,"111":-0.03978867176865432,"112":-0.12426960896597382,"113":-0.06883467617823316,"114":-0.18076131083327585,"115":-0.3315928442148398,"116":0.04662188488522351,"117":-0.18474005655435954,"118":-0.048598984880156536,"119":-0.23218608260683465,"120":-0.10801983558665634,"121":-0.5402478917398238,"122":-0.09821773867291377,"123":-0.17830782223100308,"124":-0.03711793129320529,"125":-0.17780673876586928,"126":-0.1944019689554068,"127":-0.32049678213423155,"128":-0.05643882272587852,"129":-0.3006586958399122,"130":0.04722716886477234,"131":-0.2260354374611003,"132":-0.5433298138613878,"133":0.11389397183617574,"134":0.34540184896847703,"135":-0.2840437206083513,"136":-0.3223651833055066,"137":0.671796423321453,"138":0.794142053311176,"139":0.12135274601148117,"140":0.0628541071250731,"141":0.043147205982537094,"142":0.4566496809848935,"143":-0.14732632960000644,"144":0.136395926389028,"145":-0.014339428865147571,"146":-0.23386369746212393,"147":0.009581660899543744,"148":-0.17504243302114236,"149":-0.2660558514855118,"150":-0.11284980883278421,"151":-0.08166147488117581,"152":-0.012009846953508785,"153":-0.35552117936431177,"154":-0.2960739658414836,"155":-0.054224271263855255,"156":-0.6627455497103769,"157":-0.20427248632493494,"158":-0.35050172571490695,"159":-0.5094080426807408,"160":-0.0010024397538016508,"161":0.32429857269290335,"162":0.04044889159181236,"163":-0.30051051519657035,"164":-0.10333004636160628,"165":0.572371395884597,"166":-0.12684678736997876,"167":0.18746581594151313,"168":0.07542538540827683,"169":-0.27456975508708703,"170":-0.1514269167864399,"171":-0.444804949733408,"172":0.006365159908043701,"173":0.06437395220515424,"174":-0.05077183831199166,"175":0.1344171842700958,"176":-0.18479693704770594,"177":0.06462739932765965,"178":0.8331925341200705,"179":0.21445307220055207,"180":-0.023304949416752326,"181":0.00026734400808078645,"182":0.2713066916220899,"183":0.0014755925318131588,"184":0.19126264561043488,"185":0.03672915153448263,"186":-0.08278464745476484,"187":0.2469571500646146,"188":-0.2021416762077156,"189":-0.1535232295454664,"190":0.015278076297546673,"191":0.2519125444133564,"192":0.08222910112428994,"193":-0.3327304288375297,"194":-0.3956251405197425,"195":-0.4135134989734371,"196":-0.09121571574938031,"197":0.2510584533394193,"198":-0.1732978484309753,"199":-0.16091964678990328}},{"sx":5,"sy":5,"depth":8,"w":{"0":-0.5437861131189298,"1":0.05380134880391044,"2":-0.21113180372284807,"3":-0.20169000417725233,"4":0.25343667809219933,"5":0.28663114688139385,"6":-0.3923686612971669,"7":-0.2742629266624298,"8":0.24157911388755102,"9":-0.23289705753174414,"10":-0.10338290128920158,"11":0.0858481462645706,"12":0.22156748408586274,"13":0.40148535687795145,"14":-0.2554103020303352,"15":-0.14637985355419422,"16":0.03296374598570183,"17":0.13194082352586178,"18":0.41450255286341425,"19":0.17132363347071836,"20":0.08187069176263513,"21":0.42205095410516164,"22":0.13370248636293644,"23":-0.16529308032328913,"24":0.14137790857182553,"25":0.14347548569082688,"26":0.17681097000950077,"27":-0.19435560885204808,"28":0.3300044255726725,"29":0.09226695383506037,"30":-0.047096091165203545,"31":-0.05014719230486325,"32":-0.0271679533482949,"33":0.3181890167673431,"34":0.034866000709452324,"35":0.08932086818136763,"36":0.03843818485229744,"37":0.2596144038624288,"38":0.03848956922936634,"39":-0.13024639490142495,"40":-0.5135455250267101,"41":-0.11425442508869714,"42":-0.09190073552126439,"43":-0.42936698436286097,"44":-0.05061823970263196,"45":-0.19116676903311003,"46":-0.041971379502519834,"47":-0.324073471949305,"48":0.037404607638172625,"49":-0.37257907021427966,"50":-0.3150287281160905,"51":-0.08296909228047655,"52":0.05056860147273192,"53":0.24923910524743953,"54":-0.18123907339084613,"55":-0.09961205217548416,"56":-0.44445819413150833,"57":0.06674318686918604,"58":-0.16648205033863858,"59":-0.04506558594362645,"60":-0.16161883446467892,"61":0.38234087431260144,"62":0.015849222562950432,"63":-0.07220561053353876,"64":-0.3013995370281385,"65":-0.02290151699721101,"66":-0.3139713258161002,"67":-0.5571176795279233,"68":0.17147335711455142,"69":-0.20364532920087536,"70":-0.2596375121890819,"71":-0.19934948416150783,"72":-0.0996015436564873,"73":-0.1665234979323399,"74":-0.2760261772896163,"75":-0.10437533564231749,"76":-0.20870376562204285,"77":-0.072101324169425,"78":-0.24654840244281614,"79":-0.03573964501966693,"80":0.42217543751949493,"81":0.11560259972281804,"82":-0.16884970996263948,"83":-0.16940238692677423,"84":-0.6622413393839729,"85":-0.3024979767082149,"86":0.6687687170616087,"87":0.5919558685961452,"88":0.12826387771401287,"89":0.347791617901591,"90":0.07444531603213385,"91":-0.5589844406658829,"92":-0.15384348638740858,"93":-0.06559799667544075,"94":1.154261372734002,"95":-0.44901979144965515,"96":-0.18399154422647898,"97":0.678819972607997,"98":0.26665348164389113,"99":-0.44443032158999735,"100":-0.46701197051940885,"101":-1.0538714899670716,"102":0.68369983013593,"103":-0.8001273397719778,"104":-0.08345204679775475,"105":0.9309761991752594,"106":0.10957475732191642,"107":-0.09246752599507586,"108":-0.2824076711859164,"109":-1.0066059588624536,"110":-0.24776527740839793,"111":0.49641330311440135,"112":-0.1361919677914225,"113":0.2965868216578922,"114":0.22303907048044935,"115":0.2711153802216833,"116":-0.25868911769261665,"117":-0.6877543896436011,"118":-0.5182873300998486,"119":0.3318527222270823,"120":0.5498199312987201,"121":0.07121049656663254,"122":-0.3552800429018162,"123":0.049477231684938255,"124":-0.2032557173107584,"125":0.43447099749801954,"126":-0.36359916698406197,"127":0.6061719365007507,"128":0.12832174908775348,"129":-0.3206405771961423,"130":-0.42911928836924734,"131":0.7472141488611905,"132":-0.2893394759273777,"133":-0.0671943397589101,"134":-0.37852965766656366,"135":0.2293392041020572,"136":0.548925057205992,"137":-0.36777776241088683,"138":-0.4246739122934959,"139":0.3264247807377459,"140":-0.2585494892083388,"141":-0.5374071422319296,"142":-0.47023012142148946,"143":0.0833144384841342,"144":0.4323412555066677,"145":-0.14729515371950905,"146":-0.07756312636763478,"147":-0.025849980084314415,"148":0.13853899443486897,"149":0.21511941199466883,"150":0.28514234162631463,"151":-0.0317399439372312,"152":0.17574261501054136,"153":0.49010379529326714,"154":0.08916187112477235,"155":0.2324292709207374,"156":0.41660190588848506,"157":0.23509068753140963,"158":0.16686289148337055,"159":0.260892890545541,"160":0.03396960693176451,"161":0.44973263464688795,"162":0.1948964491768566,"163":0.26223530984276106,"164":0.2192489051672696,"165":0.11776121283283687,"166":-0.1982118132775853,"167":0.08506604454908738,"168":-0.16176468068583758,"169":-0.1355536611920983,"170":-0.006118732148657069,"171":0.002690164630375049,"172":0.06259488932673925,"173":-0.24480240034855558,"174":0.19659602014974475,"175":0.1485036324415059,"176":-0.24829348885784014,"177":-0.2739429157966001,"178":0.38254121224012966,"179":-0.44967539936196643,"180":-0.3481431367987234,"181":-0.04395356378970504,"182":0.06297329630193138,"183":-0.23388202097673422,"184":0.11980432169348133,"185":-0.10371731036388268,"186":-0.23302099193284057,"187":-0.39945839164873426,"188":-0.10274801437636841,"189":0.4268779209310403,"190":-0.3007759201943158,"191":0.2521441803588814,"192":-0.04461960417342962,"193":0.08739950974917814,"194":0.5247537096239105,"195":-0.1707661814657305,"196":0.15564596048418564,"197":0.11677000165528696,"198":0.49366546826710883,"199":0.15001743433780415}},{"sx":5,"sy":5,"depth":8,"w":{"0":0.19577160816448919,"1":-0.5144027580078823,"2":0.29488422418099003,"3":0.17526433990879087,"4":0.13257676207846333,"5":0.31028482323380324,"6":-0.0061303037991549065,"7":-0.0878740422324813,"8":-0.02225083672728143,"9":0.5345790279300583,"10":0.07496227978707368,"11":-0.0404824064061941,"12":0.18187735072985836,"13":0.5664202282228938,"14":-0.2614596677059918,"15":-0.2723418670681339,"16":0.21516718426123912,"17":-0.5471027772709921,"18":0.22116424787237668,"19":-0.3674874514600527,"20":0.20738906050962141,"21":0.4747025223683659,"22":-0.05385609373452876,"23":0.4030775133936281,"24":-0.062491852727437285,"25":0.1582776904057002,"26":0.07749320539693791,"27":-0.23288859869373912,"28":0.5414101612806622,"29":0.5733968875058623,"30":-0.032149835022187156,"31":0.3352225302070152,"32":0.29220867090988856,"33":-0.003590725947018419,"34":-0.057042603222198535,"35":-0.155815561692113,"36":0.11338102152423948,"37":0.08206998343456988,"38":-0.19272161634664914,"39":-0.057439673970315575,"40":0.3502385568975753,"41":-0.41641398791646395,"42":0.1732873615542137,"43":0.012067965884447888,"44":0.1452645362535533,"45":0.6275607278309405,"46":0.49511061748707325,"47":0.2718933777667036,"48":-0.6038408638143357,"49":0.17661131473214448,"50":0.029130060956493346,"51":-0.1658630415095068,"52":0.4288078164313875,"53":0.43706553290214,"54":0.3751709633660794,"55":0.5021045995064763,"56":0.1480604994304527,"57":-0.468765493479565,"58":0.32491603352902293,"59":0.05787962981275517,"60":-0.26689602755652625,"61":0.19416550107043354,"62":0.14145703359591746,"63":-0.05879117338024719,"64":-0.17442866121215905,"65":-0.1677505784037891,"66":-0.30403946146868654,"67":-0.42935057938176624,"68":-0.376227271500652,"69":0.39827453800629153,"70":0.2842989175023712,"71":0.36479177809427654,"72":0.2588320771020208,"73":0.2567509848685311,"74":0.10148179331919191,"75":-0.1140172799426042,"76":-0.3188280697585931,"77":0.09444914458128592,"78":0.3915165788167899,"79":0.12610150911923698,"80":0.08712743389338509,"81":-0.0011774258707710162,"82":0.3493374537065308,"83":0.15532199740781377,"84":0.03417707533955621,"85":0.40109835906258345,"86":0.36746483157582177,"87":0.07960139799144292,"88":-0.6081569477059943,"89":0.2266224018437754,"90":-0.2099137561177186,"91":0.1655237880507259,"92":0.3270256776649375,"93":0.05408851368624922,"94":0.08050734004275109,"95":0.11755759806423566,"96":0.018547447873078986,"97":-0.1718333018260494,"98":-0.020206101373856568,"99":0.1012315430742535,"100":-0.3236222117846842,"101":-0.04295678083693039,"102":0.11938060795453033,"103":-0.03782749320809131,"104":-0.11596858241311803,"105":-0.11436934585874284,"106":-0.35522264130002223,"107":0.11859335974538252,"108":-0.29166762398799073,"109":-0.46390071565232516,"110":-0.3193301952332275,"111":-0.18065506249489485,"112":-0.16298671901596282,"113":0.06615084561697945,"114":0.06425644877340424,"115":0.3114659877925176,"116":0.03540756407908383,"117":-0.27128747428694616,"118":0.008153665451944328,"119":-0.5771504054682051,"120":0.01461984953084767,"121":0.28205471603648136,"122":0.3501407049629011,"123":0.47393905556587385,"124":-0.06810454720449917,"125":-0.12240690692346075,"126":-0.1064954374812745,"127":0.14955816556045465,"128":-0.06460044240303325,"129":0.12310428152013274,"130":-0.27476060914057127,"131":0.2754624799030092,"132":-0.012165481696935211,"133":-0.7918540507460087,"134":-0.3649891254391047,"135":-0.118739860780932,"136":0.10450308074417895,"137":-0.1339491837344953,"138":0.045969440032342795,"139":-0.0031753484008726195,"140":-0.13766471387977328,"141":-0.34409369540732143,"142":-0.04961153764886643,"143":-0.1291945760288413,"144":0.18275462049627808,"145":-0.2938815206334261,"146":-0.42486750262797296,"147":-0.140172953465372,"148":-0.33487868614888683,"149":-0.16141549639422872,"150":-0.04665220227227066,"151":-0.41499433270235025,"152":-0.22205571449048217,"153":0.02935277515814896,"154":0.0772350939308133,"155":0.1646152711795741,"156":-0.39147502805462747,"157":-0.15306696379320958,"158":0.12354273692670334,"159":-0.2757591424668045,"160":0.267632522352379,"161":0.08786583330954965,"162":0.2553310732100518,"163":0.2010597447469547,"164":0.14279964190999458,"165":-0.2632357202738104,"166":0.12731403400218935,"167":0.3155932890257402,"168":0.04916150157656164,"169":0.13171925671870865,"170":-0.05198990259862421,"171":0.011996925671808285,"172":-0.14911684614786513,"173":-0.28559694904943966,"174":-0.18803669293291092,"175":-0.14772913178132396,"176":-0.0894536106967231,"177":0.03461962233008808,"178":-0.10883752180916129,"179":-0.3074077156357325,"180":0.08248222036201075,"181":-0.4318097730475279,"182":-0.3111429310124618,"183":-0.04149379566493287,"184":0.11084144181905832,"185":-0.117032543315214,"186":0.02425383681416152,"187":-0.11543680428735201,"188":0.1823042902861299,"189":-0.18213900512430298,"190":-0.14125653658510973,"191":-0.004209221264683581,"192":-0.062061864579973536,"193":-0.09489037196145682,"194":-0.1771954783257317,"195":0.13341592203015623,"196":0.05231955901243349,"197":-0.027112927723986605,"198":-0.20624908552892882,"199":-0.23326279937862912}},{"sx":5,"sy":5,"depth":8,"w":{"0":0.03914322190103449,"1":-0.4418749359946642,"2":0.34343947584674384,"3":-0.022064077483354243,"4":0.6061459903469686,"5":1.308397403592112,"6":0.5336358976639024,"7":-0.004800555056711002,"8":0.1619937122246389,"9":-0.20315344242362413,"10":0.04520900229330768,"11":-0.076656620525451,"12":0.36948664681651244,"13":0.3286998353595879,"14":0.12029864608581559,"15":0.42359424414666513,"16":0.3714481277234272,"17":-0.22284559387453826,"18":0.05831664552414475,"19":-0.03872141929111741,"20":-0.04050935383321029,"21":0.46468967207780526,"22":0.19035940804733642,"23":0.7317697265058072,"24":-0.11498791214947292,"25":-0.26444361796153953,"26":-0.004015566152957467,"27":-0.16186937877396979,"28":0.42563152203020665,"29":-0.1520294619671212,"30":0.44762297686283564,"31":0.3993684114441475,"32":0.1597662232845077,"33":-0.21763142591609194,"34":-0.03310587664259402,"35":-0.03440562804868961,"36":0.1562871030545024,"37":0.0543334018560285,"38":-0.311727750754146,"39":0.30014981119701367,"40":-0.4946148479424549,"41":0.06342754779793879,"42":0.17128626751707124,"43":-0.19826290852650533,"44":-0.43106861474020336,"45":0.6296408036494379,"46":0.5853342052216621,"47":0.5157566486896059,"48":-0.24548920029058532,"49":0.16841906661621958,"50":0.4724795746355393,"51":0.25701515148687304,"52":-0.3394899960605766,"53":-0.5061782817203321,"54":0.5826391585049666,"55":0.2527648426372543,"56":0.22910853402288747,"57":0.4874333481432593,"58":0.05940409733854984,"59":0.0864628823102256,"60":-0.011126665384279281,"61":-0.3886085042649345,"62":-0.11069928276615555,"63":0.17765619776872557,"64":0.3513309941900849,"65":-0.0849507034917359,"66":0.13003416073033036,"67":0.20731201969125404,"68":-0.15389351041588384,"69":0.02530416885727708,"70":0.1459318968955957,"71":-0.16866622243021678,"72":-0.055455761346439744,"73":-0.028105323747674077,"74":-0.13926961271104707,"75":-0.00398266650858369,"76":-0.27473193727127393,"77":0.28596640447397337,"78":0.243338405166442,"79":-0.09783793496089147,"80":0.08127039657896067,"81":0.019502774516392103,"82":-0.20948383670954482,"83":-0.022857136911901426,"84":-0.022205586962436283,"85":-1.322783946629054,"86":-0.23926427707283285,"87":0.16938204618997288,"88":0.4559604782493345,"89":-0.23362246996732236,"90":0.46222599028416317,"91":0.23114148442382723,"92":-0.016436456730289657,"93":-0.5090718611956694,"94":0.10553010128098729,"95":-0.4953873916743062,"96":0.23168196081384337,"97":-0.12066770913344234,"98":-0.48773650116493267,"99":-0.10608796791621224,"100":-0.1470196738813473,"101":0.0456918504718147,"102":-0.08321025449120449,"103":-0.816234821650547,"104":0.13259696377509655,"105":-0.02073956442295595,"106":-0.10832299630083697,"107":-0.24717945376837047,"108":-0.40417060863221677,"109":-0.04389971791306709,"110":0.18539569020811408,"111":-0.5996859011247481,"112":-0.05851927748068374,"113":-0.06966809611999505,"114":-0.15622988919944814,"115":-0.319326984148851,"116":-0.6886412954910391,"117":-0.5364728791901097,"118":0.36094208347143264,"119":-0.2760771189179554,"120":0.2617701401418761,"121":-0.17797789325522634,"122":0.03306522631927408,"123":0.1284911827350956,"124":-0.05711343441351651,"125":-0.31332247196458474,"126":-0.5514801134922873,"127":-0.22639218755193125,"128":0.06861289388711027,"129":-0.27503362711578516,"130":0.2108001529366153,"131":0.24206939140585548,"132":-0.19875977680478019,"133":0.333128411768647,"134":-0.4427773777923452,"135":0.015270560040355251,"136":-0.172639665514374,"137":-0.5208499875629305,"138":-0.6116922445163956,"139":-0.35712287365324386,"140":-0.09015026684593452,"141":0.05726894246466733,"142":-0.2614343605064513,"143":0.3343999064871535,"144":0.0043989528419844165,"145":-0.5258808726362945,"146":-0.5129856356703003,"147":-0.27239157940012765,"148":-0.10908948837379309,"149":-0.1844075495635898,"150":-0.4126695346798858,"151":0.4193665984978697,"152":0.18470341534196502,"153":-0.2659114225843162,"154":-0.31356823105875625,"155":0.0585544399220843,"156":-0.05574739683827754,"157":0.024471965179067686,"158":-0.44103378161815837,"159":0.14921249494140948,"160":0.013424466610386319,"161":-0.21733313451681344,"162":0.26856062539340037,"163":-0.060760998321003,"164":-0.08821041992670209,"165":0.19709102979301674,"166":-0.17718453829393138,"167":0.0035478120955094905,"168":0.452169671449254,"169":0.1734252692633682,"170":0.2888235974898859,"171":0.28657801244333125,"172":-0.09477352289507424,"173":0.3409071682136225,"174":0.13575025368224483,"175":-0.08636307837730653,"176":-0.28021996708958036,"177":0.48661256700464756,"178":0.1683622326130044,"179":0.3286658447457547,"180":-0.0004538403338466771,"181":0.36616815285334886,"182":0.1093497093096096,"183":-0.04944519413389056,"184":-0.1857591474068223,"185":0.37361151687289434,"186":0.06687883267248183,"187":0.5236959553324876,"188":-0.2275405631792921,"189":-0.18248261409205765,"190":0.38656937136638697,"191":-0.30271869763433695,"192":-0.24211723608544605,"193":0.49522775533333135,"194":0.3257555396552719,"195":0.5481619620176528,"196":0.06194556815367185,"197":0.09417858825734095,"198":0.43613000569836746,"199":0.17312452648646875}}],"biases":{"sx":1,"sy":1,"depth":16,"w":{"0":-0.1523182417626449,"1":0.19292205031135418,"2":0.034169722756775135,"3":-0.3582686853059093,"4":0.07647507529609972,"5":-0.22049495438019193,"6":-0.026546852272934674,"7":-0.07905482857011836,"8":0.0029493473399687764,"9":0.0017588213586187003,"10":-0.09703498648123418,"11":-0.06689860974125951,"12":0.1372914696702073,"13":0.043849952315736705,"14":-0.12119336558937804,"15":-0.28656574158830705}}},{"out_depth":16,"out_sx":13,"out_sy":13,"layer_type":"relu"},{"sx":3,"sy":3,"stride":3,"in_depth":16,"out_depth":16,"out_sx":4,"out_sy":4,"layer_type":"pool","pad":0},{"out_depth":10,"out_sx":1,"out_sy":1,"layer_type":"fc","num_inputs":256,"l1_decay_mul":0,"l2_decay_mul":1,"filters":[{"sx":1,"sy":1,"depth":256,"w":{"0":-0.15249041625896587,"1":-0.008881160017620696,"2":-0.3567835409188424,"3":0.07692117643805238,"4":-0.3819860848273114,"5":-0.6440796138526473,"6":0.09999909252243884,"7":-0.5660100656990621,"8":-0.8229658558226819,"9":-0.20236818343449675,"10":-0.49230028773405965,"11":-0.03871290319992888,"12":-0.32695040743144493,"13":-0.9619338837823238,"14":-0.6578281520926068,"15":-0.28291281318270284,"16":-0.661792352783973,"17":-0.5200254287881062,"18":-0.3305010956831919,"19":-0.5378767418976849,"20":-0.6570763575537487,"21":-0.04788138961522469,"22":0.5684859770681274,"23":-0.3529163962388538,"24":-0.6674224613583236,"25":-0.14202711897738357,"26":-0.5900862835696896,"27":-0.18738936396862724,"28":-0.10616867043913132,"29":0.5027755456521427,"30":-0.17081647715097667,"31":0.020236813822262063,"32":-0.3106401282684434,"33":-0.48940538169412223,"34":-0.45502751246989304,"35":-0.20056202523599578,"36":-0.4780405288226459,"37":-0.3419022016198958,"38":0.41845106036091223,"39":-0.665135093526323,"40":-0.6842605908154824,"41":-0.0794045354936925,"42":-0.5007846721606206,"43":-0.25387683987740317,"44":-0.14908307994602304,"45":0.8090623063361696,"46":-0.36488381828327227,"47":-0.32577890905522766,"48":-0.5581303945367354,"49":-0.29377828715401877,"50":-0.5575190170962788,"51":-0.22452695642067022,"52":-0.6134599255139785,"53":-0.35213763772757894,"54":-0.05751865557037684,"55":-0.9904860783102981,"56":-0.4911029474870005,"57":-0.15461952606344034,"58":-0.4319945375989664,"59":-1.1615721098162748,"60":0.035983489007324586,"61":-0.3524063448791408,"62":-0.29702169973123427,"63":-0.6702873629975367,"64":-0.205457814576671,"65":-0.12984734980459675,"66":-0.5071672047122128,"67":-0.21994689819046231,"68":-0.32894068096179124,"69":-0.08509054320316778,"70":0.014829510418541804,"71":-0.5156448013630013,"72":-0.2615951741254591,"73":-0.11450326395847787,"74":-0.07660790210717384,"75":0.25933566196765645,"76":-0.12421073407638286,"77":-0.6191225349186197,"78":-0.24486870813482572,"79":-0.6294812439332589,"80":-0.19700875766105708,"81":-0.4181205111014345,"82":-0.5312386231999331,"83":-0.7379077329376501,"84":-0.009478052236938261,"85":-0.6172035138590714,"86":0.01903204277611762,"87":-0.8220444782575855,"88":0.2490857690945507,"89":0.014704137214340945,"90":-0.0023960766751229844,"91":-0.5108098706443026,"92":0.19601543721228754,"93":-0.44782261393222295,"94":-0.38204908609445987,"95":-0.056162483354539695,"96":-0.4047230589339796,"97":-0.7324375257426531,"98":-0.4244340421542399,"99":-0.1979925368081004,"100":0.12104048606484386,"101":-0.2999815452972541,"102":-0.29791203577649283,"103":-0.6894513114246397,"104":-0.17985235683654194,"105":-0.09265761423260012,"106":-0.10339426373999203,"107":-0.8302474174631477,"108":-0.32153640918523474,"109":-0.2223248117291581,"110":0.027903411394950804,"111":-0.051539872495763764,"112":-0.39571906355443714,"113":-0.08914881981222343,"114":-0.5580626000871062,"115":-0.38726554567575444,"116":0.05367182655993913,"117":0.060135877580512725,"118":-0.3619045258674894,"119":-0.4925115868045092,"120":-0.2115539494020052,"121":-0.1931104169099328,"122":-0.2336502669139747,"123":-0.4504833003035933,"124":-0.3467263094327244,"125":-0.1409409106354562,"126":-0.17386848802864324,"127":-0.16904502575427158,"128":-0.2058474813620231,"129":-0.9520302355208561,"130":-0.08133341006510045,"131":-0.46919707672962246,"132":-0.3477301122800802,"133":-0.5911877274003802,"134":-0.44110186646760124,"135":-0.2779715888620542,"136":-0.615571398677692,"137":-0.045531542222935234,"138":-0.7044940183460853,"139":-0.7594465681928076,"140":-0.2982535277040548,"141":-0.4965254408650722,"142":-0.14989535713953334,"143":-0.3924696342419067,"144":-0.2480623236778971,"145":-1.4174122233897097,"146":-0.08297495813023174,"147":-0.4376919162090653,"148":-0.5485092100553337,"149":-0.6938267875074151,"150":-0.18608961195290966,"151":-0.3800411733054777,"152":-0.35702680455584634,"153":-0.14323359529318724,"154":-0.2943761060871535,"155":-1.0069175679506317,"156":-0.20814399901023437,"157":-0.5270295284625152,"158":-0.2879762764929598,"159":-0.2533296976034093,"160":-0.49668909232947894,"161":-1.3060634434644824,"162":-0.5501362230783481,"163":-0.3243067964960407,"164":-0.5827465951701035,"165":-0.6831044073546981,"166":-0.38189132973731993,"167":-0.650290496380933,"168":-0.08122058788292086,"169":-0.25553143784239374,"170":-0.12991851353533004,"171":-0.8036791340065588,"172":-1.1045908011130003,"173":-0.6237148454486788,"174":-0.48447499784821324,"175":-0.28337403062303107,"176":-0.3763868988513244,"177":-0.648709425307272,"178":-0.29510403324312723,"179":-0.3329886124599026,"180":-0.15927098948797389,"181":-0.24251705410018812,"182":-0.0033053074233600167,"183":-0.40514435024327516,"184":-0.37983922727280744,"185":-0.35941027636404393,"186":-0.19560630651734426,"187":-0.2500092425862876,"188":-0.3983646629209066,"189":-0.7039894243505225,"190":-0.3814960150816127,"191":-0.26121706699852104,"192":-0.35567858506412336,"193":-0.5125334253359374,"194":-0.5767338647957934,"195":-0.2940564091360457,"196":-0.4327855623158676,"197":-0.6625113136237778,"198":-0.5507743750004938,"199":-0.5302527530910496,"200":-0.373686107235225,"201":-0.4079913720300627,"202":-0.6165502106258597,"203":-1.1248003021705184,"204":-0.2867188073594367,"205":-0.582585685012773,"206":-0.20566262476146338,"207":-0.17764754608381192,"208":-0.5055944652709331,"209":-1.3722338267717704,"210":-0.1528804829933533,"211":-0.6467917791047273,"212":-0.4786801835950312,"213":-0.9334873763517374,"214":-0.2690646267485652,"215":-0.4597697083360251,"216":-0.7169433651389777,"217":-0.39624662681826883,"218":-0.9311723470808537,"219":-0.9605752102103636,"220":-0.8508891632489896,"221":-0.31363360030569376,"222":-0.06837172655661089,"223":-0.17352491430685954,"224":-0.5920308469588405,"225":-0.9137980096938132,"226":-0.442743024254206,"227":-0.45840870608482404,"228":-0.7577074463359144,"229":-0.8977490371533411,"230":0.0550675079528369,"231":-1.0169781521788885,"232":-0.779443337003677,"233":-0.44975725852125953,"234":-1.0134931295164125,"235":-0.9496348848690614,"236":-1.097444416714622,"237":-0.3557644001171574,"238":-0.5866073695833137,"239":-0.3345460886479879,"240":-0.5494990373001736,"241":-0.5691900282673538,"242":-0.5769697924362411,"243":-0.4926262637797613,"244":-0.9312394183447698,"245":-0.3271540349572777,"246":-0.2589612291142932,"247":-0.9524227297531805,"248":-0.8514507568165299,"249":-0.6741916883078951,"250":-0.19959299707657713,"251":-1.0840812522047991,"252":-0.7452818045529539,"253":-0.1558025355779333,"254":-0.6691989862472728,"255":-0.41635314420872305}},{"sx":1,"sy":1,"depth":256,"w":{"0":-0.15920221278057517,"1":-0.4046516703285363,"2":-0.22259776292572409,"3":-0.11399954406603535,"4":-0.10650645384647096,"5":-0.45455878522267584,"6":0.11479105322008766,"7":-0.18913190907866273,"8":-0.45645488233463927,"9":-0.0822059512518855,"10":-0.2156682121075239,"11":-0.025991026774352968,"12":-0.06781173514743727,"13":-0.1880103542083887,"14":0.010385227463105547,"15":-0.33245012607595203,"16":-0.264843964713301,"17":-0.6899584267930915,"18":-0.9478014569966366,"19":-0.6694212401607953,"20":-0.3925700919902548,"21":-0.48170246708933084,"22":0.05744762300270933,"23":-0.542330403004801,"24":0.007477279440076645,"25":-0.10635886839019452,"26":-0.38617995611890293,"27":-0.14118295642626408,"28":0.2498765727776644,"29":-0.2129047898000588,"30":0.02739664333276575,"31":-0.06559798440868177,"32":-0.5278409136498481,"33":-0.6110580821583849,"34":-0.9580793481364993,"35":-0.44009426871609314,"36":-0.08682319228817933,"37":-0.11499932026200535,"38":-0.05019615700095763,"39":-0.4689528646825615,"40":-0.04152096407450324,"41":-0.48039622358846384,"42":-0.223321202456172,"43":-0.035875049839815244,"44":-0.06158218055804618,"45":-0.6939114394773338,"46":0.09783634058085601,"47":-0.24857247833611487,"48":-0.6560261322456545,"49":-0.3606735527646218,"50":-0.6399820945373101,"51":-0.08640328880632413,"52":-0.31207372142501205,"53":0.12369362462053123,"54":-0.10367157333226637,"55":-0.43175071861802067,"56":-0.20255033020313779,"57":-0.45344018464716107,"58":-0.27141780756162376,"59":0.16609970273874794,"60":0.17856488693164002,"61":-0.6281550016458487,"62":-0.25048880623985526,"63":0.03494864508604387,"64":-0.36011204023141696,"65":-0.5846619014595106,"66":-0.5211932164352777,"67":-0.6345361962984719,"68":-0.016916391535291807,"69":-0.3332213622333617,"70":-0.5417094117535634,"71":-0.5073363116401732,"72":-0.6423366733486191,"73":-0.08705772011065613,"74":-0.23895830776998347,"75":-0.23138275151845636,"76":-0.27072535470334586,"77":-0.12129329802194547,"78":0.01319678561306503,"79":-0.07501992074396395,"80":-0.6853108112432522,"81":-0.37521756883572804,"82":-0.5655408081779496,"83":-0.5526603805673024,"84":-0.4975438878693879,"85":-0.13826455398943716,"86":0.03082329705648736,"87":-0.22786307009710366,"88":-0.47449585199283856,"89":-0.22073746900881186,"90":-0.07488397878516866,"91":-0.20776301093777183,"92":-0.3989501531745686,"93":0.22416328794569504,"94":-0.19433787608134756,"95":-0.24663063723781703,"96":-0.6112415922062338,"97":0.12443499579947534,"98":-0.27799155461961544,"99":-0.9047294189803101,"100":-0.46714401354850515,"101":0.1663311180867787,"102":0.3911251995271139,"103":-0.07514113992408065,"104":-0.004338592241655756,"105":-0.22358927895157718,"106":0.03993387731252811,"107":0.11751066171041417,"108":0.33877575463804765,"109":-0.029047793811729398,"110":-0.3756121441613816,"111":-0.7468057983424705,"112":-0.4003970919570509,"113":0.023785304786231046,"114":0.12629848901147608,"115":-0.31603017160130686,"116":-0.6118794619546787,"117":-0.1761820404222541,"118":0.12667610885484099,"119":-0.04278557732561629,"120":-0.05804004890078375,"121":-0.26208300172014126,"122":-0.31818174511951103,"123":-0.2344220567940643,"124":0.005657228007580549,"125":-0.07463492080844955,"126":-0.3960970451763615,"127":-0.6337258144588043,"128":-0.18946824733150244,"129":-0.30429749016121094,"130":-0.2798946083179391,"131":-0.25274255155550496,"132":-0.3288090044645277,"133":-0.810099230213532,"134":-0.8906498915352838,"135":-0.16095699487663856,"136":-0.9418062074567415,"137":-0.2058467386723,"138":-0.47478438353042923,"139":-0.14020837124950566,"140":-0.3532060999489833,"141":-0.4219763725914296,"142":-0.6316413759488465,"143":-0.5686161565312835,"144":-0.45669953562874693,"145":-0.8998503849160657,"146":-0.5902982920540275,"147":-0.29109386792790826,"148":-0.8352722578260946,"149":-1.1640623735948896,"150":-1.317568523481201,"151":-0.8683602439743506,"152":-0.9660557263675817,