{"layers":[{"out_depth":1,"out_sx":26,"out_sy":26,"layer_type":"input"},{"sx":5,"sy":5,"stride":1,"in_depth":1,"out_depth":48,"out_sx":22,"out_sy":22,"layer_type":"conv","l1_decay_mul":0,"l2_decay_mul":1,"pad":0,"filters":[{"sx":5,"sy":5,"depth":1,"w":{"0":0.2239747249374817,"1":0.21122312826155284,"2":-0.3530992988676394,"3":-0.22838360992357692,"4":0.0623656742278915,"5":0.3744895899623745,"6":0.09970816099346543,"7":0.09697717976816085,"8":-0.3670947998927059,"9":0.16391947868920068,"10":-0.08045764531334397,"11":0.016821105032591523,"12":-0.03705956814913298,"13":-0.18616372999602326,"14":0.11011155628045116,"15":-0.28905000585950663,"16":0.036831534440223496,"17":0.3463043616235012,"18":-0.029460789573919944,"19":0.05894565109916733,"20":0.1778069101492284,"21":0.30213402094176406,"22":-0.3856737998072965,"23":-0.22067826062472506,"24":-0.039101961831616426}},{"sx":5,"sy":5,"depth":1,"w":{"0":0.11063792582775063,"1":0.421539256945893,"2":0.282358777137342,"3":-0.11197043431039676,"4":-0.12026221904859853,"5":0.46960264651678485,"6":0.19302560799180257,"7":0.267675837309562,"8":0.21317043771430738,"9":-0.23292556185920846,"10":0.03205587256416539,"11":0.27103863417336366,"12":-0.4744018081841432,"13":0.03355350738307796,"14":0.04272826413254478,"15":-0.25221568475858425,"16":-0.5567926260872309,"17":-0.7190828662339751,"18":-0.24742319635920365,"19":0.08750292397694787,"20":-0.15697445364092016,"21":-0.454253547778151,"22":0.27194131994865567,"23":0.25393410768929786,"24":0.22721376053526623}},{"sx":5,"sy":5,"depth":1,"w":{"0":-0.3668006588568648,"1":0.29273933205989744,"2":0.4123609156288276,"3":0.16572894856702255,"4":0.1355398317242727,"5":-0.3327011907613197,"6":0.07486637684257642,"7":0.33993250284859305,"8":0.29740067550264054,"9":-0.28322233938084007,"10":-0.3809037248981993,"11":0.2893809442678299,"12":0.07467062415845238,"13":0.26926247441899326,"14":-0.4718168411679166,"15":-0.2521558698219653,"16":0.0983223022606967,"17":0.23325934996439268,"18":0.32679429814718863,"19":-0.6111890905869398,"20":-0.2598688667934263,"21":-0.11581519297680729,"22":-0.08031084616761802,"23":0.1892781400876736,"24":-0.5070859160781331}},{"sx":5,"sy":5,"depth":1,"w":{"0":0.44320348295739276,"1":0.10664932804510888,"2":-0.4390652600951204,"3":-1.0161663170367268,"4":-0.3570833277053225,"5":0.10884699608385569,"6":-0.44796076474440827,"7":-0.44058081964725676,"8":0.14083358024805345,"9":0.3041065589850619,"10":-0.13761677032023406,"11":-0.02164327257353198,"12":-0.03610610857467102,"13":0.1272641732295788,"14":0.276484353965127,"15":0.08265143214784079,"16":0.006070326597622329,"17":-0.2703213733647972,"18":0.03605489591316926,"19":0.3690250019396741,"20":0.18112343676625609,"21":0.23519540854852627,"22":0.029530277813719526,"23":0.2037434427935134,"24":0.2604976012937908}},{"sx":5,"sy":5,"depth":1,"w":{"0":-0.2839748108161146,"1":-0.17956107770207766,"2":-0.4389453378840607,"3":-0.8729863357546755,"4":-0.8041176498899644,"5":-0.171979819470887,"6":-0.7729559943458515,"7":-0.6224815278657382,"8":-0.18870001506760942,"9":0.27827479709141234,"10":-0.016622361520854625,"11":0.12913292283615188,"12":0.3985785166187798,"13":0.13871564532308148,"14":0.22619634825918497,"15":-0.047533946979157804,"16":0.28987266989615906,"17":0.5103899953568413,"18":-0.18066136075415695,"19":0.5639775353251315,"20":-0.13339853699150886,"21":0.4249790704967802,"22":0.4472701907766573,"23":0.057023764126111265,"24":0.5399140875948057}},{"sx":5,"sy":5,"depth":1,"w":{"0":0.14974117974247322,"1":-0.3894979161687563,"2":0.03769599195046676,"3":0.38082081226665193,"4":0.2393284642958022,"5":0.11376713146916516,"6":-0.12495960606055574,"7":-0.2208770389318625,"8":-0.2652440828502401,"9":-0.007144737389872593,"10":0.014025667260672704,"11":0.5128936907663996,"12":-0.2803806728878532,"13":-0.15702344029897503,"14":-0.39305985949818595,"15":0.3166504809018738,"16":-0.08783789330859133,"17":0.0020686257227502725,"18":0.008911577468281126,"19":-0.05938871023378137,"20":0.23250105250010572,"21":-0.7786810283789702,"22":0.15734633899658146,"23":0.4799502532220757,"24":-0.0829156060166233}},{"sx":5,"sy":5,"depth":1,"w":{"0":-0.03858054534897798,"1":-0.1817418110443713,"2":0.05013386453617229,"3":-0.3162359369593971,"4":0.1371246053119449,"5":-0.11244468808048276,"6":-0.10096057612739424,"7":-0.15245082366763185,"8":-0.09248759747249193,"9":0.33406395397061905,"10":0.09730375129344108,"11":0.09016684184910492,"12":-0.7762923427793623,"13":-0.26192775535320006,"14":0.11926693509995846,"15":0.31636671232219926,"16":0.39047364370961907,"17":-1.0032388333897662,"18":0.35897505481959874,"19":0.6113867716096424,"20":0.2644707776375001,"21":0.4508342667584102,"22":-0.9155942257625767,"23":-0.02867689858921527,"24":0.22074032735536606}},{"sx":5,"sy":5,"depth":1,"w":{"0":0.15741945719042522,"1":0.26186267227322,"2":-0.0013348311198909711,"3":-0.0607901457449582,"4":0.296622470844306,"5":-0.0946176791965127,"6":-0.05083503571146286,"7":-0.12057175929733055,"8":-0.298357815908151,"9":-0.04684946467095871,"10":-0.17520088550121277,"11":0.06760109414729773,"12":0.04885203497021854,"13":0.20879941251735065,"14":-0.13385996363502312,"15":-0.19460463230484218,"16":-0.37974014063956263,"17":0.15688512369670987,"18":0.04992547443365099,"19":-0.3085223388892344,"20":-0.09091582116527032,"21":-0.13504328864657347,"22":0.23223418930154474,"23":0.3079617086824494,"24":-0.42728889127215447}},{"sx":5,"sy":5,"depth":1,"w":{"0":-0.047386023144411704,"1":-0.07544263897034444,"2":-0.09936261515657446,"3":0.21655042772774258,"4":-0.08192421628823583,"5":0.2828332021909717,"6":-0.1155472890618607,"7":-0.46401599734791404,"8":0.040103097992411484,"9":-0.11317040461786544,"10":-0.04365592648915298,"11":0.10837779201666159,"12":-0.16834544836190027,"13":-0.14359993431329918,"14":-0.05009073605420074,"15":-0.10588906023401953,"16":0.31235473960574567,"17":0.1661847025972634,"18":0.18816966931264678,"19":-0.1310337483184065,"20":0.1639451951403783,"21":0.17381029968730521,"22":-0.14471045205699284,"23":0.3233983213567335,"24":-0.1728558041800916}},{"sx":5,"sy":5,"depth":1,"w":{"0":0.5147080587499494,"1":-0.10921057908017216,"2":0.13665380334295557,"3":0.5078507110621382,"4":-0.07999605950302943,"5":-0.045374056293338835,"6":0.007502612226070916,"7":0.13090298569320744,"8":0.17249855569715156,"9":0.06957998963794128,"10":0.3246785147002371,"11":-0.057278930649304186,"12":-0.0824905061761757,"13":0.04889082004818694,"14":0.009132503556412135,"15":0.0626167786973314,"16":0.06245287893741861,"17":-0.015847637707298662,"18":-0.5004827153700917,"19":0.0655476681432889,"20":-0.03477073221712381,"21":-0.19272531669036566,"22":-0.3078643403925204,"23":-0.6196885222865458,"24":-0.1406045703214811}},{"sx":5,"sy":5,"depth":1,"w":{"0":-0.3395242436547281,"1":0.5000738876633372,"2":0.3412937384907546,"3":0.30849320523690826,"4":0.3969815328728158,"5":-0.01300179816114684,"6":-0.46331869124900166,"7":0.14037346825381594,"8":0.24401678053791348,"9":0.029825834093071036,"10":-0.41177206696982405,"11":-0.7153109830636513,"12":-0.39969954560276844,"13":-0.6839772754720449,"14":-0.28237921267980964,"15":0.3291702263787662,"16":0.40917450407420075,"17":-0.6315636881229979,"18":-0.3476577290619582,"19":-0.12869233213558437,"20":0.5705271583206626,"21":0.22420085269449808,"22":0.45883003146815804,"23":0.31774465037954747,"24":-0.17521758585495753}},{"sx":5,"sy":5,"depth":1,"w":{"0":0.10999949563493774,"1":0.03434026284294002,"2":0.1310019110256088,"3":0.08159562130837794,"4":0.3728515804144876,"5":-0.40166228387758063,"6":-0.41467402472057086,"7":-0.4698458235468393,"8":-0.5497675077751318,"9":-1.0234550988630489,"10":0.09619781770204132,"11":0.3440705258474976,"12":-0.016553451104857828,"13":0.18396774200058508,"14":0.48231005698825535,"15":0.1578632393445866,"16":-0.013726768396806702,"17":0.1931975716436193,"18":0.07499774422140902,"19":0.26087453899808694,"20":0.2588367499756755,"21":-0.1469627949247579,"22":0.05309919881394143,"23":0.17821752536036123,"24":-0.15893254103851476}},{"sx":5,"sy":5,"depth":1,"w":{"0":-0.23254294203623593,"1":0.010725196890240023,"2":-0.14756427081990395,"3":0.10289130848569904,"4":-0.06113111938729183,"5":0.19054006828078782,"6":-0.1363372876027103,"7":0.08427613438676221,"8":-0.10988572520745632,"9":0.22480448283210583,"10":0.23568684459152614,"11":0.4091119908707462,"12":-1.0273262993312944,"13":-0.0063113497586513205,"14":0.4293590123404952,"15":0.22901355973819207,"16":0.07343701881419915,"17":-0.3423668010090376,"18":0.04836400630196813,"19":0.057795681054234674,"20":0.4640973560150003,"21":-0.5616882576049649,"22":-0.20258152726142206,"23":-0.014360454884051315,"24":0.12718327574249524}},{"sx":5,"sy":5,"depth":1,"w":{"0":-0.08664593785061099,"1":-0.08792665486689179,"2":0.4250138563373902,"3":-0.1924165409088924,"4":0.1993190806268742,"5":-0.5479669358950767,"6":-0.1932672796231807,"7":0.30747701637530933,"8":-0.10344059848638772,"9":-0.24138906983065894,"10":0.14378996974411756,"11":-0.4806621837522762,"12":0.30936898203706076,"13":0.20096753954309673,"14":0.0004823466326608648,"15":-0.46379946072480516,"16":0.30079481597844676,"17":-0.4452471923153425,"18":0.6507337574818429,"19":0.012514749094013905,"20":-0.13939033480393123,"21":0.38599589519043453,"22":-0.09790148098870802,"23":0.05013504393866962,"24":-0.0504444507090637}},{"sx":5,"sy":5,"depth":1,"w":{"0":0.028323338321952003,"1":-0.008687319923693081,"2":-0.16042299748097014,"3":0.43158750409471924,"4":0.05618403438523051,"5":-0.022990844721321346,"6":-0.14677215254033846,"7":0.3070477401501088,"8":0.11695769879905316,"9":-0.16453942917794206,"10":-0.007952937042638324,"11":-0.10553214422038801,"12":-0.21596377549535906,"13":-0.21248884695640102,"14":-0.5525702456247834,"15":0.02726741512661736,"16":0.2154339963320536,"17":0.18396865140074622,"18":-0.0557661890937461,"19":-0.3270481151816213,"20":0.19915921057698358,"21":0.2119713546331011,"22":0.2292979829192111,"23":-0.07610113538453596,"24":-0.006574336191815146}},{"sx":5,"sy":5,"depth":1,"w":{"0":-0.1223882256116701,"1":-0.3148159409344147,"2":-0.021208545528541276,"3":0.3606374510353131,"4":-0.008573596865512541,"5":-0.07801495752677357,"6":-0.3761160963969249,"7":0.23808510604147845,"8":0.26384223638173,"9":-0.05895113286257542,"10":0.05531453692753746,"11":-0.7591175489821679,"12":0.30065203765831156,"13":-0.05792715799985377,"14":0.4182487898947536,"15":0.29500554529774825,"16":-0.7272637140847348,"17":-0.065933316700915,"18":0.11462115816954604,"19":0.37365733939341056,"20":0.4387425969157669,"21":-0.4797745960645376,"22":-0.3884991242647927,"23":0.2700042579347294,"24":0.16550036955959718}},{"sx":5,"sy":5,"depth":1,"w":{"0":0.09115049896617082,"1":-0.36637380515431905,"2":0.09316387581508896,"3":0.0387627496170232,"4":0.2678768737049632,"5":-0.14494102853387547,"6":-0.2057352605374651,"7":-0.012469870996000363,"8":-0.002510719473451611,"9":0.27278641830795214,"10":0.04707961133379705,"11":0.3363273544086879,"12":-0.17228933267355417,"13":-0.007699049657366409,"14":-0.004057069818275192,"15":-0.2895248439609344,"16":0.27143502841076134,"17":-0.11899615559206095,"18":0.020883888410478703,"19":0.07591276116390369,"20":0.3913810515582308,"21":0.13416726779552612,"22":0.06699431569927071,"23":-0.2255928616727794,"24":-0.5608676501254628}},{"sx":5,"sy":5,"depth":1,"w":{"0":0.06252064735278225,"1":-0.20812645698625626,"2":0.07437759592882863,"3":-0.11664473202267696,"4":-0.8127076745036178,"5":0.14520045212439528,"6":0.022599095113082345,"7":0.08920476600915495,"8":0.07915432005090438,"9":0.4089967864549655,"10":-0.005041032714161879,"11":-0.20415176213582836,"12":0.11694142440175324,"13":-0.02672286548126436,"14":0.15767169787938345,"15":-0.14829620702408491,"16":0.0024517189916212836,"17":0.016063182133965632,"18":-0.0395600669609973,"19":0.11369884034740699,"20":0.24601173161526385,"21":-0.21974355274601784,"22":-0.13976939480405035,"23":-0.13410122868024674,"24":0.37386539191323576}},{"sx":5,"sy":5,"depth":1,"w":{"0":-0.34502972957166256,"1":0.002764139968116228,"2":-0.04948647086873616,"3":0.07830886979527689,"4":-0.04881387708216464,"5":-0.011198290787352261,"6":-0.024914105915423534,"7":0.22868145649200133,"8":0.33236828033610055,"9":0.3860148287516553,"10":0.008284917672938623,"11":-0.40840965152344294,"12":0.15526745132188913,"13":-0.32564225581392686,"14":-0.133819787222811,"15":-0.254099116393175,"16":-0.32771327366185526,"17":-0.4168080869873085,"18":-0.19702617285045712,"19":0.31684723463256287,"20":0.34963135929981787,"21":0.4678845409224932,"22":0.134649264096748,"23":-0.18730383456148253,"24":0.045684497379128365}},{"sx":5,"sy":5,"depth":1,"w":{"0":0.16669089275765553,"1":0.05300702960039231,"2":-0.15729909411299745,"3":-0.2522344466612742,"4":0.27572745180429337,"5":0.41537768043612333,"6":0.3315110946675744,"7":-0.19529455951882857,"8":-0.9203091421838738,"9":0.45149866706036884,"10":0.14224952212617728,"11":0.42482841410077116,"12":-0.6840038561802172,"13":-0.1957805800474375,"14":0.487984092311639,"15":0.07613154244386443,"16":0.08947299402549695,"17":-0.52726803352857,"18":0.11134913208449285,"19":0.2955033352349909,"20":0.1330570395330311,"21":-0.27155110449949016,"22":-0.37087767617897244,"23":-0.07858584992637126,"24":0.03886169030482469}},{"sx":5,"sy":5,"depth":1,"w":{"0":0.2370551993532212,"1":-0.04004624571551788,"2":-0.8396275099413313,"3":-0.32882064826143415,"4":-0.3807776697313381,"5":0.27678013707895743,"6":-0.5694057814065593,"7":0.08187664140755811,"8":0.15033264386870016,"9":-0.20701570680048476,"10":-0.5767398699027425,"11":0.568630155131355,"12":0.513422207936756,"13":0.0487467657514215,"14":0.4805138581033502,"15":-0.07598328151613995,"16":0.006154929523480624,"17":0.21570563947640878,"18":0.15128163372822218,"19":0.05443540478410643,"20":-0.06306303310541417,"21":0.014228349255251042,"22":-0.08945494154389527,"23":0.10676060888760106,"24":0.09730972410135043}},{"sx":5,"sy":5,"depth":1,"w":{"0":-0.4281700559156497,"1":-0.7316390860578624,"2":-1.0565630394992342,"3":-0.4144398828581131,"4":-0.07640011316240165,"5":0.14880490764881998,"6":0.07809577702484205,"7":0.8095198614165046,"8":-0.3148863047500988,"9":0.002130212584514846,"10":0.4493974523333294,"11":0.15748917330608173,"12":-0.511152559570369,"13":0.512030688028256,"14":-0.3063710030476799,"15":-0.27966477842901855,"16":0.3481395797363878,"17":-0.07964700709424186,"18":0.42194919707603434,"19":0.028880586233505354,"20":0.3328391524050112,"21":0.20015159561161802,"22":-0.3615193732834893,"23":0.35636626412549366,"24":-0.03996833398428854}},{"sx":5,"sy":5,"depth":1,"w":{"0":-0.3860447583369507,"1":-0.5914798199820992,"2":-0.261325176495874,"3":-0.4146709064840092,"4":-0.22130118634225374,"5":0.5331733643124885,"6":0.29180691267111664,"7":0.7403615805406093,"8":0.13228626466595547,"9":0.2979146630931623,"10":-0.2593307554578787,"11":-0.4242184570439162,"12":-0.3254454619402349,"13":-0.7229608745170812,"14":-0.2988776296658557,"15":-0.02318024115782377,"16":-0.16172436825556372,"17":0.09866158344726683,"18":0.171774037396839,"19":0.26989882514459157,"20":0.28024305616821593,"21":-0.14417504961873528,"22":0.525054368156688,"23":-0.0810023460677394,"24":0.3890069152591443}},{"sx":5,"sy":5,"depth":1,"w":{"0":-0.16961373150349549,"1":-0.37571949193051807,"2":-0.12373645987478359,"3":-0.021638034173801106,"4":0.2926970727419086,"5":0.10996568910817224,"6":-0.3917333504550818,"7":0.17878344287529568,"8":0.5565780717874252,"9":-0.10001054532386527,"10":-0.12154944010248533,"11":-0.11800060075746262,"12":0.26151526120787094,"13":0.01659802982711845,"14":-0.10524763795234256,"15":-0.10740324472041736,"16":-0.0325536956349593,"17":0.25412980887120373,"18":0.21691443990592338,"19":-0.29761356124859534,"20":-0.15410695721058093,"21":-0.07834502882806209,"22":0.3145600153116434,"23":0.37835295505048727,"24":-0.5864086918375453}},{"sx":5,"sy":5,"depth":1,"w":{"0":0.26698332488336485,"1":0.09220995645256783,"2":0.16233080406284553,"3":-0.0801264300115206,"4":-0.19811727159863976,"5":0.35302421653854105,"6":0.0644542749962572,"7":0.06678843730470886,"8":-0.5110667921648125,"9":-0.19357734524933756,"10":0.2885081047521827,"11":0.31151131175232555,"12":-0.6320400253621861,"13":-0.2270587339377693,"14":0.19809911496961619,"15":-0.11970463142444021,"16":-0.34097461051323824,"17":-0.031122161367630186,"18":0.12242660160428956,"19":0.14067224309610898,"20":-0.38627023715380643,"21":-0.38420684795733623,"22":0.1270765757997283,"23":0.2643794699157138,"24":0.44537255842257073}},{"sx":5,"sy":5,"depth":1,"w":{"0":-0.6310118821958529,"1":-0.6659642341961959,"2":-1.066950700221604,"3":-0.9473368488361312,"4":-0.5665142805266451,"5":-0.08835686094626743,"6":-0.3139076523085537,"7":0.2976732851929437,"8":0.24860867895545283,"9":0.1598707312520521,"10":0.42060992033402017,"11":0.30429296563166547,"12":0.2374141069211755,"13":0.1252726960301425,"14":0.27448212750139905,"15":0.17134581875134103,"16":0.5375912612809367,"17":0.02042247814524459,"18":0.28701103939073275,"19":0.1887054612668759,"20":-0.06042788582168403,"21":0.021680408128172325,"22":0.2518511462111492,"23":-0.004545778963471739,"24":0.012793637150675174}},{"sx":5,"sy":5,"depth":1,"w":{"0":-0.06620065373295048,"1":0.23699639833881414,"2":-0.32708139853438023,"3":-0.1749622713949778,"4":-0.24876963671102514,"5":0.0024840793901711616,"6":-0.3420501501624404,"7":0.2435830307806594,"8":0.18235836423178456,"9":0.10435730912713007,"10":0.03190275850522737,"11":-0.27161646672038936,"12":0.029020991306002674,"13":0.01750355094366161,"14":0.24536342086636972,"15":0.19625215664949364,"16":-0.07974899874065691,"17":0.12635389648793854,"18":0.1935176811093475,"19":-0.4962207550665785,"20":0.38367955815989735,"21":0.2487025863590848,"22":0.16023876095060896,"23":-0.05991878013342489,"24":-0.15510193501040892}},{"sx":5,"sy":5,"depth":1,"w":{"0":-0.14364339954758132,"1":-0.25375508056823504,"2":0.21298048726895208,"3":0.5226539051112332,"4":0.6940989897805386,"5":-0.39865925857813345,"6":-0.47560292571196594,"7":-0.36835576202530074,"8":0.06729227203818049,"9":0.3822908794404963,"10":-0.16773339910177124,"11":-0.46121247279010597,"12":-0.6135103535335511,"13":-0.7883380411848648,"14":-0.39076923405441555,"15":0.786212854080088,"16":0.47710410492178323,"17":-0.010523277321406491,"18":-0.030351597136276068,"19":-0.8198273522362138,"20":0.27473738567698364,"21":0.4640704906998368,"22":0.6867309394871354,"23":0.13675105225059764,"24":-0.5465221939129813}},{"sx":5,"sy":5,"depth":1,"w":{"0":0.21797184779251752,"1":0.3034599421492644,"2":0.21665521711821495,"3":0.07987615200397674,"4":0.021025030009779667,"5":0.25767329526028815,"6":0.15263149043515517,"7":0.16490451213197513,"8":-0.17706142823920062,"9":-0.08044856228562623,"10":0.20811568992379473,"11":0.07645909361073681,"12":-0.24271185919093338,"13":0.2561860117138762,"14":-0.012395177950573662,"15":-0.07063108891720676,"16":-0.6784222955000668,"17":-0.42113891720405316,"18":-0.24098711140446627,"19":-0.08507572238340395,"20":-0.40519929026020873,"21":0.10065544818348943,"22":0.21730527296042015,"23":-0.0461182846633747,"24":-0.09463918383723596}},{"sx":5,"sy":5,"depth":1,"w":{"0":0.4514945677847455,"1":-0.09159400911002458,"2":-0.139411638089314,"3":-0.3742147152911694,"4":0.0034121985963521803,"5":0.24035069453429048,"6":-0.3965759861885987,"7":-0.7026539598937288,"8":0.016530310400538255,"9":0.18384103537405114,"10":-0.3481761952324127,"11":-0.5178416107826916,"12":0.385273761678083,"13":0.08454609366971397,"14":0.17782686889008378,"15":-0.3083424822143736,"16":-0.09784887773784785,"17":0.279787044656404,"18":0.3437520845144438,"19":0.18240950712470125,"20":-0.1330561868392109,"21":-0.025403992712155914,"22":0.21212358115130336,"23":0.2710135011456412,"24":0.0985597884540347}},{"sx":5,"sy":5,"depth":1,"w":{"0":0.019822194521739687,"1":0.381656397235797,"2":-0.09551157217231211,"3":-0.05360908931787497,"4":-0.09611127084125205,"5":0.21753474423513186,"6":-0.07744884444747721,"7":0.2622728820259168,"8":-0.18642360122550544,"9":0.028762592627210436,"10":0.1410194120475859,"11":-0.3044397246851388,"12":0.05261521338634589,"13":0.17274053842501483,"14":0.05088997224979862,"15":-0.06048592460715887,"16":-0.018969312567752753,"17":-0.5163906015908087,"18":-0.8956492376916311,"19":-0.3617060226569817,"20":0.330599426916209,"21":-0.1287120633365565,"22":0.1442271744928598,"23":0.5041885879800847,"24":0.42067065648290897}},{"sx":5,"sy":5,"depth":1,"w":{"0":0.31079893128903674,"1":-0.04095264904847346,"2":-0.2612618933421495,"3":0.33621791822595554,"4":0.4787256859914883,"5":-0.005704632250290653,"6":-0.27483895369817085,"7":-0.36163926911918093,"8":0.1406321680238015,"9":0.5689504431824451,"10":-0.09131022171242952,"11":-0.24506422870382463,"12":-0.4000754269940295,"13":-0.4922033493997499,"14":-0.10323816101693734,"15":-0.241979488815073,"16":0.1499038314066007,"17":0.26194520368474644,"18":-0.21869212628433465,"19":-0.29227254795368107,"20":0.2181198434362476,"21":0.2504496668767127,"22":-0.1878958132593139,"23":0.33047904480493845,"24":0.005476649883410062}},{"sx":5,"sy":5,"depth":1,"w":{"0":0.03917874601447827,"1":0.14419313876019071,"2":-0.06726681975954163,"3":-0.2931654931164178,"4":0.2858300369469315,"5":0.2415815973598455,"6":-0.10877064553419026,"7":0.27618122221874325,"8":0.15512642535138169,"9":0.1516950908647866,"10":-0.11583496140682502,"11":0.1776960430704734,"12":0.28103459111550677,"13":0.39341234931909813,"14":-0.054671904388604156,"15":-0.05503882256995369,"16":0.0039051295099024426,"17":0.26546653985330654,"18":-0.02284129591511807,"19":-0.07293890453920884,"20":-0.10980883725598711,"21":-0.06626544197042535,"22":0.0888686974716807,"23":-0.4748967194422883,"24":-1.1397524523843943}},{"sx":5,"sy":5,"depth":1,"w":{"0":0.33121719584421044,"1":0.0715344062498144,"2":-0.4013916677783891,"3":-0.13309123442053905,"4":0.07517999884936093,"5":-0.28817568158078277,"6":-0.1515748534187912,"7":-0.06483600453741688,"8":0.2886191521271389,"9":0.2637003883282394,"10":-0.39243001702227537,"11":0.26619186893799635,"12":-0.056735424266140616,"13":0.15843565238649907,"14":-0.027362282453979307,"15":0.18979273852227582,"16":-0.08844894481983313,"17":0.04685936292813263,"18":0.09783218773993799,"19":0.21391409895785185,"20":-0.08853657277218963,"21":0.05252138907923563,"22":0.13669575084628877,"23":-0.5614299259776426,"24":0.03265031185931203}},{"sx":5,"sy":5,"depth":1,"w":{"0":-0.516329931860497,"1":-0.6103580155041887,"2":-0.03125709632360768,"3":-0.11544076810363696,"4":-0.029391603904468204,"5":-0.3027285267125134,"6":-0.13240953115595797,"7":0.0579631392211807,"8":0.16036448000166678,"9":0.14266224150119666,"10":0.2030835933119962,"11":-0.22246999248780072,"12":0.20823502377905667,"13":0.4141841399323842,"14":0.1773593215799754,"15":-0.0808776772091431,"16":0.1928312026576077,"17":0.15085394684534584,"18":0.3408519927660465,"19":-0.04941928806837726,"20":-0.036555269698793795,"21":0.04797325295066722,"22":-0.05944827657835162,"23":0.3792194136742608,"24":-0.3277725030122981}},{"sx":5,"sy":5,"depth":1,"w":{"0":0.22287629927582128,"1":0.17079209176630475,"2":0.3539183409097833,"3":-0.1221840282262109,"4":-0.05375135879215435,"5":0.3121698029614375,"6":0.48406701843175415,"7":-0.05914455311859107,"8":-0.31086300413454876,"9":0.06360304226725995,"10":0.0010282721935535968,"11":0.3982681973559454,"12":0.1818246646205838,"13":-0.45155842597860696,"14":0.002643055904059992,"15":0.17590474561448105,"16":0.2310159334226307,"17":-0.06052141010414254,"18":0.22707040647756238,"19":0.35084699784422035,"20":-0.3678216596288721,"21":-0.42080210541899354,"22":-0.5998958695575054,"23":-0.5112240044143803,"24":-0.3432982457834157}},{"sx":5,"sy":5,"depth":1,"w":{"0":-0.29380329390916393,"1":0.41621585044084736,"2":-0.1390749213803848,"3":-0.06890487354622475,"4":0.22700658011506736,"5":-0.08247938756983123,"6":-0.2536346422955004,"7":0.12489271345987442,"8":0.007471556474910385,"9":-0.32849470967456385,"10":-0.005873470592506888,"11":-0.00037679121572344076,"12":0.02989529164833736,"13":0.425980826357766,"14":-0.16951199844181034,"15":0.11691808940575729,"16":-0.16454479098290378,"17":0.08320153546769109,"18":-0.17589841421258445,"19":0.15261657173149565,"20":0.1696143223702202,"21":-0.016890770099964602,"22":-0.20883241936921293,"23":-0.363313287263983,"24":0.5032281733546773}},{"sx":5,"sy":5,"depth":1,"w":{"0":-0.05009781296876798,"1":-0.10035383889088706,"2":0.10264357121060166,"3":0.6807455631331428,"4":-0.07152972396939224,"5":-0.09627997603173195,"6":-0.4793723317847663,"7":-0.2579500547399722,"8":0.4682057456977869,"9":0.5015994655176919,"10":-0.15282353864466677,"11":0.35309486362048087,"12":-0.20327353860106911,"13":-0.36949395845349814,"14":0.36982311277804875,"15":0.3686568615091798,"16":0.22874307763954418,"17":-0.016863135134211726,"18":-0.3938999285904483,"19":-0.21712694132235302,"20":-0.0086440580960849,"21":0.15462440886407341,"22":0.23124761381619519,"23":-0.7141536378918574,"24":-0.5479988847602697}},{"sx":5,"sy":5,"depth":1,"w":{"0":-0.09538072076044946,"1":0.5165828244241852,"2":0.2982759404704684,"3":-0.001936387975718664,"4":0.2882494156782971,"5":0.1594042318313418,"6":-0.2153316690694031,"7":0.6112952220197505,"8":0.08155451964820862,"9":0.2896180584368655,"10":-0.5156541794279225,"11":-0.15916027167717914,"12":0.0901263883795927,"13":0.26075410710053504,"14":0.28607204289505805,"15":-0.501912995458751,"16":-0.2304875876846702,"17":-0.683443434485417,"18":-1.0744199953270708,"19":-0.2507896936044642,"20":0.21573931078573028,"21":0.2175338680981756,"22":-0.005078712172968715,"23":0.17360183019547046,"24":-0.791394868843506}},{"sx":5,"sy":5,"depth":1,"w":{"0":-0.36375240018918603,"1":-0.7314673579550282,"2":-0.4178097605999848,"3":-0.09425070913828407,"4":0.012654061665721555,"5":0.34358735183421174,"6":-0.013872162708717497,"7":0.37258063234597744,"8":-0.09738850658072402,"9":0.030292958063930852,"10":0.28813983779853514,"11":0.27028759866043983,"12":-0.03177067944766021,"13":0.40733983736947843,"14":-0.27735319496005234,"15":-0.41831476065235634,"16":0.1754689487649479,"17":0.571510663454935,"18":0.11682288884573933,"19":-0.10171519216880356,"20":-0.2811696475410313,"21":-0.05418638588536184,"22":-0.21017981031068314,"23":-0.11818704469947793,"24":-0.5788722168297327}},{"sx":5,"sy":5,"depth":1,"w":{"0":-0.17697784620454818,"1":0.737193846769278,"2":0.28570934323032565,"3":0.4762634853557218,"4":-0.832039239128766,"5":0.04940007515875382,"6":0.5461295470215269,"7":0.05653605428355131,"8":-0.11816958883128466,"9":-0.5351334549037903,"10":0.24128349050230452,"11":0.26118251019582267,"12":-0.27647620492792324,"13":0.18996380618623743,"14":-0.5745659839419726,"15":0.2680407735507964,"16":0.18575190018440702,"17":-0.22823432481771658,"18":0.004600156314381147,"19":-0.6064317596789807,"20":0.01435864463317235,"21":-0.1756918548081753,"22":-0.016247731731955362,"23":-0.012549688277128171,"24":-0.17140911072112}},{"sx":5,"sy":5,"depth":1,"w":{"0":-0.06646863664920875,"1":0.20520267262805938,"2":-0.10439791307730453,"3":-0.06204837797622528,"4":-0.0017258940691156574,"5":-0.13040363700081029,"6":-0.43554875856418146,"7":0.16668496957179513,"8":-0.11157839188558358,"9":0.3667742293179913,"10":0.05628907564434062,"11":-0.48735196123117763,"12":0.2651609810826123,"13":0.05782839682789468,"14":0.13943511032814274,"15":-0.11128673260107295,"16":-0.38887404735762937,"17":0.4246839341361664,"18":0.32246494553258714,"19":-0.27173157376487495,"20":-0.0023787942953452713,"21":-0.5579556584209079,"22":-0.1250773115695287,"23":0.47446710125718483,"24":0.17356552217292834}},{"sx":5,"sy":5,"depth":1,"w":{"0":0.09380137705569498,"1":0.0571546374291439,"2":-0.09054319707364147,"3":0.23144892312399873,"4":-0.25164894456371345,"5":0.21011642521345308,"6":0.1670378400148273,"7":-0.2830183206774078,"8":0.08513088357697415,"9":-0.23131114266700126,"10":0.15475187945596464,"11":-0.03747515304555975,"12":-0.1618687141365724,"13":0.12265297573296634,"14":-0.07221008872990461,"15":0.16474920635804333,"16":0.34424264766132495,"17":0.17522025420776208,"18":0.43065854925733715,"19":-0.027134001772373007,"20":-0.02420318476370259,"21":0.01635284643734313,"22":-0.1982832955649811,"23":-0.614814501243184,"24":-0.32106146066370994}},{"sx":5,"sy":5,"depth":1,"w":{"0":0.06365771689409074,"1":0.007519130167672729,"2":-0.3887632899311002,"3":-0.09374739882282067,"4":0.3378664453533774,"5":0.07672686578891742,"6":0.3143003831067214,"7":-0.13462255411901913,"8":-0.10511551555723042,"9":-0.27223691787797677,"10":0.21561672758523076,"11":0.29954093280257316,"12":-0.16500187092337737,"13":-0.18919702124577453,"14":-0.2781629361590798,"15":0.32027061734616513,"16":-0.20627062438875263,"17":-0.23110752811908178,"18":0.08166193246886688,"19":-0.14542326481756349,"20":-0.6123994252650052,"21":0.30315910741733615,"22":0.38038014365020717,"23":0.10051193710698762,"24":0.19490615994585692}},{"sx":5,"sy":5,"depth":1,"w":{"0":0.3434295495430989,"1":-0.14401242712375542,"2":-0.37828359342994716,"3":-0.1761619611508949,"4":0.29272718957829447,"5":0.21049925199165326,"6":0.2526602634822118,"7":-0.42264123702535666,"8":-0.413308797125952,"9":0.23902995248167644,"10":0.2592682150605961,"11":0.25279384365280233,"12":0.08298258414372715,"13":-0.7781977742727019,"14":0.15142431932093758,"15":0.08565345743135405,"16":0.40925606661206504,"17":0.3125824247038554,"18":-1.2372263298093107,"19":0.3124683362984557,"20":0.07761162490727426,"21":0.3242681038735009,"22":0.2653266163978788,"23":-0.8190823938860676,"24":0.14734008165575269}},{"sx":5,"sy":5,"depth":1,"w":{"0":-0.05029722556407004,"1":0.02084621423340842,"2":-0.31227086263553805,"3":-0.14055249869870867,"4":0.15216499330882663,"5":-0.47051621035756513,"6":0.010717833567221115,"7":0.2496071708623573,"8":0.024658188370000014,"9":0.1296121609547057,"10":-0.1887932586021247,"11":0.00021044266474269142,"12":0.23309186310446606,"13":0.4221644539204439,"14":0.3332195816102442,"15":-0.3038901937965598,"16":0.18968648185946715,"17":0.4341997709866363,"18":0.15006319601638013,"19":0.03892269966660849,"20":-0.8751421431658332,"21":-0.20799868054131282,"22":-0.08104132329657346,"23":-0.026417568788106024,"24":0.19798832201963545}},{"sx":5,"sy":5,"depth":1,"w":{"0":0.29021802662361307,"1":-0.35251602149278977,"2":-0.051045906279937873,"3":0.2715641501468832,"4":0.21219810658143373,"5":-0.2350628489127511,"6":0.23156508959290686,"7":-0.1914678324388859,"8":0.21930225938002376,"9":-0.25108317088721804,"10":0.04273714939046504,"11":-0.151554889623394,"12":0.3275041831289545,"13":0.01263334027083382,"14":-0.03620904455906731,"15":-0.07746266871005307,"16":0.2082266342168031,"17":0.1295717838712414,"18":0.31955356470607255,"19":-0.8786927965840315,"20":-0.023039984253144904,"21":0.09136078665419552,"22":0.05328308115785241,"23":0.20543027300523642,"24":-0.4802046301839029}},{"sx":5,"sy":5,"depth":1,"w":{"0":0.39207876827291427,"1":0.07491963912723848,"2":0.14734951804377336,"3":0.056158473327837945,"4":-0.2303982728364016,"5":-0.0661166178355331,"6":-0.22850338641488346,"7":0.4345540147780874,"8":0.043896959431100946,"9":0.12588490223809348,"10":0.14269258143762914,"11":-0.16732263898027763,"12":0.2984901381111943,"13":0.00022352746874271508,"14":0.32252965399475986,"15":0.12234560596624261,"16":0.1810446061322565,"17":-0.13712513729922265,"18":0.12114487006552761,"19":0.22320353553389022,"20":0.07177596167667522,"21":-0.41643944839072766,"22":-0.38187862916339566,"23":-0.7953698703547557,"24":-0.35773077917642804}}],"biases":{"sx":1,"sy":1,"depth":48,"w":{"0":-0.04376155725897864,"1":0.17479741668288726,"2":0.15397743518583862,"3":0.27834268660156364,"4":0.4162095718790305,"5":0.13834632025081633,"6":0.23265593708935597,"7":0.22242322403465475,"8":0.051482531803731364,"9":0.05359124461592175,"10":0.17738345238300823,"11":0.15314557870191295,"12":0.11175580169449764,"13":0.1392480713491787,"14":0.09228144542085072,"15":0.14581661319113384,"16":0.07532024946191121,"17":0.14353338521981515,"18":0.1097899948446026,"19":0.23812280016186482,"20":0.12404903094108279,"21":0.4396526161763378,"22":0.3014169114414731,"23":0.1675250572443907,"24":0.23562937916450372,"25":0.3497061069976888,"26":-0.005563601796825996,"27":0.3760538136865753,"28":0.07382429921917488,"29":0.18137152652971814,"30":0.15914503237562969,"31":0.15255809372064683,"32":0.06485885664125789,"33":0.06749411215315072,"34":0.0765278119401326,"35":0.1703353324696521,"36":-0.004465014930141302,"37":0.22064421611086432,"38":0.32669405225777076,"39":0.5115016309652616,"40":0.26064211643589025,"41":0.16352773128687456,"42":0.0992226833357222,"43":0.200456633936441,"44":0.18531378732545195,"45":0.12679256132675484,"46":0.07891119780826661,"47":0.09547675084006264}}},{"out_depth":48,"out_sx":22,"out_sy":22,"layer_type":"relu"},{"sx":2,"sy":2,"stride":2,"in_depth":48,"out_depth":48,"out_sx":11,"out_sy":11,"layer_type":"pool","pad":0},{"sx":5,"sy":5,"stride":1,"in_depth":48,"out_depth":96,"out_sx":7,"out_sy":7,"layer_type":"conv","l1_decay_mul":0,"l2_decay_mul":1,"pad":0,"filters":[{"sx":5,"sy":5,"depth":48,"w":{"0":-0.0016651373862436596,"1":-0.0004481578112368009,"2":0.020263661711805877,"3":-0.03271103617801858,"4":-0.03248621228735299,"5":-0.007787892502303306,"6":0.013485386948471225,"7":0.010838483256187892,"8":-0.055927206817113294,"9":0.007739603873767591,"10":-0.013403222629520532,"11":-0.00493552971427984,"12":0.0028660810321748586,"13":0.02420972993633957,"14":0.019885297232911707,"15":-0.04713697714053192,"16":0.04204833762008054,"17":0.0038512257039146442,"18":-0.020138969798161818,"19":0.02445846685416536,"20":-0.032592065687626015,"21":-0.040692319686542945,"22":0.007593120900908724,"23":0.008651002573962714,"24":0.022456126428386985,"25":0.053992511319881226,"26":-0.03562252463596259,"27":-0.001850111103185105,"28":0.01465656351110527,"29":0.025341605227961778,"30":-0.048724932577775916,"31":-0.021417348463102896,"32":0.007328069370791158,"33":0.022282479752348136,"34":-0.013436745283957486,"35":-0.0031292259644933778,"36":-0.04427638907148278,"37":0.012129246443367141,"38":-0.029937314243096508,"39":-0.005472357563061463,"40":-0.018803014781647177,"41":0.023600248113661036,"42":0.00020400599908055973,"43":0.005428180920389715,"44":-0.02954058897733086,"45":0.03336209810877315,"46":0.04152371829212743,"47":-0.0009855334108564515,"48":0.00011099372760813918,"49":-0.030437107274596763,"50":0.0021880492926678505,"51":-0.014268063393749352,"52":-0.034345435365233656,"53":0.004952744711330805,"54":0.04075657879828356,"55":-0.01175270706009453,"56":0.018920599104863853,"57":-0.06165952358497287,"58":-0.03532677898340622,"59":-0.0614974505128168,"60":-0.051356706200411106,"61":-0.040345267824948274,"62":-0.029869201992672602,"63":-0.03368579000365142,"64":-0.05550865158118239,"65":0.0187425323370934,"66":-0.010842138612072755,"67":-0.004690496298531944,"68":0.00043773262824736464,"69":-0.007679256150666794,"70":0.00373484990878629,"71":0.0019561003743379037,"72":-0.03138917219080796,"73":-0.041863329880699074,"74":-0.03298614644236191,"75":-0.048525034202133874,"76":0.011998158564208286,"77":-0.014571920514773158,"78":-0.0008940074386441763,"79":-0.020743124774145444,"80":-0.02370841267194285,"81":0.008831297556045623,"82":-0.019372220295297966,"83":-0.02920287656332478,"84":-0.024399614526318843,"85":-0.029874834625703783,"86":0.04255340580276879,"87":-0.008988147214167769,"88":0.012093029574011616,"89":-0.028186049088281127,"90":-0.04118225010119031,"91":0.0009107739284811043,"92":0.0016869735111127175,"93":-0.00991378491901528,"94":-0.032940795834373364,"95":0.009660082649139676,"96":0.02325517050726542,"97":-0.017755311065187927,"98":-0.010125976151519153,"99":0.019096636750080057,"100":-0.0018773859445948646,"101":0.029880078087877883,"102":-0.023029992076446827,"103":-0.009878707157279523,"104":-0.015584926226878413,"105":0.03344621940077185,"106":0.021653868685825306,"107":-0.006816024847496318,"108":0.042051483819287916,"109":-0.024094510798850978,"110":0.03026134873150097,"111":0.005416543396411095,"112":0.011613197805807609,"113":0.019899316072101707,"114":0.008324064785831291,"115":-0.03053058771928482,"116":-0.04714147836567288,"117":0.004536992225274881,"118":-0.06273929506670897,"119":-0.012649186694125588,"120":0.013850827184821647,"121":0.015154706020830062,"122":0.0026722305146569744,"123":0.03911017163912276,"124":-0.02994198976702354,"125":-0.04182445582682909,"126":-0.052847879328095544,"127":-0.007188891041694992,"128":0.007468955037158888,"129":-0.051890667520162366,"130":0.016977032220873066,"131":0.06774121040929894,"132":0.019629143301283368,"133":-0.02977025890710149,"134":-0.03148024023319867,"135":-0.01626982888244205,"136":-0.03370267615838309,"137":-0.009592040901923378,"138":0.01009904772853192,"139":-0.03229528436377939,"140":-0.02061897313441636,"141":-0.023419858447459835,"142":-0.022669189975443947,"143":0.0009348302314081591,"144":0.04736984267447463,"145":0.013127002237070194,"146":-0.006794785400895708,"147":-0.009689813927649305,"148":0.019157023279477735,"149":0.026497835739432433,"150":0.030403667382540214,"151":0.039761671650519005,"152":-0.023790344638682667,"153":0.016840111714201342,"154":-0.014572748917822466,"155":-0.007013736057650555,"156":0.02393294881030486,"157":-0.0357083048460872,"158":-0.014534339862508785,"159":-0.010004322745876386,"160":-0.01524754287392554,"161":0.016997305556897286,"162":-0.0439694020358369,"163":-0.023234820208400387,"164":-0.0007750513140347908,"165":0.010211638043928559,"166":0.020334818959289416,"167":0.017434711564840995,"168":-0.02977539217101974,"169":-0.01463337587820919,"170":-0.047360198923888326,"171":-0.022107809302696093,"172":-0.005819213824072171,"173":-0.04994909046772536,"174":-0.019644320864831862,"175":0.03295504823865359,"176":-0.028209806875161683,"177":0.009978060422718826,"178":0.0037335129104081447,"179":-0.013675852888893128,"180":-0.038523042442092086,"181":0.008128624997816141,"182":0.005203602809002231,"183":-0.0275873893004429,"184":-0.027665892580954643,"185":0.013551543477638865,"186":-0.021269251343565186,"187":-0.0833326669108772,"188":-0.01986121429839704,"189":0.04754481859378839,"190":0.0275662798817856,"191":-0.006215588025922722,"192":-0.0429744762946264,"193":0.004414412998044838,"194":0.003222071833766561,"195":0.03298938501172989,"196":-0.02227321479189023,"197":-0.033111874077790475,"198":-0.06791905307224776,"199":-0.014480891306320954,"200":-0.005608428638761036,"201":-0.0353541011578426,"202":-0.008199781212642535,"203":0.02336523013755979,"204":-0.010541221532443872,"205":0.004686023349973029,"206":-0.014334191447837409,"207":-0.010993019434365207,"208":0.0256017223242224,"209":-0.07767891490229306,"210":-0.009503927663286303,"211":-0.0028623543449093768,"212":-0.053937908511364485,"213":0.015865976620153315,"214":-0.005551386779978365,"215":-0.03830035259769443,"216":0.010190723949599002,"217":0.002954569802764564,"218":-0.03577807806395929,"219":-0.0030781456979092963,"220":0.007315556625477213,"221":0.013816413029580839,"222":-0.008538918470897525,"223":-0.013501720495312071,"224":0.010257897347140135,"225":-0.01355072472496359,"226":0.006913247793830097,"227":-0.035714104013290816,"228":-0.0037316693916972284,"229":-0.024527017397209798,"230":-0.004347995041207443,"231":-0.0006819016047683627,"232":-0.03877435173331001,"233":0.02869263715696613,"234":-0.06117659244477947,"235":-0.008508378933056593,"236":-0.004046887121492093,"237":-0.02049181961268141,"238":-0.0029592440511136847,"239":0.024271438191959295,"240":0.010214336086510274,"241":-0.028608864619441465,"242":0.0252267273699775,"243":-0.0025617154755664152,"244":0.02540433628370247,"245":0.0009155726048984486,"246":-0.003822141154414256,"247":-0.05360303145266968,"248":-0.0192943094007957,"249":0.01847641475805112,"250":0.025031082962174708,"251":0.025472427259379617,"252":-0.005322761766448406,"253":-0.01206271777683202,"254":-0.00885570997292744,"255":0.003077101395048161,"256":-0.012925949311434613,"257":0.011553004042441315,"258":-0.05829643694043793,"259":0.001412490672889779,"260":-0.007973691819265206,"261":0.005281885441524185,"262":-0.014238810387226101,"263":-0.0315648913146587,"264":0.008129061103748154,"265":0.008431968561899275,"266":-0.021946486397194882,"267":-0.007200564053474436,"268":0.0014795366314956124,"269":-0.01582363609509188,"270":-0.04875094328521118,"271":-0.026881868017541038,"272":-0.009043746168004473,"273":-0.01772700520378931,"274":-0.06304883008897338,"275":0.002842625308932073,"276":-0.04186273459437821,"277":0.006769730948975197,"278":-0.021992053572849283,"279":0.0028991853226673085,"280":-0.017558313670390985,"281":-0.014362856281074471,"282":0.02961341907470097,"283":0.024358488472727785,"284":-0.014800149328608543,"285":-0.0019166424805755465,"286":-0.017450747075777814,"287":-0.027786388713306655,"288":0.006778466191683648,"289":-0.023325527782981036,"290":0.024627426836680004,"291":-0.0012488831289412955,"292":-0.010073520073968204,"293":-0.027558948469249712,"294":0.01065598380990327,"295":0.004862274139866588,"296":-0.01804038543250346,"297":0.03432998992870026,"298":-0.0010833850542836614,"299":0.033563368483581955,"300":-0.043056308854769416,"301":-0.029933379184162796,"302":-0.016978516211264543,"303":-0.020870663500277345,"304":0.029521520752765314,"305":0.006899088982015975,"306":-0.04778032969367219,"307":0.0028136254553345675,"308":-0.012497636312480574,"309":0.0011178126127463959,"310":0.006543317501028309,"311":0.04928591574374246,"312":0.020428986586457448,"313":-0.02046114873555643,"314":-0.010729880800924024,"315":-0.011473429793233465,"316":0.026012708257131534,"317":-0.0010781252765588924,"318":-0.005030276383350584,"319":-0.020488915655836826,"320":-0.013726719409068335,"321":-0.021356987083076,"322":0.023082877196842738,"323":0.01949894209374653,"324":-0.010607469863985374,"325":-0.0255021196104713,"326":0.019916618023904303,"327":-0.02603089919553701,"328":-0.01141280903708231,"329":0.0283769635720339,"330":0.03441868686675744,"331":0.020033853111137024,"332":0.006295110137551469,"333":-0.0163225035535579,"334":-0.015556642795625244,"335":-0.01741849096924,"336":-0.024605662029358072,"337":0.059479740441079613,"338":-0.015120880031813074,"339":0.02302368411608024,"340":-0.04628159967348498,"341":-0.00585499918599091,"342":0.009908180112717272,"343":-0.020540451769315102,"344":0.0200974708448,"345":-0.022685829883868358,"346":-0.02827985185014569,"347":-0.024383183910227896,"348":-0.036174840725907986,"349":0.03971651586837254,"350":0.0008677375146565406,"351":-0.006833240833087586,"352":-0.039701823874990515,"353":-0.08508502204737568,"354":-0.013974448071898687,"355":0.019073020122542368,"356":-0.04278717868021013,"357":-0.044288441845353195,"358":-0.03590107525900034,"359":0.03274251189687384,"360":-0.0347970602337699,"361":0.025586236637726786,"362":0.026895202492393452,"363":-0.006035912090796683,"364":-0.043231111018360184,"365":0.0025946659346035837,"366":-0.01266146598272837,"367":-0.027910741082537265,"368":-0.05303093839161999,"369":0.012489987326600673,"370":0.03112362610109688,"371":0.01188830997759019,"372":-0.002106991808787402,"373":-0.029105574104883857,"374":-0.04980096310184075,"375":0.022151700438999902,"376":0.03527290784264152,"377":-0.03693119589219722,"378":-0.011213501384517191,"379":-0.020453295829097155,"380":-0.01609269094562859,"381":-0.011809979247228255,"382":0.015395764129831067,"383":-0.034786511122682426,"384":0.02567452003501498,"385":0.002098488097038593,"386":-0.029911326743854914,"387":0.0591555908532422,"388":-0.000022862734471173034,"389":-0.061012634905284455,"390":-0.0005412611479764009,"391":-0.004216488963624459,"392":0.02474832865820968,"393":0.024139129687839316,"394":0.028261033959163108,"395":0.007023080599371238,"396":0.017366929475576554,"397":-0.006330106339778667,"398":0.005145679551267112,"399":0.02724396904998206,"400":0.021311479596059266,"401":0.003068192122107778,"402":-0.04289366376497695,"403":-0.018478122441651597,"404":-0.008311951802831999,"405":0.01584133755023599,"406":-0.013529886811723202,"407":0.036503522504127826,"408":-0.025293200813838703,"409":-0.00828390298879343,"410":-0.057498630673552625,"411":-0.025621571255221253,"412":0.0045144896714521526,"413":0.02096189564688591,"414":0.009979637066030342,"415":0.030493316609449712,"416":-0.03555906217436524,"417":0.039051415314101307,"418":0.0007376430701179599,"419":-0.00863629937524776,"420":-0.02948044177601765,"421":-0.034216829418941684,"422":0.005365051467990978,"423":0.004646055639269704,"424":-0.0013813712453703093,"425":0.002813665085944347,"426":-0.04047779606040323,"427":-0.022374788179571833,"428":-0.03502936895666445,"429":-0.0076754969765935105,"430":0.05132407123637496,"431":-0.04949977554327582,"432":0.012331142697172786,"433":-0.012747112806298743,"434":-0.016131340554759743,"435":-0.04253251714299717,"436":0.015265223552699221,"437":0.006713581740688226,"438":-0.006856141783353658,"439":-0.0010345781098329203,"440":0.024777930251602548,"441":0.026635351713178,"442":0.030507388208475924,"443":-0.001778046648943492,"444":0.010858973818340792,"445":0.00830361635761441,"446":-0.015001548289915536,"447":-0.0023522070027086877,"448":-0.007735874190238278,"449":-0.036752303259399446,"450":-0.0024778196138125715,"451":-0.01978405938829571,"452":-0.030928494577776057,"453":-0.01793652212407011,"454":-0.0486177136837883,"455":-0.03586844923492602,"456":-0.011651632599840409,"457":-0.015240775164745994,"458":-0.014109204501939749,"459":-0.026072120765540965,"460":0.012812693603912602,"461":-0.019012231643852635,"462":0.029802315182423343,"463":-0.0055899604773596385,"464":0.0078415027071226,"465":-0.008973022792936268,"466":-0.041920787313978296,"467":-0.020677440594876736,"468":0.010582940636372329,"469":-0.043469846413362725,"470":0.0013638203788064874,"471":-0.05019387478603808,"472":-0.035916555951415144,"473":0.0009819547384813303,"474":-0.032600751872370375,"475":0.035959678494208384,"476":-0.044601686718998695,"477":-0.011669620556194646,"478":-0.00902158719091486,"479":0.025672656454004156,"480":0.0848953840023413,"481":-0.018565780659435063,"482":-0.00790892221918884,"483":0.020058694666756704,"484":-0.010223908502925339,"485":-0.007566350022043465,"486":-0.04168871270069623,"487":0.005418253075772576,"488":0.006102263638085604,"489":-0.03232056161287964,"490":-0.018893339627982786,"491":0.0041380738301691825,"492":-0.030491588367695666,"493":-0.03063893460007947,"494":0.02543100314564446,"495":-0.0072718349411611495,"496":-0.008240717561878039,"497":0.007421101298541588,"498":0.029475416200163022,"499":-0.02252449281792485,"500":0.005063447187362227,"501":-0.021921382270726583,"502":0.0004500899034766669,"503":0.0469636027068075,"504":-0.004223554136177268,"505":0.03291750685275165,"506":-0.041724796356112634,"507":-0.08865621459535064,"508":-0.007272773887445215,"509":-0.01691865648178588,"510":-0.014196592603005338,"511":-0.0343018735326998,"512":-0.038211235721190825,"513":0.009968465099317517,"514":0.01541461488957228,"515":-0.0189623505868628,"516":-0.009954418271225412,"517":-0.026549920167716047,"518":-0.011813734409064967,"519":-0.0338369198764859,"520":0.0081092221898165,"521":-0.010047979327718101,"522":-0.001037924438365063,"523":0.008148257304418868,"524":0.01373628393275371,"525":0.009795791350835404,"526":0.029055331611593037,"527":-0.004598460015356158,"528":0.012882651623445105,"529":-0.03714374949849329,"530":-0.015314886684665019,"531":-0.02054279947152626,"532":-0.01914246438787024,"533":-0.0056879289615759,"534":-0.026178166308469687,"535":0.002836378406763335,"536":0.022480455415958476,"537":-0.03742948688102169,"538":0.0105364837024408,"539":0.008805989724159444,"540":-0.019719373447089295,"541":-0.0002461029402235753,"542":0.015364246578999713,"543":-0.041493799169168954,"544":-0.010530735675054801,"545":-0.06322140618576715,"546":-0.03941655118034081,"547":0.004641826115080972,"548":-0.07231403269822584,"549":-0.011186613424726622,"550":-0.026147071482617835,"551":0.006282817453608313,"552":0.05494984725066152,"553":-0.03615013780865103,"554":-0.029417207296352384,"555":0.015787220605054282,"556":0.051215661269135085,"557":-0.004333678961794094,"558":-0.0022597164101027314,"559":0.0017387420394279541,"560":-0.022967461648550888,"561":-0.013805380122426745,"562":0.022433940730778545,"563":-0.03248741042622254,"564":-0.013059459632060795,"565":0.013216734526954118,"566":0.0024604940602762676,"567":-0.05265462390173841,"568":-0.0381070732668257,"569":0.02975537745712435,"570":-0.013242970408206966,"571":0.0010258019387343893,"572":-0.007382647341193867,"573":-0.03153042303320746,"574":-0.08966821953238037,"575":-0.02371337218769543,"576":-0.06367970707624813,"577":-0.022709933344389033,"578":-0.0009274255358403,"579":0.007890929261561316,"580":-0.025599912849842945,"581":0.013160013205550727,"582":-0.027456402381641255,"583":0.00753803301073947,"584":-0.0329932710157995,"585":-0.013757908712986653,"586":-0.03988656863759788,"587":0.0011611664500232668,"588":0.00921629909156699,"589":-0.03164723939717957,"590":-0.05321074361795835,"591":-0.013662122793861234,"592":0.022110712667260526,"593":-0.015928253313297926,"594":-0.00807010059084523,"595":-0.01450412536916472,"596":0.028415861468916472,"597":-0.02370851271789852,"598":-0.014486717252577327,"599":-0.021851774062391822,"600":-0.015898668133535458,"601":-0.00018505006552329566,"602":-0.016188541019662526,"603":0.056646542013412786,"604":0.0023365594496163873,"605":0.005991701843309243,"606":-0.014240664527169506,"607":0.02378141197262357,"608":-0.018306648314357257,"609":-0.02456578907695201,"610":-0.05169627014539218,"611":-0.010413835253349456,"612":-0.012822695357159646,"613":0.0015068872283822746,"614":0.004193074602751049,"615":-0.024413266072103312,"616":-0.01927297406309537,"617":-0.030190725452146107,"618":-0.018720085282376384,"619":-0.027790193314812934,"620":0.007096664440995252,"621":0.009342593243325321,"622":0.0034841859637424525,"623":-0.005563328123587066,"624":-0.0022041714381018426,"625":0.01310268764200658,"626":-0.04155314157651746,"627":-0.011402242421769803,"628":-0.02957725684665226,"629":-0.0073921270609201405,"630":-0.0058656135548811085,"631":-0.024720537049911256,"632":-0.016385225585841958,"633":0.016954708885883813,"634":0.014992774401491974,"635":-0.0024976179176482566,"636":0.010298585397623667,"637":-0.02234093043166027,"638":0.002366866373024133,"639":-0.06572887500599862,"640":-0.0057129566855125625,"641":0.011169901191475509,"642":0.012728869197263288,"643":-0.00884685672061708,"644":0.006449691598536204,"645":0.0048310193125877185,"646":-0.006679591397961881,"647":0.007957847863670674,"648":0.009215806695213623,"649":-0.004337344375532627,"650":0.020738653791436298,"651":-0.0020666202754349066,"652":0.03627520019285368,"653":-0.023489948674161553,"654":-0.04804207337198748,"655":-0.004812320203980056,"656":-0.008101753155470633,"657":0.02234995562688325,"658":-0.024558786195389374,"659":0.0010313034972226991,"660":-0.030384009377493113,"661":-0.006592603380364483,"662":0.0035375243314973675,"663":0.01126896483613028,"664":-0.001282329873356412,"665":0.015132426107586847,"666":0.023378092850859237,"667":-0.029343889020775456,"668":-0.030537184014617556,"669":-0.021166753261737902,"670":0.021196429194420302,"671":0.002323263095506917,"672":0.00027098012143156043,"673":0.023163874331094587,"674":0.031146476617382225,"675":-0.01661192375626224,"676":0.057422142909623074,"677":-0.03291390561228096,"678":-0.0094852810390926,"679":-0.007227423942246386,"680":0.00281406603531071,"681":-0.007985548544574339,"682":0.028495685807082245,"683":-0.011246706816374385,"684":-0.03840018604230455,"685":-0.014415646696776033,"686":-0.02286936985358699,"687":-0.015788821544556426,"688":-0.025014638996908416,"689":-0.015386153940491726,"690":0.012808464427000526,"691":0.000370969182607579,"692":-0.012626037421266898,"693":-0.037216188207470496,"694":-0.003169476918218686,"695":-0.007665988201253217,"696":0.01645572260581963,"697":-0.016096271344018597,"698":0.004044439110617637,"699":0.0302754260896647,"700":-0.010597321940663613,"701":-0.03598684422759998,"702":-0.008325728844829053,"703":-0.003212072296413401,"704":-0.020652089594469986,"705":0.01172161730689631,"706":-0.009929168487935788,"707":-0.008483548918297461,"708":-0.010326172794463302,"709":-0.019729300345101196,"710":-0.055880086543034155,"711":-0.013444533346038155,"712":-0.02419476483322037,"713":0.007344842939166817,"714":-0.014489741415731656,"715":0.011533450903982475,"716":-0.011267835569616138,"717":-0.03748285145339497,"718":0.03756304537657866,"719":-0.013556388603344955,"720":-0.005717693387342645,"721":0.044238577934941084,"722":0.006586798597678377,"723":0.026101749524826887,"724":0.019221823022383896,"725":-0.03729863712951433,"726":-0.007785731366503806,"727":-0.008965727065823261,"728":-0.04876771886973154,"729":0.03163424268948746,"730":-0.05324254885633212,"731":-0.01992902813192351,"732":0.014327785822170716,"733":-0.0042928712276578,"734":-0.034653189428223055,"735":-0.05566760839757147,"736":-0.00678683155347608,"737":0.01291835078452574,"738":0.017474185947181267,"739":0.015147961817319214,"740":0.0034941202942884346,"741":-0.04859613901541009,"742":-0.009332384635817946,"743":-0.036645412779775496,"744":0.07447765404077179,"745":0.000258455302734662,"746":-0.0025043347555940595,"747":-0.022291756358397856,"748":0.0531546737344728,"749":0.020972075591561102,"750":0.04580905359321163,"751":0.0044540150563713325,"752":0.0047887561357749615,"753":-0.02558068764958018,"754":-0.026101988910199155,"755":0.10719387242952327,"756":-0.041698567921081287,"757":-0.01070429143370071,"758":0.12488908256992505,"759":-0.004178436007736264,"760":-0.020810732002254837,"761":-0.0062723522788949194,"762":0.01453022142261881,"763":-0.04873340098526651,"764":-0.011142706602009287,"765":0.12170114165575512,"766":-0.03396478217205396,"767":0.0565879313213282,"768":0.02823305215627823,"769":0.019783710844309563,"770":-0.024281340196723657,"771":0.015157371200286157,"772":0.042943524523750484,"773":0.02467659592324526,"774":0.02360208250852184,"775":-0.008419024864884835,"776":-0.027280381762339358,"777":-0.01957559269624222,"778":-0.019966952976976406,"779":0.04648909119695329,"780":-0.013091457213306207,"781":-0.013899916297863564,"782":0.01382348578519768,"783":0.01477523151135222,"784":-0.025507156194924132,"785":-0.0024648494750295824,"786":-0.022357125722627325,"787":0.02309069619215108,"788":0.011494796759963536,"789":-0.023426047487044462,"790":-0.021814770020299506,"791":-0.0033356414688855774,"792":-0.012691148112731627,"793":-0.018400818670199905,"794":-0.06969090286047033,"795":0.0026598873946992447,"796":0.06581441804499785,"797":0.022322246982876243,"798":-0.0428925078517786,"799":-0.047624519227043895,"800":-0.02675155795671915,"801":-0.04579632997718561,"802":-0.03780945241691956,"803":0.022561094508101353,"804":0.007336336024818405,"805":-0.038531913261500995,"806":0.007496631649718961,"807":-0.002994708520948838,"808":-0.02284730791479187,"809":0.011675901467692144,"810":-0.01670054492362854,"811":-0.002753028714360068,"812":-0.037739590596440886,"813":0.021013252807345704,"814":0.02241315299629586,"815":-0.024068947437992694,"816":-0.015098086329707428,"817":-0.037005230975587625,"818":-0.0005885892602240626,"819":-0.026334322866011478,"820":0.017275354113378407,"821":0.009746354280802928,"822":-0.021772688500651623,"823":-0.002551766861613753,"824":-0.0029529663260844693,"825":-0.0068977862272162,"826":-0.001671224203798947,"827":0.01776607864922492,"828":0.02212075185889811,"829":-0.006512948615832674,"830":0.03291639737422168,"831":0.00010428385070556596,"832":-0.047399145199570225,"833":0.028730313080464778,"834":0.023727660351650668,"835":0.005673812711120086,"836":-0.02673074781681376,"837":0.030206818467236874,"838":-0.035959866041835715,"839":-0.0028144119002364784,"840":0.0012387782296669541,"841":-0.04035374648091284,"842":-0.004224820746134402,"843":0.008569465033324732,"844":-0.016078519604571018,"845":-0.023952227092619703,"846":-0.04229592246335572,"847":-0.040968774416191754,"848":-0.009539644866677917,"849":-0.00566156367117618,"850":-0.06767967395607578,"851":0.006446635958403124,"852":-0.031003195196717223,"853":-0.0489515493286161,"854":-0.02675897640416029,"855":0.0072392121804802,"856":-0.013863735103862842,"857":0.012751644541774685,"858":-0.048831486396961755,"859":0.0357344535559273,"860":-0.01961081165712143,"861":0.014463894846574767,"862":-0.00868897532559997,"863":0.013314663778979295,"864":-0.02596318078183674,"865":-0.010027869676820943,"866":-0.018378932584848275,"867":0.008077057160707814,"868":0.017067539372584557,"869":-0.0340088791440685,"870":0.009169519575137047,"871":0.004567466601207457,"872":-0.005742677047887933,"873":-0.034222341535250785,"874":0.02203341346949789,"875":-0.03231044334342714,"876":0.007184374591787342,"877":-0.03993420786275209,"878":-0.0074523913582903,"879":-0.059649421088509395,"880":-0.006219196544815539,"881":-0.006150254771119185,"882":0.0032198257408871146,"883":-0.013432061874671268,"884":0.014366661767324337,"885":0.019089320875003497,"886":0.004983808165232314,"887":-0.01791703697769104,"888":-0.0006114458587799981,"889":0.015385654998024129,"890":0.008905498638057558,"891":0.0073830849637775324,"892":-0.018837594346586998,"893":0.013783118309177677,"894":-0.028041752281505895,"895":0.015045028597660045,"896":-0.05165188765483593,"897":-0.0329296821928807,"898":-0.04489937561640231,"899":-0.00058778411581449,"900":-0.05317118158585213,"901":-0.006903376542106299,"902":-0.04630793899121056,"903":0.0032475224790733735,"904":-0.004654462616803567,"905":-0.014811072405052004,"906":-0.03978199636250745,"907":0.0022887996550736483,"908":-0.02820742344416838,"909":-0.014098063175759512,"910":-0.052337556392475004,"911":-0.07649865005699483,"912":-0.029398615899561345,"913":-0.038907800082635,"914":-0.031091187648124984,"915":0.021605718018357704,"916":0.016465041642457278,"917":-0.02287298393632083,"918":0.0035620860520119506,"919":-0.03059345985926744,"920":-0.027998752297197255,"921":-0.03675223535771792,"922":-0.002570883003625101,"923":0.006408611585804355,"924":-0.006348785707438275,"925":-0.03857537478536522,"926":-0.014517765429696234,"927":-0.019751467030361874,"928":-0.005750949324841591,"929":0.02882016577975657,"930":-0.04967381668620612,"931":-0.018440149999432224,"932":0.03129574747279635,"933":0.03942631997643601,"934":-0.005123161781757278,"935":0.0050104941565123195,"936":0.030812389920860044,"937":-0.01718181857753784,"938":-0.005876254317227694,"939":0.00822502455504686,"940":-0.008526354302721506,"941":0.015370370654390118,"942":-0.01022656278489772,"943":-0.03821948801373695,"944":-0.04395975717188184,"945":-0.005619382217600281,"946":0.014599999943952531,"947":-0.04187982786836245,"948":-0.013739285429907086,"949":-0.033902350595147304,"950":-0.027897385847736142,"951":0.051608185097912734,"952":0.009698198084835411,"953":-0.03423283149916819,"954":-0.010688498593690112,"955":0.000953230489298829,"956":-0.023638995842222288,"957":-0.0379695532058201,"958":-0.023471936215039946,"959":-0.048122832252814864,"960":0.050187757743107485,"961":0.06857944568271238,"962":-0.04409114432245998,"963":-0.016065199889216876,"964":0.0046500319051647945,"965":0.045560379437707826,"966":-0.00795081962160905,"967":-0.046196357476722606,"968":0.014113808047571395,"969":-0.04221890645097684,"970":0.14832311417309985,"971":0.04663698588722359,"972":-0.08264926147493203,"973":0.06962780779269415,"974":0.026632412164601778,"975":-0.019916269297228534,"976":-0.020763084540864476,"977":-0.05320327965992609,"978":0.0680855564538371,"979":-0.04170604883169059,"980":0.003646054752502751,"981":-0.012393960331746856,"982":0.12646326470489305,"983":0.008646318413514717,"984":0.029297696219740165,"985":0.014574361358209584,"986":0.03744056226701299,"987":0.07439336002499514,"988":0.05952255515077936,"989":0.04535777630536825,"990":0.06098749044502397,"991":0.06593261166529742,"992":-0.07521919890004829,"993":0.010271395675635824,"994":0.0014729191081143671,"995":-0.040967782002566414,"996":0.012470951269167906,"997":-0.03576606414465504,"998":0.05822615285053456,"999":0.0037781160778087002,"1000":-0.08422124643944026,"1001":0.02308766432632996,"1002":-0.05335842993619821,"1003":0.06277729328508616,"1004":-0.07794470777189912,"1005":0.0030827885927561323,"1006":-0.0026534799204821205,"1007":-0.03610957786728713,"1008":0.032193752101785045,"1009":0.018884349409450822,"1010":-0.07773008152120482,"1011":0.0008449747854535235,"1012":-0.0273555779237531,"1013":-0.0034134077389896184,"1014":0.012655285400867335,"1015":-0.03150179286631916,"1016":0.05656004300495679,"1017":-0.023380673135637315,"1018":0.030719475692307405,"1019":-0.0346425924815061,"1020":-0.037263161229945205,"1021":0.002889926557679113,"1022":-0.007275688044178869,"1023":-0.028610601590516517,"1024":-0.0031164572062475078,"1025":0.0007592124225864055,"1026":0.013731878239462113,"1027":-0.059563418327194695,"1028":0.013326855242136382,"1029":-0.028066375803604684,"1030":-0.0049956250576893135,"1031":-0.04627538450632096,"1032":-0.050999351019734684,"1033":-0.021118860480643955,"1034":0.04294650523065811,"1035":0.1766321149853915,"1036":-0.01099900063718249,"1037":0.04427020459993822,"1038":0.016014803919476187,"1039":0.06610447496868643,"1040":-0.049669416687680074,"1041":0.049398361356297625,"1042":0.0005032789312708231,"1043":-0.03778655510492995,"1044":-0.014875683747260091,"1045":-0.020911927886990506,"1046":0.08731537442473493,"1047":-0.025234173999333486,"1048":-0.02472924091387939,"1049":0.07199415905946376,"1050":0.00015180607466566765,"1051":0.0019831562419691654,"1052":-0.016781188594772546,"1053":-0.023251653987948068,"1054":-0.028822386808568728,"1055":0.019852205872964223,"1056":0.022868679541994636,"1057":-0.008117337026461275,"1058":-0.055168570796294544,"1059":0.00748934503722833,"1060":0.021969034185964274,"1061":-0.04516377310761213,"1062":0.008490447447068205,"1063":0.049681496296064984,"1064":-0.04038163769001183,"1065":-0.03839343618978162,"1066":0.05316508440477984,"1067":-0.03551833399516924,"1068":-0.07129483705874512,"1069":0.04144360337689077,"1070":0.02120041935713017,"1071":0.002347219997796961,"1072":0.022614121082180253,"1073":-0.013073179053000341,"1074":-0.006465429698663358,"1075":-0.025993246946225936,"1076":0.026432056274916217,"1077":-0.03888262924627867,"1078":-0.06112351401636563,"1079":-0.022748641539046054,"1080":0.002292409589632657,"1081":-0.0017786932693968235,"1082":-0.01633126915566763,"1083":0.06363819146996626,"1084":-0.00765229033229556,"1085":-0.056345783140755265,"1086":-0.05208821635807115,"1087":0.006736787360499384,"1088":-0.028097338981082694,"1089":0.0004843601813547361,"1090":-0.06308875909411783,"1091":0.007731186369540063,"1092":-0.020324185755468717,"1093":-0.0215759754722549,"1094":0.02211211262148864,"1095":-0.029979577088455184,"1096":-0.002163024118817216,"1097":-0.01828542732266305,"1098":-0.042760422722963834,"1099":-0.02252310239638304,"1100":-0.019472876418105287,"1101":0.021672683768067583,"1102":-0.07203894738046762,"1103":-0.04577111662590126,"1104":-0.033390232965905674,"1105":-0.022352718340637883,"1106":0.00584438451760271,"1107":0.003784515449012983,"1108":-0.006251997977642908,"1109":-0.025192116220676426,"1110":-0.002392811562415209,"1111":-0.010336696207361431,"1112":-0.06397146158311014,"1113":-0.009871690296097605,"1114":-0.019419948701539846,"1115":-0.020710722173235985,"1116":-0.07016611228442995,"1117":-0.044310704075557615,"1118":-0.007108136944278816,"1119":-0.00024781947457881356,"1120":-0.04991523305557243,"1121":0.031796975499625034,"1122":-0.015833097144975952,"1123":-0.058459972730520504,"1124":-0.02961205539218676,"1125":-0.041752518307763345,"1126":-0.006563037905480688,"1127":0.041845117158607566,"1128":-0.015425203105486732,"1129":0.017052216395775917,"1130":-0.05802827386172595,"1131":-0.06466593334822798,"1132":-0.009206997260923128,"1133":0.011245922351654938,"1134":-0.019651961835767576,"1135":0.0029730568807348995,"1136":-0.07017123539024288,"1137":0.014133701082320985,"1138":-0.04030611246953886,"1139":-0.04914164733261633,"1140":-0.036218594355988246,"1141":-0.1224301670634116,"1142":0.00016114477354101512,"1143":-0.018904390980865077,"1144":-0.079377353687589,"1145":0.004134929911844115,"1146":-0.032135198472461886,"1147":-0.032658276583300436,"1148":-0.04189297642840945,"1149":-0.015444090122812644,"1150":-0.03994236855825421,"1151":-0.09152273482894557,"1152":0.02670264301515748,"1153":-0.0726329595127924,"1154":-0.014116559885169947,"1155":-0.012806129214953887,"1156":-0.019026359836249784,"1157":-0.04600734016379905,"1158":-0.014914431457129064,"1159":0.019682454380258136,"1160":-0.04001013583143214,"1161":-0.00520673292694273,"1162":-0.053794145051467325,"1163":-0.044568839796470215,"1164":-0.07411935609316789,"1165":-0.0396552185626925,"1166":-0.06068913330385935,"1167":-0.04374658411350717,"1168":0.04873226756773664,"1169":-0.015981014917116763,"1170":-0.06499073912150655,"1171":-0.030383168208906956,"1172":-0.02881099011994804,"1173":0.03508744955528604,"1174":-0.06367319326195284,"1175":-0.010514003017897079,"1176":-0.008333391430805338,"1177":-0.05079371781993933,"1178":-0.04537741200737532,"1179":-0.04104964212239691,"1180":-0.00712877844338976,"1181":-0.031143092099573035,"1182":-0.03543712797471892,"1183":-0.047998985087942814,"1184":0.05345449231475549,"1185":-0.0027863752582948965,"1186":-0.034391490327697644,"1187":0.014294392135279277,"1188":-0.056368664478974685,"1189":-0.006598023369864407,"1190":-0.0418675394851381,"1191":-0.011001606801821495,"1192":-0.038652601445784536,"1193":-0.04763702460546234,"1194":0.058244756138458816,"1195":-0.030882056536007996,"1196":0.044914200173774746,"1197":-0.014773803905463333,"1198":-0.0320679408806821,"1199":0.031282405884013896}},{"sx":5,"sy":5,"depth":48,"w":{"0":-0.05299381294485243,"1":-0.06623096421467836,"2":-0.052779603795968195,"3":-0.08038710645881153,"4":-0.06348990744048597,"5":-0.07822747413626145,"6":-0.03018681929355214,"7":0.007311095662159537,"8":-0.05949452646931174,"9":-0.058351624406224996,"10":-0.03007822465684644,"11":-0.027706829291457315,"12":-0.01988738910553578,"13":-0.06422584237974567,"14":-0.034507020898130056,"15":-0.1472030547330964,"16":0.008722892661208282,"17":-0.00310725496413743,"18":-0.07096728050595495,"19":-0.10309908484248377,"20":-0.031417309503123415,"21":-0.07691492015199101,"22":-0.04833842936128806,"23":-0.09989289390329027,"24":-0.013344582664216778,"25":-0.04767029919179431,"26":-0.0641563288344059,"27":-0.024125319676280305,"28":-0.041622222009967035,"29":-0.09245904989017897,"30":-0.08159613654462908,"31":-0.034535670740967764,"32":0.003505456402034456,"33":-0.001909499542821024,"34":0.020962076811781208,"35":-0.050588018961516525,"36":-0.0158254696077613,"37":0.03601099578815388,"38":-0.044563693448309565,"39":-0.008337143757294727,"40":-0.1394357968455248,"41":-0.026828224489387497,"42":-0.022710199212918676,"43":-0.06704614792065462,"44":-0.07420133853340553,"45":-0.07440759470787033,"46":-0.018760857849681508,"47":-0.067780463764503,"48":0.006714528885645353,"49":0.044631593069939926,"50":-0.004498489200899822,"51":-0.09840977863859555,"52":-0.07620040544278281,"53":-0.06696821662192744,"54":-0.13942916047422474,"55":-0.022095060859122446,"56":-0.047604366898338,"57":0.020806236719578746,"58":0.0076595316834502086,"59":-0.05106253691251011,"60":-0.07385311596899956,"61":-0.0678230126778764,"62":0.06717471621120705,"63":-0.08481203784386833,"64":-0.040184480527799694,"65":-0.0628946034589028,"66":-0.014141444521169815,"67":-0.07658904635293581,"68":-0.12117830692942977,"69":-0.08330207201437229,"70":-0.07909217490088298,"71":-0.08195182089724437,"72":0.03609545975423351,"73":-0.07482268483900495,"74":0.013497733995760326,"75":0.018945377704116202,"76":0.014482510980938097,"77":-0.056841525234867026,"78":0.010358006542513343,"79":-0.034083351613101345,"80":0.0374033741010776,"81":-0.026409991015824745,"82":-0.06403185362727193,"83":0.0026059863873854707,"84":-0.010310769241535404,"85":-0.03050510053066936,"86":-0.01460191101813904,"87":-0.03622665923442435,"88":0.08013285733782767,"89":0.00044688282252511877,"90":-0.06673902912554369,"91":-0.030490020812227202,"92":-0.014369684186650812,"93":-0.11666254533919826,"94":0.027650595541894345,"95":0.009085764394717895,"96":-0.003158775083127831,"97":0.11231513641280434,"98":-0.0844589819126025,"99":-0.015307016738150927,"100":-0.07441607756898899,"101":-0.01361998736301413,"102":-0.07030470573119942,"103":-0.020898511497203086,"104":-0.015247831872930618,"105":0.03988633856753585,"106":-0.04767355709750956,"107":-0.0038063383969008514,"108":-0.03212768910216114,"109":-0.02346884896131032,"110":-0.020930419108323776,"111":-0.021038968738777728,"112":-0.0010502971530731646,"113":-0.00044715891841565886,"114":-0.03990390773203616,"115":0.09219788703452987,"116":-0.020065742461381875,"117":-0.1358334148382582,"118":-0.03173312278680097,"119":-0.07598810506654359,"120":0.08603224432754163,"121":-0.08032884898886221,"122":0.0036372299134286843,"123":-0.04537043848916864,"124":0.05418561289301277,"125":0.02930333408656546,"126":0.06617981118223087,"127":-0.04458382568632854,"128":-0.016705547613764,"129":-0.011513162399541607,"130":-0.08777478937413727,"131":0.15599767832652847,"132":-0.05088008109411185,"133":0.01686631274271638,"134":-0.007290041084728177,"135":-0.0235204307776386,"136":0.12219022156799704,"137":-0.023127956340481738,"138":0.07017562615956828,"139":0.020235754309017494,"140":-0.031422374468207184,"141":-0.10367498132524841,"142":-0.006411952112968459,"143":0.12059845605077883,"144":0.05726856774435379,"145":-0.03271802119206732,"146":-0.0015257908499991216,"147":-0.008675942594305748,"148":-0.08213989079474215,"149":0.01777026673587307,"150":-0.02713575779417825,"151":0.007895462585688824,"152":0.07661004336946808,"153":0.00621806599605918,"154":-0.017310167115904822,"155":-0.010601814466084427,"156":0.0068777787277778425,"157":0.04388161265746544,"158":0.01785900997077297,"159":-0.07543278225972552,"160":-0.005933635847460098,"161":-0.04348011230859107,"162":0.056424097859293774,"163":0.04328119035462271,"164":0.03467418960301045,"165":-0.07908567892339721,"166":-0.06148470883751402,"167":0.042787369689147835,"168":0.006475892435876137,"169":-0.11966146771759917,"170":0.01666253250801689,"171":-0.03074955274011463,"172":0.01602708619442153,"173":0.03531816816096038,"174":0.046608152921764505,"175":0.006657939290776221,"176":0.07465950361227709,"177":0.06709521703566358,"178":-0.004146880636370936,"179":-0.009929876002801518,"180":-0.055803197385725506,"181":0.09086689502926193,"182":0.10881226389343947,"183":0.06852597146053603,"184":0.0035865777103801684,"185":-0.01891849244033826,"186":0.11963373858814877,"187":0.038000058796446495,"188":-0.006100835291170882,"189":0.009242837699431442,"190":0.059866211408254204,"191":0.10336182291682784,"192":0.0908619581688908,"193":0.08712060803675228,"194":0.10119211148893542,"195":-0.2309645164383055,"196":-0.18784952351885295,"197":0.11280420521114382,"198":-0.06718493507405045,"199":0.0435651053236212,"200":-0.008421236647865078,"201":0.036415682901959644,"202":0.061476723085479565,"203":-0.05997802974223326,"204":0.01613037396805009,"205":-0.02718581013408972,"206":-0.009756980637261225,"207":0.02087779394292938,"208":0.023434506862013066,"209":-0.15786905572152027,"210":-0.008307287164347537,"211":0.018020353631402204,"212":-0.14303222761021986,"213":-0.1235264251604501,"214":-0.08289966742309644,"215":-0.010383778890625122,"216":0.021907686115973816,"217":-0.2737362921802808,"218":-0.05772644954950198,"219":0.011550223229130635,"220":0.043852069697014884,"221":-0.04635360047954689,"222":-0.0036200267217741536,"223":0.062394045015050505,"224":0.12072157978990311,"225":0.02489380854104369,"226":-0.07075391417843596,"227":0.07639299069155943,"228":-0.006875460248778936,"229":0.07478512080143351,"230":0.09893344014151127,"231":-0.002897951210913856,"232":0.042956822832851786,"233":-0.04263575549005573,"234":0.0881851586395971,"235":0.05606625934833521,"236":0.09585096394218458,"237":0.0116290304498823,"238":0.05832281318999405,"239":0.013625695005764672,"240":0.0022593418729173775,"241":-0.03372388355480349,"242":-0.06682058153431242,"243":-0.008216620994053314,"244":-0.08747855375732103,"245":0.013466342157245032,"246":-0.07252207705003598,"247":0.03127517691766562,"248":-0.04706631797424256,"249":-0.013135284674358408,"250":-0.007492130677793633,"251":-0.016196490202665132,"252":-0.08303835930774865,"253":0.0020348112365840445,"254":-0.031568846821565466,"255":-0.05786875022786593,"256":-0.059121343115032,"257":-0.0466081298833413,"258":-0.02770406230443216,"259":-0.050251835908920274,"260":-0.023745315188818606,"261":-0.08905602212466655,"262":-0.09901048710513113,"263":-0.030723457618136718,"264":-0.0369607273264889,"265":-0.05951871838671458,"266":-0.05443830926037036,"267":-0.08125320650509445,"268":-0.022701460262219253,"269":-0.06419573146745179,"270":-0.05935730936592787,"271":-0.045624265619361934,"272":-0.042787636131774436,"273":-0.01015427316785769,"274":-0.03170292567311594,"275":-0.013819117635730594,"276":-0.06136199560410485,"277":-0.010573320951162066,"278":0.0027302804881443,"279":0.012258759066441695,"280":-0.08723698816966707,"281":-0.03860951828429496,"282":-0.045498892456191875,"283":-0.014036774243141098,"284":-0.041560581850589154,"285":-0.04839422979370406,"286":0.025640705908427222,"287":-0.028388953855571712,"288":-0.06277995733168318,"289":0.011983293561546364,"290":-0.03312626773439908,"291":-0.005052060041509124,"292":-0.08087334845257153,"293":-0.004363150783693651,"294":-0.03170962089670441,"295":-0.005423910538826466,"296":-0.06281775400101157,"297":-0.04324703229975325,"298":-0.015292405751290906,"299":0.06583337677241743,"300":-0.050236857000560305,"301":-0.018822856403020505,"302":0.02805039559860817,"303":-0.025340501961926633,"304":-0.01758751791877507,"305":0.030863761279088565,"306":-0.04632474328707165,"307":0.00852172410379213,"308":-0.010139302888469343,"309":-0.022612310691386195,"310":-0.021011807724320944,"311":-0.016466500818403965,"312":0.06868539481034742,"313":-0.036393214814483876,"314":0.0009721099977018018,"315":-0.029387679530607797,"316":0.018939360022910003,"317":-0.03771736967152557,"318":0.02330276231865071,"319":-0.022784939085756926,"320":-0.04031175570717213,"321":0.015680081820337016,"322":-0.05575367815715684,"323":-0.025981849210317685,"324":-0.008388599666645177,"325":-0.054565487405788336,"326":-0.021683253494797095,"327":0.02473198606016809,"328":0.009832541619395079,"329":0.0265289113841996,"330":-0.02282295049446439,"331":0.016128297978123603,"332":-0.05354158790847852,"333":-0.0952854754388316,"334":0.0022259937549240754,"335":-0.04140028981164918,"336":-0.006040545814175497,"337":-0.04396702104671213,"338":-0.01343962898072526,"339":0.026341342682071462,"340":-0.028204700282104214,"341":0.020657660881626825,"342":-0.03731433901536198,"343":-0.02475479023099512,"344":0.02796489338040748,"345":-0.03320267302793194,"346":0.03731197719273839,"347":0.05646557862649963,"348":-0.0604686694147495,"349":-0.026924074787511295,"350":0.06686246093276367,"351":-0.057941496435143194,"352":-0.048675252909090985,"353":-0.03271589920601012,"354":-0.027549224138715824,"355":-0.017521373519697545,"356":0.008290260301362108,"357":-0.022774797169737373,"358":0.001387590401581656,"359":0.03452360260479018,"360":0.039872299383490704,"361":-0.07833922888326575,"362":-0.00012989014164297647,"363":0.0006491848439583552,"364":0.007320225222374185,"365":0.04772296717296956,"366":0.02341376462279532,"367":0.036950002930574065,"368":-0.05679086666828986,"369":0.012307812418211338,"370":-0.0638212892077229,"371":0.0052588512576755425,"372":0.026253100294477073,"373":-0.03183511401674388,"374":-0.04418989968194089,"375":-0.01984467632039885,"376":0.08149307738744202,"377":-0.058035815886926335,"378":0.047581408437551195,"379":-0.009143362048952731,"380":-0.033253122912052964,"381":-0.025498663938056106,"382":-0.008915815134686957,"383":-0.029129613499436092,"384":0.0591140761605042,"385":0.03029556738397824,"386":-0.024898757784512605,"387":0.019016484355919325,"388":0.022760683903527756,"389":0.11628907708154401,"390":0.10914677519914932,"391":-0.06054056434535489,"392":0.01788456816547691,"393":-0.0755741478800613,"394":0.05726584168123894,"395":0.07736632700626724,"396":-0.04089654041404456,"397":-0.0238286493610921,"398":0.08022780780336217,"399":-0.08343498078897336,"400":0.018968152446143943,"401":-0.04405122069512137,"402":0.005322834482112274,"403":-0.0063191121501047585,"404":-0.0007496107535005818,"405":-0.03668535555398087,"406":0.07683793463362476,"407":0.03040874211229554,"408":0.07798962242132602,"409":-0.04008648414487732,"410":-0.024501794910456214,"411":0.07785004515065481,"412":0.009555615811056324,"413":0.013800217065605353,"414":0.02903270574204738,"415":0.042449256491319635,"416":0.027854986492148865,"417":0.012131867035624893,"418":-0.014984713506924274,"419":-0.059865245151898845,"420":0.029449453192426568,"421":-0.050168867900306176,"422":0.01698130333742207,"423":-0.05458679250658095,"424":0.07150265435731384,"425":0.0033172506000129576,"426":0.020287393139233265,"427":0.02688367906059393,"428":0.050064813778923946,"429":-0.0664232500543274,"430":0.06427601194257929,"431":-0.11258867502693347,"432":-0.019538155201222977,"433":0.032460141949074456,"434":-0.020615576235210435,"435":0.14973866983232345,"436":0.16265210266907792,"437":-0.03593597991116537,"438":0.04720901237718605,"439":-0.028216566110570624,"440":0.004447669586228751,"441":-0.04430374398269848,"442":0.04463680740317426,"443":0.06536467628362694,"444":0.025003174225060546,"445":0.028258689293668444,"446":0.052830180445413044,"447":0.05625546321363627,"448":-0.020575304366341928,"449":0.05171024851761823,"450":-0.0003375381602919932,"451":0.1017726422493984,"452":0.03612428012108344,"453":0.016394439154226115,"454":0.06605108720846371,"455":0.031401155615335304,"456":0.06882571737875523,"457":0.029133000503178866,"458":0.05996094935984268,"459":-0.07200838502841454,"460":0.009044865478369062,"461":0.08594629474872205,"462":0.0707760146762827,"463":-0.07339668848497835,"464":-0.03977538016316177,"465":0.012421364503790683,"466":0.0524913934039522,"467":-0.026691756319688172,"468":0.002970838191728692,"469":-0.10897498665938374,"470":0.0010257585257153609,"471":0.017986880309723254,"472":0.14402626108593686,"473":0.030903902144889618,"474":0.04760553938188735,"475":0.032130100912765976,"476":-0.03200104580496071,"477":-0.04705257526475328,"478":0.007659532675739815,"479":0.004015794309644804,"480":-0.0050831981126558765,"481":0.013547582927999643,"482":0.062231419253572146,"483":-0.03315887992297737,"484":-0.039128910795696886,"485":-0.06581622361866786,"486":-0.07362872455084712,"487":0.009155260269921865,"488":-0.024626081936894147,"489":-0.036524861947279094,"490":-0.06296483225873777,"491":-0.027984075273233874,"492":-0.07301799603345771,"493":-0.04838622470763124,"494":-0.001076272302327302,"495":-0.000983358502144689,"496":-0.045543473340065456,"497":-0.02638462437180108,"498":-0.03863899345522863,"499":-0.022594195456829478,"500":0.004855574973676906,"501":-0.049107145630595844,"502":-0.01402203812211326,"503":-0.035338891026749905,"504":-0.0074656869344034045,"505":-0.0831537830349465,"506":-0.03237969511894043,"507":-0.05374664340602413,"508":-0.030350361395072807,"509":-0.032678695441801506,"510":-0.023155654565080418,"511":-0.03278338749508466,"512":0.04664665998349566,"513":0.013128808947221305,"514":-0.1198487630340491,"515":0.07495138220754284,"516":-0.09049953765081765,"517":-0.03126047262294021,"518":-0.013240241903152677,"519":0.02127122407507244,"520":-0.07130231908737225,"521":-0.016591583977248997,"522":0.047757888806525595,"523":-0.051419291255136994,"524":-0.052807928866522025,"525":0.08226519406088799,"526":-0.008974477446846074,"527":-0.010904828200920173,"528":-0.04456291779346067,"529":-0.050701347971666186,"530":0.017445833089485573,"531":0.07869705362655803,"532":0.023744982155191757,"533":0.002742262625387329,"534":-0.022084301386315258,"535":0.006451821258652362,"536":-0.03227722924064208,"537":0.00982481614629857,"538":0.01932929594385078,"539":-0.027396525311974212,"540":0.006290248609621953,"541":-0.041276543191490746,"542":-0.02456054361332669,"543":-0.06957102639893428,"544":-0.022728877052451326,"545":0.038425986358757915,"546":0.03369809981580025,"547":0.0513118094691933,"548":-0.015597319357436338,"549":-0.03526561205755943,"550":0.04769145475490928,"551":-0.04650030282338518,"552":-0.00001912796317947005,"553":0.028685045522533186,"554":0.0005678227312956707,"555":-0.03522212924314556,"556":-0.02420426329068661,"557":-0.040853096749611253,"558":0.02258430478329933,"559":-0.06849210163833414,"560":0.03161511003375031,"561":0.013772866987920431,"562":-0.08123462737117973,"563":0.04668876416344352,"564":-0.013608822921650861,"565":-0.006012087812784354,"566":0.021960085652494504,"567":0.038051603947946266,"568":0.021098536014785993,"569":-0.011870238276213953,"570":0.038732661811255745,"571":-0.04051725012400887,"572":-0.03257291775844345,"573":0.0016673700804471338,"574":-0.03527644575208731,"575":0.034438507203697406,"576":0.0020877461468512466,"577":-0.02111205688386588,"578":0.013424040603539822,"579":0.05333724664244501,"580":0.08194240202622867,"581":-0.043100872543901866,"582":0.013490521074919264,"583":0.0351385842939068,"584":0.017153876909259208,"585":-0.012227954844820586,"586":0.0004103902001601618,"587":0.04034572504757759,"588":-0.023999519833014123,"589":-0.012573346808657132,"590":-0.0008556977139621986,"591":-0.07215837140278623,"592":-0.004187596599822419,"593":-0.0012724704634698447,"594":-0.014336770715837287,"595":0.01756017954842847,"596":0.09452485492744163,"597":0.04047043436188431,"598":0.024525355614011878,"599":-0.012503790944456946,"600":0.06999884519231056,"601":0.06031756681448753,"602":0.0025595110978138312,"603":-0.007570505554884273,"604":-0.05271485366321601,"605":0.030207313184905972,"606":-0.026408183177445012,"607":-0.011187424704703316,"608":-0.024516603980028077,"609":0.014605813643738362,"610":0.011525452192260121,"611":0.00015414273774278848,"612":-0.043521161459600104,"613":-0.11333353845902672,"614":-0.08467487424704002,"615":-0.010262808366968159,"616":-0.012800446216729093,"617":0.0043945726243594056,"618":-0.003446861696140976,"619":-0.04475203080077921,"620":-0.051215095240679,"621":0.03936675684614204,"622":-0.025439285473733753,"623":0.006622099134883895,"624":0.0035812798988804693,"625":-0.068591038848041,"626":-0.04605618471457461,"627":0.06231870716240435,"628":0.10079501175463917,"629":-0.055774612968871436,"630":-0.03297676197196343,"631":-0.030721026675386245,"632":0.02552496756953242,"633":-0.08998439722993412,"634":-0.05942231567735129,"635":0.01754220785467131,"636":-0.02196839930615374,"637":-0.0009816308583512764,"638":-0.04495051504671291,"639":-0.0417891030933949,"640":-0.02339308561762646,"641":0.025919121729699016,"642":-0.025190032238113367,"643":-0.02674576115065185,"644":0.06682761692701818,"645":0.08706950625835284,"646":0.0798468033211326,"647":0.03949644943599546,"648":0.058750450732421924,"649":0.09133534934505316,"650":0.03430076386914871,"651":-0.02758829145387723,"652":-0.06201986725095066,"653":0.020982778882393013,"654":-0.00508238424230569,"655":-0.002048563799823945,"656":-0.006568095036856545,"657":0.04438427840784124,"658":0.0821317831258111,"659":-0.0011612342173715927,"660":0.0043127639134073695,"661":-0.05235133592664913,"662":-0.003029367392480006,"663":0.051383389496971243,"664":0.020461827794205592,"665":-0.004406426514472214,"666":-0.003018199276651937,"667":-0.011499975567953293,"668":0.019568438020197053,"669":0.07734706701434506,"670":-0.04322793982614987,"671":0.018941516833619727,"672":-0.004448236582524133,"673":0.01300337749841583,"674":-0.06268156141262957,"675":0.07345600069381925,"676":0.11913200413132971,"677":-0.0030556040465667556,"678":0.04083884778443649,"679":0.0200017892946693,"680":0.0008784379478976709,"681":-0.043632280310283295,"682":0.022472322319143142,"683":0.023195467455418575,"684":0.030836193882826244,"685":-0.005877176681889819,"686":-0.017502199665635793,"687":-0.03416315831731912,"688":0.016366547711913867,"689":0.05205064809923129,"690":-0.02746271534725607,"691":0.0428845767933485,"692":0.04517861289245431,"693":0.1470294094549894,"694":0.02459940280649503,"695":0.051048834760561636,"696":-0.028982896345171174,"697":0.10164978523022773,"698":0.06330892804544666,"699":-0.046197608743447985,"700":0.006969986250503246,"701":0.06925593551235291,"702":0.0055205990804959824,"703":-0.04552974880362336,"704":-0.00985680214370472,"705":-0.01555263915822032,"706":0.08050521565917933,"707":-0.019682742250247593,"708":0.02486386339119146,"709":0.008104592449371815,"710":0.01624117915308374,"711":0.039491534269850456,"712":0.027418858667677574,"713":0.062789597445343,"714":0.022318827718736545,"715":0.007260001612302249,"716":0.08225825430626874,"717":0.0557176127036571,"718":-0.007554726570075732,"719":-0.005271162818066106,"720":-0.005678926611834149,"721":0.04413121479599847,"722":0.015518695446218733,"723":-0.020438044256287077,"724":0.017515157509775107,"725":0.030776280084964306,"726":0.027225197208248113,"727":0.0040333519093893235,"728":-0.025229318098995212,"729":0.027578940294946903,"730":0.10241158277407338,"731":-0.007875173329302364,"732":-0.018328769674547597,"733":-0.018982961389735896,"734":0.02076187407575907,"735":0.03145368542449064,"736":-0.059179950894092254,"737":-0.034919779235794174,"738":0.0378904123319724,"739":-0.023767843079504636,"740":-0.03669125893030563,"741":-0.055918208741829865,"742":0.08103888952392842,"743":-0.04110649125132353,"744":-0.11288303711704464,"745":-0.016205551764877094,"746":-0.0024690010086569018,"747":0.043051033303254764,"748":-0.010578176551262482,"749":-0.03709213463625627,"750":0.08919159852318718,"751":0.052768043022648474,"752":0.021439870651333705,"753":0.009523465328510956,"754":-0.031162550101254117,"755":-0.005693495927853486,"756":-0.021950559634195205,"757":-0.027659399902685056,"758":0.10506343958175562,"759":0.011891695477428573,"760":-0.024280867273425363,"761":-0.0643347640466138,"762":-0.06874418678253162,"763":-0.06448553311388654,"764":-0.096631952434412,"765":0.09908630053513987,"766":0.01758611055287119,"767":-0.022164096579620342,"768":0.06738532216115953,"769":0.03720765666333698,"770":0.0477266315099536,"771":-0.007506857243078387,"772":-0.008100032252794476,"773":-0.05802034810752364,"774":0.060299129278899605,"775":0.0013214395819933617,"776":-0.05032268030106092,"777":0.03972023190797063,"778":0.032506977561321905,"779":-0.0824636622018742,"780":-0.019097039279852488,"781":-0.06029277235371696,"782":0.08954802713069722,"783":0.0048685806665289795,"784":0.03834303040281644,"785":-0.028740609916881116,"786":0.12602404677015366,"787":0.041878896872764554,"788":-0.021291583440329328,"789":-0.024379124114730862,"790":0.10724933014052891,"791":-0.06373700519717752,"792":-0.016865674895515124,"793":0.03792050220642451,"794":-0.007793976387630439,"795":-0.011296218036455698,"796":0.08371866792042314,"797":-0.0345048718224273,"798":0.0024782304537212616,"799":0.05200507428648532,"800":0.07392028994888157,"801":-0.0282643533998218,"802":0.011516293542486306,"803":0.07042007745489044,"804":-0.05152808419263272,"805":0.0029895852920153753,"806":0.11477377104403133,"807":-0.0014784891194075437,"808":-0.004653438899855107,"809":-0.0034961675805716347,"810":0.028223310049307795,"811":-0.028188146601845748,"812":0.06190968154699243,"813":0.020170039185319094,"814":-0.029013291321289495,"815":0.020377478261469482,"816":-0.0030632186391324656,"817":-0.009683270836750852,"818":-0.03393860166079221,"819":-0.01787076528227066,"820":-0.04039929364758362,"821":-0.03646079819504283,"822":0.05054407029496361,"823":-0.044226008045033266,"824":-0.012554611802609791,"825":-0.053569739312367484,"826":0.013606159720359369,"827":-0.02236939449771178,"828":-0.0244227128697842,"829":-0.0783645699840824,"830":-0.01076912280637228,"831":0.09420706379154943,"832":0.022907239966939823,"833":-0.008284265491601705,"834":-0.02126872083061153,"835":0.044728389801542395,"836":-0.052117201214244076,"837":-0.042675154895432194,"838":0.03241027387931226,"839":0.08497115881582425,"840":-0.07747272620208764,"841":-0.041017129735115045,"842":-0.020781479746285858,"843":-0.017516589590337427,"844":-0.05259133961755842,"845":0.026210344559137653,"846":-0.018284064703391313,"847":0.030103809085937492,"848":0.055734036225794786,"849":-0.004554917600764613,"850":-0.056785778204496665,"851":0.0008340637765955719,"852":-0.06015231705285916,"853":-0.002565828079202239,"854":-0.008943786481780864,"855":0.04148964163471749,"856":-0.12536132185397827,"857":0.07753672598780252,"858":0.011810826795865271,"859":-0.07257459767328309,"860":0.018917499109595202,"861":0.05193297668077536,"862":-0.07670285404156421,"863":0.005404370462446239,"864":0.049388688955066026,"865":-0.04105519587822155,"866":0.055969261777503825,"867":0.0003447689825364366,"868":-0.040775428155097784,"869":-0.0015863240548491826,"870":-0.020651232951939633,"871":-0.015922019754761017,"872":0.009566455641072015,"873":0.027534513483456202,"874":-0.020566428406487404,"875":-0.0531376548532257,"876":-0.05448095945494152,"877":0.010119859346182637,"878":-0.01587984944475484,"879":-0.0000030961966664991346,"880":0.007268096155054539,"881":0.04948764103171614,"882":-0.047630190419133626,"883":0.040272998467998936,"884":0.027487259051399825,"885":-0.02419745516451416,"886":-0.04764184372675038,"887":0.006431400047872973,"888":-0.0006743589779886789,"889":-0.0664338830201557,"890":0.02296794032839986,"891":-0.016277775460272467,"892":-0.0726642508276201,"893":0.008143514447372458,"894":-0.06177648054005518,"895":-0.01842115664077093,"896":-0.023115670079614476,"897":0.04151944488719722,"898":-0.023229045110498794,"899":0.06170570651782744,"900":0.012997889109754454,"901":-0.022662499267375066,"902":-0.05511836577667691,"903":-0.005829272305017554,"904":-0.007006539485966587,"905":-0.031276521053142964,"906":0.08686984043705093,"907":-0.01673885350056132,"908":0.011847245457694725,"909":0.0665807500802434,"910":-0.00976371543057299,"911":0.09770548646467359,"912":0.013046990673646045,"913":0.0031043106736032993,"914":-0.01843607461712216,"915":0.029447495188396254,"916":-0.06928491036586953,"917":0.0998630662613969,"918":0.02060533657210196,"919":-0.023024026094287924,"920":0.0021479238373656394,"921":-0.06222442773223784,"922":-0.051461636525353405,"923":-0.007302005167337705,"924":-0.00867829961054598,"925":0.01877268593856112,"926":0.016414605153760486,"927":0.0008110534710978879,"928":-0.037798807612329,"929":-0.025399367208434206,"930":0.014315629751548773,"931":0.013415393727412664,"932":-0.016475970151451344,"933":-0.06770023486815252,"934":-0.02162627869381954,"935":0.0152712081774434,"936":-0.04967787505059607,"937":-0.03878006512808152,"938":0.03525817918976045,"939":0.021492867844176578,"940":-0.07567812609946359,"941":-0.009664144996671663,"942":-0.09036339639312539,"943":0.01936370470051047,"944":-0.018203612820856935,"945":-0.017774446719551456,"946":-0.002914032486662504,"947":0.015091312651719506,"948":-0.019299303572349977,"949":-0.04175937853994968,"950":-0.045153601124252964,"951":-0.0423231678898998,"952":-0.0266587720245136,"953":0.036716239301719085,"954":-0.014293484829112024,"955":0.03467839552002637,"956":0.014417701177536255,"957":0.08749929471063245,"958":-0.010823087088803602,"959":-0.027640482425907862,"960":-0.08167465021682001,"961":-0.1260830137403784,"962":-0.028499167868892526,"963":-0.009302301137034927,"964":0.0840071990855291,"965":0.05569203041351393,"966":0.05842097250910664,"967":-0.01989764121117086,"968":-0.005814782886127858,"969":-0.08068091872715345,"970":0.04143186070354332,"971":0.15431794803144072,"972":-0.038616749859884565,"973":0.11991171962358388,"974":0.03531765992542943,"975":0.03821682105141111,"976":-0.06238577033135836,"977":0.03628101135050097,"978":0.003934060667760968,"979":-0.1044082149019106,"980":-0.026458796901381577,"981":0.04734917734030716,"982":0.09938663021009309,"983":0.0002703411573377381,"984":-0.10069434885796592,"985":0.11790877143574514,"986":-0.0014699409316430935,"987":0.030577142518115167,"988":-0.07986820283350755,"989":-0.026818653256760527,"990":-0.0467132090528858,"991":0.03666445404369269,"992":-0.06165735816083816,"993":-0.11562479427669375,"994":0.07455206195485355,"995":-0.17313780935189713,"996":0.007051650048666648,"997":-0.11932022916974895,"998":0.00132378863031683,"999":-0.01032206873284092,"1000":-0.08215797977997052,"1001":0.04793966493285186,"1002":-0.05968284151308158,"1003":-0.06510057108638088,"1004":-0.04470951008774931,"1005":0.012382119307656788,"1006":-0.015409621295572455,"1007":-0.05822511544863773,"1008":-0.0011499709798620875,"1009":-0.04700315522733114,"1010":-0.037647900523986394,"1011":0.02215589309945493,"1012":0.061655744182754366,"1013":0.004221526400046301,"1014":0.0773639876821208,"1015":-0.051719147004199405,"1016":0.02395142631494759,"1017":-0.05867760131305256,"1018":0.06880823999860593,"1019":0.017018408925122405,"1020":-0.007679840047068259,"1021":-0.09111358327207966,"1022":0.006151509873901133,"1023":-0.06793812996878704,"1024":0.040300131385226895,"1025":-0.015151938767481509,"1026":-0.008618671428360238,"1027":0.00510032716630879,"1028":-0.029785034760127355,"1029":0.04217061234618497,"1030":0.044427965031891746,"1031":-0.03008915443265553,"1032":-0.10658917275397795,"1033":0.11869673756014472,"1034":0.03285587746920593,"1035":0.11056972244873267,"1036":0.005226662739775461,"1037":-0.09069269260852872,"1038":0.0394294036898708,"1039":0.06800573269227665,"1040":-0.03454370539288931,"1041":-0.012655239047672613,"1042":0.029709060663128187,"1043":-0.043632229289577294,"1044":0.008157694092403397,"1045":-0.07013978604817855,"1046":0.07475818699092775,"1047":0.009326135907066704,"1048":-0.0817388977191085,"1049":-0.029046409802800245,"1050":-0.012722275878654342,"1051":0.011161858112213022,"1052":-0.0053112331272132576,"1053":-0.11814293368458824,"1054":0.0033429803681356654,"1055":-0.04877540625251539,"1056":-0.0407707513451102,"1057":-0.02099333199208509,"1058":0.03360625908558228,"1059":0.0006852928880535993,"1060":-0.0903808051100662,"1061":0.0074632497682466485,"1062":0.1365437673577758,"1063":-0.02809229740761307,"1064":-0.04230520990044438,"1065":0.013776550154718847,"1066":0.10397806277484317,"1067":-0.01394101717059202,"1068":0.045961477947153856,"1069":0.06388036406507525,"1070":0.047405106980106394,"1071":0.06547033767932338,"1072":-0.010701682991172785,"1073":0.04555172824064056,"1074":0.08804246651577138,"1075":-0.03891623867334011,"1076":-0.06470808564956781,"1077":0.1063783300555599,"1078":0.003980888674003927,"1079":0.05951208633609791,"1080":-0.11932870947601915,"1081":0.03278224966271613,"1082":-0.04208870522102715,"1083":0.062087370006503176,"1084":-0.043615862892573465,"1085":0.029459614814142786,"1086":0.0418759115184051,"1087":0.020324043371741186,"1088":-0.10999544105445513,"1089":0.05607328513238459,"1090":0.016801364842281778,"1091":-0.06595259518454138,"1092":-0.0008234649071486286,"1093":0.006596547867878769,"1094":0.04427063904919501,"1095":0.011839164533953875,"1096":-0.07504209806783138,"1097":0.002061374012692604,"1098":-0.03167258020837327,"1099":0.03848791737012264,"1100":-0.044610932277428114,"1101":-0.03755354464734161,"1102":-0.030978361142174296,"1103":-0.04208600673676328,"1104":-0.009057869936506792,"1105":0.016590603075734407,"1106":0.054605021453739064,"1107":-0.06334015155033805,"1108":-0.09023590888733408,"1109":0.035377534470740095,"1110":0.04084189511348855,"1111":-0.010624266075461016,"1112":-0.0226906851922193,"1113":0.024678583235362116,"1114":0.09445284471628462,"1115":-0.08634557105017891,"1116":0.041639569573032456,"1117":0.04622743004897703,"1118":-0.032421177745348244,"1119":-0.014043936870367785,"1120":-0.03311100705715607,"1121":-0.02559001648719888,"1122":0.05816719485829719,"1123":0.006592650604373111,"1124":-0.013832405034762291,"1125":0.017048758014526637,"1126":-0.038539439972292575,"1127":-0.008019371092041643,"1128":-0.051490881510924194,"1129":-0.05121569622361299,"1130":0.020225786761277103,"1131":0.039849712815013344,"1132":0.03389982340905635,"1133":-0.0863309413423255,"1134":-0.008960649222011037,"1135":-0.022570685068974906,"1136":-0.015043443990841694,"1137":0.005820891462705038,"1138":-0.044857079746578404,"1139":-0.024469610806421592,"1140":0.0073533039881119215,"1141":0.06563864867745606,"1142":-0.0009194247755991576,"1143":-0.01271702267853307,"1144":0.0001690173563278152,"1145":-0.022812186021382946,"1146":-0.004260387900062028,"1147":-0.015262191091369623,"1148":0.10536421350167754,"1149":0.05752402478153723,"1150":0.05079963711829187,"1151":-0.006807269637293622,"1152":-0.01724866785883662,"1153":0.034019962666907336,"1154":0.024667173753825017,"1155":-0.0014645422135385097,"1156":-0.08094650039356259,"1157":-0.020576843105497095,"1158":0.09577507278525806,"1159":-0.04208250754228983,"1160":-0.0522835053813056,"1161":-0.002281823321976744,"1162":-0.0495088126939835,"1163":-0.0932600853875214,"1164":0.04380364342163617,"1165":0.021190077070711306,"1166":0.0272896062481787,"1167":0.12501883728625957,"1168":-0.003277690000462903,"1169":0.03712605027731236,"1170":-0.04030106631034582,"1171":0.013431840802910365,"1172":-0.0005825294973478775,"1173":-0.01961813715213514,"1174":0.014080186707183038,"1175":-0.04719168286137269,"1176":-0.012719259186385608,"1177":-0.04998566219720216,"1178":0.0026379438860782535,"1179":0.0189538464664182,"1180":-0.06770973086711202,"1181":0.022154523965081867,"1182":0.03950683149369439,"1183":0.014232384717251143,"1184":-0.10651309465969443,"1185":-0.04629522970591216,"1186":-0.040935453615808685,"1187":-0.06637319868607158,"1188":-0.03291895036291588,"1189":-0.06221343726898298,"1190":-0.08055584916616408,"1191":-0.06705352855838673,"1192":0.034561300662254074,"1193":0.10433645242470743,"1194":-0.031472865370090634,"1195":0.0064183352799112945,"1196":-0.008653952870446893,"1197":-0.038279039648829304,"1198":-0.05543982233436449,"1199":-0.07471288012533506}},{"sx":5,"sy":5,"depth":48,"w":{"0":0.01961791146770175,"1":0.07576360866751888,"2":-0.05333386135671534,"3":-0.007066160303500923,"4":-0.041398727543106674,"5":-0.0257463681655947,"6":-0.032909834154206015,"7":0.013255550825706824,"8":-0.014724396290419214,"9":-0.033822412950633186,"10":0.01333204542289772,"11":-0.0010670055512883349,"12":0.00877997042353104,"13":-0.051372407812912455,"14":0.006223977471556516,"15":0.025840020729221348,"16":-0.045523348887085785,"17":-0.018049898618150095,"18":-0.018752835509273192,"19":0.04308494755529955,"20":-0.005632626478730711,"21":0.021031205614499112,"22":-0.03214610435645948,"23":0.00754710183863378,"24":0.01913736075570067,"25":-0.0015677374428806898,"26":-0.03235521885985721,"27":0.019638636533753393,"28":0.056874649717051806,"29":-0.006708688838725768,"30":-0.005825910216781254,"31":0.03522263120837896,"32":-0.010714306175675972,"33":-0.01174376980604313,"34":-0.013993052546523983,"35":0.019444036806355383,"36":-0.005516357147852341,"37":-0.009636010669646117,"38":0.030054117846470118,"39":-0.03208467643593584,"40":0.03347495605041775,"41":-0.050135975260414446,"42":0.05258050742761089,"43":0.04602699357897379,"44":-0.01849146677846911,"45":-0.03064612030247202,"46":0.013589525180553138,"47":-0.009002677005566628,"48":0.001518957078750966,"49":-0.007936466277843527,"50":-0.024208080818854154,"51":-0.030456621179398236,"52":0.02047021676658995,"53":-0.06157399412459461,"54":-0.004594827905114603,