{"layers":[{"out_depth":1,"out_sx":26,"out_sy":26,"layer_type":"input"},{"sx":5,"sy":5,"stride":1,"in_depth":1,"out_depth":8,"out_sx":26,"out_sy":26,"layer_type":"conv","l1_decay_mul":0,"l2_decay_mul":1,"pad":2,"filters":[{"sx":5,"sy":5,"depth":1,"w":{"0":-0.047906971514412186,"1":0.123904250980333,"2":0.19554038454905234,"3":-0.09720611209754479,"4":-0.2456585776990086,"5":0.49214966551489303,"6":-0.22463567896742725,"7":-0.6748416606637456,"8":0.13349452304763837,"9":0.21088166642073328,"10":-0.07950600459885898,"11":-1.0069102492877011,"12":-0.04097971063734817,"13":0.5362304367524408,"14":0.27018663278727534,"15":0.3196382811840569,"16":-0.8665972851370781,"17":0.0017998464335413922,"18":0.3901687793838517,"19":0.24775111739122624,"20":0.42706127119179893,"21":-0.9516834222915229,"22":-0.12538026843401218,"23":0.45438253211560803,"24":0.21043311940474435}},{"sx":5,"sy":5,"depth":1,"w":{"0":0.038989827889058956,"1":0.3045978646059998,"2":-0.02407640256683126,"3":0.4187164050800987,"4":-0.03320801289018381,"5":0.013803897417933518,"6":0.036548832439529895,"7":-0.30281124756825084,"8":0.31146820151902105,"9":0.27440887421460586,"10":0.044063848069104544,"11":0.1027805590433761,"12":-0.4554741218716217,"13":0.17104766796078744,"14":0.03193608310513524,"15":-0.1349649711651205,"16":0.2550891939742478,"17":-0.19690452980325437,"18":-0.1731900264095563,"19":0.08466563030636552,"20":0.4057022052688494,"21":0.1225634124526772,"22":0.0004959045112168062,"23":-0.43435882333070264,"24":0.08161884105502767}},{"sx":5,"sy":5,"depth":1,"w":{"0":0.23007947926893338,"1":0.4157436175687279,"2":0.2862172293823874,"3":0.15381876696408678,"4":0.2811267885185866,"5":0.30226413296826143,"6":0.3009583607802689,"7":0.33090196025430063,"8":-0.24352361382173368,"9":0.056994073116840085,"10":-0.2133331313490179,"11":-0.23846548809498777,"12":0.22186721310827048,"13":0.20766925230776992,"14":-0.12856681116661225,"15":0.08693303488994708,"16":-0.03724647895157463,"17":-0.08792260463097942,"18":0.22333349392068003,"19":0.047715279004035924,"20":-0.40311882445539715,"21":-0.39946037011687063,"22":-0.6035753272172951,"23":-0.42546428416070864,"24":-0.6457433258349524}},{"sx":5,"sy":5,"depth":1,"w":{"0":-0.1273844082842376,"1":-0.05215595864526715,"2":-0.6187606083537298,"3":0.3162038629828195,"4":0.04208802915536331,"5":-0.20482469011587162,"6":-0.10994423026505472,"7":0.011763623442520504,"8":-0.5036728638530944,"9":-0.03168507081064201,"10":0.543831033506394,"11":0.782739568316033,"12":0.14473390084687318,"13":-0.0963213416574798,"14":-0.1358040436383872,"15":0.4454231538861124,"16":0.0890411534824645,"17":-0.24553149047349257,"18":0.23977383904243144,"19":-1.16964716112332,"20":0.15105293958139412,"21":-0.0928029823640772,"22":0.2015087548869601,"23":-0.5275279452130397,"24":-0.13671869136858025}},{"sx":5,"sy":5,"depth":1,"w":{"0":0.04903293590946541,"1":-0.1250281860652443,"2":-0.1378556462446178,"3":-0.27164958991119365,"4":0.08185438176420841,"5":-0.24357945780346893,"6":0.09703463361761508,"7":-0.06974247634892534,"8":-0.03805504660871872,"9":0.06503224906662698,"10":0.060911431453189877,"11":0.6419423165153904,"12":0.4323111951966078,"13":0.6670756122106618,"14":0.11078226379288451,"15":0.24613001438151666,"16":0.19152032184061699,"17":0.48263989405707736,"18":0.4508041829934632,"19":-0.5416873456664142,"20":-0.3605410546765259,"21":-0.5231889755472361,"22":-0.9038359031524262,"23":-1.1365660670112931,"24":-0.28149045307609927}},{"sx":5,"sy":5,"depth":1,"w":{"0":-0.37340446361067164,"1":-0.83931109401492,"2":0.3833506964394264,"3":0.04708563297520064,"4":0.6329828984756137,"5":0.009532800801382326,"6":-0.6572408294615439,"7":-0.2749994100746612,"8":0.2164335127596936,"9":0.39709942179951824,"10":0.14164457441283224,"11":-0.29773963075499194,"12":-0.3784072005919334,"13":0.019539322366762202,"14":-0.3576075685405718,"15":0.061799604704550405,"16":1.0342720351864985,"17":0.3860316514118826,"18":-0.24020723065205907,"19":-0.4300324874627057,"20":0.45035282739216437,"21":0.362069801162979,"22":-0.592342353276354,"23":-0.15377328847249905,"24":-0.17482088930341688}},{"sx":5,"sy":5,"depth":1,"w":{"0":0.14745570944950318,"1":0.08297517778941506,"2":-0.6541521417572571,"3":-0.4904293311829283,"4":-0.5111424847464237,"5":0.2429513817455179,"6":-0.6978241880032381,"7":-0.707536421476179,"8":-0.40437775021357764,"9":0.016554236130809464,"10":-0.9522607802186487,"11":0.019006448289969197,"12":0.5737324676847811,"13":0.23060689174937593,"14":0.3534103947348119,"15":0.30630407388038855,"16":0.44875264228397127,"17":0.47353905910786476,"18":0.5884334838490033,"19":0.29297976639397055,"20":0.26263387651929293,"21":0.056256728508757486,"22":-0.23037261567668205,"23":0.0748014439546894,"24":0.029782409544212178}},{"sx":5,"sy":5,"depth":1,"w":{"0":0.2325768132248799,"1":0.3451465535679212,"2":0.1928188940553845,"3":0.17850022435701246,"4":-0.12933685348196308,"5":0.1430163338899325,"6":0.363379014784393,"7":0.5464349271268515,"8":0.48167542633406246,"9":0.07827292248420187,"10":0.10535185334514106,"11":0.8925585388126224,"12":0.41335586126667384,"13":-0.1834003214381681,"14":-0.22119805239121437,"15":0.31847012373690653,"16":0.43379525494054416,"17":-0.5731795577726528,"18":-0.3253745980777008,"19":0.40547038713140476,"20":-0.773862583008484,"21":-1.4243213341930132,"22":-0.5432167755396718,"23":-0.22152086693824266,"24":-0.3256190777326962}}],"biases":{"sx":1,"sy":1,"depth":8,"w":{"0":0.2185306214113931,"1":0.042963094991879815,"2":0.15463991051588655,"3":0.5393419207610378,"4":0.18633450647906868,"5":0.47303633512395227,"6":0.26014431625236056,"7":0.24610126633074833}}},{"out_depth":8,"out_sx":26,"out_sy":26,"layer_type":"relu"},{"sx":2,"sy":2,"stride":2,"in_depth":8,"out_depth":8,"out_sx":13,"out_sy":13,"layer_type":"pool","pad":0},{"sx":5,"sy":5,"stride":1,"in_depth":8,"out_depth":16,"out_sx":13,"out_sy":13,"layer_type":"conv","l1_decay_mul":0,"l2_decay_mul":1,"pad":2,"filters":[{"sx":5,"sy":5,"depth":8,"w":{"0":0.1664982564188189,"1":0.1221692208982784,"2":0.15921126232367483,"3":-0.1115083714459313,"4":-0.1296979879226986,"5":-0.08206951983305362,"6":-0.3421116410375379,"7":0.43658527755090903,"8":0.2644974639636584,"9":0.2559637364132748,"10":0.3135270069721944,"11":-0.1339053107551677,"12":-0.040238076104797724,"13":-0.1213314900015383,"14":-0.10455805070844469,"15":0.2887439338324154,"16":0.3696205061293346,"17":0.05070769763591018,"18":0.25745865401131846,"19":-0.12096836679535103,"20":0.05567879697492335,"21":-0.32740619852834846,"22":-0.1861039724199263,"23":0.13139802000489006,"24":-0.051812903574289915,"25":-0.05570765228202386,"26":0.13348914609530768,"27":0.1745836029494566,"28":-0.030530452923252266,"29":-0.32619987886088025,"30":-0.3066535485818878,"31":-0.02677009306681607,"32":0.06804667888721487,"33":0.0017352366115902763,"34":-0.18706170588957066,"35":0.08311403079224389,"36":-0.040088007350576535,"37":0.12568913135793977,"38":-0.44161278391638187,"39":-0.22950512359464764,"40":0.2538503943911971,"41":-0.07986715259832097,"42":0.358213204931445,"43":-0.004870642629337371,"44":0.12080489726742968,"45":-0.15820528173787748,"46":-0.13446497952871697,"47":0.07011230786444471,"48":0.37553845029674604,"49":-0.020354882182104208,"50":0.26041184870971523,"51":-0.3022479931496985,"52":0.21998947792165166,"53":-0.2488603988188435,"54":-0.060950084157078574,"55":-0.08868989516896425,"56":0.2936939640158734,"57":0.047897126632536174,"58":-0.045854319882383844,"59":-0.2028038589807112,"60":0.2503181618413519,"61":-0.07368742207116441,"62":-0.19730598886152365,"63":-0.15027653772977567,"64":0.030668167615124576,"65":-0.045743002610142004,"66":-0.006956783060075954,"67":0.004973817202732198,"68":0.21135616813687277,"69":0.034793557263955804,"70":-0.015523519584026263,"71":-0.1704732055721401,"72":0.015070448160109513,"73":0.1300111204207144,"74":-0.1928218171925192,"75":0.09751615290734662,"76":-0.14612789756400155,"77":-0.022066987086263676,"78":-0.21507579025681964,"79":-0.2563762842275179,"80":-0.034005782812128744,"81":-0.1115115549684213,"82":0.19284934860718772,"83":0.07815373003711765,"84":0.3210663241475008,"85":0.15977441152353541,"86":-0.2820666885525862,"87":0.3497576046521469,"88":0.1633243774242998,"89":-0.21474213948233525,"90":0.28726627919128206,"91":-0.03540077089833865,"92":0.27615706821779124,"93":0.07151494326772419,"94":-0.14182516912097087,"95":0.2741767087099435,"96":-0.04854977194582148,"97":-0.07505261142102154,"98":0.02696187029636811,"99":-0.041891042302707675,"100":0.07512648146637145,"101":0.24715723780529403,"102":-0.057121136429703775,"103":0.3508228762641153,"104":-0.0735182053634948,"105":-0.03283106507850382,"106":-0.055978043914638585,"107":-0.14349092445699185,"108":0.11820362412056543,"109":0.10591333121719104,"110":0.5291604380143534,"111":0.11582957398537042,"112":-0.16049772436924198,"113":-0.19345035820017206,"114":-0.19863857355042622,"115":-0.03125006643214513,"116":-0.2623016867171978,"117":0.218239772317549,"118":0.41639625637654976,"119":-0.31923621241674993,"120":-0.008912690920161243,"121":-0.45326398641769156,"122":-0.11605475601766399,"123":0.06566757585061066,"124":-0.0018888835140890672,"125":-0.1092333165985629,"126":-0.04844345178504253,"127":0.14734701695019428,"128":0.06673726322669156,"129":-0.05703237385705709,"130":-0.151506458562786,"131":0.10650552307235303,"132":-0.0013799164034102166,"133":0.04202110654088422,"134":0.11915074660333869,"135":-0.09527228143784744,"136":0.07403676397114979,"137":-0.10888369465201443,"138":-0.11129466573065805,"139":0.050084568058137616,"140":-0.03380289470107455,"141":-0.07977409951613991,"142":0.24750565040180186,"143":-0.2410959493465224,"144":0.0992156073570315,"145":-0.09741953043705999,"146":-0.12937599789161405,"147":-0.08547272518939115,"148":-0.015277562074579788,"149":0.29450134411892254,"150":0.28748043556011393,"151":-0.10478697475491451,"152":-0.008025490785210407,"153":-0.20196077900824655,"154":0.001867563542987086,"155":-0.06382364790340908,"156":0.1126974546295532,"157":0.3259043205429193,"158":0.24062067313335697,"159":0.05883771325614841,"160":0.10400443757376825,"161":-0.17366906675755855,"162":-0.3047039220965999,"163":-0.13009996525582068,"164":-0.16320154175304222,"165":-0.1612149763571942,"166":0.3527157456879522,"167":-0.7662513648374845,"168":-0.09347652429180595,"169":-0.1726109090392711,"170":-0.22850095915898902,"171":-0.17615013779530453,"172":-0.3783219646821171,"173":-0.23928393294695774,"174":0.05278507062052183,"175":-0.36080870651307984,"176":-0.492623613235953,"177":-0.23549812522155109,"178":-0.24720170400608704,"179":-0.010089060750266915,"180":-0.37243636073734643,"181":-0.038387088826546546,"182":-0.09390984334664038,"183":-0.34574074280171824,"184":-0.6066986983030838,"185":-0.13352014417660613,"186":-0.2631450108904015,"187":-0.021886137756149344,"188":-0.24884856338815817,"189":0.1363787044523436,"190":-0.3002852152152693,"191":-0.3387762940166863,"192":-0.14035995423264794,"193":-0.15013385798731296,"194":0.07878165249153472,"195":0.16346234418373107,"196":-0.23620879364387332,"197":0.22516871440003905,"198":-0.5846891502163715,"199":-0.12411943651872534}},{"sx":5,"sy":5,"depth":8,"w":{"0":0.3424084016316177,"1":-0.19796993820763198,"2":0.037182026060520415,"3":0.07932329478857174,"4":0.08572308474320249,"5":-0.3076268237346067,"6":0.2370726137745502,"7":0.014410359943688257,"8":-0.5104440823390672,"9":-0.009372906269303517,"10":0.020609179297600345,"11":0.26532405704076806,"12":0.08749777789048298,"13":0.07017397367061103,"14":-0.06202366235675989,"15":-0.0020073178059174814,"16":0.7974829077398257,"17":0.19850250302755496,"18":-0.10871470738099065,"19":-0.129755515815419,"20":0.0724202515846806,"21":0.023574021690970823,"22":0.08189616553373077,"23":-0.06789429258496212,"24":-0.23775783182941967,"25":-0.22145693002690978,"26":-0.0035422397699868577,"27":0.1634202787445446,"28":0.15629264803752482,"29":-0.01636367096935922,"30":-0.13303932762305945,"31":0.19689665272075488,"32":-0.14871215327055282,"33":-0.1310503009031674,"34":-0.1827321266995686,"35":0.32777653975363175,"36":-0.28516375547361034,"37":-0.19121080549909872,"38":-0.08728362635819555,"39":-0.08562104972217986,"40":-0.06460747242944936,"41":0.14890007456658388,"42":0.34844970490687177,"43":-0.37658129982120325,"44":-0.07322015575036966,"45":-0.15788513186266126,"46":-0.8787170471716432,"47":0.19010088745632728,"48":-0.27448745449196793,"49":0.028883698778301204,"50":0.657971802575065,"51":-0.39533586610514093,"52":-0.17575639758044637,"53":-0.6497196285167021,"54":-0.8122098365004253,"55":0.41756396643784344,"56":0.05438706475106128,"57":0.07940613397234583,"58":0.3587790495472786,"59":-0.184478547615631,"60":-0.10715695147569795,"61":0.22302193133769546,"62":-0.6996889384761629,"63":0.22432343898629326,"64":-0.18456690863260206,"65":-0.08905176787692434,"66":0.22204903925305378,"67":-0.11805619752359567,"68":0.04480165078290998,"69":-0.06138728013483786,"70":-0.30744411652444464,"71":0.28427443323320084,"72":-0.056197828243119384,"73":-0.34604047054235076,"74":0.369308111214573,"75":-0.12628839780041215,"76":0.09779741130956178,"77":-0.11145939162391921,"78":-0.1538148074156002,"79":0.07491230669678157,"80":0.25741493876737176,"81":-0.11111389714401712,"82":0.22461840141375286,"83":-0.4388202504762312,"84":0.19901513222301004,"85":0.09499846777360287,"86":-0.02892321040883744,"87":0.21717285128715236,"88":0.03259318755465093,"89":0.025759575235149563,"90":0.11705097864680993,"91":-0.07924209610233596,"92":0.2748116012637847,"93":-0.022761097273882393,"94":0.10240337544386448,"95":0.3414950235276011,"96":-0.05887851805612158,"97":-0.19255087374912086,"98":-0.10835029387653497,"99":-0.0213251521901777,"100":0.1987401700888536,"101":-0.09369295984619774,"102":0.004187244707739037,"103":-0.20297161778584136,"104":-0.16252615625577585,"105":-0.24308473573538772,"106":-0.2167199538920373,"107":0.3087529032018117,"108":0.38443968771248155,"109":-0.3049265103492989,"110":-0.176383577028901,"111":-0.17788167069453129,"112":0.06956021610231376,"113":-0.23161413001111048,"114":-0.25803061479154693,"115":0.13272644358077396,"116":0.04377418763395459,"117":-0.2864886787228666,"118":-0.03030906135307385,"119":0.008059542517847818,"120":0.01028465042712235,"121":-0.1176086676704564,"122":-0.03932743587422195,"123":-0.17107548444020898,"124":-0.13766714971601787,"125":0.11320916681778466,"126":-0.14264843848115807,"127":-0.19966471885519743,"128":-0.055281017443849764,"129":-0.06908552903839107,"130":-0.00043158977547201176,"131":-0.08491644671059485,"132":-0.1471174855165089,"133":-0.2140022220791656,"134":-0.05838063413336688,"135":-0.0852712421159889,"136":-0.17832249999081126,"137":-0.17304807049804055,"138":-0.09801966892884464,"139":0.013610185629887056,"140":-0.03890143622210661,"141":0.01868992139630065,"142":0.06039725036237372,"143":-0.3100267538595539,"144":-0.2681212445698253,"145":-0.3153080940372187,"146":-0.05453788158336613,"147":0.08772593334945329,"148":-0.08011769880101396,"149":-0.1869041574958119,"150":-0.001685453530049847,"151":-0.26525572589026314,"152":-0.05710055138252034,"153":-0.17950450261723794,"154":-0.18378459975320774,"155":0.0027806116505035188,"156":-0.09571412862640342,"157":-0.1258121687473596,"158":0.010157531054114637,"159":-0.18991351459207123,"160":0.13512989957593444,"161":-0.20835231395641032,"162":-0.31885208712245877,"163":0.00792312924370032,"164":-0.3213865828372376,"165":-0.14541812885579675,"166":0.35937375176189046,"167":-0.06532365219611064,"168":-0.06778150318521328,"169":-0.1947266169717324,"170":-0.3812587000554833,"171":-0.022379408859902934,"172":-0.3505833857765999,"173":0.025020080528549055,"174":0.1462392229247402,"175":-0.37390142239320745,"176":0.2976500628108606,"177":-0.3005526990862378,"178":-0.3645920520784225,"179":-0.08268794037227008,"180":-0.5138603987444089,"181":-0.26065426843782336,"182":0.26431519556122834,"183":-0.566634972181482,"184":-0.09071639169479281,"185":-0.24799754236429195,"186":-0.27882840208323023,"187":-0.039848315081155834,"188":-0.3718453276972141,"189":-0.2581389429937363,"190":0.20065824190590692,"191":-0.3683449775128874,"192":0.1591380355275905,"193":-0.08953417793451623,"194":-0.25661211216216717,"195":-0.041402935238791995,"196":-0.09192630418939471,"197":-0.12367762994935957,"198":0.32691626241270894,"199":-0.30293049610720446}},{"sx":5,"sy":5,"depth":8,"w":{"0":0.4028697694325819,"1":0.1167760909305785,"2":0.6023431758750706,"3":0.009489234317929087,"4":0.10294571089307236,"5":-0.17034332628118942,"6":-0.11671457487494367,"7":0.36027637161871057,"8":0.39123801678420383,"9":-0.03220958582142178,"10":0.2996909986033423,"11":-0.20880948644128403,"12":-0.29928341137066594,"13":-0.20847898004141574,"14":0.14205029800912009,"15":0.024634826566049903,"16":0.2634490671000032,"17":-0.13620044895131517,"18":-0.1988537940388953,"19":-0.21244575017008133,"20":-0.3813608868916041,"21":-0.08657518871023326,"22":0.07633803686776747,"23":-0.2899087620098388,"24":-0.03322644243826124,"25":-0.015824315086014857,"26":-0.20900511562057547,"27":-0.04729105894462428,"28":-0.20064299824445891,"29":-0.16520916067240743,"30":-0.07483897661374417,"31":-0.2247269243602282,"32":-0.20332262206035764,"33":-0.1881966681640758,"34":0.11729512983284544,"35":0.05998400025032242,"36":0.31774977654532877,"37":-0.06966857448179117,"38":-0.0034737509610336136,"39":-0.02105308064802607,"40":0.45112259486133227,"41":0.1506270265493277,"42":-0.14110075526957772,"43":0.025960277122478993,"44":-0.5017281321794496,"45":-0.015867236036918198,"46":0.3237729930526864,"47":-0.325746217278371,"48":0.37331304608642873,"49":0.19908309447199168,"50":-0.25507840465320086,"51":-0.09563525855679683,"52":-0.6263453820741735,"53":0.016314267431882586,"54":0.005423478577416589,"55":-0.5209913130443703,"56":0.27370074880997336,"57":-0.012708865427629043,"58":-0.12704864557244736,"59":-0.1591381167353407,"60":-0.258848475995906,"61":-0.19513815949049984,"62":-0.5625533952514133,"63":-0.1754058762041258,"64":-0.4376317128885126,"65":0.04150481057229706,"66":0.06375405918776818,"67":-0.09082023569087673,"68":-0.02036864522454861,"69":-0.035515442827219516,"70":-0.33273263655289886,"71":0.20211921327542556,"72":-0.4326387088118108,"73":0.05819042910336305,"74":0.4342470712489716,"75":0.042253552090801935,"76":0.5370650604346933,"77":0.10484899786076696,"78":-0.1018097063621412,"79":0.33944116886723075,"80":0.36947081389593256,"81":-0.05692972896275836,"82":-0.19358024600541682,"83":-0.2916150009696961,"84":-0.5540259778583457,"85":-0.28318956568073356,"86":-0.12497671594127653,"87":-0.1796310660277446,"88":0.17929421102895404,"89":0.06719213330396318,"90":-0.4408543051564533,"91":-0.1941700034825452,"92":-0.22864131146202984,"93":0.17757753771573753,"94":-0.03171014469438644,"95":-0.3876388357087738,"96":-0.15138099026567284,"97":0.18119547520602983,"98":0.011558612499071365,"99":0.03021701176464075,"100":0.17050244926618788,"101":0.3626985335149298,"102":-0.04834830552835049,"103":0.07349654035443653,"104":-0.07655884340378455,"105":0.07291822772094038,"106":0.2704168777929859,"107":0.06263339249832241,"108":0.33231356768911446,"109":0.1902998375258562,"110":-0.01746725888868917,"111":0.1994204799545674,"112":0.07631155874829919,"113":-0.08381996796390571,"114":0.11098516475126953,"115":0.1511173799426258,"116":-0.043529982237474035,"117":-0.1668184926131027,"118":-0.05807729892720279,"119":0.11162381807924622,"120":0.04361330836476298,"121":-0.04190664254147102,"122":-0.18876664503795323,"123":-0.17303347853847123,"124":-0.15374796968499868,"125":-0.08581710553769549,"126":0.2392567024543345,"127":-0.1825283891850131,"128":-0.651235964870499,"129":0.03755513265292326,"130":-0.008532027088963114,"131":0.23043110286731164,"132":0.17723991824226956,"133":0.2722714218393191,"134":0.036083936115497726,"135":-0.1344887935516063,"136":-0.15212974347312996,"137":-0.0442290547550073,"138":-0.04097608306967141,"139":0.0811099276653934,"140":-0.03864855221076375,"141":0.3292137933191124,"142":-0.309580075260747,"143":0.11388103460470057,"144":0.16997851345387663,"145":0.029686350335257416,"146":0.15349710349788317,"147":0.002942034331419853,"148":-0.19928511742018884,"149":0.032232518757408256,"150":0.14005784845726627,"151":-0.04481039871514507,"152":0.2333416242043976,"153":-0.18316331042778145,"154":-0.2627367011284,"155":-0.11281310817287804,"156":-0.1772362291031115,"157":-0.3199973698076273,"158":0.30762355522935825,"159":-0.11850779831474129,"160":-0.2430893077986868,"161":0.16609019919905285,"162":0.1737461537154925,"163":-0.25009023920569723,"164":0.4704870914678652,"165":-0.15236916171575904,"166":-0.24564595216919263,"167":0.21264976979321992,"168":-0.38103162023720566,"169":-0.028667888428625506,"170":0.028774302099341533,"171":0.2266312933226987,"172":0.28516807914589104,"173":-0.004466615821887532,"174":-0.14263353272984344,"175":0.28729026618459236,"176":0.10804779052823701,"177":-0.05436241334875847,"178":-0.23292643186163814,"179":0.13703068502766247,"180":-0.34528608182161274,"181":-0.07925175966915478,"182":0.26056467839858577,"183":-0.12162132818349182,"184":0.5850902593214806,"185":0.039381846750596444,"186":-0.5119342960426875,"187":-0.42188578747948624,"188":-0.582844362444315,"189":-0.08636784402244382,"190":0.23358102430494013,"191":-0.3480121509821844,"192":0.4728612985728786,"193":-0.07010845546192922,"194":-0.3629866485058948,"195":-0.2596393032366823,"196":-0.6099115138839097,"197":-0.39185551069890345,"198":-0.30244524015095425,"199":-0.4155741615232464}},{"sx":5,"sy":5,"depth":8,"w":{"0":-0.3053376067063077,"1":-0.289206022306369,"2":0.24015181458385,"3":0.18302148994213233,"4":0.6697226524479293,"5":0.25116822044646636,"6":0.22824454806656436,"7":0.4942094771969347,"8":-0.1730287459251595,"9":-0.3596988283913428,"10":0.18947041823708297,"11":0.22706968856628196,"12":0.7783867890754582,"13":0.26638942969401197,"14":0.13045344215840082,"15":0.3085207700426231,"16":-0.2701463880588291,"17":-0.4217866554307795,"18":-0.034181633185434414,"19":0.11196259942855896,"20":0.3845282665713614,"21":0.05368949296916655,"22":0.06997862726620875,"23":0.15338210209637831,"24":-0.35042563869964233,"25":-0.25728182822054135,"26":0.05481818253753339,"27":0.07917707140195465,"28":0.10918345268554772,"29":0.23321379206908197,"30":0.05976946285185177,"31":0.3401168506616058,"32":-0.2515411441143268,"33":-0.13166826870486914,"34":-0.020033518331754097,"35":0.13319957007334,"36":0.16616702973439038,"37":0.17332722540135787,"38":-0.18689256069865542,"39":0.15241293507690454,"40":-0.05955900444283554,"41":-0.15671347809702002,"42":-0.1262113255187343,"43":-0.1278513125346722,"44":-0.4107230387301226,"45":-0.2486898883814717,"46":-0.17866796171284877,"47":-0.18119071642400292,"48":-0.04415773668853673,"49":-0.05103866001487737,"50":-0.2240206626545424,"51":-0.3102851615461619,"52":-0.13729743622508087,"53":-0.274858378697125,"54":0.04028528379017759,"55":-0.3246902524376282,"56":-0.0037665074978503474,"57":-0.0722348646583184,"58":-0.17428206513812772,"59":-0.2616425725498331,"60":-0.25337096565833234,"61":-0.15440224298235514,"62":-0.0029356851128555773,"63":-0.3674335093760454,"64":-0.0784595392229172,"65":-0.19537377621964538,"66":-0.09964075576504615,"67":-0.13717642679109524,"68":0.010078620163835438,"69":-0.0946726969113734,"70":0.06380146640977087,"71":-0.3170279120717365,"72":0.12564905807561488,"73":-0.14536270649424415,"74":-0.22034175392045943,"75":-0.03702445123664895,"76":-0.12046728262440186,"77":-0.10399583966646939,"78":0.11655455061507124,"79":-0.26406095883249125,"80":0.12206871186496819,"81":-0.1662703202485353,"82":-0.16578426889877262,"83":-0.19635089301889241,"84":-0.015348105130095189,"85":-0.24607719608635056,"86":-0.07851896855624926,"87":-0.20185501808011147,"88":-0.1033276839113713,"89":-0.2072007321999092,"90":-0.06107969950383325,"91":-0.3553027959940314,"92":-0.17012159153337214,"93":-0.4019858899716731,"94":0.02599621520469143,"95":-0.32691602446371776,"96":-0.1192611938950939,"97":-0.32459493000494055,"98":-0.2811273247440681,"99":-0.3243904534822558,"100":-0.12418363744642907,"101":-0.13133702290725846,"102":0.00782195291353335,"103":-0.1262227388470229,"104":-0.32017847037471986,"105":-0.10040335687804544,"106":-0.18302191463737566,"107":-0.21657556544768458,"108":-0.07909269732224593,"109":-0.2722893418438856,"110":-0.019601922064589074,"111":-0.20937746532538654,"112":-0.25100093544295765,"113":-0.04246898910578543,"114":-0.1855880932759215,"115":-0.17513898468764857,"116":-0.10366708523232983,"117":-0.20225856664882846,"118":-0.10283661593094137,"119":-0.20850530868298628,"120":-0.06419349170355679,"121":-0.2602118756158564,"122":-0.07793792612529184,"123":-0.07973016196058813,"124":-0.013795652856437756,"125":-0.10715133525639978,"126":-0.4660272242567383,"127":-0.07860154675356341,"128":0.11709781996121692,"129":-0.11795220117900308,"130":-0.11159527917461036,"131":-0.0774118986209253,"132":-0.0663837256735461,"133":-0.24080393190419938,"134":-0.2648858036059947,"135":-0.14613151788787224,"136":0.011522626273489638,"137":-0.29210897430367444,"138":0.08976288689339909,"139":-0.07369493136384067,"140":-0.05858359893920371,"141":-0.2529647818333501,"142":-0.29906205477190934,"143":-0.23012451952981838,"144":-0.23203996647206773,"145":-0.25354812730563603,"146":-0.09857369949350482,"147":-0.002559619692985315,"148":-0.08063140618691078,"149":-0.22807656668762544,"150":-0.255899590388681,"151":-0.09514284410979777,"152":0.07599972039565098,"153":-0.193743578811649,"154":-0.06408557031565099,"155":-0.09042576782774661,"156":-0.034789526062661856,"157":-0.09127912038407601,"158":-0.11111689231994841,"159":-0.11181762527175443,"160":-0.0788441292904324,"161":-0.1550153352907505,"162":0.013995809282311292,"163":-0.29936233572030846,"164":-0.0673213411882754,"165":-0.053155174423309616,"166":-0.12950146967629303,"167":-0.2790870042937793,"168":-0.09442113815036343,"169":-0.2630190166149858,"170":0.06616843286719644,"171":-0.0170477077332021,"172":-0.06084261941097569,"173":-0.02916661062512247,"174":-0.08906442865740816,"175":-0.15233025581132886,"176":-0.08231337343102872,"177":-0.15671170835418524,"178":-0.032969495420143116,"179":-0.209478940688072,"180":-0.021348694198705866,"181":-0.07289083592928346,"182":-0.22819042086688332,"183":-0.18427031972425223,"184":-0.17932059444219753,"185":-0.23663816294606466,"186":-0.20797191441797871,"187":-0.1071281843455582,"188":-0.0828527094603389,"189":-0.2680700072987475,"190":-0.15332710652774276,"191":-0.023252613026983292,"192":-0.14427473760361098,"193":-0.13770718387533074,"194":-0.21855013914723045,"195":-0.03371574692137978,"196":-0.022199169587908678,"197":-0.020000620320215518,"198":-0.07165178066589462,"199":-0.21490403627638105}},{"sx":5,"sy":5,"depth":8,"w":{"0":0.41754965034072505,"1":0.07196088400622376,"2":0.18840472647909226,"3":0.12132926211266126,"4":-0.1540252837181854,"5":-0.1579286998213351,"6":-0.07716189976894343,"7":-0.07167277758787559,"8":0.3540175898854152,"9":0.021262308791648945,"10":0.41482372884662744,"11":-0.04025491824409555,"12":-0.09257188529501932,"13":0.19263686978060549,"14":0.03551703226225157,"15":0.06635188463203569,"16":0.05851489671811668,"17":-0.09342955702358614,"18":0.3114523838527026,"19":0.05160042005243902,"20":0.19600535205937156,"21":-0.12405977008111158,"22":0.04626443527513775,"23":0.3399877895030503,"24":-0.09784230569847395,"25":-0.04071384696598311,"26":0.09851813305229604,"27":-0.06469008942747538,"28":-0.2351400369491442,"29":-0.04748116021020604,"30":-0.1511494690677323,"31":0.12918492427324355,"32":-0.18375679935013753,"33":0.041323540034909824,"34":0.0914298810853272,"35":-0.13997083137636035,"36":-0.10111487699294441,"37":-0.02433097194892334,"38":-0.03466882452895842,"39":-0.07255322325789426,"40":0.23185858498740347,"41":-0.09057716929848801,"42":-0.10819895692275876,"43":-0.13763295676841236,"44":-0.008720101246847595,"45":-0.06370531663291162,"46":-0.14810280747928758,"47":-0.17102114675094277,"48":0.004340024990383253,"49":-0.2502000596845558,"50":-0.013537776116044908,"51":-0.2145603864078596,"52":-0.07789496405028531,"53":0.0020405229834289233,"54":0.1122887697780974,"55":-0.07839600934761477,"56":-0.16959527678399167,"57":-0.15438564915869832,"58":-0.000658646164529486,"59":-0.2019107224701049,"60":-0.11743190670162083,"61":-0.036110117348658134,"62":-0.045123111198576614,"63":-0.21720879341948265,"64":-0.10504536052579501,"65":-0.13980545974336944,"66":-0.1633858966339392,"67":-0.1868011899218165,"68":-0.23647997825779715,"69":-0.12154768936014436,"70":-0.1148857544671605,"71":-0.21713460926413763,"72":-0.5353889164303847,"73":-0.0307835843885732,"74":-0.0550442158116338,"75":0.028532609786412786,"76":-0.08730878308494534,"77":-0.10257599565444225,"78":-0.10785530238120747,"79":-0.024074278033103323,"80":-0.007089935742528765,"81":-0.3565209686949774,"82":-0.3000069576536527,"83":-0.3006619540735205,"84":0.22670846233959652,"85":-0.11256326553229629,"86":0.07024149012882601,"87":-0.28231804734728544,"88":-0.21934937015274908,"89":-0.12047325499932139,"90":-0.11889369409551619,"91":0.07880002049269366,"92":0.3696543143711132,"93":-0.03510533032889684,"94":0.07417019262180995,"95":0.09338579048431377,"96":-0.4079573313859283,"97":-0.4431731841367188,"98":0.07869686578225361,"99":0.3376886726355575,"100":0.6646548399395408,"101":0.5203740072048779,"102":-0.08284293574940456,"103":0.2613958754291872,"104":-0.4229868399087229,"105":-0.40031697057609866,"106":0.17003942398886165,"107":0.3205845522904699,"108":0.4561161881954561,"109":0.08987168335868577,"110":-0.21001665244151216,"111":0.14916491320948258,"112":-0.002329974623552672,"113":-0.33875392839481955,"114":0.10405096916221455,"115":-0.005224843064499251,"116":-0.1541088519651551,"117":0.039602202448463054,"118":-0.07900859392012205,"119":0.03481851422192386,"120":-0.25329340661846,"121":-0.20525243925673098,"122":0.07459134856520551,"123":-0.10002554766316994,"124":0.34455264284027304,"125":-0.041887676398933045,"126":-0.596611267789303,"127":0.2568495916377225,"128":-0.12037934479788834,"129":-0.066226977116609,"130":-0.06352462310546372,"131":-0.08987916227935655,"132":0.09570804202872343,"133":-0.004647419115586214,"134":-0.28407185387417144,"135":0.22792603164865463,"136":-0.174312004776751,"137":-0.15267386794058518,"138":0.02711253067851615,"139":-0.37581495057818215,"140":-0.20821515919665595,"141":-0.46683561116296407,"142":0.05205960570799634,"143":-0.13156430751161513,"144":0.02743645047613372,"145":-0.04855350116587334,"146":-0.15804046149419257,"147":-0.3786374931545175,"148":-0.17828018221339365,"149":-0.6727923610424292,"150":0.11405942259063953,"151":-0.14466452130539234,"152":-0.058552413868021375,"153":-0.05992130553285893,"154":-0.004371698293598855,"155":-0.4470033369767254,"156":-0.04515393420523796,"157":-0.4458876065178717,"158":0.17407120979636787,"159":-0.20826827694397093,"160":-0.07509033163604976,"161":-0.09585193840943715,"162":-0.020453245732171606,"163":-0.008967806761275706,"164":-0.05905126185159621,"165":-0.10441008621430588,"166":0.006058109875333006,"167":0.16638704936609616,"168":0.05195873671996284,"169":-0.09071918234199455,"170":0.07119689547837862,"171":-0.15792584503817525,"172":-0.1790794079056366,"173":-0.061261997920686456,"174":0.19588543104179323,"175":-0.11244848367912152,"176":-0.11966657130471146,"177":-0.21028686899287422,"178":-0.016533705108906047,"179":-0.10144204255176172,"180":-0.011557092231859361,"181":-0.23587122002117564,"182":0.2058956503585157,"183":-0.2052609343088504,"184":-0.0626130158212889,"185":-0.4092655989172046,"186":-0.22342460643663437,"187":-0.10517147218184429,"188":-0.10209961493380705,"189":-0.271757856265322,"190":0.0630317555495653,"191":-0.377889727525715,"192":-0.39919317982630165,"193":-0.15683278177371807,"194":-0.3201632691408544,"195":0.36251868306987145,"196":-0.2003027695426668,"197":-0.15701445639127617,"198":-0.20785564893672445,"199":-0.3350181206890773}},{"sx":5,"sy":5,"depth":8,"w":{"0":0.18790113819400422,"1":-0.08348191968220282,"2":-0.06032251706259966,"3":0.28501783558821303,"4":-0.03257253535414994,"5":-0.07849421484680204,"6":-0.19162100813945332,"7":-0.021514582301103945,"8":-0.017212598803535175,"9":0.09352292885907937,"10":-0.17313273535135923,"11":0.15512002404240494,"12":0.08063714418313268,"13":0.3467930949141913,"14":-0.19594755436283584,"15":-0.21706803429522792,"16":0.13100466339040254,"17":0.21640880226674927,"18":0.13147677552724357,"19":-0.19074401185574466,"20":0.3106604222440194,"21":0.06961491337366105,"22":0.031119135781356725,"23":0.005175963917196534,"24":0.8564909872080488,"25":0.16362806513435613,"26":0.10717420599552825,"27":-0.45862758833606476,"28":0.07739777140208738,"29":-0.48208079735872267,"30":0.048088382194478266,"31":0.09568877254682127,"32":0.06330718197413152,"33":-0.242498120491317,"34":0.10156497232830876,"35":0.03886004294657272,"36":-0.448029538705019,"37":0.25118847696363156,"38":0.06107872777597785,"39":0.018638777022446276,"40":0.1488803228130538,"41":-0.033327167668886486,"42":-0.01519568399135495,"43":0.1006159238513981,"44":-0.06620308448854864,"45":-0.014981166578366255,"46":0.03079303325863358,"47":-0.076106584725026,"48":0.10724399990059101,"49":-0.13420559202718937,"50":-0.17959730769868637,"51":0.43352418057977,"52":-0.3248350065077915,"53":0.28165951516692816,"54":0.019379456701391986,"55":-0.20909275647947853,"56":0.0895152358568033,"57":0.023919251216565757,"58":-0.023444939330326854,"59":0.024677228192459443,"60":-0.3939993211371655,"61":0.5453328101767865,"62":-0.09441207685218947,"63":-0.2100682166025455,"64":0.3918306995126676,"65":0.04783984294088115,"66":0.3428994707511734,"67":-0.5055224976463346,"68":-0.10430357631046175,"69":0.37813866185489425,"70":-0.10875568756715226,"71":-0.13928080196345344,"72":0.3359627204741627,"73":-0.15447918663033092,"74":0.20644534712526405,"75":-0.11716368977073047,"76":-0.2827943689959157,"77":-0.06955110558781419,"78":0.019503852011639282,"79":0.17610867735836463,"80":-0.13306623055080466,"81":0.021023298454528015,"82":0.02282777280028204,"83":-0.22489576476760262,"84":0.02069259012763262,"85":-0.13745182323572763,"86":-0.1802902788160533,"87":0.015473827241895976,"88":0.15357864193620183,"89":0.008498554955438798,"90":-0.15274218886865817,"91":-0.1402646797093905,"92":0.05146420952803955,"93":-0.5185116572545997,"94":-0.006052989304485598,"95":-0.08014154582417815,"96":-0.02740347984864234,"97":-0.2122139580183211,"98":-0.3353631592249743,"99":-0.06436888881171426,"100":0.032636508429109375,"101":-0.07428674382920464,"102":0.031110469204340477,"103":-0.11522977641707814,"104":0.3722889887277547,"105":-0.05706557821319371,"106":-0.3022897590865112,"107":-0.12433836191399424,"108":-0.1792698264138368,"109":0.3759398410475779,"110":-0.25303519559401244,"111":-0.3122867057110732,"112":0.22108980596425745,"113":-0.0025064613150589275,"114":0.05849391024572655,"115":-0.04182372002775739,"116":0.42858931789248955,"117":0.29095986834839294,"118":0.15267545785555228,"119":0.22402130500289105,"120":-0.24789852040536964,"121":0.0443172062990794,"122":-0.3166690675964005,"123":0.040334865093961066,"124":-0.16339240983639505,"125":0.11947880832361603,"126":-0.14464343089766846,"127":-0.12532934274027885,"128":-0.18208287475308396,"129":0.158456472612833,"130":0.04223336101620553,"131":0.04124636383715065,"132":0.06372003274641529,"133":0.1668265366793546,"134":-0.13969290523312547,"135":0.060194436792336097,"136":0.1347562887493259,"137":-0.030141038225323075,"138":0.010701583486381451,"139":-0.03089505757478632,"140":0.07733379676913991,"141":-0.1898851639633226,"142":0.048736196147838626,"143":0.1203299088442686,"144":-0.01714396486534529,"145":-0.058470448884354924,"146":-0.0958262239638986,"147":0.1451379714602129,"148":-0.05854174401631751,"149":0.31250012168929764,"150":0.20762197450459108,"151":-0.01839615699363889,"152":-0.20862704102185492,"153":-0.24337419009217115,"154":-0.1787898037400661,"155":-0.1498820508064534,"156":-0.1792032689125271,"157":0.30026713189031384,"158":-0.4276634631649484,"159":-0.03950033940759517,"160":0.024445954808362185,"161":0.11633445584469887,"162":0.08758674991890092,"163":0.14863156458164234,"164":0.144079092760242,"165":0.5240505953457137,"166":0.4185902687514136,"167":-0.012432853335865038,"168":0.14298820743278987,"169":0.22721234190103978,"170":0.12831833159794762,"171":0.2170849113358366,"172":-0.291580463904312,"173":0.5130814679827821,"174":0.17862528415479864,"175":-0.01785614483901831,"176":0.017086385027925456,"177":0.09080820506735182,"178":0.10573919216965295,"179":-0.03507944164094792,"180":-0.15256043189254306,"181":0.44624782951161485,"182":0.30290420940638496,"183":-0.28600889601162377,"184":0.37591790242939294,"185":0.017250288697474612,"186":0.17241991781130342,"187":-0.25092323824007357,"188":-0.05322878168422455,"189":0.23385741224071793,"190":0.29643048312321796,"191":-0.0045133149402368875,"192":0.08590643649445673,"193":-0.053877797133453434,"194":-0.10593236437513695,"195":-0.16687721546693943,"196":-0.11110527628487155,"197":0.11725404622960404,"198":0.16176775256544113,"199":-0.0624596636524446}},{"sx":5,"sy":5,"depth":8,"w":{"0":-0.5636456469213118,"1":-0.08112479451797217,"2":-0.09247561227108864,"3":-0.081415516859112,"4":0.04903281059389682,"5":0.3793832118275537,"6":-0.02894040531453452,"7":-0.13496098557030772,"8":0.011945909663513103,"9":-0.005470606290192078,"10":0.2854169641923073,"11":-0.20977759201519688,"12":-0.00783122678091026,"13":-0.02303685694126495,"14":-0.580627432497566,"15":0.06569748997544264,"16":-0.05496247561967084,"17":-0.02110895186620562,"18":0.07718346218394384,"19":-0.14189202120697392,"20":-0.340046151534162,"21":-0.28365704251940155,"22":-0.5042672542335964,"23":0.02281585691439914,"24":0.09645583813322449,"25":0.0013413175453903482,"26":-0.06746840138329806,"27":-0.16640330456299574,"28":-0.21491774050373183,"29":-0.04333747499518379,"30":0.08181399678300422,"31":-0.33637298116074615,"32":0.20852240467654184,"33":0.18171907588165206,"34":-0.012512571371086759,"35":0.4381227634979034,"36":0.3655003471747432,"37":0.47431928110832394,"38":-0.21770100515372903,"39":-0.07072249938055149,"40":-0.010950066944566378,"41":-0.19343281087706124,"42":0.08702461443597898,"43":-0.24925878223153258,"44":0.06845222200554679,"45":-0.3062761409599258,"46":0.12334734969934717,"47":-0.06042749730862348,"48":-0.34293108127531496,"49":-0.06283195819355508,"50":-0.25131636487301845,"51":0.4379708463489428,"52":-0.36693446972238086,"53":-0.2460438203694459,"54":-0.061254740925488556,"55":-0.28458947905331383,"56":0.2702479457198928,"57":0.09171352044946028,"58":-0.2546916610617912,"59":-0.10330202039417766,"60":-0.169801734869156,"61":-0.14923623935771768,"62":-0.05249026770324576,"63":-0.25764581687146115,"64":-0.0039176471136836075,"65":0.021449739070749062,"66":0.096778071095979,"67":-0.0707006749884633,"68":0.4793651123195107,"69":0.07569442865568256,"70":0.059468708390316316,"71":-0.023564088820398857,"72":-0.10958444903768547,"73":-0.05037317694068727,"74":0.0105108619014308,"75":-0.20080784406003302,"76":0.41936892899917944,"77":0.3471370174075284,"78":-0.07829233023004234,"79":0.41623859261339186,"80":-0.07750739919007664,"81":-0.15956805121724157,"82":0.25546592452540656,"83":0.03298371482750496,"84":0.03177142358703261,"85":-0.16807142535167405,"86":-0.42304352611122575,"87":0.0605027178390081,"88":0.07704472855018765,"89":0.017400668923899864,"90":0.3082217978759656,"91":-0.27172881235594615,"92":0.13512233062352907,"93":-0.3708015740439222,"94":-0.6718686913743311,"95":0.2795270274865881,"96":0.006073273052391937,"97":-0.06023596212677433,"98":0.12733937261050698,"99":0.023983493357643475,"100":0.37915875347384814,"101":0.056330099533156895,"102":-0.22994270099974853,"103":0.2053825857406078,"104":0.2450535806390713,"105":-0.040788266031139594,"106":-0.26720072649370963,"107":0.08271794352688444,"108":-0.24590028305890424,"109":-0.05770223468204293,"110":0.07351822497717571,"111":0.25702433444725137,"112":0.41312248971530285,"113":-0.17361351563330205,"114":-0.4726238187655696,"115":-0.2960947163134371,"116":-0.6255702798992756,"117":-0.07195558246465071,"118":0.710364014502064,"119":-0.5586562225378974,"120":-0.009029006675292509,"121":-0.20979102338710656,"122":0.006179544749137092,"123":-0.3283786390662004,"124":0.16569550457134002,"125":-0.20242132226353615,"126":-0.2622608129640902,"127":0.13118084318066295,"128":-0.0740581956214306,"129":0.01829980937907548,"130":-0.14609071360264125,"131":-0.3254547269354904,"132":0.005673554189943417,"133":-0.19432870100259822,"134":-0.1290344721429508,"135":0.17286367197835928,"136":0.11354005147727572,"137":-0.059521301606445746,"138":-0.22491783085667474,"139":-0.3044755312109973,"140":-0.06336861065889607,"141":-0.4949124974021021,"142":0.18282078261315957,"143":-0.12208390513253968,"144":0.02056829659249259,"145":0.007887949827004416,"146":-0.32580319813018604,"147":0.045455737798189386,"148":-0.16345918911829,"149":-0.1973078222172959,"150":0.588903149508287,"151":-0.29472038076725277,"152":-0.40821962811210993,"153":-0.2661244532853453,"154":-0.06941314883211182,"155":-0.08019364606344638,"156":0.15542370856486368,"157":0.08050929915461023,"158":0.4571846451371403,"159":0.002097380798342786,"160":0.3404829750305986,"161":-0.12866598828614145,"162":-0.1005514036026746,"163":-0.4285302658921397,"164":-0.2741128789193092,"165":-0.07162192858897079,"166":0.3628700846616176,"167":0.19061519412292588,"168":0.4561103709589464,"169":-0.06414200259710015,"170":-0.09986527713383005,"171":-0.20149001009837786,"172":-0.2672917467905536,"173":0.017144220557232723,"174":0.5716012799598263,"175":-0.16755725168020252,"176":-0.4066256652753995,"177":-0.0027205156286167847,"178":-0.28835933527080737,"179":-0.33350261078800275,"180":-0.41621480716717285,"181":0.13211220321688816,"182":0.29713978427208826,"183":-0.3305048517280263,"184":-0.5447152845335267,"185":-0.0037110238885117667,"186":-0.29219961458977134,"187":0.15055333384060574,"188":-0.31713208808664906,"189":-0.058713842262683495,"190":-0.3308095395744708,"191":-0.22221368746629314,"192":-0.6208232355750741,"193":-0.13502528011262455,"194":-0.2670995897634742,"195":-0.10563048772485611,"196":-0.3935390883116881,"197":-0.3156146539026607,"198":-0.8879068372030177,"199":-0.3055459579110485}},{"sx":5,"sy":5,"depth":8,"w":{"0":0.17018629998216797,"1":0.017832472211678364,"2":0.10677063966902942,"3":-0.3170174939881671,"4":0.3455859702652852,"5":-0.35075898558656105,"6":0.1820887112198686,"7":0.1328468455427746,"8":-0.1068929572402813,"9":-0.1216679067034851,"10":-0.06584410013605348,"11":0.08442853028900595,"12":0.42601392345892913,"13":0.13662692229680382,"14":0.1194669051884613,"15":0.09694621870033482,"16":-0.2594188529577984,"17":-0.040807901089584514,"18":-0.18834571487248747,"19":-0.12477041408310909,"20":-0.1175317568095322,"21":-0.0784763086709257,"22":0.018251439288995665,"23":-0.08074940594918759,"24":-0.39164698010735777,"25":-0.10205522906551781,"26":-0.1702293387486636,"27":-0.20669254843149681,"28":0.02866989596178447,"29":-0.12711810496385895,"30":-0.21363350364376538,"31":-0.1884646731981713,"32":-0.5099553985467522,"33":0.02204320608645862,"34":-0.25785531928630134,"35":-0.14134891176971986,"36":-0.20347338719989583,"37":-0.05552646521650276,"38":-0.05397269193054378,"39":0.0653843356453652,"40":-0.22369029411465585,"41":-0.03707277047813893,"42":0.45128762578010295,"43":-0.17269341702695942,"44":0.3413365119592432,"45":0.11809343127980709,"46":-0.14252444841806064,"47":0.2116584744714004,"48":-0.11475635446592412,"49":-0.004512150401042051,"50":0.6364203546850815,"51":-0.2287204334118439,"52":0.4520647782628028,"53":-0.1945496741582855,"54":-0.3556299269744291,"55":0.5658819789047056,"56":-0.26510215922291624,"57":0.14592637160271185,"58":0.6976007570400753,"59":-0.506560598153299,"60":0.4994381768998539,"61":-0.5455935219399812,"62":-0.4143036541201699,"63":0.5392016374273899,"64":-0.4849623337042714,"65":-0.053266456768710294,"66":0.402754782716062,"67":-0.27878670756417484,"68":0.16467543418092925,"69":-0.4854013088324967,"70":-0.4749637956956365,"71":0.34987913687731936,"72":-0.2055602872247933,"73":-0.09447454595826439,"74":0.10368437160491176,"75":-0.2688851555037835,"76":0.2567894452837031,"77":-0.2897211579741282,"78":-0.27950543349260737,"79":0.14774682711040027,"80":0.09411670319049398,"81":-0.0013594743008542524,"82":-0.31262615925938314,"83":-0.12314326750996897,"84":-0.30500298520107055,"85":0.09945252352157882,"86":0.15711564091446,"87":-0.3836911402349224,"88":-0.0050792493973961135,"89":-0.08117734055294794,"90":-0.1357853268638477,"91":0.004889063346012039,"92":-0.23727323026456282,"93":0.1807755408301283,"94":0.14906721531759642,"95":-0.5746300211629723,"96":-0.333101834067649,"97":0.052911953415298266,"98":-0.014023256691050538,"99":-0.33790544318791865,"100":-0.23048050890583838,"101":0.2658283127031928,"102":0.03489251699381036,"103":-0.2758012687227055,"104":-0.06344080221451036,"105":-0.11370333858044525,"106":0.07935979724376556,"107":0.0325782636419763,"108":-0.041214006462813244,"109":-0.32727695645726196,"110":-0.09895335191094079,"111":-0.15665179245529262,"112":-0.1739102683652991,"113":0.10373959597707481,"114":0.11054515703623377,"115":-0.25656152232710305,"116":-0.0315115231999946,"117":-0.2601123802255497,"118":-0.029934387497842323,"119":-0.030760118867626324,"120":-0.020086469982241718,"121":0.07591436948730212,"122":0.03244248302345465,"123":0.040619603042998186,"124":-0.048232392161622784,"125":-0.2629092297031132,"126":0.19010584986339304,"127":0.0009096964551738305,"128":-0.19592127802121756,"129":-0.09554213492101418,"130":-0.07076493892834392,"131":0.043939559019374415,"132":0.11402069636691675,"133":0.047672226727828296,"134":0.18074765894470438,"135":-0.09359418378880496,"136":-0.09526668274749166,"137":-0.05530923972349788,"138":-0.20802453480081642,"139":0.14947593496929848,"140":-0.021177183687407335,"141":0.33105341716850706,"142":0.022581993096520838,"143":-0.08561325996891907,"144":0.06139958608127178,"145":-0.03179181003980176,"146":-0.10079797514754274,"147":0.13843180649299722,"148":-0.20983015782093276,"149":0.25043306426974643,"150":-0.18965728913671812,"151":-0.0921133005448173,"152":-0.1121069828573327,"153":0.15802056649915205,"154":-0.07537353909789406,"155":0.04403558580702858,"156":-0.07429755982190592,"157":0.04209882092157865,"158":-0.1826167831008906,"159":-0.1791678822658484,"160":-0.048045524076808066,"161":0.03181105134777384,"162":0.22163391394993168,"163":-0.1267312406820786,"164":0.06684109392794357,"165":-0.05634026085786543,"166":-0.30115736764433065,"167":0.10640121829045177,"168":-0.08811862050699988,"169":-0.027131033631150273,"170":0.18073967512821676,"171":0.13146421623365814,"172":0.026543817809384654,"173":-0.3677937390994207,"174":-0.2936918344494765,"175":0.12650017700599714,"176":0.09391414871395401,"177":-0.1327450088691781,"178":-0.04112626769813216,"179":-0.0726402386298715,"180":-0.1507388803046568,"181":-0.08679740345770995,"182":0.035767453996093095,"183":-0.05375002082911052,"184":-0.026680000497189316,"185":-0.07466175095187264,"186":-0.21826169316144217,"187":0.024078946265501007,"188":-0.16165417206151883,"189":-0.07805474205480066,"190":0.06072542404870604,"191":-0.03459862354334568,"192":-0.22224886818453413,"193":-0.0044282002643691075,"194":-0.12104587849915704,"195":0.11457989006771692,"196":-0.1775295710974471,"197":-0.08108558184387767,"198":-0.05236952798234275,"199":-0.21608129403188453}},{"sx":5,"sy":5,"depth":8,"w":{"0":-0.36420393686745395,"1":-0.0049575547606591054,"2":0.13860137659533256,"3":-0.09631894510120202,"4":-0.2541809587174162,"5":-0.11837211455779222,"6":-0.2704991014768143,"7":-0.08133138381547457,"8":0.25277373318958707,"9":0.1479185814322427,"10":-0.005896029646539822,"11":-0.4675417381955029,"12":-0.04584477751290484,"13":-0.3549116325073111,"14":-0.27488103526335345,"15":0.1844586254609413,"16":0.3271110209808566,"17":-0.1218358708626897,"18":0.0758607028042695,"19":-0.32433286773011943,"20":0.0010916697005730871,"21":-0.4350632588042304,"22":0.10657674423045815,"23":0.045588374405763465,"24":-0.34652378751236934,"25":-0.08786777749489065,"26":-0.28797148630228225,"27":0.2799550954716479,"28":-0.03226607422605296,"29":-0.10887516934827299,"30":-0.23602897081392962,"31":-0.06154127685412394,"32":-0.035601489491598796,"33":-0.00022185881598793804,"34":0.029296090178464622,"35":-0.030931299160888027,"36":0.05026945010202856,"37":-0.11277908526810725,"38":-0.30762945237991385,"39":-0.1757779113491122,"40":-0.1161160079093336,"41":-0.05458784808366178,"42":0.4930047867934893,"43":-0.15448075966474467,"44":0.11728789306312347,"45":-0.40995720406909536,"46":-0.43517490572277645,"47":0.21853981734690245,"48":0.014028681091566181,"49":0.1633653757927599,"50":-0.034406393764875094,"51":-0.28898384605492533,"52":-0.006979837438277506,"53":-0.28141180600436005,"54":-0.4368193520272571,"55":0.22744715518272293,"56":0.18790344787890065,"57":-0.14460649378706122,"58":0.11533649860773605,"59":-0.0608107196791804,"60":-0.1944491373548278,"61":-0.3137607001708519,"62":-0.5100664959071536,"63":0.14788238865450878,"64":-0.33160346470828544,"65":-0.05386445872601017,"66":0.3198081668790118,"67":-0.0010533428828762082,"68":0.01499153023565622,"69":-0.17612562831039633,"70":-0.3341984481001185,"71":0.08515223293404628,"72":0.3072967535604314,"73":0.22702074800492444,"74":0.14908213059011247,"75":-0.10583067688330049,"76":0.21280655533735138,"77":-0.11238676044043328,"78":-0.3747973587938733,"79":0.06920505155794915,"80":0.13053109160201715,"81":-0.0003845222402407445,"82":-0.019161592987985115,"83":-0.0422998542619133,"84":0.1763426694149423,"85":-0.06805421282660999,"86":-0.13031250532670877,"87":0.28696889730031905,"88":0.17629466399260638,"89":-0.0023182066111891524,"90":-0.1021066358342287,"91":0.16677067554198396,"92":-0.4547770959303265,"93":-0.07967766305432612,"94":-0.07330384452682528,"95":-0.23067718214582505,"96":0.3815036946702572,"97":-0.015343859721083894,"98":0.022480013793530894,"99":-0.138777434031162,"100":0.01113401806396141,"101":0.3927993821493426,"102":0.10929487744299292,"103":-0.36686278908015635,"104":0.07343694042573688,"105":-0.15327158482509542,"106":0.08429888774473433,"107":-0.14431826904223494,"108":0.1403691432873219,"109":-0.13968832948496404,"110":-0.11126718474042456,"111":0.35071590139466885,"112":0.23056075594918857,"113":0.014161581918137302,"114":-0.005332192872061501,"115":-0.23729282264742504,"116":-0.5922336432493154,"117":0.050368186345046764,"118":0.27310720919051606,"119":-0.08682578414689587,"120":0.09524352233902746,"121":-0.01457079140094698,"122":-0.06577414772623412,"123":-0.07549889308946503,"124":-0.05655327833751219,"125":-0.17635620609900815,"126":0.2661612353670559,"127":-0.07998226647666012,"128":0.37374162575941516,"129":-0.152553472197598,"130":-0.08375092873217624,"131":-0.014116251729796985,"132":-0.009850231479599762,"133":-0.04247331470250172,"134":0.4280402287295684,"135":-0.19169988978084557,"136":-0.5829726918065218,"137":-0.03902447075842304,"138":-0.14002851130419713,"139":0.15768881612084046,"140":-0.2226568043932878,"141":0.30076382162010296,"142":-0.40712133053194066,"143":-0.19057626321619003,"144":0.20729011207245526,"145":-0.1286775473480497,"146":-0.08290266058025109,"147":-0.17244086754083351,"148":-0.24874733273866304,"149":-0.03426634522972778,"150":0.0981643148412581,"151":-0.29367203478640114,"152":0.16634367340831702,"153":-0.07184300971961237,"154":-0.12327970315575691,"155":0.16996215307754187,"156":0.061795643571590064,"157":0.32583318450682724,"158":0.5087051534530204,"159":-0.15227499860805027,"160":-0.07647334257444915,"161":-0.013033005483793885,"162":-0.26340146758253086,"163":0.12694614462770157,"164":-0.08147598575126924,"165":0.1782323115007096,"166":0.2816760971707387,"167":-0.3261920783935479,"168":-0.07767734331837463,"169":-0.19858517371877546,"170":-0.23482203845003552,"171":-0.0982821338471282,"172":-0.12350128588636287,"173":0.15044061713720833,"174":-0.08328557613312064,"175":-0.05320783596792142,"176":-0.25532049017221053,"177":-0.042760825356506,"178":-0.3638550113670833,"179":-0.12998458682411723,"180":-0.4322828437812653,"181":-0.21373403894401893,"182":-0.01726102769656702,"183":-0.11399626956174258,"184":-0.1236951588381502,"185":-0.18847916330926812,"186":-0.4279464121409922,"187":-0.2970068230230178,"188":-0.26054532772013234,"189":0.03695026192299418,"190":-0.011440829717535805,"191":-0.14568625518899,"192":-0.15216050602665246,"193":0.057010755311080547,"194":-0.38205760027039665,"195":-0.09898150518739958,"196":-0.272208168457316,"197":0.10337266886043459,"198":-0.14331172911871926,"199":-0.14438191600797584}},{"sx":5,"sy":5,"depth":8,"w":{"0":0.042909653431866944,"1":-0.05719240195901838,"2":0.4942337852599035,"3":0.05151596393159302,"4":0.17207071786416467,"5":0.13128718179596321,"6":0.1971934919140423,"7":0.30889252862144473,"8":0.043523172567149666,"9":-0.04556317876682335,"10":0.18896346651041718,"11":-0.042260578499634806,"12":0.21576910043418662,"13":-0.09840269414713419,"14":0.5174022378834249,"15":0.3566670080369311,"16":-0.25362375142532584,"17":-0.22595259903442802,"18":0.23770899256185313,"19":0.39894431487823845,"20":0.18473828019682859,"21":-0.08504076881877248,"22":0.23859364465324134,"23":0.14166215851466463,"24":0.06644517779987354,"25":-0.15883890078868781,"26":0.06158086916477578,"27":0.23108312836841152,"28":0.17445405021134713,"29":0.5169392702454503,"30":-0.3156311332161712,"31":0.05127216617775927,"32":-0.058034702229043576,"33":0.20241394642032126,"34":0.28124502067242746,"35":-0.12684034967060578,"36":-0.0009606231902258081,"37":0.18415308770657027,"38":-0.4114427559976205,"39":0.1723330989441204,"40":-0.611939472801282,"41":-0.1105321110922662,"42":0.18196916612820307,"43":-0.03777933542805998,"44":-0.05066675190295319,"45":0.27309876175682085,"46":0.06266996358128422,"47":0.09608075401258458,"48":-0.4603636983576639,"49":-0.013203083374009049,"50":0.16151548361983778,"51":0.05115990477709422,"52":0.08351039992444693,"53":0.1971667150196831,"54":-0.1545203748138242,"55":0.032786949550546035,"56":-0.15044305634687744,"57":-0.07288090084724871,"58":0.09279216557306942,"59":-0.23687404312584506,"60":0.05703140731450891,"61":-0.2499119785145339,"62":-0.15159931090594753,"63":-0.0825120110638892,"64":-0.10404569006527538,"65":-0.18588997830621043,"66":-0.29353641061634045,"67":0.0013786201885592482,"68":-0.009880025680089402,"69":-0.19663055484714195,"70":-0.11004332378322076,"71":-0.010394161276686383,"72":0.04690536856553412,"73":0.09135104913421162,"74":-0.05421131366732914,"75":0.24463660323405031,"76":0.05327894333933513,"77":0.04821060949472524,"78":-0.01634821911145578,"79":-0.2691763994132638,"80":-0.16399165370560917,"81":-0.09496617626954647,"82":-0.3074142529198314,"83":-0.15039868192876402,"84":0.07248869081932371,"85":0.07032431235105761,"86":0.17554244514763556,"87":-0.10662142581207451,"88":0.10592324934116694,"89":-0.18868797256246264,"90":-0.151206704141478,"91":0.14891751258846372,"92":0.20471848954592808,"93":-0.00012705032850113132,"94":-0.050079678583935895,"95":-0.3171026853184467,"96":-0.18090678060738297,"97":-0.15928825072854544,"98":-0.4048958810051211,"99":0.12828770866214434,"100":0.16427870905087882,"101":0.07836667913226651,"102":0.05109253952192921,"103":-0.2751821036977356,"104":0.451858846899654,"105":-0.13498495321872034,"106":-0.27888501644806224,"107":-0.14673467198494486,"108":0.32021581280738326,"109":-0.3350067426915376,"110":0.20369919329103653,"111":-0.40493584735441057,"112":-0.2587680131638904,"113":0.09555112517101323,"114":-0.1158215228156239,"115":0.141541324495744,"116":0.09233400573372294,"117":-0.10547292687633697,"118":0.06735246235952193,"119":-0.18105227358264842,"120":-0.17770507340444333,"121":0.03755303989968406,"122":0.1014478620702911,"123":-0.007049795949943612,"124":0.07645059512084271,"125":-0.15617258121854513,"126":-0.20181039407624585,"127":-0.024548226636738796,"128":0.06071773533174896,"129":0.1293653316474074,"130":0.09967010060432283,"131":-0.04098911709557691,"132":0.037554512033222194,"133":0.027969254446050897,"134":-0.2399603839694723,"135":0.2506315755596494,"136":0.1326647041426839,"137":-0.1976670764965345,"138":0.3020538811072195,"139":0.09024053003586364,"140":0.014137351533313806,"141":0.022392239161638326,"142":-0.049160071184212256,"143":-0.05278643232616614,"144":0.17634222277789272,"145":-0.049639256869447694,"146":-0.11045156511635547,"147":-0.16002347691758875,"148":-0.35408032802866796,"149":0.2603871521197282,"150":0.028423732797451265,"151":-0.25937047920888506,"152":0.218723304381583,"153":-0.11485497816332683,"154":-0.11143435973663161,"155":-0.09282528687577829,"156":-0.12710177768166508,"157":-0.1381411608889245,"158":-0.05613173607074863,"159":-0.05076164626823295,"160":-0.2345413293994301,"161":0.030227385386497732,"162":0.05450314813958391,"163":0.1555115995417474,"164":-0.09881969071109693,"165":0.06437164952157742,"166":0.03617639955296383,"167":-0.30967042567395814,"168":0.16093829387541614,"169":-0.018291219848991746,"170":0.060869085601334555,"171":0.35585719835903407,"172":0.22415252373963848,"173":0.2930538905476521,"174":0.1193286673248142,"175":0.08626959213940198,"176":0.25373178467118285,"177":-0.18597263669961758,"178":0.22894330794592302,"179":0.2346412219050613,"180":0.0268375651004475,"181":0.2567784730789771,"182":0.32991814319664825,"183":0.03571719334333557,"184":0.1634946341320126,"185":-0.20351294445604096,"186":-0.04293544060093112,"187":-0.16808642785068667,"188":0.007631926965819327,"189":0.04723959542584262,"190":0.25301621371711874,"191":-0.17072455758900432,"192":-0.06247849774537613,"193":-0.25655126015672225,"194":-0.177200480270643,"195":0.021303478282557835,"196":0.009541767390822731,"197":0.023770267979086972,"198":0.0774879024071365,"199":0.07786808289780087}},{"sx":5,"sy":5,"depth":8,"w":{"0":0.21570160323306184,"1":-0.0024794521256344655,"2":-0.09052565139075058,"3":-0.2781405652396762,"4":-0.06523679628492285,"5":-0.24510270687249067,"6":-0.008382027234896122,"7":0.15215361472578873,"8":-0.37081820835253454,"9":-0.10339685160248549,"10":-0.11001114327169637,"11":0.07286714829368315,"12":-0.03513434800171831,"13":-0.16712813893761438,"14":-0.11812539273419358,"15":0.04559887503368494,"16":-0.03148083027941539,"17":-0.15634249593729552,"18":-0.16099537014200083,"19":-0.00311062254219669,"20":-0.043201052945171625,"21":0.0025129313089143107,"22":-0.04118147600323737,"23":0.11702008687139791,"24":0.1302702935980024,"25":-0.13544257569077983,"26":-0.13620890294423632,"27":-0.113997642640481,"28":0.028750010805409766,"29":-0.47552642118195126,"30":0.00009903920318092877,"31":0.03204678912363723,"32":-0.06480476880762519,"33":-0.08862421259476647,"34":-0.18575504537294768,"35":0.05726786880953543,"36":-0.11861633229084906,"37":-0.05105016206656225,"38":-0.03508465075559913,"39":-0.12528458860287361,"40":-0.05005989765106691,"41":0.11032817194495158,"42":-0.009288553176971626,"43":0.07318927432377577,"44":0.21395852739685942,"45":0.027019352315259374,"46":-0.41361790198539244,"47":0.05170900564350161,"48":0.09784622956694536,"49":-0.024260499702215037,"50":-0.08292949061915904,"51":0.09984651615991226,"52":-0.017923899396497887,"53":-0.15352169382207248,"54":-0.28501706594804543,"55":0.08884832521512806,"56":0.01903193246857746,"57":0.18680892601903884,"58":-0.19404068061702068,"59":0.034883326058475064,"60":-0.17035282944026492,"61":0.16499313900042617,"62":-0.293608498715201,"63":-0.09308626740811726,"64":0.45283525904190297,"65":-0.0500939448704334,"66":0.08061004870388912,"67":-0.22640958457728896,"68":-0.09381981396978004,"69":-0.14749525379073078,"70":-0.15672495137011752,"71":-0.13210219071500712,"72":-0.012609088570760393,"73":0.007564926687111207,"74":0.06551763678481215,"75":-0.09712812538940478,"76":-0.08255496335121898,"77":-0.32651709218545716,"78":-0.18482976925100902,"79":0.10657746547491519,"80":-0.026405523684523976,"81":0.1304111595512759,"82":0.18658057374679243,"83":0.19462517333844173,"84":0.2202068582287374,"85":0.23379496553846674,"86":0.06703074171058984,"87":0.018111326813457326,"88":0.5524050430343065,"89":-0.20143526725300115,"90":0.24473488182823094,"91":-0.22797155874096095,"92":-0.17413484974048424,"93":-0.2844113973044786,"94":-0.06467768322319202,"95":-0.039602337965322094,"96":-0.03934578191482389,"97":-0.0019156475739244222,"98":0.003530816668786604,"99":0.23352401624127328,"100":-0.06582736148015517,"101":0.2304329441516118,"102":0.027301280621401566,"103":-0.13956191467199808,"104":0.6822617718705001,"105":0.11159393369176966,"106":0.05046883879701121,"107":-0.05737477458619206,"108":-0.10391942864409848,"109":-0.06655482331393082,"110":-0.3013746482383547,"111":-0.060617232891241254,"112":0.2205463951151958,"113":-0.07631225484065852,"114":0.16069945465921956,"115":0.10203160402724333,"116":0.2547893923225843,"117":-0.26961596266128596,"118":-0.20847345267549902,"119":0.11317928836585885,"120":-0.137562540474462,"121":0.20576420817462132,"122":0.04787157803281602,"123":0.1787626020091177,"124":0.09254512356529025,"125":0.06501756026407692,"126":-0.10831859864458578,"127":-0.021180305561068247,"128":0.7713558561045053,"129":-0.1819219660991646,"130":0.07515930496380745,"131":0.03113036698113226,"132":0.006763777238252697,"133":0.22558627371155773,"134":-0.19617000989405986,"135":-0.0929925078268271,"136":-0.10829025853966376,"137":0.03510194724074341,"138":-0.1429904011207625,"139":-0.01303902855064825,"140":-0.13492344858120736,"141":-0.13451202398565645,"142":-0.2302234654960196,"143":-0.04644992449875804,"144":0.6011911648725425,"145":0.0706089211868671,"146":-0.16059693406689393,"147":-0.24888750653632064,"148":-0.10339265414934012,"149":0.29889500726448365,"150":-0.2195049248144839,"151":-0.153554276921465,"152":0.10532605059414911,"153":-0.17716425136157576,"154":0.05970117489853341,"155":-0.10250878069750054,"156":0.2607025584670995,"157":0.1291302170225191,"158":-0.0773896186510049,"159":-0.06596772049654208,"160":-0.2572829349635457,"161":0.25625872840557296,"162":-0.18873106622469724,"163":0.25840325251741864,"164":-0.19528355499932032,"165":0.12266545039990473,"166":0.2095959261547896,"167":-0.3769390299442702,"168":0.3568344600853677,"169":0.05410795824710936,"170":0.00849094516926568,"171":-0.031549751457057365,"172":-0.19912139842299592,"173":0.3408231902111645,"174":-0.02729154031984482,"175":-0.3729809690535937,"176":-0.028818580786590844,"177":-0.16449157856280194,"178":0.16584432591720966,"179":0.14890075341210746,"180":0.08068889118006375,"181":-0.11121781322686113,"182":0.1673298845833268,"183":0.14386543693225834,"184":0.28538308208516566,"185":-0.06804949303276982,"186":-0.15893170601311823,"187":-0.03576658113813061,"188":-0.3210626306145454,"189":0.2910045608812948,"190":0.1618950001187902,"191":0.06296226854187284,"192":0.12329599822778038,"193":-0.09905943104315916,"194":0.11344528646803236,"195":0.2341638678143538,"196":-0.12921040898306452,"197":0.4031110442199386,"198":0.07955833646919724,"199":-0.3325110340204371}},{"sx":5,"sy":5,"depth":8,"w":{"0":0.11936098471881514,"1":-0.20437892976629285,"2":0.007189387177854808,"3":0.17478767822458444,"4":0.09353695737929879,"5":0.1208025703206422,"6":0.07160401048992204,"7":0.02559495659048201,"8":0.1603325016795265,"9":-0.21448994296761864,"10":0.09907154599512626,"11":0.1430733827441374,"12":0.0922115116839888,"13":0.20023318816962216,"14":0.28028026948642937,"15":-0.05310101890970397,"16":0.012433117039754369,"17":-0.365872722575621,"18":0.09522316731154233,"19":0.15060042269358812,"20":-0.027502297153345186,"21":0.046894301830859714,"22":0.13347620822455072,"23":-0.11244065432401892,"24":-0.051429546916617115,"25":-0.31175730423586867,"26":0.027569097662856933,"27":-0.06848351525942412,"28":-0.20555324633491193,"29":0.3069882747052156,"30":0.12857771070478713,"31":-0.3811164616755805,"32":0.026043036700468487,"33":-0.1814731157377481,"34":0.024877988395299307,"35":0.21707762306919354,"36":-0.3326123077061452,"37":0.36581453590178525,"38":-0.07287928723789668,"39":-0.3087241407726447,"40":0.1803816362396533,"41":-0.1923129342853195,"42":-0.15611840395994364,"43":-0.08919590577996732,"44":0.14547629667465511,"45":-0.09586606362959453,"46":0.11753428466760574,"47":0.05902086529484561,"48":-0.04643114315278088,"49":-0.04167244405989708,"50":-0.13846741631565543,"51":-0.03373803874725365,"52":-0.08132759217351855,"53":-0.2688595301727645,"54":0.3284072278458829,"55":-0.1603941362170258,"56":-0.332067350089697,"57":-0.27214490560999666,"58":-0.16297969423088393,"59":0.18521768873899305,"60":-0.20824477357809487,"61":0.0340261422921421,"62":0.2534957081181097,"63":-0.43349039048958893,"64":-0.427227455253679,"65":-0.3109053243242616,"66":-0.13288186194209073,"67":-0.013219463744609002,"68":-0.46556491983032755,"69":-0.07510241742497517,"70":0.12811101780869144,"71":-0.623161040939975,"72":-0.2727656904589644,"73":-0.29680188144650277,"74":-0.417910828023258,"75":0.25557837718736054,"76":-0.2839575398723122,"77":0.07018761690017077,"78":-0.0390502321318826,"79":-0.5691323514179184,"80":0.007167765174232545,"81":-0.23773166559199227,"82":-0.0522321530726426,"83":0.19126231930535464,"84":0.11962316292697654,"85":0.19257220037959272,"86":0.1826047218197763,"87":0.2701397075453773,"88":0.12252641264416031,"89":-0.11762051549175223,"90":0.2813638987675433,"91":-0.08477208573313483,"92":0.38885316700574474,"93":0.17889968021747893,"94":0.441965872630884,"95":0.40650131278126594,"96":-0.07895001818232292,"97":-0.37803400196720255,"98":0.34691497651366804,"99":-0.23062294316815593,"100":0.5667807060816394,"101":-0.38595951091951214,"102":0.2722622373667209,"103":0.5733428212821806,"104":-0.30253778514309865,"105":-0.2331231566461266,"106":0.3949922345875722,"107":0.007787652815081093,"108":0.6323251242182355,"109":-0.38105803435311525,"110":0.10519231762428291,"111":0.23667662025576996,"112":-0.3583336440751667,"113":-0.255310330811415,"114":0.13937121757373183,"115":0.06322748104357276,"116":0.8051094459836766,"117":-0.251880720188047,"118":0.0648837396985711,"119":0.40814503757054127,"120":-0.31039858825382494,"121":-0.0732274239385081,"122":0.10317867380889148,"123":-0.03684815851393755,"124":0.07435706388960396,"125":0.10939018021049515,"126":-0.06850465414989174,"127":-0.2262005197185708,"128":-0.43948125302307456,"129":-0.12070909956807539,"130":0.008692978776582675,"131":-0.08210495680717933,"132":-0.1986953981385436,"133":-0.02529866464680099,"134":-0.31250128641948477,"135":-0.10791419442169904,"136":-0.5265143720108993,"137":0.012781229091706191,"138":0.04190872426050884,"139":-0.2585154730293274,"140":-0.12442980957551807,"141":-0.43823051496663873,"142":-0.26429835129262447,"143":-0.13311200720148555,"144":-0.6650787971137935,"145":-0.13997306262028353,"146":0.03795127174641761,"147":-0.04521547044518619,"148":-0.12329129349483332,"149":-0.5755771631648802,"150":-0.31332020498564017,"151":-0.20849307323332922,"152":-0.25132903764349185,"153":-0.03072741248218742,"154":0.08298012223844453,"155":-0.38216645663373144,"156":-0.21362248868018302,"157":-0.32970163497016786,"158":-0.4111845463589921,"159":-0.21413641348255283,"160":0.09229939590656232,"161":-0.3253332340381853,"162":-0.026794634994825435,"163":0.42264777611346666,"164":0.051166380855252956,"165":0.2533296840166731,"166":0.46409461503935556,"167":-0.2948378920170064,"168":-0.11311313473407658,"169":-0.3130595767507718,"170":0.061101864878631285,"171":0.2095581831507845,"172":0.12477447687924098,"173":0.13589047673385965,"174":0.3329168344900739,"175":-0.38201866583534366,"176":-0.4339788326807133,"177":-0.27529698987183665,"178":0.12315926605720635,"179":-0.10542560696215943,"180":0.11647946400892925,"181":-0.00939635112000646,"182":0.1062061603386498,"183":-0.1951926023095226,"184":-0.1589913279038584,"185":-0.40472822093951616,"186":0.024888222112698716,"187":-0.11548311056921351,"188":0.2068397246629875,"189":-0.09566819184100106,"190":0.06161860634294519,"191":-0.12191412300050786,"192":-0.046659921053725455,"193":-0.15087874859976153,"194":-0.053741285931844046,"195":-0.12130958537822077,"196":0.11676210020930984,"197":-0.17826097821268644,"198":0.22565871129657616,"199":-0.15287254502445546}},{"sx":5,"sy":5,"depth":8,"w":{"0":-0.3214069994920334,"1":-0.06516061308364303,"2":-0.04624882625536982,"3":0.06634629895770114,"4":0.009956003063200955,"5":-0.08495174049584876,"6":-0.006067609427403246,"7":0.2152707440449029,"8":-0.027905151625540064,"9":0.19913740108303524,"10":-0.04273637545435591,"11":-0.20048891298407528,"12":0.014512932315539006,"13":-0.03518668537275771,"14":-0.261230590139454,"15":-0.1205447761568499,"16":0.10752912406144494,"17":-0.05221098034368721,"18":-0.00675730708590513,"19":-0.04567736274301468,"20":-0.2716743771560586,"21":-0.10577627200615611,"22":-0.10740158432449973,"23":-0.1335449225528719,"24":0.2740360977936824,"25":-0.06989442748238094,"26":0.017035272734720466,"27":-0.17203981870971313,"28":-0.252090992327376,"29":-0.12392430750529465,"30":-0.1402426187335556,"31":-0.011749518758067715,"32":-0.2366718546668072,"33":0.039302136862704826,"34":-0.11857931198192023,"35":-0.1602423204127223,"36":-0.20671242225063002,"37":-0.2283893030529334,"38":-0.13346766607884442,"39":-0.17175278520752338,"40":-0.06831234227275532,"41":-0.2210915304093617,"42":0.44693042581195186,"43":-0.21192568647903715,"44":0.4558931204247548,"45":0.06130989841913216,"46":-0.015067346700700993,"47":0.44922094025257014,"48":-0.20280457344354091,"49":-0.23288731490330872,"50":0.3122129594291975,"51":-0.38461943598789783,"52":0.5660691057101477,"53":-0.2869121962942739,"54":-0.12676528050781152,"55":0.3565417118833886,"56":-0.1114351964400292,"57":-0.24188811477893526,"58":0.06867763515640757,"59":0.19874448847655996,"60":0.41831358113535216,"61":0.3376471227240998,"62":0.02290172547052448,"63":0.10597544307784108,"64":0.04410281016428095,"65":-0.13738177854987305,"66":-0.0980375510801063,"67":0.030213478817571957,"68":0.11742759487284868,"69":0.15755195756940235,"70":-0.015465043758761664,"71":0.12064170285053236,"72":0.039821521154440466,"73":-0.006045930492188904,"74":-0.15091011482583785,"75":-0.2445742132504575,"76":0.009035818240402222,"77":-0.06669069882392463,"78":-0.1113361154486602,"79":0.059226927450489034,"80":0.11506500828325016,"81":-0.11837712415298654,"82":-0.24564541417457006,"83":0.13053647520578973,"84":0.041580725498914325,"85":-0.06744096245638256,"86":0.217698604297643,"87":-0.547144968620955,"88":-0.40762973220854803,"89":-0.11363334866454564,"90":-0.10750871726526479,"91":0.13002155266808357,"92":-0.03476494452489795,"93":-0.11057912915995663,"94":-0.00007281703252671838,"95":-0.39263092436089375,"96":-0.23462540416867397,"97":-0.12640463470382632,"98":0.10435417635181315,"99":0.02247290801609831,"100":0.0874817008341253,"101":-0.06777938030660606,"102":0.03256368231444623,"103":-0.26524606585962673,"104":0.37697034964809256,"105":-0.05046908379857133,"106":0.07093570016817313,"107":-0.22116499447550464,"108":0.05257130050941098,"109":-0.05886522107181939,"110":0.15049291762451936,"111":0.046690662051009704,"112":0.3272702141323317,"113":-0.08397272377647484,"114":-0.00001851223714417321,"115":-0.21970000541057014,"116":0.1537571821372641,"117":-0.3267369790549489,"118":0.06899486758755441,"119":0.1812486959800844,"120":-0.2760159966114726,"121":-0.28061762689913955,"122":-0.0457810930559584,"123":0.03677277473555308,"124":-0.060365420881393975,"125":-0.1741334233958876,"126":0.44980766061876615,"127":-0.20431115477966982,"128":-0.7640197374833302,"129":-0.20352187505331146,"130":-0.10384016301855094,"131":0.09021280053904296,"132":-0.19905247863238135,"133":-0.12367399877862684,"134":0.2704298008889351,"135":-0.36501806968688444,"136":-0.3254923783921338,"137":-0.13316442456218405,"138":-0.10304433640415439,"139":0.5286812246175957,"140":-0.1802165075746018,"141":0.15930581941190686,"142":0.004290145196395758,"143":-0.47505465531754454,"144":-0.16812786572316935,"145":0.008809648286200265,"146":-0.08951073428929722,"147":0.21022342130652905,"148":-0.23818490122281677,"149":0.5889644597902178,"150":0.11510148624338369,"151":-0.2835399805415337,"152":0.019516242692447984,"153":-0.04808710095864077,"154":0.04254739868846259,"155":-0.0003187427532685621,"156":0.06448232418440566,"157":0.40479241026913054,"158":0.22140280789935865,"159":-0.12019114486468177,"160":-0.10436963723139106,"161":-0.1338101222501196,"162":-0.20831261169068913,"163":-0.3213490647123142,"164":-0.12979011746846048,"165":-0.6228335701064163,"166":-0.436752986510607,"167":-0.0018988986521567036,"168":-0.47888037232825004,"169":-0.07250997912834144,"170":-0.16511326024308717,"171":-0.31415073793546344,"172":-0.10953258557790853,"173":-0.7697903907228864,"174":-0.2061019834350679,"175":-0.04330445088353479,"176":0.07196831714181039,"177":-0.006113840196233256,"178":-0.13284326232609847,"179":-0.131955635763124,"180":-0.21857277280908105,"181":-0.42634828186503476,"182":-0.011672618963585093,"183":-0.2152586584779971,"184":-0.2206354469733792,"185":-0.06394251394840818,"186":-0.037151974215930555,"187":0.04669235785968272,"188":0.011408292424054287,"189":0.1505456714013155,"190":0.11815214207944547,"191":-0.17881575249595638,"192":0.13412060565570308,"193":0.11961747215405114,"194":-0.1577424670206898,"195":-0.056083894496368025,"196":-0.06898411121124928,"197":0.19458457243860525,"198":0.17881326306498793,"199":0.09147364494976985}},{"sx":5,"sy":5,"depth":8,"w":{"0":0.11954316162486862,"1":-0.10445905327457697,"2":-0.2246958141669811,"3":-0.04708107313276266,"4":-0.22567549598946557,"5":-0.0017098310345751372,"6":-0.09519695734899707,"7":-0.029310667434205104,"8":-0.2708181584709044,"9":-0.1633457641726179,"10":-0.491402115322639,"11":-0.366034976207515,"12":-0.5148589422344834,"13":-0.489095509805767,"14":0.17129823635428199,"15":-0.2570024394344292,"16":-0.47572361031787264,"17":-0.1275749813525539,"18":-0.21565151232847443,"19":-0.059152731393190064,"20":-0.04726633344189959,"21":-0.06800185835009574,"22":0.007858703469116622,"23":-0.26817945514000463,"24":-0.5617843087236408,"25":-0.05931948301261292,"26":-0.36227369797464015,"27":-0.006360202535584089,"28":0.12621474058567675,"29":0.17162350099467852,"30":-0.06301705471439085,"31":-0.044546778743128866,"32":-0.3718310494041013,"33":-0.0011355665401000348,"34":-0.01168985936509591,"35":0.2727453629567078,"36":-0.08212139159637397,"37":0.30309624756317627,"38":-0.27941145303487713,"39":0.1964972666733423,"40":0.1384115803782838,"41":-0.22453294991476044,"42":0.054473662756259034,"43":-0.4627156593637837,"44":0.04118525297673751,"45":-0.2186472170016338,"46":-0.05780554096204248,"47":0.09522869505729588,"48":-0.3807397428300582,"49":-0.05547449276098517,"50":0.04272205146257778,"51":-0.2629874260566702,"52":0.09006455616353104,"53":-0.2131905842253363,"54":-0.13962101929028342,"55":-0.21362969922979783,"56":-1.0340168487587615,"57":-0.03063729983555403,"58":-0.021752301959330606,"59":0.41771250521293535,"60":0.42210567204173394,"61":0.1830509817624251,"62":-0.23798407624776663,"63":0.29351086846147584,"64":-0.5969989823159465,"65":-0.04734538640860485,"66":0.046412457914663835,"67":0.29639870488178394,"68":0.1456416148380887,"69":0.17152472306454972,"70":-0.4105271486620281,"71":0.4592910910424771,"72":0.2607224356056895,"73":0.2522429776777892,"74":0.1922345228319569,"75":-0.13911861690986255,"76":0.1118371870847728,"77":0.20050957311431802,"78":-0.05291812503385994,"79":0.04101104008770801,"80":-0.16442616557352702,"81":-0.04673703489823776,"82":0.0693458440103435,"83":0.19823880067645785,"84":0.3377291125069908,"85":-0.15605602606085314,"86":-0.04815968362143636,"87":0.12813774135777242,"88":-0.5084104199448348,"89":0.0050286259283699695,"90":0.32448052585268333,"91":0.17571521162089415,"92":0.22415191507088691,"93":0.21927693679762655,"94":-0.28881327401118484,"95":0.37777670996336965,"96":-0.2390402713873439,"97":0.013522296954294348,"98":0.17938147357218862,"99":-0.1069595058028249,"100":-0.31004190618252164,"101":-0.2707640898322799,"102":-0.20763288354887904,"103":0.3877024440597426,"104":0.06689571531333886,"105":-0.05195818686463309,"106":0.03927358248714649,"107":-0.06133195356961634,"108":-0.12977044564688872,"109":-0.12625496103731454,"110":0.3794862097184252,"111":-0.25964562821511766,"112":0.30535813845548837,"113":-0.007261676821840075,"114":-0.08510211252623033,"115":0.00813979595334987,"116":0.10042597924777939,"117":-0.04451478250930016,"118":-0.009270350990193039,"119":-0.47111069686331264,"120":-0.13741033316658693,"121":-0.01194051685473888,"122":-0.007856125692570952,"123":0.11463798004062528,"124":0.2929501922062469,"125":0.18503193446201308,"126":-0.21589739933167607,"127":0.5395187869832474,"128":0.0854459986490348,"129":0.0686447552195798,"130":0.010085431770575814,"131":-0.22614525237712108,"132":-0.25081474965269224,"133":-0.13575391238900059,"134":0.18161855502163013,"135":0.19761911156723802,"136":0.1329870135958048,"137":-0.03539362721070778,"138":-0.09353100803397105,"139":0.04457198151881642,"140":0.16437204589981147,"141":0.03608012069500147,"142":0.38051984035484043,"143":-0.13617073845468833,"144":-0.11616295473050334,"145":-0.14584145163954448,"146":-0.34504097810871437,"147":0.0459477931238212,"148":0.07063416604823368,"149":-0.10328069147849678,"150":0.16331999588112323,"151":-0.2502703063956259,"152":0.08358516037781212,"153":-0.06994367783810548,"154":-0.3474757784950984,"155":0.13465930569423912,"156":0.09273136095773919,"157":-0.3206469267678831,"158":-0.11051825548128509,"159":-0.24912107878715603,"160":0.21929499390230958,"161":-0.05377640847661233,"162":0.21833862228846235,"163":-0.13826276381048172,"164":0.14108013448196266,"165":0.11820885770930706,"166":0.3779218555041414,"167":0.12529524904139644,"168":0.1411297349877977,"169":-0.11435238531118455,"170":-0.021725829194127074,"171":0.19576294018862236,"172":0.2209133384039775,"173":0.09797347290196956,"174":0.45612042170704936,"175":-0.08394629190315922,"176":-0.3322190815876512,"177":-0.15315899385979123,"178":-0.23643029257663506,"179":0.10280820062500806,"180":0.1793521703587156,"181":-0.018899590012335734,"182":0.012626593615282431,"183":-0.030238041302014573,"184":0.08135449930825983,"185":0.08995161020882482,"186":-0.16472185528245337,"187":-0.05711398233289139,"188":-0.03150680639065397,"189":-0.3900460994580238,"190":0.01765901659400616,"191":-0.3914390597479515,"192":0.045099759818095525,"193":-0.08741637838416183,"194":-0.2133741338800006,"195":-0.09921230421362887,"196":-0.10473820937402746,"197":-0.17505506683183322,"198":0.055090204423033626,"199":-0.2884947848457595}},{"sx":5,"sy":5,"depth":8,"w":{"0":-0.44279342913065806,"1":0.05774069431279653,"2":0.2492053405253061,"3":0.48965602798138025,"4":0.10523620891153825,"5":0.31316462597614264,"6":-0.12614500661687256,"7":0.23931589626441638,"8":-0.07799558175351654,"9":0.10609113183980186,"10":0.2896071435634674,"11":0.20077819372396313,"12":0.23080336101913884,"13":0.08856974737785367,"14":-0.39324440600482713,"15":0.09672795765309472,"16":0.0003268605504673349,"17":0.0415243036609844,"18":0.148935611116693,"19":-0.1983702920824298,"20":-0.18812263485429268,"21":0.3132329687240436,"22":-0.10067177988133745,"23":0.14218761236344585,"24":0.2546440850815068,"25":-0.03138189565658579,"26":0.016677935512133812,"27":-0.3831952926468216,"28":-0.30071232173067897,"29":0.07766768966352543,"30":0.1421334424883024,"31":-0.061329361654961945,"32":0.2818577379647644,"33":-0.13680326566587664,"34":0.024556890827386855,"35":0.15930378620481428,"36":0.11603826685805704,"37":0.22352367836260426,"38":0.3428502818686307,"39":-0.21316230890290122,"40":0.24682035362551102,"41":-0.041898438341898554,"42":-0.2152955374589876,"43":-0.08219663110582322,"44":-0.25550377647061456,"45":-0.23174649935385794,"46":-0.33107562852179656,"47":0.028855027692491722,"48":0.38732196088153076,"49":-0.06636386874197199,"50":-0.48984499185123453,"51":-0.3502147914493169,"52":-0.4133744059088971,"53":-0.21462110696552417,"54":0.06177465831159791,"55":-0.1941164152733233,"56":0.2207000451717858,"57":-0.14161937415069567,"58":-0.48545247334975233,"59":0.10694966976942548,"60":0.04872326135814768,"61":-0.18892127248907697,"62":0.2763308558766667,"63":-0.3909896509086318,"64":-0.29403067652075954,"65":-0.15644643373666886,"66":-0.03624528692884501,"67":0.1645284586672139,"68":0.33690791471765935,"69":0.14822617444715705,"70":0.11604580768602255,"71":0.1191126997647251,"72":-0.6147468128321424,"73":0.11585879982712753,"74":0.27108851376982857,"75":0.30201214515501595,"76":0.46155760157185965,"77":0.46089637870976596,"78":-0.4232256832635178,"79":0.5032541725476768,"80":0.3328073620924979,"81":-0.12963943238388673,"82":-0.6994908264958178,"83":0.1817156785091295,"84":-0.6796942368800987,"85":-0.49060891944259416,"86":0.10367858042504059,"87":-0.31966107029413676,"88":0.07621104021973138,"89":0.03495797225209524,"90":0.02197765858106513,"91":-0.0026763310246303747,"92":-0.36354671830344154,"93":0.14029897975230052,"94":-0.07722707984400173,"95":-0.435888372567786,"96":-0.3087553203700515,"97":-0.22556291195249556,"98":0.2449709998060173,"99":-0.05547469815451754,"100":0.46082357091839815,"101":0.2681851112956759,"102":0.002779949022040328,"103":-0.1002199997983194,"104":-0.3645565173858227,"105":-0.19479816704329636,"106":0.21159053259699068,"107":-0.16740585445336895,"108":0.635473258140378,"109":0.2531903567723344,"110":-0.21871822505373725,"111":0.21687398383434617,"112":0.05329776566986277,"113":-0.17937415771415652,"114":0.09676949451149107,"115":-0.30494270273439317,"116":0.2785424171689367,"117":0.14039697357294398,"118":0.0631318715825297,"119":0.42235937105378835,"120":-0.05421567968975075,"121":0.1180591861515236,"122":-0.25829144867636633,"123":0.20759768161343398,"124":-0.21301722598420697,"125":-0.10566271232978999,"126":-0.4380194045202289,"127":-0.21252398282367452,"128":-0.45310332415628185,"129":-0.017540243254678123,"130":-0.09121369328776234,"131":0.13699571104812608,"132":-0.0928951859098089,"133":0.29947706258308665,"134":-0.19150318743728756,"135":-0.049160080128066594,"136":-0.26503691407935626,"137":-0.05605190745706217,"138":-0.05817488074218033,"139":-0.004470857471467066,"140":-0.008271053501010076,"141":0.22561799429554552,"142":-0.23101240342995363,"143":0.023473836992673372,"144":-0.07638461273627556,"145":-0.14359142979063738,"146":-0.13406564288308406,"147":-0.09499894968083049,"148":-0.25574458165001246,"149":-0.15338751792271244,"150":0.26298661145802765,"151":-0.02878898173364893,"152":0.07990920073722704,"153":0.02777145149758649,"154":-0.22890950019631476,"155":-0.2852322150956715,"156":-0.17386637208732023,"157":-0.3881371071741293,"158":0.32748016900894245,"159":-0.13262155707185194,"160":-0.10166925438386631,"161":-0.1267591664492225,"162":0.16250439100061775,"163":0.17671411872908863,"164":-0.16072135251828384,"165":0.018457925734840026,"166":-0.546512746850907,"167":0.13070885758544687,"168":0.23009306276232477,"169":-0.07077055046797015,"170":0.07135853373586687,"171":-0.0259725637863999,"172":0.2156063916188886,"173":0.054197514693469916,"174":0.08764822819555904,"175":-0.06256263018211825,"176":0.2841895506164177,"177":-0.022218861121812688,"178":0.02399840848308767,"179":-0.2764203194562791,"180":0.039144010139279595,"181":0.012833003637702102,"182":0.12859550730021832,"183":-0.2234571712326117,"184":0.17943971356686458,"185":-0.10117416988140042,"186":-0.19893127338002167,"187":-0.11994753305191547,"188":-0.06447503723839831,"189":-0.11430266206746968,"190":0.1518407282981011,"191":-0.24635319410204284,"192":-0.1911940043377492,"193":-0.0986954070749413,"194":0.13462830706586684,"195":0.11683924926493518,"196":0.2838074267389988,"197":0.043240160574305825,"198":0.12014930092888582,"199":-0.22324425225452627}},{"sx":5,"sy":5,"depth":8,"w":{"0":0.2230860304379437,"1":-0.15766314183256247,"2":-0.024993144100532345,"3":0.034136655078772615,"4":-0.0592936678611762,"5":0.00040961036307459066,"6":-0.0808263816756997,"7":-0.1815204589692166,"8":0.03244679228520808,"9":-0.27293313003531716,"10":0.13237688513217405,"11":-0.12872475475858883,"12":0.02795637720023906,"13":-0.04988327726398982,"14":0.05283967283946481,"15":-0.1264578013903355,"16":-0.1671846971126579,"17":-0.33532540908684905,"18":-0.16070107336567738,"19":0.06283070827223684,"20":0.1428187688066186,"21":0.08462328305823673,"22":0.2468781104986375,"23":0.03522307945643585,"24":-0.18895626727248402,"25":-0.29344822377490226,"26":-0.074088850702454,"27":0.01779923660547842,"28":0.11794661113194581,"29":0.13957205153001948,"30":-0.07440272373189413,"31":0.15677107176647853,"32":-0.24727075317920513,"33":-0.13950952539827577,"34":-0.0494943322420298,"35":0.20039838290789175,"36":0.005337217654792699,"37":0.1552432733685769,"38":0.040405775862503546,"39":0.1280366750603862,"40":-0.1369490104430331,"41":-0.057487517006607196,"42":0.005396119286374609,"43":-0.09270448251231354,"44":-0.14455968924380386,"45":0.06986018932592193,"46":0.07370648621925438,"47":-0.15660696487210457,"48":-0.21502191677924762,"49":0.006531030594541107,"50":0.12517250325471355,"51":-0.25269046819393437,"52":-0.08699529383039396,"53":0.0403981988962754,"54":0.03919719857032587,"55":-0.10999980825808127,"56":-0.261872337432833,"57":-0.17481605473681144,"58":0.27465986425265915,"59":-0.13667512941523655,"60":0.30292892112556374,"61":-0.0951786439341326,"62":-0.0747998010389332,"63":0.15953083806588594,"64":-0.1335827969320576,"65":-0.3610743061538462,"66":-0.043503160216116124,"67":-0.15333229582058522,"68":0.18788179726418255,"69":0.06676384294905238,"70":0.19746205823311808,"71":0.17684731965348593,"72":-0.11923963346869272,"73":-0.17296034633231316,"74":-0.04296467259313199,"75":0.08835980410883122,"76":0.16625676360279837,"77":-0.16417151823138462,"78":0.25211412577187836,"79":0.043189001519528446,"80":-0.23076199954723267,"81":-0.1440237637816043,"82":0.08312939711489445,"83":0.05720026624664474,"84":0.27941502238162225,"85":0.09943269111579817,"86":-0.15573923599065262,"87":0.2089123952810049,"88":-0.13831498659560676,"89":0.0171710471911773,"90":0.04759101874117822,"91":0.1439653105328292,"92":0.007360278068738808,"93":-0.09912948687370884,"94":0.07660766707301475,"95":0.22467047629628453,"96":0.13288419369098628,"97":0.016053363691337794,"98":-0.05985793773842463,"99":0.04775479563959153,"100":-0.07286733251288463,"101":-0.34407168225379564,"102":0.08696958580395199,"103":0.08491582453782957,"104":-0.08489769757929144,"105":-0.2054513946703749,"106":-0.11433552841998404,"107":-0.19114805958958825,"108":-0.30470752530191836,"109":-0.4303899006781445,"110":0.03551994863038983,"111":-0.2575845109389024,"112":-0.05190669139258225,"113":0.03806259490830605,"114":-0.3026491249645731,"115":-0.09719303768710014,"116":0.06091304347141329,"117":-0.5803034125462219,"118":-0.06259814429648264,"119":-0.22754023172296184,"120":-0.06955363642413614,"121":-0.024354290030738697,"122":0.030911059007805462,"123":0.197935313161718,"124":-0.170619393793707,"125":-0.03998514533308022,"126":0.020032272547069595,"127":-0.06413592464751182,"128":0.2416423413701455,"129":-0.03917507274792979,"130":-0.10031400469045891,"131":-0.09204094903656375,"132":-0.2270283313490923,"133":-0.1844798184395839,"134":-0.022060727317080038,"135":-0.35481852304030725,"136":0.30852507796850415,"137":-0.20450990862941196,"138":-0.22130835775159055,"139":-0.41000199420060063,"140":-0.12182585409416025,"141":-0.41757320415178745,"142":-0.012360070928538545,"143":-0.4854158402366866,"144":-0.04721725367629692,"145":-0.1900503976459176,"146":-0.4274061725273088,"147":-0.28864249514650786,"148":-0.32483367750122244,"149":-0.32576327615507494,"150":-0.27552687648231855,"151":-0.494347662005058,"152":-0.34039908301707084,"153":-0.04450942477841498,"154":-0.2931796318648279,"155":-0.197088137153859,"156":-0.41231075974908393,"157":-0.3495454274695267,"158":-0.45276118189266684,"159":-0.3762888735265316,"160":-0.010882921158167275,"161":-0.051405497176886146,"162":-0.11627949488248648,"163":0.08459087733510104,"164":0.32936500928370654,"165":0.06941391611643036,"166":0.2507917770482842,"167":0.16289683171150895,"168":0.3175341728879426,"169":-0.08116702944272979,"170":0.03225150753456331,"171":0.02090031943280028,"172":0.15856105225822492,"173":0.013382066830528012,"174":-0.1883480692581797,"175":0.0033580698392069973,"176":0.05853480237540667,"177":0.04173089667399673,"178":0.09486891158196914,"179":-0.170834249722896,"180":0.0782914115558146,"181":-0.161664145370416,"182":-0.21818921014818854,"183":0.0024476096930521993,"184":0.08531452901233488,"185":-0.0326552896313195,"186":0.11105549908100361,"187":-0.2734921266247739,"188":0.05859135430259765,"189":-0.20337102987599756,"190":-0.1414237432233249,"191":0.010969530356218522,"192":-0.15592490199053474,"193":0.05981063437919678,"194":0.02047282467837162,"195":0.10690205988964693,"196":-0.10172425796294073,"197":-0.270935404267999,"198":-0.1897852731668914,"199":0.03563568683101662}}],"biases":{"sx":1,"sy":1,"depth":16,"w":{"0":-0.07884549883929187,"1":-0.0833723198220396,"2":0.05164803087221649,"3":-0.15662476182789867,"4":-0.09582374070359093,"5":0.02285376314030774,"6":0.03129624278922941,"7":0.01929001043668959,"8":0.05186061657587842,"9":-0.12774808571737653,"10":0.008279557369684998,"11":-0.12136914359414605,"12":0.034372654931369075,"13":-0.03916727931704542,"14":-0.09222306531063726,"15":-0.05870382448547135}}},{"out_depth":16,"out_sx":13,"out_sy":13,"layer_type":"relu"},{"sx":3,"sy":3,"stride":3,"in_depth":16,"out_depth":16,"out_sx":4,"out_sy":4,"layer_type":"pool","pad":0},{"out_depth":10,"out_sx":1,"out_sy":1,"layer_type":"fc","num_inputs":256,"l1_decay_mul":0,"l2_decay_mul":1,"filters":[{"sx":1,"sy":1,"depth":256,"w":{"0":-0.057291691385324965,"1":-0.12170825213856236,"2":-0.09976760770741547,"3":0.009142905602467668,"4":0.04766612060889826,"5":-0.2386790583022027,"6":-0.11129644493440002,"7":-0.24713783735995462,"8":0.030665077275317063,"9":-0.18934046346539085,"10":-0.06278156651396616,"11":0.0709630474638943,"12":-0.1485126689853585,"13":-0.22938750292971127,"14":-0.07009797611580909,"15":-0.18536040965980358,"16":-0.0028278095789102194,"17":-0.43929870620988676,"18":-0.06916341178532731,"19":-0.0866700891112822,"20":0.14468570027818428,"21":-0.07780420739012393,"22":0.04110590818279371,"23":0.13722799100616728,"24":-0.5030163529901656,"25":-0.21297972351918237,"26":-0.5473889730407477,"27":0.37281544603775174,"28":0.11967204236471662,"29":-0.19092318657895488,"30":0.0026137710751195876,"31":0.042787040271453046,"32":0.0245093884400711,"33":-0.5799999063179104,"34":0.07874641697660123,"35":-0.13176226028853572,"36":-0.030082133035807118,"37":0.07360930955935244,"38":-0.2850168079430574,"39":0.020758152392065927,"40":-0.5061791546852373,"41":-0.23419841527682572,"42":-0.5877513135159769,"43":0.11916779911760514,"44":-0.19281313349954698,"45":-0.04464823680246231,"46":-0.09579845930049032,"47":-0.0988555080933699,"48":-0.17627420141932057,"49":-0.2518345031678577,"50":0.12205102592844774,"51":-0.13237892040344099,"52":-0.10301847246601181,"53":0.018608459909237353,"54":-0.2678156320954255,"55":-0.0032106454907136956,"56":-0.07434253474261199,"57":-0.14777654616559502,"58":-0.42450316563725327,"59":-0.2244533343800958,"60":-0.24486469434717886,"61":-0.093299408535714,"62":-0.20160668804203483,"63":-0.03469553347649566,"64":-0.32161972320281107,"65":0.0751097023204863,"66":-0.06732292513593548,"67":0.014961545298520139,"68":-0.06538656268489705,"69":-0.07514711464805207,"70":-0.25541666318663897,"71":0.08338971432360451,"72":-0.20564206015292494,"73":-0.11855661927725024,"74":-0.06883795864289831,"75":0.2805153987610367,"76":-0.1891825560646795,"77":-0.1371742017970476,"78":0.004141530301721267,"79":0.14810140323817844,"80":0.06843900936242411,"81":-0.1700304976398152,"82":-0.24300457455307686,"83":0.0017645517669765624,"84":-0.08594425120198326,"85":-0.1564595122732206,"86":0.016802246922615862,"87":0.061850020762024414,"88":-0.31443245027504174,"89":0.0980212287563698,"90":-0.5229906687880378,"91":0.24001638231109523,"92":-0.029404935841048526,"93":-0.00917669770374015,"94":0.3015976969563192,"95":0.10744900441175169,"96":0.035922484786400206,"97":-0.14369930087640523,"98":-0.10558124350715321,"99":0.2469134603572336,"100":-0.10394289561340637,"101":-0.24557729479933654,"102":-0.02177299172014137,"103":0.1705990470387732,"104":-0.2794392598720908,"105":0.05597547149827939,"106":-0.5445821125597353,"107":0.055693383895364705,"108":0.026299686265481098,"109":-0.2882133092887469,"110":0.21293279736764048,"111":-0.09071556272984348,"112":-0.283588700910483,"113":-0.30900720944800003,"114":-0.17807588461986232,"115":0.03908598431825193,"116":-0.24756201483717402,"117":-0.11917872983280445,"118":-0.2742165469100327,"119":-0.060533154229507447,"120":-0.31029802866232087,"121":0.15398776252488208,"122":-0.4293375993474164,"123":-0.2559248074741547,"124":-0.1120392543246134,"125":-0.18371771329818787,"126":-0.1677565785829716,"127":-0.06997316628910924,"128":-0.22756961168501588,"129":0.038140159445655235,"130":0.15880499306205073,"131":-0.11760679543133176,"132":0.07913240190663286,"133":-0.11977074999802674,"134":-0.3485099545275077,"135":0.004646488151599176,"136":-0.16413643420783058,"137":-0.08143306292149946,"138":-0.03601523727863082,"139":0.10076545336446795,"140":-0.20487534196455737,"141":-0.1439242154199969,"142":-0.08611211667120651,"143":-0.0553823793916019,"144":0.11849236253773109,"145":0.05476806466283498,"146":-0.1256775936689479,"147":-0.33421065932532446,"148":0.16870972438911555,"149":-0.004360077732907946,"150":-0.03989252713774804,"151":0.17357097682551573,"152":-0.18508093179488413,"153":-0.14866293585794355,"154":-0.3806876098965639,"155":0.30214047723255216,"156":-0.041122400784029935,"157":-0.041862002492631105,"158":0.11488734412499829,"159":-0.1568021401260223,"160":0.11110011774370848,"161":-0.14468682494519938,"162":-0.12058233986840204,"163":-0.20730264339308116,"164":-0.041423505723418706,"165":-0.0012087837550442196,"166":-0.1222436984990196,"167":0.08029380884530603,"168":-0.2770298664407797,"169":0.07534613317118123,"170":-0.29985180038501996,"171":-0.011919103601325667,"172":-0.030649726142344822,"173":-0.08977611003338534,"174":0.10095657122500085,"175":-0.08943526947461648,"176":-0.18012345063600418,"177":-0.2965577550082489,"178":-0.24188471793807828,"179":-0.11193543558806163,"180":-0.105994359610822,"181":0.1356851076196193,"182":-0.174809267912875,"183":0.03969764604009636,"184":-0.31709226881515273,"185":0.16087368162337903,"186":-0.20775166802273512,"187":-0.023587945802260604,"188":0.00040975558099608803,"189":-0.3182900309269391,"190":-0.13347186130692326,"191":0.0556474386783434,"192":-0.22785106146997874,"193":-0.13861829229531647,"194":-0.1526613804030328,"195":-0.03922652691578809,"196":-0.05971894377168739,"197":-0.11225121098634447,"198":-0.33608321392298873,"199":-0.12651031176990563,"200":0.06961424649861718,"201":0.019646028893194698,"202":0.0912893286177672,"203":0.08176494473235807,"204":-0.0820252659638495,"205":-0.24268397136939007,"206":0.04649742265549947,"207":-0.004701598471210206,"208":-0.06133283545264886,"209":-0.26326998531858475,"210":-0.12160946680463731,"211":0.02047625359465252,"212":0.014933161112982627,"213":-0.2981315995122429,"214":-0.20873904642931493,"215":-0.09590118887543131,"216":-0.4479871276231817,"217":0.037406783954412215,"218":-0.2517354805433256,"219":0.21282792060546385,"220":-0.03764534634060473,"221":-0.0021919928584632903,"222":-0.1166619535930675,"223":-0.14678973795651698,"224":-0.00607922311647716,"225":-0.40181967118666306,"226":-0.1655820868092319,"227":-0.0132791798024005,"228":0.25138759579129544,"229":-0.13363301817009451,"230":-0.04243310536675667,"231":0.17510392155245263,"232":-0.6461258947258067,"233":-0.11506314197868121,"234":-0.48279117871404764,"235":0.09847056441558172,"236":0.012386571950526589,"237":0.08262498286344006,"238":-0.030268999169977568,"239":-0.1932238715877024,"240":-0.12693359979135677,"241":-0.2456881052054476,"242":-0.18722922887215793,"243":0.09828471177424275,"244":-0.007560306792622637,"245":0.014738683365094705,"246":0.1189752777136747,"247":-0.03034195074253337,"248":-0.23478476214545174,"249":-0.0010961909752623096,"250":-0.29477044005945957,"251":0.11397882959948497,"252":0.22504169446620975,"253":-0.1805078070384439,"254":0.00356937089327444,"255":-0.15963534139928212}},{"sx":1,"sy":1,"depth":256,"w":{"0":-0.06518165124152576,"1":0.24827293053537083,"2":-0.31276680843845056,"3":0.06266849479299612,"4":0.08977921443503054,"5":-0.03447069424635064,"6":-0.20650617704879054,"7":0.08428884236261576,"8":-0.21607967085243537,"9":-0.011225502219075234,"10":-0.06510120708202799,"11":0.32700665759564845,"12":-0.020857380301870867,"13":-0.18292129860750517,"14":-0.33544172961982294,"15":0.10057419949631023,"16":-0.1612069523820887,"17":0.023189820713625492,"18":-0.28730851996779727,"19":0.06218077141079283,"20":0.1269460676339235,"21":-0.33291114082926715,"22":-0.23082747651548008,"23":-0.015865413986621182,"24":-0.2175929587001193,"25":-0.09612729079077892,"26":-0.25060598002326084,"27":0.4973799511656063,"28":-0.13283919190608465,"29":-0.06752724633534554,"30":-0.5740739518576875,"31":-0.04996820045915306,"32":-0.284735071293435,"33":-0.002472889485410604,"34":0.15342580854868296,"35":0.2391179323751633,"36":0.26283960582052357,"37":0.04527707741183169,"38":-0.1642043318943562,"39":-0.06070904339866844,"40":-0.12545309424407095,"41":-0.14829876976303003,"42":-0.061405687909146474,"43":0.290518536685909,"44":0.2930348076588431,"45":0.07736166683850312,"46":-0.47039886822964777,"47":-0.007746006405465307,"48":-0.31642863390620046,"49":-0.11141349439800771,"50":0.2176076011926604,"51":0.2718951170895542,"52":0.2524071813260167,"53":-0.18277102743017035,"54":-0.18194486145995856,"55":-0.07346186553884541,"56":0.06770503120145595,"57":-0.1650381483135481,"58":0.1389593567118001,"59":-0.08942582318804108,"60":0.3184570277634468,"61":-0.23345287913241333,"62":-0.135286351905799,"63":-0.07462099005459469,"64":0.2090589851216298,"65":0.055983128462641404,"66":-0.2000195370604405,"67":0.069950369337244,"68":-0.13351784374459055,"69":-0.05835270861971036,"70":0.0209533464428172,"71":0.09213025326014282,"72":-0.01996784508331954,"73":-0.13254411095191634,"74":-0.16657432310379056,"75":-0.023865735126079982,"76":-0.013602559650303207,"77":-0.12695411328528314,"78":-0.14818955667620762,"79":-0.08863944740493822,"80":-0.017906449696244105,"81":-0.3136701823986681,"82":-0.28017223073085223,"83":-0.07751078544028571,"84":-0.038664592750112525,"85":-0.3254332046724942,"86":-0.09343067085412547,"87":0.27524262845835856,"88":0.06100078938213075,"89":-0.007868668467835491,"90":-0.17725834919787645,"91":-0.034161249499102694,"92":-0.07806792099721768,"93":-0.15525282938735666,"94":-0.47278569664908243,"95":-0.442524268725485,"96":-0.11668410521240338,"97":-0.33942753424047073,"98":0.015147455623334947,"99":-0.3496369387220443,"100":-0.1630276120071457,"101":-0.204794420640933,"102":-0.08122521934310177,"103":0.10524849073706036,"104":0.15943117358088055,"105":0.10032323855201565,"106":-0.11458442856035098,"107":0.05387868950866802,"108":0.24867201433677832,"109":-0.0441518706077443,"110":-0.5260418775210376,"111":-0.351685545703125,"112":-0.07017950510895322,"113":-0.09718836771797042,"114":0.06913020439657955,"115":-0.4424252051309542,"116":-0.08897785345037777,"117":-0.17979957755124557,"118":0.015144223584453671,"119":0.04283272942128573,"120":-0.022700423235647773,"121":-0.12628510767951515,"122":0.05935591022034724,"123":-0.020948703150954442,"124":0.08410308843460929,