{"layers":[{"out_depth":1,"out_sx":26,"out_sy":26,"layer_type":"input"},{"sx":5,"sy":5,"stride":1,"in_depth":1,"out_depth":36,"out_sx":22,"out_sy":22,"layer_type":"conv","l1_decay_mul":0,"l2_decay_mul":1,"pad":0,"filters":[{"sx":5,"sy":5,"depth":1,"w":{"0":-0.33434445624570824,"1":-0.6406544598822729,"2":-0.013955138572965407,"3":-0.3013663322910648,"4":-0.23359389623802904,"5":0.04790688091794544,"6":-0.26833999700369726,"7":0.7697717195963786,"8":0.07364221991834612,"9":0.04799326836366054,"10":-0.6050277908977176,"11":0.27807450290865454,"12":-0.0856992030099684,"13":0.23611467335849332,"14":0.1882385115370487,"15":-0.4583959280657124,"16":0.22245151044545397,"17":-0.07644442197177084,"18":0.47500950155630295,"19":-0.13088024575650642,"20":0.05312469615820124,"21":0.07496924477844033,"22":0.16684072600739266,"23":0.2537514921739973,"24":-0.19182013379136162}},{"sx":5,"sy":5,"depth":1,"w":{"0":0.20290347028724928,"1":0.4103941907299347,"2":-0.1707283178225698,"3":0.03718425947461427,"4":-0.01726317668540366,"5":-0.1537052951002372,"6":0.4043910214626814,"7":-0.17965781857513097,"8":0.3431907948612084,"9":0.25838582813840094,"10":-0.16578621651507053,"11":-0.36172873205685674,"12":0.13528089167068444,"13":0.1615902015004244,"14":0.19159674451101308,"15":-0.21706371260131616,"16":-0.618858849133398,"17":-0.6244655126931493,"18":-0.10114622349336097,"19":-0.22117648905859227,"20":0.3002965909287233,"21":0.22361042709268564,"22":-0.06561373864410498,"23":0.1003042133580408,"24":-0.03344437074294028}},{"sx":5,"sy":5,"depth":1,"w":{"0":-0.3250674723219342,"1":-0.5656137892063902,"2":-0.10334217614975061,"3":-0.3603726181996223,"4":0.17362456986972966,"5":0.11074222720270555,"6":-0.5491356847079234,"7":-0.3528844297522507,"8":-0.011454759867105644,"9":-0.03581712646896415,"10":0.08237451222909045,"11":0.3095114636447481,"12":-0.03600577404925314,"13":-0.08494253072962896,"14":-0.4258968273757519,"15":0.06917632593841434,"16":0.10426917944629553,"17":0.1493706904673566,"18":0.272312501602262,"19":0.43440341118223874,"20":-0.2721268730695735,"21":0.5927055742811889,"22":0.32008597287191903,"23":0.1798798924718608,"24":-0.08067652033265307}},{"sx":5,"sy":5,"depth":1,"w":{"0":0.12068122423345906,"1":0.07713659523947676,"2":-0.18699286342520136,"3":0.22868384639995548,"4":0.2930775453900418,"5":0.06285773522503003,"6":-0.27514843303020875,"7":0.2834820065889351,"8":0.2253628950873942,"9":-0.16515774111277326,"10":-0.4487997160890884,"11":-0.4012834505238393,"12":-0.5047964500649403,"13":-0.31890147285332937,"14":-0.21278345258666886,"15":-0.10631955268226763,"16":0.29747445466913625,"17":0.2978232206495348,"18":-0.12781414974210653,"19":-0.03851443964491163,"20":0.19808384134542784,"21":0.011789264081084857,"22":0.16267646614253212,"23":0.25322314365305826,"24":-0.15121089729912254}},{"sx":5,"sy":5,"depth":1,"w":{"0":0.32570269460716267,"1":0.03513465982993423,"2":0.07559212103121667,"3":0.24661723387719608,"4":-0.29922719910468093,"5":-0.014516537546968297,"6":-0.09283950280666595,"7":-0.062199588820443075,"8":0.13656217379137647,"9":-0.2100583495089476,"10":-0.12326167527789374,"11":-0.015807695687788424,"12":-0.0039829632347736675,"13":0.0913006264490901,"14":0.054711542171846456,"15":-0.5052337998604132,"16":0.14244234855591986,"17":-0.08150982156259012,"18":0.205848931203785,"19":0.12463587166845122,"20":-0.06077922176422163,"21":-0.3126801876197143,"22":0.4307803074353119,"23":-0.21113397703031866,"24":0.21220626214989596}},{"sx":5,"sy":5,"depth":1,"w":{"0":-0.1899907377807433,"1":0.015353906400510743,"2":-0.05076059164318198,"3":0.024354138073674505,"4":0.2490282830714102,"5":-0.15169049798192247,"6":0.16022568599793935,"7":-0.11450871863604567,"8":0.08565783009460688,"9":-0.19236874267959564,"10":-0.0852793995627473,"11":-0.1570933298226474,"12":0.22459985549678657,"13":-0.13276648049820367,"14":0.1597594947919259,"15":0.38180194413007534,"16":0.0718834104524609,"17":0.2804765060456809,"18":-0.4605777014167623,"19":0.339195682749385,"20":-0.4629346833946133,"21":-0.19365000582709727,"22":-0.0035584717565062167,"23":-0.25867556610191267,"24":0.37677229799876477}},{"sx":5,"sy":5,"depth":1,"w":{"0":-0.010205552865136813,"1":0.05828024246369768,"2":-0.23188821262045106,"3":-0.35363228251935885,"4":-0.16884121042429054,"5":0.6765560775715317,"6":-0.0677592769304617,"7":-0.44454616513304834,"8":-0.12926485424607903,"9":-0.0208045929469623,"10":0.01360827031015912,"11":-0.27421950532213746,"12":0.4432000489890075,"13":0.19356175373781706,"14":0.21000501055943124,"15":-0.7603719046129656,"16":0.17300240490348817,"17":0.5492630129102047,"18":0.24773132802408612,"19":-0.22589392591138654,"20":-0.09034976037110092,"21":-0.01828029164559903,"22":-0.055330977827181146,"23":-0.05129301987666137,"24":-0.014475504633159381}},{"sx":5,"sy":5,"depth":1,"w":{"0":0.3547790930538051,"1":0.18050975253641052,"2":0.1973455976475894,"3":0.11438535035926191,"4":0.11270910556752153,"5":-0.022504241038380585,"6":-0.09510505844775247,"7":0.1712062215433007,"8":0.27458628786222133,"9":0.09497131625791161,"10":-0.6083804680020737,"11":-0.30715900180345695,"12":-0.5556858002659378,"13":-0.7114277457323165,"14":-0.45527734702411604,"15":0.28312732485209047,"16":0.2942989546027675,"17":0.35177307166590904,"18":0.3154633818034425,"19":-0.02054521831255576,"20":0.07559111728213651,"21":-0.5112972334322725,"22":0.03594434890316886,"23":-0.1333009606223224,"24":0.038590243230724026}},{"sx":5,"sy":5,"depth":1,"w":{"0":-0.2558279644374666,"1":0.16065922138251423,"2":0.1768105518397953,"3":0.41270498421045104,"4":0.12451958191681906,"5":-0.1938469307251803,"6":-0.3547870345386133,"7":0.07859955245167267,"8":0.2773237033892893,"9":-0.05983410774602751,"10":-0.027655471333068622,"11":-0.16726727764247498,"12":-0.7628281720273702,"13":-0.5881126621932878,"14":-0.34046885222899004,"15":-0.004923108985759887,"16":-0.01813407215367927,"17":0.43877372389215025,"18":-0.12118399978213094,"19":0.042367077953711876,"20":0.3348163508894886,"21":0.33871848288903783,"22":0.22163214949598448,"23":-0.09240639176515426,"24":-0.020542011443349335}},{"sx":5,"sy":5,"depth":1,"w":{"0":0.025596101228309284,"1":0.01744729416961977,"2":0.3486264948700609,"3":0.19881484824062134,"4":-0.00037874601731641697,"5":-0.17354233757550303,"6":-0.39672550389379624,"7":-0.6395715386932204,"8":0.03070347122791012,"9":-0.014821733318963375,"10":0.0074829013718419775,"11":0.055941507927338444,"12":-0.06338429431375563,"13":-0.4883639659241589,"14":-0.21806693478950306,"15":-0.006640371542259709,"16":-0.007131860095700757,"17":0.3039354067135619,"18":0.20281533951151495,"19":-0.1604412013313031,"20":0.13297994899789095,"21":0.40428996898216,"22":0.13214536837107385,"23":0.12479812701911244,"24":-0.11155033845527515}},{"sx":5,"sy":5,"depth":1,"w":{"0":-0.23877655451130436,"1":-0.2416943595808531,"2":-0.26585264055244107,"3":0.02049408697190714,"4":0.2112425429915803,"5":0.3346587288717961,"6":-0.15975884964845086,"7":-0.6375616980553279,"8":0.027270192333138304,"9":0.2170838588720641,"10":0.3503559197627793,"11":0.32603511241407435,"12":-1.2275640701727644,"13":0.0014220884246631611,"14":0.3210677245733528,"15":0.350771279460891,"16":0.3452627901868546,"17":-1.068002649541694,"18":-0.07780784393946437,"19":0.34463911064238667,"20":0.5174049462725706,"21":0.4791007956598982,"22":-0.6796759911902004,"23":-0.19699711500779013,"24":0.3251951496275566}},{"sx":5,"sy":5,"depth":1,"w":{"0":0.18671107067321832,"1":0.056303710257945436,"2":0.25252613246487177,"3":0.2990833718407466,"4":-0.15676724474610804,"5":-0.32306983597030325,"6":-0.3364920646451719,"7":-0.2160435498794502,"8":0.0020797947297994334,"9":0.25245002415394713,"10":-0.14567761707515792,"11":0.043929087207120715,"12":0.18715083235382352,"13":0.09945298840634678,"14":-0.07832693681859836,"15":-0.01259338853676577,"16":0.12747790094964073,"17":-0.1625299984307503,"18":-0.005425512519805676,"19":-0.05082472356865605,"20":-0.34422833039159767,"21":0.31875119342354685,"22":-0.021243100412914266,"23":0.321026280249727,"24":-0.47169824677209454}},{"sx":5,"sy":5,"depth":1,"w":{"0":0.20007305936309852,"1":0.26217498855023447,"2":-0.25969478237930443,"3":-0.5216689686252554,"4":-0.7109538886775476,"5":0.04160068560711607,"6":0.2097871057399691,"7":-0.3477139266195569,"8":0.0949218593626003,"9":-0.24121379316482797,"10":-0.24225249620388437,"11":-0.11622972059538546,"12":0.4947135428656852,"13":0.2247822099835248,"14":0.09351741464224045,"15":-0.01002443020698857,"16":-0.14911642664122413,"17":0.13870831331655226,"18":0.05737071110103314,"19":0.05233015665896151,"20":0.06930355571249139,"21":0.07733208284982142,"22":0.15116869230950983,"23":-0.03586594922834267,"24":0.12709693707989386}},{"sx":5,"sy":5,"depth":1,"w":{"0":0.20790331087602243,"1":-0.18206890256684155,"2":-0.06705227165877965,"3":0.4298567572488861,"4":0.23713196159467018,"5":-0.13254003082351387,"6":-0.09554324699602341,"7":-0.23125767654192514,"8":-0.27770015228772266,"9":-0.06274003259038097,"10":-0.4062150319781959,"11":0.15853957735405896,"12":-0.04642504122827896,"13":-0.14873387919203873,"14":-0.13336163495294892,"15":0.12694660482332887,"16":-0.03255262083995464,"17":-0.04239745096955444,"18":-0.21350997162461544,"19":0.14779122362177274,"20":0.25662583337121503,"21":-0.05495409911817554,"22":0.14940847728611098,"23":0.165851953430566,"24":-0.11076569141828693}},{"sx":5,"sy":5,"depth":1,"w":{"0":0.3567441296009113,"1":-0.3922332770889532,"2":0.00762727261139554,"3":0.3115896514624887,"4":-0.06604735713012694,"5":0.1486093201759648,"6":-0.31208551192839706,"7":0.015688549086135956,"8":0.27931876075474565,"9":0.06311643105332373,"10":0.566392028260349,"11":-0.45948108380045827,"12":0.030957194708267737,"13":0.10341585975966748,"14":0.43752648559604407,"15":-0.38113514167565676,"16":-0.31332207163164644,"17":0.08195770788069748,"18":0.18783146022489455,"19":0.28974296188892795,"20":0.15842935794903348,"21":-0.6320648563303961,"22":-0.3099335073409754,"23":-0.232735139596176,"24":-0.2109280627996119}},{"sx":5,"sy":5,"depth":1,"w":{"0":-0.02344314365479796,"1":-0.002083482929530618,"2":0.32525726928567494,"3":0.19157890420333362,"4":-0.5436222022440498,"5":0.2685367273738534,"6":0.5904853785355407,"7":-0.24745145994292425,"8":-1.0621519276550158,"9":-0.18007478620317832,"10":0.3623156700281991,"11":-0.8351814777742048,"12":-0.8180486043773818,"13":-0.07334665688526135,"14":0.07119014937790752,"15":-0.9204840714910215,"16":-0.3867779377528777,"17":0.24266536769600242,"18":0.5284245326185419,"19":0.28221135905504624,"20":0.03886239655490672,"21":0.4825565706909964,"22":0.4536867476893058,"23":0.030299793737744017,"24":0.1794852436575108}},{"sx":5,"sy":5,"depth":1,"w":{"0":-0.014361486020886615,"1":0.11264217499039274,"2":0.22767718249079685,"3":0.10058857130696033,"4":0.2811463494579386,"5":-0.1358877704265298,"6":0.3765310371075894,"7":0.07775180913203693,"8":-0.40085553086550185,"9":0.1380117103071208,"10":0.1744782284088369,"11":-0.2363467205855439,"12":-0.15127992486026606,"13":-0.18258735996352704,"14":0.06251761549876841,"15":-0.009169381546591191,"16":-0.36923135819065983,"17":-0.23973618182298576,"18":0.2079681999484525,"19":0.0842064534573772,"20":-0.5989773474626697,"21":-0.25911028529237057,"22":0.26866631080225895,"23":0.21958290152225957,"24":0.10730111419462585}},{"sx":5,"sy":5,"depth":1,"w":{"0":0.14701670686314144,"1":-0.014536006614975831,"2":0.19678372028840077,"3":0.061324662447506034,"4":-0.20288215574670884,"5":-0.10074633283814326,"6":0.011462581366698879,"7":-0.42781806967334546,"8":-0.6587175629888227,"9":-0.18346183063074442,"10":0.37202197589294095,"11":-0.09142043239223113,"12":-0.018585366968908303,"13":0.3928430133157797,"14":0.17651056703299445,"15":-0.45769727299798396,"16":0.1769446139311593,"17":0.1484161795139066,"18":-0.08981413016273825,"19":0.32551359414728925,"20":-0.8477129764375764,"21":0.41237210332632757,"22":-0.10616601992848622,"23":0.27100586310162356,"24":0.1883037010687913}},{"sx":5,"sy":5,"depth":1,"w":{"0":-0.05319210729736015,"1":-0.09373031350787707,"2":0.19478179372186175,"3":0.25261032576569326,"4":-0.5247959065230555,"5":-0.19032872058454384,"6":-0.2753965939052519,"7":-0.3944230314789713,"8":0.005225006890285461,"9":-0.34559763961811213,"10":-0.08265163559377942,"11":0.19843913209841177,"12":0.20169419078213716,"13":0.3232341150163275,"14":0.0938142597114044,"15":-0.5587043107610375,"16":0.0008962081835001412,"17":0.32937594279901,"18":0.062293354872950256,"19":-0.0989615266591808,"20":0.18870906155999903,"21":0.7527070369339862,"22":0.2565847737384368,"23":-0.4588139740983625,"24":-0.25310426179567186}},{"sx":5,"sy":5,"depth":1,"w":{"0":0.3289961806517188,"1":0.0912590487894955,"2":-0.1312866115062684,"3":0.2490982880959674,"4":0.3123038583315536,"5":-0.03507489234479433,"6":-0.1869252665913857,"7":-0.28981142252963465,"8":0.1149974095045388,"9":-0.42023276819460925,"10":-0.5195085039766703,"11":-0.37888993459492193,"12":-0.09843934601777117,"13":-0.01542958372606693,"14":0.06731256901670966,"15":-0.21812451824604215,"16":-0.24343085390864933,"17":-0.02211121598166969,"18":0.025898590345445633,"19":-0.10448633412334393,"20":0.16634640406596274,"21":0.34852441426239616,"22":0.20871233013728308,"23":0.41440031542457906,"24":0.18691581912778552}},{"sx":5,"sy":5,"depth":1,"w":{"0":-0.26581085581067276,"1":-0.6723695361231394,"2":0.2740684242536256,"3":-0.11709324923642207,"4":-0.7048927381830478,"5":-0.29967418941733664,"6":0.27420001981571107,"7":-0.6298441079025638,"8":0.7050966582087114,"9":0.2406903205968264,"10":-0.006682226429008415,"11":-0.031609723579161794,"12":0.3122300508795048,"13":-0.38211691197534436,"14":0.3418592310070756,"15":0.4074690198882152,"16":0.008742409075575082,"17":0.11587168648917387,"18":-0.030012462399416448,"19":0.05130780185680138,"20":0.2491462382580163,"21":0.21746760096215448,"22":-0.18121975316742028,"23":-0.29318496033469615,"24":-0.5903211019598069}},{"sx":5,"sy":5,"depth":1,"w":{"0":-0.31430975045104464,"1":-0.04809757837150756,"2":0.17095630755950147,"3":-0.34198757146467224,"4":-0.5444923420700728,"5":0.41852662671963314,"6":-0.16137656574049883,"7":-0.32079437152091733,"8":0.3783609451904747,"9":0.009122500497272272,"10":-0.27989783048153516,"11":-0.03989987675140839,"12":-0.09531452144130907,"13":0.008988917092339354,"14":-0.024237721792414343,"15":-0.42288093151129524,"16":-0.013762767469587127,"17":-0.031141463924102712,"18":-0.18902409414961757,"19":-0.10082616510544419,"20":0.4552872332722045,"21":0.42611910307239936,"22":0.30194285193610715,"23":0.321455965733619,"24":0.15685127926053025}},{"sx":5,"sy":5,"depth":1,"w":{"0":-0.10344934344454838,"1":-0.2746413797914022,"2":0.014245026060262091,"3":0.2547135404732733,"4":0.0930153062323955,"5":-0.4094954800830363,"6":-0.2059905146375403,"7":0.18914299653788255,"8":0.26891979661442605,"9":0.1506220996529852,"10":-0.20697964685860307,"11":0.053628510980428784,"12":-0.12989585251642613,"13":-0.0155877783939257,"14":0.10759840165471624,"15":-0.6286347361119662,"16":0.1880477024488058,"17":0.09632676253206487,"18":0.20695548303598615,"19":0.3149741192455717,"20":-0.19506376475585185,"21":0.24266009467658337,"22":0.21544134955600658,"23":-0.08898497710181846,"24":-0.16088678890711675}},{"sx":5,"sy":5,"depth":1,"w":{"0":0.33688181095430986,"1":0.20300590028917567,"2":0.0805234629688,"3":0.19704412481776057,"4":-0.2135833696448261,"5":0.054414830946442505,"6":0.11896589943139672,"7":0.03267295327486556,"8":0.4363852983846331,"9":-0.7993600855568027,"10":0.2374248073648165,"11":0.20297468757157244,"12":0.0700008727438214,"13":-0.7051296410840918,"14":-0.013200850750169357,"15":0.23204050471490956,"16":-0.24103146668780856,"17":-0.3073691835203461,"18":0.08804668718678015,"19":0.010389225503333583,"20":-0.4240813264907257,"21":0.01890653640965982,"22":0.041603015753801716,"23":-0.01752164634182868,"24":0.02494515063167716}},{"sx":5,"sy":5,"depth":1,"w":{"0":0.20978285760635498,"1":-0.7024448274186914,"2":0.32929107401354185,"3":0.24638158906071947,"4":-0.18133207315699396,"5":0.5470784812984285,"6":0.0430277353003993,"7":-0.1693668188268493,"8":-0.3573824867066723,"9":-0.08934704858091255,"10":-0.24156743427362,"11":0.5014037832077899,"12":-0.17131846589660768,"13":-0.39730967081920293,"14":-0.011843893638797474,"15":0.0726115202069539,"16":-0.1472910136332159,"17":-0.08592348091758734,"18":0.06398978592893412,"19":0.27084961794870366,"20":-0.5488303886394068,"21":-0.11056748909661245,"22":0.24717199806059853,"23":0.4581131543999096,"24":-0.09495527628621736}},{"sx":5,"sy":5,"depth":1,"w":{"0":-0.14497382600304287,"1":0.18603291657215615,"2":0.07768854889846134,"3":0.02266390519567447,"4":-0.07736636896951889,"5":-0.40536250725608797,"6":0.12519547648827226,"7":0.23205317604829226,"8":0.12612087615021095,"9":-0.1315647104237499,"10":-0.45251961590970835,"11":0.12369937129580708,"12":0.00888078644920477,"13":0.07047477793659775,"14":-0.11893772951351259,"15":-0.08333742276399043,"16":-0.01601184815044621,"17":0.2648372088984441,"18":0.2333222716814649,"19":-0.22834902577359428,"20":-0.07171077423870748,"21":0.2594415307126963,"22":-0.011660567760959539,"23":0.07309556629783547,"24":-0.25323223699154457}},{"sx":5,"sy":5,"depth":1,"w":{"0":-0.010893809398900643,"1":-0.019055834006090087,"2":-0.07557835045660692,"3":0.0011218977084165042,"4":0.17256160362666453,"5":0.12483942595129507,"6":0.35552000799006195,"7":0.12061275074589281,"8":-0.5881066120477197,"9":0.0958609952063275,"10":-0.1333451835253866,"11":-0.26415873298521414,"12":0.15666378252955007,"13":-0.12337045572067146,"14":0.2031978522034307,"15":0.03024539067680374,"16":0.3523171291314896,"17":0.1714461632381252,"18":-0.6595216971753164,"19":0.004724286676590396,"20":-0.13442274195248433,"21":0.5131467713117287,"22":-0.3622228497551016,"23":-0.37340302987055174,"24":0.14575255032932496}},{"sx":5,"sy":5,"depth":1,"w":{"0":-0.7028386308402634,"1":-0.5242472719820239,"2":-0.8976636425334604,"3":-0.49172605953921167,"4":-0.4573455425785891,"5":0.025967402938455078,"6":-0.32631227753857495,"7":0.18669135801473796,"8":-0.04194169531704178,"9":0.10854491148456105,"10":-0.32174726156655364,"11":0.26042250875040074,"12":0.33579138919740936,"13":-0.0664775808567297,"14":-0.006854534644591934,"15":0.25278552045201397,"16":0.26583072534021585,"17":0.4400556010443624,"18":0.3611269475925344,"19":-0.3574367886241551,"20":0.1882730162948107,"21":0.6032576352630798,"22":-0.012945779881560567,"23":0.18868315386607012,"24":-0.38128926331872054}},{"sx":5,"sy":5,"depth":1,"w":{"0":0.011583815445173852,"1":-0.1696449372788216,"2":-0.06793019058203414,"3":-0.07127976697562276,"4":0.1047376660382282,"5":0.06400384256574437,"6":-0.11186828476358071,"7":0.10784009317971238,"8":0.05868107658255724,"9":0.47727330556439757,"10":0.1672849203865881,"11":-0.289030055521529,"12":0.1663589414269258,"13":0.046634632327016784,"14":0.09900391532484507,"15":0.411184062331402,"16":0.05373887400626112,"17":0.14430620701154998,"18":-0.09117556053490856,"19":-0.4744187782765318,"20":-0.21845232416553959,"21":-0.12021795331786417,"22":-0.3160067707694353,"23":-0.12913590517415385,"24":-0.14150418274965235}},{"sx":5,"sy":5,"depth":1,"w":{"0":0.010346974468147734,"1":0.09170801458883403,"2":0.5564292934309549,"3":0.030697610007859734,"4":-0.10551420530405131,"5":0.195699531580236,"6":0.1454017076053611,"7":0.10009053427269017,"8":-0.008422790660234738,"9":-0.5994501339442366,"10":0.013439277680233957,"11":-0.027196781605781463,"12":-0.282887403062196,"13":-0.275134796988365,"14":-0.29734029976133414,"15":-0.4927335262508213,"16":-0.01545639778935133,"17":0.2177539729960274,"18":0.4736329424650678,"19":0.12252406601596974,"20":-0.07372636105731425,"21":0.4151018569484715,"22":-0.4310266980504591,"23":-0.15184117074676046,"24":-0.35741799624090853}},{"sx":5,"sy":5,"depth":1,"w":{"0":0.1007425739019476,"1":0.016456643996455626,"2":0.30717980184691623,"3":0.22186448050298976,"4":0.026783029769495145,"5":0.28181843274683954,"6":-0.3507176205551012,"7":0.27400147022919547,"8":-0.21670946195265667,"9":0.07160352187218216,"10":-0.06432095130860419,"11":-0.07959374326773178,"12":-0.38005879497423994,"13":-0.09294183187601643,"14":0.2105040215389154,"15":0.4166349768325557,"16":0.19868012787213415,"17":0.429154096131861,"18":0.461468277740729,"19":0.27477585547902705,"20":-0.6440527506828508,"21":-0.47918532705025546,"22":-0.7582642174337302,"23":-0.4964648229216691,"24":-0.4933957112763771}},{"sx":5,"sy":5,"depth":1,"w":{"0":0.3957740057807037,"1":-0.16804333998204216,"2":0.2010170864122788,"3":-0.21394391781217306,"4":-0.09829639629543235,"5":-0.13506125509595823,"6":0.07948557232238689,"7":-0.21469914399091583,"8":0.11276821252703224,"9":0.32661411103877963,"10":0.05964264738277114,"11":0.0393494149460664,"12":-0.43474664501614707,"13":0.006148153330817025,"14":0.3026143959685704,"15":0.36443563416104024,"16":-0.058447065756357254,"17":-0.28983858166413357,"18":-0.24362121003508366,"19":0.4924862645928578,"20":-0.11086130463472527,"21":-0.17657241004871432,"22":-0.39526529065795335,"23":-0.2676285291172377,"24":0.3382621475033622}},{"sx":5,"sy":5,"depth":1,"w":{"0":-0.37678813949146645,"1":0.0014447232682351032,"2":-0.2707191315257347,"3":-0.13225967387989035,"4":-0.5501055710566134,"5":0.400563285593109,"6":0.09271453480581412,"7":0.111434617554025,"8":0.04318033967335382,"9":-0.14588116745550464,"10":0.0029880097921229616,"11":0.2631533145455053,"12":0.22948972607363957,"13":-0.17370189952685477,"14":-0.38277010726856264,"15":0.1079718090491113,"16":0.46576617957104416,"17":0.1494734827454242,"18":-0.1256913222275097,"19":-0.8563995397438983,"20":0.1731342848413562,"21":0.299540518933533,"22":0.49058133223041805,"23":0.129558568302313,"24":-0.5709912489160066}},{"sx":5,"sy":5,"depth":1,"w":{"0":0.17255223504565811,"1":0.09291592630169263,"2":-0.004306408688375434,"3":0.1883498933347659,"4":0.13180888039660632,"5":0.04528868402499888,"6":0.19003392871258698,"7":0.04612332392727048,"8":-0.0251214022668266,"9":0.34174925705156867,"10":-0.2973413423817095,"11":0.25050979069946133,"12":0.1723371663082292,"13":0.179168306124956,"14":0.24679256076686676,"15":-0.20456670479418548,"16":-0.37137016664087835,"17":0.17208571381227944,"18":0.0394294489526921,"19":0.07866203821329998,"20":-0.18969565975959088,"21":-0.5377634908723352,"22":-0.48564518230798237,"23":-0.27691997777796107,"24":-0.13979809113450664}},{"sx":5,"sy":5,"depth":1,"w":{"0":0.3411457273217179,"1":-0.04112299617639071,"2":0.42435575041034096,"3":0.05084208358959944,"4":0.23530488455181575,"5":-0.15025475218613735,"6":-0.27336102597996376,"7":0.33728588641111434,"8":-0.23720381876912744,"9":0.36172061673060185,"10":-0.3950876685377105,"11":0.10175256516441882,"12":-0.2252833629759097,"13":-0.07165506554850769,"14":-0.156186976691006,"15":0.4146666978998394,"16":0.030898025599917434,"17":0.2839103700652864,"18":-0.21213212966420594,"19":0.06329743886496499,"20":-0.03745770069350643,"21":-0.1967252613309745,"22":-0.6820983262656862,"23":-0.25269379028615946,"24":-0.03381780163075653}},{"sx":5,"sy":5,"depth":1,"w":{"0":-0.24367723575256173,"1":0.15661365063440494,"2":0.19247445228316995,"3":-0.0013842153591437111,"4":-0.17658620100916742,"5":-0.018260564151637796,"6":0.4013137047501267,"7":-0.3875209565455145,"8":-0.2821679757398215,"9":0.2591935236243148,"10":0.6980382046421777,"11":-0.21360095804406898,"12":-0.331693606793283,"13":-0.03705730761786503,"14":-0.1511605050653858,"15":0.19963594504441282,"16":0.056730057184055036,"17":-0.06195792069591795,"18":-0.18637775472895665,"19":-0.0365433257712384,"20":-0.17904785356366054,"21":-0.0184122004998077,"22":0.0029819116130969875,"23":0.21515189845148305,"24":-0.10629275594389083}}],"biases":{"sx":1,"sy":1,"depth":36,"w":{"0":0.14256627877094988,"1":0.05421903508492384,"2":0.14471800349249078,"3":0.1051612921040344,"4":-0.00949039187149322,"5":0.023672215998351218,"6":0.11896432903517991,"7":0.13605406622567817,"8":0.04604127427305777,"9":0.05094845562810471,"10":0.31219305080578064,"11":0.05851113566027639,"12":0.2239019594526086,"13":0.0909983200314266,"14":0.1448270705110285,"15":0.22138727005909217,"16":0.06599297557591388,"17":0.1445160760590446,"18":0.07508245097876744,"19":0.0717467104217267,"20":0.28519256756145345,"21":0.06783646762573768,"22":0.028620408460001207,"23":0.12126840571910795,"24":0.1151563835189029,"25":0.056256013275540515,"26":0.05859439369339349,"27":0.324846863431084,"28":0.09456215651757835,"29":0.23431723588522468,"30":0.2781891431256672,"31":0.07430040767421876,"32":0.30824035226617746,"33":0.13356150205738004,"34":0.14170772932075773,"35":0.10248478032526265}}},{"out_depth":36,"out_sx":22,"out_sy":22,"layer_type":"relu"},{"sx":2,"sy":2,"stride":2,"in_depth":36,"out_depth":36,"out_sx":11,"out_sy":11,"layer_type":"pool","pad":0},{"sx":5,"sy":5,"stride":1,"in_depth":36,"out_depth":72,"out_sx":7,"out_sy":7,"layer_type":"conv","l1_decay_mul":0,"l2_decay_mul":1,"pad":0,"filters":[{"sx":5,"sy":5,"depth":36,"w":{"0":-0.10492051899685874,"1":0.0016667513795031535,"2":-0.10384241259738011,"3":-0.002887543970233047,"4":0.010704101455940421,"5":-0.06189698583071831,"6":-0.0875329917102641,"7":-0.019305861958278506,"8":-0.010279001454684744,"9":-0.0031671100331643587,"10":0.0008653874365343431,"11":-0.03121233312619922,"12":0.08003351487451593,"13":-0.036316219978106364,"14":-0.04684129354855586,"15":-0.022438647377699718,"16":0.02771359114361416,"17":-0.01688723384435128,"18":-0.04652885902526998,"19":-0.029038406038175313,"20":-0.13756795145744227,"21":-0.02707095097422999,"22":-0.06511458601736868,"23":0.10541718252332637,"24":-0.0008057216514808566,"25":-0.044174723416039716,"26":0.03929214448522331,"27":-0.19654100966278937,"28":0.019658780053935287,"29":0.0018007484284836644,"30":0.007071058397097602,"31":0.026028258509999628,"32":-0.07178687080428145,"33":-0.014440223791150163,"34":-0.01388586856246828,"35":-0.01832496526820095,"36":-0.10109372850755777,"37":0.048750407434516654,"38":-0.08863438770429946,"39":0.01814013091729736,"40":-0.013757941046079079,"41":-0.025913343554820736,"42":-0.1079674070632493,"43":0.061475541564760566,"44":-0.056591179615380106,"45":-0.0633414019188045,"46":0.03671735194757123,"47":0.05529860317246211,"48":-0.17316466628934593,"49":0.010306764160299443,"50":0.056609087139642085,"51":-0.13025824032011654,"52":-0.05070057539451399,"53":-0.12499090982244873,"54":0.03843422843112045,"55":-0.05942928655062072,"56":-0.05497947667849499,"57":-0.1342370514720487,"58":0.055460660492432964,"59":-0.05908901736729717,"60":-0.04928687158811763,"61":0.013652567641663785,"62":-0.011593371590711462,"63":-0.10307225367262124,"64":0.02058847071278807,"65":-0.020655928059757227,"66":0.12531553548681726,"67":0.03342900411378394,"68":-0.07950218358512388,"69":0.03627181245406797,"70":0.06727813818660286,"71":-0.09628955690417394,"72":-0.04209389911402348,"73":-0.004240618497933814,"74":-0.07274688203922444,"75":-0.05282714866895039,"76":0.010201428370174681,"77":0.06952439525318874,"78":-0.13833661848311324,"79":-0.02836964124591244,"80":0.11744255151770158,"81":-0.017928904348661547,"82":-0.06500271563190961,"83":0.030781801471125456,"84":-0.06739664379317634,"85":-0.05004471712877558,"86":-0.07876093276848024,"87":-0.10212572560266296,"88":0.0837672554950005,"89":-0.050864783752732554,"90":-0.01798316036092355,"91":-0.03591871824513065,"92":-0.12353126591887391,"93":-0.11360226361469408,"94":-0.0019925907990227497,"95":0.03854379393511335,"96":0.048328351720867906,"97":0.03817306539242246,"98":0.027192233748447793,"99":-0.12233124631419803,"100":0.07678639836206141,"101":0.05812757957327926,"102":-0.010506622298877248,"103":-0.029768994740583556,"104":-0.022005134994411795,"105":0.0666837492546122,"106":0.09927466765346801,"107":-0.0006383385627034256,"108":-0.1257980472397708,"109":0.0091871785941287,"110":-0.08215085774325735,"111":-0.03672406396697233,"112":0.02786908410872134,"113":-0.019043290534218243,"114":-0.06761322870557832,"115":0.033319783584137994,"116":0.012301998848567091,"117":-0.05479588722535294,"118":0.004968877221428286,"119":0.022170084442667572,"120":-0.0640366168848202,"121":0.0031876283561619667,"122":0.09617484699328888,"123":-0.07157448891956711,"124":-0.00687920412378994,"125":-0.01179207236552301,"126":0.009607417929855906,"127":-0.049709271286218486,"128":-0.11061072274860703,"129":-0.09051820141078303,"130":0.008613734102271058,"131":-0.025210717140223098,"132":0.038525905405596736,"133":-0.06993792772199334,"134":0.057566344762566696,"135":-0.15971680508144542,"136":0.06395549024786046,"137":-0.06416621299790398,"138":0.10609171517974764,"139":0.04502123633856539,"140":-0.09822445053549554,"141":0.01837485253952327,"142":0.06958156584381749,"143":0.04385935525238885,"144":0.005987345909153471,"145":0.05190302396465177,"146":-0.1307226280048745,"147":0.03764525464050944,"148":0.042856367101847696,"149":-0.05998684006706061,"150":-0.08589236882154644,"151":0.06732185244253315,"152":-0.015381725805561262,"153":-0.010571671631977787,"154":-0.04162639002977015,"155":0.019073105206630265,"156":-0.014556659742431997,"157":0.027328995833336193,"158":0.02918135431805662,"159":-0.10970835624903774,"160":-0.0274808348713186,"161":-0.13846886616724746,"162":-0.014569134160180464,"163":-0.07208889960059127,"164":-0.033421855630337616,"165":-0.10550107980952624,"166":0.06391888601667156,"167":0.003071912280823873,"168":-0.021493842563738562,"169":0.12788184566846986,"170":0.07069391444918986,"171":-0.1395019320884263,"172":0.034687960664192725,"173":0.07860197131860995,"174":0.07353476557939044,"175":-0.06372414635647228,"176":0.03512622498419386,"177":0.07018415962445734,"178":0.10287361384134733,"179":-0.029104096195164835,"180":-0.08933312327186493,"181":0.06404436653522075,"182":-0.05256970827354762,"183":0.016569898786314843,"184":0.04530789845573359,"185":-0.0658721471187904,"186":0.05143633855868706,"187":0.006335932304119756,"188":-0.04187708433302553,"189":-0.07058107503948587,"190":-0.06976790372364436,"191":0.04351645463024597,"192":0.016237312516970307,"193":-0.04708706059729732,"194":-0.05926339940620955,"195":0.09372661195758725,"196":0.07373575100636805,"197":0.007745704285585196,"198":-0.016439526719809305,"199":0.0567544254481216,"200":0.0558930488818553,"201":-0.003914186910217595,"202":-0.10945175015423836,"203":0.022346460286521076,"204":-0.013004504025319687,"205":-0.06854257710092365,"206":-0.011631203301354386,"207":-0.07949002977497396,"208":0.04769760995506682,"209":0.04582596986958171,"210":-0.007790465783822233,"211":-0.04568605098965956,"212":-0.0817498181353812,"213":-0.048815696500938886,"214":-0.016741170029826672,"215":0.023846373816822346,"216":-0.021369025517174532,"217":-0.06098954361549975,"218":0.05785030209876878,"219":0.10522000537994929,"220":0.06032985159988916,"221":-0.03314844441442563,"222":-0.004252611254236875,"223":0.07120041196550181,"224":0.10402176117672804,"225":0.06076487786257181,"226":0.06020767933050715,"227":0.08718437033537499,"228":-0.037127418577587966,"229":0.04957148950782216,"230":0.0395342757095387,"231":-0.05232405370996257,"232":-0.02398109100190708,"233":-0.04925360762541111,"234":-0.004803690905053304,"235":0.016710215216195836,"236":0.03898753416928485,"237":0.015738652061820027,"238":0.006117676923656474,"239":0.04361669398702681,"240":0.10141184600669091,"241":-0.09492436581251994,"242":-0.012665549330090075,"243":0.018085560316893557,"244":0.06494973780444305,"245":0.036846779405093684,"246":0.03723280039654947,"247":-0.06122083309181694,"248":0.02689453737808266,"249":0.00858057325554524,"250":0.10946156258512642,"251":0.032819380128591834,"252":-0.057979455917768125,"253":0.1038931182235727,"254":0.02939327958690772,"255":-0.013828112188933274,"256":0.000918302442981397,"257":0.07750752086843726,"258":-0.011468599568231267,"259":0.012981658989533993,"260":0.07923258592465014,"261":0.024755678857859505,"262":-0.09669597184964414,"263":-0.01489606384121498,"264":0.06365136391216294,"265":-0.019839282132593974,"266":-0.0971033518201916,"267":0.10318422082485143,"268":0.13536052850863758,"269":-0.006391460296475484,"270":0.023762223931327757,"271":0.03698976598918115,"272":-0.08199378500378711,"273":-0.019602406710907676,"274":-0.07380642068645066,"275":0.11163153614047792,"276":0.04489243772893868,"277":-0.013553448639505144,"278":0.04988920863524412,"279":-0.08819041955408166,"280":0.01121900309941505,"281":0.05773651096905603,"282":-0.013598447546940277,"283":-0.0023620617091113603,"284":-0.07418161724716471,"285":-0.00933668955386266,"286":-0.021630829742347302,"287":0.051333023943932105,"288":0.02543350142607197,"289":0.050324696840944594,"290":0.04163136795360657,"291":0.12753337272262366,"292":-0.02319412556685696,"293":-0.02147848435619921,"294":0.10776987295431621,"295":0.049491670826585774,"296":0.10532371100279653,"297":0.04549223848255593,"298":0.05206711761342614,"299":-0.004149979811423853,"300":-0.004764703856335126,"301":0.13724425081840388,"302":0.03758953827147483,"303":0.00817262899120816,"304":0.020696495576987547,"305":-0.013741025352920412,"306":-0.024958851018664147,"307":0.1120500702018046,"308":0.09649260082176354,"309":0.026580760194171264,"310":0.011134823467652767,"311":0.012561251166156117,"312":-0.004890749253170202,"313":-0.006786057215357326,"314":0.005692288961024604,"315":0.01470066933068978,"316":0.06044068003413721,"317":-0.03330543975730987,"318":0.009330135750809565,"319":-0.010309312910583244,"320":0.04050018980613302,"321":0.028596418733881083,"322":0.11885009095319864,"323":0.030676618907721935,"324":-0.06449904014649493,"325":0.06462308946516744,"326":0.03729554017906852,"327":0.02905345568058751,"328":-0.02062273919463785,"329":0.02320090033092488,"330":0.07751189633496162,"331":0.03579157431645133,"332":0.10961296750686378,"333":0.07088808537451194,"334":0.08725182325379108,"335":-0.039439739804851694,"336":-0.05220262760995685,"337":0.04359441585464453,"338":0.024539026388381024,"339":0.13519254094179078,"340":0.015400614585419933,"341":-0.0013164982806837026,"342":0.006872445109767455,"343":-0.016445049767406884,"344":0.10112262231064986,"345":0.034643829633230656,"346":-0.029859956944118013,"347":0.12040537664157175,"348":0.0991923084481637,"349":-0.050659434156954807,"350":0.018879767960426893,"351":-0.07442772138129622,"352":0.11807193241779528,"353":0.0736902856800748,"354":-0.017403791968329238,"355":-0.031949513761412085,"356":-0.02604485915705538,"357":-0.022609882027430393,"358":0.054489278259671765,"359":0.017699920971944946,"360":0.09730693973745524,"361":-0.018581615922734895,"362":0.029076017811222415,"363":-0.014880809863306733,"364":-0.03941397925713912,"365":-0.052142358137718885,"366":0.004255895211331202,"367":-0.01400418634057166,"368":-0.02356789409562511,"369":0.04171770376367422,"370":-0.07299633623098738,"371":0.03717996071954555,"372":0.04075149258900011,"373":-0.008582994375584923,"374":-0.05203814413828874,"375":0.03481299276288133,"376":-0.047063925447368087,"377":-0.06070109166371302,"378":0.029178265236571584,"379":0.02300584802242454,"380":0.08332052291124731,"381":-0.030674130534523444,"382":-0.02865460203931379,"383":-0.06486229337736947,"384":0.03138486703064888,"385":-0.0010203174380478592,"386":-0.019654495011141207,"387":0.08744349351139674,"388":0.004844365861163201,"389":-0.0867838954455493,"390":-0.022228375337982647,"391":-0.05515313926070506,"392":0.008011477960040708,"393":-0.04184005556443904,"394":0.041500993159078056,"395":0.03875110602811305,"396":-0.04606060160103266,"397":-0.01954206359217037,"398":0.024266093208946193,"399":0.059600516846319444,"400":-0.02615298190369703,"401":-0.0641608942328808,"402":0.07833963631548987,"403":-0.05555386248631466,"404":0.08362019545952967,"405":0.029346747224695064,"406":-0.006824380234885089,"407":0.006143255381398287,"408":0.02092964012252959,"409":-0.0025963408603981277,"410":-0.03483703550035491,"411":0.05446813659407304,"412":-0.009626380159309035,"413":0.04370085796693317,"414":0.005461300224368323,"415":-0.02473946858421909,"416":-0.002486709314675962,"417":0.08332855904965923,"418":-0.07293156661141972,"419":0.08198665433854632,"420":0.10984521257762628,"421":-0.032410368765052315,"422":-0.041807966591272054,"423":0.014778829426984804,"424":-0.04662193594110035,"425":-0.011898502892727335,"426":0.04678884596198719,"427":0.03297700467283493,"428":0.07565636865592876,"429":-0.0376448379180386,"430":0.020599317271001588,"431":0.09472281814480843,"432":0.07242775295649061,"433":0.07685153373324691,"434":0.07127865283058972,"435":-0.022480070360219897,"436":-0.053784158708133245,"437":-0.0362182613544501,"438":0.0767786087907891,"439":-0.0734400517783157,"440":-0.01114008468647534,"441":0.05528533057994295,"442":0.05315317539621468,"443":0.003949825405782307,"444":0.07979919931621535,"445":-0.026802252886255477,"446":-0.013537229854764736,"447":0.11735225147723019,"448":0.052090343357244995,"449":0.01353566867115754,"450":0.04994619589959907,"451":0.06576852349493867,"452":0.024031151046521478,"453":0.0369264239176668,"454":-0.02654348200260999,"455":-0.09668471376634902,"456":-0.08149729125074012,"457":-0.06524661031443332,"458":-0.01997685409719405,"459":0.06105960006031748,"460":-0.026692282219766314,"461":-0.03346299491402267,"462":0.03503786197429832,"463":0.07261435264775852,"464":0.006696324124427212,"465":-0.010111501981744342,"466":-0.018705146472266652,"467":0.14136233869494405,"468":0.04173266445703414,"469":-0.025394339990261985,"470":-0.050933168095375826,"471":0.02833820412336971,"472":0.020312581718517065,"473":0.08160097100359144,"474":0.056692913944514256,"475":0.04082362760172998,"476":0.009773817825034921,"477":0.019364697564763847,"478":-0.0058083039877152385,"479":0.0010211899020222252,"480":0.06184789210199547,"481":0.13129591259041284,"482":-0.1048335238292858,"483":-0.005214457516705967,"484":-0.05744378829566885,"485":-0.0146179299354779,"486":0.08575749405138654,"487":0.026565679902262832,"488":0.06933873523489369,"489":0.06719003071349774,"490":-0.03753746356944835,"491":-0.002834651011974013,"492":0.10058056307492803,"493":0.027190774270863145,"494":0.013258609953383512,"495":0.08394480580029058,"496":-0.045566944514183985,"497":-0.05673260184591166,"498":0.00797024790813979,"499":-0.004577931125823998,"500":0.02219223686706947,"501":0.013496380445558516,"502":0.02076115397319905,"503":0.07719280921132775,"504":-0.04463457690975438,"505":-0.030988838764309443,"506":0.09010509287327101,"507":0.05458733387915989,"508":-0.06839453121091255,"509":0.0009318456948501147,"510":0.0661626495966346,"511":0.07556811093276362,"512":0.12756392656469967,"513":0.04639083342981043,"514":0.11415849820051625,"515":0.06258678442157817,"516":0.04209559902054103,"517":0.08689400727335739,"518":-0.029762454969061235,"519":0.20556402489889053,"520":-0.0010093694866361693,"521":0.22332224528376743,"522":0.08131168096170772,"523":0.1017495478634712,"524":0.06136894753902761,"525":0.05985811872600727,"526":0.004895821382830887,"527":-0.031222598031980832,"528":0.13801781255915213,"529":-0.09543863614221904,"530":0.010166312556935985,"531":0.09286154418604596,"532":0.02233287304076155,"533":-0.049175238206336444,"534":0.040539707976481584,"535":0.008651196347173427,"536":0.08831530821201136,"537":-0.03625119582023135,"538":-0.03198004729636653,"539":0.13228884463193655,"540":0.05429626536918033,"541":0.09100518355257005,"542":-0.01578486970322357,"543":0.02789230045311961,"544":-0.03135326415399209,"545":-0.04026044434339547,"546":-0.0009308016637915272,"547":-0.008904530221381057,"548":-0.009597267267235945,"549":-0.010356879884368864,"550":0.007508653943847866,"551":-0.05877810520483322,"552":-0.020160848916617097,"553":0.007256004173154278,"554":0.040704795605664375,"555":0.006481807579967623,"556":-0.05503716429286563,"557":-0.038312404828700304,"558":-0.032909978427909936,"559":-0.01963796666535923,"560":0.08859129132859501,"561":-0.013683997799872404,"562":-0.0010058254329606154,"563":-0.04511864147779521,"564":-0.0647831850413331,"565":-0.020643533871941216,"566":-0.026164097707593353,"567":-0.018220569384368987,"568":-0.012556345954622048,"569":0.006504672251642207,"570":-0.02314711440389002,"571":0.01683897103310233,"572":0.06184539631762758,"573":-0.023082236971915443,"574":-0.058267521862934046,"575":0.024748195918387055,"576":-0.013356340364873775,"577":0.03281926476966616,"578":0.03402543435036631,"579":-0.04071505770356453,"580":-0.03855063519182963,"581":-0.005281969035061978,"582":0.029443702138260072,"583":0.04724536536167652,"584":-0.020392353383793922,"585":-0.013291270941421497,"586":0.012458830444538722,"587":-0.033349765704019874,"588":0.07130355226149596,"589":-0.015011338047372494,"590":-0.022673437501407497,"591":0.02943964557938114,"592":0.022968377766852982,"593":0.00454640672359136,"594":-0.00823043250324053,"595":-0.0950128303948977,"596":0.010211052127181462,"597":-0.018723175689632904,"598":-0.035156534421803776,"599":-0.04672722960430238,"600":0.0055467472569905585,"601":0.015047871653035559,"602":-0.028990192889952766,"603":0.03733510262295589,"604":0.03193532880504032,"605":0.012910045674487537,"606":-0.005071765759940172,"607":0.07730539253865565,"608":0.013070618347162053,"609":-0.013425608354921471,"610":0.007574864187029382,"611":-0.04695624947303875,"612":-0.018307815204852532,"613":0.01717885339265293,"614":0.01570418554333753,"615":-0.024530932952638772,"616":-0.07721083351267731,"617":-0.07404602654483189,"618":0.02180160366804866,"619":0.017346202409101726,"620":-0.014343331097181191,"621":-0.017735505688104,"622":0.04381235796475608,"623":-0.03895164175441745,"624":0.004939811850245697,"625":-0.05052995534384433,"626":-0.012836725287744582,"627":-0.05125568143369576,"628":-0.09399511905289085,"629":-0.007031557600814749,"630":0.06928477791638818,"631":-0.07512529577918003,"632":0.04440294987902279,"633":-0.01981558644761533,"634":0.04843615369320578,"635":0.028841896624606282,"636":0.05878299894383057,"637":0.011796505107791634,"638":-0.061842607947476334,"639":-0.03212795165977516,"640":-0.026179818850717282,"641":-0.005119639872316179,"642":-0.02123385493813492,"643":0.01624743299057265,"644":0.026439798692283693,"645":-0.03006137270331638,"646":-0.01652787578243877,"647":0.008711514078729832,"648":0.04861146932019376,"649":0.046329053455029676,"650":-0.07320084798094224,"651":-0.010373464267988337,"652":-0.048543637485304374,"653":0.017787119544344532,"654":0.05099737762170721,"655":0.0035495697170933047,"656":-0.02462424540793695,"657":-0.020016257896491398,"658":0.005110248116709026,"659":-0.045090912568965906,"660":-0.0031270501098676342,"661":-0.028999178297565303,"662":-0.04366467557802148,"663":-0.015990547649967796,"664":-0.05330686356887429,"665":0.05908572312113189,"666":-0.05863706305111399,"667":-0.04296847238412423,"668":0.07351032261259124,"669":-0.010699804882026149,"670":0.03815508179226953,"671":-0.054696405085019474,"672":-0.007489822881531395,"673":0.03386444941432355,"674":-0.004393617064294144,"675":-0.024737335457160097,"676":-0.0019232554575398886,"677":-0.034839326506453314,"678":-0.01912820030903311,"679":0.025731269771341273,"680":0.09539467286145621,"681":-0.02329628192472405,"682":0.026351523113290483,"683":0.0479158003065446,"684":0.13875166894772914,"685":-0.04380549118133453,"686":0.043610097796173974,"687":0.004615882273197647,"688":0.003957693735562513,"689":-0.049752635225397884,"690":0.10440635225584231,"691":-0.030011763518734528,"692":-0.05885728163031922,"693":0.008902175997138308,"694":0.1317151615853956,"695":-0.025494619950454264,"696":0.10237480459827715,"697":-0.03262589125469243,"698":-0.004558293508332594,"699":0.024558136551965405,"700":-0.06036930511128961,"701":0.06847430875456315,"702":-0.0014452575370728139,"703":-0.024425016412582125,"704":0.027883223542716773,"705":-0.014491028313856989,"706":0.031117652325546623,"707":-0.04567002795939296,"708":0.02193314632471843,"709":-0.029033812202428493,"710":-0.05551569887572753,"711":0.04992344668110659,"712":0.003782305611160503,"713":-0.05079317913374874,"714":-0.02649254292412289,"715":-0.0007306410967842072,"716":0.0170021131324577,"717":-0.006368263994929248,"718":-0.03279032185590013,"719":0.008411562954904942,"720":-0.07597373907699925,"721":-0.003908228877461589,"722":0.007302251738222096,"723":0.03101607589931566,"724":-0.050599846924836926,"725":-0.0029747223094823507,"726":-0.0699402223423124,"727":0.010796183743123123,"728":-0.026458837148163227,"729":0.00697628169186782,"730":0.04137247832607097,"731":-0.011670173507073172,"732":-0.021631951555154218,"733":0.054195283924446024,"734":-0.0023048745081238014,"735":-0.002630753640130907,"736":-0.021091121229267235,"737":0.05417160598315386,"738":0.034001080686462064,"739":-0.034599121061317024,"740":0.018539241191548993,"741":-0.0815934516135428,"742":0.001386757529426052,"743":-0.024928603760022584,"744":0.03682532977309413,"745":-0.02727883362543554,"746":-0.008587378509204272,"747":0.04808844533150282,"748":-0.015683496221250745,"749":-0.0016784458988980192,"750":-0.009051474812725597,"751":0.004224137504023095,"752":-0.012730865479870774,"753":-0.00887088261071659,"754":-0.014445660076014838,"755":0.003638039547210468,"756":-0.0048516469468547745,"757":0.021040808601145253,"758":0.006857210385568327,"759":-0.03009350583631672,"760":-0.02192913455168661,"761":-0.06788052450062929,"762":-0.0011514307519220528,"763":-0.0104358729850502,"764":0.019603640660350936,"765":-0.03646673897681245,"766":-0.030798988484790353,"767":0.02905746295687035,"768":0.010611833807125473,"769":0.0013532647130992427,"770":-0.0059719254505876335,"771":-0.004747135090761106,"772":0.01629304669853591,"773":-0.008672415819145152,"774":0.04835448648960784,"775":-0.011716821868003834,"776":-0.03227034365171724,"777":0.009830383755149141,"778":0.0709595551298112,"779":-0.007170350217499684,"780":-0.014020883885370903,"781":-0.024247620585397096,"782":0.009629277933603774,"783":0.015486450548061196,"784":-0.021978901894020294,"785":0.019885450625621314,"786":-0.04148331224065,"787":-0.0211438536723316,"788":-0.005231072153982808,"789":0.023480460219607986,"790":-0.047807495824959204,"791":-0.003739381586740456,"792":-0.007427730697512835,"793":-0.0023792174115592536,"794":-0.011451095451283587,"795":0.005242132217291767,"796":-0.05472431490433382,"797":0.040284446821752924,"798":-0.04373429515997094,"799":-0.001225324747952666,"800":-0.021448651012534604,"801":0.0069795702359361405,"802":0.07467612973995313,"803":-0.01540345931976414,"804":0.004933729597855404,"805":0.02104446588773939,"806":-0.044299814194153124,"807":-0.016139857978455654,"808":-0.07380800931293502,"809":-0.021577230949969786,"810":-0.013102233838004438,"811":-0.015393277980145318,"812":-0.008014558224069858,"813":-0.011413551002944613,"814":-0.03526890889107833,"815":-0.021151359837917872,"816":0.021349306679737674,"817":-0.006303670363013957,"818":0.0028893159022776588,"819":0.011510583657471525,"820":-0.02588574159851797,"821":-0.05986879915563687,"822":-0.061761250238593586,"823":-0.04802135241548658,"824":-0.012764978549625362,"825":-0.055929660859837624,"826":0.00850694479141238,"827":-0.011191726418304687,"828":0.032205610308662085,"829":0.01508834479330067,"830":0.010963435252490468,"831":0.004114767658575459,"832":-0.07731606556437168,"833":0.003966114856349911,"834":-0.08382931597474394,"835":-0.05822751878154671,"836":0.04759595071945551,"837":-0.06572370006105477,"838":-0.009750077522834777,"839":-0.0023582325952632437,"840":0.007714322409317625,"841":0.02085621869540334,"842":0.04553368454564163,"843":-0.014533232841217512,"844":-0.00721533675350829,"845":0.04596464650306434,"846":-0.030119663655729687,"847":-0.026628337880070477,"848":0.004218687190532726,"849":-0.07481555069490135,"850":-0.004962553228266184,"851":-0.037546189589427084,"852":-0.038202884658675315,"853":0.004368648313812042,"854":-0.006725280234650214,"855":-0.012554534782238436,"856":0.046144711928636076,"857":0.023512011098179717,"858":-0.0002886020126067417,"859":-0.022188466281098926,"860":-0.07700660745363634,"861":-0.04541058627617028,"862":-0.05038631341516154,"863":-0.025793166468333174,"864":0.04227958085426605,"865":-0.007505681444727697,"866":-0.03070964593702836,"867":0.005032146357193132,"868":-0.11562237350281256,"869":-0.07414400885284347,"870":0.04227056257425998,"871":0.057494768002264045,"872":-0.04064212789596458,"873":0.01977940185903955,"874":-0.04294079854224433,"875":0.012571926380074086,"876":-0.018584073236257378,"877":-0.032348760947726075,"878":0.017171392822844377,"879":-0.03153523837100483,"880":-0.021100636523129768,"881":0.014680179661209812,"882":0.030777812147976258,"883":0.023040719287182567,"884":0.003282069148176753,"885":-0.02237775964315192,"886":0.008027709854241422,"887":0.004476358301095946,"888":0.003321265743248594,"889":-0.05068261076634043,"890":0.008540891456683072,"891":-0.023767039175785567,"892":-0.05571745799660002,"893":-0.022095580269985027,"894":-0.04625039273646689,"895":-0.0401564628438495,"896":-0.038808606270526125,"897":-0.006662715077966227,"898":-0.009931608956227191,"899":-0.07957091503983413}},{"sx":5,"sy":5,"depth":36,"w":{"0":0.006524437116637245,"1":-0.010848169877726419,"2":-0.06864141371483799,"3":0.009273242345672257,"4":0.024697913617630532,"5":0.036961366144451786,"6":-0.025367925007150894,"7":-0.0027439172577833036,"8":-0.004373245451815315,"9":-0.019177070491788913,"10":-0.030793032205373244,"11":0.01648967643653508,"12":0.036179569542758985,"13":0.042022643065402286,"14":0.06647558164484002,"15":-0.031278668297247125,"16":-0.03444466638166433,"17":-0.013921042146227802,"18":0.02733408587772212,"19":0.030250312923660965,"20":-0.004588952030952402,"21":0.040349680715394694,"22":0.05226270875993454,"23":-0.017677202388047205,"24":-0.03284381627717791,"25":0.14294167336162736,"26":-0.05208112271447649,"27":-0.0714891340825928,"28":0.019037640127975174,"29":-0.003911455228702162,"30":-0.019003843824877572,"31":0.009403081925019494,"32":-0.02413953104297877,"33":0.009757483678388008,"34":-0.000860012352211626,"35":0.020982223447934458,"36":-0.06826967246159518,"37":-0.026793148558526533,"38":-0.023748309716711644,"39":-0.012972765073923783,"40":-0.059339579676743394,"41":-0.05624736674442043,"42":0.0042697615829789485,"43":0.012033177932698116,"44":-0.006626636218042156,"45":-0.05273951972018968,"46":-0.05696411440086195,"47":-0.019431993673943767,"48":0.02257949936469473,"49":-0.04609688943856933,"50":0.00046148142766955745,"51":0.08021920750515463,"52":-0.019793476958908263,"53":0.03308260464815118,"54":-0.024298547999479815,"55":0.009468757412916562,"56":-0.04259774304991141,"57":-0.044904528350807285,"58":0.013806930151091416,"59":0.04426479552740557,"60":0.027515444791313928,"61":0.013147381112638499,"62":-0.03880003805694316,"63":-0.008601959524789283,"64":-0.033699209290825496,"65":-0.008704971228655135,"66":-0.019774898904641555,"67":-0.015316048892099464,"68":0.049971361073051355,"69":-0.027100923228055032,"70":0.004630545470806742,"71":0.008112142880902106,"72":0.049028220736083206,"73":-0.08235132684178019,"74":0.06281506065691078,"75":-0.057304221228835946,"76":-0.05209595162971032,"77":-0.026074731082340565,"78":0.08220944167990873,"79":0.03491179262199496,"80":0.07285046139356066,"81":0.0037941432961660394,"82":0.021864911815956647,"83":-0.042480653785097584,"84":0.04111643899873987,"85":-0.015300910515992992,"86":0.039650388735139486,"87":0.021168779304955847,"88":-0.037187823980915975,"89":0.03779711961029195,"90":0.10912880404575244,"91":0.021667141864501728,"92":0.016278245450198868,"93":0.032997881913779524,"94":-0.0370517575687853,"95":-0.03805707259577067,"96":0.04136082341870475,"97":-0.02218065255841775,"98":-0.04387373537331954,"99":0.04605015015142468,"100":0.022097252412280808,"101":0.025818418776580594,"102":0.03235449157935112,"103":-0.08613184092166568,"104":0.07108209333962191,"105":-0.011515435748439955,"106":-0.0360194826282888,"107":0.008159957349259929,"108":0.012345162228217134,"109":-0.04245640715867038,"110":0.039013100109250534,"111":0.004647196868732446,"112":-0.07089448123958622,"113":-0.031110080440069233,"114":0.024304374351735422,"115":-0.0072578821139486745,"116":0.031101169083428467,"117":0.028169687105866596,"118":-0.008348034788026848,"119":0.026754143622116335,"120":0.0261338312548376,"121":0.04793589937672163,"122":-0.00511912178704878,"123":0.01533792470050742,"124":-0.04543978855017423,"125":0.048921954033018314,"126":-0.0260095625660884,"127":0.023662512544936502,"128":0.03863435557959217,"129":-0.015450107337000306,"130":0.043744027664286825,"131":-0.05412778275895252,"132":0.0019267691506681098,"133":0.008482172396637306,"134":-0.006544701625616925,"135":0.04866300478308707,"136":-0.028986138612853898,"137":0.060249383963064757,"138":0.02376042403585691,"139":-0.05606162921844435,"140":0.04122675566338035,"141":-0.03730703813662073,"142":-0.005032907065720361,"143":0.026615640914885493,"144":0.02255851041210274,"145":-0.0033531002101856904,"146":0.009344905623820683,"147":-0.018396904836444253,"148":0.002940698437920569,"149":0.030731914786912964,"150":-0.08940320662284057,"151":-0.0038991689327985924,"152":-0.020280306502318594,"153":-0.019341377700911436,"154":0.05508926134463219,"155":0.02650557250686571,"156":-0.11848615170634777,"157":0.07001828598124285,"158":-0.02272008686812204,"159":-0.04034824744750781,"160":-0.0009830469724149916,"161":-0.04620565550722557,"162":0.004150920662013559,"163":-0.03443752158374853,"164":-0.0018676062949944052,"165":-0.08394641159320897,"166":0.06976636051723888,"167":-0.04543163441097638,"168":-0.048375774894731986,"169":-0.01989376637453137,"170":0.026211433782159666,"171":-0.03421346647095339,"172":0.046875349436582336,"173":-0.03405665486768215,"174":0.0013091773073081708,"175":-0.028467759885780795,"176":-0.09969684966141258,"177":-0.013135885482159498,"178":-0.02470835319087633,"179":-0.016312965527932564,"180":-0.038677599894763826,"181":0.024952149889346478,"182":0.015257013037393019,"183":0.004637468315153806,"184":-0.04846394043732434,"185":-0.004372238493157527,"186":0.052098870742369734,"187":-0.034802123736626465,"188":0.015428280306187819,"189":-0.013936788544419881,"190":-0.004795267391551156,"191":-0.028557059671045864,"192":0.056702905572703764,"193":-0.023827929368944553,"194":0.03288052711281184,"195":0.020374965950514343,"196":0.005964928567778432,"197":-0.025018196121323392,"198":-0.08543354451186064,"199":-0.0539927434887727,"200":-0.03204272195490976,"201":-0.017796579537927314,"202":0.07481865393519174,"203":-0.016312224289867158,"204":-0.016960944691903818,"205":-0.039617456607090616,"206":0.031538604212121985,"207":-0.02045854847383878,"208":0.010390816787938531,"209":0.002693003185378288,"210":0.05797057540917656,"211":-0.019855660402611258,"212":-0.05383210111912503,"213":0.07124433043188003,"214":0.04295861646979837,"215":0.01673675522590939,"216":0.014167544931786867,"217":-0.0005928556710586093,"218":-0.04488709548409479,"219":0.03862977302594506,"220":-0.05066501287843031,"221":0.030175178038118724,"222":-0.015813231165230864,"223":-0.030180047556694792,"224":-0.015067545840371224,"225":-0.0009771246596720405,"226":-0.017086972026727366,"227":0.006519854148053723,"228":-0.022529987750657475,"229":-0.05691242536607324,"230":0.0033199988849157316,"231":-0.010962421257669271,"232":0.011665900902882553,"233":0.010783166070347872,"234":-0.06187208375711685,"235":0.010505796100743075,"236":-0.05216942905184273,"237":-0.014258985714878485,"238":-0.054064087714881,"239":-0.008996165208674686,"240":0.0017071956724322686,"241":0.0455774354275743,"242":0.0301445111789535,"243":-0.002460650921070417,"244":-0.001096489689841276,"245":-0.012605589637193909,"246":0.011996282167438685,"247":-0.07478515240307115,"248":-0.08470483184959096,"249":-0.03141443468149866,"250":0.007466548745178614,"251":0.004071077184523781,"252":-0.009459225814060742,"253":-0.012458360619848915,"254":0.03853947529644933,"255":0.06331218115383543,"256":0.02651801155456458,"257":-0.019027912304339988,"258":-0.033544447305328705,"259":-0.0027024726677153444,"260":-0.003434385688930727,"261":-0.040637419202356084,"262":0.03057507431599877,"263":-0.05726323500655981,"264":-0.013563772683370995,"265":-0.02425078811295172,"266":-0.043305786816849684,"267":-0.06724140020542001,"268":0.03284009328819147,"269":0.00566308868652004,"270":-0.038935146138135125,"271":-0.011114702601991261,"272":-0.03785158299423225,"273":0.035704244863064505,"274":-0.046783993202467386,"275":-0.05025607703928098,"276":0.01086423296128071,"277":-0.05333490040278089,"278":0.027761429088968243,"279":0.04003068896307787,"280":0.008248109894072604,"281":-0.04656080271703114,"282":0.011546367460584852,"283":0.036608049252895035,"284":-0.00370266201641052,"285":-0.010449176634452332,"286":0.038685718918136935,"287":0.015560797912317856,"288":0.018781084604118217,"289":-0.059282006572458086,"290":0.022143608686661046,"291":-0.06120134084580573,"292":-0.039029283737924636,"293":-0.04286598759462042,"294":0.028924562732479644,"295":-0.013933172814612349,"296":-0.021255919706497685,"297":0.025596400325964535,"298":-0.019183311293862026,"299":-0.003001027316808456,"300":0.0038685387179191355,"301":-0.024252543957900476,"302":0.03783406173821428,"303":-0.024180308634562917,"304":-0.00030550159521715287,"305":0.015387868287990849,"306":0.035137571694551284,"307":-0.04228550953941408,"308":-0.017047727092183617,"309":0.014149904888709774,"310":-0.032417560748169594,"311":0.04824435957247616,"312":-0.02337928420300005,"313":-0.02318595778617343,"314":-0.00871792497182816,"315":0.08127054705107949,"316":0.003793403903855118,"317":-0.033267663406051716,"318":-0.025828579632605986,"319":0.022497968418827705,"320":0.045245222003973254,"321":0.003147534824823858,"322":-0.035958570904934824,"323":0.028624871106436675,"324":0.036312132496860536,"325":0.018432213240466414,"326":-0.012989578251269925,"327":-0.056715304855205026,"328":0.03796821168360945,"329":-0.009991700757711783,"330":-0.00613480014770761,"331":-0.011093188019792815,"332":-0.03598700727341505,"333":-0.00429117762375407,"334":0.05131657440405147,"335":0.019593051458777523,"336":-0.09658443385572896,"337":0.008568731618886561,"338":0.05277728059096469,"339":-0.08236168797793417,"340":0.059189147186370715,"341":0.04986391171468646,"342":0.01268473513317693,"343":0.028129265274692006,"344":-0.035933198637073505,"345":0.010619661718187744,"346":0.04719791731215485,"347":0.07604881997080837,"348":0.050775497868502904,"349":-0.04970812778626905,"350":0.053079528061759966,"351":0.024169021984769137,"352":0.048700717052021544,"353":-0.013753201245218406,"354":-0.012872209597324444,"355":0.04415702929729121,"356":-0.054310420290412435,"357":-0.029720848162602342,"358":-0.00541030543310166,"359":0.02017902410700174,"360":0.0233295111427863,"361":0.05880552132381806,"362":-0.013182100290487851,"363":0.043660821270074764,"364":-0.05435292093005094,"365":0.00012871460839107871,"366":0.03354522896423505,"367":-0.03274644244984108,"368":0.02347074309201859,"369":0.0052714058532583674,"370":-0.03473584160013612,"371":-0.060903181208242826,"372":-0.06585407821984565,"373":-0.012923165363139444,"374":-0.028743935275992206,"375":0.04247275387684375,"376":-0.004884989850158784,"377":0.009393362595298634,"378":-0.014435221967644043,"379":-0.03751638007759524,"380":0.040522637679200356,"381":0.06271541545554342,"382":-0.01036346188839008,"383":0.04795940382495844,"384":0.024177877254977026,"385":0.017861942842183683,"386":-0.014327161549073536,"387":-0.0621240992831394,"388":0.0003461933766099231,"389":0.006069898472084778,"390":-0.05966229398152492,"391":-0.04308807362705492,"392":-0.008573126880121457,"393":-0.01074658899709467,"394":-0.027129826801391213,"395":-0.015494003092247372,"396":0.03476322626372428,"397":0.027930310217195307,"398":0.00007726911014548614,"399":0.05936714669314177,"400":-0.0278684593247859,"401":-0.010985753055376236,"402":-0.03530818457639042,"403":0.027664816295378723,"404":0.0336493694546015,"405":0.03801193963483955,"406":-0.004281070145594183,"407":0.020214540065698592,"408":-0.03688886280442094,"409":0.004297129429554248,"410":0.02567296823680529,"411":0.03138570373115931,"412":0.06389578049782892,"413":-0.0082081365130741,"414":0.034496328305491375,"415":-0.01899099067200598,"416":0.00009285010302456652,"417":-0.028794558392908978,"418":-0.008084286670688407,"419":0.021106737181633285,"420":-0.035206105193479796,"421":0.012172718504487418,"422":-0.036691868015270614,"423":-0.056154450054676903,"424":-0.04091495023206936,"425":-0.0626505201609974,"426":0.02340820975739301,"427":-0.006325865216451502,"428":-0.0295286467123191,"429":0.042381519743924685,"430":-0.013327717180326822,"431":-0.07172602391547349,"432":-0.02984801350859169,"433":-0.010504052780928086,"434":-0.0004950489635447779,"435":-0.012408341995439711,"436":-0.0574038267358351,"437":-0.09458045263798324,"438":-0.020992555827568503,"439":0.017521583960645085,"440":0.05121480986258686,"441":-0.02483824336288813,"442":-0.0786364283996679,"443":-0.03875252290424417,"444":-0.051938834075394,"445":-0.028467147326517454,"446":0.012578322558064233,"447":0.01907426075304882,"448":-0.023695775271679927,"449":0.0011219509396778158,"450":-0.02276361317361852,"451":0.04518082546578712,"452":-0.00578846565223258,"453":0.005287366632761726,"454":0.025333056974424163,"455":0.016791495893954855,"456":-0.08088514571798186,"457":-0.06204055433148655,"458":-0.03935945823999488,"459":0.039143402110278745,"460":-0.008514100258759257,"461":0.020297786258086762,"462":-0.013694682201945365,"463":-0.059135330139749614,"464":-0.019193684383733037,"465":-0.06036400490904728,"466":-0.09742886084084243,"467":-0.04601144201523234,"468":-0.04457323397158538,"469":0.03536268269300833,"470":0.025160295142284458,"471":-0.03977397874991008,"472":0.01997020099282598,"473":-0.01269538295489231,"474":-0.0027662786186023135,"475":0.018769463369920927,"476":0.05239771638915494,"477":-0.0268082617769053,"478":-0.012024499457331776,"479":-0.062132898343216905,"480":0.013391051060226006,"481":-0.022040212688516962,"482":0.00620174427750372,"483":0.039257241583204185,"484":0.0005757166652684262,"485":0.011512507853347002,"486":0.003212404107202712,"487":0.008745494008603168,"488":-0.003839452008312782,"489":-0.02792975737602289,"490":-0.045537297611884034,"491":-0.013328585847846252,"492":-0.040992536777990536,"493":-0.03825098745497517,"494":0.04230771000894038,"495":-0.009737787530750065,"496":-0.020725489489758466,"497":0.06677932851546209,"498":-0.0014779837104608074,"499":-0.018365976845051937,"500":0.022600207780916693,"501":0.033201683453400244,"502":-0.025443989219784625,"503":-0.005916994624367256,"504":-0.006821377459524035,"505":-0.01993631110545768,"506":-0.026353161181297487,"507":-0.007706859526659086,"508":-0.042396104085982246,"509":-0.04767343948553873,"510":0.06202169470081534,"511":-0.0008682212732449943,"512":-0.02153836056218556,"513":-0.00843817548321972,"514":0.001602695343339516,"515":0.004846981418582274,"516":0.04449534474937012,"517":0.019857965923996208,"518":0.011914196734867289,"519":0.04481314474077149,"520":-0.05614129276652355,"521":0.05572690782198469,"522":-0.046448864634712574,"523":-0.020938717571588897,"524":-0.04450935783018744,"525":-0.014992777588946541,"526":0.07683303954114055,"527":-0.03958278629080226,"528":-0.002034130815640108,"529":0.021633928558963615,"530":-0.036867291354846975,"531":0.009776217014441608,"532":0.020933658452040347,"533":0.010047946228661217,"534":-0.031421155583731694,"535":0.02553810198926498,"536":-0.05566170176936931,"537":0.0009261761592985754,"538":-0.05374124466928781,"539":0.042126437871921885,"540":-0.06318757764718795,"541":-0.015038183880109683,"542":-0.0034913864734171843,"543":-0.03161108962717724,"544":-0.02221818382572601,"545":-0.04158157134344576,"546":-0.06201906989684269,"547":0.029623719995025093,"548":-0.006448473832935079,"549":0.061529222811979,"550":0.0404768781028975,"551":0.0012229442002997257,"552":-0.005154078342467149,"553":0.04701767271829353,"554":-0.021136197410521435,"555":0.006034653784753932,"556":-0.03017053765667868,"557":0.08438562052070639,"558":-0.013300179920546985,"559":0.013628542186009993,"560":-0.012996821717273021,"561":0.02547788414529701,"562":-0.03188997217022511,"563":0.03236071330484392,"564":-0.06095015585120168,"565":0.027002702679687914,"566":0.009411746472432128,"567":-0.06669431273221313,"568":-0.034606318236345676,"569":-0.029962405032211214,"570":0.0193804291474871,"571":0.02036196950318797,"572":0.0011313803001220975,"573":-0.012629807924031894,"574":0.03611797360738594,"575":0.03125150205278831,"576":0.02558694076468835,"577":-0.02680056234759896,"578":-0.03462909724604,"579":-0.013707859585486242,"580":0.005757180071610363,"581":-0.08726574375835132,"582":-0.02614169650147824,"583":-0.06970979804472265,"584":0.036481065806484574,"585":0.008147681406299066,"586":-0.021611528946873935,"587":-0.04953459485548243,"588":-0.04094768361212126,"589":0.025482316218244688,"590":-0.02795959363949244,"591":-0.005534125203980149,"592":0.05025575681663965,"593":-0.02835575141361073,"594":-0.06289548181303303,"595":0.006857735251111121,"596":0.01666534097554769,"597":-0.0425932509535776,"598":0.002141658820452321,"599":0.004339385298155242,"600":0.006398535907904511,"601":-0.02845446966415243,"602":-0.04449326756699346,"603":-0.02437279826066055,"604":-0.0028006878628674945,"605":-0.04950205917294253,"606":-0.003977963477941677,"607":0.02162443843761206,"608":0.0192300482267264,"609":-0.007436181466939376,"610":-0.0009150181074089694,"611":-0.03162603751533523,"612":0.040411887078079724,"613":-0.0173380544076857,"614":-0.04622402802891822,"615":0.007358514654923155,"616":-0.002315809928597715,"617":-0.06453844943912787,"618":-0.023027871300989777,"619":-0.03194450200023903,"620":-0.06014595596152096,"621":0.013357831113958975,"622":-0.033679248743881396,"623":0.020575693077303038,"624":0.0023436005192310834,"625":0.03129636399280387,"626":-0.037962121270782405,"627":0.018584106295695357,"628":-0.023513078477958554,"629":0.037535656903509663,"630":-0.05478677064562952,"631":0.03869481294707361,"632":-0.02333732021638743,"633":0.0100231864790154,"634":-0.03491351112127647,"635":-0.017612913316911148,"636":0.013169151981222883,"637":0.004532372458890017,"638":-0.04924341326831796,"639":-0.02059336025833062,"640":-0.09406758076113507,"641":-0.0073817758050063005,"642":-0.047655988353494196,"643":-0.04285299987589531,"644":-0.02544694399187427,"645":-0.032369896210362556,"646":0.018305394277621807,"647":-0.02761966313845283,"648":-0.011191451911697261,"649":-0.06942770476165529,"650":-0.055663484349547016,"651":-0.04135857627687318,"652":0.03500391113578405,"653":-0.025891245354718696,"654":0.014387452591628649,"655":-0.0521634227806686,"656":-0.04335109201241698,"657":0.08117916449074992,"658":-0.022422461730068958,"659":0.015695641550899524,"660":0.02231494794169193,"661":0.022310027122950243,"662":-0.03337989728798593,"663":0.0724911640360048,"664":-0.0691040135134999,"665":0.03967113639094595,"666":-0.026760883983954126,"667":0.021333088985655568,"668":0.004786903934410185,"669":-0.018851530375968796,"670":-0.025572727462224873,"671":0.02521063142947902,"672":-0.007350612959027657,"673":-0.025917506420650386,"674":-0.006117652454289569,"675":-0.03773137135741654,"676":-0.02572150866254651,"677":-0.007771727808289436,"678":-0.06887778888240063,"679":-0.042962174509286424,"680":0.06583844469241866,"681":-0.054074920303682446,"682":0.003087247870354716,"683":0.020336715042976607,"684":-0.06156163889227429,"685":-0.012433273363955057,"686":-0.004501831485270078,"687":-0.011201659328233866,"688":-0.02578763984193373,"689":0.03585320976565165,"690":0.005746195931903592,"691":0.03880893974444787,"692":0.07925241665126945,"693":0.021624991916006028,"694":0.09223911628080964,"695":0.02583224514214834,"696":-0.017647762010966638,"697":0.0036484055343644845,"698":0.040383834421123393,"699":0.023866923101154396,"700":0.020382645704251606,"701":0.018412603091420184,"702":-0.030019779264030134,"703":-0.04113631765245572,"704":0.04341471729369494,"705":-0.013118931681013867,"706":-0.025349165762101392,"707":-0.00920199371022256,"708":0.006838969129165606,"709":0.047412504959651346,"710":-0.049026581887114624,"711":-0.04828663687125498,"712":-0.0024409352828046265,"713":-0.0356406114496673,"714":-0.09424960090764381,"715":0.005911802746599214,"716":0.05780637027804556,"717":-0.09900615655297804,"718":-0.0058933539634550515,"719":-0.03515665501086251,"720":0.003060980542085861,"721":0.1048581083245353,"722":-0.012312673773589486,"723":0.06308523095134462,"724":0.008992266058393608,"725":-0.07621860587664063,"726":-0.08600583463447649,"727":0.005462160863732956,"728":0.04924574198138117,"729":0.006487058681512218,"730":-0.009565852555909712,"731":-0.0628377315547093,"732":-0.06361559760271111,"733":-0.0065693613653968275,"734":0.04910496287562167,"735":-0.09686773696211326,"736":0.03108706078072389,"737":-0.09447183625507731,"738":-0.04788776035585425,"739":-0.03613871253022216,"740":-0.015612462792614534,"741":-0.05776642734218141,"742":-0.005338047924170161,"743":0.0035594307303046355,"744":-0.06772573690846173,"745":0.0031844197333288277,"746":-0.05793234153200953,"747":-0.004499810095932964,"748":0.020042465018159858,"749":0.011747239012298813,"750":0.07992639657158811,"751":-0.03378246146554578,"752":0.061263173357597206,"753":0.0261460503450103,"754":0.03862295484316528,"755":-0.07649086742530309,"756":-0.0002740184086466892,"757":0.09402662607565564,"758":-0.02460833430483389,"759":-0.00625795512629396,"760":-0.053015514926567586,"761":-0.05131620359952128,"762":-0.08158286150608346,"763":-0.010685674893121767,"764":-0.003927055791394781,"765":0.021746097245033815,"766":-0.026858829755370565,"767":0.05638996962180692,"768":-0.017191248062537506,"769":-0.03065058669272751,"770":0.007289909270126118,"771":-0.01726707345468025,"772":-0.05231327678741188,"773":-0.041599135981104866,"774":0.005467388259458045,"775":0.01679610375030269,"776":0.054921406923715645,"777":-0.08193553016398943,"778":0.023148727596526964,"779":-0.10016787384719186,"780":-0.05575755175036215,"781":-0.023761842821737524,"782":0.0075940333673202775,"783":-0.045046467657313086,"784":0.02718878314542546,"785":-0.006088765953892481,"786":0.1388299031016201,"787":-0.028047839162212908,"788":0.025648595916549888,"789":0.09232130779969272,"790":0.029535031285441216,"791":-0.0178798073472274,"792":-0.008658832653266129,"793":0.0432827034529457,"794":0.01101583543451286,"795":-0.04027757785937557,"796":-0.0931353603319934,"797":0.03365258911572937,"798":-0.0328770744675785,"799":-0.03399577691815064,"800":-0.014685284969376607,"801":-0.015190345114011836,"802":-0.022199423024843512,"803":-0.09394939198419153,"804":-0.03534157700340337,"805":-0.019837620240247683,"806":0.09047109582470407,"807":-0.02024794932764255,"808":0.03576832698895046,"809":-0.046304151964678485,"810":-0.012191949518481135,"811":0.023221530199851615,"812":0.015404413644824347,"813":0.09467265388580581,"814":-0.0044649120437041286,"815":-0.032885390326886435,"816":-0.10636142371724643,"817":-0.02246068444538374,"818":-0.04179363760665109,"819":0.016349027298237558,"820":0.051140545024847384,"821":0.006911328254271026,"822":0.24052284655929507,"823":-0.05963652882379134,"824":-0.024643765537224763,"825":0.11462411858418166,"826":0.10942473439432941,"827":-0.05038848024776434,"828":0.08498585366147272,"829":0.05714164677462336,"830":-0.017542214493082374,"831":-0.012080785197291203,"832":-0.0586113738172584,"833":0.04960285172538478,"834":-0.04014886648374757,"835":0.02704190767776295,"836":-0.0889958731177739,"837":0.017645355620677913,"838":0.061656417448562276,"839":-0.07539033974181206,"840":-0.008556190317605357,"841":-0.0540494279427593,"842":0.07584071511241007,"843":-0.02478461752683681,"844":-0.04178477564815992,"845":-0.002999909249071955,"846":-0.08307853249243584,"847":0.010484143380560683,"848":-0.05197181959797446,"849":-0.027460035405251524,"850":-0.0544665788264694,"851":-0.01568324576441517,"852":-0.12152196982477176,"853":0.01948560398126634,"854":-0.028347695462285424,"855":-0.0322655839191961,"856":0.025201671575300042,"857":-0.018901381829155964,"858":0.2288432398029458,"859":0.04580186864663419,"860":0.02277157516803992,"861":0.08813648069400765,"862":0.047240213590883116,"863":-0.011414821824741551,"864":0.026793943594952057,"865":0.011621652371953103,"866":-0.02251289632661839,"867":-0.029307229188913986,"868":-0.04870610004010375,"869":0.05235896099335171,"870":-0.09155875526240664,"871":-0.007853370663896476,"872":-0.0728245370569489,"873":-0.05918974017184268,"874":-0.0094963695946193,"875":-0.035902118890576463,"876":-0.017959706674689338,"877":-0.007011964906305085,"878":-0.00968368593256367,"879":-0.021550698743422064,"880":0.01708670267773332,"881":-0.023342183231319518,"882":-0.029761233867884995,"883":0.015307035843176971,"884":0.013115402392529845,"885":-0.0018757664321414527,"886":-0.017721969451703172,"887":0.006467654901633041,"888":-0.06297472938168068,"889":0.04752238703496638,"890":-0.07513133777572652,"891":-0.0029472365165165693,"892":0.16439258073041746,"893":0.0037986774706831243,"894":0.21847979096520712,"895":0.08376642263817151,"896":0.05848804398461322,"897":0.025164972242387756,"898":0.06563741952550074,"899":-0.026038720142893348}},{"sx":5,"sy":5,"depth":36,"w":{"0":-0.01563627908102208,"1":-0.0035378969778183562,"2":-0.06476547171429167,"3":-0.02674830476022748,"4":0.06965432587417465,"5":-0.0495793150926152,"6":0.016109821174568568,"7":-0.04511855335675452,"8":-0.042137871184954434,"9":-0.004508384199527447,"10":0.025130922777098004,"11":-0.006162370228489853,"12":0.023316143688636888,"13":-0.04232803093479587,"14":0.00014890700215318994,"15":0.029914084668594736,"16":-0.024943665650361577,"17":0.018928765730883066,"18":-0.04513180935364848,"19":0.06371145146853438,"20":-0.0002731848077765251,"21":-0.029050298005788733,"22":0.0004868124504988676,"23":-0.03553750353899946,"24":0.021248605626594218,"25":0.00735348886599004,"26":-0.05207158131214941,"27":-0.07355659185832861,"28":-0.029832749776018953,"29":-0.014766011629453004,"30":-0.05442551720201244,"31":-0.025839152030439957,"32":0.02293358759470004,"33":0.001781554537524233,"34":0.0019402359591967349,"35":-0.06037740446429381,"36":-0.013712735972457106,"37":-0.07791687406405606,"38":-0.010736072004193927,"39":-0.027603456088565903,"40":-0.030915049760966533,"41":0.012088073885400388,"42":-0.051916902430416655,"43":-0.03966374922479697,"44":-0.018203691142417825,"45":-0.02320939741671494,"46":0.01888561657459055,"47":-0.06892167595229383,"48":-0.02374941776590043,"49":0.01490848915188951,"50":-0.02933448111560836,"51":-0.038196804695102685,"52":0.012994016637485036,"53":0.021282394818384873,"54":0.018097249327579237,"55":-0.019319755969966018,"56":-0.03149927842628276,"57":0.007176284577576056,"58":0.038959313527626896,"59":0.004296070133958818,"60":-0.0009253930136408266,"61":-0.05384836441157037,"62":-0.010249301836905807,"63":-0.03711471690124669,"64":-0.029887816234563328,"65":-0.04524442504833151,"66":0.03981185266686363,"67":-0.03566015517115819,"68":0.010336274865487943,"69":-0.019380546256046925,"70":-0.0016153192378860132,"71":-0.0423771501646931,"72":-0.0362256389626118,"73":0.016548273160479753,"74":-0.05697956632833621,"75":0.05352195194285927,"76":-0.020033283627967486,"77":-0.009005585225551165,"78":-0.08094979818576396,"79":0.0034066891716524397,"80":-0.073748092428332,"81":-0.03516954834945989,"82":-0.04417913868821984,"83":-0.018151232320950225,"84":0.00023071931795186584,"85":0.013095699636541329,"86":-0.0065007273818538805,"87":0.04568273365066602,"88":-0.011375221380913791,"89":-0.01903406023480978,"90":-0.011862651629764265,"91":-0.05845827750588179,"92":0.033578478477349745,"93":-0.010463993922452945,"94":-0.03754802398435431,"95":0.05789305469239754,"96":-0.004392826488218121,"97":-0.019299668731233184,"98":-0.005137734089331137,"99":-0.014725166975231425,"100":-0.01397040036523596,"101":0.033668872191160173,"102":-0.014799485532575126,"103":-0.022359173979931465,"104":0.04373376094018915,"105":-0.0021274507547724936,"106":-0.00017164492774372135,"107":-0.033999346244668695,"108":-0.05392971183062806,"109":-0.01938042852427412,"110":-0.06468185714445426,"111":-0.038240026298665464,"112":0.037858175567397526,"113":-0.0184082806400569,"114":-0.011602781198539035,"115":0.012536265611878697,"116":0.022865472096250446,"117":0.036803945314483874,"118":-0.00414792273842398,"119":-0.02377782636651945,"120":0.04366267000233734,"121":0.022628312571653167,"122":0.017726971505708948,"123":0.010137281597787845,"124":0.02134753831693754,"125":0.01631927204206984,"126":-0.04178769291363517,"127":-0.004518507024783113,"128":-0.03437532593344495,"129":0.01959036777326032,"130":0.04233581242238984,"131":-0.0039408659392772575,"132":-0.047303252584895594,"133":-0.03189461181079806,"134":0.05046430349228667,"135":-0.024278926738894667,"136":-0.02676673435362764,"137":-0.0024332322206756297,"138":-0.004887782738242863,"139":-0.029969563122517168,"140":-0.01493918639602777,"141":-0.003800019039896794,"142":-0.024983099783317593,"143":-0.007256632851302444,"144":0.04177095503628766,"145":0.014946476474242432,"146":0.01228191746981782,"147":-0.02589576047367537,"148":-0.04976448424998869,"149":-0.04484629245187677,"150":-0.03822880759198521,"151":-0.025356061973313197,"152":-0.02800172108343625,"153":-0.026625251368579954,"154":0.023773674170622438,"155":0.026680267204723725,"156":-0.05720060460471502,"157":0.023899418697287837,"158":0.06745670639073306,"159":0.00652920295064531,"160":-0.0111629183105928,"161":-0.04774551105060036,"162":-0.03725174477857479,"163":0.002327146983592169,"164":0.020140110662958618,"165":-0.036398635972632036,"166":0.06582935038788834,"167":-0.07827281955925257,"168":0.012038278239147075,"169":0.00297712753085952,"170":-0.002531063878619908,"171":-0.0473098129875504,"172":0.056298608336836635,"173":0.03221761692174823,"174":0.018807708636059607,"175":0.06122912586944129,"176":0.01983460843022618,"177":0.008093868181455582,"178":0.074285641624377,"179":-0.019987357930793804,"180":0.016617562109601296,"181":-0.02473899316662942,"182":-0.021288653853926948,"183":0.044337186051784445,"184":-0.005792354722541239,"185":-0.04824858485467216,"186":0.044886555539209484,"187":-0.07083920867262998,"188":0.04813754301886012,"189":-0.05383683325584201,"190":-0.009596601228939145,"191":-0.049482500925649715,"192":0.041718155929370365,"193":0.04324408599007427,"194":-0.014745615068764468,"195":0.0009110773012516898,"196":0.0011394059755420896,"197":0.015604688501100677,"198":-0.014184068043569044,"199":0.0043002985186677235,"200":-0.0655802359821222,"201":-0.05911040904144738,"202":-0.1145537117514798,"203":-0.06077278831352452,"204":-0.06606021658925636,"205":-0.022134737561243564,"206":-0.025979990678268155,"207":0.007759300784690649,"208":-0.026230591315928156,"209":-0.027529259046612145,"210":-0.015751820550163827,"211":-0.06087955127216565,"212":0.0047724566175189834,"213":-0.04657453773662457,"214":0.002871669698995502,"215":-0.009494029920284256,"216":0.028883332071545004,"217":-0.04793771298206383,"218":0.0143088452885958,"219":0.0009183219645420883,"220":0.035402175015205255,"221":-0.038190813656879756,"222":-0.00881733632368547,"223":0.017731074431587043,"224":-0.01032436920223672,"225":-0.004281389861165917,"226":-0.017693790581158386,"227":-0.029511373970732144,"228":-0.001211445943842703,"229":0.011228282091726067,"230":-0.007726842645995544,"231":0.012322509837488147,"232":0.07725643784834275,"233":-0.07016584509535723,"234":-0.07100046853906375,"235":-0.058403553349760044,"236":0.005473468730309896,"237":-0.01435828862971615,"238":-0.06584031150645171,"239":0.0036443132467272026,"240":-0.04298968410185366,"241":-0.039543386630722016,"242":-0.00899457848479237,"243":0.05848297005241521,"244":-0.01703127426131653,"245":-0.006752024287942448,"246":0.012940761437242224,"247":0.0360709694427144,"248":-0.06246240226548441,"249":-0.001731754280306673,"250":-0.03806696686033018,"251":-0.01569962169116923,"252":-0.029698207217915603,"253":-0.00201657832977254,"254":-0.04470648020439381,"255":0.010818891060635443,"256":-0.016696776445325346,"257":-0.023786384570123196,"258":-0.05223388110170874,"259":-0.022266452051502503,"260":0.009337034432053495,"261":-0.04565998420220233,"262":0.0476192184401365,"263":-0.020773802888245575,"264":-0.025806821391238605,"265":-0.009710572594659475,"266":-0.0471852463255997,"267":-0.008937774018400351,"268":-0.029151244611514172,"269":0.0438047846123323,"270":-0.007137603761385065,"271":0.029020100587439528,"272":-0.018602755506253312,"273":-0.008815410567310502,"274":0.011262990287312336,"275":-0.019901458208913453,"276":0.0581653341284364,"277":0.07214505693001881,"278":-0.026506573187807997,"279":-0.019487715846863266,"280":-0.055892273599820505,"281":0.022805399248627622,"282":-0.009700704649674317,"283":-0.006456103424751429,"284":-0.02582436435007513,"285":-0.02912270017062365,"286":-0.054526202258538575,"287":-0.03862798623373627,"288":-0.04215123555121022,"289":0.027066908104329178,"290":-0.010046974504764572,"291":0.03619687628536753,"292":-0.004764154690540553,"293":-0.004078716436336983,"294":0.03549810553754932,"295":-0.04368944125967458,"296":0.019449697061164905,"297":0.0038505989236839607,"298":0.08635746810172587,"299":-0.0230706977520021,"300":0.04513104939703508,"301":-0.003313972467275228,"302":-0.009295976152761376,"303":0.0029259556909246283,"304":0.05309284054967805,"305":0.024730954354691817,"306":0.014411923360223965,"307":-0.041545840539903685,"308":-0.011630280259728476,"309":-0.01006223233297954,"310":-0.021353497093315472,"311":-0.008355192150866875,"312":-0.048310415241836144,"313":-0.012520459391654583,"314":-0.02800320681341198,"315":-0.0019309236650734956,"316":-0.040421259834432934,"317":0.0019321296529925776,"318":-0.08473341576673296,"319":0.012795922243460552,"320":0.030647398340124515,"321":0.005292857374474911,"322":-0.06513802423380392,"323":0.0681014112758017,"324":-0.009386545868201597,"325":-0.008628066068739164,"326":-0.036632854859285954,"327":-0.008974235194068196,"328":-0.03567283306334194,"329":-0.041346097832718386,"330":-0.07501270458903027,"331":0.04662943557090314,"332":0.05627520746835437,"333":0.029206387845322646,"334":0.024300370567629657,"335":0.008517211466270986,"336":-0.01798050910832206,"337":0.012108044556874736,"338":-0.00503319190070343,"339":-0.03126122537034139,"340":0.022434008542658063,"341":-0.012312302595339917,"342":-0.04178457259446313,"343":-0.04921606478532736,"344":-0.0175742416720919,"345":-0.0399259535976348,"346":0.07744172639388826,"347":0.0463225967587161,"348":0.05135268351212167,"349":-0.003868866907511801,"350":-0.020397797134788124,"351":0.032564082659857115,"352":-0.010435445644459779,"353":-0.03126754010483753,"354":0.040690902420043834,"355":-0.00504829253822226,"356":0.029411399353716634,"357":0.008159264390879764,"358":0.026873701074961055,"359":-0.023459464668513185,"360":0.023813635357713386,"361":-0.02995512523257659,"362":-0.0463638784567123,"363":-0.009973204977677218,"364":0.016233218570302924,"365":-0.0550732226543764,"366":-0.03554800348288571,"367":-0.054623026341959605,"368":-0.038549065104015214,"369":0.01971630501916701,"370":0.011927027426489134,"371":-0.008385949562824934,"372":-0.07568700462072966,"373":0.033155483062822,"374":-0.0633909144311576,"375":0.04477658899949496,"376":-0.03613152002095705,"377":0.030651857681583457,"378":-0.0027552923031698684,"379":0.03627590060407963,"380":-0.004557269431278239,"381":-0.0034529848271235113,"382":0.00030241928251448615,"383":0.04927066967202137,"384":-0.04905682432407469,"385":-0.007454174731234165,"386":-0.031317008234301134,"387":0.008024312942005757,"388":-0.03127543668452517,"389":0.016190502549393287,"390":-0.001029369253146525,"391":-0.014518335449620702,"392":0.013201522370380627,"393":-0.05056280863180348,"394":-0.032157298116163954,"395":-0.06533165407953492,"396":-0.05481366793512304,"397":-0.0361460798593043,"398":-0.008635598271933885,"399":0.0068140894441779025,"400":-0.055795794772941505,"401":-0.003909525361298548,"402":-0.0653945677843529,"403":-0.003702129560527209,"404":0.006650259387634924,"405":0.03402827567935739,"406":0.006657820322118688,"407":-0.02101420987674449,"408":-0.010517068429648035,"409":-0.06006710434331723,"410":0.00447640229043333,"411":0.046925850737155946,"412":-0.059596077571717566,"413":0.011672247553534913,"414":-0.025555178364169037,"415":0.0039513511766074184,"416":-0.03474219283175803,"417":0.007726304141815136,"418":-0.0884578844375691,"419":-0.013616903500610737,"420":0.00848580360159038,"421":0.02411103513337819,"422":-0.04916214507699847,"423":-0.059785181493314486,"424":0.003225327343908849,"425":-0.007794816644509464,"426":-0.0658521901856616,"427":0.003222358694505878,"428":-0.006536992212735504,"429":-0.031337259552256504,"430":-0.011902197571047267,"431":-0.08696924961708855,"432":0.026265383227119812,"433":0.02275345668602717,"434":0.009676269314622059,"435":-0.0523423476175795,"436":-0.03329408699877203,"437":0.04943532232978632,"438":-0.03688799453196303,"439":-0.057936111214111775,"440":-0.05361207547553622,"441":-0.02909454351730994,"442":0.0045762442670166026,"443":-0.016881491621742697,"444":-0.011341705205133766,"445":-0.01175463435845012,"446":-0.08804560268055087,"447":-0.0384640428317566,"448":0.034303651757671555,"449":-0.03127485872693731,"450":-0.04935838352627681,"451":0.007171456993590674,"452":0.00020795376356708327,"453":0.000758330597842031,"454":0.03996002840669397,"455":-0.044807100867884274,"456":-0.05087120098997554,"457":-0.03246147567236891,"458":0.0004969343821803439,"459":0.0063177993832696415,"460":-0.05541912699884871,"461":0.007936181071192103,"462":-0.0439850255271212,"463":-0.06773599327192158,"464":-0.027655921756374276,"465":-0.00424730616899441,"466":0.042897406475811854,"467":-0.048693898120553455,"468":-0.04361694902482448,"469":-0.019685232382113376,"470":0.017504742653029176,"471":0.01371723948727239,"472":-0.009914929799071683,"473":-0.03554848924617235,"474":-0.140824027215932,"475":0.05068430046333592,"476":0.029012871252727418,"477":0.003951351297736533,"478":-0.00023043965950012517,"479":0.01145213752206046,"480":0.06736877437478876,"481":-0.028985710851558284,"482":-0.03248422805119193,"483":-0.019489874502477075,"484":-0.01360672923271132,"485":-0.054746042904932256,"486":-0.027788946046263908,"487":-0.026681691004997253,"488":0.03167043260548033,"489":0.019150099555152282,"490":-0.013527123315631651,"491":-0.04505713240023044,"492":-0.0005473176746730147,"493":-0.0024982832963020983,"494":0.030486780697133613,"495":0.022644627783258636,"496":-0.05478959008008918,"497":0.010441229066611959,"498":-0.04347263222108542,"499":-0.036118826340723297,"500":0.015607889608638707,"501":-0.059744503455876334,"502":-0.009296069183519082,"503":-0.058744849270794514,"504":0.038520826089175016,"505":0.021110386604558485,"506":0.02532663860145149,"507":-0.021177381833141447,"508":-0.07867904976121964,"509":-0.043327818284383035,"510":-0.022068409101336693,"511":-0.02057264785981914,"512":0.01680076606391208,"513":-0.06025364694401603,"514":0.022962664022670217,"515":-0.04892239989929128,"516":-0.04765810249978533,"517":-0.008062264631990026,"518":0.05417843177368163,"519":-0.01572886147143425,"520":-0.03123562517925909,"521":-0.02402432740849898,"522":0.08912517035208403,"523":-0.023686768298532102,"524":0.033601604025681776,"525":0.02318405052962323,"526":0.02743039855017468,"527":0.05139368727649215,"528":0.021213157746936915,"529":-0.02555389656341544,"530":0.01822772159360675,"531":0.05318980035384142,"532":0.09213546594547824,"533":0.01967090664423448,"534":0.054720249988114,"535":-0.004427727247551671,"536":0.020595677873756057,"537":0.006158814638211456,"538":0.028232219654886766,"539":0.015842905332397756,"540":-0.038831578820669906,"541":-0.06784448118249464,"542":-0.0008414954671636114,"543":-0.010628758138206598,"544":-0.04027148805663217,"545":0.032124604395440834,"546":-0.06645441321649961,"547":-0.08784894656650442,"548":-0.007086173817366672,"549":-0.02204049175746906,"550":0.02989237679926807,"551":0.010361970290227078,"552":0.007232332321659338,"553":-0.008532833339945338,"554":-0.06966945600375801,"555":-0.06267877264113009,"556":-0.09175915536580095,"557":-0.06038828648392663,"558":-0.011533661550905702,"559":-0.031945750174357565,"560":-0.043973839213866724,"561":0.049561433971606395,"562":-0.07183861008584799,"563":-0.02672005227792513,"564":-0.01888373596974303,"565":-0.06523423955442072,"566":-0.10923002080739792,"567":-0.026378462652494467,"568":-0.03627708737151757,"569":0.06607936812329746,"570":-0.03878218817051216,"571":-0.05547983346572583,"572":-0.06035548471464638,"573":-0.09079234624609238,"574":-0.10941252738437343,"575":0.019678301399276503,"576":-0.021531941406885923,"577":-0.03819147264567955,"578":-0.01826982185991677,"579":-0.033299097235936964,"580":-0.02664481824455305,"581":0.0189381039561906,"582":-0.02028045775859187,"583":0.015983096248462326,"584":-0.0031807262157861047,"585":0.014983663997335025,"586":-0.004469978688179304,"587":0.0031706863474371683,"588":-0.006017011766024845,"589":-0.046764424930941365,"590":-0.09509977151450537,"591":-0.0008036558857040885,"592":-0.05926626223564705,"593":-0.06500390995110632,"594":-0.022580069205804857,"595":-0.03741410950827773,"596":-0.01155191739316814,"597":-0.032162385906045574,"598":-0.057636079719427274,"599":-0.01883152449480361,"600":-0.009876271244567948,"601":-0.03382997117387746,"602":-0.08733414450219021,"603":-0.015162689115793333,"604":-0.04809304431915532,"605":-0.0570870342899374,"606":-0.06595545004617781,"607":-0.0317479214991993,"608":-0.029980477819723222,"609":0.012174788030907071,"610":-0.011442364560386217,"611":0.01169355434896102,"612":-0.024597290732987876,"613":-0.027726497973137185,"614":-0.04795989268469071,"615":-0.019300928601755623,"616":-0.024785209281302616,"617":-0.08558108037433819,"618":-0.0541803019592952,"619":0.014529340273290486,"620":0.0534073954809095,"621":0.005680304296113805,"622":0.014951252932665316,"623":0.02767686284170734,"624":-0.011671828320787147,"625":0.008538068198006404,"626":-0.03173301421880569,"627":0.009547993210992697,"628":0.01765231397914295,"629":0.009219527402185413,"630":-0.02734151152601134,"631":-0.046489128686388735,"632":0.01986687138760418,"633":-0.04126649419074451,"634":0.008969788190233984,"635":-0.051350425588779045,"636":-0.022845758911960175,"637":0.007415795403481801,"638":-0.03695727763343511,"639":0.004424526757182826,"640":-0.032271306897050274,"641":0.011569083658591146,"642":0.010188563995312089,"643":-0.03350395999920736,"644":0.05728188382635294,"645":-0.03921704036120114,"646":-0.02915231085028431,"647":-0.03830570491716332,"648":-0.004019604754737538,"649":-0.010641435974601729,"650":-0.04402890716041461,"651":-0.0715528083621551,"652":-0.036856250622175124,"653":-0.03743490385362808,"654":0.0208915206440508,"655":-0.03695105516315949,"656":-0.06375199830840463,"657":-0.047625162655625275,"658":-0.027582838161777076,"659":-0.004603829499142714,"660":-0.032939690638565715,"661":-0.08585912561588945,"662":-0.031680506987237955,"663":0.017193459666491735,"664":-0.06898670279718087,"665":-0.03685128672222142,"666":-0.02924759186758477,"667":0.01414518615358206,"668":-0.02784995705567607,"669":-0.006718506164497168,"670":-0.05598420518376352,"671":-0.013194009149615401,"672":-0.053037448065872926,"673":0.02853016487283305,"674":0.005058570155445804,"675":-0.007618872357196151,"676":0.026423222889651755,"677":0.012888886008394157,"678":-0.014318507568057305,"679":-0.012755833386630458,"680":0.04393906656296928,"681":-0.020341051956446383,"682":0.012365744433875912,"683":0.022793559043618437,"684":-0.003643255255450643,"685":0.06438377541021724,"686":-0.06932024480908883,"687":0.08510498861680456,"688":0.02713871999552392,"689":0.026810050222383645,"690":-0.015493521203458394,"691":0.02645058411275032,"692":0.03290033879459743,"693":0.08566351755325564,"694":0.0058490376537215505,"695":0.0943367807436825,"696":-0.009636150350537958,"697":0.03221318605643987,"698":-0.023023066184546335,"699":0.02062524373185917,"700":0.004277755811929712,"701":-0.043893403585284464,"702":0.025650256376642828,"703":0.03796830217880997,"704":-0.010507505490555234,"705":-0.029362897384252625,"706":-0.03993296250650371,"707":0.09074159105286844,"708":0.031134542007764995,"709":-0.0003028929570324491,"710":0.11056239487400159,"711":0.018040340140612985,"712":0.13985406845259207,"713":0.02031683678736044,"714":0.009400280422413658,"715":-0.0019417841670580007,"716":0.14551173770733714,"717":-0.016108013733420704,"718":0.028523340130534012,"719":0.030833701479321775,"720":-0.058314073225331574,"721":-0.0031139363879342684,"722":-0.01404517502081599,"723":-0.0783977829070005,"724":-0.026779544604921737,"725":-0.07575742798343926,"726":-0.07045893907834773,"727":0.020447457299582947,"728":-0.054481779635406666,"729":-0.007435134990663596,"730":-0.050407792292556555,"731":-0.023329725305649297,"732":-0.0237082246754785,"733":0.017558924810601426,"734":-0.15028064632257063,"735":-0.07865336282296144,"736":-0.10055382324246138,"737":-0.09486263806442546,"738":-0.11765631015621561,"739":-0.05347637560432367,"740":-0.03828434378802803,"741":-0.05940199223280507,"742":-0.1086798697568966,"743":-0.09616190991227411,"744":-0.06484559998032889,"745":0.01569294586900535,"746":-0.07079661289574897,"747":-0.012989229552276804,"748":-0.09325373139389448,"749":-0.04915953090575585,"750":-0.07728521550326609,"751":-0.056815252047022126,"752":-0.07311696128141149,"753":-0.1090537556585567,"754":-0.09456275941733956,"755":-0.06180743805342676,"756":0.0038797781028962284,"757":-0.0643517800551393,"758":-0.02665414004045401,"759":-0.051121697930777005,"760":-0.02193929546605698,"761":-0.02872438524265611,"762":-0.0714851469798858,"763":-0.043042448718219765,"764":-0.024500711467038177,"765":0.01456186321259057,"766":-0.018791786102136537,"767":0.050208203872476036,"768":0.017944764207371327,"769":-0.05405428425898127,"770":-0.045807466056839455,"771":-0.07094958376194266,"772":-0.09826268570523855,"773":-0.056267385714116505,"774":0.09153679950581714,"775":-0.05428390743374888,"776":-0.024225730783661716,"777":-0.07262109078183766,"778":-0.013951596306258349,"779":-0.08539075235123837,"780":-0.02913356931806306,"781":0.0037296457535788805,"782":-0.051128645520941915,"783":-0.04524408480844866,"784":0.01539027632013963,"785":-0.012452974048367062,"786":-0.06728976641889967,"787":-0.09724252759908725,"788":0.013467219446951851,"789":-0.06720798043193317,"790":-0.018749287148172256,"791":-0.06918811550033248,"792":-0.04762570451736232,"793":-0.02061199295427152,"794":-0.04068975182482714,"795":0.009274150624682094,"796":0.013446997647263434,"797":-0.019531823542689192,"798":-0.009913556947877452,"799":0.015578542226291132,"800":-0.04617573258066946,"801":-0.012924323816560274,"802":0.0394794708078394,"803":-0.014798545947927004,"804":0.03699912366609678,"805":-0.019519403462377547,"806":-0.016330291721774817,"807":-0.03240813476265013,"808":-0.015997123245817653,"809":-0.07086081192110269,"810":0.026473049051916216,"811":-0.04650691193535888,"812":0.029262430526475015,"813":-0.033370080180304754,"814":0.005357604728059499,"815":-0.05849375162937441,"816":0.028286006333104536,"817":-0.038834167923153834,"818":0.054786552815765076,"819":0.007744378900738216,"820":-0.0024180599434458724,"821":-0.00967196146131063,"822":-0.04132615033155901,"823":0.00018268613767118147,"824":-0.024880911023679578,"825":-0.03832793305563988,"826":0.10387058033618861,"827":0.011137646314591323,"828":0.053833653647271176,"829":-0.04433126478843708,"830":-0.0707639238967194,"831":-0.04927700610666739,"832":-0.05981269737577001,"833":0.05421384574049506,"834":-0.008208433060915359,"835":0.026479219648108315,"836":-0.029165394579726774,"837":-0.012633718855376029,"838":-0.10704003670477501,"839":-0.053862615495180156,"840":0.03373083749884186,"841":0.010815169270499215,"842":0.001237496941893664,"843":0.14836659762869647,"844":-0.014685280361818393,"845":0.025251066547573402,"846":0.04908596418589984,"847":0.009256756754397756,"848":-0.06674011239137953,"849":-0.013317877346217458,"850":-0.07194292309040062,"851":0.0961708249457586,"852":0.11364403099733987,"853":0.0028286938006231756,"854":0.08888861404094239,"855":0.053730034801757955,"856":0.037236331419175164,"857":-0.008939173791701284,"858":0.05839149791371324,"859":-0.005681692935994075,"860":-0.06776861082804038,"861":-0.04912634508606437,"862":0.08953830380093906,"863":-0.050188154839096395,"864":0.005054628295440495,"865":-0.06172125208471403,"866":-0.054810013012920704,"867":0.028943006060711377,"868":0.03443475711838405,"869":0.037823769826959,"870":0.016030822970167693,"871":-0.0014525412729570913,"872":-0.038414928436234876,"873":0.034415168596844306,"874":-0.025035822251322587,"875":-0.06536264127839894,"876":0.09908047525547196,"877":0.036169298727599435,"878":0.02734922722366269,"879":0.08853110150741142,"880":0.03495831384279524,"881":-0.017315917964598398,"882":0.1076884278281978,"883":0.009964924651152576,"884":-0.016925380968750573,"885":0.07742856640776745,"886":-0.07793209435215867,"887":0.2202477368735374,"888":0.04350307341440543,"889":0.020871352727270986,"890":0.17786794727114677,"891":0.001177056654859649,"892":0.007143497096886181,"893":0.12486369942064482,"894":0.05251083806551864,"895":0.007210674726406551,"896":0.15212563986613364,"897":-0.006535742352707522,"898":0.12914804260466847,"899":-0.007832266833063836}},{"sx":5,"sy":5,"depth":36,"w":{"0":0.032670683140365135,"1":0.0034428616292404876,"2":-0.10525287054945574,"3":0.1584048619941479,"4":-0.07690676312532799,"5":-0.007400963626395875,"6":0.05216364529395841,"7":0.07437633131566397,"8":-0.033872199200184507,"9":0.004776871026632695,"10":-0.12077910292419763,"11":-0.06424974455610925,"12":-0.12164600841325965,"13":0.03345642828291672,"14":-0.03752208653349754,"15":0.1049706602655953,"16":0.029092933648993347,"17":-0.08784378566208409,"18":-0.0039470187794070095,"19":0.21012056342677962,"20":-0.2040981771873934,"21":-0.01500485864622018,"22":0.10509444063535138,"23":-0.10685835179198115,"24":-0.0679337730779843,"25":0.01974370673184835,"26":-0.08848852326658385,"27":-0.018604898730631248,"28":0.024797916976847773,"29":-0.06474402334235828,"30":0.007404515521263524,"31":-0.03625624521898173,"32":-0.0925010837453894,"33":0.04434357895049994,"34":-0.02665528281293049,"35":-0.11170209344271848,"36":0.06121985990087446,"37":-0.021163647821791778,"38":-0.15097552462292324,"39":0.030354434642940416,"40":-0.02111904685628617,"41":-0.003527780807130968,"42":-0.02742462102357306,"43":0.10438089161140277,"44":0.041924035147004844,"45":-0.0017742950499789814,"46":-0.06666651267741748,"47":0.029052040621730387,"48":-0.11829034846844932,"49":-0.00032930572692046773,"50":-0.08782853332363967,"51":-0.031091002348844418,"52":-0.03887003740424127,"53":-0.07458686043181285,"54":0.02016428475097125,"55":0.0007964880737429183,"56":0.07708816192631421,"57":-0.017833826494626684,"58":-0.010813304046339308,"59":-0.02944821469457159,"60":-0.026000096136469003,"61":0.01351921517980958,"62":-0.0014960485832803236,"63":0.0007644820489137342,"64":-0.12387027328464059,"65":0.06961729319558388,"66":0.08055211774541601,"67":-0.07578296317319481,"68":0.12484319997166661,"69":-0.037708890042771885,"70":0.04187841361936733,"71":-0.020108952985440937,"72":-0.15325031314773815,"73":-0.04015057894498093,"74":-0.07631386685392466,"75":-0.08786282706871183,"76":-0.10140226140289148,"77":-0.02932390874747443,"78":-0.026383765085333466,"79":0.09760933301187572,"80":-0.03047026815488591,"81":-0.032328165028621854,