{"layers":[{"out_depth":1,"out_sx":26,"out_sy":26,"layer_type":"input"},{"sx":5,"sy":5,"stride":1,"in_depth":1,"out_depth":8,"out_sx":26,"out_sy":26,"layer_type":"conv","l1_decay_mul":0,"l2_decay_mul":1,"pad":2,"filters":[{"sx":5,"sy":5,"depth":1,"w":{"0":-0.1081420102288904,"1":0.10512598414954777,"2":0.20574230866803733,"3":-0.07824463636711693,"4":-0.24080685379854036,"5":0.3497891919810775,"6":-0.22380571078100012,"7":-0.5861115304876997,"8":0.012155638987499332,"9":0.05918882414105306,"10":-0.22182602532855042,"11":-0.7025009080087631,"12":0.038683198563607295,"13":0.42776549275058134,"14":0.1741541837368813,"15":0.27642145032634285,"16":-0.5074203474753479,"17":0.036439205663463994,"18":0.2509317109735455,"19":0.21860233994725226,"20":0.3618648057400991,"21":-0.7300801937748538,"22":-0.09879503747873909,"23":0.4478915876184034,"24":0.19028586322753305}},{"sx":5,"sy":5,"depth":1,"w":{"0":-0.010212598101593286,"1":0.3310506071157174,"2":0.04118458146098203,"3":0.35109561484856644,"4":-0.060995465010672816,"5":-0.03463670758044958,"6":0.007848523837596731,"7":-0.2770181077884421,"8":0.23887474818093987,"9":0.23685102827699267,"10":0.004544021087264327,"11":0.01509251939598627,"12":-0.3762792073823497,"13":0.13302377495838222,"14":-0.06920509477692646,"15":-0.22662068232523322,"16":0.21924912138513228,"17":-0.1578359651285565,"18":-0.12722009325527373,"19":-0.00034272596543358106,"20":0.37870328886890703,"21":0.08137315878751848,"22":0.012752585286686543,"23":-0.3516089100915695,"24":0.05661724845137257}},{"sx":5,"sy":5,"depth":1,"w":{"0":0.18080391170537805,"1":0.2848463955749729,"2":0.253012513829064,"3":0.04139081783144592,"4":0.2142034182532742,"5":0.2679873473327764,"6":0.20469488545776568,"7":0.2962155149785528,"8":-0.2510346599582935,"9":0.09502775315285703,"10":-0.21473812044721033,"11":-0.18867201100059205,"12":0.2143347823483331,"13":0.13009314805025488,"14":-0.0760376630847066,"15":0.13936679699008583,"16":0.07188514201283651,"17":-0.04816181018654955,"18":0.18893301582271269,"19":0.06854935850504257,"20":-0.2822990529342855,"21":-0.35134697704560575,"22":-0.4818527107581116,"23":-0.37453163253460053,"24":-0.4134312135672758}},{"sx":5,"sy":5,"depth":1,"w":{"0":-0.12372532783840481,"1":0.0014386568096057678,"2":-0.5243594468127519,"3":0.21025036552446427,"4":-0.16219209100620588,"5":-0.26598110350416876,"6":-0.08499133866611983,"7":0.06133704652886214,"8":-0.29077436479223,"9":-0.011297492378588942,"10":0.3115425458325136,"11":0.5973395124128644,"12":0.06543326854985176,"13":0.004254144464964121,"14":0.06246904618855276,"15":0.27625519530750975,"16":-0.16535870536833236,"17":-0.27218106228626376,"18":0.12236555978854308,"19":-0.8281739826141532,"20":0.018150215627555033,"21":-0.17555700370004793,"22":0.06199418042232496,"23":-0.4058527338925103,"24":-0.0021569773815030974}},{"sx":5,"sy":5,"depth":1,"w":{"0":0.181522962889892,"1":-0.019301379126503135,"2":-0.1028834243075362,"3":-0.2086299902030967,"4":0.14730658864008503,"5":-0.2086118142623613,"6":0.09807408124268693,"7":-0.08519131343451064,"8":0.0031466783715797773,"9":0.17051331807059755,"10":0.04387119658054878,"11":0.6402040237281917,"12":0.24767443836958514,"13":0.5968319978427116,"14":0.10268465307391661,"15":0.2613228743874255,"16":0.18884386925045077,"17":0.297054363261559,"18":0.30462351919900604,"19":-0.24615335427614857,"20":-0.2775696164110239,"21":-0.4725734517175028,"22":-0.8669483899643496,"23":-0.7958660471759003,"24":-0.2508739461380025}},{"sx":5,"sy":5,"depth":1,"w":{"0":-0.2637349371616774,"1":-0.6400423485711533,"2":0.3650636510703489,"3":-0.12027932476877339,"4":0.4505968187680993,"5":-0.01817151137435681,"6":-0.4894501983100879,"7":-0.19261284617457852,"8":0.17220933183987605,"9":0.2539189338017206,"10":0.03484115115429638,"11":-0.2702886698723865,"12":-0.1944367462224399,"13":0.1137640670909971,"14":-0.2999021582511778,"15":-0.034041387064212586,"16":0.777842231359746,"17":0.3584146823431395,"18":-0.006772446821056205,"19":-0.269250602331847,"20":0.2949152003823191,"21":0.1309001494955625,"22":-0.5438835961284786,"23":-0.11437222111431342,"24":-0.21736822671601036}},{"sx":5,"sy":5,"depth":1,"w":{"0":0.021394903414203453,"1":0.13460963596835707,"2":-0.4756394200253752,"3":-0.1568386290914675,"4":-0.3640123796586046,"5":0.0821699782390327,"6":-0.24868435043141177,"7":-0.4787165907592432,"8":-0.44362377999853536,"9":0.0028463439570839393,"10":-0.6526231212915334,"11":0.011552243873103977,"12":0.49442514477375593,"13":0.16441772521112735,"14":0.39406357440040024,"15":0.1515079437722275,"16":0.22890553195666438,"17":0.3755139777846549,"18":0.4560447636228429,"19":0.25849859834691574,"20":0.2112059913335625,"21":-0.05979462226938772,"22":-0.23883303208035328,"23":0.050450007960716026,"24":-0.03255601348611521}},{"sx":5,"sy":5,"depth":1,"w":{"0":0.20000042284277753,"1":0.3124297911732339,"2":0.159046813621854,"3":0.17263734838004494,"4":-0.1291219096094893,"5":0.06426018415891725,"6":0.24992733690613128,"7":0.4262163348028281,"8":0.3820623024599235,"9":0.16910314745524962,"10":0.006020262645821672,"11":0.8067903981237695,"12":0.20781043103188584,"13":-0.05661861090964983,"14":-0.03378173051804441,"15":0.3577268384455012,"16":0.43693532820867476,"17":-0.2806657476630432,"18":-0.25546459429949175,"19":0.2639566744365074,"20":-0.8107878250947642,"21":-1.1222107264279633,"22":-0.5543246664610318,"23":-0.34757193936464564,"24":-0.3784842911429365}}],"biases":{"sx":1,"sy":1,"depth":8,"w":{"0":0.19038957437337103,"1":0.04636874879448188,"2":0.12008218862379103,"3":0.4752031485919288,"4":0.1555745537098139,"5":0.3513087773390447,"6":0.2008178939402459,"7":0.24551338528454544}}},{"out_depth":8,"out_sx":26,"out_sy":26,"layer_type":"relu"},{"sx":2,"sy":2,"stride":2,"in_depth":8,"out_depth":8,"out_sx":13,"out_sy":13,"layer_type":"pool","pad":0},{"sx":5,"sy":5,"stride":1,"in_depth":8,"out_depth":16,"out_sx":13,"out_sy":13,"layer_type":"conv","l1_decay_mul":0,"l2_decay_mul":1,"pad":2,"filters":[{"sx":5,"sy":5,"depth":8,"w":{"0":0.014987107837690148,"1":0.045165550876716865,"2":0.12472660327360523,"3":-0.11583032631943767,"4":-0.010213361675338966,"5":-0.12535462010922035,"6":-0.0818703940201931,"7":0.25171007460868716,"8":0.20336861180251065,"9":0.10925987748574767,"10":0.12793465895271944,"11":-0.1013695072114242,"12":0.12022411636240105,"13":-0.16911478036868222,"14":-0.015698920171065295,"15":0.1809191942673629,"16":0.17315310446632196,"17":0.05501980278140614,"18":0.06255418356544332,"19":-0.09473191450031611,"20":0.0768914255181296,"21":-0.08285483524160402,"22":-0.01180133297844935,"23":0.05910521424431667,"24":-0.0649499660909802,"25":-0.03934190775049399,"26":-0.005546468303955418,"27":0.166337878170873,"28":0.012587203441789346,"29":-0.0552372387119589,"30":-0.02625683998230189,"31":-0.05433627457483171,"32":-0.09428362982697419,"33":-0.017978344301669225,"34":-0.15152569916839664,"35":0.08189548021592057,"36":0.10369119332669534,"37":0.09318781420525746,"38":-0.19778529232907363,"39":-0.08191527113226979,"40":0.006214076905811449,"41":-0.08374455133155102,"42":0.12146171124539537,"43":-0.07838581957856262,"44":0.00446182960373846,"45":-0.11507226473474985,"46":-0.035424796474218576,"47":-0.04324736383309208,"48":0.21958555113102501,"49":-0.05742682488393826,"50":-0.013721185491417699,"51":-0.19372353529788477,"52":0.02282662056771501,"53":-0.15677054639383414,"54":0.015100197632816576,"55":-0.14292071406278836,"56":0.13649152711542095,"57":0.11495901150366931,"58":-0.17480044849213242,"59":0.022547301987289863,"60":0.19253996603189374,"61":0.11219368907223266,"62":0.04777252639147726,"63":-0.2174388646964843,"64":-0.027035632921430235,"65":-0.05499260494495964,"66":-0.037579930677410556,"67":0.06333879959250559,"68":0.11429788685426195,"69":0.12557734598847398,"70":0.06992673893700803,"71":-0.07935010178832065,"72":-0.1360914529374764,"73":0.17113086472825897,"74":-0.0029234954182218867,"75":0.04523125047740563,"76":-0.039179543924724905,"77":-0.04244350205060008,"78":-0.13480121810396442,"79":-0.1205972047907761,"80":-0.05027666448949429,"81":-0.02362782529368931,"82":0.14619671472517226,"83":0.1173668065396406,"84":0.2184875928849617,"85":-0.04579414954555007,"86":-0.17817200584251325,"87":0.21566624083921043,"88":-0.05924877016421486,"89":-0.15691832525940952,"90":0.24943065467353998,"91":0.07077257721760132,"92":0.2328596517799346,"93":0.05854338954169616,"94":-0.11659818254226935,"95":0.15641608388300934,"96":-0.02675204315097105,"97":-0.06715467717676353,"98":0.06560593623454107,"99":-0.023530772759651646,"100":0.045771991242279986,"101":0.15724644196842916,"102":-0.04895362540794532,"103":0.3076222848943795,"104":-0.014114428489415286,"105":0.060466687527680585,"106":-0.0053100940349749635,"107":-0.13801141761446242,"108":0.05140192194747435,"109":0.020390390977876847,"110":0.2694965788897104,"111":0.11480562030131826,"112":-0.13054236582496867,"113":-0.07278047438892292,"114":-0.08210518206098297,"115":-0.0036024467138731408,"116":-0.1575722941623661,"117":0.09502135352647943,"118":0.1633621681817078,"119":-0.27982240074690407,"120":0.03741398150002456,"121":-0.246625092124818,"122":-0.03457815180310303,"123":0.2627195774176377,"124":-0.06989916868574812,"125":0.06200251582276519,"126":-0.11127861726716978,"127":0.16426028644930066,"128":-0.04149436165699057,"129":-0.010962038704104803,"130":-0.06546021607140544,"131":0.24434032529096797,"132":-0.03581341134899914,"133":0.1542504193032102,"134":0.019994791848615513,"135":-0.01073244332096737,"136":-0.036961208907018636,"137":-0.03508269220425528,"138":-0.017375281936740525,"139":0.1554444122826142,"140":-0.02429823320660351,"141":0.04290379916363756,"142":0.1563748164161782,"143":-0.174651933599079,"144":0.09862300280413838,"145":-0.05198256214862371,"146":-0.07078193579954686,"147":0.07760359901767559,"148":-0.04144427203943757,"149":0.20660480917928573,"150":0.18862169302629742,"151":-0.031574697688562435,"152":-0.02641931375813969,"153":-0.12145452388305467,"154":-0.063809992501434,"155":-0.004893701309208553,"156":0.11629034317764038,"157":0.1715894618451532,"158":0.13192581402863482,"159":0.025240822594579115,"160":0.21955109256550376,"161":-0.045376945444206396,"162":-0.011757130815686285,"163":-0.0523224205356982,"164":-0.06553559909724165,"165":-0.019904507704347207,"166":0.10480832124629869,"167":-0.34666912570422825,"168":-0.06980937445695332,"169":-0.023900125568788004,"170":-0.10140444692800574,"171":-0.05330350941253729,"172":-0.16175163639574555,"173":-0.2074082121135053,"174":-0.016290463615285026,"175":-0.16296630515660118,"176":-0.275353501892937,"177":-0.07164379600560758,"178":-0.055154587805229624,"179":0.05603604405633965,"180":-0.1449470049125534,"181":-0.07428073978744051,"182":-0.1591350862217828,"183":-0.09497472128880122,"184":-0.2228263522863162,"185":-0.07499021131580821,"186":-0.0702342228259768,"187":-0.020025260223309492,"188":-0.14058037686484473,"189":-0.013064536508413374,"190":-0.21997555551989878,"191":-0.15590841861395957,"192":-0.13960922088920333,"193":-0.14368163852416027,"194":-0.011311240979248335,"195":0.024795867316561238,"196":-0.2023634934969463,"197":0.2121562628396956,"198":-0.17012889961010566,"199":-0.2248664332514426}},{"sx":5,"sy":5,"depth":8,"w":{"0":0.22982148738767352,"1":-0.11701905112882843,"2":0.11548950608555925,"3":-0.115089513903312,"4":0.11176659923111319,"5":-0.2130209755052039,"6":0.09074591561442848,"7":0.08730731290693167,"8":-0.3681885748978441,"9":0.008933317309766497,"10":0.08926223524514579,"11":0.11390045828148344,"12":0.11924653681800988,"13":0.08658172140479424,"14":-0.057175396939228317,"15":0.05847329231326743,"16":0.5903236239235587,"17":0.25800942073065614,"18":-0.010107665674267404,"19":-0.13054984605495001,"20":0.11549842800338572,"21":-0.01189964505852998,"22":0.07492832504450242,"23":0.03444992755474499,"24":-0.19848800258347007,"25":-0.04570058775752516,"26":0.010152506276864561,"27":0.03633687820559383,"28":0.006775817895652224,"29":-0.02550675800080139,"30":-0.10677286250872453,"31":0.18587160361072355,"32":-0.24044834279652763,"33":0.01814560816090062,"34":-0.09270370835675598,"35":0.25701280933047993,"36":-0.288609305839976,"37":-0.2362771286503805,"38":-0.05920157161072672,"39":-0.01499820313850711,"40":-0.18785342303637892,"41":0.20964388263330497,"42":0.43790441186923523,"43":-0.2096313417457607,"44":0.10121976831617191,"45":-0.05128081541892076,"46":-0.496482466814558,"47":0.3119338918257281,"48":-0.24767758749978744,"49":0.021419308611335695,"50":0.7434321678302659,"51":-0.20172185806088094,"52":0.05086723100220435,"53":-0.32096862845320057,"54":-0.5909123652237482,"55":0.5210475625646162,"56":0.03314006099415689,"57":0.11873930067961533,"58":0.44210746066299544,"59":-0.07453228921527645,"60":0.01436730744418406,"61":0.11998533540310513,"62":-0.4426354345234505,"63":0.34325515100275167,"64":-0.2058128892192056,"65":0.02387928000454345,"66":0.19279021190282797,"67":-0.1375941024951686,"68":0.04676046372306192,"69":-0.06026359750203183,"70":-0.19763105687474833,"71":0.31635373058623056,"72":-0.12306689361693175,"73":-0.16497448858722236,"74":0.3563985048675528,"75":-0.1200774928010163,"76":0.10463730797130766,"77":-0.1830629706634675,"78":-0.1144797157841638,"79":0.17558558351528036,"80":0.14268516512819882,"81":0.005844902005135984,"82":0.21700305817605148,"83":-0.09838691375175126,"84":0.17929057488523034,"85":0.1506578876741739,"86":0.017327402346236344,"87":0.25254020937884536,"88":0.1327970291840201,"89":0.11718332677212559,"90":0.1317953623374779,"91":-0.045999123412993115,"92":0.22448897688060168,"93":-0.05002949172362544,"94":0.14402487892515453,"95":0.3216746440970304,"96":-0.002992880130990532,"97":-0.09976905654347298,"98":-0.07286814987613283,"99":0.09284262640959356,"100":0.1989976434957356,"101":-0.0671085460784671,"102":0.05922460941292716,"103":-0.15507423556057354,"104":-0.005105963832426285,"105":-0.0793020159617101,"106":-0.11381197207193072,"107":0.07862308138300252,"108":0.28392859489858074,"109":-0.19940905843234663,"110":-0.13077711119050908,"111":-0.11489267723622257,"112":0.06340928125783954,"113":-0.035788824710568864,"114":-0.1714766065610691,"115":-0.013872025997955579,"116":-0.019512537426728597,"117":-0.3680033304628031,"118":-0.0423928383969974,"119":0.015002505918681689,"120":0.04628749302431924,"121":-0.10368798743595362,"122":0.07802278711314654,"123":0.02005748883084008,"124":-0.002606659733432319,"125":0.1446839770865366,"126":-0.04026860109953107,"127":0.0036595886178906506,"128":0.07677215590728631,"129":0.00018232769460958548,"130":0.03823975031731734,"131":0.09092199617708915,"132":-0.04361814235201418,"133":0.04555860105608897,"134":0.05502734577645449,"135":-0.12170877946594708,"136":-0.0668302422682565,"137":-0.03236009594945276,"138":0.004247573012082557,"139":0.1184961294269431,"140":0.027560347183872343,"141":0.16633513328657476,"142":0.07552278694830461,"143":-0.18196130946791575,"144":-0.09987472390335358,"145":-0.097261567241252,"146":0.03786322961041786,"147":0.15397348567966093,"148":0.00296251674874249,"149":-0.0016650179127776282,"150":-0.09077582963324367,"151":-0.19815993142734448,"152":0.029442661220644494,"153":-0.019088062948978884,"154":-0.01622345346206816,"155":0.06661671327292364,"156":0.03729644591455854,"157":-0.11707951961619797,"158":-0.11701481069161501,"159":-0.03377722246186461,"160":0.20056120777434921,"161":-0.08552025065962605,"162":-0.25262931969741287,"163":0.04185766021707322,"164":-0.3051337307945874,"165":-0.09447554751631881,"166":0.3934187605393748,"167":-0.19180466293510745,"168":0.014240978775161102,"169":-0.1725104117694406,"170":-0.33320796463253627,"171":-0.02173293959035292,"172":-0.3034389829589852,"173":0.09984834522753247,"174":0.14997264040989822,"175":-0.38089352828261364,"176":0.23394473180874065,"177":-0.13762260700289475,"178":-0.2708669721743594,"179":0.06020342357630867,"180":-0.4260728578815186,"181":-0.12319519466232202,"182":0.12721007021276098,"183":-0.43474652988249773,"184":0.08703130557353171,"185":-0.08709316201435685,"186":-0.25509630436773595,"187":-0.01392081903264282,"188":-0.3309342586910856,"189":-0.03971301805987565,"190":0.2019494119440408,"191":-0.3270703025287736,"192":0.0757503937413874,"193":-0.012471868862647492,"194":-0.2465733033792877,"195":-0.035593374545030865,"196":-0.08811506431032742,"197":-0.05144521630331542,"198":0.2550266765694406,"199":-0.20375749922396377}},{"sx":5,"sy":5,"depth":8,"w":{"0":0.22198386090818156,"1":-0.04913044242552574,"2":0.17473812914797132,"3":-0.08598819524850013,"4":0.0761158048272139,"5":-0.01841572463951355,"6":0.004836682322045811,"7":0.10868798379438518,"8":-0.09552598349216965,"9":-0.11767953553432314,"10":0.132853327694836,"11":0.00008620497918385107,"12":-0.11621327871721654,"13":0.020138074784695564,"14":-0.036815253194597636,"15":0.08032702959997108,"16":0.06212951322116537,"17":-0.13123318367195205,"18":-0.05678286484522503,"19":-0.14631349398172686,"20":-0.10951900902766844,"21":0.029107541126148474,"22":0.06792899644258502,"23":-0.0979897212677916,"24":-0.02191089635700681,"25":-0.009549051691075278,"26":-0.05685485334160282,"27":-0.09487112911239055,"28":-0.14355464106632498,"29":0.01689616383068078,"30":-0.027983061838450923,"31":-0.09497299642751393,"32":-0.09505100683630249,"33":-0.16459146475904093,"34":-0.03749990163353619,"35":-0.083283429332152,"36":0.05037801844097554,"37":-0.11050115733278232,"38":0.001097741287573296,"39":-0.024215444139660407,"40":0.13157461417681335,"41":0.02665625509917553,"42":-0.11022806177549148,"43":0.004760444039245389,"44":-0.17443196544586254,"45":-0.026653966905559472,"46":0.01907990423950933,"47":-0.21018692621871135,"48":0.008365471296751503,"49":0.06723427075399271,"50":-0.11492609915889505,"51":-0.014612139967687123,"52":-0.3527274588701882,"53":0.0000556392689938449,"54":0.11732129985968671,"55":-0.3601286223547643,"56":0.02730306411411878,"57":-0.0020688170642503487,"58":-0.024428298251390066,"59":-0.06260352730784631,"60":-0.058180991492497405,"61":-0.03721150108577591,"62":-0.21770038884504125,"63":-0.09659227510811988,"64":-0.09714838676194087,"65":0.0045763668101239776,"66":0.07246189944983052,"67":-0.18151497515447615,"68":0.055594197536769835,"69":-0.004971868789882865,"70":-0.1828665414087422,"71":0.2423630922971298,"72":-0.08669950776371996,"73":0.04687424009630034,"74":0.25586691923740745,"75":-0.11830971394484746,"76":0.28558127076968587,"77":-0.012723892683938925,"78":-0.009831670051140058,"79":0.2615141040823658,"80":0.02613166770806107,"81":-0.10778275923549115,"82":0.014883219833096324,"83":-0.21695018243379574,"84":-0.14843916132432836,"85":-0.051113905952383555,"86":-0.03202857395386052,"87":-0.06795538850380614,"88":-0.10859841984873261,"89":-0.08688337210971142,"90":-0.2657530047846398,"91":-0.13329017565709775,"92":-0.11823250760409532,"93":0.035478076955345515,"94":0.07896123690414919,"95":-0.22947752046393718,"96":-0.17753754149099446,"97":0.14321764514489313,"98":-0.08609543898630362,"99":0.028979289080030182,"100":0.14150181066700657,"101":0.1257601932468388,"102":-0.03312377933702671,"103":0.04457109895966111,"104":0.01943109931731391,"105":0.09599771053678996,"106":0.1431996157861388,"107":-0.09425569513442926,"108":0.21213095838415363,"109":0.19056885151792183,"110":0.003099898754036564,"111":0.06656776033300194,"112":0.10094983929910521,"113":-0.06461618036309236,"114":0.05677307916889135,"115":0.1013701730943844,"116":-0.024208545816664553,"117":-0.21840098547353004,"118":0.007579245345640678,"119":0.07435826880737109,"120":-0.04885532006959172,"121":-0.07296118753102399,"122":0.016594058497801777,"123":-0.08813038232675004,"124":0.0031339814061835673,"125":-0.09533613883228187,"126":-0.00365251915991701,"127":-0.015704469998113674,"128":-0.15717577306249716,"129":-0.02514110505105442,"130":0.054365605090224436,"131":-0.03651629290699038,"132":0.22002773222591165,"133":-0.015525864352794658,"134":0.012873857083248523,"135":-0.032012224607584516,"136":-0.11797819816913248,"137":-0.05607026156140579,"138":-0.08439008395481389,"139":-0.0978217241588281,"140":-0.02329568952146062,"141":0.011374263353989129,"142":-0.09661842965414663,"143":0.08991162729898514,"144":0.023468909019876163,"145":0.01445811639655739,"146":0.05949022132481494,"147":-0.025210169997065417,"148":-0.10624904577041767,"149":0.03698049029152728,"150":0.14484897481609685,"151":-0.07305734539178246,"152":-0.008432369491660553,"153":-0.062247053188084094,"154":-0.18431236943676138,"155":0.005468213501236458,"156":-0.010404662714237813,"157":-0.011032078884496874,"158":0.25694953603204773,"159":-0.07452239093518331,"160":-0.11749944280271765,"161":0.1308500071417321,"162":0.08762591847964887,"163":-0.06316904366352152,"164":0.1976266210909787,"165":-0.13429659902163762,"166":-0.14199347714236205,"167":0.15082183594756354,"168":0.01611740214045375,"169":-0.05323292968563306,"170":0.024198360588981133,"171":0.01714757660513631,"172":0.03626141713932658,"173":-0.0566104427246783,"174":-0.011493798489718885,"175":0.2069054432801514,"176":0.04255377204500516,"177":-0.08667555879235406,"178":-0.08199802244141027,"179":0.01281248552270726,"180":-0.09617142348321328,"181":-0.13960299399017334,"182":0.30679053856171234,"183":-0.11718027462059884,"184":0.2098359444042896,"185":-0.03354024552037414,"186":-0.14170257982366874,"187":-0.13116345805493762,"188":-0.19352498218675124,"189":-0.0169765691504409,"190":0.21829473586060694,"191":-0.19508502896543087,"192":-0.015450342370124232,"193":-0.07118922692452198,"194":-0.07209827396893796,"195":-0.08927294166152352,"196":-0.17960867583236353,"197":-0.05699084908797382,"198":-0.1282795418465578,"199":-0.22814944121397257}},{"sx":5,"sy":5,"depth":8,"w":{"0":-0.22780768530182932,"1":-0.12075944533466945,"2":0.29463700840587226,"3":0.32192872623055097,"4":0.6608745539166779,"5":0.3082293687549844,"6":0.20233123965783967,"7":0.5384494347254071,"8":-0.05821325296683857,"9":-0.12098265232891953,"10":0.2530377844027253,"11":0.25894580573551196,"12":0.7615719885802493,"13":0.3171605272987152,"14":0.0840022074493538,"15":0.3611040914584377,"16":-0.1365081341213252,"17":-0.13203906372245622,"18":0.04894486172998705,"19":0.1626599928297709,"20":0.36208582805404743,"21":0.1051558814070871,"22":0.07847423957172064,"23":0.28623169630513723,"24":-0.14817420710372295,"25":-0.05791230538647785,"26":0.1439545024287454,"27":0.06809355221178742,"28":0.10224206135494207,"29":0.1601917600973445,"30":0.08403246528479037,"31":0.42483553687302666,"32":-0.06817615595138,"33":-0.017509871378654656,"34":0.07925612474446106,"35":0.14996070143196294,"36":0.11909210315836552,"37":0.08174188909191009,"38":-0.03059930530634757,"39":0.21659058964554198,"40":-0.011011657929040545,"41":-0.019210583276203914,"42":-0.011578695386103188,"43":0.027470382875140944,"44":-0.29018386577348526,"45":-0.17188759659295283,"46":-0.06790508082043915,"47":-0.04247462525131283,"48":0.07404708975144693,"49":0.08898857297603495,"50":-0.1484069614002635,"51":-0.11377521817207695,"52":-0.04411882259819851,"53":-0.14833783309210086,"54":0.08565844329308982,"55":-0.20055955995759203,"56":0.08848605663506319,"57":0.052513496734514824,"58":-0.1100144579126837,"59":0.023331580435154892,"60":-0.18897754072973225,"61":0.046253047407234314,"62":0.09211840781687801,"63":-0.24670661212556247,"64":0.11707033811984835,"65":-0.08607701748855878,"66":-0.049418473259246705,"67":-0.04325758091345285,"68":-0.018486638641922747,"69":-0.01841828074456835,"70":0.13319538520047425,"71":-0.2531169760332005,"72":0.11451036505128653,"73":-0.009677124672098017,"74":-0.11807018481188729,"75":0.045086397130674735,"76":-0.04745568342330747,"77":0.027466164408711496,"78":0.10598515572257208,"79":-0.17124321914221222,"80":0.0747741728003816,"81":-0.001295555427217084,"82":-0.16831735903212383,"83":0.06576068895819304,"84":-0.005467770084383968,"85":-0.06840209859265112,"86":0.039747372742942315,"87":-0.1579160418115935,"88":-0.025273396787427807,"89":-0.03480598829001373,"90":-0.08694462384428565,"91":-0.12158967189540343,"92":-0.15665717365094203,"93":-0.23019141066704543,"94":0.14278178723093826,"95":-0.3075856921757462,"96":-0.023974378707126372,"97":-0.18684758913422483,"98":-0.2313009277571805,"99":-0.06654323507616175,"100":-0.029705664623816935,"101":0.087709282702625,"102":0.10376129691698507,"103":-0.03449213483435977,"104":-0.08229368068464363,"105":0.06622980697554759,"106":-0.11977299341888027,"107":-0.07071591551269753,"108":0.0382285236393984,"109":-0.08896409958894329,"110":0.07043321420678168,"111":-0.13143644771295687,"112":-0.1879393278324866,"113":0.08229241333389678,"114":-0.049696850511889316,"115":-0.005961164263370122,"116":0.07355263212771514,"117":-0.06652329832819874,"118":-0.06513521133204483,"119":-0.05986294216805868,"120":-0.0862500077336201,"121":-0.11219416369394124,"122":-0.028159073334629768,"123":-0.06627420282344547,"124":0.05166960673825511,"125":-0.03764903254297621,"126":-0.3918773916954627,"127":0.03281889318585485,"128":0.057647730252158864,"129":-0.03470203531408575,"130":-0.0687120657805051,"131":0.02259412489405078,"132":-0.013189399159279119,"133":-0.11979355527304307,"134":-0.13337551151540147,"135":-0.03803188016495192,"136":-0.009733706067014498,"137":-0.14709951001534252,"138":0.14192015124441396,"139":0.009882330226937127,"140":-0.011202760722926808,"141":-0.13743797314608686,"142":-0.20669349059509257,"143":-0.12242278141838854,"144":-0.0338934034403302,"145":-0.06620792779520646,"146":-0.04368962476194903,"147":0.04693284715694474,"148":-0.018710637697428464,"149":0.03146032430899893,"150":-0.2172148494374588,"151":0.013091457658572598,"152":0.08839299784185743,"153":-0.04715104180444879,"154":0.013137350787761973,"155":-0.004284975015042318,"156":0.05060284853518531,"157":0.0794569967928595,"158":-0.08033870740870078,"159":0.005988332681865079,"160":-0.08038848704495613,"161":0.02183204884999663,"162":0.04445429750024686,"163":-0.2348191232774964,"164":-0.05271783302198019,"165":-0.0033016262486195574,"166":-0.11068597772141327,"167":-0.1544999408117425,"168":-0.06371281385506046,"169":-0.10035077214941403,"170":0.10305874778301732,"171":0.06347010615312122,"172":-0.017285898044244047,"173":0.02134904611815683,"174":0.005880392032375237,"175":-0.04842921677581411,"176":-0.023234390785960797,"177":-0.011344177459850807,"178":-0.00838216798786084,"179":-0.14197512096630854,"180":0.04236948194680219,"181":-0.01885929838491076,"182":-0.09194730211223968,"183":-0.07702827718828138,"184":-0.11885618827453519,"185":-0.07124516613026788,"186":-0.17841776828259598,"187":-0.004976155053944584,"188":-0.029654772177787024,"189":-0.098815846935804,"190":-0.10500888348818954,"191":0.07375023389474858,"192":-0.05698790577672639,"193":0.007215675477988213,"194":-0.1764146661381286,"195":0.03606907670494745,"196":-0.017948555810475688,"197":0.0551885582471775,"198":-0.02597012358638691,"199":-0.10936853646372396}},{"sx":5,"sy":5,"depth":8,"w":{"0":0.19020432089539344,"1":0.09606665628712088,"2":0.1228313426492349,"3":0.10159084615680014,"4":-0.054958005288945636,"5":-0.1086917541936839,"6":-0.15594368284725663,"7":0.037108618100695955,"8":0.16385620998031178,"9":0.01904412808619871,"10":0.2705337237547741,"11":-0.10715845882918536,"12":-0.11566906993244204,"13":0.054214079296339056,"14":-0.05449233446753365,"15":0.07948257202387117,"16":-0.058658132710278955,"17":-0.06252804470637319,"18":0.1980746272267458,"19":0.03275325217567048,"20":0.053729946839196144,"21":-0.05174368013077658,"22":-0.03779773240182114,"23":0.30549063718893515,"24":-0.02194941257521816,"25":0.05551031097295379,"26":0.10436339786117486,"27":-0.09602744713470578,"28":-0.09482214288380218,"29":-0.02297493913033301,"30":-0.2104145553732171,"31":0.13518097590573094,"32":-0.14972250051893843,"33":0.09012375037693066,"34":0.07758243052336826,"35":-0.1970714682929758,"36":-0.02367854765191625,"37":0.02305164296477228,"38":-0.1138793952926246,"39":0.023836358056849305,"40":0.1352771682635213,"41":-0.06033654676344517,"42":-0.15745539762694785,"43":-0.1467987348525115,"44":-0.17217413610369917,"45":-0.0681032718421969,"46":-0.140113243620432,"47":-0.19619998262360652,"48":-0.011595670134704283,"49":-0.14772112745765098,"50":0.012822460014693872,"51":-0.10609067823143509,"52":-0.17235494708335267,"53":0.03288068662048435,"54":0.07781872518977927,"55":-0.10847319933982916,"56":-0.12800536114393218,"57":-0.1303381607960008,"58":-0.006809001194152185,"59":-0.126674484019634,"60":-0.02507553790559175,"61":-0.04809151665729149,"62":-0.07705242010917236,"63":-0.09926669415601667,"64":-0.00545121644882257,"65":-0.08485905711437977,"66":-0.16490915255211477,"67":-0.09568954695307517,"68":-0.24714124006618982,"69":-0.008093909083840358,"70":-0.16358088967401307,"71":-0.14085038245087939,"72":-0.3824522310485131,"73":0.06669080265012219,"74":-0.05818502268161788,"75":-0.016469581534967796,"76":-0.15688600489371715,"77":-0.09950551385693177,"78":-0.10276533457130065,"79":-0.055663174107001404,"80":-0.004806272906453165,"81":-0.21262826526999498,"82":-0.2538738842084177,"83":-0.12652795826541968,"84":0.22628025006323213,"85":-0.07475332151890951,"86":0.06368033686334819,"87":-0.1601603070950843,"88":-0.11218314922283391,"89":-0.058412357298619544,"90":-0.11072502400039523,"91":0.0711452651531322,"92":0.3533558121724213,"93":0.06818159504115227,"94":0.07572864989728773,"95":0.10350356890027773,"96":-0.25517051400118207,"97":-0.19138467477618903,"98":0.02247456806865499,"99":0.28954532805085686,"100":0.6570618297058832,"101":0.4620119920088337,"102":-0.06767424992534732,"103":0.2592519002633159,"104":-0.1553327525514585,"105":-0.2832700355582492,"106":0.08906193981583974,"107":0.32656188319741764,"108":0.4657349222347877,"109":0.10418585744014554,"110":-0.12012484004593506,"111":0.22076253090580217,"112":0.1295247016129321,"113":-0.06398344131843106,"114":0.1259480005602528,"115":0.10514214051541926,"116":-0.03813857789554841,"117":0.05317230035256125,"118":0.016830180719719784,"119":0.0731001791540292,"120":-0.15095883471626942,"121":-0.032328440776062305,"122":0.060442972206081545,"123":-0.08792135842412946,"124":0.30951487358587254,"125":-0.09756506536825542,"126":-0.35128219819794004,"127":0.2570328329087974,"128":-0.00832219943551605,"129":0.05043972351242389,"130":-0.035659048838338016,"131":0.022504904518516684,"132":0.1508943733899369,"133":-0.02603492732611262,"134":-0.13453743583579394,"135":0.24065476950626258,"136":-0.08802925580181588,"137":-0.023447887767095152,"138":0.06359339928689645,"139":-0.14612413955481812,"140":-0.14063375702869169,"141":-0.19684873103031758,"142":0.1041805646966548,"143":-0.05242132406529346,"144":0.05332375771437174,"145":0.0629954053865153,"146":-0.12255928609842544,"147":-0.18309193355190842,"148":-0.13508931179769793,"149":-0.20631773328585631,"150":0.1711466899981322,"151":-0.1169224638713109,"152":-0.04316743602735496,"153":0.008641508302209423,"154":-0.05416384072042586,"155":-0.2359219194923353,"156":-0.12472121382224119,"157":-0.1495015413491883,"158":0.1999416361627885,"159":-0.20099259338282038,"160":0.008537925918422949,"161":-0.03909584308176979,"162":-0.05644939711917954,"163":0.06154769062107582,"164":-0.05412399813263711,"165":-0.13197425920715614,"166":0.11258348494740497,"167":0.2257880627375591,"168":0.08452092272093771,"169":-0.000467929246507215,"170":0.05497109623847544,"171":0.011212362241374257,"172":-0.2042340923827372,"173":-0.014556908346104755,"174":0.2382233056140736,"175":-0.14582286787182017,"176":-0.05286265847787718,"177":-0.11223800769046188,"178":-0.09124057150199964,"179":0.06774550809815283,"180":-0.045093653577210846,"181":-0.11301806501323808,"182":0.2536724775873352,"183":-0.18369194346030848,"184":-0.06856313415489808,"185":-0.26428287598853917,"186":-0.16806523909727034,"187":-0.016385332910100848,"188":-0.12395174816962715,"189":-0.14835603193540262,"190":0.12534083001795795,"191":-0.2735348710615984,"192":-0.2905305934373609,"193":-0.01985614210467311,"194":-0.2581718315475572,"195":0.14597032762482584,"196":-0.10336779518117041,"197":-0.09607425599505214,"198":-0.15579469904753143,"199":-0.15014769587269639}},{"sx":5,"sy":5,"depth":8,"w":{"0":0.1381811614549481,"1":-0.06320839444383713,"2":0.05670903134513002,"3":0.20958807057259357,"4":-0.011863831945057395,"5":-0.04741976081495335,"6":-0.1532482605407134,"7":-0.09456004921997764,"8":-0.0834504030917122,"9":0.06180606997974659,"10":-0.018861224254615096,"11":0.030979056757454763,"12":-0.00007908900989556404,"13":-0.026701461437303002,"14":-0.11061769496289846,"15":-0.13884302449829847,"16":0.13811733678094495,"17":0.22989783536959532,"18":0.11323940542700722,"19":0.0757792610536688,"20":0.15333856305622448,"21":0.09157363628024838,"22":0.13030201707687752,"23":-0.05366275356805282,"24":0.44278963300556456,"25":0.1544777128400288,"26":0.05500048287852243,"27":-0.160038171220314,"28":-0.06724489407707583,"29":-0.1943123785424567,"30":0.003215757135732137,"31":0.0844443992445798,"32":0.05543826027106583,"33":-0.1914037930491313,"34":0.12179188979879875,"35":0.04602361417782382,"36":-0.1795192540034084,"37":-0.02896379480089284,"38":0.1308153594641962,"39":0.061731174327189844,"40":0.0771127553295477,"41":-0.03297114471546862,"42":-0.07227261650952638,"43":0.08536682034006354,"44":0.006526222199362213,"45":0.08503635295662877,"46":-0.027072660227486785,"47":-0.17903181080028596,"48":0.061017136733614925,"49":-0.07627961786940232,"50":-0.08365746335225084,"51":0.1928430477721183,"52":-0.27781436594210507,"53":0.15533744337395095,"54":-0.05592864200060857,"55":-0.1735013092911147,"56":-0.019688536947364627,"57":-0.011150732875209733,"58":-0.05739534999417095,"59":0.11690041489756142,"60":-0.25461781540710704,"61":0.2565135085164601,"62":-0.0636972479139736,"63":-0.10462116915477421,"64":0.1684329139923715,"65":0.05096026805045253,"66":0.058982628451992695,"67":-0.1581310909778222,"68":0.019119249402373886,"69":0.21763479085017237,"70":-0.08159123493491112,"71":-0.14744539421186642,"72":0.33998078106761936,"73":-0.031067895143841857,"74":0.06357649513937189,"75":-0.17312638687608858,"76":-0.24234501122567292,"77":-0.04509321694461924,"78":0.04977996751160219,"79":0.017904264150465136,"80":-0.11476840726835981,"81":0.061590260052299554,"82":0.07369301913856664,"83":-0.06869853762774196,"84":-0.03757867784425334,"85":-0.06465407343335751,"86":-0.09293907185423919,"87":-0.019204753941328215,"88":0.07560348052076094,"89":0.00979362503441883,"90":-0.09839324386825624,"91":0.08308210940629124,"92":0.12269190027566984,"93":-0.15165993110965312,"94":0.003610400082290106,"95":-0.08440224293446236,"96":-0.08335474244059114,"97":-0.08209567733282407,"98":-0.06274098774559642,"99":-0.006514322952584898,"100":-0.0028435996177260635,"101":0.04197456468332483,"102":0.009924136654823446,"103":-0.04625217254877113,"104":0.19389626873629373,"105":-0.0649196239843901,"106":0.009750087465922524,"107":-0.04351152732797926,"108":-0.048927416253989886,"109":0.2665888166838782,"110":-0.07010548575414585,"111":-0.14128169633576787,"112":0.059300408517300195,"113":0.08520884479192031,"114":0.1651922243138932,"115":0.011715747842008153,"116":0.2667328834409098,"117":0.32990778136881094,"118":0.029592998781718814,"119":0.21789086472905062,"120":0.039529708681956155,"121":0.0017260659377854454,"122":-0.07741138539584409,"123":-0.09159185658370185,"124":0.05438506917839679,"125":-0.058955993678989134,"126":-0.04090593947513946,"127":0.015160128390343443,"128":-0.05770804262894148,"129":0.10849696696226076,"130":0.04004813117129002,"131":0.04159667759368945,"132":0.06301246508956437,"133":-0.0012521365560388131,"134":0.10131814793785364,"135":0.06491069354525057,"136":0.00476940222236452,"137":0.01575532432436098,"138":0.02339816604632374,"139":0.11807066751323474,"140":0.07976377974400957,"141":0.04062689268421931,"142":0.09192768134815663,"143":0.04445936877293384,"144":-0.07931906994044044,"145":0.011971178752007039,"146":0.06662577064814071,"147":0.20957322518696578,"148":0.07816317701853658,"149":0.21198548531502764,"150":0.18019360188333963,"151":0.019523445709732665,"152":-0.11907780178219883,"153":-0.1601352344042342,"154":-0.06483829241298494,"155":-0.11909216770173954,"156":-0.022796541248605983,"157":0.20928788815348476,"158":-0.14194304326413706,"159":0.05020208391944064,"160":0.08329066339417807,"161":0.0005483892830501803,"162":-0.12400176079030556,"163":-0.1333310840391647,"164":-0.026654679930700653,"165":0.09614408921369541,"166":0.2634587121139758,"167":-0.15519656124630635,"168":0.10639631883837448,"169":0.1067405601636489,"170":-0.10012803349296294,"171":0.04094244291745307,"172":-0.2550642779699964,"173":0.12176740350134611,"174":0.09577021094097311,"175":-0.16434763385334927,"176":-0.15307489991308648,"177":0.0034489222275119,"178":-0.17015977438125274,"179":-0.043201090302001595,"180":-0.05551412854110802,"181":0.06109226936896261,"182":0.16761786605031742,"183":-0.24482305010431363,"184":0.001767663705207821,"185":-0.04524787600524898,"186":-0.09265638730260115,"187":-0.10671469528338509,"188":0.03771962820645588,"189":0.15560752167885766,"190":0.2531428527542326,"191":-0.08767108149350028,"192":0.023552646728721177,"193":0.013513572529327807,"194":0.02281651822885465,"195":-0.10147522791363514,"196":0.09823044542474466,"197":-0.06937166763979118,"198":0.17793660948192466,"199":-0.1333490784120502}},{"sx":5,"sy":5,"depth":8,"w":{"0":-0.13722145602482502,"1":-0.10559699215496723,"2":-0.13609527760274684,"3":-0.17539118229873912,"4":-0.03868225579416009,"5":0.0477222511307201,"6":-0.019113222548114282,"7":-0.011106919043556497,"8":0.05499088174505309,"9":0.03337643031623775,"10":0.14089000890081035,"11":-0.1158225057321168,"12":0.06023737911846746,"13":-0.006836460529710937,"14":-0.22719704000600632,"15":-0.020461611261869517,"16":-0.08292343198071944,"17":0.009149119139406943,"18":-0.012854343965644954,"19":-0.01388042807383505,"20":-0.16184848396122917,"21":-0.035828464288377077,"22":-0.2760330624765287,"23":0.018255407381050803,"24":0.018731087682166643,"25":-0.009145813679459224,"26":-0.01687613575010757,"27":-0.17326614706844906,"28":-0.1636704646085748,"29":-0.03835370946044827,"30":-0.02146697670682406,"31":-0.17360908325494864,"32":-0.03205090658165036,"33":0.0675908037585417,"34":-0.022757745936178648,"35":0.14840863809589336,"36":0.2833576854491586,"37":0.19580930647681352,"38":-0.2124174050914897,"39":0.03077951842341353,"40":0.11473648775605008,"41":-0.15118298966311292,"42":-0.06479843965047428,"43":-0.2056528989904535,"44":-0.15616095462404095,"45":-0.20730675985552888,"46":0.07161051410713264,"47":-0.11026074819432631,"48":-0.3739899665469402,"49":-0.015220902162911333,"50":-0.11572358872493309,"51":0.324993372672761,"52":-0.2167238965792103,"53":-0.1242964808278791,"54":-0.0016324299906132517,"55":-0.21879401743113333,"56":0.28875861930065105,"57":0.1948364369400496,"58":-0.1356797342835255,"59":-0.06200630505951303,"60":-0.040609320463469226,"61":-0.06963560943228211,"62":-0.039383269400394466,"63":-0.11358409707932321,"64":0.09434126687733327,"65":-0.04641105142297839,"66":0.07883749768611036,"67":-0.1494888516538069,"68":0.34820064763800546,"69":-0.12332802051018896,"70":0.13721509292954773,"71":-0.0260904513163403,"72":-0.16065999962010002,"73":-0.07662423666042464,"74":0.0010714319855223307,"75":-0.063976133060414,"76":0.21541110146880735,"77":0.12302673830619008,"78":0.08340258230331561,"79":0.19287465897689124,"80":0.010747950367918254,"81":-0.08845817287601022,"82":0.19404066166117495,"83":-0.06568193354384419,"84":-0.03579188301957603,"85":-0.060823287410974945,"86":-0.31808091014791323,"87":0.05535769990778003,"88":-0.2810052440224475,"89":0.07975992157674572,"90":0.2713429241536568,"91":-0.10680489041941306,"92":0.2034089158787557,"93":-0.29808439896799055,"94":-0.456698570271331,"95":0.2643545592367312,"96":0.06079715627140837,"97":0.019188138759566327,"98":0.19584766079039762,"99":-0.08616213056080374,"100":0.31865446384603585,"101":0.044307756821572196,"102":-0.1994658531532495,"103":0.16955224601517702,"104":0.20579181116434522,"105":-0.05144627566406653,"106":-0.14961014917144427,"107":0.024106408928439647,"108":-0.21297900259339386,"109":-0.11642106851349324,"110":-0.11213085818486206,"111":0.21198707968420633,"112":0.15269383489699764,"113":0.03905715687020691,"114":-0.09138503682738158,"115":-0.053145131858061724,"116":-0.2486235155181586,"117":0.04130995588556063,"118":0.3152287073478192,"119":-0.3164199118137005,"120":-0.0771367588450485,"121":-0.08573760857441501,"122":0.0715569498383273,"123":-0.22318661314724111,"124":0.13663341455236444,"125":-0.00884250744308806,"126":-0.10152065398900455,"127":0.09789306300818863,"128":-0.12090424068790746,"129":0.05112155309008517,"130":-0.022872460195602136,"131":-0.13783057418008632,"132":0.05965136321605258,"133":-0.2174717199907609,"134":-0.08340071477123887,"135":0.2568864263514414,"136":0.019152123457976882,"137":-0.01831185909339393,"138":-0.08179810349412635,"139":-0.09448828491059084,"140":0.030840804854727913,"141":-0.1379519537511387,"142":0.10440109823113274,"143":-0.013022664843047652,"144":0.08475685534582221,"145":0.0011045806791980459,"146":-0.20178070281185087,"147":-0.07353632299228498,"148":-0.15175030064973924,"149":-0.031466510454018014,"150":0.32689568270618546,"151":-0.18270471610787078,"152":-0.1907129752116699,"153":-0.1307509790358856,"154":-0.11752882732691325,"155":0.031321463593709,"156":0.05794152534573246,"157":0.05916212965445767,"158":0.18786329940657287,"159":0.04373952653933187,"160":0.19666208152401427,"161":-0.07267893338944281,"162":-0.09896270754727822,"163":-0.15135851522995686,"164":-0.18088256704798608,"165":0.05604475618011184,"166":0.17628304064708128,"167":0.057444450702746064,"168":0.3191839708361876,"169":-0.1513125194695747,"170":0.012118416177645166,"171":-0.09173166465954054,"172":-0.051880735186714697,"173":0.10232136262821968,"174":0.3581664686848876,"175":-0.12569863330612488,"176":-0.23188239662107546,"177":-0.0028778644701904733,"178":-0.15487988667658784,"179":0.0066746398641375155,"180":-0.09074798268395266,"181":0.1028333625421645,"182":0.10120177547948246,"183":-0.20337639564049978,"184":-0.0709207024979947,"185":0.11057194035679442,"186":-0.11800721444390692,"187":0.04393400029139213,"188":-0.16004579678552067,"189":-0.08625464189103622,"190":-0.329707624940294,"191":-0.06927383449576967,"192":-0.13032390755064627,"193":-0.10086749910535141,"194":-0.09266876734579559,"195":0.0019252705806159529,"196":-0.22916822341035667,"197":-0.2597983378774701,"198":-0.39306582593774203,"199":-0.20211138647707977}},{"sx":5,"sy":5,"depth":8,"w":{"0":0.048376694911170304,"1":0.015057753826617956,"2":-0.003969848501244965,"3":-0.058873124276937173,"4":0.0968227172233292,"5":-0.07738162947586742,"6":0.009172574941890548,"7":0.06552734861682344,"8":-0.11504174467455831,"9":-0.05702628438552669,"10":-0.0615176757274105,"11":0.17883628043664437,"12":0.18114488665484746,"13":0.12723801459656667,"14":-0.022877406637873948,"15":0.0556008377960949,"16":-0.07337311010591716,"17":-0.005447169612371693,"18":-0.04036513820750218,"19":0.023210924563896847,"20":-0.1382783482891042,"21":0.0330543066034449,"22":-0.008799011928616322,"23":-0.02970571150479566,"24":-0.06655041803578571,"25":-0.04494746795476152,"26":-0.05876554487052984,"27":-0.2130443599473782,"28":-0.06147911294824707,"29":-0.04697783712321057,"30":-0.12183073566326551,"31":-0.07905533425680195,"32":-0.1160636065170909,"33":-0.014497471943089285,"34":-0.1868222365069169,"35":0.0358813694962758,"36":-0.1582893681901789,"37":-0.008463500801082664,"38":0.09672938576259012,"39":0.08019597508508951,"40":-0.1680935886316885,"41":-0.10507201445928736,"42":0.2860630737173985,"43":-0.05596640060443006,"44":0.1638038579164981,"45":-0.01528638169385921,"46":-0.042027647168327735,"47":0.1208087708269634,"48":-0.11002229164009547,"49":-0.046393860799523796,"50":0.3664080380747889,"51":-0.05314953439829537,"52":0.2736109740972706,"53":-0.20822978665905814,"54":-0.19895225339129957,"55":0.4024580316424736,"56":-0.1213066120015325,"57":0.058008544751891274,"58":0.3682914324015881,"59":-0.06161153409875843,"60":0.283012881800857,"61":-0.08262185828756287,"62":-0.07800701346356523,"63":0.3628865503622404,"64":-0.19265458640888455,"65":-0.0035039736468587997,"66":0.260443007401102,"67":-0.172132700638544,"68":0.02176630648391403,"69":-0.1254144783730228,"70":-0.17713594974047747,"71":0.21575916079929197,"72":-0.08886215842294481,"73":-0.06559931072397036,"74":0.04873569382734181,"75":-0.149134844780488,"76":0.16269103146128602,"77":-0.047217801549063035,"78":-0.13934823972983607,"79":0.10438441366817414,"80":0.019445977770503928,"81":0.04465530260069245,"82":-0.1558371803266114,"83":-0.08704350468116843,"84":-0.1876508370974898,"85":0.07142641314903292,"86":-0.01750443911368135,"87":-0.21681142948457371,"88":-0.01091396600044154,"89":-0.09690983433940413,"90":-0.05009005372258282,"91":-0.03542595867028866,"92":-0.16198224271889192,"93":-0.06513399307725647,"94":0.018495324128692738,"95":-0.3532035224690865,"96":-0.19829720905229506,"97":-0.024907488093828208,"98":-0.06665955453302277,"99":-0.06653872857257755,"100":-0.05900293751608929,"101":0.11916674016244544,"102":0.0007795251973611254,"103":-0.11690422120857559,"104":0.00007473219479896005,"105":-0.08878953079019868,"106":0.015631509981875888,"107":0.14939278896581978,"108":-0.03518213664906012,"109":-0.2739875009290054,"110":-0.08281927864314041,"111":-0.16515493356972583,"112":-0.13311617717252838,"113":0.0762613178345616,"114":-0.021344592302734104,"115":0.013328696620033418,"116":-0.08497290544966792,"117":-0.005942160035229552,"118":0.002291078670013807,"119":-0.0030518280148125725,"120":-0.12679666600568615,"121":0.10880668110342283,"122":-0.001199438047283206,"123":0.10075152485813635,"124":-0.11848302998462784,"125":-0.15261085970284413,"126":-0.060040580792733715,"127":0.06341435048383114,"128":-0.058696733135670004,"129":-0.049249183524104595,"130":-0.134609016050912,"131":-0.08731939135762849,"132":-0.08803581071695443,"133":-0.09869316696230936,"134":-0.07706680964110882,"135":-0.12072413577861511,"136":-0.040457114587082676,"137":-0.06679386737713838,"138":-0.21489964163354333,"139":0.024032869555766678,"140":-0.05785887403724077,"141":0.1079822442707869,"142":-0.10168795145931321,"143":-0.09353649907745375,"144":0.1274510972066567,"145":-0.010362821704376347,"146":-0.08798114434255506,"147":-0.00984250334239184,"148":-0.14001256735422182,"149":0.025061376234413065,"150":-0.14995466274354566,"151":-0.08221303983944639,"152":-0.13932853187351385,"153":0.07650862141783125,"154":-0.0434769240587439,"155":-0.011935306081004446,"156":-0.004628516208959257,"157":-0.036187490630987695,"158":0.01588126887553929,"159":-0.09524144595193024,"160":-0.025145392558027866,"161":0.021001417241417387,"162":0.06440633504844315,"163":-0.1280444228848701,"164":-0.0758996890694914,"165":-0.10135066191065709,"166":-0.1345849145772611,"167":0.036791471354125804,"168":0.045797822886133877,"169":0.014110882640413033,"170":0.028583643813982366,"171":0.03555933228106117,"172":-0.02041116989987044,"173":-0.23391370432526593,"174":-0.13967088452253934,"175":0.024015158710107114,"176":-0.0025934615148620653,"177":-0.1736864623588346,"178":-0.03646792589657407,"179":0.08082306220699015,"180":-0.07804246563061613,"181":0.019749676407719904,"182":-0.005103242055097124,"183":-0.04417635982583869,"184":0.1053664229206212,"185":-0.030125858930210782,"186":-0.0516898372218248,"187":0.12137826821479654,"188":-0.030238924581858565,"189":0.051891930405492614,"190":0.006745836486882155,"191":0.03936163345412583,"192":-0.054464174565431345,"193":-0.010796226408287691,"194":0.08464814563843415,"195":0.13146271949188854,"196":0.007527998849896756,"197":-0.07644897924772598,"198":-0.17840692864726865,"199":-0.017008561094474593}},{"sx":5,"sy":5,"depth":8,"w":{"0":-0.1747123228083267,"1":-0.029656631175647614,"2":0.1144611865293496,"3":-0.053128290905787655,"4":-0.02931924759587999,"5":-0.019268588199791863,"6":-0.09909107289330625,"7":-0.059246196793838954,"8":0.13764060015405494,"9":0.06632281101628909,"10":-0.029187424619104705,"11":-0.278288829517209,"12":0.14797166747301174,"13":-0.08577589444744306,"14":-0.07668299631174981,"15":0.18297453986618725,"16":0.1751314310399065,"17":-0.02271985961674446,"18":0.07769949437883453,"19":-0.058200704516687775,"20":0.22161959518273333,"21":-0.08821576467696564,"22":0.2254969727893104,"23":0.04110161628792122,"24":-0.13113415156604896,"25":-0.07712328871285758,"26":-0.17657453808271822,"27":0.16152442397277347,"28":0.09089091401746693,"29":-0.012197814156358547,"30":-0.04027858165015429,"31":-0.02942770852253723,"32":-0.0734793474822415,"33":-0.013924827496441364,"34":-0.06089998102272621,"35":0.03877720943822067,"36":0.050055394849922774,"37":-0.03113982741982846,"38":-0.11624233554370286,"39":-0.1948583175374454,"40":-0.11129334195031428,"41":0.004947055901515886,"42":0.4256944966754106,"43":-0.04917489196719382,"44":0.1477729871350132,"45":-0.20789912447865172,"46":-0.23362477018808628,"47":0.24168878272689728,"48":-0.06573065241103503,"49":0.12770206915071455,"50":0.005251831229676788,"51":-0.026305326349439287,"52":0.04754161434852005,"53":-0.22977395082507662,"54":-0.1779598727370589,"55":0.25543049759924247,"56":0.018865156878762536,"57":-0.08276955508350783,"58":0.12197529505862834,"59":-0.09673052210655918,"60":-0.0821844993333335,"61":-0.17606650098198368,"62":-0.23024142607930237,"63":0.18910399702519412,"64":-0.1275977188841601,"65":0.0002148964660162976,"66":0.25988264195275906,"67":-0.1389291335438317,"68":0.003547111000169764,"69":-0.16965365773261754,"70":-0.129444671423394,"71":0.11210524910978911,"72":0.20294863831533208,"73":0.19500850995209093,"74":0.11954929218099847,"75":-0.07172326805669248,"76":0.22056645770777616,"77":-0.05081498006057983,"78":-0.21841929072514393,"79":0.06351228787595724,"80":0.07507419343773754,"81":-0.06017211637160706,"82":0.06581229117596302,"83":-0.06562666178209259,"84":-0.012692275800866445,"85":-0.17022476498584654,"86":-0.17370195968042434,"87":0.1908895695580821,"88":0.05726064739087431,"89":0.027828549381096915,"90":-0.046283710019968546,"91":0.06460933293735233,"92":-0.13190008603309866,"93":-0.0002655149393876832,"94":-0.10225912883536589,"95":-0.18939848650186536,"96":0.2966080770142874,"97":-0.053237174737561836,"98":0.08803367428780068,"99":0.042709121100553187,"100":0.12538918155097722,"101":0.12228196979685933,"102":0.015595336585817273,"103":-0.21348375926829877,"104":-0.014861453544637838,"105":-0.04261290149553173,"106":0.14589170907765306,"107":-0.052854415012261874,"108":0.13838370486248314,"109":-0.03701381623390871,"110":-0.21076613823172313,"111":0.2897067947770575,"112":0.12573721801348975,"113":0.06111047576284471,"114":0.15828540524761298,"115":-0.06508353270663265,"116":-0.26987381202806304,"117":-0.06279066659710135,"118":-0.002629842242408528,"119":0.0033841826735405947,"120":0.01624000790513139,"121":-0.05460073459527796,"122":-0.06333427229213348,"123":0.0901615055671397,"124":-0.003961043066455819,"125":-0.11350424778041984,"126":0.15505106515547712,"127":-0.12671216045673636,"128":0.1201195042365714,"129":-0.05437593159692386,"130":-0.04349749759101074,"131":0.06866128601866768,"132":0.14413449933695335,"133":-0.02502725189477803,"134":0.23217895155161145,"135":-0.05769272867336318,"136":-0.17440989601037235,"137":0.01826301646219231,"138":0.00044755382801136266,"139":0.18863189326457697,"140":-0.0945894315461155,"141":0.14250792167745918,"142":-0.24941840334968615,"143":-0.07305706074791575,"144":0.04502645139284471,"145":-0.030380157603086117,"146":0.03280749513100761,"147":0.14841107135354936,"148":-0.17239768434671335,"149":0.12105739741823363,"150":0.027710946992941788,"151":-0.1624182809985824,"152":0.006380233577432047,"153":0.025899969901174057,"154":0.0512356814631689,"155":0.22365383972015102,"156":0.10634942368999299,"157":0.3425392570369364,"158":0.2532025294984214,"159":-0.043210721933598054,"160":-0.12071647251312279,"161":-0.022048965918357474,"162":-0.35021768414702387,"163":0.049864061188306295,"164":-0.20126039311005892,"165":0.10644870696921498,"166":0.10698029405190784,"167":-0.37664863768145573,"168":0.02823811342664686,"169":-0.12759538023289288,"170":-0.18084391088492563,"171":-0.055250678620426624,"172":-0.13064154874277362,"173":0.1147723121578473,"174":0.06990834975112882,"175":-0.15780478752981508,"176":-0.02796728895640986,"177":0.046424209478005435,"178":-0.19174715788777394,"179":-0.06457585861575031,"180":-0.21578063805533737,"181":0.0007413247551973185,"182":0.12687605967686938,"183":-0.1726010736555955,"184":-0.05494068372684723,"185":-0.18556175356851975,"186":-0.2005725972027944,"187":-0.045275623180301816,"188":-0.09454245558289853,"189":0.10990275213117726,"190":0.060664808881882415,"191":-0.1282713572281528,"192":-0.12282643504138183,"193":0.0704283764665437,"194":-0.09764877487335218,"195":0.05798184592636469,"196":0.00724128116872717,"197":0.18723258842023383,"198":-0.06204962043214011,"199":-0.07948081705472164}},{"sx":5,"sy":5,"depth":8,"w":{"0":-0.014987473833281474,"1":-0.06564928606628218,"2":0.2986549545391762,"3":-0.03580530365962113,"4":0.04333931819501122,"5":-0.12686613796171464,"6":-0.04465977537299756,"7":0.2147165632495524,"8":0.03809980181302818,"9":-0.03151069224507331,"10":-0.10380979189778948,"11":-0.043087657804428935,"12":0.02786499580015651,"13":-0.0014322670947912333,"14":0.11760229217451915,"15":0.1377474103870988,"16":-0.05565082442249415,"17":-0.09176730092153698,"18":0.11444816624356997,"19":0.03358526500956057,"20":0.11563862494792804,"21":-0.008421699975789057,"22":0.10439635651293497,"23":-0.015024339750753256,"24":-0.03446920076175476,"25":-0.12295015592145975,"26":-0.04945034977123682,"27":0.04592604447044271,"28":0.00993997893040882,"29":0.13015178403459599,"30":-0.05696731290220989,"31":0.024272771062919068,"32":0.021708530756702663,"33":0.09465969023605954,"34":0.01625965577335061,"35":-0.05887426276251862,"36":-0.07275389101081604,"37":-0.09606955562414408,"38":-0.11962680670327536,"39":-0.00039641113593373096,"40":-0.2511355161437261,"41":-0.05352329769306516,"42":0.1521461538918279,"43":-0.06239429094984268,"44":-0.03492604588361405,"45":0.06041166900730848,"46":0.02795071396376203,"47":0.02284994387031615,"48":-0.13916246036936794,"49":-0.06999159606759363,"50":0.03222359105966529,"51":-0.10688420356932991,"52":-0.010518308382769726,"53":-0.06856131253011294,"54":-0.031444732138787956,"55":-0.012106638367644473,"56":-0.02904227622224665,"57":-0.035935497138499,"58":-0.018374431915583345,"59":-0.16766647629851136,"60":0.09576840555797343,"61":-0.09636206160663838,"62":0.03850880079913253,"63":-0.04378539242953506,"64":0.01988022901659947,"65":-0.16449797741481922,"66":-0.08746338851123575,"67":-0.13699783620347553,"68":-0.06113874362431923,"69":-0.12719476886207748,"70":-0.04252634535305153,"71":0.026925574385627746,"72":0.04656780402733013,"73":0.0025028089717385495,"74":0.01517947449368002,"75":-0.07688908933712651,"76":0.0036638682455704934,"77":-0.08270683960232643,"78":-0.017582117693309963,"79":-0.11285204695118198,"80":-0.09489411223455978,"81":0.07417573499739627,"82":-0.1104422275102197,"83":-0.09687742137354241,"84":-0.14240402805098418,"85":0.23852788433557714,"86":0.15660351499580666,"87":-0.18476495656763833,"88":0.10685419657984893,"89":-0.13907777009819391,"90":0.041087333756577214,"91":0.006215252362785766,"92":-0.0643893166264846,"93":-0.09966800186448038,"94":-0.031099296704038902,"95":-0.19013701926933999,"96":-0.009180306734836337,"97":0.05831217753329164,"98":-0.16674070013374717,"99":0.07192227710650347,"100":-0.04094592501631372,"101":-0.03596492919809014,"102":0.11510539474923115,"103":-0.1586920108598195,"104":0.2470324904355124,"105":-0.06284487069358287,"106":-0.17556853654252433,"107":-0.0006257767644458827,"108":-0.10954545159359773,"109":-0.19433513195161797,"110":0.22769404786011083,"111":-0.29568483665625706,"112":-0.1755262757315012,"113":0.09748530371911207,"114":0.07792128290257853,"115":0.13929750601488183,"116":-0.15643906311843303,"117":-0.06882109923436631,"118":0.0645618526211261,"119":-0.11704438611903863,"120":-0.052080797821651266,"121":0.11230183846913067,"122":0.03482192871162066,"123":0.08366218379299384,"124":0.11738146279849912,"125":-0.14717127772198188,"126":-0.08197517507218696,"127":-0.011900498906929183,"128":0.06328400642463695,"129":0.09269721493629614,"130":0.009912634228982494,"131":-0.085781419685976,"132":0.007481972966059695,"133":0.06902194997156035,"134":-0.09339081103963556,"135":0.16513698641036104,"136":0.051032062937199536,"137":-0.0835233074395354,"138":0.2127494065174608,"139":0.042237488850067624,"140":0.03826803626301532,"141":-0.06857478913297138,"142":-0.09633042255244965,"143":-0.06292208451383115,"144":0.03562701943238331,"145":0.05413256475205513,"146":0.0038874319578299813,"147":-0.05547618803710786,"148":-0.19726597285953126,"149":0.039720493395093336,"150":-0.15082229777725373,"151":-0.09827063218287221,"152":-0.10397526582979422,"153":0.04326710956652065,"154":0.01851430766087721,"155":-0.05837899455475817,"156":0.01811736012210945,"157":-0.03870890761186076,"158":-0.15437824776634404,"159":0.12610934160651774,"160":-0.10548647926838436,"161":0.11905094033884753,"162":0.10387503506324271,"163":0.14242073414058615,"164":-0.09256005000758438,"165":0.09634566979430816,"166":-0.14566341739373473,"167":-0.1291790674719443,"168":-0.0024714175103448905,"169":-0.010164176225682896,"170":0.000055636315506310714,"171":0.020478218858450654,"172":0.05853769044806412,"173":0.11479043695850298,"174":-0.004673783804316748,"175":0.06765183700860407,"176":0.12916671570640736,"177":-0.09615286465223741,"178":0.11975351003349267,"179":0.05469186964102967,"180":-0.02609745165516972,"181":0.010779413159236532,"182":0.1652079687337261,"183":0.033013037931464116,"184":-0.10236160155337237,"185":-0.08685406607024052,"186":-0.017143938716521933,"187":-0.04604116306366386,"188":-0.045430508148201265,"189":0.13966047169583012,"190":0.1053869836023766,"191":-0.19631069884169836,"192":-0.23081129744419862,"193":-0.08366646468188797,"194":-0.1070276651384794,"195":0.023858290129895147,"196":-0.06379761417662691,"197":0.059905060009072676,"198":-0.0605694105997505,"199":0.04796792223797275}},{"sx":5,"sy":5,"depth":8,"w":{"0":0.09265831713140055,"1":-0.07270709646203789,"2":0.052654435232038055,"3":-0.13110138755104628,"4":0.01724119776429328,"5":-0.04693697124657392,"6":0.03951232734521078,"7":0.03139955452344513,"8":-0.2212741918158437,"9":-0.17368558376349627,"10":-0.07464544113349283,"11":0.041264221851038674,"12":-0.04719321002828179,"13":-0.08832954950668304,"14":-0.03122750900530489,"15":-0.06457720114874066,"16":-0.1425205747446822,"17":-0.1935195730118674,"18":-0.1269397697859028,"19":0.026798511329362156,"20":-0.1742871017320176,"21":-0.027026823796271197,"22":-0.05106630429010669,"23":-0.0798200435058516,"24":0.013706488083256725,"25":-0.07392281002238797,"26":-0.11866158328370412,"27":-0.08356932906423971,"28":-0.047319021821990596,"29":-0.1937129594222998,"30":-0.019649804384793794,"31":-0.10493209861799956,"32":0.09345353369407125,"33":-0.08761087557620652,"34":-0.11809682808674223,"35":-0.03345848435506112,"36":-0.12304245815302854,"37":-0.029236710875262428,"38":0.0010373902302335042,"39":-0.1895294260647277,"40":-0.15574054539743892,"41":0.042163844573774555,"42":-0.02630272726536221,"43":0.14568419480130823,"44":0.3039071702515272,"45":0.05069519835561508,"46":-0.1678202525039607,"47":0.05189173693646188,"48":0.020626551578332927,"49":-0.02325942422480564,"50":-0.1213196177664586,"51":0.11335363362524584,"52":0.15135486698541356,"53":-0.013518179551913761,"54":-0.047415885873560895,"55":0.03311923828895652,"56":0.05722595331787844,"57":0.09602437118746747,"58":-0.14378085821461983,"59":0.02989154864331448,"60":0.12604967983178178,"61":0.2028770201372905,"62":-0.06848084289545034,"63":-0.10119673404506391,"64":0.0269615288064688,"65":-0.025648275953195097,"66":-0.012379322005395405,"67":0.022018454563550487,"68":0.041689964244340606,"69":-0.016471453579256147,"70":0.000623851902813056,"71":-0.12009813949098332,"72":-0.03696702678130615,"73":0.029952890391136827,"74":-0.021051546821937845,"75":-0.07193487445344125,"76":0.08090651461244423,"77":-0.012938200884166633,"78":0.08097454084256084,"79":0.0428233303369474,"80":-0.0726366773801335,"81":0.0021190604438374554,"82":0.11335818187809248,"83":0.05821635801095937,"84":0.15386944367337818,"85":0.0912044876489985,"86":0.04605752857896015,"87":-0.015229854561504582,"88":0.15880724297755308,"89":-0.07358590136015195,"90":0.13239542496229123,"91":-0.08687004685199971,"92":-0.09752131685421428,"93":-0.07754032464425907,"94":0.010008478774430535,"95":-0.05200072668805405,"96":-0.070013907467346,"97":0.0033534514483973712,"98":-0.000269572140868808,"99":0.09126437207240387,"100":0.0031942361376005417,"101":0.1442602498598077,"102":0.09968704207010551,"103":-0.11591203247073777,"104":0.11837646497766159,"105":0.1173857843898048,"106":0.00042268613204562164,"107":-0.010836688738666276,"108":-0.07695116516425149,"109":-0.03953019271259008,"110":-0.1931466684720657,"111":-0.07790598778055934,"112":0.010827232026472936,"113":0.09427251750892825,"114":0.09304396403495024,"115":0.017110082232825796,"116":0.16894512551118837,"117":0.08892751884077235,"118":-0.09908844952496199,"119":0.15455310479924475,"120":-0.12098360066647544,"121":0.012523015863924796,"122":-0.14870052597383365,"123":0.10244948093802432,"124":0.05067573556314449,"125":0.023025779023105052,"126":0.04629165048319347,"127":-0.13118367028752864,"128":0.2983879966396825,"129":-0.16129867132625392,"130":-0.004613653005370411,"131":0.08525600660231612,"132":0.002494034343800371,"133":0.14626813348765363,"134":-0.11136656179231366,"135":-0.030198133883278036,"136":0.049379104646566384,"137":0.11385694623112431,"138":-0.10554754716827713,"139":-0.010527832858458628,"140":0.023683795184413915,"141":0.00726124295474989,"142":-0.002640932206375446,"143":-0.0014849506535246212,"144":0.11793989483109509,"145":0.05600508383441746,"146":-0.09316006621923975,"147":-0.14257177091429038,"148":0.038616396282963955,"149":0.16349998156341286,"150":-0.0011913580656577388,"151":0.04224259922628792,"152":-0.05819545596272738,"153":-0.03654293871137723,"154":-0.0278058418152106,"155":-0.030350607571892653,"156":0.029367173710617648,"157":0.11261311797335398,"158":0.006205094670257063,"159":0.006732009588732286,"160":-0.04877756468215766,"161":0.07501008720575873,"162":-0.12600162921586316,"163":0.09090206978881865,"164":0.049162119361756754,"165":-0.018819129362823355,"166":0.0465481255812701,"167":-0.16324324446266011,"168":0.06796799946129921,"169":0.0036881740306076937,"170":0.051003436252201405,"171":0.10314986515902176,"172":0.030276457120542714,"173":0.06689790904202984,"174":-0.002595284337687004,"175":-0.18561443114109372,"176":0.010107163410640718,"177":-0.08994334108303793,"178":0.1388368720588823,"179":0.12254027308328443,"180":0.18489335682407088,"181":0.09741773521633405,"182":0.01820670577972572,"183":0.19036730809241806,"184":0.1476521537016601,"185":0.007864490731120586,"186":-0.020402893599308997,"187":-0.131120604726985,"188":-0.1273344575139867,"189":-0.010931212049970579,"190":0.07137955944164713,"191":0.11896992156987385,"192":0.01992422136747389,"193":-0.017275634799800148,"194":-0.0020583800459269353,"195":0.032601008011672115,"196":-0.06766214293493315,"197":0.11723897818583988,"198":-0.011447535334930365,"199":-0.2214835220892176}},{"sx":5,"sy":5,"depth":8,"w":{"0":0.08976590299334292,"1":0.1355081509691112,"2":-0.07128211818422718,"3":-0.0963510289477609,"4":0.03857760649694034,"5":0.02412522315148878,"6":-0.006336071760829526,"7":0.06626560249566628,"8":0.028947261231875705,"9":0.0377437139599337,"10":0.05113296062869292,"11":-0.06316986377541182,"12":0.023050380953974325,"13":-0.02233890814393199,"14":0.07357493078554755,"15":0.056467108800743626,"16":-0.09334481976515774,"17":-0.034237072589163475,"18":-0.038715971316786835,"19":-0.005366092136101941,"20":-0.06759412117785167,"21":-0.14155788263092217,"22":-0.037386673802375925,"23":0.023965870440118567,"24":-0.030990260397805527,"25":-0.048200813706191156,"26":-0.10278678834272884,"27":-0.09156816043599021,"28":-0.20320490557979476,"29":0.18011360649822858,"30":0.009151394104877062,"31":-0.19260182508256746,"32":0.00912254168116073,"33":0.09425491149991384,"34":-0.014221190902678042,"35":0.08790541860298093,"36":-0.3091419261231947,"37":0.13152033049916886,"38":-0.16391343673318992,"39":-0.0923321867758278,"40":0.01405373367176134,"41":0.10290190877654637,"42":0.006181145811971926,"43":-0.1172423444260459,"44":0.1519175973093572,"45":0.005994223785987714,"46":-0.046599975223451245,"47":0.1973016096770237,"48":-0.12948367435270047,"49":0.14186729358981398,"50":0.07771179854680492,"51":-0.07952540591828852,"52":-0.12264538621792168,"53":-0.23790735516848555,"54":0.09487958072966576,"55":0.07627147370979173,"56":-0.3087653747306957,"57":-0.05293915836016199,"58":-0.016180002687391247,"59":-0.03915437033510044,"60":-0.24369018287242156,"61":-0.11610075081893093,"62":0.051479509463353224,"63":-0.2080916945582963,"64":-0.371409972055948,"65":-0.057874913981281945,"66":-0.11407878029477246,"67":-0.22081379387774125,"68":-0.3802389390950237,"69":-0.20766505384130482,"70":-0.04588285601653949,"71":-0.3630116007245968,"72":-0.19526518791227274,"73":-0.10931112893595471,"74":-0.3347522231350802,"75":0.00464842336972004,"76":-0.28782575176385594,"77":-0.07539301674457956,"78":-0.18172584765918823,"79":-0.2983990626855094,"80":0.02514670560343329,"81":-0.04415940024200785,"82":0.22363638460494406,"83":0.03213379482652563,"84":0.09376312604557484,"85":0.11928748244846475,"86":0.027070712276844315,"87":0.3754752353310677,"88":0.010942065224701175,"89":-0.04831621392343785,"90":0.5022252999909983,"91":-0.09062356138969391,"92":0.39873746226278,"93":0.06486283916256139,"94":0.26490284106104944,"95":0.48576158047961415,"96":-0.14832299977086424,"97":-0.19398189870833285,"98":0.5043354864848567,"99":-0.14447949626557877,"100":0.603927948461188,"101":-0.17373586315717612,"102":0.17077657421178896,"103":0.6634936535509413,"104":-0.17529407750681045,"105":-0.11555163015918424,"106":0.5046284206626551,"107":-0.05153717257238499,"108":0.6282658766987268,"109":-0.24360335669170013,"110":-0.03569693539037301,"111":0.3639093998578453,"112":-0.2702229394488178,"113":-0.11657841231322734,"114":0.326668269496863,"115":0.02282823073223781,"116":0.8317989953815216,"117":-0.09406266173849884,"118":-0.006004036097521979,"119":0.49865859317212363,"120":-0.2537158184504315,"121":0.014526609569883569,"122":0.08361501425925433,"123":0.006619932875751898,"124":0.056803606932659526,"125":0.06264989593445501,"126":-0.10295620751533452,"127":-0.20986436619963528,"128":-0.3973978440485544,"129":-0.062877505857603,"130":0.03979898990498468,"131":-0.0648314192098524,"132":-0.15253174917330495,"133":0.026479432918185504,"134":-0.2718922166564297,"135":-0.09935548364773936,"136":-0.459627868948104,"137":0.07658659721353168,"138":0.10203811723800482,"139":-0.022060562078872362,"140":-0.08236668776928532,"141":-0.28979232153308243,"142":-0.32087691351742553,"143":-0.03736699623909222,"144":-0.31084402758544805,"145":-0.05641570373984828,"146":0.16303887165326478,"147":0.06876131543483213,"148":-0.06652637957720933,"149":-0.38576920564325207,"150":-0.31959866300364465,"151":-0.10845712525986576,"152":-0.2571057301328548,"153":0.010798431365517122,"154":0.3174372874251706,"155":0.018729910671846928,"156":0.021037643718988447,"157":-0.19698851536492462,"158":-0.42932616728624234,"159":-0.08251603389782612,"160":0.015685693697347437,"161":-0.20942686265808957,"162":0.009556392676751638,"163":0.33091816721331585,"164":-0.03588538704062425,"165":0.163645050883077,"166":0.3553514507834846,"167":-0.23960310787632905,"168":-0.1364236165231999,"169":-0.24232685372370696,"170":0.04784129731826329,"171":0.28049207545992655,"172":0.02711209299676146,"173":0.017915349085879887,"174":0.16760846153383113,"175":-0.2617632284164483,"176":-0.2917758795231226,"177":-0.2752784051312863,"178":0.10383320739456028,"179":0.04868718609171572,"180":0.029060105951911882,"181":-0.005806855955331278,"182":0.07259483525892642,"183":-0.1706460334069711,"184":-0.06378214773894211,"185":-0.29554429189506204,"186":0.012851045241401099,"187":-0.0797590571937546,"188":0.10820872667790678,"189":0.026557085763860788,"190":0.014078825865287654,"191":-0.11520299758849596,"192":-0.05430343219936125,"193":-0.1482442082400647,"194":0.016753647500955562,"195":0.1619343998834527,"196":0.10461550932619774,"197":-0.10551772258067213,"198":0.15307202057830854,"199":-0.11713792050360947}},{"sx":5,"sy":5,"depth":8,"w":{"0":-0.10587440903921089,"1":-0.023250637460206742,"2":-0.030728102273922805,"3":-0.004981046235300735,"4":-0.08106100303029157,"5":-0.026121116019767923,"6":0.11742152441454495,"7":0.22414778155911416,"8":-0.021305539144245923,"9":0.19679315589820984,"10":-0.07648423351205696,"11":-0.2093621488988536,"12":0.039285114086308706,"13":-0.03778360683600006,"14":-0.2307557543153599,"15":-0.15012547695263787,"16":0.11479582167346064,"17":-0.004231536345908081,"18":-0.045411283225734886,"19":-0.1589279220280908,"20":-0.17582202568373836,"21":-0.11827587919915421,"22":-0.10527431886933618,"23":-0.15720018504219846,"24":0.10517066409583858,"25":-0.017573929674135094,"26":-0.040701197444693075,"27":-0.03518025476242438,"28":-0.2234336418476941,"29":-0.14379697506233333,"30":-0.1299210537189148,"31":-0.027308509359037635,"32":-0.27984240370480334,"33":0.15056847229314355,"34":-0.04342826079374832,"35":0.020975780014987976,"36":-0.15271677099889225,"37":-0.046130889117528516,"38":-0.027751152639481035,"39":-0.1241674218558207,"40":0.14435429320728013,"41":-0.075093301308874,"42":0.2870213337441514,"43":-0.08317474598162984,"44":0.32729958549469346,"45":0.19171866123094147,"46":0.11840303429315938,"47":0.4126559852140506,"48":-0.07206147635473499,"49":-0.09592441115718045,"50":0.18660185263685103,"51":-0.1447721655758865,"52":0.4531322152980273,"53":-0.14960196208541968,"54":-0.029480840249647075,"55":0.3267125277884399,"56":-0.017646025653982822,"57":-0.15159266798283808,"58":0.07285059202302287,"59":0.029608587263495165,"60":0.3377594410408535,"61":0.2948424677701676,"62":0.012877154678542248,"63":0.1421357441766841,"64":-0.022461711421537568,"65":-0.08732165875209941,"66":-0.05615538127094273,"67":-0.042874527624585095,"68":0.12084624693743662,"69":0.08828316423080419,"70":0.07673860111667716,"71":0.13001699296004468,"72":-0.024044623726200507,"73":0.04410499164966058,"74":-0.125623285601273,"75":-0.08714817141566744,"76":0.12746910588411361,"77":0.03826521020167474,"78":-0.030875807421544603,"79":0.14175763928350196,"80":0.1516910361388963,"81":0.018342173000025136,"82":-0.1395681211451933,"83":0.08944471322322144,"84":-0.056360177284208335,"85":-0.004585946995390187,"86":0.026974211520839977,"87":-0.41448203668556644,"88":-0.06879977911989309,"89":0.02562569518647003,"90":-0.03677762335234923,"91":0.08695177527942201,"92":-0.04057178877050637,"93":-0.14245056627645875,"94":-0.0938152148842623,"95":-0.23623625857203057,"96":-0.04018912158355913,"97":0.025330314247145505,"98":0.12349581066146507,"99":-0.07010623075284653,"100":0.08668649590620538,"101":0.019930835412001986,"102":-0.07808632745590856,"103":-0.17378467672137288,"104":0.14886631682632878,"105":-0.03492582550718827,"106":0.19911065221367474,"107":-0.023159558663615742,"108":0.12939606357160482,"109":-0.06800177029539523,"110":-0.004693415397087773,"111":0.25479051376735246,"112":0.1282058124691522,"113":0.010734224968665027,"114":0.1543452046598914,"115":-0.060407289989410876,"116":0.20119235547054254,"117":-0.06790347866904929,"118":-0.05408290961363425,"119":0.2848857396122604,"120":-0.08127938308778443,"121":-0.15216649418496125,"122":0.04542678871541472,"123":0.07066992763571218,"124":0.05865717103906918,"125":0.02685696141513711,"126":0.21041828755989792,"127":-0.12926400945477518,"128":-0.13646850177446293,"129":-0.09744381435716427,"130":0.030957922203275853,"131":0.22128342954684105,"132":-0.06580083112164382,"133":0.04946995108971305,"134":0.25305404576439045,"135":-0.21156330869505102,"136":-0.14431074498770297,"137":-0.0008621891252761,"138":0.08355484075062869,"139":0.37824244789804795,"140":0.02754632717328661,"141":0.1878370161047041,"142":-0.003077102883335965,"143":-0.19380610653515123,"144":-0.04555695830941076,"145":-0.043525957883126964,"146":-0.007569390486840471,"147":0.17133953336372737,"148":-0.047922930975657356,"149":0.3865988381550872,"150":-0.04861270659812904,"151":0.03734006442485235,"152":0.041741079148824675,"153":-0.07469412196633916,"154":0.048916471264183956,"155":0.15727003970966058,"156":0.1095418688172367,"157":0.17667895533530587,"158":0.16665385059507776,"159":-0.036632749976970726,"160":0.008702393412106404,"161":-0.12414800844549122,"162":-0.19651405355088916,"163":-0.09536414364269113,"164":-0.047149627544894636,"165":-0.20748868410310087,"166":-0.27072050556817073,"167":-0.09292303364092615,"168":-0.1755509813715094,"169":-0.07061309988403357,"170":-0.10723940650945019,"171":-0.07487394189932457,"172":-0.04343949554615763,"173":-0.23598995798885847,"174":-0.22939843736596796,"175":-0.08252160847210027,"176":0.056981738092057095,"177":0.03782175671506154,"178":-0.05679673384907227,"179":0.027259284545740666,"180":-0.13646974101342313,"181":-0.3131008485111945,"182":-0.16278015461774575,"183":-0.2172092076401556,"184":0.004116258665728338,"185":-0.09603971944131465,"186":-0.01747292436906094,"187":0.07222154426583532,"188":0.0002372186397445841,"189":-0.030257533260720452,"190":-0.08415351926785151,"191":-0.18897455933470184,"192":0.18706734284261844,"193":0.027481792191576312,"194":-0.09704607380128132,"195":0.026872515792492387,"196":-0.006187048617752735,"197":0.054868029968774816,"198":0.09870413074058323,"199":0.04915047627576691}},{"sx":5,"sy":5,"depth":8,"w":{"0":0.05646152722839387,"1":-0.09200083930446068,"2":-0.09234718798803628,"3":-0.11003356879015337,"4":-0.18135011971068293,"5":-0.07246031937684763,"6":-0.1948273045458009,"7":-0.06882189278544741,"8":-0.1654228028886498,"9":-0.13212144344067728,"10":-0.1303573993048556,"11":-0.1604660257342318,"12":-0.25620938670458776,"13":-0.12152261526109359,"14":0.0991221744635554,"15":-0.15251619813718909,"16":-0.06137323820140522,"17":-0.1177469936296446,"18":-0.15643269707674592,"19":-0.03099378716195464,"20":-0.21460211556383407,"21":0.0022622914815973857,"22":-0.07383478132549633,"23":-0.09363839480083967,"24":-0.07578180984304501,"25":-0.12301108936247428,"26":-0.16120840210813608,"27":-0.0775959735678433,"28":0.05221135266818732,"29":-0.02008425660777963,"30":-0.07913196047725951,"31":-0.07272585765184844,"32":-0.15450165391096968,"33":-0.07477011244535059,"34":0.10214163006363798,"35":-0.05566069887920163,"36":0.051527060714341995,"37":0.009245277312741971,"38":-0.2810722366840382,"39":0.05632966743434746,"40":0.036753102918927236,"41":-0.1914943624620787,"42":0.01054475700157122,"43":-0.2222935405180576,"44":0.1171375473832727,"45":-0.05560811974322728,"46":0.025800371796924213,"47":0.059358414106170994,"48":-0.12156291000355637,"49":-0.09582112448625053,"50":0.09426185069669936,"51":-0.09367922424058236,"52":0.09863718981907353,"53":-0.0946328011825598,"54":0.0005900781579892921,"55":-0.06610245774847538,"56":-0.44454244110310875,"57":-0.13559609170721335,"58":0.061015050963191785,"59":0.11130525953526349,"60":0.4261701733315696,"61":0.01856549504462347,"62":0.009329421454034207,"63":0.1920000375940747,"64":-0.2612481527050357,"65":-0.08246651356046786,"66":0.00820876920043763,"67":0.262498791702806,"68":0.32337363352091525,"69":0.13612438829052567,"70":-0.07989135584299027,"71":0.28216072061268316,"72":0.1684825346279247,"73":0.1738250163545905,"74":0.08870660642070648,"75":0.07939881111983949,"76":0.18399860485831143,"77":0.003716643947649527,"78":-0.008747728740185045,"79":0.1125415732241278,"80":-0.17268997626848506,"81":-0.10449477362291155,"82":0.07693920581634155,"83":0.06727276574701169,"84":0.23154357845564638,"85":-0.11343638037677847,"86":-0.03034049490056674,"87":0.16255899247112587,"88":-0.18866466964641376,"89":-0.0421871505332362,"90":0.2751649747498575,"91":-0.01983464074291712,"92":0.14075348068646823,"93":0.04370958237850199,"94":-0.15518487315273427,"95":0.21765186615585036,"96":-0.10040585070182761,"97":0.00998787563269291,"98":0.0695326197332386,"99":-0.04530467295313552,"100":-0.11740076376610793,"101":-0.14363385774754905,"102":-0.14252945634413441,"103":0.17255522059515752,"104":0.12275925441534642,"105":-0.10924362718061569,"106":0.018730631332994727,"107":0.023860720930779514,"108":-0.23811049151702074,"109":-0.22642147487472225,"110":0.18052541208002537,"111":-0.11295983741762748,"112":0.242711454407926,"113":-0.027292856173983894,"114":-0.023259556126557095,"115":-0.06498403558228201,"116":-0.04437714861779799,"117":0.008108033180017935,"118":0.10083061721443948,"119":-0.3625510804691274,"120":-0.14531987022934859,"121":-0.02616048265935146,"122":-0.09080522856917844,"123":-0.03439685211790634,"124":0.181723446986652,"125":0.015604655841783293,"126":-0.052926364852174425,"127":0.28820664687118563,"128":0.001476716634368609,"129":0.010934321871429103,"130":-0.02483392165669574,"131":-0.054973499746899177,"132":-0.06074199660295781,"133":-0.11827313057982981,"134":0.13036335843031258,"135":0.11669062969623117,"136":0.04703054431133481,"137":-0.0494416628923085,"138":-0.15510941750661486,"139":-0.019682498093767865,"140":0.04653911969836904,"141":-0.1130770590015874,"142":0.23280544310620543,"143":-0.01347743139874993,"144":0.001907634853498499,"145":-0.1098411858510136,"146":-0.2820384613112757,"147":0.013178716143674066,"148":-0.02379180631764568,"149":0.1012088160547127,"150":0.1711203237877119,"151":-0.19290799222766658,"152":-0.045684998206082676,"153":-0.10184073749484321,"154":-0.22435128613212355,"155":0.0907451420271035,"156":-0.014078450911588205,"157":-0.03806472528612409,"158":-0.17218072686632893,"159":-0.1416176259517172,"160":0.07277055397507637,"161":-0.0648008209065373,"162":0.2066225567146721,"163":0.0392502808727718,"164":0.1722669128638514,"165":-0.1250282433103293,"166":0.1319447713961612,"167":0.10020848172677208,"168":0.12778999699860102,"169":-0.08772878787349501,"170":-0.11638793272776508,"171":0.19140203971121028,"172":0.10437486197626246,"173":-0.06584186012626031,"174":0.18124335269434014,"175":0.04356300314852515,"176":-0.048303747563557264,"177":-0.12205679697005777,"178":-0.15335326090974957,"179":0.02003150321794106,"180":0.04576277837626349,"181":-0.01677911397900413,"182":0.08031432032470757,"183":0.023506065296839747,"184":-0.03210058842098338,"185":0.06804498414044408,"186":-0.0918427419889901,"187":-0.000006337732133545172,"188":-0.014709632836657136,"189":-0.12864327604006034,"190":-0.1911783456636681,"191":-0.19954970515487272,"192":0.02204293310608716,"193":-0.09894734833913096,"194":0.029543115257937506,"195":0.004471177198465598,"196":-0.045575469224736986,"197":-0.037555360143751285,"198":-0.22782594368754086,"199":-0.09374284208381412}},{"sx":5,"sy":5,"depth":8,"w":{"0":-0.2135115888567643,"1":0.052839051443704474,"2":0.1628813217567386,"3":0.32850265855958916,"4":0.04888496061896077,"5":0.05633563663437369,"6":0.09192745096045664,"7":0.0544432179739513,"8":-0.021270300956571356,"9":0.14109454836199065,"10":0.0199750106717499,"11":0.14152327274086637,"12":0.05918651490784634,"13":0.03428124914674806,"14":-0.2523978568425421,"15":-0.029460420703236997,"16":-0.03405913059864662,"17":0.043374100359287474,"18":0.1031261691511557,"19":-0.05216132549773686,"20":-0.10784686778002767,"21":0.13203697485644617,"22":-0.038341679168420746,"23":-0.06452874953665835,"24":0.1001184649687372,"25":-0.001981595424334459,"26":0.006837003115298488,"27":-0.18810178413563244,"28":-0.17144284553195918,"29":0.08091282494663649,"30":0.015360937125944808,"31":-0.027528922137137,"32":0.15043362697895668,"33":-0.13664036319946507,"34":-0.0060218755461562724,"35":-0.008648442524890413,"36":0.12283384671993167,"37":-0.04412458330694725,"38":0.2236679732562853,"39":-0.15898382953322152,"40":0.1776200265514517,"41":-0.015969267839027215,"42":-0.08300516891133805,"43":0.006376616264719673,"44":-0.051471347406653836,"45":-0.07630241550506248,"46":-0.14147253438188578,"47":-0.039964091589487626,"48":0.06810155589054198,"49":-0.12607711911564992,"50":-0.16732957535736198,"51":-0.10351701534556236,"52":-0.07581321325204297,"53":-0.0629560037511548,"54":0.13247441837703072,"55":-0.1811680644806907,"56":0.008501373390189162,"57":-0.0860051590206693,"58":-0.1578172707471359,"59":0.018985254315238162,"60":0.10445814453497172,"61":-0.047993834354526026,"62":0.15841672570220233,"63":-0.2145109629744225,"64":-0.17119003984600792,"65":-0.027905030013727062,"66":-0.07877274206103616,"67":0.07498345512577936,"68":0.2386763929148459,"69":0.09225721794744343,"70":0.11372784567741824,"71":0.12196114351226808,"72":-0.18147074556677192,"73":0.17125085109973892,"74":0.04621999062523767,"75":0.11751976855980549,"76":0.15407574682186548,"77":0.21273421090051528,"78":-0.18756819092450597,"79":0.4134098158945516,"80":0.1408130374843967,"81":-0.07082053306584563,"82":-0.30078741991023905,"83":0.0785193537606841,"84":-0.16896468438660464,"85":-0.26228748998801527,"86":-0.04066057767878779,"87":-0.13361090120301988,"88":-0.024197576708022674,"89":-0.01514683788958562,"90":-0.0007540039435831301,"91":-0.07748312831685562,"92":-0.23143995312659466,"93":0.012184482849118196,"94":-0.1553937181750932,"95":-0.22180260921256886,"96":-0.11669058375252869,"97":-0.12009181657609329,"98":0.06165298366705927,"99":-0.04816999724663176,"100":0.23636350561522626,"101":0.0402976126661812,"102":-0.0597783461565746,"103":-0.04784581455936324,"104":-0.06648650455483879,"105":-0.03215732810391054,"106":0.030698945981462267,"107":0.03327849977789118,"108":0.31344921572960943,"109":0.12188540797301041,"110":0.003680699627614259,"111":0.1511909379682601,"112":0.07844417287348837,"113":-0.039919552775798776,"114":0.08414740686361698,"115":-0.0834658850367509,"116":0.06803076868642223,"117":0.09705563959624183,"118":0.1976460030425821,"119":0.32286001073060694,"120":-0.0998777356808969,"121":0.10829030995391951,"122":-0.09058400155560799,"123":-0.01297696136195779,"124":-0.028977905288143105,"125":-0.1256216660577941,"126":-0.2492774486180999,"127":-0.061864092705620044,"128":-0.13612184329172994,"129":-0.004726557270583648,"130":0.016495719101974976,"131":-0.01979658129415711,"132":0.030791114446946745,"133":-0.022478443646782868,"134":-0.07736832889809094,"135":0.004411795788153282,"136":-0.10713809012405494,"137":0.006401551756826164,"138":0.007107923513263044,"139":0.10451823752825676,"140":0.032386211948031346,"141":0.025045022804553257,"142":-0.11467011805315237,"143":0.028733903072814277,"144":-0.053124888007292995,"145":-0.07053942663633098,"146":-0.01331805098180341,"147":0.10696827502657086,"148":-0.1451444356800365,"149":0.03442967590362537,"150":0.13274745386902867,"151":-0.0038797011046268638,"152":0.040579794013934294,"153":0.04989871142974151,"154":-0.02162504750054222,"155":-0.0641939798209283,"156":-0.05274370612271773,"157":-0.21852595551761447,"158":0.10736595216950903,"159":-0.05803832259981873,"160":-0.07573353075572654,"161":-0.09098213141671455,"162":0.06928653250078737,"163":0.016739237182620773,"164":-0.1291646385123528,"165":-0.11410421011343196,"166":-0.21912413556571225,"167":0.09455591047821285,"168":-0.0069005768757901265,"169":-0.046095431585992094,"170":0.026047261304780477,"171":-0.10585501307819356,"172":0.11760255828302782,"173":0.006284752138367946,"174":0.009042838266480075,"175":-0.057620453599721864,"176":0.050344101155536274,"177":0.002405694294274505,"178":0.036828037224739964,"179":-0.04285191303045987,"180":-0.0042720122164238315,"181":-0.14074130425245746,"182":-0.010202155782664141,"183":-0.11117001678923817,"184":0.046587955276235875,"185":-0.09788462199942567,"186":-0.18029190787870453,"187":-0.05820343806423965,"188":-0.023465347172325415,"189":-0.08394454789136423,"190":-0.034539955613011104,"191":-0.08537417659537319,"192":-0.06413662911716025,"193":-0.10191651937932156,"194":-0.06223342915475413,"195":0.01623534525969921,"196":-0.03874030405735222,"197":-0.19249988400476767,"198":-0.17636106437542504,"199":-0.20367551945532633}},{"sx":5,"sy":5,"depth":8,"w":{"0":0.1473441767816264,"1":-0.01829909130331253,"2":-0.0461644989774228,"3":0.053450376943734126,"4":-0.0035211542752818558,"5":-0.02418640531460214,"6":-0.10249559611573275,"7":-0.013235082699554077,"8":0.04363323064667034,"9":-0.024500870132991272,"10":0.16160111892545811,"11":-0.026001791576803098,"12":0.07107148088110915,"13":0.03691930018448602,"14":0.032898887839856866,"15":-0.017965486402344303,"16":-0.07001130336859351,"17":-0.08488443493219688,"18":-0.004605641157814271,"19":0.10551338321902921,"20":0.2269728798736764,"21":0.20332381359696505,"22":0.1967459994531756,"23":0.1584901931859181,"24":-0.11719936700332104,"25":-0.09299020687207293,"26":0.07252916836665001,"27":0.08710206626389647,"28":0.22671839926138895,"29":0.11859463957324694,"30":-0.0984818049600495,"31":0.34206398717829145,"32":-0.162901148107891,"33":0.056936432793277536,"34":0.03337952779642642,"35":0.05522346983060917,"36":0.041942005647375644,"37":0.0579567114001041,"38":-0.0023510598173237763,"39":0.27093501051791385,"40":-0.06852774604305618,"41":0.06415691135751288,"42":0.09233979902911243,"43":-0.06089966310827719,"44":0.006386187066104184,"45":0.10134626072055596,"46":0.03272700204476235,"47":-0.023560527063187224,"48":-0.15968429336772974,"49":0.10989872094657405,"50":0.1315668023296711,"51":-0.0986992850910584,"52":-0.07048943265439007,"53":0.07164997567036878,"54":-0.006295772538562426,"55":0.01873657194837656,"56":-0.15605664550144646,"57":-0.012023138094624172,"58":0.2415138082442521,"59":-0.06154357153366472,"60":0.2088249798508937,"61":0.0009119425365547661,"62":-0.09984420170170588,"63":0.17585753373515345,"64":-0.03859011585437601,"65":-0.18274939851994182,"66":0.04227411344472447,"67":-0.02068204371209374,"68":0.12716435736322707,"69":0.06366169741994665,"70":0.14357179295714353,"71":0.1954053039218767,"72":0.028679079248846717,"73":-0.03280560791419679,"74":0.048749458206556275,"75":0.0437304574250107,"76":0.1653486044095556,"77":-0.16809645249836627,"78":0.19568950712898822,"79":-0.01346537441724217,"80":-0.08581280260199142,"81":-0.04005860287842565,"82":-0.004161510844926395,"83":-0.01862357328013758,"84":0.1722912047872259,"85":0.11568438263793705,"86":-0.13681961566790424,"87":0.14396321371887297,"88":-0.17392033120756467,"89":0.06614577196210422,"90":-0.050735805281707055,"91":0.05394477964085909,"92":-0.15830634377942257,"93":-0.08673861181809311,"94":0.10822666966312006,"95":0.16873300960998855,"96":0.07020695499686191,"97":0.03251061970958949,"98":-0.17075808991043626,"99":0.0709101755943118,"100":-0.07201389726336174,"101":-0.2070553166700963,"102":0.18568912017646844,"103":-0.07015798407053368,"104":-0.05955227699815057,"105":-0.07953329261368974,"106":-0.09734249203084717,"107":0.05606793546816311,"108":-0.22747366454170967,"109":-0.23220908831821407,"110":0.057263705512557064,"111":-0.22360083389320673,"112":-0.026661379636661667,"113":0.03507788768043006,"114":-0.30919221472744,"115":-0.05697832392415631,"116":0.15526746428563798,"117":-0.29249779078164767,"118":-0.015379203320437993,"119":-0.22469340346784764,"120":-0.00010924050645713971,"121":-0.012904658679973426,"122":-0.08279149431833295,"123":0.12598748090449044,"124":-0.15485840408189144,"125":0.005111193443667852,"126":0.07019611360237062,"127":-0.0454046651846625,"128":0.03841021755361676,"129":-0.0673799007995135,"130":-0.21468968045815864,"131":-0.01976367507075653,"132":-0.13915422870802235,"133":-0.21325721223085767,"134":0.06747108474293707,"135":-0.29202547793603983,"136":0.15688475267051916,"137":-0.14375203185486074,"138":-0.2506594021450908,"139":-0.1710296644180149,"140":-0.06538553275753314,"141":-0.26127941510428515,"142":0.04959477173170529,"143":-0.3402333196558598,"144":-0.01673170378356032,"145":-0.05216154771882335,"146":-0.28044250592409037,"147":-0.06591139243948979,"148":-0.14182252675137696,"149":-0.23399605001214654,"150":-0.14970766774743277,"151":-0.34298591031255926,"152":-0.2574989039468367,"153":-0.07802106136458087,"154":-0.28053693778957733,"155":-0.2378361529512437,"156":-0.3128667230293726,"157":-0.16701105803324853,"158":-0.3178483041583109,"159":-0.3072398682573838,"160":0.01276599401007056,"161":0.06009876481537645,"162":-0.089258946692382,"163":0.002278556638965798,"164":0.2763567781323284,"165":0.08253709622499449,"166":0.19081826244143346,"167":0.19222675121687496,"168":0.06074998806234197,"169":-0.020866213009733986,"170":0.020509362178754775,"171":-0.051736082087811185,"172":0.13477038791504586,"173":-0.11759493142807198,"174":-0.1458030092684598,"175":-0.0006866569835899663,"176":-0.029909994852059585,"177":0.0961635035541391,"178":0.016508632126371988,"179":-0.11826180173451283,"180":-0.0014584573336005788,"181":-0.19075804321971304,"182":-0.20127127075774118,"183":-0.03292727116261265,"184":-0.03286011230827329,"185":0.058494474136665996,"186":0.061054718317086636,"187":-0.0991714039234693,"188":0.015669939878551645,"189":-0.11477047280119812,"190":-0.03486821532646189,"191":-0.042527133816655356,"192":-0.14202871889262586,"193":0.06213746257534362,"194":0.03570553057271416,"195":0.07517707903498796,"196":-0.04679917822849972,"197":-0.18502958837884698,"198":-0.11129404754119067,"199":0.026850007648872676}}],"biases":{"sx":1,"sy":1,"depth":16,"w":{"0":0.022640039580554883,"1":-0.0063296222810764954,"2":0.0681094167108716,"3":0.010588429689206596,"4":0.024399133114122427,"5":0.05156029953654101,"6":0.03935374184669151,"7":0.024964660901012774,"8":0.049148893900939274,"9":0.005113012580084621,"10":0.06027056890527975,"11":-0.0012786584577510014,"12":0.0143082078038252,"13":0.01510242360698201,"14":0.026496312026582567,"15":0.048662315475239075}}},{"out_depth":16,"out_sx":13,"out_sy":13,"layer_type":"relu"},{"sx":3,"sy":3,"stride":3,"in_depth":16,"out_depth":16,"out_sx":4,"out_sy":4,"layer_type":"pool","pad":0},{"out_depth":10,"out_sx":1,"out_sy":1,"layer_type":"fc","num_inputs":256,"l1_decay_mul":0,"l2_decay_mul":1,"filters":[{"sx":1,"sy":1,"depth":256,"w":{"0":-0.07062589260839314,"1":-0.18336234140086494,"2":-0.1592930751589304,"3":0.010835325731931343,"4":-0.02692194435341922,"5":-0.11261872012619784,"6":-0.09382631811471892,"7":-0.023010275224419837,"8":-0.010200821289313999,"9":-0.07402448364014232,"10":-0.10818097234598534,"11":0.0618383961990686,"12":-0.12724409479463147,"13":-0.31799993692419776,"14":-0.13957271120673867,"15":-0.11595677546872397,"16":-0.06234485739051282,"17":-0.47757077656916685,"18":-0.007192561185188512,"19":-0.16068288846157477,"20":-0.01160245507439046,"21":0.016990555542424495,"22":0.00020544821677967201,"23":0.04572845247526763,"24":-0.324905930080092,"25":-0.051795155497351364,"26":-0.19549383285224775,"27":0.3643002496004149,"28":0.049188710848862345,"29":-0.24276935648723125,"30":-0.025920493621417122,"31":0.04693648781355635,"32":0.1110633507686601,"33":-0.4206213487101035,"34":0.18637516939322918,"35":-0.07190150377325902,"36":-0.08956682894697277,"37":0.1764507743906846,"38":-0.10223271247921485,"39":-0.10672013450443614,"40":-0.20082490558088484,"41":-0.05148566406578058,"42":-0.15937044688838406,"43":0.10859394479523334,"44":0.008929326761156473,"45":-0.03512338889340733,"46":0.10869314818778199,"47":-0.007472668522465585,"48":0.00227824855907948,"49":-0.030712241925135032,"50":0.07959631075029847,"51":-0.10648910114413558,"52":-0.07821938219180335,"53":0.06495222081472919,"54":-0.05655793976636825,"55":-0.05137692491682068,"56":0.004842098844380756,"57":-0.02887976413800569,"58":-0.019299280850234156,"59":-0.18639213660339116,"60":-0.038737602008737174,"61":0.01529620091850683,"62":-0.08862451348804216,"63":0.02184427562149915,"64":-0.12267879497621503,"65":0.08052461848380445,"66":-0.01817736880590146,"67":-0.020989960444468225,"68":-0.17779153153385122,"69":0.02043915785287467,"70":-0.19971904557393425,"71":0.12412562175377796,"72":-0.048154311146482984,"73":-0.06652412611539738,"74":0.05726043701233684,"75":0.1841792155894918,"76":-0.018505951486373615,"77":-0.010411890727834631,"78":-0.012762018069823515,"79":0.05054031640224729,"80":-0.024473205489994723,"81":-0.039708375817981645,"82":-0.0566506758966461,"83":-0.004717926950540901,"84":-0.10813258843802145,"85":-0.15549683600112083,"86":0.10238018000788876,"87":0.02054646621554172,"88":-0.017280236399381484,"89":0.12971597458830952,"90":-0.11839274820635934,"91":0.18983049101389843,"92":-0.046987988440731564,"93":0.06617853424812509,"94":0.1341404835041077,"95":0.09985379797795932,"96":0.02062486667200094,"97":0.13674138182274312,"98":0.022852416693849107,"99":0.27051907522844526,"100":-0.10045660982065799,"101":-0.154445242989301,"102":-0.004799156685405996,"103":0.15797556940571247,"104":0.07407282138043957,"105":0.04822798672551527,"106":-0.12452412853023437,"107":-0.005703735403104938,"108":0.05745967493766106,"109":-0.09216440470445654,"110":0.026854463338825157,"111":-0.009382757831731921,"112":-0.16509177251171608,"113":-0.07818443099858546,"114":-0.007624916235230706,"115":0.04033000753494274,"116":-0.18760836032488973,"117":-0.025383180278121427,"118":-0.1531513676541684,"119":-0.07587496010617428,"120":-0.07395985788483407,"121":0.0352210063347212,"122":0.07091796732055962,"123":-0.11654381170147339,"124":-0.06779074543542796,"125":0.004137920695038161,"126":0.027213598184698255,"127":-0.03541493913454124,"128":0.028301194486725446,"129":0.059328166538507116,"130":0.15782415982204628,"131":-0.06510226171764465,"132":0.1163712078228407,"133":0.028969992548888945,"134":-0.02644708366188582,"135":0.048025567836404846,"136":0.01280864478575862,"137":0.011580223348628906,"138":-0.019845536859359112,"139":-0.038948653113369286,"140":-0.09516214422002309,"141":0.04121861146481717,"142":-0.021343044616291235,"143":-0.017566714668915632,"144":0.05524096315982381,"145":0.09930268304943363,"146":-0.05518046970112124,"147":-0.22716875423667837,"148":0.11074630776606438,"149":0.12149625611983957,"150":0.0013890964290065003,"151":-0.006948014050123169,"152":0.14156337098347507,"153":0.011309995443215936,"154":-0.047397541649174646,"155":0.1713599428706765,"156":0.006666214561904156,"157":0.08220907351498029,"158":-0.017484883671902235,"159":-0.04060193749906499,"160":0.2076964023314023,"161":-0.06282816005388843,"162":-0.052538846104749314,"163":-0.1332197538462812,"164":-0.012673576396919012,"165":0.12382904994258555,"166":-0.01985484444239671,"167":-0.0378053452973306,"168":0.10901293348090418,"169":0.04033145703365414,"170":0.03466514929026916,"171":0.050970205322218874,"172":0.06250841919132859,"173":0.10074699406376723,"174":-0.0048725775320936715,"175":-0.01721522315920531,"176":-0.06165358824816375,"177":-0.21608828214582612,"178":0.009617112098869438,"179":-0.09628684439096268,"180":-0.0942161524514932,"181":0.10674603701908185,"182":-0.18568680100164758,"183":-0.014138948486160713,"184":-0.016087024322911855,"185":-0.02669152079610921,"186":-0.03266397908706413,"187":0.058155309186465956,"188":0.05737069210313523,"189":-0.08565500764266727,"190":-0.05758318941720985,"191":0.07716863323636244,"192":-0.04428960114589318,"193":-0.16634889722577048,"194":-0.14423106000178829,"195":-0.0330351640507783,"196":-0.008047811402633782,"197":-0.04476717779502796,"198":-0.10889581602591439,"199":-0.09377940099452246,"200":0.0582048739039883,"201":0.02123310905302435,"202":0.07729968510467083,"203":0.13635913774429823,"204":-0.10084562223226498,"205":-0.1808866642948173,"206":0.04042845715746203,"207":0.026858590463744166,"208":-0.02421189490964471,"209":-0.3039167634595711,"210":-0.0876348794629051,"211":0.034210667513617614,"212":-0.019783730971812415,"213":-0.17330843356064302,"214":-0.09899366952868874,"215":-0.04468458361189299,"216":-0.32442913259032313,"217":-0.04311494674842387,"218":0.010262308152693474,"219":0.2829161475443224,"220":-0.022472636518986757,"221":0.005556877169395497,"222":-0.19366625071014948,"223":-0.08117006934084194,"224":0.01396470469952544,"225":-0.3509300078218556,"226":-0.07255339987709203,"227":-0.011189255377938905,"228":0.16558161756404946,"229":0.02703360708579269,"230":-0.01552086146894389,"231":0.21853747013796687,"232":-0.5596424653560131,"233":-0.036662818868000616,"234":-0.09700346523510926,"235":0.18559882824577756,"236":-0.006085246016064463,"237":0.10583455468688699,"238":-0.04145203774947381,"239":-0.11873796513403964,"240":-0.04680259978298777,"241":-0.10192004487436085,"242":0.05854206504366593,"243":0.08127459946433975,"244":-0.0057546347521752386,"245":0.038782857085011876,"246":0.17869603977304782,"247":0.02128147109377014,"248":-0.10081012982645758,"249":-0.02018034004690613,"250":-0.07225735700773717,"251":0.06791409646913837,"252":0.2055352378687444,"253":-0.049568046044967874,"254":-0.049174523180302236,"255":-0.10454983284555948}},{"sx":1,"sy":1,"depth":256,"w":{"0":0.04085526194800773,"1":0.18110002237820072,"2":-0.017642044275248972,"3":0.0888129847617158,"4":0.1011480288198184,"5":-0.021556183136637985,"6":0.02255457984219791,"7":0.07153503418479557,"8":-0.11578715482212096,"9":0.004732671021625688,"10":0.04741227195107659,"11":0.23744574662788656,"12":-0.0010835694368950327,"13":0.09026914253361866,"14":-0.049791085210458455,"15":0.20734021149521484,"16":0.07463497096572219,"17":0.013903930363977478,"18":-0.0632903749959607,"19":0.11523589256677068,"20":0.22053773366278556,"21":-0.11161638400800997,"22":-0.10658075074153878,"23":-0.0009302912863730115,"24":-0.04805080177555737,"25":0.01657403372663451,"26":-0.07280114236098725,"27":0.427751506076712,"28":0.06277181298587818,"29":0.1304144182579549,"30":-0.20663527983458055,"31":0.04379029822206131,"32":-0.1392945930430778,"33":-0.09789797648442691,"34":0.1036845911751879,"35":0.25955751759381623,"36":0.33033232194339,"37":0.012433046559016397,"38":-0.06655128646078028,"39":0.01073926289609891,"40":-0.03626106248164029,"41":-0.2313850357779086,"42":0.07873804989658544,"43":0.3355391285488508,"44":0.28483124989495306,"45":0.12411239629910259,"46":-0.058657071826411174,"47":-0.036942404933470216,"48":-0.14649970648303606,"49":-0.11011975420622616,"50":-0.011743695333192476,"51":0.31450406858896945,"52":0.22513638126187244,"53":-0.14194748724948889,"54":-0.1395208088984369,"55":0.004982192454335536,"56":0.015188364223730925,"57":-0.2099936241187237,"58":0.14497016778253918,"59":0.13746977156551426,"60":0.23145596286560977,"61":-0.12844117201387767,"62":0.03378001079734891,"63":-0.08691472475521592,"64":0.08335364640273038,"65":-0.07131051314581498,"66":-0.12614324549804623,"67":0.06524675997851805,"68":-0.08190914216260399,"69":-0.012205797060628902,"70":-0.14026131808680417,"71":-0.09546181967065723,"72":-0.05867170021486316,"73":-0.006967036757683875,"74":-0.20315626442783657,"75":-0.02729834860689007,"76":-0.07761514814907251,"77":0.024348728898369913,"78":-0.014652130571824542,"79":-0.09630980658249079,"80":-0.07146609507792163,"81":-0.5570644101304779,"82":-0.14135632439331294,"83":-0.1252941195601491,"84":-0.0002394029071144454,"85":-0.076877186221311,"86":-0.04317897582211244,"87":-0.030587007652987604,"88":-0.17532193627469117,"89":-0.04338667847933172,"90":-0.08387269004957618,"91":-0.20810303477882647,"92":-0.30824913577048985,"93":-0.11907871136934221,"94":-0.17436214055955784,"95":-0.4252775564892458,"96":-0.10345112991843919,"97":-0.5084191825657669,"98":0.11353942906738601,"99":-0.41432589222584115,