{"layers":[{"out_depth":1,"out_sx":26,"out_sy":26,"layer_type":"input"},{"sx":5,"sy":5,"stride":1,"in_depth":1,"out_depth":36,"out_sx":22,"out_sy":22,"layer_type":"conv","l1_decay_mul":0,"l2_decay_mul":1,"pad":0,"filters":[{"sx":5,"sy":5,"depth":1,"w":{"0":-0.12360833558572515,"1":0.18615052848177516,"2":0.12638187489887676,"3":0.16168754062844068,"4":-0.3092156310410823,"5":0.22980888948272427,"6":0.15434033635103375,"7":-0.1322063289148727,"8":-0.12507157697942434,"9":-0.24413392790327387,"10":0.39951234589942247,"11":-0.21621921326246565,"12":-0.14076262177288992,"13":-0.34570722984713853,"14":-0.026611139728226454,"15":-0.4627106969401366,"16":-0.11624968991963658,"17":0.060914663354727706,"18":-0.28641613733364313,"19":0.4524434546810875,"20":0.08386300167084326,"21":0.11300683973945377,"22":0.009308127231872392,"23":0.44373602959712066,"24":-0.031598531577219396}},{"sx":5,"sy":5,"depth":1,"w":{"0":0.04718705360415143,"1":0.26548377729781847,"2":0.06930156499627153,"3":-0.10879872370629212,"4":0.05281140497461525,"5":-0.30774385995337805,"6":0.04289019824506843,"7":0.07563274387597972,"8":-0.16834215630177946,"9":-0.4580722845409075,"10":-0.23808781271257354,"11":0.37670700602926405,"12":0.2773769588492061,"13":0.0577416650770518,"14":-0.41159216139499516,"15":-0.4840977987771561,"16":0.19301354467098944,"17":0.40736014491211087,"18":0.16367794819030992,"19":0.006000460298558266,"20":-0.08875984507170703,"21":-0.17961715204635664,"22":0.3047898388203176,"23":-0.13965810700464243,"24":-0.31895112751072474}},{"sx":5,"sy":5,"depth":1,"w":{"0":-0.11592068178340632,"1":-0.1492929500521771,"2":-0.49016232579025826,"3":-0.36210272355144185,"4":0.029549714653033334,"5":-0.14147537440115715,"6":0.004978815985504051,"7":0.10456149121247202,"8":-0.12710380473297625,"9":0.0638412542116149,"10":0.2123403389236414,"11":-0.012657640025637143,"12":0.43797853997845443,"13":0.018367720865836754,"14":-0.3057765845835379,"15":-0.5498036935931879,"16":0.1816600998608244,"17":-0.0052618473563449866,"18":0.31961806490807115,"19":-0.8470024120284897,"20":-0.4668652980439845,"21":0.2878195846857252,"22":0.1491301914099782,"23":0.47212936118414117,"24":-0.3619428624404319}},{"sx":5,"sy":5,"depth":1,"w":{"0":0.41990001303974683,"1":0.288777852829389,"2":-0.29400657116422385,"3":0.08248468968280177,"4":-0.20882491795536753,"5":0.5357725655538258,"6":-0.4728092525802418,"7":-0.21903213039551986,"8":0.1378213202437954,"9":0.1778353661137577,"10":-0.7583434439942736,"11":-0.552703075647604,"12":0.1312977597222702,"13":-0.4331215584044549,"14":-0.0065770751810521055,"15":-0.4965466860297111,"16":0.6854379715669381,"17":0.25050626501211454,"18":0.41192001575458415,"19":-0.1833236176561602,"20":-0.025827175346454248,"21":0.04852209654281245,"22":-0.11596314789571223,"23":0.029002725851795072,"24":-0.030628564287348857}},{"sx":5,"sy":5,"depth":1,"w":{"0":0.04837532988080309,"1":-0.264665307798233,"2":0.1722264796734099,"3":-0.18937692138472118,"4":-0.4449545620067442,"5":0.1773505389993649,"6":-0.2850805351634128,"7":-0.5262757040988238,"8":-0.22254984456538598,"9":-0.6318232504962589,"10":-0.0335909290918261,"11":0.01371755310439751,"12":-0.11303344576692986,"13":0.14989816527515618,"14":0.14348071841588966,"15":0.24207496248530128,"16":0.15541276418156863,"17":0.12936258143964796,"18":0.3865456282856025,"19":0.3150768101964,"20":-0.011642372807330943,"21":0.12158227295954455,"22":0.46250603743583385,"23":-0.04232949592076536,"24":0.12317289892205972}},{"sx":5,"sy":5,"depth":1,"w":{"0":0.2536331653828653,"1":0.039032804136299615,"2":0.26913780380564367,"3":0.08814837234239607,"4":-0.8107137496458333,"5":0.2629627501060966,"6":0.12962830902145225,"7":0.24351412290032873,"8":0.08225588397985481,"9":-0.7439328767370419,"10":-0.03605391546779592,"11":0.4303916264976761,"12":0.2705612973857559,"13":-0.07445001760261269,"14":-0.6848184116945625,"15":-0.20402333496945774,"16":0.36435120357071643,"17":0.06466149410012889,"18":0.34808136943021073,"19":-0.7133849035353101,"20":-0.057923989164669135,"21":-0.11639385946395926,"22":0.22172824205082228,"23":0.025255562905533033,"24":-0.1656589963610383}},{"sx":5,"sy":5,"depth":1,"w":{"0":-0.2343408552847093,"1":-0.29266318694398546,"2":-0.3484439651883398,"3":-0.7907743192692784,"4":-0.7260495564535495,"5":0.36919028854850927,"6":0.21548036861885028,"7":-0.5128929116372163,"8":0.30643871420975605,"9":0.21071677871166838,"10":-0.3164339796952811,"11":-0.1910042674004049,"12":-0.011725469681422487,"13":-0.06131372532040978,"14":0.5124150792817341,"15":-0.18721623619322897,"16":-0.6278465603935528,"17":0.07830043147210254,"18":0.7166902171044949,"19":0.3392636124667351,"20":-0.14632764039406335,"21":0.37387600220013034,"22":0.46728317142085596,"23":-0.12218407037970491,"24":0.36010053439745593}},{"sx":5,"sy":5,"depth":1,"w":{"0":-0.30532627340985163,"1":-0.10840775716489212,"2":0.8372761776815242,"3":-0.24085967452375878,"4":-0.3529800718547652,"5":-0.20447516967999924,"6":0.23909153719491852,"7":-0.07107748891490885,"8":-0.48937990530642356,"9":0.5261350832072543,"10":-0.013771083829206176,"11":-0.25822965767657236,"12":0.07129043550136853,"13":0.10827727974960484,"14":0.026430791084710553,"15":-0.2115751495552567,"16":0.12876221427360052,"17":-0.37030568300803834,"18":-0.13255185134054265,"19":0.09451492031956532,"20":0.02717551691116865,"21":0.015059036245421934,"22":0.3225343657978059,"23":0.25483722697861094,"24":-0.18681529942056624}},{"sx":5,"sy":5,"depth":1,"w":{"0":0.05479203111652114,"1":0.18267524521549078,"2":-0.06483059441541048,"3":0.11290958510870955,"4":0.22097584084316446,"5":-0.009603207922144315,"6":-0.1639443916905531,"7":-0.07043528376364387,"8":0.19099399616564613,"9":0.2760046971024198,"10":0.49423053459737715,"11":-0.338197484253765,"12":-0.039704334182147145,"13":-0.21128476622821057,"14":0.07057778681391587,"15":0.0535573080164413,"16":-0.10197651219683583,"17":0.45955003597974514,"18":0.09719451810663039,"19":-0.15653773234233898,"20":0.3541697317880584,"21":0.011506799170678376,"22":-0.46869747679463863,"23":-0.3876404693853563,"24":0.14009968407284912}},{"sx":5,"sy":5,"depth":1,"w":{"0":0.12888850949978028,"1":0.5828634141897229,"2":0.04854934421132178,"3":0.1647371724567489,"4":0.3770126290220971,"5":-0.09510920705409746,"6":0.2997783567433941,"7":-0.03738771286345479,"8":0.19185014242756984,"9":0.682201508740926,"10":0.13004248731701507,"11":0.2572871419392661,"12":0.2661293198823759,"13":-0.13872127660925523,"14":-0.0686950352022407,"15":-0.3818886135040057,"16":-0.36473023264659943,"17":-0.16566834960363042,"18":-0.01849633966117922,"19":0.25123879981193237,"20":-0.4165621334220077,"21":-0.7012888485638739,"22":-0.8547389697843212,"23":-0.48479258321548013,"24":-0.337619228969521}},{"sx":5,"sy":5,"depth":1,"w":{"0":0.3779759302997048,"1":-0.17025120200025634,"2":-0.063295920557001,"3":-0.01888001073929865,"4":0.2948036512233848,"5":0.08492826654545318,"6":0.1689378005977058,"7":-0.3576932234854049,"8":0.2703048140059762,"9":-0.03162514697541241,"10":-0.13414746397925392,"11":-0.21053305977447467,"12":-0.057902594027165175,"13":0.29163969817930413,"14":0.0679434242182738,"15":-0.3398789963457943,"16":-0.012218259457673498,"17":-0.06556527112724297,"18":0.006094743751327595,"19":-0.23151370511740146,"20":-0.27702815007666703,"21":-0.11683608411266197,"22":0.10693944185541314,"23":0.3460605684582417,"24":-0.19221252459669255}},{"sx":5,"sy":5,"depth":1,"w":{"0":-0.18607053529666567,"1":-0.23559469553591272,"2":0.15271317290070974,"3":-0.12004032111310008,"4":0.2762713141785869,"5":0.1470198948104003,"6":-0.35505268479171254,"7":-0.05070346395951626,"8":0.08014555145226616,"9":0.13620547876293634,"10":0.11480464843978486,"11":-0.0009211626006197784,"12":0.09137648948690606,"13":-0.0005952793950980998,"14":-0.33617219181125946,"15":0.1007230964208366,"16":0.1821901514742202,"17":-0.136625845600857,"18":-0.35792125237609185,"19":0.18971208707706824,"20":-0.07435500932782976,"21":-0.11120322925211373,"22":0.3207151728393837,"23":-0.38774963889791647,"24":0.23140867005467855}},{"sx":5,"sy":5,"depth":1,"w":{"0":0.05077473227366504,"1":0.1497359345421076,"2":-0.10052896454209834,"3":-0.3471768536099499,"4":0.19730778513680042,"5":0.1362436835018365,"6":0.07229384455174723,"7":-0.07248768826636343,"8":-0.12253636165263626,"9":-0.0671841842541992,"10":0.20543182409771274,"11":-0.2761972356370064,"12":-0.30566572423711685,"13":0.3042285064731928,"14":0.17541872832421018,"15":-0.1604274016274093,"16":0.16367715289415,"17":-0.18042563168108813,"18":0.09198111128423375,"19":-0.2962803237244163,"20":0.5045069117355043,"21":-0.39461579897736865,"22":-0.3341898271799757,"23":0.07695477157528088,"24":0.2971951262121788}},{"sx":5,"sy":5,"depth":1,"w":{"0":-0.03246098317747878,"1":-0.07362295625969408,"2":0.269968437362158,"3":0.08416793675724077,"4":0.20077338470681644,"5":0.03428847645898484,"6":-0.45140670215577694,"7":-0.23570446284561064,"8":-0.17660434759095608,"9":-0.4760200038279307,"10":0.2302919331336726,"11":0.04808025475203131,"12":0.2611554014280716,"13":0.010157204937692628,"14":0.0015813014302978985,"15":-0.15756561164052246,"16":-0.36500933705676336,"17":-0.04384527038098082,"18":0.08566095268235716,"19":0.11728356782398844,"20":-0.01086122016642859,"21":0.1675256519586613,"22":-0.11029707411544325,"23":0.14923174676734277,"24":0.273621431828232}},{"sx":5,"sy":5,"depth":1,"w":{"0":-0.6680523883030051,"1":-0.355612852712527,"2":-0.14478077557278698,"3":-0.11823916967045643,"4":-0.18023177049296354,"5":-0.14675921202730174,"6":0.006517697321535457,"7":-0.01738837738314343,"8":-0.184612657210445,"9":0.09347570270868712,"10":0.5933401795814949,"11":0.24747999875756893,"12":-0.15015148141791423,"13":0.15210683730735677,"14":0.3585806661301449,"15":-0.08667104084235323,"16":-0.1729197851951646,"17":0.3971656665478016,"18":-0.022032298762319193,"19":0.1665761082463417,"20":0.10951933890879686,"21":-0.012864951738533316,"22":-0.3429139831068184,"23":-0.05063545434002604,"24":0.09212905057629535}},{"sx":5,"sy":5,"depth":1,"w":{"0":-0.21616599458983082,"1":-0.2323361071944267,"2":-0.5280584066117712,"3":-0.8541644297426211,"4":-0.48454575966006036,"5":0.1929823742400499,"6":-0.3746011481854294,"7":-0.22665767803900583,"8":0.08327092193682586,"9":0.26947083426451923,"10":-0.17857564197110187,"11":-0.22301671126273231,"12":0.3172253969861531,"13":0.5501272135001427,"14":-0.021065437282459177,"15":-0.08185319387833762,"16":0.11346661016923325,"17":0.07150640574623157,"18":0.141402506323226,"19":-0.16247195132582767,"20":-0.14410412976662154,"21":0.21807465787295952,"22":0.4157445539686171,"23":0.30987012760348903,"24":0.26529381662088203}},{"sx":5,"sy":5,"depth":1,"w":{"0":-0.5061101552052156,"1":0.06426174825659148,"2":0.09200377699664992,"3":0.12151704459724073,"4":0.05498548937073766,"5":-0.11151835488172812,"6":-0.03021120086506441,"7":-0.21993295193940635,"8":0.1972205986207044,"9":0.30594007894544456,"10":0.06853535007750744,"11":0.012267110913905728,"12":0.0627474910135756,"13":-0.02082680928976099,"14":0.4307971440091198,"15":0.2560194587089576,"16":0.10029626897041602,"17":-0.6195474098816101,"18":-0.24924196027310422,"19":-0.2456843606349398,"20":0.265680140890462,"21":0.6307979279398815,"22":-0.286568799315513,"23":-0.6092606290715619,"24":-0.10006768106369177}},{"sx":5,"sy":5,"depth":1,"w":{"0":0.2875142737693573,"1":-0.5521733144688397,"2":-0.01040036176314864,"3":0.7026002895784393,"4":0.6437910449974258,"5":-0.2907164668869312,"6":-1.0058981001262108,"7":0.34009018088646203,"8":0.33572262722404456,"9":0.3745692848360078,"10":-0.04427692653314387,"11":-1.0560733241256608,"12":0.48598261246755864,"13":0.2426011033014131,"14":0.35367641670312455,"15":-0.35032043962586856,"16":-0.6306313693326425,"17":0.17634461522692785,"18":0.10967549746251423,"19":0.18376056296658969,"20":-0.35164899996683846,"21":-0.06380482420266811,"22":-0.511604946651153,"23":0.3029718233805578,"24":-0.33240131872746137}},{"sx":5,"sy":5,"depth":1,"w":{"0":-0.13092756905064862,"1":-0.2893779942231348,"2":-0.06205062252126437,"3":0.2566774323514979,"4":0.1710352375322717,"5":-0.0054232722933875085,"6":-0.24335261790108118,"7":-0.628324253774109,"8":-0.40455063462010865,"9":-0.06247391763098745,"10":0.2492962380778387,"11":0.3622934971905285,"12":0.07068789206612172,"13":-0.07279153755905865,"14":-0.5588785828833395,"15":-0.08664332454083999,"16":0.19631743286546716,"17":0.6082820778300934,"18":-0.017660846107789167,"19":0.20677809040334888,"20":0.07035617802063113,"21":-0.15402977942040455,"22":0.09674441372822523,"23":0.32307413940071406,"24":0.021561555863418992}},{"sx":5,"sy":5,"depth":1,"w":{"0":-0.3042842603343641,"1":-0.22279032438536173,"2":-0.019287841548583196,"3":-0.2027712502792838,"4":-0.17338377484414208,"5":-0.273426892125382,"6":0.3619107416812701,"7":0.337553560396812,"8":-0.05780507130026357,"9":-0.19598269801769888,"10":0.31206790694517855,"11":0.04790521456171232,"12":-0.1204324036834701,"13":0.0019949022040068715,"14":0.239951663019891,"15":-0.24239880931173055,"16":-0.22022419741307056,"17":-0.20572220638216268,"18":0.07414077294173516,"19":0.2490733484007512,"20":-0.19775765635849205,"21":0.3602736653504216,"22":0.12175714752940064,"23":0.18248529521264334,"24":0.09385776189877398}},{"sx":5,"sy":5,"depth":1,"w":{"0":0.18619692650992184,"1":-0.06771423235701493,"2":-0.11713549893233438,"3":-0.37640379345565783,"4":-0.37310219097956665,"5":0.05764977974584534,"6":-0.3998665869491084,"7":-0.3973428583201911,"8":0.018510045018577267,"9":-0.2849714061387247,"10":-0.39200881888448985,"11":-0.04733440224628711,"12":0.26436126702373813,"13":0.4222353605830148,"14":-0.03953030575836776,"15":0.06072655396859106,"16":0.23213123937876357,"17":-0.0746238915111238,"18":0.023669226391169612,"19":0.2163860960582576,"20":0.21303693303656668,"21":0.17781781514132203,"22":0.1576262219395364,"23":0.2554984842377901,"24":0.24023599346530347}},{"sx":5,"sy":5,"depth":1,"w":{"0":-0.311684559284207,"1":0.10695145893390096,"2":0.15945055628387889,"3":0.09849455213171096,"4":0.03064494907452668,"5":-0.04592596507778317,"6":-0.4204293552425715,"7":-0.19416025349622773,"8":0.09883377722195015,"9":0.30137870306819403,"10":0.10482660516694949,"11":0.12004688099798613,"12":-0.6387647142851954,"13":0.13380769364670664,"14":0.18459356750029585,"15":0.06350940845875681,"16":0.5451310035001772,"17":-0.37143602557833233,"18":-0.24515367932151982,"19":-0.04714497162804175,"20":0.3049606871838441,"21":0.5944131683722363,"22":-1.108196365848474,"23":0.15679545169521347,"24":-0.20722363017202483}},{"sx":5,"sy":5,"depth":1,"w":{"0":-0.03155548633272611,"1":-0.3963387736139041,"2":-0.25626469644585925,"3":-0.32549704831551296,"4":-0.10880732945917768,"5":0.23239127134944618,"6":0.43610939959795314,"7":-0.3551698359986686,"8":0.09758673661896522,"9":-0.1346140409961332,"10":0.10225081801391024,"11":-0.13372069477476975,"12":0.33023339355688996,"13":0.12602429896750783,"14":-0.25024277983890714,"15":-0.3983847619807348,"16":0.0437238115083669,"17":0.17837879494163753,"18":0.0945988825871495,"19":0.07347548249671881,"20":0.006120186999349213,"21":-0.2381121361217533,"22":0.20504797313553313,"23":0.26443453304011705,"24":0.06390213572999662}},{"sx":5,"sy":5,"depth":1,"w":{"0":-0.4382227607760237,"1":-0.7484082428078209,"2":-0.7699375776990866,"3":-0.8070777499274553,"4":-0.45505733057358383,"5":0.010543701120267947,"6":0.6970246664793623,"7":0.13452936003991145,"8":-0.222836181606279,"9":-0.24048693552213765,"10":0.32452582629849364,"11":-0.13368223702239931,"12":0.2879002727897692,"13":0.22448058739648555,"14":-0.09990561424935648,"15":0.34850289469241225,"16":-0.38354632633539937,"17":0.5012050996502927,"18":0.04864330998042358,"19":0.24406915729343123,"20":0.07216941680327259,"21":-0.6599772085585824,"22":0.1992284865088935,"23":0.7956943163349806,"24":-0.2649325800347965}},{"sx":5,"sy":5,"depth":1,"w":{"0":-0.06085574854987311,"1":-0.20029899961607464,"2":0.09781662744465,"3":-0.28107613579319307,"4":0.1889430522741036,"5":-0.05009972500935654,"6":0.0036040672631911116,"7":-0.08933230788730365,"8":-0.2042975081733495,"9":0.0008961621391333314,"10":0.3204685337790166,"11":0.014351256160446423,"12":-0.3211974141585236,"13":-0.19022990136028706,"14":0.27591507246606223,"15":0.2911438975014631,"16":-0.043361517825353274,"17":0.006800315459172028,"18":-0.03786333101247142,"19":-0.0509539140431616,"20":-0.4699564633268191,"21":-0.10726365458890294,"22":0.556391078999623,"23":0.29829729309305814,"24":-0.07090655308089397}},{"sx":5,"sy":5,"depth":1,"w":{"0":-0.04503084937036104,"1":-0.15628543996607408,"2":0.04773002625873265,"3":-0.15388002847996687,"4":0.28444964880348084,"5":0.05700853916168059,"6":-0.05703865533416998,"7":0.24258295113625233,"8":0.1310787712036042,"9":-0.4383739963338338,"10":-0.03186911690687243,"11":0.42872501001551433,"12":-0.11299560493090254,"13":-0.164991558740386,"14":-0.05126028411139454,"15":-0.13440353687394088,"16":-0.2672499132044457,"17":-0.3032061920091693,"18":0.5837716360858066,"19":-0.005725798602544182,"20":-0.024976398663539588,"21":-0.13685590813133694,"22":0.16119535205256047,"23":0.05194009513193817,"24":-0.11545341213223739}},{"sx":5,"sy":5,"depth":1,"w":{"0":-0.08775960404735428,"1":0.11289808979905519,"2":-0.0882269925587978,"3":0.01991362173196796,"4":-0.3688005638815327,"5":-0.38966679388880604,"6":-0.12154265009594212,"7":-0.27968085525117836,"8":-0.2843865148138147,"9":-0.05457021468527078,"10":0.4403389426106513,"11":0.16950248489995737,"12":-0.006902994265075837,"13":0.06619320169018618,"14":0.18934148564900982,"15":-0.05306913890549053,"16":0.11717760646778011,"17":0.06508379614657578,"18":-0.3849916696763298,"19":0.1882105724403467,"20":0.3389771344584685,"21":0.02378451200682208,"22":-0.0541510911863069,"23":-0.4028948252006114,"24":0.3638477157740294}},{"sx":5,"sy":5,"depth":1,"w":{"0":-0.04249449847888036,"1":0.23856957718206884,"2":0.5438160422487527,"3":-0.14237450089353912,"4":0.2581676037347743,"5":0.1979683005348232,"6":-0.43455979941566253,"7":0.09659868190773002,"8":0.16517463634915674,"9":-0.09688585122611475,"10":0.6172545090574608,"11":0.154447957133474,"12":-0.4565607122569359,"13":-0.29527343900137515,"14":-0.6686073414386985,"15":0.13799064409878306,"16":0.3921775576035389,"17":-0.8250556723222823,"18":-0.38598771397034376,"19":-0.009781497234638779,"20":-0.17389479788993323,"21":-0.5699351942554377,"22":-0.04848852378278413,"23":0.44545550681271484,"24":0.5109840972016226}},{"sx":5,"sy":5,"depth":1,"w":{"0":0.29658297650029053,"1":0.14686451235317083,"2":-0.20574023276639988,"3":-0.25114810257501907,"4":-0.3082333905634093,"5":-0.183371277032647,"6":0.26764866670932086,"7":-0.25940261269193604,"8":-0.3624523205984309,"9":0.2867327491590408,"10":0.06875393262448777,"11":0.16599573534520984,"12":0.49792637296251063,"13":0.5679458136774321,"14":0.0801169067591788,"15":0.14935576247665164,"16":-0.034459707039363914,"17":-0.07613660629576251,"18":-0.4746766071463909,"19":-0.26186058784520133,"20":0.25376026762864157,"21":-0.2692422577898097,"22":-0.26076249014433966,"23":-0.010618526426310967,"24":0.18385605156420903}},{"sx":5,"sy":5,"depth":1,"w":{"0":0.13315261663876887,"1":0.2823532543444289,"2":-0.12407473135113914,"3":-0.06423672328916241,"4":-0.2911948092950157,"5":-0.5125397485329739,"6":0.5279804633049138,"7":-0.21977735010344704,"8":0.27280090305458454,"9":-0.19842007149324692,"10":-0.2775384209591851,"11":-0.1987863939792646,"12":0.3050169464162634,"13":-0.0772843321850977,"14":0.40020620625620507,"15":-0.5685428574709955,"16":0.032326449360473186,"17":-0.08035765543567286,"18":0.08573818735076645,"19":0.059832228134941566,"20":0.00828857487519261,"21":0.12709861664193595,"22":0.04948352593799201,"23":-0.03469657378323932,"24":0.15319846539264576}},{"sx":5,"sy":5,"depth":1,"w":{"0":0.08264482499127791,"1":0.42346336597845086,"2":0.4300574632267634,"3":0.24474091800217931,"4":0.23984289445937815,"5":-0.49334664628964636,"6":-0.6386924929282509,"7":-0.4183946925593471,"8":-0.02503906054585802,"9":-0.08887578347014698,"10":-0.4012134380169638,"11":-0.20094612351866148,"12":-0.26622894856018087,"13":-0.5567026724336857,"14":-0.6757406368670754,"15":0.40026601215731694,"16":-0.11240127879310527,"17":-0.19777264158834618,"18":0.1769887165410723,"19":0.4996639046911206,"20":0.24657929891935976,"21":0.4934809595823394,"22":0.16638013501538715,"23":-0.08343945611022137,"24":0.262368235422354}},{"sx":5,"sy":5,"depth":1,"w":{"0":-0.03690424620712541,"1":0.16858290253814145,"2":-0.3295689311214037,"3":-0.2420634217642944,"4":0.3071495290321378,"5":-0.054193754756159056,"6":0.21978198431642507,"7":0.04625572500701683,"8":0.038628589987894854,"9":-0.25021931012094356,"10":-0.09479417259205207,"11":0.716362565579254,"12":0.16945295913544178,"13":-0.5118043309270354,"14":0.4804482136175534,"15":0.43104653074035637,"16":0.20189818599844228,"17":-0.01712574609291405,"18":-0.273449845067751,"19":0.5328213982381004,"20":-0.21345897266870115,"21":-0.42597997396581544,"22":-0.824081068727732,"23":-0.5206886043820377,"24":-0.12586247816251717}},{"sx":5,"sy":5,"depth":1,"w":{"0":0.12955992653661355,"1":-0.174394019346575,"2":0.10573090946427623,"3":0.024099456440433615,"4":-0.08304632029451806,"5":0.30387488300653853,"6":0.2858526384855626,"7":-0.2566228645333141,"8":-0.2677422308265579,"9":-0.21170780423492452,"10":-0.06534678529109533,"11":0.1172193397709803,"12":-0.12251883571196298,"13":0.04333226899074361,"14":0.08783581546894091,"15":0.3243967978886543,"16":0.12158893524131953,"17":-0.4109596073947338,"18":-0.17443972967965082,"19":0.02884466954194394,"20":0.15433359678385125,"21":-0.3700053937222408,"22":0.005512526612545046,"23":0.09204214693083604,"24":0.02971907376420648}},{"sx":5,"sy":5,"depth":1,"w":{"0":0.3098209211329811,"1":0.23257777308115452,"2":0.31471274185068254,"3":0.2764567454736487,"4":0.037519003985894375,"5":-0.10658381630520906,"6":-0.015050422592934345,"7":-0.49711335617083446,"8":-0.22536246857490938,"9":-0.30549421033662044,"10":-0.18369200420094817,"11":-0.09263167730111047,"12":-0.5726357290659218,"13":0.08765339862701584,"14":0.02533324640171561,"15":0.14924449786849725,"16":0.047824225147337585,"17":-0.1599382811546279,"18":0.1519412633618129,"19":0.14202113233752298,"20":-0.05240205056971797,"21":0.21833730666977735,"22":-0.08127233647480389,"23":0.10574902976210276,"24":-0.06864461221216782}},{"sx":5,"sy":5,"depth":1,"w":{"0":0.012336551866320966,"1":0.06926914828431509,"2":0.02923069976895891,"3":0.040648281594186056,"4":0.05858806936430357,"5":0.1208977232265787,"6":0.2305516797216644,"7":-0.03642542868158365,"8":0.30551641806508023,"9":0.2673719763595721,"10":-0.49673281686157617,"11":-0.39342393791788544,"12":-0.2618812379030985,"13":0.08852135748729216,"14":0.1756538122334506,"15":0.15753846116500475,"16":0.2310729944209639,"17":-0.07776293061402197,"18":-0.25478406455426156,"19":-0.6303068484407407,"20":0.23950077497559452,"21":0.04350553449512123,"22":-0.35009114247402723,"23":0.17420084898714874,"24":-0.0025567366125003183}},{"sx":5,"sy":5,"depth":1,"w":{"0":0.019012854559348844,"1":0.33139093094950317,"2":0.3347549852084702,"3":-0.018652415282336934,"4":-0.1958311274805872,"5":-0.22880019156730316,"6":-0.0857274035005773,"7":-0.08406672209077626,"8":0.21442815510316018,"9":0.09274006214074466,"10":-0.25449047510840733,"11":-0.23103276386510121,"12":-0.4050093707163638,"13":-0.1826301055296047,"14":-0.020388687854257313,"15":0.2907794090950643,"16":-0.10487968884476224,"17":0.2219025901006322,"18":-0.14084852302378598,"19":0.10100117173899223,"20":0.11571005294635495,"21":0.03718054041305067,"22":0.10476250661982532,"23":-0.036609090020985606,"24":-0.013227257304705382}}],"biases":{"sx":1,"sy":1,"depth":36,"w":{"0":0.08813548435892529,"1":0.07950257573725299,"2":0.41971454409808734,"3":0.17172205181710692,"4":0.07813445915334491,"5":0.22269895688792668,"6":0.30287476444773825,"7":0.07477761956620108,"8":0.0011089419745052148,"9":0.28059972033953406,"10":0.05395316487263881,"11":0.08077652342360458,"12":0.05494523700347551,"13":0.07790696783667694,"14":0.14270839472055907,"15":0.26991958612660144,"16":0.17965314179452763,"17":0.2718027630376203,"18":0.0731073628713847,"19":0.020256154494925026,"20":-0.024291060362485795,"21":0.22731946529745578,"22":0.11108856917234626,"23":0.39712410727108155,"24":0.04671289754459539,"25":0.028008853804701327,"26":0.08443008049040754,"27":0.1250306484577376,"28":-0.010087235981890097,"29":0.04690503129896244,"30":0.15729473111734407,"31":0.2896026497653881,"32":0.0262809500568836,"33":0.10631388246265634,"34":0.0211586823117659,"35":0.05202910844277735}}},{"out_depth":36,"out_sx":22,"out_sy":22,"layer_type":"relu"},{"sx":2,"sy":2,"stride":2,"in_depth":36,"out_depth":36,"out_sx":11,"out_sy":11,"layer_type":"pool","pad":0},{"sx":5,"sy":5,"stride":1,"in_depth":36,"out_depth":72,"out_sx":7,"out_sy":7,"layer_type":"conv","l1_decay_mul":0,"l2_decay_mul":1,"pad":0,"filters":[{"sx":5,"sy":5,"depth":36,"w":{"0":0.05539596587312121,"1":-0.01529547632764282,"2":0.042263636991929525,"3":-0.14343285894811963,"4":0.01616891388612444,"5":-0.01073276630674503,"6":0.019723608983304487,"7":0.12795484726708584,"8":-0.01693839301115386,"9":-0.03935831414457393,"10":0.05634507513857317,"11":0.04338034902354325,"12":0.05220968441096004,"13":0.07116236268149609,"14":0.021300612103437946,"15":0.02282492382171888,"16":0.036436476800118155,"17":-0.0010295340428091793,"18":0.0720930514268467,"19":0.012164248119884062,"20":-0.04150310226060245,"21":0.052505842126152634,"22":0.0034678933428119512,"23":-0.03969857355144119,"24":0.0609068680919467,"25":0.0065985458655911135,"26":0.019081463011432164,"27":0.06219177349665121,"28":0.01700121222582181,"29":-0.011942915275953484,"30":0.02953276241672329,"31":0.06473356056418997,"32":0.07347578510216926,"33":-0.012321218391609441,"34":0.041980203102117364,"35":0.0323290849400642,"36":-0.01198295622186016,"37":0.07448358955128333,"38":0.06973206308594238,"39":0.05672175383951403,"40":-0.07102852870108023,"41":0.057015220389624095,"42":-0.09363172189520139,"43":0.13999977084275886,"44":-0.06740609645305917,"45":-0.1135311055346648,"46":0.08329251753995313,"47":-0.11210703333245417,"48":0.03962907646389594,"49":0.006292761232824446,"50":0.059289325577689796,"51":-0.03612802217870487,"52":0.0061715989149825345,"53":0.11818001176920219,"54":-0.04734832950677978,"55":0.05960344552166163,"56":0.06910686718639597,"57":0.02378102528237953,"58":-0.012691544852307474,"59":0.041248033424982365,"60":0.034167823713840265,"61":0.07982468317487777,"62":0.036309021558190165,"63":-0.09838393229493321,"64":-0.004555845022589209,"65":0.013657554091466202,"66":-0.1059830139782105,"67":-0.05158754544455522,"68":-0.05035406401710415,"69":-0.028711894913351597,"70":-0.02922061942150451,"71":-0.0006468819147144814,"72":0.07616805550685875,"73":0.04983272547077261,"74":0.012583607358300566,"75":-0.07442961525751327,"76":-0.03618236264475366,"77":0.07964459864822673,"78":-0.09760796342520621,"79":0.004115728926881594,"80":-0.00027335897301521313,"81":-0.0020908863465349385,"82":-0.00862001807704947,"83":0.11432559497860453,"84":0.03352084362498744,"85":0.07973339445766449,"86":-0.0008522995016110781,"87":-0.112448630258652,"88":0.0032584759199915736,"89":0.006950182159096452,"90":0.09696105549556662,"91":-0.026194203188882752,"92":-0.01297228168621947,"93":0.08892485309350824,"94":0.04878148288743311,"95":0.033102291145327166,"96":0.03271674149708346,"97":0.09064517352215294,"98":0.04440667282069103,"99":0.061638130950291144,"100":0.027113866555108952,"101":0.0212762268181267,"102":-0.03617314072294286,"103":0.07078326989599684,"104":0.002421099283810744,"105":-0.16276802823064185,"106":-0.038399389183674644,"107":-0.05599362740439469,"108":0.06753450282852215,"109":0.044339511324846134,"110":0.09141346181760826,"111":-0.03482276029412629,"112":0.022797847254328613,"113":0.1673867360371934,"114":0.05827005311109389,"115":0.13736750107500723,"116":-0.052726417340406874,"117":-0.1719465122159852,"118":0.03923401843934728,"119":-0.07574690998864382,"120":0.009620509844735989,"121":-0.008755504347513644,"122":0.08019055651548065,"123":0.011173640165866349,"124":-0.012407471471082706,"125":-0.02237577505260242,"126":0.01742086917349628,"127":-0.027582349942071416,"128":-0.02325418818670276,"129":0.07241518427942299,"130":0.07830225465526561,"131":-0.1295472720468309,"132":0.14945957377908065,"133":0.09873894653039438,"134":0.050568661201130745,"135":0.13043085096559467,"136":-0.09719421721932449,"137":0.05955632150410523,"138":-0.07839902533806228,"139":0.15189059390059687,"140":0.08512407739321057,"141":0.17236202456588967,"142":-0.07928348508757227,"143":0.03542110701502804,"144":-0.017538546869037552,"145":0.06771405063370611,"146":0.15970007431445216,"147":0.1788398587006579,"148":-0.1381851713762813,"149":0.19069067272942677,"150":-0.08321554421084776,"151":-0.01173110945449182,"152":-0.01649901831075934,"153":-0.16880033353377316,"154":0.10308502711148927,"155":0.0661117661468017,"156":0.011156254276210318,"157":-0.1332855039504224,"158":0.012294109335451489,"159":0.04907167280761678,"160":0.11846986906136812,"161":0.16412605971282287,"162":-0.1511188848046718,"163":0.000673018066568168,"164":0.020824090514241934,"165":0.1309749324058181,"166":0.16128692399979017,"167":0.0608630176181641,"168":0.07478093167664791,"169":0.009432062352442446,"170":-0.011939406999221497,"171":-0.1979295746102792,"172":0.0064947576080770985,"173":0.1192930602325085,"174":-0.11336329908221703,"175":0.11477857393032258,"176":-0.04263448605270809,"177":0.06344835026486344,"178":0.04954913071689785,"179":-0.09564347166982674,"180":-0.020188515752989224,"181":0.07478878843251396,"182":-0.07130503887989875,"183":0.1724261677857663,"184":0.0029843754843611103,"185":0.0619231603135147,"186":-0.05401047527649908,"187":0.07825616413022661,"188":-0.0024662563895734616,"189":-0.09118660238861344,"190":0.06754383119883829,"191":0.006097788770975708,"192":0.1063991508363049,"193":-0.0072743756953206045,"194":0.038505561450421194,"195":0.005828468004724201,"196":-0.039699403325520334,"197":0.14161454117851516,"198":0.13798131828668755,"199":-0.06228664606670341,"200":0.04750373775172435,"201":-0.11353368121368532,"202":0.04307010486488082,"203":-0.09510756401022788,"204":0.0001884690948098915,"205":0.007529578983527417,"206":-0.025897600784292103,"207":0.011204813978541651,"208":-0.04960573170517934,"209":0.11550456142612005,"210":-0.07003249928678955,"211":-0.11269728978911331,"212":0.015387782352041864,"213":-0.005360505763915824,"214":0.05287115125831949,"215":0.03796946506711771,"216":0.02650604019041574,"217":-0.017679642318549772,"218":-0.038756256685022916,"219":0.07143476764036913,"220":-0.02993951674302477,"221":0.04376281885564855,"222":-0.12070125562150831,"223":0.06156432198508118,"224":0.03439640989124113,"225":0.03293161983141662,"226":0.013556543702472933,"227":0.11225954613361826,"228":0.058557101532386795,"229":0.02258271180370778,"230":-0.023039843850270494,"231":-0.094220295626831,"232":0.1358120056220458,"233":-0.035742699929448854,"234":0.07603820015080776,"235":0.01294000818476789,"236":0.020844619523164392,"237":-0.016357085335022722,"238":-0.020864412968539553,"239":-0.1252919885812791,"240":0.0003053672839570939,"241":0.033407725070078664,"242":0.018024956803443886,"243":0.06400718532457149,"244":-0.02278431293374486,"245":0.03776009929818174,"246":0.03951012153478481,"247":-0.013209105036230469,"248":-0.033551046679375265,"249":-0.07824834954454761,"250":0.16850666116769825,"251":0.024894417054431427,"252":0.06259381250057723,"253":-0.06734947569673214,"254":0.0013836975865877375,"255":-0.09927831141562683,"256":0.05984457468206318,"257":0.16917696391320686,"258":0.06597025831251235,"259":0.035989746483762707,"260":-0.09504134497986978,"261":-0.03329787197051224,"262":0.020445099041276567,"263":0.0031069221202409446,"264":-0.023876665630282623,"265":0.02553586626134349,"266":0.01661361112637712,"267":-0.0014997168086536485,"268":-0.06025931864564208,"269":-0.059174610255064784,"270":0.027405559587978443,"271":0.06540907427588855,"272":-0.0031472487765040824,"273":-0.014427578647934123,"274":0.04149687638030159,"275":-0.08827101120603642,"276":0.04707389611333514,"277":0.06523970793356952,"278":0.01897842410727482,"279":0.044627652921678945,"280":-0.07798557906375914,"281":0.07928586212455306,"282":-0.012218467503166647,"283":0.10410767464203681,"284":0.0945696683008484,"285":0.05144613096415155,"286":-0.006967452902523803,"287":0.02358627268312827,"288":-0.05420945093850397,"289":-0.011297535114876219,"290":0.06821003780738044,"291":0.24506738150665353,"292":-0.03443309700738613,"293":0.11259699085379181,"294":0.08708970166945498,"295":0.11672324509099334,"296":-0.02796482928987655,"297":-0.12297986750488876,"298":0.17352400699124162,"299":-0.02896444783052847,"300":0.06657178771862475,"301":-0.018729940564026982,"302":-0.009794251658661013,"303":0.04418141330366459,"304":-0.15392450258412024,"305":0.14577934998591696,"306":0.02689799635292371,"307":-0.0238177445748121,"308":0.008070550868519556,"309":-0.050019035912591554,"310":0.07066416271376796,"311":-0.02278503106769178,"312":0.040782959792455595,"313":0.03343163741538558,"314":-0.11613280361357244,"315":-0.1076757450751496,"316":-0.059334377656138686,"317":0.11701025089535612,"318":0.0116242199107559,"319":-0.13243386001885243,"320":0.006568207658131515,"321":-0.0122465464245235,"322":0.03320209225894596,"323":-0.03690331105064781,"324":0.07447155274763467,"325":0.06630962675427393,"326":0.04801780327255314,"327":0.11264143615672507,"328":0.05902673012162838,"329":0.24471711267370477,"330":-0.26825841023973795,"331":0.13947557279569103,"332":-0.006768371403229032,"333":-0.013850248144468821,"334":-0.06804580001493031,"335":0.13621440077485591,"336":0.03412442472457348,"337":0.07887433127537605,"338":-0.009686684714539057,"339":-0.15937114857607995,"340":0.14020265044585709,"341":-0.07735756762317567,"342":0.1973399038330651,"343":0.021068080071239628,"344":0.007930870745479343,"345":-0.03985652269969755,"346":0.04043481118757401,"347":-0.020629336316390072,"348":0.012800062478506225,"349":0.021060003274355508,"350":0.03243453825855812,"351":0.1349345454313589,"352":-0.053367419140450095,"353":-0.029198027716457835,"354":0.038003985338239475,"355":0.05499498437099191,"356":0.004750764205803186,"357":-0.03913695657653731,"358":0.034238059189533376,"359":-0.0005208295583165865,"360":-0.10646073097997755,"361":0.04068647475330136,"362":0.002535033772854094,"363":0.009905744674131847,"364":-0.0306450303459444,"365":0.06375902360697933,"366":-0.14151293562564665,"367":-0.008442659790943023,"368":0.011016374079717403,"369":0.004610714868356662,"370":-0.029150337697378254,"371":-0.0024510312668161952,"372":-0.003547682468214815,"373":-0.047148686630874376,"374":-0.038458976189753705,"375":-0.05694197124053832,"376":0.005716223396526799,"377":0.08920928914486519,"378":0.06570458158999859,"379":-0.0008212384868914555,"380":-0.03332155062967116,"381":-0.019346855272787376,"382":0.06297805800920822,"383":0.010884888564697522,"384":-0.025481730696746842,"385":0.0010158978394380898,"386":-0.11509572911766021,"387":-0.07761352831541886,"388":-0.08745519358077067,"389":0.06376992230883427,"390":-0.11613325132192275,"391":-0.09512545199696404,"392":0.011281982080794369,"393":-0.14172607668497936,"394":-0.002782098447551332,"395":-0.006551372323033907,"396":0.06827097399617996,"397":-0.04316773762915116,"398":-0.05895014298818679,"399":-0.10311090056547745,"400":0.028444056212749827,"401":0.08701461859259013,"402":0.005566556787794472,"403":0.0835249923563465,"404":-0.006185774061574565,"405":0.060485242631823845,"406":-0.037441598496519915,"407":0.03189369704451339,"408":0.03998567017419596,"409":0.05420314931700533,"410":0.08941546184349349,"411":-0.03181582482547873,"412":0.015339195257054909,"413":-0.19609084076932565,"414":0.08526753425316143,"415":-0.049823478655490507,"416":0.0017022827690346106,"417":0.029833669434531782,"418":-0.03390119437930844,"419":0.007691121874128427,"420":0.004836866636399364,"421":-0.008875756598825002,"422":0.03604457769230308,"423":0.06205556102382576,"424":0.05496996863106051,"425":-0.084297425571234,"426":0.0037986265095932255,"427":-0.08101933827133506,"428":0.09818521251338817,"429":0.002618734216457717,"430":-0.027503610108458247,"431":0.034063734856868914,"432":0.021388215173768294,"433":-0.07012010644667174,"434":-0.005209672188341934,"435":0.08149370207476392,"436":0.05155882689389427,"437":0.08034601613002063,"438":0.11617394265118429,"439":0.10373152114201771,"440":-0.06644726672754332,"441":-0.016209562881653053,"442":0.06258982916084252,"443":-0.011962425341525737,"444":0.07652364454628166,"445":-0.07885874391256624,"446":-0.060648731105515136,"447":0.09137407385021387,"448":-0.11627700997545477,"449":0.055556755086447474,"450":-0.04325153965200778,"451":-0.06514371662809122,"452":0.009726019852543169,"453":-0.047994221670956926,"454":0.06448260520787337,"455":-0.011034807333536458,"456":0.0869121736751132,"457":-0.009304513371605275,"458":0.02099839004260211,"459":0.01498023730302495,"460":0.0664027078287343,"461":-0.026783485066924236,"462":-0.03762682978796381,"463":-0.030667198542713287,"464":0.07625389535925577,"465":-0.01121515973064923,"466":0.08548171313946681,"467":0.00615803081925367,"468":0.0262831984530382,"469":0.03538849694954739,"470":-0.085973008956961,"471":0.0592683691720684,"472":-0.020916702130990915,"473":0.017178710595648364,"474":-0.0041686392584804905,"475":0.10563944994074878,"476":0.0075156145895957155,"477":-0.08824963776405872,"478":0.04755586332478212,"479":0.008743257851537557,"480":-0.027703909284793386,"481":-0.04798781810598793,"482":0.04343784429497002,"483":-0.05104488729470218,"484":0.09907616847768021,"485":0.13895923370899874,"486":-0.08264504197900782,"487":0.05841781501173501,"488":-0.045065984857322425,"489":-0.00702827561595569,"490":-0.09794246342165892,"491":0.0006353952655387232,"492":0.04986847228423971,"493":0.029292983402017855,"494":-0.04033524347387037,"495":-0.01336783565419273,"496":-0.057810538392007886,"497":0.028796101739277002,"498":-0.07648525836467682,"499":-0.06430696862190606,"500":-0.0794350897225092,"501":-0.11392538539163204,"502":0.0014782419253763928,"503":-0.05994403083713057,"504":0.08643307473205189,"505":0.05900923724999636,"506":-0.019689702492787002,"507":-0.1464164923809151,"508":0.32295830031450634,"509":0.2971117248110012,"510":0.07503701101593452,"511":0.14648843573135184,"512":-0.07533374744157838,"513":0.0299763844861718,"514":-0.06870128710517462,"515":-0.13337564486572612,"516":0.11792602627837435,"517":-0.00312706369441473,"518":-0.09722656581766069,"519":0.09310424149448147,"520":0.052766040200065985,"521":-0.037363181004401946,"522":0.11451564608382832,"523":0.02349750838822287,"524":0.01166983296020475,"525":0.019740264190366313,"526":0.1301490807147128,"527":0.051320510559863246,"528":0.017562921029746555,"529":-0.03117899769491619,"530":0.11262655994107015,"531":0.09675585335801587,"532":0.21764530495770829,"533":0.024834005200211173,"534":-0.08366018168305933,"535":0.0402253642078244,"536":0.11469120981730718,"537":-0.006099188816998099,"538":-0.013269010745271863,"539":0.03664037041516581,"540":0.028505990345605848,"541":-0.018690561667504418,"542":-0.07384749607108146,"543":-0.18452102235705353,"544":-0.12900795742914495,"545":0.00016913994289567257,"546":-0.04493681506259417,"547":0.05975972781342098,"548":-0.059118978574528115,"549":-0.03438247363395962,"550":-0.07116676125492888,"551":0.10484927934672217,"552":0.019509501636269626,"553":-0.025084537290492478,"554":-0.04299964293262932,"555":-0.1406788683486438,"556":-0.010644591409808068,"557":0.0753472967849029,"558":-0.06134547024053459,"559":-0.03903426683304264,"560":-0.08562762557221668,"561":-0.017910359981953276,"562":-0.061070251049677816,"563":-0.05149849676185442,"564":-0.01412097772168273,"565":-0.0062818893987180505,"566":-0.018376932292965015,"567":0.034664740080711104,"568":0.016583935959278564,"569":0.05669212365613306,"570":0.05138871914546778,"571":-0.08858622815037988,"572":-0.019494579648915242,"573":-0.03463947795266785,"574":0.04094997662826892,"575":0.037429515217722344,"576":0.05544463852450333,"577":0.0006501696289586145,"578":-0.021762360100534874,"579":0.01577405805982221,"580":-0.01466727300328105,"581":0.0958735926170497,"582":0.14864589691459668,"583":0.0722553073139,"584":-0.03495649198375982,"585":0.12766810424071343,"586":-0.012447131584101958,"587":0.007463205135014637,"588":0.09265250023045567,"589":-0.06440570182227154,"590":-0.079165883085586,"591":0.10994884173693882,"592":-0.030921879335839855,"593":-0.049719861051684085,"594":-0.00866099710427876,"595":-0.0359399413544615,"596":0.02303370168039944,"597":0.012804021002391704,"598":-0.00445471277538687,"599":0.04988952278690533,"600":0.0012014372679625942,"601":0.08753431869867673,"602":-0.0332673564444728,"603":0.05986897662954236,"604":0.056205135790518355,"605":0.0019558689206737733,"606":-0.08817025042745573,"607":0.0364464011277843,"608":0.07006646762776585,"609":0.07909481279063472,"610":-0.03246120561843938,"611":0.014927541321036639,"612":-0.07556787251202385,"613":-0.030310308550027275,"614":0.030194692261147085,"615":0.19947001965082595,"616":-0.011542130763540824,"617":-0.12301274846069976,"618":-0.01252890554933091,"619":0.06631727209873048,"620":-0.007001397330097395,"621":0.1113818752863882,"622":0.038493384867043325,"623":0.012357174824727419,"624":0.009850640156605172,"625":-0.05353374649910586,"626":-0.008673566962012361,"627":0.029379873673117996,"628":-0.012329177211776742,"629":0.07529823755452583,"630":0.008687072093922122,"631":0.017341955680673277,"632":0.015246207315457842,"633":0.0007509779045770282,"634":0.012215478311575248,"635":-0.029427568715197406,"636":0.09356300828715308,"637":0.05807581926560215,"638":-0.0053347880239085705,"639":-0.036926176108552665,"640":-0.05676051721208941,"641":-0.00006884321896458959,"642":0.0397447639334481,"643":0.16258105034988019,"644":0.058502221040932105,"645":0.015943974396300034,"646":0.004609972326286332,"647":-0.01927394866983672,"648":0.013670346923819611,"649":0.008420096987531205,"650":-0.005773450860548817,"651":-0.04471931682338835,"652":-0.04536560459397659,"653":0.08791058084281352,"654":-0.04512238920179187,"655":-0.008805729742350875,"656":-0.044942643003576754,"657":0.04753987649023093,"658":0.0016113181242703228,"659":0.08265124786702574,"660":0.01664547214371742,"661":-0.020641845910321453,"662":0.10525184628110497,"663":-0.17165907964805757,"664":-0.00931468885794547,"665":-0.018444753237358884,"666":0.0031596309947374466,"667":-0.09062063006462662,"668":-0.059761828971442756,"669":-0.04610601311906175,"670":-0.018414468478135652,"671":-0.004667553584524398,"672":0.08906350375326322,"673":-0.035976833103779755,"674":-0.02752527349273465,"675":0.06686441187475015,"676":0.007400241990811848,"677":-0.05450849220841245,"678":-0.03487225710697853,"679":0.0550081091211801,"680":-0.003188520711369368,"681":-0.12702321130742064,"682":0.04264073818546697,"683":-0.00279331699251128,"684":0.16057210569087524,"685":-0.04636357148592691,"686":-0.12080761125321053,"687":0.05925598660741925,"688":0.22747940096763528,"689":0.014489352261576362,"690":0.14193269999905325,"691":0.06577506625445115,"692":0.008980347735384437,"693":0.034415028138618624,"694":-0.03544314415804335,"695":-0.04844072160813433,"696":0.05326127474666365,"697":0.05987908520769264,"698":-0.047125242449025335,"699":0.06090067000464469,"700":0.012603100062121472,"701":-0.033324986248275124,"702":-0.00012218144387201509,"703":-0.004067621931926132,"704":0.01028820455259737,"705":0.14770881895462784,"706":0.05437922547932023,"707":0.017958760487367328,"708":0.10773269686312634,"709":0.09143417869819627,"710":0.0328711710181985,"711":0.15275900442049106,"712":0.010475014209899058,"713":0.019941733470706394,"714":0.0449155399453158,"715":0.050108061983173,"716":0.05717152948104186,"717":0.12428283430888777,"718":-0.07527538047406097,"719":0.03032125369915098,"720":-0.015476372397395832,"721":0.056786116059871786,"722":0.03134199174217042,"723":-0.1027355491811061,"724":0.0395525478689324,"725":0.11979649495524962,"726":-0.08085406497382176,"727":-0.03996086566491928,"728":-0.042926101877183265,"729":-0.09178890018301068,"730":0.11694041005470462,"731":0.12237849747351512,"732":0.010293656699673356,"733":-0.052817368268615786,"734":0.004735303902550378,"735":-0.06996358132919868,"736":0.03194589685835631,"737":0.07192413849913579,"738":0.007969659370133119,"739":-0.10518712193691335,"740":-0.029215791216201794,"741":-0.0057090692505679524,"742":-0.021793275935448296,"743":0.05088814444428941,"744":-0.04647179715528089,"745":0.13249059204971605,"746":0.12402449279420476,"747":-0.02356468826009699,"748":0.018379931350483398,"749":0.03768953820974322,"750":-0.029570724805460653,"751":0.06875579988804767,"752":-0.04884572685793559,"753":-0.08719315359022793,"754":0.05503427497311887,"755":0.061762175253333544,"756":-0.01473174199043462,"757":0.09081104480153429,"758":0.1071921601499141,"759":0.038053147067567676,"760":0.060971639926391916,"761":0.031924609341597625,"762":-0.12216964345264905,"763":-0.003639776153364707,"764":-0.036931814151977,"765":-0.0658299691087371,"766":0.10406455431239069,"767":0.14317991167636246,"768":0.050127557274659694,"769":0.036603704139640085,"770":-0.14037552521064442,"771":0.009726770298713118,"772":-0.051889261548876305,"773":-0.020605410297066785,"774":0.09847398064288151,"775":0.06121341903830806,"776":-0.027252850140724965,"777":0.1985076686452656,"778":0.03888004513623376,"779":0.11168327354633932,"780":-0.03710102217373625,"781":0.053635383471805076,"782":-0.029482832039196313,"783":0.04105158523720322,"784":0.0397581292192305,"785":0.05953390671289465,"786":-0.07488819885088771,"787":0.0032510196071303434,"788":0.06774563848632137,"789":0.0889457508142248,"790":0.0024132042770584365,"791":0.11355926981928645,"792":-0.04864076847319629,"793":0.05880679513930661,"794":0.20220226078619793,"795":0.20669152973265845,"796":-0.0593844334939887,"797":-0.013240749049967441,"798":-0.11314244607549659,"799":0.12602368770836597,"800":-0.01157505852270773,"801":-0.17963810318749948,"802":0.10805583417981512,"803":0.05102591183794541,"804":0.05953530531265192,"805":-0.06380693596857873,"806":0.06318776558274782,"807":-0.02563577774920539,"808":0.07985888874041859,"809":0.045715502486054924,"810":0.10648796708827725,"811":-0.019921408110809665,"812":-0.057620108703590134,"813":0.11355913946790862,"814":0.018458972777381868,"815":-0.025377367188861272,"816":0.06506781499701335,"817":0.08456018325810298,"818":0.08405833728741069,"819":-0.04669963698171025,"820":0.023547835609926716,"821":0.07026394432862532,"822":0.1133233002382612,"823":0.10143112345182445,"824":-0.039131232052235364,"825":-0.025042077894768096,"826":0.039485652399514355,"827":0.052411706873261694,"828":0.15385131213147707,"829":-0.007406609490613114,"830":0.15160447363589694,"831":-0.025986213339690943,"832":0.04329510937746796,"833":-0.008560346570801078,"834":0.08964827745723714,"835":0.0839604162596453,"836":-0.028500115309811315,"837":-0.08500922193010603,"838":-0.019195327026158927,"839":0.10475309248746523,"840":0.061828036869067154,"841":-0.013855680296557373,"842":0.020603546804963728,"843":0.08340269760432643,"844":-0.04988328986666367,"845":-0.11992901295492021,"846":-0.0224552702353078,"847":0.027093230238323173,"848":-0.034971224455188146,"849":0.14457788913651998,"850":0.008628525856919847,"851":0.14836214683886934,"852":-0.13844927380308006,"853":0.10682586131107316,"854":0.07421475623379213,"855":0.13614016297924136,"856":-0.0550833034690405,"857":0.08546068085204088,"858":0.11619005874736296,"859":-0.0008635153023628739,"860":0.04437837990513463,"861":0.0002948256556472347,"862":0.037467973124052215,"863":0.11439865983852658,"864":0.09390317530827555,"865":0.07637053453542429,"866":0.2264766224119589,"867":0.14440627804650089,"868":0.21903511247707497,"869":0.03438777282212393,"870":0.07244684878116718,"871":0.06714880429847152,"872":-0.060482199503446,"873":-0.14127870549635158,"874":0.0856030052965151,"875":0.04118643999704342,"876":-0.020840979128683046,"877":0.03175834532284944,"878":-0.07032595524329886,"879":0.19661431056290737,"880":-0.04829766647437446,"881":0.10369876915963294,"882":0.11219671658206304,"883":0.025153573200686008,"884":0.05610393423009441,"885":0.0022008004060471813,"886":0.12085915904626757,"887":0.1830497881743908,"888":-0.01588678641787669,"889":0.023018442601625076,"890":0.0608612150131603,"891":0.15319427850174896,"892":0.08676396930436944,"893":0.006046313183918959,"894":-0.024147110510290663,"895":-0.2118364074861486,"896":0.012582624589107654,"897":0.01644464950250663,"898":-0.05624167662370383,"899":-0.03224411601531054}},{"sx":5,"sy":5,"depth":36,"w":{"0":-0.03477705908391553,"1":-0.01391697513745196,"2":0.017297441301823004,"3":0.01977078169640421,"4":0.010742586966021612,"5":-0.017515973372087212,"6":0.03171685827096413,"7":0.01724463698434367,"8":-0.04044275218156688,"9":-0.024208865156923935,"10":-0.09916770533598736,"11":0.012715789319154644,"12":-0.032209584334202165,"13":0.03775442250582421,"14":-0.01331518793514543,"15":-0.04385066864758677,"16":0.04416952378344985,"17":-0.027833693294240902,"18":-0.037354749612968245,"19":-0.04250541336756999,"20":0.0061532663990476934,"21":-0.03911703986830197,"22":0.004201019742668971,"23":0.008777020639545628,"24":-0.029634085062595045,"25":0.017844349784439894,"26":-0.03898392728924726,"27":-0.05960835368488167,"28":-0.011794894197931605,"29":0.006014469031969633,"30":-0.04388182638817661,"31":-0.005797261969939604,"32":-0.04347697179375645,"33":-0.01767909639934599,"34":-0.021413457077183447,"35":-0.0017658277665082768,"36":-0.014990500310222454,"37":-0.027587451908817125,"38":0.06838209213560502,"39":0.00253889312467844,"40":0.006932152738461565,"41":-0.058361829612294525,"42":-0.05146927176802995,"43":-0.04146272198702967,"44":-0.01607612605394851,"45":0.017915274934672067,"46":-0.03276606651787142,"47":-0.01993975305370978,"48":-0.028574050810864428,"49":0.03801221070912899,"50":0.000040017658387475364,"51":0.006523649858499706,"52":0.027460751845894672,"53":0.016813007509397418,"54":-0.02812143389478089,"55":-0.04623618310353066,"56":0.05069338481433451,"57":0.005094548452114162,"58":-0.026890926275625483,"59":-0.007059972225259252,"60":-0.019598410607070724,"61":-0.05640947608417963,"62":0.0065700131500882,"63":-0.07663664681303074,"64":0.00047379569959020917,"65":0.024597257702775134,"66":0.002859357281969512,"67":-0.011688375692987923,"68":0.036139058891776946,"69":-0.009787949305994446,"70":-0.025917290718238076,"71":-0.03498662886447344,"72":-0.0027188529865982253,"73":0.030425273283049368,"74":-0.006579811398400859,"75":-0.012357239557632863,"76":0.03473091566000887,"77":0.04891480619658008,"78":-0.013170581450338163,"79":-0.033646923966120804,"80":0.0013175010764867492,"81":0.013990635396251748,"82":0.00802892851805726,"83":-0.004718922472291339,"84":-0.02032528610006837,"85":-0.016999711524979554,"86":0.006533545257771598,"87":0.014332115662164146,"88":0.027461165963331882,"89":-0.005072673436503207,"90":0.020101872774901282,"91":-0.009774211144581229,"92":-0.025650066113630295,"93":-0.007369235839626306,"94":0.008245904677226861,"95":0.029078061131472585,"96":0.03597977159503584,"97":0.007483446104832482,"98":0.0263389214535957,"99":0.03231606602116709,"100":0.04074804792171324,"101":0.011225220355326778,"102":0.010594090206788071,"103":0.07996433324637733,"104":-0.01618103194231255,"105":-0.017526784521970748,"106":-0.0257272867271602,"107":0.013761622372664857,"108":0.011254344086888426,"109":-0.008460889565384318,"110":0.039943100439181645,"111":-0.0036184907417712545,"112":-0.022724024435321954,"113":0.020971491750300227,"114":-0.0037396479536791556,"115":-0.020885506602899166,"116":-0.03922956201925817,"117":0.026465316268309946,"118":0.021019124969800816,"119":0.027444535262164185,"120":0.031139735930631143,"121":-0.08470177244244609,"122":0.014909684608781766,"123":-0.008567958578854163,"124":-0.022688084252195984,"125":-0.02340029160631742,"126":0.020109776533060873,"127":0.006162566535558604,"128":0.04931138648894821,"129":0.0013341612954480336,"130":-0.027751745288667914,"131":-0.039265978810012196,"132":-0.045766989686829525,"133":-0.03857476228715385,"134":-0.010576565044801657,"135":0.03862949926609923,"136":-0.005386152526724707,"137":-0.004510106698309179,"138":0.004590313867974797,"139":0.022208331005526966,"140":-0.01882438627960741,"141":-0.011392513337152807,"142":-0.009411973199109835,"143":0.02769312791650327,"144":0.016870929501304893,"145":0.06281124615194342,"146":0.00993397472900044,"147":-0.009892903745719672,"148":-0.0011797110755211806,"149":0.007374611428607013,"150":-0.06518835955349442,"151":-0.01740557486208411,"152":-0.024392926992758773,"153":-0.02106301106336243,"154":-0.03622237015587015,"155":0.014261251541668525,"156":-0.021307382363175812,"157":-0.028966066373067867,"158":0.004710953446242993,"159":-0.01471873805380747,"160":0.013609741458869522,"161":-0.017086932133919416,"162":0.008594837625974064,"163":-0.056896450006428595,"164":-0.047206328308917564,"165":-0.03514048833589916,"166":-0.007026514696070225,"167":-0.0334903033366971,"168":-0.01958672894583058,"169":-0.00864812667939144,"170":0.015731845621703336,"171":-0.02884935988626188,"172":-0.0011591907831164936,"173":0.01150909747061068,"174":0.0029997707076507597,"175":-0.01064273876283125,"176":0.008403012759670458,"177":0.0012477875809440277,"178":-0.06989109702478127,"179":0.01591576091559876,"180":0.0017557813145231479,"181":0.038247891598838395,"182":-0.00892022691755054,"183":0.029054933822333383,"184":-0.0001177431293907934,"185":0.04684884413097169,"186":-0.036225942676481215,"187":0.004194870158880267,"188":-0.032390870964226944,"189":-0.04336003085732891,"190":-0.03364630659777235,"191":0.030197513315963223,"192":-0.02312368744351073,"193":-0.010321509962395106,"194":-0.0433056208731804,"195":0.007269748850190806,"196":0.053425050336831,"197":0.027883155305229435,"198":0.02651784473420393,"199":-0.02073268875130176,"200":-0.04868848043022091,"201":0.022150252126879807,"202":-0.02062041795360408,"203":0.015566094310462514,"204":0.010683811381131541,"205":0.030582508171894417,"206":0.005887446310809389,"207":0.004835108181848203,"208":-0.041951145891417206,"209":0.041672863768001715,"210":-0.014805279464564801,"211":0.07253578783103488,"212":0.005372133941105027,"213":0.04317945248035091,"214":0.03042608850643834,"215":-0.026643795498269045,"216":0.024704572881781014,"217":-0.0019483698691518147,"218":-0.015928373068874537,"219":0.003921622799000169,"220":-0.003624642509526941,"221":-0.04533555436919637,"222":-0.00940638009216294,"223":0.009634559093500137,"224":0.009352837311820303,"225":-0.026076785041496017,"226":-0.0005544597797923602,"227":-0.0530592469116848,"228":-0.05113065377615201,"229":-0.06735906841234679,"230":0.013876307697407967,"231":0.01697219313058892,"232":0.07957795195647822,"233":-0.01030459077084361,"234":-0.009091618861529453,"235":-0.03386609552712961,"236":-0.05080447113921285,"237":-0.039147467103763045,"238":-0.04173788396283812,"239":-0.0165570207957861,"240":-0.04823172444104829,"241":-0.03689976354105312,"242":0.024099691147998675,"243":-0.03270428372495781,"244":0.000023122350657741498,"245":0.019951156108010643,"246":0.035028067896405696,"247":0.009623953606280605,"248":-0.019409504074780294,"249":-0.010140609162703014,"250":-0.05390069998383724,"251":0.0024171111623924385,"252":0.058752950190801234,"253":-0.03449415480020941,"254":0.09830780275734606,"255":0.0020922617502884097,"256":-0.02106330649057494,"257":-0.04203674872243786,"258":-0.032400447816677,"259":0.006756435486199173,"260":-0.0385423163077555,"261":0.016771581595494724,"262":0.004132868846590158,"263":-0.07290999269603221,"264":-0.003622417032542578,"265":0.003350323225348233,"266":0.02303082018029601,"267":0.017040868120955722,"268":-0.04121954845275137,"269":-0.05782883296664922,"270":0.007097146374849641,"271":-0.01541872451606944,"272":-0.015246442398331197,"273":0.01604191334054633,"274":-0.06457256330846263,"275":-0.0712744480847436,"276":-0.01401225636634988,"277":-0.03732652735753628,"278":-0.033646705837817314,"279":-0.03287184573904983,"280":0.04219316501758007,"281":-0.008891925717993623,"282":-0.0058105651597333795,"283":0.012487701478091433,"284":0.0007849017654412871,"285":0.004823469783605287,"286":0.0051185973433928965,"287":-0.006855324730362341,"288":0.006261377135898918,"289":0.01840481990363704,"290":0.04152092678693116,"291":-0.00824981797483238,"292":-0.055620893658201574,"293":-0.013778349817816313,"294":0.004564236926029052,"295":0.012313477546069955,"296":0.0080839492605327,"297":0.025069814710091187,"298":-0.03059801430888539,"299":0.027409662355602667,"300":-0.04518478196835466,"301":0.058863541390413394,"302":-0.016537872874715205,"303":0.024466812800978347,"304":0.0034945421050938297,"305":-0.04820114249096999,"306":-0.013789950658453894,"307":0.02686960750270386,"308":-0.019880210414753994,"309":-0.023443046653455823,"310":-0.06050886345625191,"311":0.003992217207587458,"312":-0.05641155698364117,"313":-0.05015069986023503,"314":-0.03158885660499773,"315":-0.05721442936784832,"316":-0.07994172874669213,"317":0.01985654787325093,"318":0.03157150474986372,"319":0.0011619566395345464,"320":0.006436337225748184,"321":-0.04512956298730915,"322":0.002665530601055296,"323":-0.006523818641055597,"324":0.02919727068541699,"325":-0.006199843399731934,"326":-0.03663642883034249,"327":-0.0002525907703146439,"328":-0.056782813368722374,"329":-0.021039151854314295,"330":0.024094213827651777,"331":-0.040062891487394975,"332":-0.06966018867560833,"333":0.03814652663712774,"334":0.051191431000043794,"335":0.0013016495834770772,"336":0.03301148760740649,"337":0.014856781076395714,"338":0.011316211117631784,"339":-0.0031196836842074757,"340":0.03122827238922485,"341":0.016143180280045424,"342":0.03791025640010275,"343":-0.04418266675959619,"344":-0.012683807058026327,"345":-0.03164165000614234,"346":-0.04665786732875086,"347":-0.02818626797356157,"348":0.06308958541050262,"349":-0.02008660412149975,"350":-0.007111753925601313,"351":0.023599051497570633,"352":0.023900673032591847,"353":-0.012110560766053826,"354":-0.028393208611095518,"355":0.06509130246686945,"356":-0.023277883831617968,"357":-0.013560510265994752,"358":-0.019208114997423927,"359":-0.059313319550880726,"360":0.037442369834875054,"361":-0.015180326580913485,"362":-0.011818354533838884,"363":-0.009291412568031033,"364":-0.0007551966358273193,"365":-0.016392081247668954,"366":0.0014733771350752738,"367":-0.0430854125725717,"368":-0.036279837016772676,"369":-0.014992275882716134,"370":-0.03142719953413513,"371":-0.0019360626267510273,"372":-0.009185188528384323,"373":-0.018500427470433754,"374":0.003554309383364847,"375":0.0257160030272685,"376":0.00003398628921442696,"377":-0.031156453786844694,"378":-0.051250557361802174,"379":0.009125138958296737,"380":-0.032234032531842344,"381":-0.003786414300292408,"382":0.04005108635610158,"383":-0.05759878025825004,"384":0.0020243333943387957,"385":-0.04096668387280585,"386":-0.07750513019976264,"387":0.0015157727354539782,"388":-0.03317999693674517,"389":0.00580928162967538,"390":0.01399822241536379,"391":-0.047758154162158784,"392":0.00013309495391951846,"393":-0.007819965528857085,"394":-0.019898198140109066,"395":-0.019973402237738556,"396":0.02869656710457041,"397":-0.02439387548067821,"398":0.029788865896660126,"399":0.03586932896451652,"400":-0.04045970443958419,"401":0.04721113562673996,"402":0.0028413568780174306,"403":-0.01585766961620088,"404":-0.006428617188812915,"405":-0.04502665982859641,"406":-0.028080611543301555,"407":-0.01263157587260213,"408":0.018246443756041487,"409":-0.0460896285949505,"410":0.0009299953941759076,"411":-0.015597964929863553,"412":-0.022891631645620934,"413":-0.005152325789747211,"414":0.05391873651025811,"415":-0.025544297925462416,"416":-0.007883469664979227,"417":-0.02775775480579574,"418":0.03158811398408585,"419":0.017906063321056338,"420":0.03888259265485061,"421":0.0247246524115083,"422":-0.048675110474681024,"423":0.012089642607626376,"424":-0.05808307223709547,"425":-0.040371407663692536,"426":-0.04237450177752492,"427":0.01631605626703735,"428":-0.01811933000701384,"429":-0.025646348551254732,"430":0.0761343552975773,"431":0.033254649309030306,"432":0.020494914973452804,"433":0.01571017724708396,"434":0.004317435757683931,"435":-0.010821131713013564,"436":0.002645681105526537,"437":0.016596191051467785,"438":0.04966842152942341,"439":0.01647253660939568,"440":0.03347930304636537,"441":0.013726193498069729,"442":-0.02613032531715058,"443":0.027851676541075347,"444":0.010856769137614424,"445":-0.011033909042201823,"446":-0.018388488060853247,"447":-0.020763144299983563,"448":0.021056434992072052,"449":-0.00975618571979261,"450":-0.019247372542960686,"451":-0.018592444497256538,"452":-0.003032528599509363,"453":0.016532779202556643,"454":0.02321026451929936,"455":0.001239992426848642,"456":-0.030085701493830597,"457":-0.0480414861787656,"458":-0.04150825484776993,"459":-0.03532866124302963,"460":-0.013483530916436282,"461":-0.04130659769974279,"462":0.016337032564551084,"463":0.017187932936610317,"464":0.000749259234492863,"465":-0.027958422300755105,"466":-0.021024322260627393,"467":-0.03578584276711362,"468":-0.00924678150381981,"469":-0.0439929682988871,"470":0.007240691803163112,"471":-0.006758183845086377,"472":-0.012199211784230373,"473":-0.0045475117637183106,"474":0.003815624827126221,"475":-0.01297649667836656,"476":0.005127340508029465,"477":0.07393382105664509,"478":-0.01840198959203457,"479":-0.0019936830933925723,"480":0.03697503341502188,"481":-0.018469511827606457,"482":0.01226170689016307,"483":0.041031822873516054,"484":0.04150688310244266,"485":0.037694443259326964,"486":0.009865033364819102,"487":-0.01506319001474471,"488":0.023280179147286677,"489":-0.008854834564058178,"490":-0.015918938536249903,"491":0.036264900565522624,"492":0.011237845418189037,"493":-0.028840690772435222,"494":0.05861216784910523,"495":0.02118852543924995,"496":-0.004375884004614893,"497":0.04876611139944308,"498":-0.058175818052994176,"499":0.040942901891736175,"500":-0.018990518486849198,"501":0.0008621310858811321,"502":-0.0105019185819967,"503":0.01846138606430573,"504":-0.08299271044479387,"505":-0.04947841843382868,"506":-0.0106870548494757,"507":-0.021973565654059116,"508":0.004404637855380005,"509":-0.016800306891589335,"510":-0.040428002704086745,"511":-0.007081196533589457,"512":-0.013624265273525324,"513":0.06271544040625471,"514":-0.008777272087038544,"515":-0.009689574447787131,"516":-0.020120518751442003,"517":-0.03642344455447356,"518":0.0022518339300038304,"519":0.016950034906040908,"520":0.021640771128050965,"521":0.012085418458636782,"522":-0.011007864193206183,"523":0.018223838428192998,"524":-0.032501398089352936,"525":-0.02856702844141471,"526":-0.05579173540893527,"527":-0.03462878824537757,"528":-0.029806871108302272,"529":-0.029818332000951648,"530":0.024899747371496122,"531":0.07153087621723439,"532":-0.005014247520459647,"533":0.021540220378101396,"534":-0.010329875403944411,"535":0.024082415213122134,"536":-0.04864044000545813,"537":0.05264770686625297,"538":-0.060582874726118764,"539":0.024736525110022677,"540":-0.051545042093680604,"541":-0.03619382788687546,"542":0.011172881073773781,"543":0.030481860555489872,"544":-0.008400029221959928,"545":-0.01883647914561123,"546":-0.010537349327874096,"547":0.015564829782558803,"548":-0.028528860170116254,"549":-0.03593913995657351,"550":-0.040066747965083215,"551":-0.0020048870697212586,"552":-0.04269370436635004,"553":-0.016380877915227708,"554":0.009069790773308948,"555":-0.025577281227226724,"556":0.010354003305272015,"557":-0.05569485419223182,"558":0.03555714712892835,"559":-0.005092555501956581,"560":0.0012192938659607267,"561":-0.03115382907308915,"562":0.035878177911962475,"563":-0.05146541674993859,"564":-0.02881479327950615,"565":-0.03359797985914432,"566":-0.05094465588748824,"567":0.01707865209213806,"568":-0.03572032813800378,"569":-0.029449158506914107,"570":-0.033487290619370426,"571":-0.018544784991354635,"572":-0.03089652497880933,"573":-0.0674999819913777,"574":-0.011957031749321199,"575":-0.019043919051114435,"576":-0.01884790823697583,"577":-0.053464663327067764,"578":0.02088205177861541,"579":-0.0067130507069463555,"580":0.023268789669449327,"581":0.008905196063294544,"582":0.02198288478475616,"583":-0.05207611991024974,"584":-0.015603346999396441,"585":-0.0625403516200581,"586":-0.030342804866725935,"587":-0.028051791094570865,"588":-0.020685431268672023,"589":-0.036069245219266015,"590":0.018332758777727377,"591":-0.029755030316485905,"592":0.09946043624052911,"593":0.008833240280675963,"594":-0.012938345281764352,"595":-0.012078591378295526,"596":0.0675863178506405,"597":-0.04359315409664911,"598":-0.028519522611019355,"599":0.011421581151474238,"600":-0.021075693526476307,"601":0.010316507431141615,"602":0.08141494507932132,"603":0.07199949476373259,"604":0.009611908621261461,"605":0.032606908736954245,"606":0.008621882064143428,"607":-0.011754550460404046,"608":-0.0524300745525466,"609":-0.0441253646899402,"610":0.01708113173248316,"611":-0.04646216932574606,"612":0.0003147502970130096,"613":0.050544273816103095,"614":-0.01378506704083704,"615":-0.006486191335874936,"616":-0.06874974242727803,"617":0.007993509469508499,"618":-0.014058685504908845,"619":0.028602298888280125,"620":0.061482155719304425,"621":0.030149986969593912,"622":-0.02586017625707145,"623":0.0230762999960578,"624":-0.011641748175776633,"625":-0.005130623700335674,"626":0.00036821511955046634,"627":0.05025018842202846,"628":0.08438324170801643,"629":-0.035357693331243036,"630":-0.03698722260931358,"631":0.01528929138781265,"632":-0.018201876811784982,"633":0.0240178956211438,"634":-0.012835496084425664,"635":-0.004031873045846794,"636":-0.04379292079540244,"637":0.0012975234543158498,"638":-0.02874746960162319,"639":0.002993895094138978,"640":-0.013127327772780882,"641":-0.04126076096391119,"642":0.058526226135848125,"643":0.010168352124103573,"644":0.0026379179436371147,"645":-0.00649495437888015,"646":0.08522364659106567,"647":0.025344334477691202,"648":0.005716128451340351,"649":-0.04188909840973125,"650":-0.02952217543993435,"651":0.09466981001611721,"652":0.0033861336582087956,"653":-0.057193540868828115,"654":-0.003742736266387662,"655":0.033038764444107985,"656":-0.0010929592107159995,"657":-0.02239487584549038,"658":0.0037473218075337244,"659":0.024163073833037643,"660":0.046850694184116005,"661":0.02542982965516733,"662":0.0401899525797178,"663":-0.040132543329961745,"664":0.03458718458076299,"665":0.016515624247156836,"666":-0.019553045818324694,"667":0.016528417681131134,"668":0.05715280331025043,"669":0.0009789508474068506,"670":0.05356449989116602,"671":0.047130591868332676,"672":0.07856112084554025,"673":-0.027033761761447412,"674":-0.001154458695404176,"675":0.07026589465684675,"676":0.04482373443483227,"677":-0.0027332614529965737,"678":0.0005385807724618283,"679":-0.01751379314536303,"680":-0.0020769368880738646,"681":-0.01268500298212243,"682":0.00023430468407974712,"683":-0.008556744083105132,"684":-0.010455350383943986,"685":0.0348175830042061,"686":-0.02795234471884932,"687":0.023609106914648174,"688":-0.050499939244411714,"689":0.006907633095060659,"690":-0.01387276049549087,"691":-0.0012349963200875428,"692":-0.04215317364075059,"693":-0.03842707550549672,"694":-0.02867558266524949,"695":-0.053854780597091964,"696":0.011953860626731143,"697":-0.017204602760303868,"698":-0.052665408400659565,"699":0.045753135754642155,"700":-0.1258096106349815,"701":0.04480060735786508,"702":-0.010685361213305204,"703":0.005610194490138416,"704":0.014197146493166883,"705":-0.04635965044064963,"706":0.013336996711377698,"707":-0.0033599897421419996,"708":0.012517039530113964,"709":-0.043589145985914284,"710":0.0427859796208791,"711":-0.01366469715980521,"712":0.02939682600260954,"713":0.0052122718177767605,"714":0.08234330354104598,"715":-0.02265941197596032,"716":0.012786822723502254,"717":0.02163751033390325,"718":-0.012477225209536917,"719":0.027276070740881106,"720":-0.05520397164624453,"721":-0.036498321443181964,"722":-0.02319659169589781,"723":0.018431691853935853,"724":-0.02943663968136601,"725":-0.006120126382561462,"726":-0.03626310539693255,"727":-0.017787842395116507,"728":-0.060236704104045795,"729":-0.07018951878614152,"730":-0.0682009350148344,"731":-0.04991614935264541,"732":-0.08937059978826521,"733":-0.004948883609863877,"734":0.027829551808419534,"735":-0.07385845774754171,"736":-0.045623208471433065,"737":-0.07252414767479763,"738":-0.06402238833003662,"739":-0.0005602236655486054,"740":-0.004049853471683987,"741":-0.06722905480592449,"742":-0.06284589161122837,"743":0.02312310661122611,"744":-0.041483874355812356,"745":-0.023237395366138527,"746":-0.032775355723872614,"747":-0.026501490117059434,"748":0.0005968667032180319,"749":0.05242752888368505,"750":-0.05135252439682787,"751":-0.07373199248013006,"752":-0.017942883828494485,"753":-0.017737976997857036,"754":-0.024875040076148755,"755":-0.021113045103124905,"756":0.022587208868661345,"757":-0.07582262556377428,"758":-0.048335860752913073,"759":-0.04490595217748679,"760":0.04549695000319328,"761":0.05072426222654457,"762":-0.02290637964415955,"763":-0.0427235876535306,"764":-0.0466673067983749,"765":0.05783513381766567,"766":-0.04110566708770245,"767":-0.01753397368229623,"768":-0.06887841570201848,"769":-0.019921214820808816,"770":-0.00012922043487318942,"771":-0.08195312693400936,"772":0.04522159208798913,"773":-0.07045337529689459,"774":0.024659435494128176,"775":-0.02978055082407381,"776":-0.023838283480733847,"777":-0.029135433276846295,"778":-0.020121048670990828,"779":-0.006954823971028286,"780":-0.030880786891248686,"781":0.05690431365665862,"782":0.011130370485868131,"783":-0.05221494261558451,"784":-0.03632622408436532,"785":-0.0855993813420633,"786":0.00019054143561542317,"787":0.1002884896598136,"788":0.05725127195651501,"789":0.03088360710424688,"790":0.018677413730243623,"791":-0.051151620042589614,"792":0.0031219593352591855,"793":0.05288336964521561,"794":0.06446901958354694,"795":0.04580277987849628,"796":0.03440744236315012,"797":0.04307872961103274,"798":0.03608275868579315,"799":-0.00571355336424011,"800":-0.003363710818901767,"801":-0.023504837301391572,"802":0.0867873845979684,"803":0.037880657626357804,"804":-0.012857145332717115,"805":-0.018318697289597556,"806":-0.04373441237406054,"807":0.050844777438381124,"808":-0.0014716653431919007,"809":0.0296637184294528,"810":-0.014624958634367462,"811":-0.01796606366771112,"812":0.050222368738736735,"813":0.03880508990681728,"814":-0.03397402747836827,"815":0.05494870849338282,"816":-0.01299847357919379,"817":0.08397589932263917,"818":0.001980632787196211,"819":0.03370536540705363,"820":-0.019632698256724958,"821":0.02522011729408025,"822":0.003843049372892148,"823":0.13623147661555082,"824":0.00010744339634258205,"825":-0.005429106299617103,"826":-0.02284722942368037,"827":0.014744342604405608,"828":-0.007929896797584561,"829":-0.012333655326664642,"830":-0.022699089368654994,"831":0.08336000538758657,"832":0.02944755403955519,"833":-0.08995151555997716,"834":0.09348597967243505,"835":-0.08482484955665878,"836":-0.012194504581804433,"837":0.047085301137909936,"838":-0.0141140397163023,"839":0.02786659161758566,"840":0.03374356275660033,"841":0.0302238299967705,"842":0.02568205715744147,"843":0.050938901121725146,"844":0.004133098727766634,"845":0.08614136590180532,"846":-0.05203241402195688,"847":0.03230369043049197,"848":0.08839138871123248,"849":0.07969913846686283,"850":0.013144064583502969,"851":0.06390019414480175,"852":0.01517980116207751,"853":-0.0177862839302394,"854":-0.006353110820484719,"855":0.001038445563821073,"856":-0.031156037395714792,"857":-0.015020017728353924,"858":0.03071614626693783,"859":0.007967207084679765,"860":0.038363698362217605,"861":0.032954343934558684,"862":-0.052141094124115404,"863":0.0051156169656285146,"864":-0.01326902456734605,"865":0.052552733665501214,"866":-0.03687010095825224,"867":-0.000273194766267912,"868":0.04212000822428701,"869":-0.07454569560508635,"870":0.02837482906177642,"871":0.02337069322297877,"872":-0.05533874009111551,"873":-0.04067382131407656,"874":0.042864485813301365,"875":-0.0009622790461184067,"876":-0.10717564968641083,"877":0.011117416551338834,"878":0.005699402471624415,"879":0.08108168559161594,"880":-0.08433734454452883,"881":0.008237038451745187,"882":-0.0057554023406162485,"883":-0.017134790972819124,"884":-0.0001294576403007945,"885":-0.15366238092034484,"886":-0.009277050758216703,"887":0.008204471131428305,"888":-0.06600277757923169,"889":-0.10049689433363604,"890":-0.035666379252526983,"891":-0.07840230702179388,"892":-0.0036290015817756803,"893":0.06341196526707923,"894":0.027314922468407003,"895":-0.12352806437516904,"896":-0.10305543217570534,"897":-0.015798864571394778,"898":0.015370138206596069,"899":-0.02898781600636653}},{"sx":5,"sy":5,"depth":36,"w":{"0":-0.04906799957412869,"1":-0.08789201713007518,"2":0.012467928883651695,"3":0.08471655747606237,"4":0.08975266696008943,"5":0.037022959978409424,"6":0.0163362006701098,"7":-0.013780254399807429,"8":-0.014163001477988406,"9":-0.08492860851207219,"10":-0.028594585386644524,"11":0.10034255630597057,"12":-0.06416352209126562,"13":0.003715537787755682,"14":0.07004015584906556,"15":0.1293376297977493,"16":0.04910765878923722,"17":-0.09043607900170884,"18":0.11124697004290561,"19":0.0374997049385483,"20":0.05051292710006683,"21":0.02619981729774594,"22":0.032216305979113465,"23":0.055072821562062474,"24":0.02627628917926267,"25":0.01390885503027547,"26":0.13322133061417096,"27":-0.04849347247392862,"28":0.051550142387490804,"29":-0.08794081845955794,"30":-0.08413947841254553,"31":-0.017643976321173708,"32":-0.029002080505213242,"33":-0.049317551458086216,"34":0.026708517338351105,"35":-0.007820316897703435,"36":-0.0241793166913892,"37":0.021694480153034587,"38":0.05782317891222906,"39":0.04262397745338291,"40":-0.012653142878880403,"41":0.05673246059293515,"42":-0.04781266261319366,"43":-0.019519544794208702,"44":0.0565257831821428,"45":-0.054991316321534346,"46":-0.061593688336872,"47":-0.004858557969872044,"48":-0.0401780737503601,"49":-0.007011196994297959,"50":0.11248006016930884,"51":-0.04657628853060743,"52":0.10286923142782461,"53":-0.008992047915712297,"54":0.028544793549688356,"55":-0.024538265236820685,"56":-0.07393220796869097,"57":0.06838437038029171,"58":-0.03942015814862741,"59":-0.020120956051849694,"60":0.11524730568600919,"61":-0.019347672306400752,"62":0.03149147505464905,"63":0.04118889765204104,"64":-0.01734592556637549,"65":-0.07256913350121022,"66":-0.04482388654492021,"67":0.07878604354068997,"68":0.015974455777034942,"69":-0.11618870363687385,"70":0.02758403167186934,"71":-0.08384684504052504,"72":-0.15359574377676852,"73":-0.015709086212520918,"74":-0.03290523687492477,"75":-0.08086403185974961,"76":-0.03895407920685296,"77":-0.1070354545978376,"78":-0.014189131907585185,"79":-0.1234662310285858,"80":0.0234445858594392,"81":0.023050854791166402,"82":0.01374787805239323,"83":-0.0629656223162419,"84":-0.013143716094217635,"85":0.012087592764437782,"86":-0.019088006421347913,"87":0.0008537446574427482,"88":-0.023437996773432602,"89":0.061555735521514894,"90":-0.06970865603426374,"91":-0.06554159552263529,"92":-0.03086452920719551,"93":-0.05601227636400622,"94":-0.036745997921968136,"95":-0.01749826286887275,"96":-0.04908336280509692,"97":0.00849460571003823,"98":-0.007604564508778067,"99":-0.07921812827011025,"100":-0.09006041854509432,"101":-0.07321369682229244,"102":-0.011402606552564889,"103":-0.07544310485969,"104":-0.05102810636702893,"105":-0.04137331898246878,"106":0.006614120168540746,"107":-0.05801374748819608,"108":-0.07695758525614473,"109":0.04347235781665899,"110":-0.006116133764809997,"111":-0.11887260318373896,"112":0.00044571909514113425,"113":0.014763308777494252,"114":0.09165477947608532,"115":-0.10641744896604587,"116":0.07231845571052886,"117":-0.06890197858116581,"118":-0.06876683651113637,"119":-0.06798349265051493,"120":-0.044069108185055446,"121":-0.015123949726319788,"122":-0.05491851809152791,"123":0.024683139696103883,"124":-0.05211643339876085,"125":-0.07653111646447333,"126":-0.13786459337820814,"127":0.008790841741339638,"128":0.012511691518289413,"129":-0.00789254100496639,"130":-0.03353649349319618,"131":-0.004814766663565344,"132":0.029297749172843373,"133":-0.042476604332504345,"134":-0.005266924175547054,"135":-0.04406639202985767,"136":-0.017739753929230388,"137":0.03986003561312319,"138":-0.04010189512225413,"139":-0.05827374045866613,"140":0.01363720247617826,"141":-0.07656999605373736,"142":-0.02385036868319127,"143":-0.034937477701724194,"144":0.04876452628142445,"145":0.05367472935126094,"146":0.04855847324535133,"147":-0.024321810436663538,"148":0.08168243126983454,"149":0.05582325289094193,"150":0.13592232188983167,"151":-0.10202328410909739,"152":0.06191972296251677,"153":-0.04644812043412626,"154":-0.0504824317422026,"155":-0.0241641005029722,"156":0.0336811061571911,"157":-0.009594916242419281,"158":-0.0648635881608894,"159":0.0954371946745642,"160":-0.10341522417037532,"161":-0.0731602256963361,"162":-0.0644388243020038,"163":-0.021725380720968007,"164":-0.016585511878345366,"165":0.002476856531022829,"166":0.0071252378625729475,"167":0.11744805019788294,"168":0.006020794790335763,"169":-0.02770939037127384,"170":0.005846896610302148,"171":-0.015720778795261136,"172":0.051831745274753885,"173":0.021556838388915214,"174":-0.008321525165069238,"175":-0.0033774252743605008,"176":-0.039454389315711984,"177":-0.043020746994550434,"178":-0.00785780673623985,"179":0.008952537834732235,"180":0.05822100231682864,"181":0.00442577646319801,"182":-0.03852331318781779,"183":-0.003475284852161885,"184":0.05869139721522883,"185":0.042883067493353744,"186":0.0036968154013130305,"187":-0.053075092494688336,"188":0.10838682786108672,"189":-0.05027272942997438,"190":-0.04831217617885949,"191":-0.09104070172180491,"192":0.0031415603909439277,"193":-0.0010220107582617215,"194":-0.028170032796611864,"195":0.018217938076310503,"196":-0.05904445682311637,"197":-0.07066025190699886,"198":-0.033681500505992196,"199":0.05094841779237677,"200":0.0066608460956174,"201":-0.06763202865128654,"202":0.053093661514919094,"203":0.0008344549817981586,"204":0.020704591261146172,"205":0.0007202696460483448,"206":-0.03431054620000235,"207":-0.04629334847748961,"208":-0.034456123023272056,"209":-0.01678900005729962,"210":-0.016800967126438537,"211":-0.00306948789903895,"212":0.06160502783502498,"213":-0.07642393643832712,"214":-0.04659604654067123,"215":-0.036515007007147424,"216":0.014824367212846643,"217":0.019728200742585522,"218":0.05907173689393091,"219":-0.00915210254076773,"220":0.07761030889032401,"221":0.09589707583187618,"222":-0.035562267269005125,"223":-0.03359012852859573,"224":0.01858561698803044,"225":-0.06862111360840033,"226":-0.04092862633576055,"227":0.004977572731419178,"228":0.013182158238958476,"229":-0.015502376739469942,"230":-0.016828923158279687,"231":-0.03544223098264013,"232":0.0030770047042465356,"233":0.02717096333780318,"234":0.08665605597069084,"235":0.06538577248380763,"236":0.0588769404291216,"237":0.01498630320077927,"238":-0.018545587162953542,"239":0.046141813880629844,"240":0.024774940053461418,"241":-0.0442104768747475,"242":0.05143757732112866,"243":0.004274321225892139,"244":-0.019478483158130614,"245":-0.015888303162710917,"246":-0.03562274392524744,"247":-0.029289617994417087,"248":0.026688566748272302,"249":-0.003406544534692797,"250":0.020501768747118402,"251":-0.06985740333192629,"252":0.007658166422976609,"253":0.0060354724347617475,"254":0.001051445064120437,"255":-0.0017268453144574992,"256":0.02379787085201305,"257":-0.05509182935416561,"258":-0.08447010261795088,"259":-0.003908470561363247,"260":0.036466873684308836,"261":0.0014640253983359162,"262":0.055096556844339416,"263":0.07588188698492525,"264":-0.02852334851247614,"265":0.06801984249539716,"266":0.0545690791165736,"267":-0.051023163207313815,"268":-0.010444653100342434,"269":0.11685319662707351,"270":0.042001526876455725,"271":-0.020978446211391607,"272":0.0033860570987734304,"273":-0.08973381433346964,"274":-0.026549170237486448,"275":-0.04534845123595264,"276":-0.004674307529599763,"277":0.04346954576016761,"278":0.006043221768754986,"279":-0.058708055806687684,"280":-0.0049817888430574294,"281":-0.048237923575312654,"282":-0.017076832512221685,"283":-0.020892934321215275,"284":-0.08358562432186227,"285":-0.024524452925647894,"286":0.007947258352048488,"287":0.00507483813899342,"288":-0.032796801852105054,"289":-0.04785918174027696,"290":0.03907247910423779,"291":0.01656847567724083,"292":0.04489894500833618,"293":0.03187481182848389,"294":-0.09991672929658442,"295":-0.03730408854954652,"296":0.07101866065318868,"297":0.0497855192344414,"298":0.0023081835851542967,"299":-0.07997940285194804,"300":-0.029924055444455526,"301":-0.054779050462761346,"302":-0.060141726907514285,"303":-0.051974271818637674,"304":0.002557317724199943,"305":-0.04377891493452613,"306":-0.05851291744053098,"307":-0.03248791768962603,"308":0.004280382055038531,"309":0.02831918274603241,"310":-0.015934500199543598,"311":-0.011649561496952829,"312":-0.028341965681702674,"313":-0.01932093566917292,"314":0.040396200200157065,"315":-0.07856726205680795,"316":-0.015945912215034275,"317":0.07314316068373691,"318":-0.05382159383128855,"319":-0.04468201922734495,"320":0.03267963890710588,"321":-0.009679138626042671,"322":0.0016296289809816275,"323":0.04830419771399823,"324":0.047577762798210105,"325":-0.029445373934364916,"326":0.04540126760899631,"327":-0.0011918159921693466,"328":0.07408916205474494,"329":0.09397700167844786,"330":0.01223859829687669,"331":0.020146531737056377,"332":0.07465399422009876,"333":-0.005945519515530597,"334":0.010369944802155535,"335":0.0032928266595778797,"336":-0.016966216399678984,"337":-0.00013490461742055336,"338":-0.03629042911487636,"339":-0.05156283871190087,"340":-0.08642479533759446,"341":-0.014679931955373374,"342":-0.007565509992104385,"343":0.003564475158407826,"344":0.020157883692291035,"345":-0.008721669064593141,"346":0.025717387714990103,"347":0.036465805962066784,"348":-0.019787713539371664,"349":-0.009489683120878398,"350":-0.008629909056623622,"351":-0.033454485399671836,"352":0.03373734238002554,"353":-0.01659932340001267,"354":-0.0605280745888098,"355":-0.05717086933115475,"356":0.10344932314961318,"357":0.02240922007167542,"358":-0.027564868665321547,"359":-0.014246695171832862,"360":0.003306651612333732,"361":0.02848004319926132,"362":0.013052847911229806,"363":-0.042305272745477344,"364":0.017022925510353767,"365":0.0186630381331662,"366":-0.026891382340521023,"367":0.000010059685191074285,"368":0.004648299902356637,"369":-0.09162207117481644,"370":0.05990786866157243,"371":0.009881479344297835,"372":-0.05162335142863531,"373":-0.053093183098560016,"374":0.024265367326521937,"375":0.007226476468416001,"376":-0.05501365131027287,"377":-0.07800960589571351,"378":-0.032539657584759886,"379":0.036750729130791235,"380":-0.027455492103488997,"381":-0.04965078990759396,"382":0.03786935239303036,"383":-0.04144601242656394,"384":0.024230515853779333,"385":0.009899677200405226,"386":0.003030699621018604,"387":-0.12662314316800458,"388":0.027614542439356037,"389":0.0257698272337355,"390":-0.06542049971662407,"391":-0.014734011401927939,"392":-0.0062819786927330035,"393":-0.01932163865191704,"394":-0.008146789675449989,"395":-0.055158015406883934,"396":0.018810337593474193,"397":-0.0033381316083708214,"398":-0.020095170291107103,"399":-0.05834044528567048,"400":-0.012640566984500223,"401":-0.022132863309936184,"402":-0.024724955929124506,"403":-0.10061089530253758,"404":0.05888502022855772,"405":-0.14774974481419056,"406":-0.033406181775075636,"407":0.030211593202575028,"408":-0.008590744512543096,"409":-0.05715578524074197,"410":0.07881708204825008,"411":-0.048087422510929664,"412":-0.03621431894418836,"413":-0.07830549244433427,"414":0.05247833019158367,"415":-0.015921628031303092,"416":0.03687473332389269,"417":-0.06958247390938045,"418":0.019900000817902348,"419":0.017165876182918392,"420":-0.001985547907598063,"421":-0.049307741641618205,"422":0.03496536104741631,"423":-0.06835245769934778,"424":0.0021265814007031094,"425":-0.06891446245595417,"426":-0.08668951213144836,"427":-0.010829712825509314,"428":0.03543332971245145,"429":-0.08760724972238956,"430":0.002209251095489424,"431":-0.016594739936460375,"432":0.001902288728360824,"433":0.0236503169500763,"434":-0.012722794459542849,"435":0.010447881632344709,"436":-0.053118144660429266,"437":0.010974134558992932,"438":-0.05331334318070796,"439":-0.018783428075208476,"440":0.11505706113030066,"441":0.002097100867159693,"442":-0.027548803471695745,"443":0.07307755092764485,"444":-0.018791526176801705,"445":-0.027228394409524688,"446":0.06123457393404905,"447":-0.004537455129674766,"448":0.1267816646095025,"449":0.024169777261889104,"450":-0.10105904045878471,"451":-0.00969311962471631,"452":-0.03912453910911666,"453":0.028418328414890472,"454":-0.046085646563842314,"455":-0.030733301040884963,"456":0.01582513240777912,"457":-0.0011951539419888634,"458":-0.027178359987661896,"459":-0.00426636836158723,"460":0.043040796808374304,"461":-0.0696736964222486,"462":-0.07965322786576977,"463":0.05883221821631255,"464":0.015352342755574724,"465":-0.03818564194448332,"466":0.02039311228283479,"467":-0.08888876137622043,"468":-0.0035347451302059946,"469":0.060840051006761486,"470":0.06798518560513118,"471":0.009236534149963378,"472":-0.015310198764202726,"473":0.04140300025493997,"474":-0.07270361850492423,"475":-0.04855896839291502,"476":0.05417300918445624,"477":0.07765142833322164,"478":0.03575562404003949,"479":-0.004162497254873392,"480":0.045003249685360784,"481":-0.05407543645865326,"482":-0.04540511514866215,"483":-0.05256060597614195,"484":-0.01657644078222091,"485":-0.002771899476766906,"486":-0.020614885642045864,"487":0.006823071025556256,"488":0.007352216830427487,"489":-0.011642456621032648,"490":-0.031317137431457906,"491":-0.04052810114832859,"492":-0.021393252634129174,"493":0.05848897766439917,"494":-0.04428485442392011,"495":0.047994599431382956,"496":0.009996398484122359,"497":-0.04467396231592533,"498":-0.017263653024985642,"499":0.09922365300476588,"500":0.0067889708004393225,"501":-0.060425706584418884,"502":-0.013845631112433693,"503":0.020141689077084364,"504":0.00949442194227786,"505":0.02712011775532073,"506":-0.004628074354075777,"507":0.01435074592083653,"508":-0.05092740760367227,"509":-0.06371559192236607,"510":0.013692591249567817,"511":-0.048002410801959716,"512":-0.018156058472542688,"513":-0.05136599523432786,"514":-0.003797024635930603,"515":-0.011736303849316563,"516":-0.0097539670457917,"517":-0.05154328700499882,"518":-0.05832905982718802,"519":-0.00017222449644390073,"520":-0.1178594499002348,"521":-0.014871763404971195,"522":0.045296495623335535,"523":-0.022120692071141073,"524":0.01702805667814278,"525":-0.042187091408492285,"526":-0.011445650136154834,"527":-0.012829794179299279,"528":0.060863927888987514,"529":-0.06544333879767851,"530":0.03916396176224392,"531":0.02131321455322129,"532":0.016273261742662328,"533":-0.06002352336008186,"534":-0.02913735999067892,"535":-0.03617652980109655,"536":-0.004605490427644008,"537":-0.027480371156280187,"538":0.004093095506235673,"539":-0.017248545858766645,"540":-0.0022145050437686127,"541":0.002747664760142973,"542":-0.042139470077185666,"543":0.047969069585551895,"544":-0.08799790589276668,"545":-0.060036770946917076,"546":-0.07617907592446001,"547":0.004769120459265135,"548":0.006749084681507658,"549":-0.08677881629065172,"550":-0.08187922390074662,"551":-0.07096343114013626,"552":-0.08539685100220507,"553":-0.04596179120824947,"554":-0.08604939288654902,"555":-0.07134769900845969,"556":-0.08156541759354166,"557":0.017442541043556255,"558":-0.15318645019134275,"559":-0.01633653988094166,"560":0.0024650216956984433,"561":-0.08493034999028147,"562":-0.07141388558005993,"563":-0.0018729195518921377,"564":-0.04179257528168976,"565":0.0392649097844456,"566":-0.04369560885977563,"567":-0.0796246114160016,"568":-0.027831864571925973,"569":0.13482974639760054,"570":-0.07662185954338563,"571":-0.10669520993564326,"572":-0.036069908134824004,"573":-0.11653989609771642,"574":-0.027953065668945693,"575":0.004496704791459954,"576":-0.08740748845470815,"577":-0.0036740035143325903,"578":-0.039811335953677446,"579":-0.05447946939271167,"580":-0.0023675262603545084,"581":0.13133077200135213,"582":-0.04952217104622587,"583":-0.010700532009663628,"584":0.06566049179423712,"585":-0.06443800916552159,"586":0.02694046275473851,"587":0.043664939701850154,"588":-0.060184355482630514,"589":-0.09378398971394288,"590":-0.0275065470013685,"591":-0.017019789025189167,"592":0.011396612660747745,"593":-0.08331332425757153,"594":-0.07477514020169142,"595":-0.02627985016600535,"596":0.0639095529282886,"597":0.0002642721604788189,"598":-0.09377928130598857,"599":-0.04096424859426195,"600":-0.0949885280122858,"601":-0.02413978809288995,"602":-0.022502820076700004,"603":-0.016544686850098633,"604":0.045626385020041474,"605":-0.051452218842436975,"606":-0.01573577062282348,"607":-0.029371022607926626,"608":0.03305841574256391,"609":-0.06502305964341656,"610":0.028102351097308326,"611":-0.06893182481991446,"612":0.015356318219085528,"613":-0.03701288551891698,"614":0.015166964647702334,"615":0.004126273071714279,"616":0.04213532170851086,"617":-0.0013788401705666139,"618":0.012193636250663074,"619":0.0048925422270085905,"620":0.07008919325270149,"621":0.05236418649878789,"622":-0.00548237918150914,"623":0.09776083807063238,"624":0.09527313170267619,"625":0.028747918229599805,"626":0.006753224883294357,"627":-0.0248867090669687,"628":0.14207605913142285,"629":-0.04355453348556716,"630":0.019678468946941308,"631":-0.004368538806928563,"632":-0.008698226844822927,"633":0.1047824467260134,"634":-0.060810997429170885,"635":0.03874606876853984,"636":-0.007574652533467273,"637":-0.005100490090120156,"638":0.05186473949757941,"639":0.15242582001096608,"640":0.06297089483601646,"641":-0.06873598709046068,"642":0.02631651759098683,"643":0.15240008024212046,"644":0.11092038642245694,"645":0.046103547986264086,"646":0.06343884399836507,"647":-0.032726012423149264,"648":0.01521880078006844,"649":-0.011352058901069113,"650":0.0042018833563269775,"651":0.07333395672655302,"652":0.011942522944904768,"653":-0.039470716449787634,"654":0.04302517784438112,"655":-0.01181992516307282,"656":0.042233111840502074,"657":-0.030065487821866244,"658":0.04650195577166739,"659":0.048666720679737256,"660":0.11608572250987079,"661":0.011593957487179538,"662":-0.01543569720892308,"663":0.06995999730759164,"664":-0.01453031780166461,"665":0.06136646999359614,"666":-0.009781200360575715,"667":0.06745921985452591,"668":0.05960690359950236,"669":0.038736959822946386,"670":0.0397567234145421,"671":0.02224479729231144,"672":0.03140721045408661,"673":0.07859451878921339,"674":0.04053759087010177,"675":0.07296334758073587,"676":0.02574086588773159,"677":0.1605401435235215,"678":-0.005379224977380853,"679":-0.02919603164435418,"680":0.09854276536985815,"681":0.035327907298717286,"682":0.06251402704279681,"683":-0.008927640938855796,"684":-0.04453185294620387,"685":-0.05901049651941429,"686":0.010555850608256706,"687":0.023680236100478525,"688":0.04761854987091177,"689":-0.14458737694147505,"690":0.011609501995441003,"691":-0.07702351633600751,"692":-0.003202061888773172,"693":-0.10320518712965582,"694":0.03616177132597924,"695":-0.10335061201192564,"696":-0.1525489206217229,"697":-0.010315213904272634,"698":0.03362612553888343,"699":0.025913053741317218,"700":-0.15676615588289017,"701":0.009709481222698935,"702":-0.043813669976272195,"703":0.06833065935541138,"704":0.010219010080034478,"705":-0.06082210107720263,"706":0.00802379856498749,"707":0.029149856581109773,"708":-0.04515832832586146,"709":-0.03407808617235851,"710":-0.06903631413565435,"711":-0.15316326727087734,"712":-0.027652346825925246,"713":0.046484979405576145,"714":-0.08641348527701154,"715":-0.15208881650936296,"716":-0.03139933961442344,"717":-0.020774124977487547,"718":-0.012063710022576573,"719":0.02928169283758918,"720":-0.09108614835943875,"721":0.01436221278087928,"722":-0.038178373603324475,"723":-0.09407303072775022,"724":-0.10383447730535733,"725":-0.021174337625652368,"726":-0.13412780362562146,"727":0.0055305257496411925,"728":-0.017260663699075567,"729":-0.18557934772766943,"730":-0.07015252133114108,"731":-0.08156741460389068,"732":-0.27493102218824933,"733":-0.04914033528884959,"734":0.02031681508978805,"735":-0.06704113735733112,"736":-0.054469114134519825,"737":-0.07518075681988742,"738":-0.11770249805984682,"739":-0.010591398081181912,"740":-0.04105664586371172,"741":-0.20514781787305406,"742":-0.11280245446099486,"743":-0.04444391347221457,"744":-0.08283789828622472,"745":-0.058654358422947805,"746":-0.11687145693470594,"747":-0.23135993712564026,"748":-0.10675932326388557,"749":-0.04168294212637358,"750":-0.05552700245116415,"751":-0.1542911289411169,"752":-0.18004190930495662,"753":-0.010403928469211635,"754":-0.07954897312030683,"755":-0.03936761151433508,"756":0.09743616144309736,"757":-0.032397129831302565,"758":-0.06580844596891447,"759":-0.12311454614795647,"760":-0.02261222745760348,"761":0.2693487593417936,"762":0.006877027889411117,"763":-0.17190272358124614,"764":0.099904029400099,"765":-0.042553086571947646,"766":-0.05365764673779877,"767":0.17952193925497792,"768":-0.06601811592670884,"769":-0.1159608221570903,"770":-0.008094313025953589,"771":-0.05457995107855163,"772":0.184551615000908,"773":-0.15645164257104605,"774":-0.05743227370329515,"775":-0.017075075637645164,"776":0.023794312509822557,"777":-0.004045644764990124,"778":-0.14135723411241624,"779":-0.05358431212146228,"780":-0.09560423825595314,"781":-0.020775566061169214,"782":0.1561272231400695,"783":0.040251002459334925,"784":0.05715777860452713,"785":-0.14523923142630044,"786":-0.011469318281700804,"787":0.07842784249082704,"788":0.07004502946124021,"789":-0.010116102984181315,"790":0.11265369120232466,"791":0.03767936406581583,"792":0.008372619285046628,"793":-0.05996918687736963,"794":-0.005160479482789227,"795":0.062425544924416404,"796":-0.0035842634952965627,"797":0.02626513209905031,"798":0.16546894647443733,"799":-0.10314276168808427,"800":0.10661219822874611,"801":0.1536233130668931,"802":0.14319211328799222,"803":0.10137548600829598,"804":0.1945166128069789,"805":0.00622157020201621,"806":-0.03163101096637667,"807":0.06741700939950421,"808":0.13426125957501173,"809":0.06994297486374423,"810":-0.06405620757214671,"811":0.06529309453657525,"812":0.01845358630488289,"813":0.14965182557375786,"814":-0.022234982234442594,"815":0.022813568539564056,"816":-0.019740615501638907,"817":0.04932649722371084,"818":0.13095014464511454,"819":0.14644723819959343,"820":0.0897331873357781,"821":-0.029802746276003333,"822":-0.07530847183078053,"823":0.23216913308656084,"824":0.06485184282104331,"825":0.160257336103376,"826":0.03612597928935181,"827":0.07163155167813261,"828":0.01613292225969166,"829":0.03567577264452475,"830":-0.10038669412925443,"831":0.19850519124029106,"832":-0.036130229827879876,"833":-0.21401189976382357,"834":0.13379378810598666,"835":0.01807716392438198,"836":-0.026393689923927387,"837":-0.05702082547544938,"838":0.08301014947246263,"839":-0.16422146712476135,"840":0.0379275456421782,"841":0.037716894677392684,"842":-0.05997463795974296,"843":0.08410306825264448,"844":-0.028690136650365572,"845":0.1656509040207727,"846":-0.1305458820846158,"847":0.10556211768237247,"848":0.10508805204707482,"849":-0.04442537041612223,"850":0.06092160549832705,"851":0.053597198357168856,"852":0.04683632932329315,"853":0.07140913781978767,"854":0.01143642220819122,"855":-0.03104883694123724,"856":0.0746798313558444,"857":0.19808596562073405,"858":-0.07848890816657074,"859":-0.10237663478977271,"860":0.02304394469758031,"861":0.05659821523188178,"862":-0.13734844701962104,"863":-0.02621051845391889,"864":-0.1832855625314702,"865":-0.02138469046493478,"866":-0.0001836547982236109,"867":-0.0419497860773617,"868":0.0011881017217386007,"869":-0.07266433841905034,"870":0.0034568438785407855,"871":-0.11655123710746072,"872":-0.005978124385452702,"873":-0.16003170063862923,"874":-0.07163090899551726,"875":-0.034861543591537314,"876":-0.1661822565758919,"877":-0.09293974821664903,"878":-0.12234820800770117,"879":0.027186145865894535,"880":-0.05547950814543758,"881":0.004643597275783843,"882":-0.07352061629357118,"883":-0.026326712047165024,"884":-0.03644836522104871,"885":-0.12810824930796097,"886":-0.07237423691960354,"887":-0.0610256101051513,"888":-0.11034446306450228,"889":-0.11381177929710298,"890":-0.11859030789662943,"891":-0.23879628219569204,"892":-0.0002981097262341535,"893":-0.019362416423391305,"894":-0.148368148497664,"895":-0.18867857382764594,"896":-0.03679013913248333,"897":-0.17220385596237725,"898":0.010404810512377224,"899":-0.1347048793659152}},{"sx":5,"sy":5,"depth":36,"w":{"0":-0.005483704224115362,"1":-0.007478326077908573,"2":0.010355247632816854,"3":-0.030557761419708295,"4":-0.014037770963585387,"5":0.02085156484837694,"6":0.0028468623951544646,"7":-0.006091951872049221,"8":0.03240912717922738,"9":0.02169039032716984,"10":0.019711801755789994,"11":-0.020813561086302942,"12":0.004192106866575788,"13":0.008441135859416948,"14":0.021177322111905775,"15":-0.004555595384206271,"16":0.010098208165514622,"17":-0.0032559695564697336,"18":-0.013225391463378207,"19":-0.031750698399196614,"20":0.017843432652148897,"21":-0.06559400312374838,"22":0.010102422463083105,"23":0.03630421827063534,"24":0.004616708136595389,"25":-0.03706792652437306,"26":-0.04187846373762342,"27":0.020369215818745366,"28":-0.052445266987056656,"29":0.007780544464040819,"30":0.0169823078720519,"31":-0.02434635443370111,"32":-0.004811734377670523,"33":-0.03964540766817508,"34":0.0012708673283004486,"35":0.01952071555308199,"36":-0.030017720700789684,"37":-0.008166200159026036,"38":0.01810000699985483,"39":0.04186751943568268,"40":0.038080101655992106,"41":-0.04203478921217369,"42":-0.010148080120369466,"43":-0.023663712940307065,"44":-0.022766743718297615,"45":-0.06129667062428028,"46":-0.014682989826506667,"47":-0.02137925715589412,"48":-0.02796371434366921,"49":0.016575811827683463,"50":0.023471397369797954,"51":0.01486649556662516,"52":-0.005597160525918462,"53":0.02583437613363236,"54":-0.07941366568958813,"55":-0.0007537817975262857,"56":-0.012389611930622659,"57":0.0333059349530795,"58":0.04508477517364864,"59":0.0616438783614262,"60":0.028485198423859652,"61":-0.01944362245665269,"62":-0.04860477358633611,"63":0.02662856169725611,"64":-0.031967673178595696,"65":-0.028559001458338958,"66":-0.0035786605323581988,"67":0.03676651858759558,"68":0.01315589602293551,"69":0.025909910270368958,"70":-0.04094279961282771,"71":-0.01873179031336842,"72":-0.025401096252947494,"73":0.018349403926122783,"74":-0.023793125107440697,"75":-0.04211237041083371,"76":-0.0036896963643801347,"77":-0.03485590972416053,"78":-0.013578787150514273,"79":-0.07909288305393353,"80":-0.03685236753676275,"81":0.048329635332430676,"82":-0.03133285400209583,"83":-0.0021096851381878375,"84":0.007586911412936086,"85":-0.008836911483371906,"86":-0.04114056789938186,"87":0.04534146655874721,"88":-0.01825237298162944,"89":-0.040352541145180526,"90":-0.024435043564743707,"91":-0.05338486150635966,"92":-0.07695185541002537,"93":-0.04403460937744448,