{"layers":[{"out_depth":1,"out_sx":26,"out_sy":26,"layer_type":"input"},{"sx":5,"sy":5,"stride":1,"in_depth":1,"out_depth":36,"out_sx":22,"out_sy":22,"layer_type":"conv","l1_decay_mul":0,"l2_decay_mul":1,"pad":0,"filters":[{"sx":5,"sy":5,"depth":1,"w":{"0":-0.31574388146516447,"1":-0.5876280309995697,"2":0.017781812927577575,"3":-0.27979380177428553,"4":-0.22373505757051507,"5":0.04481530955503437,"6":-0.23589815817434337,"7":0.7517785086961882,"8":0.0846796406095295,"9":0.041083249736156326,"10":-0.5443992188589603,"11":0.2580027414284315,"12":-0.11011471300638592,"13":0.19678512818644334,"14":0.1810653463622549,"15":-0.41194116954875204,"16":0.1857087831287495,"17":-0.0992967226570239,"18":0.4578391890699462,"19":-0.13595695714150718,"20":0.06368692247019328,"21":0.03864296800920979,"22":0.1386078652100825,"23":0.23890888156061055,"24":-0.1887386167652247}},{"sx":5,"sy":5,"depth":1,"w":{"0":0.19752896696931355,"1":0.38946359121372215,"2":-0.17344616718084097,"3":0.030775995407168365,"4":-0.03652177842770208,"5":-0.1564315777618325,"6":0.3871459635153069,"7":-0.18136603454829042,"8":0.31221034223433514,"9":0.24085439730167274,"10":-0.17943793976182154,"11":-0.35482351661215217,"12":0.09699690007952944,"13":0.11996583962933517,"14":0.1606386518863861,"15":-0.20239815213381018,"16":-0.5369709426872719,"17":-0.5285036631387915,"18":-0.07518746158893437,"19":-0.2524866473147727,"20":0.27283471714886265,"21":0.2072538770960919,"22":-0.10770513190366077,"23":0.08000771807571284,"24":-0.04964215221536372}},{"sx":5,"sy":5,"depth":1,"w":{"0":-0.29336464486927927,"1":-0.5309468526646153,"2":-0.05799037358185355,"3":-0.3512405608099608,"4":0.14773778331202828,"5":0.08794961548102752,"6":-0.5109355197680878,"7":-0.29245359279677363,"8":0.020550400125485146,"9":-0.035925793937775445,"10":0.07921831937258104,"11":0.29763502569020456,"12":-0.0569220326573364,"13":-0.07338039022309442,"14":-0.40258737589322424,"15":0.07330659502765376,"16":0.05865908870442226,"17":0.11070133081704818,"18":0.24207102899020347,"19":0.4159997251317078,"20":-0.2667462607433142,"21":0.5669556612982384,"22":0.2680559229927863,"23":0.15774083159030813,"24":-0.09634211958747319}},{"sx":5,"sy":5,"depth":1,"w":{"0":0.11197239102576467,"1":0.06620783491688544,"2":-0.17214004005577363,"3":0.2203271433629886,"4":0.2645929046447827,"5":0.057355221683716553,"6":-0.27711112284927153,"7":0.2569569756110376,"8":0.19628181771825887,"9":-0.17906910339943177,"10":-0.42432493550424677,"11":-0.3781922910876185,"12":-0.45199802094700836,"13":-0.2805410754522383,"14":-0.18572055394022394,"15":-0.11223542051010943,"16":0.2608875362701817,"17":0.2549896616099043,"18":-0.11723493470011694,"19":-0.045710981149806595,"20":0.1894556005133236,"21":-0.014579174430303439,"22":0.12885895089961405,"23":0.23467452904503414,"24":-0.15275677298317514}},{"sx":5,"sy":5,"depth":1,"w":{"0":0.33658476224436756,"1":0.03302262777071391,"2":0.08655465264171272,"3":0.2530074060666772,"4":-0.27908797193947976,"5":-0.004323268678064842,"6":-0.07725265379612474,"7":-0.05357303422440635,"8":0.1377693466631122,"9":-0.20729145070292215,"10":-0.10846978297484842,"11":0.008201742243235208,"12":0.010429262316267729,"13":0.0807371926727944,"14":0.06006382229692955,"15":-0.4880004335215831,"16":0.1505890915500386,"17":-0.07777139544038908,"18":0.20025910465208369,"19":0.1281493465385181,"20":-0.04275671670822254,"21":-0.2923507720075892,"22":0.4402092041442806,"23":-0.21642412602497477,"24":0.21886064321009385}},{"sx":5,"sy":5,"depth":1,"w":{"0":-0.17180349589478824,"1":0.01190994421113902,"2":-0.07343262246174986,"3":0.022181705096194666,"4":0.23833789859922436,"5":-0.1601589019029889,"6":0.15403521609006404,"7":-0.12180637489480965,"8":0.061877011192570386,"9":-0.20275460572609338,"10":-0.08028610129095898,"11":-0.17260908988013962,"12":0.20863829971119138,"13":-0.11660332788128075,"14":0.13624022652058002,"15":0.3835626636148328,"16":0.06468247522729921,"17":0.24006238937282529,"18":-0.4478944325083513,"19":0.31979643632748633,"20":-0.4406184272815996,"21":-0.1878470293227004,"22":-0.0153747395734399,"23":-0.20329658499288625,"24":0.35552152632355244}},{"sx":5,"sy":5,"depth":1,"w":{"0":-0.0224005991490181,"1":0.029994897161609427,"2":-0.1970156912684489,"3":-0.30363485387366557,"4":-0.18094854264623453,"5":0.5965614838119465,"6":-0.0683253802199842,"7":-0.38874389008698645,"8":-0.13480966178390333,"9":-0.041403684472241076,"10":0.01260293542117484,"11":-0.21569849540802022,"12":0.41522481159995894,"13":0.17567412203992577,"14":0.2012982242356621,"15":-0.6410959725867795,"16":0.14087472314997032,"17":0.5016915843481295,"18":0.23079014749424487,"19":-0.22698655091423414,"20":-0.0573200777745201,"21":-0.03523558840001442,"22":-0.07496604158225231,"23":-0.04201582439122254,"24":-0.02591884033760816}},{"sx":5,"sy":5,"depth":1,"w":{"0":0.3235166917699587,"1":0.16330142846998222,"2":0.17481318295543932,"3":0.10378355995599148,"4":0.0880945267212442,"5":-0.03353995090155935,"6":-0.10357895312239329,"7":0.15651548487531783,"8":0.24480537450904544,"9":0.07657334334955147,"10":-0.5738256290903359,"11":-0.2950975765154098,"12":-0.5124072005190946,"13":-0.6399419939335259,"14":-0.4202746031374209,"15":0.2513076080787187,"16":0.2462106564565181,"17":0.3356287262040502,"18":0.2705591235954473,"19":-0.040859776138100046,"20":0.056003494283194025,"21":-0.510708260955104,"22":0.04108891904124234,"23":-0.14405089922341255,"24":0.021178835549939313}},{"sx":5,"sy":5,"depth":1,"w":{"0":-0.2412989925675319,"1":0.1706344438962521,"2":0.15529174406999124,"3":0.39430632689955486,"4":0.07537782475780709,"5":-0.15513913248053623,"6":-0.30876672613395256,"7":0.0637280137771159,"8":0.2419318149331464,"9":-0.0643655365663533,"10":-0.036724764222935455,"11":-0.16041159512614214,"12":-0.6744879826990655,"13":-0.5221892132655808,"14":-0.3301030630151267,"15":-0.0248770208134775,"16":-0.07881026719593069,"17":0.41664907378669186,"18":-0.10793337132530081,"19":-0.00003387662788566833,"20":0.30246285159021874,"21":0.2992518016180179,"22":0.1962584740666695,"23":-0.09669320163080838,"24":-0.05384280207962524}},{"sx":5,"sy":5,"depth":1,"w":{"0":0.032462728657975025,"1":0.012813376152790643,"2":0.3194779710685817,"3":0.17001559956643017,"4":-0.029162395051395326,"5":-0.13286145522404091,"6":-0.31239173622136046,"7":-0.5277301918577216,"8":0.05571630586020214,"9":-0.06492351742816097,"10":0.025785995246903164,"11":0.023656468114264077,"12":-0.07216877049978847,"13":-0.41793340658140177,"14":-0.21455453509195296,"15":-0.03193378412866559,"16":-0.05267119113546624,"17":0.26949300307797,"18":0.18249976035530924,"19":-0.15767310336363152,"20":0.11139692038073208,"21":0.3754777993941405,"22":0.09424217393156009,"23":0.09210355386818,"24":-0.09448975704490452}},{"sx":5,"sy":5,"depth":1,"w":{"0":-0.29075391405066814,"1":-0.25707617154694506,"2":-0.26151004630420377,"3":-0.005226631148729374,"4":0.16053414915472694,"5":0.3348738484603187,"6":-0.1490881975166205,"7":-0.563875972076568,"8":0.04124057035324241,"9":0.19394719666593446,"10":0.3234131090518987,"11":0.3026813525536772,"12":-1.142760286252069,"13":0.040074339284570895,"14":0.2777750159869722,"15":0.27942358656197575,"16":0.3170541027114021,"17":-0.9157260753279057,"18":-0.08204610992097273,"19":0.2422192054885508,"20":0.4762860447858008,"21":0.4792890368008639,"22":-0.594193891237972,"23":-0.22863614801829485,"24":0.2973586417094397}},{"sx":5,"sy":5,"depth":1,"w":{"0":0.169672246296539,"1":0.026436557364401245,"2":0.20956240096623635,"3":0.27005612666861994,"4":-0.16277257428061723,"5":-0.29798352150617896,"6":-0.3048163277767936,"7":-0.1992327298843609,"8":-0.01666755022010175,"9":0.21827994846000928,"10":-0.1260899531250769,"11":0.06236348647776824,"12":0.18485350484102875,"13":0.12479633273127096,"14":-0.06326038094257704,"15":0.0012115095168387102,"16":0.10156814862052457,"17":-0.17879503097734956,"18":-0.009415521704988631,"19":-0.01908514104748059,"20":-0.32427008073184116,"21":0.2781203928588795,"22":-0.047514197523430196,"23":0.29390534330645735,"24":-0.40113307241174606}},{"sx":5,"sy":5,"depth":1,"w":{"0":0.19279069850145017,"1":0.2540924695246107,"2":-0.244066018037774,"3":-0.46172386897860374,"4":-0.6567498192391172,"5":0.030503632162949816,"6":0.2124874911591602,"7":-0.31821651270516427,"8":0.10531839639207886,"9":-0.22592840309485177,"10":-0.23151455238748958,"11":-0.07478478596272416,"12":0.48174020505942555,"13":0.21714528236441794,"14":0.06601390071325008,"15":-0.015900338212925788,"16":-0.12444079742845394,"17":0.11849005564739563,"18":0.043070986152149236,"19":0.0290948911868286,"20":0.06428779749076166,"21":0.09497547771900422,"22":0.1508363809664906,"23":-0.03936334695557655,"24":0.12910927436255493}},{"sx":5,"sy":5,"depth":1,"w":{"0":0.19995236847213163,"1":-0.17689886645879985,"2":-0.07303701868062151,"3":0.40697280969745664,"4":0.203956703044393,"5":-0.12603952155102194,"6":-0.08097572675432875,"7":-0.20415935959017936,"8":-0.25909075431072387,"9":-0.06176307576282917,"10":-0.3908273729407264,"11":0.1403531908754095,"12":-0.06678518552292369,"13":-0.15374569088673562,"14":-0.12858403369804666,"15":0.10147285221364886,"16":-0.032989380367288504,"17":-0.051002610011720996,"18":-0.2070497695325065,"19":0.15823273132797505,"20":0.23669818236166024,"21":-0.04134217567093005,"22":0.13016880244185222,"23":0.14808189424068072,"24":-0.1003676567395479}},{"sx":5,"sy":5,"depth":1,"w":{"0":0.3506536995339278,"1":-0.35901194382478807,"2":0.011949275833617278,"3":0.2981800257826432,"4":-0.08355692791143042,"5":0.1340883267023483,"6":-0.26963496569889334,"7":0.03489530047260876,"8":0.26364350272325415,"9":0.05422516962544026,"10":0.5680200052755232,"11":-0.42756948629110025,"12":0.02332880020046121,"13":0.0879934427944911,"14":0.42643892747086726,"15":-0.3897580782750426,"16":-0.27858244280016886,"17":0.07184963701741053,"18":0.17270501701369922,"19":0.26580398327067567,"20":0.15988068460403418,"21":-0.5732452670327067,"22":-0.2674218976041835,"23":-0.20145744882442562,"24":-0.2234936536853393}},{"sx":5,"sy":5,"depth":1,"w":{"0":-0.0313402697872928,"1":-0.02526969640413417,"2":0.3106029620797266,"3":0.1956640108259443,"4":-0.4832444860278485,"5":0.24031991094937116,"6":0.5581595359386707,"7":-0.2094473930565838,"8":-0.9588618598797033,"9":-0.16234860564582,"10":0.3284103941921226,"11":-0.7794015631673863,"12":-0.7188590500230648,"13":-0.10650455075559134,"14":0.040025989333199626,"15":-0.8380618650372227,"16":-0.36596024984448594,"17":0.2251721930078441,"18":0.45216562267186816,"19":0.22534538690353556,"20":0.07668134910828832,"21":0.4346836255849831,"22":0.4181585803202124,"23":-0.011142907372095811,"24":0.1588858940919963}},{"sx":5,"sy":5,"depth":1,"w":{"0":-0.028589418367630227,"1":0.09557191758393495,"2":0.20294898257413072,"3":0.09831285981539152,"4":0.26063166823492506,"5":-0.14939133803975801,"6":0.3725953614473835,"7":0.05926184692969237,"8":-0.39187676401185517,"9":0.15022071681123522,"10":0.1597545052339406,"11":-0.23571118846643083,"12":-0.12734982640502662,"13":-0.16937550366601342,"14":0.05119245553869047,"15":-0.011755539864982206,"16":-0.3165070518878005,"17":-0.22905708966446275,"18":0.181568226179294,"19":0.04948663952356412,"20":-0.5078221911017416,"21":-0.23941737358527485,"22":0.23307530770063142,"23":0.20089132451643596,"24":0.08251969793704997}},{"sx":5,"sy":5,"depth":1,"w":{"0":0.11529549420984372,"1":-0.02392273906875106,"2":0.18324390007356522,"3":0.05329884617688537,"4":-0.20598366430151185,"5":-0.11489974640620827,"6":0.028096569088221387,"7":-0.36763178353495185,"8":-0.5980222745186148,"9":-0.16420676371782608,"10":0.3405998806619062,"11":-0.061768148211819536,"12":-0.006473239636782717,"13":0.3677627981423458,"14":0.16377753115482382,"15":-0.4041777379342906,"16":0.17323107455179598,"17":0.1180047649647231,"18":-0.13938803828801027,"19":0.2750189428658183,"20":-0.7751682086022106,"21":0.37745613017464447,"22":-0.12411584441993137,"23":0.2339021636144053,"24":0.1544931498101213}},{"sx":5,"sy":5,"depth":1,"w":{"0":-0.05417614614640863,"1":-0.10976125976673755,"2":0.17445068749686804,"3":0.24505293581888427,"4":-0.5049147456102141,"5":-0.19111904062143376,"6":-0.26377836639253727,"7":-0.3753648240709551,"8":0.012933348055926153,"9":-0.3205144972342181,"10":-0.1097714546596177,"11":0.21655721394524835,"12":0.17671310435377702,"13":0.27395937994530517,"14":0.11722452939876672,"15":-0.552778105432082,"16":-0.011070999401532815,"17":0.30292833899241484,"18":0.026827949700097768,"19":-0.07377822888065964,"20":0.1714610729464013,"21":0.7288334938656892,"22":0.22200333595750074,"23":-0.41333088097835746,"24":-0.2194371078429394}},{"sx":5,"sy":5,"depth":1,"w":{"0":0.32156543496277123,"1":0.08280964916686538,"2":-0.127997033853999,"3":0.2469220889854509,"4":0.30327477521034046,"5":-0.043816660347971804,"6":-0.1839925131862514,"7":-0.28664175333306274,"8":0.11307071356127742,"9":-0.42165319937562323,"10":-0.5112824303942558,"11":-0.3632902673231266,"12":-0.08855021076865693,"13":-0.005825716057581723,"14":0.06713750284947347,"15":-0.20148744352560832,"16":-0.24513015179340436,"17":-0.031001349677241028,"18":0.016346205210671497,"19":-0.11322502039398806,"20":0.16266785579237242,"21":0.34008989552500074,"22":0.18940280468851617,"23":0.4008784540098294,"24":0.18047395501492625}},{"sx":5,"sy":5,"depth":1,"w":{"0":-0.2377943580526805,"1":-0.6080435374823164,"2":0.2333402598781084,"3":-0.0936414802876873,"4":-0.6526600902850048,"5":-0.2811073752263015,"6":0.24475947110330926,"7":-0.5694989994594752,"8":0.6210631557323211,"9":0.22002170884361566,"10":-0.03176472884137198,"11":-0.00837515967305176,"12":0.2545445054463901,"13":-0.36090225186744973,"14":0.29582495143751725,"15":0.3701555714507856,"16":0.01786755784856248,"17":0.03315291405940584,"18":-0.025676715029437504,"19":0.04820295274727294,"20":0.20977703661675487,"21":0.22194746193518242,"22":-0.18512846510461284,"23":-0.2761830580716822,"24":-0.5736584105852598}},{"sx":5,"sy":5,"depth":1,"w":{"0":-0.30391499682367656,"1":-0.056973015818822643,"2":0.1830913179944125,"3":-0.3000494773064315,"4":-0.5250863238689004,"5":0.38252968156779965,"6":-0.15562908784111784,"7":-0.3033198707470782,"8":0.3578513695318764,"9":-0.0023153186250200715,"10":-0.2805172003334968,"11":-0.02345223891754389,"12":-0.09171780509790245,"13":0.012497650057995857,"14":-0.0616497348275714,"15":-0.4083438177259463,"16":-0.00003083393716557699,"17":-0.056214460429676615,"18":-0.20852999375940556,"19":-0.13009399313635883,"20":0.4171722549019144,"21":0.4113078517119867,"22":0.2577978992165793,"23":0.2916813104190407,"24":0.12627857615312127}},{"sx":5,"sy":5,"depth":1,"w":{"0":-0.07947442261336794,"1":-0.2476166245182059,"2":0.005898814080391387,"3":0.24158097588357946,"4":0.08325269239158514,"5":-0.3671172684023794,"6":-0.17551165958572668,"7":0.168597553349879,"8":0.2352778944870503,"9":0.132228057703883,"10":-0.14744152144994077,"11":0.053333897378757884,"12":-0.1671762481771517,"13":-0.056761409237139175,"14":0.09641061357366805,"15":-0.5694367973218933,"16":0.1715637195825642,"17":0.07495834031428218,"18":0.1904085827929301,"19":0.3144845480704686,"20":-0.14376709118729147,"21":0.23482405289230568,"22":0.19567321407594596,"23":-0.09222451465199878,"24":-0.14974766262043948}},{"sx":5,"sy":5,"depth":1,"w":{"0":0.33031688943029347,"1":0.18184229098141902,"2":0.07045476753579183,"3":0.19083276674959554,"4":-0.17345770573865685,"5":0.04982207874540126,"6":0.10992670695980383,"7":0.017588748610889587,"8":0.41673281103465554,"9":-0.7017092374817296,"10":0.2433283547840455,"11":0.15854290940698842,"12":0.05278690715200494,"13":-0.5992230414843577,"14":-0.00523763352388799,"15":0.19715821327972363,"16":-0.20191129699590843,"17":-0.2539524392195262,"18":0.10763693824113096,"19":-0.00843046850778921,"20":-0.38368634440889465,"21":0.01885375254248433,"22":0.025609344825003707,"23":-0.01071076716496101,"24":0.01864272911240791}},{"sx":5,"sy":5,"depth":1,"w":{"0":0.19789034336196878,"1":-0.6840160279285231,"2":0.3180889121051112,"3":0.22150434305891256,"4":-0.18056097974633023,"5":0.5229277111164742,"6":0.03269446638268498,"7":-0.15020618592442941,"8":-0.34450067919162236,"9":-0.07181625399277647,"10":-0.2544912397214428,"11":0.47094069023083757,"12":-0.1584615417802819,"13":-0.37533071612167107,"14":-0.003258904179967671,"15":0.07079274569322307,"16":-0.1188326727732705,"17":-0.06962576347326598,"18":0.05154506691581519,"19":0.2727462498305098,"20":-0.5088229189600246,"21":-0.08331428336499398,"22":0.2317153835626036,"23":0.4443631777456929,"24":-0.10226626901896266}},{"sx":5,"sy":5,"depth":1,"w":{"0":-0.11498270761503182,"1":0.15442672755195308,"2":0.04139186514723772,"3":0.021187021343832116,"4":-0.0675657236379774,"5":-0.37095665823218127,"6":0.11867662278024474,"7":0.22548821163275753,"8":0.11746296556080499,"9":-0.11002960444979407,"10":-0.42296840835091687,"11":0.11434353350856644,"12":-0.014260417891797186,"13":0.05695582440937656,"14":-0.10354099094105848,"15":-0.054551743317181635,"16":-0.015806043902706193,"17":0.2577060202266191,"18":0.2280625891372882,"19":-0.18734339805668934,"20":-0.04852066026228951,"21":0.2585639887400212,"22":-0.025328467413282544,"23":0.06513510019102295,"24":-0.2293579736667994}},{"sx":5,"sy":5,"depth":1,"w":{"0":-0.015521678611034989,"1":-0.0312248396451714,"2":-0.07673694870748443,"3":0.02294196769093713,"4":0.14729524755866147,"5":0.1212987160874939,"6":0.35433916419201117,"7":0.11644297168489627,"8":-0.5381878441508257,"9":0.09238601721177792,"10":-0.13950878347492152,"11":-0.29049171557614806,"12":0.1528207584895186,"13":-0.06046497501557846,"14":0.22141412376127975,"15":0.026080172621506106,"16":0.31689980871178297,"17":0.13091726000081222,"18":-0.5474275419365806,"19":-0.016553507969352562,"20":-0.1916009041611857,"21":0.46528760046495676,"22":-0.3273046607229545,"23":-0.34607675960243095,"24":0.1252655814280853}},{"sx":5,"sy":5,"depth":1,"w":{"0":-0.658440347043582,"1":-0.4193732122836605,"2":-0.7254711077234632,"3":-0.4279806320511603,"4":-0.40533143143652756,"5":0.0319835205579079,"6":-0.3027137526639703,"7":0.17358498457504465,"8":-0.0640848163976012,"9":0.08696533769528826,"10":-0.30667479974080514,"11":0.21195102189900084,"12":0.29241722476681914,"13":-0.0896582115942208,"14":-0.035886651917780336,"15":0.24689712538781974,"16":0.22504476193973796,"17":0.4059090609651222,"18":0.32112767146231885,"19":-0.37259279162835224,"20":0.18100935530831042,"21":0.5772832966524951,"22":-0.03388365497071411,"23":0.19169459181328852,"24":-0.3893420091975633}},{"sx":5,"sy":5,"depth":1,"w":{"0":0.008817383666620349,"1":-0.15203602396944876,"2":-0.07161858637991632,"3":-0.07841903909763713,"4":0.09266721897699708,"5":0.03979865041823804,"6":-0.09649749560170343,"7":0.0947290772903878,"8":0.05341878647337588,"9":0.46299013263136,"10":0.1558431290578474,"11":-0.2830751140900115,"12":0.1505397156249854,"13":0.043331822043114,"14":0.09980640932753035,"15":0.3872290107055792,"16":0.02716348275490589,"17":0.13399243924635126,"18":-0.08948053078544697,"19":-0.4055808323081356,"20":-0.22847884069685967,"21":-0.11169002758416595,"22":-0.26833516112499706,"23":-0.09974494173681255,"24":-0.12636818821689672}},{"sx":5,"sy":5,"depth":1,"w":{"0":-0.012249810087785492,"1":0.016590421598536232,"2":0.49805056963927075,"3":0.02774909239543099,"4":-0.08965209003414007,"5":0.1792732297269554,"6":0.10312420168909014,"7":0.06359472253642247,"8":0.024494035859600995,"9":-0.533923633996407,"10":0.01646511437499973,"11":-0.05001363368112495,"12":-0.23574423263202873,"13":-0.26554191630285245,"14":-0.25319052464031155,"15":-0.44254692634005405,"16":0.03828281492642063,"17":0.2101602784271426,"18":0.41728358077413025,"19":0.13847720485503842,"20":-0.0760288112007772,"21":0.35789125071381417,"22":-0.3683446239847179,"23":-0.1559884408572044,"24":-0.32130565463575816}},{"sx":5,"sy":5,"depth":1,"w":{"0":0.048952340112875976,"1":-0.012125295099100538,"2":0.27271359697120073,"3":0.17989436696315644,"4":-0.022999321972183857,"5":0.23688492836855157,"6":-0.3619712789386468,"7":0.2544092249467162,"8":-0.2560652934797226,"9":0.02220281136211142,"10":-0.09181263676353923,"11":-0.09017719494017615,"12":-0.393594441798396,"13":-0.09925955007860529,"14":0.1972677765424268,"15":0.3418201567836514,"16":0.11931049314422643,"17":0.34341197344874225,"18":0.3962653435968901,"19":0.24044705603498753,"20":-0.6077777998145594,"21":-0.43165335699836155,"22":-0.7073348512030054,"23":-0.43035482218846627,"24":-0.4597364752054597}},{"sx":5,"sy":5,"depth":1,"w":{"0":0.3791039690222628,"1":-0.1678907236938831,"2":0.2122395351720571,"3":-0.20057419590348727,"4":-0.11503093666180922,"5":-0.1461483293167508,"6":0.07604243479088901,"7":-0.18040918847721577,"8":0.13472615857433767,"9":0.3226744362545545,"10":0.0462182427617511,"11":0.03734053363666227,"12":-0.39403876949184474,"13":0.016780991192740572,"14":0.2564295321713237,"15":0.34960478433380826,"16":-0.05839960513698731,"17":-0.24322525805174042,"18":-0.27083834657832545,"19":0.45531277466118386,"20":-0.12520483017657943,"21":-0.1725957571879697,"22":-0.34776115051392364,"23":-0.2564970286838857,"24":0.31966651237670846}},{"sx":5,"sy":5,"depth":1,"w":{"0":-0.4093380360081679,"1":-0.015468886524097196,"2":-0.27217290169809005,"3":-0.12141065939821295,"4":-0.5266176364622469,"5":0.37566484062446226,"6":0.08975727972785799,"7":0.08955550853139087,"8":0.020107433227776025,"9":-0.12318216511730115,"10":-0.01657528392919315,"11":0.24309086224880294,"12":0.20936006133639193,"13":-0.16333278198883666,"14":-0.3103271683148168,"15":0.10663958692150968,"16":0.43856732892110056,"17":0.12840223530827422,"18":-0.14804915547115027,"19":-0.761983921451244,"20":0.16993191743735606,"21":0.2666804954115108,"22":0.4251342209410209,"23":0.09381590057669817,"24":-0.4934686452455725}},{"sx":5,"sy":5,"depth":1,"w":{"0":0.17385476101182437,"1":0.08504869563316567,"2":-0.016227153000138834,"3":0.1803502126659479,"4":0.10771888883791973,"5":0.047306906219350076,"6":0.17373388233800818,"7":0.03767728246315747,"8":-0.050752003018733595,"9":0.3269719163261128,"10":-0.30398911246656285,"11":0.23884396397123478,"12":0.14571566994435822,"13":0.16607204784117188,"14":0.22272879248890345,"15":-0.18541800308226625,"16":-0.3549746484731559,"17":0.15316565936205495,"18":0.005222738555382342,"19":0.03210570785717906,"20":-0.19891678227685639,"21":-0.48843896270152265,"22":-0.44337579481522865,"23":-0.24635259743299845,"24":-0.1407636952114677}},{"sx":5,"sy":5,"depth":1,"w":{"0":0.32209874307089065,"1":-0.04676731597708489,"2":0.40739875250516794,"3":0.048941184699560436,"4":0.20158140584157205,"5":-0.17040517689322024,"6":-0.2505446597385999,"7":0.3207797911314347,"8":-0.2371285201127679,"9":0.34235291982931604,"10":-0.3895773982147495,"11":0.10661569420122013,"12":-0.24049584103673716,"13":-0.0655766403815374,"14":-0.16519198181609904,"15":0.397209953380045,"16":0.026625174398295894,"17":0.24098315218144528,"18":-0.18385034422219487,"19":0.038359670464754254,"20":-0.0407172428705003,"21":-0.18986963458695214,"22":-0.6118038461631694,"23":-0.23738349772135137,"24":-0.03947219060775811}},{"sx":5,"sy":5,"depth":1,"w":{"0":-0.23396046383711605,"1":0.15509907041007334,"2":0.17838055079807924,"3":0.005271953538835144,"4":-0.165498436463509,"5":-0.03925632107826978,"6":0.37448909848348627,"7":-0.3715344383434563,"8":-0.2557387403529256,"9":0.248406095143868,"10":0.6768424246507145,"11":-0.2012692819554808,"12":-0.29548859525570387,"13":-0.03455341803326747,"14":-0.151358237923298,"15":0.2007112182186345,"16":0.07257868333768634,"17":-0.05752770925230581,"18":-0.17303449315779987,"19":-0.03739503919739297,"20":-0.18350319404103937,"21":-0.02126559953270546,"22":-0.0007286341715674121,"23":0.2115640987744942,"24":-0.1048496430228904}}],"biases":{"sx":1,"sy":1,"depth":36,"w":{"0":0.1190710192649542,"1":0.04752055759696096,"2":0.1281397268609326,"3":0.09996536698833211,"4":0.007590692547779503,"5":0.022954256745868058,"6":0.09585424402438375,"7":0.1230036035523703,"8":0.042290953105656254,"9":0.04125206011213896,"10":0.28608076062223653,"11":0.045110415208500315,"12":0.2178065291327391,"13":0.08598683347903424,"14":0.14151875341375106,"15":0.20418205692695143,"16":0.05938680736067034,"17":0.12668412785548472,"18":0.05670471925009803,"19":0.0753263847834597,"20":0.24562417159917446,"21":0.0588339668855666,"22":0.030052205993046113,"23":0.11583714353666924,"24":0.11001669017757548,"25":0.05248798314868156,"26":0.046913667139489704,"27":0.2762954718587735,"28":0.08649965264504263,"29":0.20601784146735275,"30":0.23483923555062108,"31":0.06741080263946556,"32":0.26677405053217995,"33":0.12929207206094517,"34":0.13008662548971578,"35":0.09111039384403907}}},{"out_depth":36,"out_sx":22,"out_sy":22,"layer_type":"relu"},{"sx":2,"sy":2,"stride":2,"in_depth":36,"out_depth":36,"out_sx":11,"out_sy":11,"layer_type":"pool","pad":0},{"sx":5,"sy":5,"stride":1,"in_depth":36,"out_depth":72,"out_sx":7,"out_sy":7,"layer_type":"conv","l1_decay_mul":0,"l2_decay_mul":1,"pad":0,"filters":[{"sx":5,"sy":5,"depth":36,"w":{"0":-0.06900288291698875,"1":-0.006927954116061698,"2":-0.06574753568488602,"3":0.000013451210385222526,"4":0.005655643629579382,"5":-0.07244337144204692,"6":-0.05759203606422076,"7":-0.005583968746841816,"8":-0.00843107053861395,"9":0.0015931073809923998,"10":-0.006901107687495484,"11":-0.005917432847404279,"12":0.07337200723886156,"13":-0.021753243191230696,"14":-0.043473215317196175,"15":-0.008869629015458465,"16":0.011318673433884485,"17":-0.0006040849655133077,"18":-0.04359712193891011,"19":-0.027040315233886822,"20":-0.0975593891230795,"21":-0.03462331263893829,"22":-0.04762706392412143,"23":0.06570237248764711,"24":-0.007575301016187344,"25":-0.03497812468798827,"26":0.01349032559048571,"27":-0.1493793345194479,"28":0.01932202091620284,"29":-0.01886477663830773,"30":0.004010205102025477,"31":0.006561500414562325,"32":-0.08616592912250413,"33":-0.01200122018136352,"34":-0.028940412746779377,"35":-0.031136766017201313,"36":-0.09802922824972536,"37":0.0293151689521293,"38":-0.06855858124950887,"39":0.007175760740021497,"40":-0.015508482583978501,"41":-0.00894788046150815,"42":-0.08535019741227974,"43":0.05154326919767182,"44":-0.055952251832447786,"45":-0.05556326148527517,"46":0.009062810256798722,"47":0.03790695846699345,"48":-0.14149082922918058,"49":0.0029919789791561817,"50":0.020942951161551343,"51":-0.10627909595252404,"52":-0.054035687463736944,"53":-0.12493301730205285,"54":0.016034331374806126,"55":-0.07058427633658566,"56":-0.043305159294432044,"57":-0.10971157175730109,"58":0.04216615951531215,"59":-0.030050959118616983,"60":-0.044247837637298296,"61":0.005801655499393702,"62":-0.011987076697381,"63":-0.05217027844325488,"64":-0.008669535608271196,"65":-0.027158258307457984,"66":0.11000447000607941,"67":0.015912436027431694,"68":-0.05575460789123988,"69":0.029457709330636798,"70":0.0497622408378217,"71":-0.09416712949487856,"72":-0.03323986616217936,"73":-0.010541746276389694,"74":-0.049632295500485514,"75":-0.06245868776402184,"76":0.0009190992449028463,"77":0.054508209228926026,"78":-0.10849592656692593,"79":-0.040214563491000166,"80":0.08956202466257371,"81":-0.03793171466407596,"82":-0.04989481775078337,"83":0.03592880657212918,"84":-0.05308785149415892,"85":-0.06089893242062466,"86":-0.06748476828356928,"87":-0.09211687347492543,"88":0.05803386879761233,"89":-0.025120192639102316,"90":-0.03402647042427272,"91":-0.01971667198198501,"92":-0.08566221941388202,"93":-0.09889805133199957,"94":0.0002178230251210923,"95":0.02177070182685456,"96":0.038935597524135515,"97":0.015276914461003233,"98":0.023653747080041646,"99":-0.06629144426595221,"100":0.05331303929459946,"101":0.02428395548994458,"102":-0.013217771427780604,"103":-0.018490454438012636,"104":-0.012306267784144138,"105":0.05936244997824151,"106":0.05990857704721051,"107":-0.0059357976892544925,"108":-0.09968472715423118,"109":-0.011762482182989371,"110":-0.05960306790842194,"111":-0.06858701427854938,"112":0.015225345648928353,"113":-0.028517096555329743,"114":-0.04401537072194284,"115":0.01076453267526765,"116":-0.016837787737737912,"117":-0.07231515808652766,"118":-0.017321785280911932,"119":0.00041761761262427586,"120":-0.02308184121752768,"121":-0.01069021435156735,"122":0.0792017136549368,"123":-0.05372492324082091,"124":-0.02731984729480276,"125":-0.024632427066489798,"126":-0.00001601173060780545,"127":-0.059893256418511655,"128":-0.06426686088101771,"129":-0.08240435660348415,"130":0.002042301727261466,"131":-0.03651211619040455,"132":0.021276497155242477,"133":-0.0573011884282182,"134":0.04563177495257019,"135":-0.09030385848620018,"136":0.035240504571486,"137":-0.06763491814046337,"138":0.09815733332336884,"139":0.018593350864083598,"140":-0.0864823817318157,"141":0.02462927269445904,"142":0.03880030762012591,"143":0.012836286330252841,"144":0.023012103320708965,"145":0.022554952134060363,"146":-0.07583187456061187,"147":0.021025106262204656,"148":0.01734726603695554,"149":-0.05445594008220774,"150":-0.07689213738990866,"151":0.028315030522294154,"152":-0.016308744142608973,"153":0.004770354864969072,"154":-0.028228748050326206,"155":0.02330484502986769,"156":-0.045719709361104414,"157":0.02186172974670134,"158":0.009422116808974543,"159":-0.09020828712639518,"160":-0.03755995599651793,"161":-0.12014695659198227,"162":-0.03321082024647459,"163":-0.06699221050276316,"164":-0.003808593259509218,"165":-0.10659495527939081,"166":0.06990252220172337,"167":-0.008809268442729723,"168":-0.022200603089498692,"169":0.08009997010394876,"170":0.0552199652689112,"171":-0.06280261313726622,"172":0.02856817918655643,"173":0.029758402351860103,"174":0.0671396751468396,"175":-0.07296651919874195,"176":0.058877657934147294,"177":0.05062871300896251,"178":0.07624596845315074,"179":-0.01744187109745754,"180":-0.07228457643756626,"181":0.050552641965702735,"182":-0.05771909020439214,"183":0.00932376541118552,"184":0.01851107881642924,"185":-0.04771757672018852,"186":0.022150674047415518,"187":0.004688866204001249,"188":-0.022232477337272086,"189":-0.06307707813803104,"190":-0.07045175835071475,"191":0.05395890405481922,"192":-0.008552305296097847,"193":-0.048542968154967364,"194":-0.04381730595089804,"195":0.06536761082331718,"196":0.049519123455499456,"197":-0.001058204305016042,"198":-0.036698971161467975,"199":0.03452769345059965,"200":0.0575260740391015,"201":-0.016370977859594602,"202":-0.10221587664665763,"203":0.0068135071787453335,"204":-0.00927645958176791,"205":-0.04183494735737843,"206":-0.024228696893598495,"207":-0.07002659359376798,"208":0.042865960974849855,"209":0.032626004625125334,"210":-0.008441021302760683,"211":-0.04447734882281088,"212":-0.07030419459176417,"213":-0.04319523327014694,"214":-0.01653505282396434,"215":0.01183653075048044,"216":-0.03282622950550252,"217":-0.05407203294170759,"218":0.028553014498878905,"219":0.07434778813312459,"220":0.0657226031518151,"221":-0.039236628591046804,"222":-0.018878384569867547,"223":0.05046265613565129,"224":0.06946035003522187,"225":0.03243708971552256,"226":0.06280840319588214,"227":0.07595164241132786,"228":-0.018395813605215465,"229":0.021988421078583696,"230":0.013391156416899253,"231":-0.06711588410077252,"232":-0.016474609115840845,"233":-0.07134338372641541,"234":-0.02209222189752522,"235":0.011368377987573251,"236":0.015488432103121594,"237":0.006526582635989587,"238":-0.016959207858536576,"239":0.02255843046188246,"240":0.07882992354704377,"241":-0.09800988612349491,"242":-0.011328447532201812,"243":0.01724474779236253,"244":0.04106444963995608,"245":0.02193240474594477,"246":0.0044490793995588945,"247":-0.05283647749531732,"248":0.019889000622601936,"249":0.007824164572261372,"250":0.09088807975487657,"251":0.020215359039402095,"252":-0.03748915487132774,"253":0.09085974799842875,"254":-0.004433516133211661,"255":-0.01645379548712893,"256":-0.009693155194425535,"257":0.05668079328036676,"258":-0.05679587314844216,"259":0.028763356641693823,"260":0.07219063439179142,"261":0.018805823758106348,"262":-0.08702486513019597,"263":-0.018545289685740436,"264":0.02269927358785978,"265":-0.0033064475386649977,"266":-0.07774025605549283,"267":0.04494511168734017,"268":0.09698254515981011,"269":-0.02912189418598439,"270":0.009815605208636613,"271":0.013693438637742663,"272":-0.07794768537973625,"273":-0.03696183063688268,"274":-0.07088839392961656,"275":0.07982190705688229,"276":0.033901614029610436,"277":-0.0182036652997938,"278":0.054882399870586004,"279":-0.09482421228454783,"280":0.009211964562181329,"281":0.035299987952344375,"282":-0.016816679399738046,"283":0.0031616800908937934,"284":-0.06783674871771639,"285":-0.001618761321946909,"286":-0.02002258412735716,"287":0.02300038583706569,"288":-0.006832560826337442,"289":0.05457401096473588,"290":0.016746975984528602,"291":0.09497698850660104,"292":-0.028978304375984868,"293":-0.04310772111956668,"294":0.0628266782314773,"295":0.035299208783036835,"296":0.08716193182007767,"297":0.02242179564289678,"298":0.040154170974087904,"299":-0.014837406310750345,"300":-0.024171575454700514,"301":0.08929307564819769,"302":0.04549442077057113,"303":-0.006212282988478081,"304":0.020251171091831156,"305":-0.03407531440822493,"306":-0.03511204357995696,"307":0.08272525335478485,"308":0.06257461105082734,"309":0.02014828423251696,"310":-0.005717128409470754,"311":-0.0017112251192713153,"312":-0.01509888679722569,"313":0.005167523482786124,"314":-0.032454348437744876,"315":-0.026360879812221204,"316":0.06850699997753253,"317":-0.02962954578311091,"318":0.008944093995359989,"319":-0.015359476036544705,"320":0.02936704852435535,"321":0.049785444547917584,"322":0.0908043744082941,"323":0.009214733250694305,"324":-0.06338901170293436,"325":0.06118125687440383,"326":-0.013788823673027528,"327":0.00959927189263297,"328":-0.011880465983504292,"329":0.035587787251721625,"330":0.03720831425512502,"331":0.02458725645243948,"332":0.04863710595108327,"333":0.028137373816690257,"334":0.06422775990839294,"335":-0.046729077831826026,"336":-0.08200749951678665,"337":0.02734489190916265,"338":0.007646925513261356,"339":0.0856561884073728,"340":-0.0025868054487159344,"341":-0.04740293328509398,"342":-0.031824589230788396,"343":-0.0071716101646055255,"344":0.03485762462495192,"345":-0.012359677317096905,"346":-0.033613185042996215,"347":0.09077256163110729,"348":0.07399030686009873,"349":-0.054699083065019166,"350":0.015138183863800524,"351":-0.08963327600280616,"352":0.09142830464925489,"353":0.05300403745800176,"354":-0.03263830552594577,"355":-0.02577754921440257,"356":-0.02300540209276137,"357":-0.012821432418319333,"358":0.05397820647311747,"359":-0.014939787035847522,"360":0.08147030187592601,"361":-0.01827523485004574,"362":0.02562709794058617,"363":-0.023091910753073056,"364":-0.04431839747472954,"365":-0.058728696835486566,"366":-0.013542725950308534,"367":-0.025835592294201855,"368":-0.026534444722734436,"369":0.036845909938272296,"370":-0.07629964089352045,"371":0.03749209076808027,"372":0.030184008712707263,"373":-0.013636151571187635,"374":-0.04420880397601478,"375":0.0353318021829678,"376":-0.04143660815055926,"377":-0.060305670839109364,"378":0.03290724987622945,"379":0.009415003831603062,"380":0.07364044198941257,"381":-0.03670479500113473,"382":-0.030753258812792693,"383":-0.05324403915562316,"384":0.036199422950142314,"385":0.010015272471858351,"386":-0.01612934595383482,"387":0.07661963836900564,"388":0.005347514237219903,"389":-0.07421137671190742,"390":-0.028597795840850655,"391":-0.060633204853295576,"392":0.0011138323627996284,"393":-0.04573694303827358,"394":0.03655733658517401,"395":0.030648424698463725,"396":-0.03973211616419101,"397":-0.009499719059976236,"398":0.02033385315325774,"399":0.04645765537456101,"400":-0.024728734368148726,"401":-0.0820789162541677,"402":0.05948040919138201,"403":-0.07298990680697764,"404":0.06733369992878731,"405":0.02132642015459342,"406":0.0008822333643509182,"407":-0.0012672375670006288,"408":-0.0008976015005897559,"409":-0.01313228744401565,"410":-0.03619050224761925,"411":0.03136945963099244,"412":-0.014136724195673078,"413":0.012775412314246469,"414":0.0007345216850361988,"415":-0.03101144162001184,"416":-0.003858928463675502,"417":0.05420667435337225,"418":-0.05893812080106307,"419":0.06649379911688658,"420":0.07577767799099157,"421":-0.04010248464242706,"422":-0.0390356056078667,"423":-0.0031799380416984353,"424":-0.05566685803100558,"425":-0.009794179694795548,"426":0.03517820104952555,"427":0.007623560928334636,"428":0.05026365499242036,"429":-0.03886261221612526,"430":0.023439659989485145,"431":0.07087907863086261,"432":0.05445908292976987,"433":0.061911578358085716,"434":0.051947145336884534,"435":-0.022237430772448656,"436":-0.06367173290184319,"437":-0.04274170985224552,"438":0.04402469051587368,"439":-0.05712393493757014,"440":-0.008743257785196775,"441":0.046674984853977676,"442":0.037436309067818356,"443":-0.0018175391927208737,"444":0.07233778022790675,"445":-0.028371784303689786,"446":-0.028992883472337097,"447":0.08904458080109387,"448":0.044669621305579284,"449":0.010340632239660055,"450":0.036257326919959906,"451":0.05292140820186691,"452":0.00894639262322788,"453":0.016232138086478633,"454":-0.04601541517426272,"455":-0.0957214711460017,"456":-0.11108319789277481,"457":-0.05542514251327464,"458":-0.01886200045946427,"459":0.04668181198271954,"460":-0.024950231150389086,"461":-0.04883394782441238,"462":0.029514560370730653,"463":0.062433503630606256,"464":0.012329675869784793,"465":-0.016690173093815194,"466":-0.012299069106971483,"467":0.1368421865997017,"468":0.026064107589826385,"469":-0.024122243015380268,"470":-0.051077257704697204,"471":0.033304443594121075,"472":0.018475360946189193,"473":0.05849352128609433,"474":0.02100026753307662,"475":0.0575787972550109,"476":0.022478788635561495,"477":0.026481219072120595,"478":-0.0028818877516356154,"479":0.008826968664213657,"480":0.025243342473336976,"481":0.1272669996431197,"482":-0.09715689239655088,"483":-0.020797938865973597,"484":-0.06172330134368185,"485":-0.027431725959516755,"486":0.07571922027510922,"487":0.02479654937873594,"488":0.01895479307379596,"489":0.020826484839974714,"490":-0.03614384709918472,"491":0.010037571311458706,"492":0.09420357624635589,"493":0.02668130959130273,"494":0.003622525623168484,"495":0.07201172700551288,"496":-0.041535383732022584,"497":-0.0465909231072987,"498":0.010544389635807344,"499":-0.02607656570136212,"500":-0.013713114559788128,"501":0.012043341451537357,"502":0.01864746941208362,"503":0.04122937667439563,"504":-0.05688395037495783,"505":-0.023765384445564336,"506":0.0647296158660916,"507":0.049374249076745036,"508":-0.05693721254988576,"509":0.0017112904938213437,"510":0.0379103129970829,"511":0.07824743629968531,"512":0.12098906599031888,"513":0.026595524036362766,"514":0.10431424233716367,"515":0.054500455966921664,"516":0.02577784510883854,"517":0.07173068207717938,"518":-0.04079646716261236,"519":0.18008080986241823,"520":0.008102201260172208,"521":0.18717766079889978,"522":0.06882033455770721,"523":0.0962000339349399,"524":0.054385676377985755,"525":0.03212352616778554,"526":0.010562968518371156,"527":-0.027241543799786643,"528":0.08995769513123314,"529":-0.09558608202607186,"530":0.020418557168358824,"531":0.06423809840284349,"532":0.015498829286011626,"533":-0.05056369232297885,"534":0.04343707945033868,"535":0.009957638718264262,"536":0.06809174914535843,"537":-0.02632640681951063,"538":-0.020703832057306523,"539":0.11415490651990647,"540":0.04233687525010221,"541":0.08344991895874566,"542":-0.013177974973429714,"543":0.028350009538192708,"544":-0.024031196527135194,"545":-0.037140159014944336,"546":-0.004812435770197755,"547":-0.012247815583778597,"548":-0.01129148641907753,"549":-0.004774696134669711,"550":0.004369640346705287,"551":-0.055069827559686736,"552":-0.027494549663138638,"553":0.007206660988159876,"554":0.03847268213409483,"555":-0.002647066768410945,"556":-0.05319926663623889,"557":-0.037771471451886834,"558":-0.030428675073761707,"559":-0.017004787657149068,"560":0.07540651794725112,"561":-0.023475074360663994,"562":-0.0015738875085030577,"563":-0.044426089248913156,"564":-0.06879558935655301,"565":-0.019990872485509133,"566":-0.022951582045384833,"567":-0.02231814577623586,"568":-0.010511926907494477,"569":0.0037956946645625717,"570":-0.023224554376439322,"571":0.005444908782378702,"572":0.055227484668537746,"573":-0.029035878501193612,"574":-0.06501433386344573,"575":0.020065534209619262,"576":-0.01414460200320073,"577":0.030853430690219636,"578":0.02647028796928047,"579":-0.04415209000542362,"580":-0.04036316195368554,"581":-0.005303419483143462,"582":0.008185529409621743,"583":0.0451462474737906,"584":-0.022059475834369874,"585":-0.016966366433684592,"586":0.006870145806583212,"587":-0.031233772384227847,"588":0.053493184457386656,"589":-0.01801817912364978,"590":-0.024992362098131684,"591":0.01680045604407735,"592":0.025875300767525082,"593":-0.009043044263142818,"594":-0.010149205667787459,"595":-0.09831512490289616,"596":0.012866972335963792,"597":-0.025569865690535133,"598":-0.03869829055996682,"599":-0.04593348463764581,"600":0.0035146084818321495,"601":0.017032478793801112,"602":-0.023649969770901495,"603":0.026165137655746802,"604":0.029826014832595785,"605":0.010149293113848802,"606":-0.003089107528578098,"607":0.07705053798126973,"608":0.003771499323547002,"609":-0.015887300099490773,"610":0.008882988021125738,"611":-0.04945273183088016,"612":-0.02207954733917645,"613":0.01358283221109534,"614":0.0047937695625500055,"615":-0.02744589079227302,"616":-0.06651719084315477,"617":-0.08171528386762779,"618":0.017826799171658244,"619":0.016218956010364684,"620":-0.02155905340636399,"621":-0.02328883957146914,"622":0.03004039414596196,"623":-0.04040622274480991,"624":0.002167305745506507,"625":-0.05173446756504029,"626":-0.016218093987733197,"627":-0.04228379908208019,"628":-0.08659712571840716,"629":-0.003935770533709772,"630":0.06273329434227039,"631":-0.07274706949168662,"632":0.0278555949894306,"633":-0.023453218437962,"634":0.03094974001828308,"635":0.032037727917347485,"636":0.06313302833946484,"637":0.00667779941205044,"638":-0.06366727274070572,"639":-0.03879025568061898,"640":-0.02962238751837274,"641":-0.0023139936729302713,"642":-0.02124075208621328,"643":0.01504721988740674,"644":0.022905705070192656,"645":-0.030649217865536635,"646":-0.01855587086897949,"647":0.008341885601350834,"648":0.04754088246092641,"649":0.0412849212272462,"650":-0.07703911378774053,"651":-0.005507866403088551,"652":-0.04227940632007513,"653":0.012758148864752914,"654":0.05324760987918313,"655":0.006501962654268949,"656":-0.021810532763966602,"657":-0.01072541657642434,"658":0.0017836601443075718,"659":-0.0387971834247946,"660":-0.007278185986629261,"661":-0.02295530681079586,"662":-0.049648954008846,"663":-0.022496471923000215,"664":-0.05452219600766605,"665":0.06079858450183645,"666":-0.05527800427593636,"667":-0.03943771358219118,"668":0.06489797590711446,"669":-0.011042552235308069,"670":0.027053254950245187,"671":-0.05066491654804857,"672":-0.020307469598250708,"673":0.025822360622134808,"674":-0.004868327834786999,"675":-0.0205339834850354,"676":0.0010529283853273287,"677":-0.032526220742911616,"678":-0.018245761536959938,"679":0.014722828466658485,"680":0.09732120353434985,"681":-0.02896582991026055,"682":0.024707894452564525,"683":0.043817358855874525,"684":0.13355208154668938,"685":-0.04122734867080526,"686":0.04134758810043676,"687":0.012817325562638085,"688":0.0024641928287504667,"689":-0.04481029171005846,"690":0.08629082872051062,"691":-0.023654067479953484,"692":-0.0468917862236419,"693":0.016431861375360783,"694":0.1429665949085604,"695":-0.023126904011198372,"696":0.08484427526264939,"697":-0.027481442102326545,"698":-0.006266010242865254,"699":0.01425295891264431,"700":-0.06007038233355947,"701":0.05241161273052029,"702":-0.008206388898992037,"703":-0.019476601682745117,"704":0.02374156362642738,"705":-0.030893128041730413,"706":0.03094613275971622,"707":-0.048693021551817844,"708":0.012106375248870888,"709":-0.030978160864191535,"710":-0.04868105195713114,"711":0.04553953161796599,"712":0.008355482095054325,"713":-0.05260677288411614,"714":-0.024386443153345906,"715":-0.0031541486721064892,"716":0.007942825077828907,"717":-0.005405283066260419,"718":-0.02708815514931984,"719":0.004993281247155514,"720":-0.07281188331734875,"721":-0.003269067058195884,"722":0.004742505628449235,"723":0.03392140435332314,"724":-0.04669128241300321,"725":-0.007330034056669844,"726":-0.07025049216389892,"727":0.013030681472559199,"728":-0.028163283483136223,"729":0.006632280990673746,"730":0.019812730959610513,"731":-0.0077264850242156615,"732":-0.024212026571298905,"733":0.05405706638452105,"734":-0.01200703774567444,"735":-0.005938734395287732,"736":-0.02123563883634094,"737":0.05494068389414616,"738":0.03639556667775078,"739":-0.03630114166407883,"740":0.015835916479397794,"741":-0.08615829140001846,"742":0.002983160684880614,"743":-0.025535004604054688,"744":0.03602620077470923,"745":-0.024015968491887182,"746":-0.011840099422069955,"747":0.051315804391428584,"748":-0.01927836625417024,"749":0.00024926231608498256,"750":-0.008792381787569468,"751":-0.00908838134702183,"752":-0.00717483169875411,"753":-0.005081112042575056,"754":-0.01562121230577703,"755":-0.002812965621256659,"756":-0.01334488225920042,"757":0.023087996188440145,"758":0.0032747779043329804,"759":-0.02949081372060745,"760":-0.022395160688031813,"761":-0.06929281855327592,"762":-0.0034240699190202497,"763":-0.008853915167821694,"764":0.01887215729891052,"765":-0.039453639689895126,"766":-0.024747059336256625,"767":0.02321605548727286,"768":0.0021446741950682186,"769":0.0012891666500818527,"770":-0.00720303995705026,"771":-0.0039792453556291504,"772":0.01604645724684496,"773":-0.014616041312518317,"774":0.039854024103790825,"775":-0.016036805413065368,"776":-0.035060973619205425,"777":0.006814683850941265,"778":0.061404568661860434,"779":-0.005186123764276017,"780":-0.015171486788306944,"781":-0.03309933576630412,"782":0.013336789104675381,"783":0.01151826993850979,"784":-0.020940242681780748,"785":0.015912065287978387,"786":-0.0394584973449539,"787":-0.020085905986930632,"788":-0.006800779605503792,"789":0.026243494134670253,"790":-0.045984313954756904,"791":0.00003067496837438857,"792":-0.006623497960623965,"793":0.0011504864628740965,"794":-0.013626734525146223,"795":0.006883470090331363,"796":-0.05192382278676401,"797":0.03855941138140724,"798":-0.04214423696583033,"799":-0.0006303844221854646,"800":-0.02300156680273854,"801":0.0031828172778921725,"802":0.0707770316735138,"803":-0.015206744966448027,"804":0.0019764937320392306,"805":0.019264159956311498,"806":-0.04470100577860931,"807":-0.014635608031092383,"808":-0.07007513810237553,"809":-0.021836718011302568,"810":-0.017614715002886635,"811":-0.01497289804600471,"812":-0.007173840733739152,"813":-0.011713103492441295,"814":-0.03158691346851207,"815":-0.0225409417462984,"816":0.024310960608092826,"817":-0.008563727423675243,"818":-0.006068914697644314,"819":0.00705584722941136,"820":-0.026758627551165603,"821":-0.059955601576252154,"822":-0.06070214179574319,"823":-0.0512011982980098,"824":-0.016212437481776705,"825":-0.05177804713143023,"826":0.0018838935674410182,"827":-0.011268512802986836,"828":0.03436667333226836,"829":0.015499109835671748,"830":0.009644445684769208,"831":0.005211088950835229,"832":-0.07199176121743502,"833":0.0011832514794140442,"834":-0.0782640629726344,"835":-0.057939455632075476,"836":0.04930374388745692,"837":-0.06503733350117971,"838":-0.01911340846312827,"839":-0.0026805658124487994,"840":0.011309795982664118,"841":0.02143800283010479,"842":0.04000642435448896,"843":-0.009608202310340628,"844":-0.007892081989239874,"845":0.04574360665975816,"846":-0.02993011514826863,"847":-0.028856106457448263,"848":0.005978631625391446,"849":-0.07436436651651125,"850":-0.006393681886042548,"851":-0.03626072889011738,"852":-0.03976152008111597,"853":0.0035200116116077583,"854":-0.003613285604408767,"855":-0.0048277491449727665,"856":0.04387438261635762,"857":0.02634592001633908,"858":-0.001101866035447053,"859":-0.027560710523892144,"860":-0.07103364336951622,"861":-0.04150931581431602,"862":-0.05241371826949722,"863":-0.025009914549823042,"864":0.04265574025963237,"865":-0.002641797506965205,"866":-0.026209869842570985,"867":0.006982975206121979,"868":-0.114485726722836,"869":-0.07008848912488527,"870":0.045824507193148935,"871":0.058777466093693984,"872":-0.038741206351643985,"873":0.02027749466248639,"874":-0.033249777476312053,"875":0.010276933393570093,"876":-0.018699171723974683,"877":-0.030396719582825592,"878":0.018816703379906742,"879":-0.03192123069168896,"880":-0.017563966223099,"881":0.015440099010598857,"882":0.02886684466582488,"883":0.022747218931526342,"884":0.008939228474416968,"885":-0.022476220130738505,"886":0.005418463735010883,"887":0.005475928604275081,"888":0.006215348065061697,"889":-0.05614878620720848,"890":0.01778895241892352,"891":-0.014948308784085918,"892":-0.05521947700355936,"893":-0.022876674064805303,"894":-0.044855970690889174,"895":-0.034672379481121555,"896":-0.034748490620709414,"897":-0.0036148870436261945,"898":-0.008157600310515455,"899":-0.07631805393436468}},{"sx":5,"sy":5,"depth":36,"w":{"0":0.013877733479404256,"1":-0.005177167356436252,"2":-0.06745092345885231,"3":0.012171791076451248,"4":0.01987916918981488,"5":0.02733997009335254,"6":-0.02960039627724652,"7":-0.006483879224153335,"8":-0.0026886126292508567,"9":-0.02255379622676837,"10":-0.016185845394231534,"11":0.011277129438978364,"12":0.027288065774604416,"13":0.03670377690239791,"14":0.04814645219374602,"15":-0.029168903898736567,"16":-0.04001782668303547,"17":-0.01793071119146495,"18":0.012629112560612697,"19":0.022613397844117658,"20":0.004508484102009389,"21":0.03793721931077069,"22":0.042653187812624775,"23":-0.019267937353952984,"24":-0.049077564501020174,"25":0.11725088339380316,"26":-0.056478653959208654,"27":-0.04454480766416212,"28":0.015723822890138316,"29":-0.0041388036109857185,"30":-0.019460066923566586,"31":0.021591259721768927,"32":-0.00957700808442215,"33":0.014827665432835384,"34":-0.008092824511275337,"35":0.021955847744516612,"36":-0.05411823893639739,"37":-0.015841835408180946,"38":-0.02849688827879663,"39":-0.011530095754821248,"40":-0.061560680712431363,"41":-0.046898152488702896,"42":0.00018357358275847366,"43":0.012269305407736669,"44":-0.009220486366611077,"45":-0.06430721365741428,"46":-0.058856910796070666,"47":-0.01793078073934498,"48":0.031268452865772824,"49":-0.049059631545740556,"50":0.01139838312685165,"51":0.06847805201858287,"52":-0.023245629584917892,"53":0.00941350301473368,"54":-0.026459675209055754,"55":0.012352468709519527,"56":-0.05021739763915933,"57":-0.03977142877303913,"58":0.023920796224172185,"59":0.018786190940982654,"60":0.02148466296811453,"61":0.014784338560987974,"62":-0.03457459524623549,"63":-0.013294019254978619,"64":-0.025419438389423937,"65":-0.020832323707183752,"66":-0.01416672218279398,"67":0.004054500380806625,"68":0.04462299270429862,"69":-0.01880587337884464,"70":0.01674141168858076,"71":0.008433394989495739,"72":0.05435098538706823,"73":-0.08289480307441739,"74":0.04124426103596543,"75":-0.06417038225224439,"76":-0.055479512122972405,"77":-0.01358447083453984,"78":0.0702372483746501,"79":0.03045177910716661,"80":0.06195257919342868,"81":-0.01395613002983674,"82":0.00041064702429775314,"83":-0.04714466781094032,"84":0.045618419848915986,"85":-0.024836084647080335,"86":0.04321856506598369,"87":-0.0022384969055452716,"88":-0.03147092666054391,"89":0.009390707247831564,"90":0.07957941161477744,"91":0.01280563735299358,"92":0.004797869190372336,"93":0.031187451183115993,"94":-0.02679239092728738,"95":-0.039519210177943936,"96":0.037197168428158955,"97":-0.0178805082644631,"98":-0.04943203555227965,"99":0.0426343810462858,"100":0.024807906933027236,"101":0.021095923684473678,"102":0.04004694651773099,"103":-0.063412708021328,"104":0.0799627432951246,"105":-0.0026869846023588055,"106":-0.03571664872995788,"107":-0.001387561732860964,"108":0.015849317491375445,"109":-0.03966919705070167,"110":0.013825642720029367,"111":0.002495583762110971,"112":-0.05499191403350957,"113":-0.031584342210525806,"114":0.0344800505057697,"115":-0.019421949648801933,"116":0.018712588056766954,"117":0.00584449928206906,"118":-0.01790640662282972,"119":0.012509439229294149,"120":0.040233917149851105,"121":0.0496171405120523,"122":-0.006232715922029053,"123":0.020245406142125468,"124":-0.0392269372041054,"125":0.03553715679253781,"126":-0.042883970254215475,"127":0.026050525804282843,"128":0.03208613342091339,"129":-0.01146535612355179,"130":0.03252172734159176,"131":-0.056006796893093756,"132":0.017362686772966696,"133":0.00040196186535437816,"134":-0.0034988347493141087,"135":0.049764433869065566,"136":-0.028862533792166467,"137":0.05306526761928389,"138":0.02650313857522909,"139":-0.046350705308564756,"140":0.04056436165980285,"141":-0.030878109670322357,"142":-0.008016095625319864,"143":0.025269701665048314,"144":0.023386878332905564,"145":-0.011804793935120298,"146":0.008932768170459278,"147":-0.02516505912747476,"148":0.010537270490999532,"149":0.01996267546715923,"150":-0.07483708111485547,"151":-0.006736483488470663,"152":-0.02591362209200208,"153":-0.009089680806541248,"154":0.04908116211316286,"155":0.023604266663715363,"156":-0.09280574027718509,"157":0.06652767249865096,"158":-0.018255146785398767,"159":-0.03980612666642615,"160":0.0017559975138939652,"161":-0.018904986092685278,"162":0.03053532755415089,"163":-0.04129328369347065,"164":0.011496955436797407,"165":-0.0595368641150307,"166":0.04378217600619144,"167":-0.03621281737633442,"168":-0.03709064317790194,"169":-0.03354350021413423,"170":0.01695326628563438,"171":-0.03196538471991605,"172":0.04123620901906508,"173":-0.023482335727984215,"174":0.013636117919012846,"175":-0.015467604557911498,"176":-0.06058788472594263,"177":-0.008654990707907574,"178":-0.03657256876585127,"179":-0.00886049437008791,"180":-0.04732562646271723,"181":0.02828094061897252,"182":0.014467693388217504,"183":0.006436400245344683,"184":-0.05355888851274094,"185":-0.015880234808814935,"186":0.055934506877428534,"187":-0.033263927231997274,"188":0.014297402949707329,"189":-0.013510239948656718,"190":0.005296946662573976,"191":-0.03165686893511749,"192":0.05847017649277639,"193":-0.021758644359117785,"194":0.0173961642900426,"195":0.010620973351158393,"196":-0.005314553461325854,"197":-0.028066227051474456,"198":-0.0882508022360739,"199":-0.059084871075152465,"200":-0.0238258555069603,"201":-0.022928511318679765,"202":0.07049628142077359,"203":-0.021122115012279685,"204":-0.02520018662228911,"205":-0.046931374931740356,"206":0.03205402123517901,"207":-0.014520458492763127,"208":0.0014857954465764068,"209":0.004089725613917722,"210":0.03883932180950684,"211":-0.02455557981013107,"212":-0.04934946452397868,"213":0.059047931934406765,"214":0.03251552442127308,"215":0.009902404677139827,"216":0.017564027021032283,"217":0.004774789016853102,"218":-0.03589700988263645,"219":0.03954709848202484,"220":-0.055673688919359254,"221":0.026350836827541187,"222":-0.023181659307361022,"223":-0.0291659665509711,"224":-0.01251270706363316,"225":0.0013889134272101887,"226":-0.005282143298383163,"227":0.007405636172428437,"228":-0.03349783253640406,"229":-0.05850840871888259,"230":0.004481297823424121,"231":-0.0048540836319256675,"232":0.008304775496192332,"233":0.008293494380166511,"234":-0.058565241777077205,"235":0.013107358455647703,"236":-0.04653667059293994,"237":-0.019575031560582108,"238":-0.04836587278337343,"239":-0.0059533938364745255,"240":0.0043480385845352885,"241":0.05005819520700828,"242":0.03726765590858543,"243":-0.0033073502048470735,"244":-0.005656814538531192,"245":-0.009584422431623552,"246":0.001176192006304985,"247":-0.07335862871323535,"248":-0.08210335649380328,"249":-0.03993909993519037,"250":0.004736417951775482,"251":0.009989097672221841,"252":-0.02129717355757949,"253":-0.004825363806408549,"254":0.026065234397360686,"255":0.07061012231802502,"256":0.02666936397499474,"257":-0.02215055925159514,"258":-0.0313967289613349,"259":-0.0008363562985628532,"260":-0.0015729448483482033,"261":-0.038557764418819494,"262":0.03650816933270758,"263":-0.05966565597702302,"264":-0.022648054651094703,"265":-0.02068695621407456,"266":-0.03357536611948871,"267":-0.06275761538888154,"268":0.03251780313065045,"269":0.009749283042203821,"270":-0.039915521380978224,"271":-0.003550939724970679,"272":-0.04432645033315945,"273":0.03101587638148461,"274":-0.04329828983514926,"275":-0.053249224747803775,"276":0.007141864540350013,"277":-0.04834828715299036,"278":0.02976237212292563,"279":0.028614148671438227,"280":0.004922032290042545,"281":-0.0440836000727241,"282":0.008842584520167077,"283":0.04331056564646736,"284":-0.006177679354862367,"285":-0.008881425314067954,"286":0.039788050741295856,"287":0.019551778983945743,"288":0.011438609590818449,"289":-0.05530090184706664,"290":0.01612311213438925,"291":-0.05875877743018733,"292":-0.039512969086194887,"293":-0.04650785402661147,"294":0.02553935209183076,"295":-0.013236098915361132,"296":-0.01672688110478479,"297":0.02724697877610241,"298":-0.013731775323742378,"299":-0.0067616397241428506,"300":-0.0033990898080476185,"301":-0.02440521785116378,"302":0.04155479709001716,"303":-0.026752161030508835,"304":0.002610091022701802,"305":0.017949487757688846,"306":0.03278753549651142,"307":-0.040929195710268367,"308":-0.0157287364144903,"309":0.005156727298210975,"310":-0.027484151826388706,"311":0.041028469097642635,"312":-0.029471409065457824,"313":-0.02741752461276664,"314":-0.018023644424341602,"315":0.06840046409007805,"316":-0.003588795874087034,"317":-0.037272262580422766,"318":-0.029993966699209836,"319":0.029366984045348574,"320":0.02761431525580063,"321":-0.00004445528741549041,"322":-0.04270407799052559,"323":0.03221734253240536,"324":0.0360837105311345,"325":0.010260483112608472,"326":-0.018668202949371902,"327":-0.0509129759697363,"328":0.03718181431955388,"329":-0.025937079543674683,"330":0.003852725653400418,"331":0.0004661467137838074,"332":-0.03347959794047722,"333":-0.0031022588618646535,"334":0.0325273767860078,"335":0.021486891420919432,"336":-0.07515996840046232,"337":0.005412161285496356,"338":0.05368996542083501,"339":-0.09481667713435758,"340":0.04649509970684136,"341":0.04671720791703628,"342":0.024534909808188336,"343":0.022731141838340966,"344":-0.029379898999259916,"345":0.030800904756377662,"346":0.047749275045318215,"347":0.060329471081587226,"348":0.03813760608239094,"349":-0.043408518904543815,"350":0.03705409798333864,"351":0.02692604143498933,"352":0.05235945525495862,"353":-0.005257643834430598,"354":-0.007294788426953084,"355":0.04009737454606734,"356":-0.03340557769655843,"357":-0.02265577561325715,"358":-0.0056167955631178405,"359":0.021356226734868648,"360":0.015093529369453762,"361":0.044763420235776244,"362":-0.017353598502306014,"363":0.03186026458942141,"364":-0.05579491703438775,"365":-0.003379891476611549,"366":0.03568173877843032,"367":-0.04291806128943187,"368":0.011816485552378853,"369":0.0064141348537731305,"370":-0.03959031748777248,"371":-0.06282624018476174,"372":-0.05650868081796819,"373":-0.015435077930274996,"374":-0.03760386566567141,"375":0.03671180392619796,"376":-0.014721757372383213,"377":0.00644624797672391,"378":-0.011482248907976859,"379":-0.04908067595262453,"380":0.040278169279903936,"381":0.05833671248933622,"382":-0.017976256305938656,"383":0.04790622766123997,"384":0.02387716078223899,"385":0.014573470834905008,"386":-0.022446628891044564,"387":-0.06609023856846223,"388":-0.0007342499954101829,"389":0.002621154809880835,"390":-0.0630779024244689,"391":-0.03835965031635115,"392":0.0009885109349556703,"393":-0.026138570125267543,"394":-0.032983240378410376,"395":-0.009935863774197794,"396":0.03351560663526164,"397":0.019859023249857184,"398":0.005688753955682322,"399":0.05689111286492354,"400":-0.029979457706223057,"401":-0.011168913782217363,"402":-0.033362314891764444,"403":0.02094206003492151,"404":0.03088013509429347,"405":0.042284571737206296,"406":-0.0010949562555066996,"407":0.019852644811812956,"408":-0.028187156715939774,"409":0.006389115864448601,"410":0.025718029391185827,"411":0.029624726925858567,"412":0.05798335909582158,"413":-0.007407488726310482,"414":0.039980622823382175,"415":-0.024850654963182565,"416":0.0013682283745582683,"417":-0.028023020437007443,"418":-0.00833591686537249,"419":0.01960733923260564,"420":-0.035350562747680496,"421":0.011566575158398828,"422":-0.03473061722268249,"423":-0.050037022644975955,"424":-0.03836671981258685,"425":-0.06372943113644089,"426":0.024854639665004105,"427":0.002840294746904411,"428":-0.02513963912738474,"429":0.03367422750433318,"430":-0.01089108635672325,"431":-0.06863558352657625,"432":-0.024704698222502278,"433":-0.010547780849180802,"434":0.0054806026376408665,"435":-0.01405363553668057,"436":-0.05658173946844353,"437":-0.09378821653029659,"438":-0.01865628517749251,"439":0.011544858462445098,"440":0.04910369149732646,"441":-0.02757918874236438,"442":-0.07436354921592905,"443":-0.03766218479942906,"444":-0.042648201168679456,"445":-0.025951018437510204,"446":0.022860111546898536,"447":0.01974347704286592,"448":-0.025241974197616028,"449":0.0013469285971662234,"450":-0.018160393431867705,"451":0.048285470298766724,"452":-0.0020328824198468922,"453":0.010050113598555508,"454":0.03263276618253745,"455":0.012724705506058595,"456":-0.0785701969375085,"457":-0.06155244894309606,"458":-0.042625546358719006,"459":0.04416489815901111,"460":-0.013509327710713349,"461":0.018637242917276583,"462":-0.01314821189021143,"463":-0.050603822014579115,"464":-0.02008635781987362,"465":-0.06049052746804992,"466":-0.09400505097969795,"467":-0.044653442634708135,"468":-0.04448055686643322,"469":0.03226988559597998,"470":0.029537155133869113,"471":-0.04557945733092447,"472":0.01828187598345238,"473":-0.011304935966520656,"474":-0.002083293904883298,"475":0.0123737433854323,"476":0.0426754550020855,"477":-0.031305455034583804,"478":-0.012291855282284091,"479":-0.06588795076782329,"480":0.015537669178645956,"481":-0.017837687017545158,"482":0.01692836436965053,"483":0.03414261424804729,"484":-0.0000160603848572169,"485":0.0028472729785107643,"486":-0.0013648731310802664,"487":0.01078301516462129,"488":-0.0013368594930897291,"489":-0.025241681345588237,"490":-0.03950703332784306,"491":-0.032526576911682814,"492":-0.043552643826224466,"493":-0.04182158576970288,"494":0.037863622948644156,"495":-0.005287932765486521,"496":-0.027022561658052873,"497":0.05807303988337692,"498":0.00292190514807882,"499":-0.013379222701810974,"500":0.006851653749137776,"501":0.03494892833382775,"502":-0.023047633904494585,"503":-0.007591164142438213,"504":0.0002448735626115893,"505":-0.03274415427473195,"506":-0.025763787750980018,"507":0.0016845371498757835,"508":-0.04176591186143073,"509":-0.04182669287690619,"510":0.05439077904603068,"511":0.0076379131555724365,"512":-0.011536873631212226,"513":-0.011304258658563356,"514":-0.016658108975251842,"515":0.007631519975668737,"516":0.05551238760252769,"517":0.019530080955749016,"518":0.013538852664240056,"519":0.035137475814078396,"520":-0.0654148794172712,"521":0.05168634653784154,"522":-0.044970007591305185,"523":-0.02069323509615751,"524":-0.047584183045388,"525":-0.009194675001589755,"526":0.0809964848200141,"527":-0.03131094568299174,"528":-0.0069298804100472525,"529":0.024546540249602813,"530":-0.04609038859059151,"531":0.01263302269392575,"532":0.016763374951186558,"533":0.0064588114015191435,"534":-0.029339653383729764,"535":0.020575340517127012,"536":-0.0547599523014924,"537":-0.003957088522730209,"538":-0.053379006843491526,"539":0.02965419842781494,"540":-0.0653283998197795,"541":-0.01843788863088599,"542":-0.0192858807462372,"543":-0.043751038031431,"544":-0.014757967542187568,"545":-0.033899618468820884,"546":-0.06415577543212576,"547":0.022413802078549688,"548":-0.022168659340042474,"549":0.04977676489081306,"550":0.03389611935991895,"551":0.0009353215154815033,"552":-0.0009147748290360371,"553":0.035388245586378014,"554":-0.0017212709496231323,"555":0.009023413848437639,"556":-0.029666572213250107,"557":0.08634747953365966,"558":-0.0140331805502507,"559":0.0012691232961630514,"560":-0.020299666844552613,"561":0.02559751476985546,"562":-0.030284082631301185,"563":0.04045080346091834,"564":-0.05935362937978685,"565":0.029263777006072803,"566":0.010977676709494122,"567":-0.08489665160647399,"568":-0.019087127402001476,"569":-0.022168776926825003,"570":0.035868725637328125,"571":0.03580317140070016,"572":0.004454132274249582,"573":0.005052808530274823,"574":0.048540181741712214,"575":0.03073775646289517,"576":0.023640354959424,"577":-0.02454182240603557,"578":-0.03352766956273487,"579":-0.021372445375438608,"580":0.011076035929571388,"581":-0.07194805411024117,"582":-0.02138662462209413,"583":-0.07617624595914166,"584":0.03432960861487224,"585":0.004520525979864983,"586":-0.019370661721438205,"587":-0.05317381057429237,"588":-0.0356413669267856,"589":0.022092716514941865,"590":-0.011789623078381746,"591":-0.00004796198308991206,"592":0.06604046709484232,"593":-0.01537630297034839,"594":-0.06098088627279629,"595":-0.0016514072583295794,"596":0.020300129886877696,"597":-0.041684501908154675,"598":0.0076942054282865945,"599":0.016723142338837718,"600":0.0283750798937799,"601":-0.028650909987133898,"602":-0.036911206253944714,"603":-0.023810318243411194,"604":0.010825726219520021,"605":-0.044782110211082936,"606":0.009485238383304385,"607":0.04154386063388993,"608":0.023843275637290186,"609":0.007679987813952811,"610":0.011159984530555965,"611":-0.026543375749075414,"612":0.0398566042827183,"613":-0.010309357954034785,"614":-0.04359315065168718,"615":0.0062501876841639685,"616":-0.00031962320778385035,"617":-0.053129297138728465,"618":-0.01695526112047505,"619":-0.031409937808003975,"620":-0.060945897413434987,"621":0.012798262775873436,"622":-0.0312040151215374,"623":0.017227262686397935,"624":0.0008175444132782315,"625":0.029729746076566012,"626":-0.025926430406645967,"627":0.02315718506967568,"628":-0.017828965980353367,"629":0.050006149956144275,"630":-0.05444992688280283,"631":0.03783201300994684,"632":-0.023063574753124448,"633":0.007277529972726116,"634":-0.029048032115534878,"635":-0.014831260237491305,"636":0.019961905142458516,"637":-0.0018377902172292833,"638":-0.04481041432014298,"639":-0.024132050966326295,"640":-0.08701317496242067,"641":-0.010169112474979728,"642":-0.04095211448069338,"643":-0.03876891864204125,"644":-0.03401419773380528,"645":-0.026448153624685198,"646":0.020785492144742033,"647":-0.028689001327490853,"648":-0.01287550720822614,"649":-0.06472596638038058,"650":-0.052904968452005895,"651":-0.04209596731405725,"652":0.0308334300766471,"653":-0.027120753920782493,"654":0.019175233223708895,"655":-0.04435262952101915,"656":-0.043284846924697674,"657":0.07311540771119698,"658":-0.03234794945488115,"659":0.017362918123299854,"660":0.021587032260980774,"661":0.017790277770020714,"662":-0.02044558133725183,"663":0.07752267095051238,"664":-0.07060185912398545,"665":0.03280727347375627,"666":-0.035217017808343354,"667":0.022517856612986633,"668":0.007793824888549649,"669":-0.021214703710312068,"670":-0.019997689878726736,"671":0.0185094954882935,"672":-0.011198456646925802,"673":-0.025542421982536867,"674":-0.012946986277359924,"675":-0.04115953047987496,"676":-0.02034891443929811,"677":-0.009405375627928368,"678":-0.05674065720507369,"679":-0.043376512564650846,"680":0.05867370876997616,"681":-0.04802090110810606,"682":-0.0027670145287159893,"683":0.014165349968797486,"684":-0.059067753554289525,"685":-0.01248591713725702,"686":-0.006072065887457006,"687":-0.011609528885749752,"688":-0.032155898228358765,"689":0.03394899234802132,"690":0.013669668127041797,"691":0.038526972869308174,"692":0.0748157220717242,"693":0.017938737439614254,"694":0.07956509443870853,"695":0.019233947324118303,"696":-0.01010859550661009,"697":0.0012227658402016732,"698":0.03477109444542613,"699":0.030693443834514486,"700":0.005998101083999357,"701":0.006463402421241282,"702":-0.030808503422983365,"703":-0.03908413087597686,"704":0.04604009215112371,"705":-0.011596330397815881,"706":-0.03035406277450866,"707":-0.018375472306195906,"708":-0.0065266830575580964,"709":0.04413687353561179,"710":-0.04575113375310691,"711":-0.043141400332916885,"712":0.008209200646371801,"713":-0.03449464130839188,"714":-0.08627916356689998,"715":0.006593320441540207,"716":0.051084986569436504,"717":-0.10113364265735773,"718":-0.004329684497039306,"719":-0.046160557656813754,"720":-0.00015882850935290205,"721":0.08556691474711384,"722":-0.016284436593516617,"723":0.07631431119697091,"724":0.02126609669966549,"725":-0.07480564275415427,"726":-0.07626594567603238,"727":0.013735189861750607,"728":0.062008278420548964,"729":0.013090468673662124,"730":-0.0275741000377002,"731":-0.06297372544304465,"732":-0.06150547303466272,"733":-0.0034119287025693706,"734":0.038146389154348516,"735":-0.07407528595274751,"736":0.04676764948495859,"737":-0.08873663537301626,"738":-0.031501041208211567,"739":-0.028767015499231222,"740":-0.029372131547279048,"741":-0.06013494065014638,"742":0.0007986999736389602,"743":0.01966059787683406,"744":-0.04283553437713137,"745":0.003439103491582214,"746":-0.04445324423379786,"747":-0.023600097389436296,"748":0.013426844103192273,"749":0.015353639865246719,"750":0.04646412438033213,"751":-0.022168764995228348,"752":0.03875428225968974,"753":0.015511374101386978,"754":0.04068901036402232,"755":-0.06500957675918385,"756":-0.0033563277043653188,"757":0.07036496467424523,"758":-0.025180650997112853,"759":-0.003409857449223939,"760":-0.042836792177828424,"761":-0.08913646373922614,"762":-0.055331560143166134,"763":-0.013489243049125363,"764":-0.002276595103450628,"765":0.021767322517301856,"766":-0.02731269481268434,"767":0.05201495862009282,"768":-0.00839856541512892,"769":-0.027486091967195588,"770":-0.005371595997863744,"771":0.002355037846275097,"772":-0.04439133825963273,"773":-0.04010247443014936,"774":0.013703117814917757,"775":0.027534005848648107,"776":0.04492287653236002,"777":-0.08783808852912821,"778":0.02264346827164398,"779":-0.0925444339047631,"780":-0.03485111448961139,"781":-0.019573105040215845,"782":0.008968685909355394,"783":-0.050690245049100746,"784":0.015690818759071683,"785":-0.01730646904132166,"786":0.08359088099491337,"787":-0.02847740546430862,"788":0.014599933448146071,"789":0.07677463685539036,"790":0.014554811956391089,"791":-0.010458368568082849,"792":-0.0021100818874666763,"793":0.00844116451841537,"794":0.009072817992241107,"795":-0.03562590128967487,"796":-0.08389484511092626,"797":0.018957764170964737,"798":-0.022161972494534218,"799":-0.0359443386283003,"800":-0.014292654906081784,"801":-0.012467408501824494,"802":-0.039918169702193806,"803":-0.07743132279266603,"804":-0.032030437454095215,"805":-0.0201398567093038,"806":0.06728493522362637,"807":-0.0212703144055981,"808":0.026395209412100832,"809":-0.06416153528928649,"810":-0.014479384195486557,"811":0.024303110399422456,"812":-0.011205611350281995,"813":0.0893491993687239,"814":-0.0068702876672840875,"815":-0.03503467982926897,"816":-0.09391285355536313,"817":-0.006031816494944185,"818":-0.016054384629103705,"819":0.01596039681576233,"820":0.044127205583450506,"821":-0.016632799212481238,"822":0.17559868515618407,"823":-0.05664854394706026,"824":-0.028746029951760507,"825":0.09274270849008796,"826":0.08331188022354082,"827":-0.04122072974371018,"828":0.07405321036582595,"829":0.04352583849286855,"830":-0.013012074278102201,"831":0.0006527338228989811,"832":-0.03624525269847247,"833":0.01895171334776762,"834":-0.02396427798407932,"835":0.010888587740952265,"836":-0.05697681623110211,"837":0.03446829362523464,"838":0.06719312040851,"839":-0.05243892293659601,"840":-0.003624512040960612,"841":-0.046878757935736974,"842":0.078063165503121,"843":-0.016696024490251656,"844":-0.03183310166214761,"845":-0.003613720356161202,"846":-0.07454188461457949,"847":-0.005406903165511213,"848":-0.04846437852483851,"849":-0.028390969701576736,"850":-0.04700761990578592,"851":-0.0035220846920798513,"852":-0.1048760026748779,"853":0.022640607025052148,"854":0.006814832542948068,"855":-0.03261391843794457,"856":0.02053838559791036,"857":-0.03420240364351121,"858":0.16209919054297317,"859":0.03839402272263262,"860":0.010132134163427297,"861":0.0827369619596987,"862":0.031285706295149554,"863":0.002943884066194861,"864":0.010328992170042534,"865":0.005231158135040835,"866":-0.025345411777140413,"867":-0.020830489320995835,"868":-0.03646743416036281,"869":0.03356056907223154,"870":-0.06448984345599613,"871":-0.006611530505254649,"872":-0.05224611545667003,"873":-0.05445488323284337,"874":-0.013881851549557905,"875":-0.026415814030918715,"876":-0.016279775315179525,"877":-0.004990756620186525,"878":0.007265359421540697,"879":-0.011938660788955951,"880":0.017729378556628626,"881":-0.017819749846645083,"882":-0.03383438481238248,"883":0.009304616825782366,"884":0.021792100706308187,"885":-0.0036819950533041653,"886":-0.017880194358401318,"887":0.020710057883172456,"888":-0.060055222692202884,"889":0.022240211897330237,"890":-0.07780151929074322,"891":0.0013597270831961668,"892":0.1362958602127521,"893":0.000657869058119306,"894":0.16699101371118347,"895":0.07456402461128384,"896":0.01914731610582645,"897":0.03806870201524812,"898":0.04872669165302929,"899":-0.03737510506688658}},{"sx":5,"sy":5,"depth":36,"w":{"0":-0.014151538031203207,"1":-0.0037670663459261084,"2":-0.06491080097656962,"3":-0.0262771948425997,"4":0.07046369322348568,"5":-0.045854017920927984,"6":0.015898253359357555,"7":-0.04547982095255866,"8":-0.04261708997248274,"9":-0.004551418839769633,"10":0.02538110034090896,"11":-0.006090458987040497,"12":0.021661687683263355,"13":-0.04235741610575277,"14":0.002120829913089401,"15":0.030586162848222933,"16":-0.02650024281995696,"17":0.01907003622497578,"18":-0.04596990765000315,"19":0.06560683828856725,"20":0.0006392820943992601,"21":-0.030317442692766785,"22":0.0077615907182647095,"23":-0.03882228957025852,"24":0.021737528906581052,"25":0.008686960087406569,"26":-0.05265547066367223,"27":-0.07408174622339404,"28":-0.029360201895996477,"29":-0.014898590923763317,"30":-0.05507707217510001,"31":-0.02558073191287449,"32":0.022820081209957863,"33":0.0018095476189455228,"34":0.0027779569909224967,"35":-0.060071960711728246,"36":-0.014554196894264432,"37":-0.07904858170743428,"38":-0.012023790620363727,"39":-0.026912237042348092,"40":-0.02995386404480032,"41":0.015479466450347963,"42":-0.05254204886058967,"43":-0.04014159063644325,"44":-0.018293773086732117,"45":-0.022413994593450236,"46":0.019098324487801015,"47":-0.06915106675804472,"48":-0.021385196671583895,"49":0.015039196562629245,"50":-0.029514329313659365,"51":-0.03865388069807976,"52":0.011596274879472093,"53":0.02149507036512167,"54":0.02001626726670996,"55":-0.01844025660690071,"56":-0.0318087029220445,"57":0.009057876953646796,"58":0.043038939477763695,"59":0.0038112326486675965,"60":-0.002032286049226687,"61":-0.052718290839610375,"62":-0.010288580287593298,"63":-0.038103406960634266,"64":-0.029725281337474752,"65":-0.04377648210000647,"66":0.040288302259686604,"67":-0.03562698524413804,"68":0.014045871284875704,"69":-0.01965759463723357,"70":-0.0011313560231487449,"71":-0.04245213212350414,"72":-0.03673326076686143,"73":0.019411296927031214,"74":-0.05874849989496552,"75":0.049506907782898624,"76":-0.02471537342700787,"77":-0.004916819706746346,"78":-0.08198222205706888,"79":0.00247866171589576,"80":-0.07590961832976585,"81":-0.038611416854694366,"82":-0.04072940863222472,"83":-0.019243506678583915,"84":-0.0073692227033285785,"85":0.01335062614457339,"86":-0.00536293981623022,"87":0.04834464718924865,"88":-0.013138761355059807,"89":-0.016354478080896767,"90":-0.015777253528926394,"91":-0.06232333317351498,"92":0.03626795059816734,"93":-0.014352061652604144,"94":-0.033995155508976825,"95":0.0484714368943636,"96":-0.003098081867012624,"97":-0.025906744468442,"98":-0.0036089573264983348,"99":-0.013737569134446912,"100":-0.013661324591575973,"101":0.02894642951683179,"102":-0.012974407965834654,"103":-0.01968398567466964,"104":0.03142276078992245,"105":-0.0020414765822048225,"106":0.00024325542656711377,"107":-0.033488548953440236,"108":-0.049601484783780604,"109":-0.021673236739463066,"110":-0.06897650529361808,"111":-0.04485335635443238,"112":0.03140787181824451,"113":-0.013229739446355282,"114":-0.010456577149360024,"115":0.012518579336718122,"116":0.016645522654146372,"117":0.029893583508057674,"118":-0.03058499582124226,"119":-0.019462495658770375,"120":0.028597179972266372,"121":0.019413031513466638,"122":0.018262537755245334,"123":-0.0004651371129456654,"124":0.013405350834139265,"125":0.014544215798871907,"126":-0.05050989647900831,"127":-0.00897607375365235,"128":-0.0386610219626839,"129":0.01102387810542062,"130":0.049242936314211505,"131":-0.029405116271326675,"132":-0.05485690031724502,"133":-0.03488116708287037,"134":0.03836062665503245,"135":-0.019519715677443896,"136":-0.027982547967361774,"137":-0.012619934160237923,"138":-0.007419103680853398,"139":-0.04503919426062148,"140":-0.03550504032323228,"141":-0.0029643703902270256,"142":-0.029359563879306456,"143":-0.02065627385752395,"144":0.02648887079735346,"145":-0.0026830128889072016,"146":0.006778410296088474,"147":-0.03746508395815261,"148":-0.05923453391860362,"149":-0.04207527231592906,"150":-0.03510937179712604,"151":-0.02722570056696621,"152":-0.030998045185390916,"153":-0.027058437147640724,"154":-0.00048603129189528615,"155":0.020496600888018135,"156":-0.05044396541041906,"157":0.022081620973668562,"158":0.04105637065377699,"159":0.003476448146438537,"160":-0.012225027368219605,"161":-0.052047028014242325,"162":-0.03936775533560763,"163":-0.008185751079677622,"164":0.01616865481310536,"165":-0.03803271086639032,"166":0.04626701111329791,"167":-0.07587670594118649,"168":-0.0029637175148227225,"169":-0.002369387969711651,"170":-0.005571589293228213,"171":-0.03920511119704552,"172":0.04564676246940565,"173":0.032891705378450355,"174":-0.0004921693572806003,"175":0.04251230990622513,"176":0.021623966801646813,"177":-0.012830892027801213,"178":0.0509699030828402,"179":-0.03022657714380096,"180":0.017137634429297638,"181":-0.02521968080118391,"182":-0.02145006984174556,"183":0.044867935663995016,"184":-0.005599010473332965,"185":-0.04523572331116475,"186":0.045423866008665346,"187":-0.0716872600079842,"188":0.0487138069836356,"189":-0.054481341316876965,"190":-0.00965436085887951,"191":-0.050072897599079146,"192":0.04258095383621357,"193":0.043811112521180424,"194":-0.01343628802996266,"195":0.0009219830119676934,"196":-0.0003118645102661696,"197":0.01577087309376147,"198":-0.014329821703418186,"199":0.00471421914539117,"200":-0.06630343669801968,"201":-0.05952119618555278,"202":-0.1113202502070959,"203":-0.0645703810639336,"204":-0.06684545854680717,"205":-0.022396460191387992,"206":-0.02616762621740816,"207":0.007852092136180723,"208":-0.025616260996491547,"209":-0.027858817607017607,"210":-0.015940345908436265,"211":-0.06107525033420488,"212":0.0049479615971949635,"213":-0.047173678964075386,"214":0.0034907379492735194,"215":-0.009090490455423967,"216":0.029344843119440724,"217":-0.04869607709455953,"218":0.014484537174709164,"219":0.000929303582449701,"220":0.03768983123003938,"221":-0.03519384398899847,"222":-0.008924970838933368,"223":0.01794312632203428,"224":-0.010447968833430464,"225":-0.004282100288386223,"226":-0.01790560581870554,"227":-0.029864418143636776,"228":0.0018070932164639408,"229":0.011399968579779056,"230":-0.006355948513428314,"231":0.012907340839997505,"232":0.0767186717787783,"233":-0.06995114971190361,"234":-0.07004481430412815,"235":-0.058667486793721746,"236":0.0055396691054994535,"237":-0.012858051781418274,"238":-0.062135219490979686,"239":0.003228688107405823,"240":-0.043186760790532595,"241":-0.039529398473692925,"242":-0.008956652400183823,"243":0.059183057861286345,"244":-0.016310474020943093,"245":-0.005118761834986102,"246":0.013095715882798136,"247":0.03699089301012078,"248":-0.06090395532353956,"249":-0.0017961790511032971,"250":-0.037965582549376785,"251":-0.015510489934177227,"252":-0.02999534060319583,"253":-0.002142599962983968,"254":-0.04464208304566965,"255":0.01376131061361746,"256":-0.02234709998503814,"257":-0.019573009028623724,"258":-0.05233444715906356,"259":-0.020930854653971515,"260":0.012686458480244377,"261":-0.04504575478259441,"262":0.051265910455870346,"263":-0.020682728777958213,"264":-0.03422858604028658,"265":-0.0074516970895865155,"266":-0.04630962490925605,"267":-0.007296380118809622,"268":-0.030236834108491227,"269":0.04256645951261657,"270":-0.013307662330654777,"271":0.0312274720957795,"272":-0.019093476230924878,"273":-0.011734408493180625,"274":0.015409126718841938,"275":-0.029046249923616003,"276":0.05954833798576144,"277":0.07146358907584678,"278":-0.025746599163828293,"279":-0.019335146717819017,"280":-0.0553654811469736,"281":0.018623382745367668,"282":-0.009816552751264427,"283":-0.006056002073878542,"284":-0.03097714979054743,"285":-0.02951046585878926,"286":-0.05415324056809516,"287":-0.03678224659833001,"288":-0.04286425889620508,"289":0.028670207389591196,"290":-0.021140269674764827,"291":0.032772954866459376,"292":-0.011192979811622157,"293":0.0007019169075006257,"294":0.028984622028108527,"295":-0.046960325672321536,"296":0.014322606394473032,"297":-0.000984487247560496,"298":0.0773944239493482,"299":-0.02171209822338279,"300":0.025805479075547887,"301":-0.0066013271590142876,"302":-0.007569114400079075,"303":0.0008982604606672333,"304":0.05176269246014119,"305":0.01641087701705675,"306":0.009157919355914769,"307":-0.0449283586045031,"308":-0.011526978964692057,"309":-0.015328491110308687,"310":-0.017524879099630738,"311":-0.02546171807647194,"312":-0.05114891196362064,"313":-0.007710553773936233,"314":-0.02557145829798571,"315":-0.003331307050342015,"316":-0.04201870784987072,"317":-0.002884192862996437,"318":-0.08581570274410996,"319":0.014143423757293777,"320":0.025356364334585605,"321":0.005165064285087411,"322":-0.0667228424285697,"323":0.06355578777586908,"324":-0.01653569579571348,"325":-0.017468889880703848,"326":-0.06318122654375344,"327":-0.027215800947442078,"328":-0.030471360014552893,"329":-0.03890666359242955,"330":-0.07773543693598907,"331":0.030531660938191436,"332":0.030472726470968846,"333":0.010520652962591696,"334":0.011381823133779542,"335":0.007937963394574336,"336":-0.01916883018140478,"337":-0.00018906391732768463,"338":-0.004476100118027527,"339":-0.026967623757512715,"340":0.019189769736161034,"341":-0.014670422158917906,"342":-0.03378999855040757,"343":-0.05381249542467644,"344":-0.023366307635143333,"345":-0.03927215573440587,"346":0.07149132923276526,"347":0.04439713099778177,"348":0.03255514358703613,"349":-0.0049946952735579015,"350":-0.021869285946181007,"351":0.034042469645272806,"352":-0.019529042798978737,"353":-0.030685330726508885,"354":0.040002440009175105,"355":-0.0025665283343759607,"356":0.02562127840632825,"357":0.005187735517965351,"358":0.015384876795871244,"359":-0.03161279715218816,"360":0.024216740894797494,"361":-0.029203680878571957,"362":-0.04690329565829981,"363":-0.010092597846455992,"364":0.020526054094801738,"365":-0.04828335219537711,"366":-0.035430447073129374,"367":-0.05446631145648578,"368":-0.03901050599558711,"369":0.019949959760186573,"370":0.012924128480636718,"371":-0.00790206652873532,"372":-0.07624627528146045,"373":0.03356665956852297,"374":-0.0557841904756891,"375":0.04622859623211252,"376":-0.0310844582005359,"377":0.035318317526436056,"378":-0.002607483826162538,"379":0.0374010888388515,"380":-0.004527691726808637,"381":-0.0032323985765934536,"382":0.006432879219976015,"383":0.0495841551990955,"384":-0.04650760534045787,"385":-0.007589879329403763,"386":-0.030763414010637515,"387":0.008120360436005057,"388":-0.02714548178011387,"389":0.01665815735046907,"390":0.0026452853689966616,"391":-0.009141038838303367,"392":0.013356001524041651,"393":-0.04383991898390348,"394":-0.025669812183741446,"395":-0.06524702494305734,"396":-0.05531937676210083,"397":-0.036598449053874466,"398":-0.008666683881925106,"399":0.00689873324488323,"400":-0.05355613732010894,"401":0.0038540882672512015,"402":-0.06533908216810738,"403":-0.0037592422309073634,"404":0.006729871915470862,"405":0.034403797812234606,"406":0.006802881748923323,"407":-0.020556183060230167,"408":-0.008059687714201928,"409":-0.06072392080733152,"410":0.0070398414998701885,"411":0.04816566765413786,"412":-0.05648184549630971,"413":0.01848573811830721,"414":-0.02439718292091901,"415":0.004674201273047647,"416":-0.03494128154404008,"417":0.009825614867788312,"418":-0.0822618076392264,"419":-0.012873794440869436,"420":0.012236920140860622,"421":0.02438324595955491,"422":-0.04908276775007462,"423":-0.060500888694868256,"424":0.005555203308749373,"425":-0.007704457841747782,"426":-0.0662229011840518,"427":0.00509513008722618,"428":-0.006390293816916411,"429":-0.030304259783305046,"430":-0.010837417728168285,"431":-0.08727871141270624,"432":0.02734972149017025,"433":0.022510275582710935,"434":0.009999786593356421,"435":-0.0529342031333465,"436":-0.03401961498452197,"437":0.05388436661196768,"438":-0.03528425517389002,"439":-0.058128144717454165,"440":-0.05422048181565252,"441":-0.0290366817937863,"442":0.0041983843114665334,"443":-0.011346713099469535,"444":-0.01491646581828657,"445":-0.011702768650874742,"446":-0.08680912179395026,"447":-0.03698915567388282,"448":0.033854421565612795,"449":-0.03063592121464178,"450":-0.05133974835071649,"451":0.007702609370228588,"452":0.0007504477016840418,"453":-0.00028313611885945664,"454":0.0463572333038948,"455":-0.048175436227170965,"456":-0.05170269897181378,"457":-0.03055643850220412,"458":0.0012363060823928624,"459":0.009054660465190096,"460":-0.05321503364575904,"461":0.007357551856637851,"462":-0.04688636114089593,"463":-0.06704153661495191,"464":-0.02158447552124631,"465":-0.004600462022934183,"466":0.043843681134948125,"467":-0.04908158984375536,"468":-0.04170618178560084,"469":-0.020240139264536574,"470":0.020598071979005664,"471":0.013953106911974955,"472":-0.011944241649688679,"473":-0.032221305664736834,"474":-0.14490561693172135,"475":0.051808211921807124,"476":0.030022578725953205,"477":0.0059453703702988395,"478":0.010427582944717014,"479":0.011762728002162237,"480":0.05619847279552117,"481":-0.029809857694233697,"482":-0.023839464388244427,"483":-0.01488096291977673,"484":-0.01243125318120431,"485":-0.0530542497806187,"486":-0.01907923256022266,"487":-0.027603747039955575,"488":0.04179243947757809,"489":0.015157368323153947,"490":-0.007859803805631201,"491":-0.04902376470540764,"492":0.004041245535946213,"493":0.0004051534444537659,"494":0.0434679507546263,"495":0.020337090179618628,"496":-0.05374393198068878,"497":0.01689538685001218,"498":-0.03852628033431466,"499":-0.02657788055651714,"500":0.020682882330663475,"501":-0.055192105389181796,"502":-0.0002195515374358648,"503":-0.05698899674895336,"504":0.03654869249687317,"505":0.019291440892578404,"506":0.02144784770843361,"507":-0.021624623876774884,"508":-0.07882636346461959,"509":-0.030463016694649056,"510":-0.02616367909746839,"511":-0.01642116473620045,"512":0.013016072708719786,"513":-0.06630045890318535,"514":0.0287497972436907,"515":-0.05492110361577787,"516":-0.06595460094193845,"517":-0.016530701821324916,"518":0.06285671014354251,"519":-0.02175877268343224,"520":-0.01803042543417849,"521":-0.027810303300932204,"522":0.07678268536517967,"523":-0.026656325058019494,"524":0.023890696973181327,"525":0.013526565051273092,"526":0.029370823739163575,"527":0.04491856332916564,"528":0.016875681455854417,"529":-0.028047646806990637,"530":0.008956569928224196,"531":0.03948642014179176,"532":0.09134135761542386,"533":0.015021471448571345,"534":0.048826057740261504,"535":0.007445733385333959,"536":0.0036289513042925396,"537":0.007239780676770955,"538":0.030335308454425725,"539":0.01588122063168831,"540":-0.03661528285912687,"541":-0.06285577739774834,"542":-0.00023083425560042924,"543":-0.00858708836797038,"544":-0.029730803601718366,"545":0.04399489430759563,"546":-0.05653566155275179,"547":-0.08411906959122915,"548":-0.005316132906413579,"549":-0.021831219077941697,"550":0.034602094255513416,"551":0.01587178876093744,"552":0.00957511031432242,"553":-0.0077756901368855325,"554":-0.054366117373745027,"555":-0.05164494495559546,"556":-0.07968078270584673,"557":-0.04786781881665012,"558":-0.008021615430195032,"559":-0.023228089728529886,"560":-0.04441382701340568,"561":0.051396822615979394,"562":-0.056482402108445295,"563":-0.022228972138766345,"564":-0.011300317328158557,"565":-0.06254628048218736,"566":-0.10125027762811388,"567":-0.026694246547022633,"568":-0.029996533565017997,"569":0.06931843551176738,"570":-0.036558219905039206,"571":-0.04379071890673362,"572":-0.058919714909177745,"573":-0.07681039028594003,"574":-0.09745124460941897,"575":0.02273661914368814,"576":-0.018443220232094836,"577":-0.03570938446788515,"578":-0.018185217225238137,"579":-0.03203751733147431,"580":-0.017271506754806005,"581":0.02803867959048614,"582":-0.01458881525304741,"583":0.019093216237419684,"584":-0.0025374557270283786,"585":0.015625562074912402,"586":-0.0028228286968499223,"587":0.00586127601769733,"588":-0.0033793378203648304,"589":-0.04416872915473929,"590":-0.08682077029541971,"591":0.004520565304171133,"592":-0.05215841226372678,"593":-0.05672829174826343,"594":-0.022900672877386837,"595":-0.03202885901763065,"596":-0.01267349097121117,"597":-0.029521816890338837,"598":-0.047139874652143185,"599":-0.01681556435162491,"600":-0.004849765683831754,"601":-0.03174240572942993,"602":-0.08405558305737595,"603":-0.01533978105374545,"604":-0.047106038110026505,"605":-0.057856929011838934,"606":-0.06554073609046998,"607":-0.025631372258491346,"608":-0.030918597819206455,"609":0.019239521255529846,"610":-0.0009081539739958102,"611":0.012403798804327409,"612":-0.023175592634784966,"613":-0.03154948205880926,"614":-0.04820303748118253,"615":-0.019788843776222455,"616":-0.019732780697684374,"617":-0.07287766099392239,"618":-0.051317911013299584,"619":0.01187739156472398,"620":0.057789752072762574,"621":0.006941050616823333,"622":0.018476966432258095,"623":0.03095783304979639,"624":-0.010559911579547372,"625":0.008083872801866608,"626":-0.024669495692363975,"627":0.011065801707272028,"628":0.02344662445124986,"629":0.01658629867881159,"630":-0.019501727126885186,"631":-0.04540337710746665,"632":0.02360273423758503,"633":-0.0400588163323036,"634":0.01515271481793919,"635":-0.049650838211894685,"636":-0.020280206757087242,"637":0.010249189664331998,"638":-0.027566410200877987,"639":0.004461438313218656,"640":-0.03303166811649843,"641":0.011455870673429578,"642":0.011139986135124418,"643":-0.029441054821555998,"644":0.06665301315504013,"645":-0.035064162397935625,"646":-0.023190853243224063,"647":-0.04144508100861455,"648":-0.0005637246388770977,"649":-0.013399955065343836,"650":-0.04507907181113221,"651":-0.06896177904647754,"652":-0.03301835683322945,"653":-0.030852784298844298,"654":0.025931121526386543,"655":-0.025794765389042525,"656":-0.0551313799243456,"657":-0.049258947695917515,"658":-0.010835622008236708,"659":-0.0015570201287195165,"660":-0.031057920780154034,"661":-0.07946677328988312,"662":-0.01376887249942024,"663":0.017351664631432503,"664":-0.053705163752333245,"665":-0.023707525595450172,"666":-0.034779754676441225,"667":0.013182769073678834,"668":-0.029617440837420857,"669":-0.004912889981399467,"670":-0.05794660833609871,"671":-0.016944388199683188,"672":-0.04855813769258389,"673":0.02941402594809455,"674":0.011083497738714771,"675":-0.0066654396262511555,"676":0.018322207112263008,"677":0.0006283799665964552,"678":-0.03006859494645413,"679":0.007758007849702146,"680":0.04138722759017138,"681":-0.011972785938127117,"682":0.018880568741555,"683":0.020005441829145532,"684":0.00043888454879424107,"685":0.06342411256462176,"686":-0.06470468647211149,"687":0.08879252026726604,"688":0.03075183700212208,"689":0.01879864080014422,"690":-0.011116859703177048,"691":0.023632029842698476,"692":0.0283644833148508,"693":0.07281258581754965,"694":0.029205058997468603,"695":0.0790385649307235,"696":-0.013375145592562948,"697":0.03533138025256797,"698":-0.0003224516836761329,"699":0.01488726589308054,"700":0.02096093784196557,"701":-0.0276546845495514,"702":0.012930144278961641,"703":0.04428501269836274,"704":-0.013995238453435912,"705":-0.022360470539145475,"706":-0.018442935496793614,"707":0.09147277902851882,"708":0.033299549294720086,"709":-0.009098027292105853,"710":0.11696315476459514,"711":0.017803831677026007,"712":0.1251465918325797,"713":0.008367954981289305,"714":-0.0009920606790092164,"715":0.004516557199291006,"716":0.1044908961595761,"717":-0.002609101503464703,"718":0.020908218347920414,"719":0.025410793734286757,"720":-0.04409204690613378,"721":0.01015292312949067,"722":-0.007045813902841277,"723":-0.07311805183524524,"724":-0.012337305208005167,"725":-0.059677298004451804,"726":-0.060887423139335234,"727":0.023529229513009956,"728":-0.0515015551938455,"729":-0.005069275959735796,"730":-0.02887688515449893,"731":-0.013230695646461862,"732":-0.01828805494487862,"733":0.02102992726854262,"734":-0.12775977883005435,"735":-0.06893081510080479,"736":-0.08743770462091299,"737":-0.07919406306106573,"738":-0.10695655054179432,"739":-0.04133499649199919,"740":-0.03741861072953761,"741":-0.056808077608969644,"742":-0.0886976091950176,"743":-0.08864479015554039,"744":-0.055015441189152435,"745":0.026264029379319407,"746":-0.05873448818525321,"747":-0.012905713040050596,"748":-0.07923220146362729,"749":-0.04563713265203204,"750":-0.06902986031339937,"751":-0.041144107679224745,"752":-0.07138120725508951,"753":-0.09139750801013752,"754":-0.07582684638970073,"755":-0.05254762839210466,"756":0.013010238614178923,"757":-0.05940094326079916,"758":-0.02347682128608078,"759":-0.0485862816463686,"760":-0.015066375012370495,"761":-0.019323561622055774,"762":-0.06379474759898242,"763":-0.04114463078403227,"764":-0.027250229884480576,"765":0.016038653264906014,"766":-0.01749360660302522,"767":0.04705399395972376,"768":0.02250633840968435,"769":-0.053589402392509394,"770":-0.031214012685574097,"771":-0.05882797948600579,"772":-0.08461357089003259,"773":-0.041296287788403614,"774":0.0952114766065142,"775":-0.04441523580607087,"776":-0.02209722262755122,"777":-0.07039080480082126,"778":-0.001825958922953649,"779":-0.08545040465264074,"780":-0.022105924874360472,"781":0.005078047894376121,"782":-0.0493795475965161,"783":-0.04514194182993842,"784":0.01539344088581735,"785":-0.006068069545458509,"786":-0.05409820753883358,"787":-0.0810213279411748,"788":0.011998294783985324,"789":-0.05860792377264782,"790":-0.010030729177149075,"791":-0.06325181374455749,"792":-0.04444292436400865,"793":-0.020292036465105308,"794":-0.04226093896606176,"795":0.023523413687601923,"796":0.014123826005602535,"797":-0.00027960708325410334,"798":-0.010550344816905274,"799":0.017964873650838424,"800":-0.029232813608543413,"801":0.001958690490426532,"802":0.04278513632325641,"803":-0.016593499633025043,"804":0.042197489327427576,"805":-0.016596907605443214,"806":-0.01319076552859105,"807":-0.03387764667902883,"808":-0.02593929179588875,"809":-0.06252041713062739,"810":0.02333245462678181,"811":-0.038206085767656425,"812":0.017841582551295462,"813":-0.02849597409488946,"814":-0.004066677279585012,"815":-0.06347011281528576,"816":0.0198092879214392,"817":-0.024009708477342698,"818":0.06310952816192526,"819":0.008126852820560894,"820":-0.009399673154246673,"821":-0.008207144375932058,"822":-0.03181068599053968,"823":0.02008133187629966,"824":0.004003213423702985,"825":-0.038251700357605084,"826":0.10083726556947764,"827":-0.0008555760557443211,"828":0.048307415992431435,"829":-0.03691361923330373,"830":-0.06273236652257222,"831":-0.048514572458089385,"832":-0.06288751564908372,"833":0.06691813142804971,"834":0.0020911650737168177,"835":0.007900002659115767,"836":-0.022744945007485775,"837":-0.0018371331370816697,"838":-0.052587898796715285,"839":-0.051646733671768114,"840":0.040394699970771164,"841":0.007993063614095157,"842":0.013135341279838203,"843":0.12899728813638187,"844":-0.018085672202847486,"845":0.036130887235334704,"846":0.02450025898555753,"847":0.013845103414678053,"848":-0.07125233696690553,"849":-0.015340629371469619,"850":-0.06770278358118802,"851":0.07809574588140725,"852":0.09732165034257027,"853":0.00829543908791168,"854":0.07238562434173436,"855":0.04596691773958813,"856":0.03827752171932164,"857":-0.013594412689206877,"858":0.05531212803091063,"859":0.010791220953688159,"860":-0.044312462936508444,"861":-0.043960479045817895,"862":0.06822582931835991,"863":-0.040526718700838314,"864":0.018255038455890927,"865":-0.041433718318001966,"866":-0.032779178694924985,"867":0.036816069866251716,"868":0.032691942958749304,"869":0.033115179522696526,"870":0.01655028114048393,"871":-0.004706013524418275,"872":-0.022247809023502443,"873":0.04785157622532799,"874":0.007769220059216746,"875":-0.052983772417670695,"876":0.09468231698359339,"877":0.024777691101219784,"878":0.02666905397668137,"879":0.061970615334458815,"880":0.030254359569757805,"881":-0.010806351440050493,"882":0.0873499658397683,"883":0.009519117667711722,"884":-0.025014594445472427,"885":0.06749147148525754,"886":-0.03544323015075221,"887":0.17342485112559702,"888":0.03174279347524092,"889":0.02388923715227396,"890":0.1349743882903876,"891":-0.006716268049368103,"892":0.006594329362227113,"893":0.09483593340925461,"894":0.012613084218816835,"895":0.01946005157482715,"896":0.13291720671737928,"897":0.002221074240046574,"898":0.11203442807444378,"899":-0.002158573456716782}},{"sx":5,"sy":5,"depth":36,"w":{"0":0.027895929747095843,"1":0.0015130393612981052,"2":-0.09095457865857665,"3":0.15206378495418152,"4":-0.08528929698804694,"5":-0.027772400020377314,"6":0.04306803552811784,"7":0.08472144015584283,"8":-0.024721913375461445,"9":0.019307029411281127,"10":-0.12721195230670174,"11":-0.06387908456323912,"12":-0.12132090200624505,"13":0.04255428445883681,"14":-0.05044761190042691,"15":0.10136272501226867,"16":0.019035825120726043,"17":-0.07684074387491009,"18":-0.008890595408881588,"19":0.19922490655465547,"20":-0.19012082916563383,"21":-0.01662240272636761,"22":0.07978618616915507,"23":-0.0905713975795131,"24":-0.04482482864358787,"25":0.015128378365101966,"26":-0.07731668044589504,"27":-0.018967119553340066,"28":0.019088286877852145,"29":-0.0724614138160668,"30":0.009682063141166423,"31":-0.033700073108611256,"32":-0.0857428233497946,"33":0.04726168003007974,"34":-0.015953031038634425,"35":-0.10128469970391256,"36":0.05096546831734948,"37":-0.008391571304284551,"38":-0.13179789002701423,"39":0.030292273499010484,"40":-0.013397425390057683,"41":-0.0014027320677517563,"42":-0.027993277931668385,"43":0.11457360178766766,"44":0.05073391358738222,"45":0.013955725296415691,"46":-0.06834799722213601,"47":0.03301198083603747,"48":-0.09654800426127096,"49":0.009335010610218778,"50":-0.10125126407012242,"51":-0.019906521246832,"52":-0.025512201765940913,"53":-0.06670109266574094,"54":0.02734803056472159,"55":0.006133022990035019,"56":0.07267485148727264,"57":0.001342110309785852,"58":-0.023583593166222792,"59":-0.011818954437282534,"60":-0.02347374737690484,"61":0.013975653943899474,"62":-0.007874526103646175,"63":0.006699927731453444,"64":-0.11405515593326548,"65":0.07299948778322461,"66":0.07786813061076397,"67":-0.06304708494063599,"68":0.12868520339721384,"69":-0.045351390078768435,"70":0.04763067087647211,"71":-0.016565387015055884,"72":-0.12796874529602673,"73":-0.026839520507553047,"74":-0.06154782254604531,"75":-0.07839320162884572,