{"layers":[{"out_depth":1,"out_sx":26,"out_sy":26,"layer_type":"input"},{"sx":5,"sy":5,"stride":1,"in_depth":1,"out_depth":8,"out_sx":26,"out_sy":26,"layer_type":"conv","l1_decay_mul":0,"l2_decay_mul":1,"pad":2,"filters":[{"sx":5,"sy":5,"depth":1,"w":{"0":-0.9216048905192286,"1":0.11479042392133892,"2":0.20331093140523834,"3":0.004296700016645719,"4":-0.7550309326553326,"5":0.38693587749889913,"6":0.02839584656177856,"7":0.47026138780296683,"8":0.12685151667914493,"9":-0.7572366741998683,"10":0.1685198510529406,"11":0.39181497140166427,"12":-0.03277923236794132,"13":0.3900991397912273,"14":0.04824561162455609,"15":-0.13888977298419553,"16":0.358082664201101,"17":0.2834897743151009,"18":-0.3789895309982238,"19":0.025758915926779143,"20":-0.07759293180708583,"21":0.39196799148708866,"22":-0.2874590214537571,"23":-0.446894531191127,"24":0.15150261568304965}},{"sx":5,"sy":5,"depth":1,"w":{"0":-0.11786155681677604,"1":-0.15998254568997372,"2":-0.3002349995475894,"3":0.3324104300590913,"4":0.45244894926455165,"5":-0.4201648658939268,"6":-0.3306737190114023,"7":-0.1622708249250873,"8":0.3011753752361521,"9":0.5130556766648728,"10":0.0358008018589277,"11":-0.976009707774073,"12":-1.537801643413692,"13":-0.21504377544610298,"14":-0.007306421294709665,"15":0.8395589690332635,"16":0.26429065420102227,"17":-0.6495752208630546,"18":-0.009357831551458272,"19":0.5646757358665919,"20":0.7564042932721327,"21":0.459517678647923,"22":-0.6096000637232617,"23":0.058183724218636906,"24":0.29806257447186657}},{"sx":5,"sy":5,"depth":1,"w":{"0":-0.21725601468361863,"1":-0.14199859432935852,"2":0.3794650201164668,"3":-0.5289935810422883,"4":0.6574482308694419,"5":0.044470586739017055,"6":-0.38476368601037375,"7":0.44984481490051764,"8":-0.22942286577787532,"9":0.4962767187569418,"10":0.05305402725629564,"11":0.09422776890845878,"12":-0.4887659135560382,"13":-1.0930182141075424,"14":0.5385926159671142,"15":-0.05897984145585252,"16":0.3722667780003347,"17":0.49726969132593835,"18":-0.8661542787702581,"19":0.01814546799534243,"20":0.44980135925985965,"21":-0.05228960340727736,"22":0.008227470571418684,"23":-0.42688052232204426,"24":0.39697972599155157}},{"sx":5,"sy":5,"depth":1,"w":{"0":-0.38621579685459656,"1":0.08984949102131899,"2":-0.2233972181855218,"3":-0.7460167468416976,"4":0.09050806645165588,"5":0.2089150359851219,"6":0.3245688535560886,"7":0.14773826687023195,"8":0.31559712882231666,"9":0.7160053211558944,"10":-0.4356732014375038,"11":0.3056876095958164,"12":-0.48352286632781066,"13":-0.3882481982090377,"14":0.21240661558130663,"15":-0.03164861886307536,"16":0.3381050425678999,"17":-0.4897333602817393,"18":-0.6837601585980867,"19":0.20609164599173668,"20":0.23070243261872772,"21":0.4215945401419453,"22":0.20408550737286385,"23":-0.43744147601845074,"24":0.2024907101159785}},{"sx":5,"sy":5,"depth":1,"w":{"0":-0.06002411210947137,"1":-0.2542353136424545,"2":-0.5439710401322673,"3":0.6833783895266079,"4":0.5795136533529075,"5":0.222427675001127,"6":0.26938285323083533,"7":-0.3606943517909343,"8":0.5791664456474568,"9":0.6716572754351136,"10":-0.10793065373714765,"11":0.27537890782335683,"12":-0.11644065017393466,"13":0.5655357881882732,"14":0.5098311178630444,"15":-0.3233128754417229,"16":-0.09206789754493418,"17":-0.07908580796605626,"18":0.1592907270223258,"19":0.49884076588717,"20":-0.5453773568714639,"21":-0.5452853052938298,"22":-0.6604189581227108,"23":-0.7128525898570708,"24":-0.3761344261081975}},{"sx":5,"sy":5,"depth":1,"w":{"0":0.3329091791470651,"1":0.03282642316251435,"2":0.2137495332343085,"3":-0.5863002863324297,"4":0.2054049942825838,"5":0.6384912910355706,"6":0.6728877437061147,"7":0.19216750956214165,"8":-0.7533695566479647,"9":0.3399607316874661,"10":0.4246987720573186,"11":0.33001403136567203,"12":-0.3822040266104973,"13":0.1910434480719308,"14":-0.467415448282727,"15":0.1636280585704118,"16":0.12581000574735715,"17":-1.0424037511276205,"18":0.08379715043107379,"19":-0.2500668182142221,"20":-0.3681563149216747,"21":-0.40689015759720765,"22":-0.03750723576621965,"23":0.15066558095191712,"24":0.10913005890364104}},{"sx":5,"sy":5,"depth":1,"w":{"0":0.19332589993944105,"1":-0.5184314436085492,"2":-0.47566014291934827,"3":0.12661446577785837,"4":0.5845701090173437,"5":0.40449168698193627,"6":0.5744139928813097,"7":-0.47703446703068053,"8":-0.7770155642533829,"9":0.21724421739870015,"10":0.3597493927560255,"11":-0.48897237371076857,"12":-0.018417315155349792,"13":-0.7801570335555504,"14":-0.6477718857546331,"15":-0.5861745898814189,"16":0.23352111724580674,"17":0.06563480441213156,"18":-0.3464240060320094,"19":0.38439032152437913,"20":0.23522964720716108,"21":0.03540799464592537,"22":0.5022192877018787,"23":0.41945468015949605,"24":0.26166473937267826}},{"sx":5,"sy":5,"depth":1,"w":{"0":0.35957139921101045,"1":0.3478944176334019,"2":-0.5398938560635405,"3":-0.29042410737722446,"4":0.013269178507856805,"5":-0.00044867031034666885,"6":0.5584481257615274,"7":-0.41260661832047685,"8":0.01763596711884524,"9":-0.3259021536729653,"10":-0.5855380723102793,"11":-0.47287076971674513,"12":0.2695636763421934,"13":0.5517050570153007,"14":0.35612128863735093,"15":-0.39637761121116705,"16":-0.32450610494702,"17":0.36517205607590386,"18":0.2484157196334506,"19":0.4306492875138943,"20":0.4509580368046807,"21":-0.23936190522480597,"22":0.29665225421640845,"23":-0.6088690181158215,"24":-0.532226857511306}}],"biases":{"sx":1,"sy":1,"depth":8,"w":{"0":0.19207450790661562,"1":0.569382675956953,"2":0.3710459691834856,"3":0.10462088715819669,"4":0.1945129936843543,"5":0.1423072353527793,"6":0.4043051388764865,"7":0.25446165449995}}},{"out_depth":8,"out_sx":26,"out_sy":26,"layer_type":"relu"},{"sx":2,"sy":2,"stride":2,"in_depth":8,"out_depth":8,"out_sx":13,"out_sy":13,"layer_type":"pool","pad":0},{"sx":5,"sy":5,"stride":1,"in_depth":8,"out_depth":16,"out_sx":13,"out_sy":13,"layer_type":"conv","l1_decay_mul":0,"l2_decay_mul":1,"pad":2,"filters":[{"sx":5,"sy":5,"depth":8,"w":{"0":-0.44302972600896495,"1":-0.006624149923695634,"2":-0.03058385450875506,"3":-0.016315795144506318,"4":0.12791510763440062,"5":0.1398422102057928,"6":-0.1436310588096766,"7":-0.03815615061008722,"8":-0.13970020545525774,"9":-0.32231813913098034,"10":-0.2050993195712234,"11":-0.40089903012850747,"12":-0.008098507717230006,"13":-0.017070712000057726,"14":-0.35302437937531334,"15":0.05107531427299492,"16":-0.23124998568067898,"17":-0.10672012940387492,"18":0.22614303248077033,"19":-0.17738902735451065,"20":0.33185607470073725,"21":0.16545291672075005,"22":0.0524854701671898,"23":-0.1454359071700898,"24":-0.09532781990832286,"25":-0.12499385738542904,"26":0.11914757024900059,"27":-0.34909855420910624,"28":0.10977622644246716,"29":-0.06115143397579144,"30":-0.05795486111128671,"31":-0.023913750536166418,"32":-0.2746464737008612,"33":-0.07671078371211781,"34":0.141621140706237,"35":-0.25969381316624973,"36":0.04428447471023133,"37":-0.1322623835676136,"38":-0.15962735749675622,"39":-0.2685200797422916,"40":-0.14656554122950957,"41":0.38450236011590055,"42":0.30955342147384723,"43":0.04101391387342271,"44":-0.06596436984735986,"45":0.12061386797850603,"46":0.16991437911212642,"47":0.18028566759481413,"48":0.17409414499478915,"49":0.3318449590200485,"50":0.09221044608529433,"51":-0.07140382914868128,"52":0.06316555252389051,"53":-0.1219658247920189,"54":-0.2112772405236085,"55":0.4232500506315035,"56":0.012781441739363365,"57":-0.313695271618619,"58":0.0026511232225234823,"59":-0.18906883632397858,"60":0.01848706611623301,"61":0.6831326199922795,"62":0.6414202294688284,"63":0.05613545724636568,"64":0.13572122825626703,"65":0.24344585348904105,"66":0.4494354441946592,"67":-0.28245051913349595,"68":-0.325752228057651,"69":0.2636487110075918,"70":0.5123357734022648,"71":-0.20889158561919935,"72":-0.12157685094008491,"73":0.5226439474862105,"74":0.36803299580163784,"75":-0.1079836171708058,"76":-0.035519374985996464,"77":-0.6415545554979777,"78":0.31100659871624375,"79":0.7306263514511786,"80":0.0029013787383769,"81":0.17142167164276478,"82":0.151436083532611,"83":-0.06159183169599154,"84":-0.18625027786311701,"85":0.3202821138961761,"86":0.2357569045528921,"87":0.34144379549207793,"88":0.2229428810434596,"89":0.20734973783165864,"90":0.7001209340331107,"91":0.2452531836802774,"92":0.17832476244345205,"93":0.29185694243145904,"94":0.18982577727256839,"95":0.18489068485752522,"96":-0.1382723261455408,"97":0.3415805330719369,"98":0.03764304383278284,"99":-0.31648111423562664,"100":-0.3352831863287964,"101":-0.014160931347978488,"102":0.22392776461758632,"103":0.5675904948830924,"104":0.34270695642646243,"105":0.10591578357334565,"106":-0.1421046015019,"107":0.2534189367068156,"108":-0.15683811355317712,"109":-0.3381762312866939,"110":-0.08910268889916997,"111":0.21799775755988154,"112":0.1784800913298109,"113":0.07786792535862855,"114":0.24380253312879308,"115":0.3975668612344467,"116":0.20160699775384416,"117":-0.258220320898923,"118":0.10932896711997515,"119":0.18405767210963542,"120":-0.04947089876734897,"121":0.10433810686262632,"122":-0.4313469850516645,"123":-0.5478157925711339,"124":-0.1653626739129378,"125":0.2340180014361567,"126":-0.036575781717627494,"127":0.6066569322897145,"128":0.09977833787808842,"129":0.02151755699711275,"130":0.4894459783352778,"131":0.25083677894555123,"132":-0.5470247706939771,"133":0.014342188494620964,"134":0.23254134980398594,"135":0.6612334957550445,"136":-0.35531714327562197,"137":0.5281592801347591,"138":-0.07264364816534412,"139":0.133735745304568,"140":0.031658661573878685,"141":-0.41152967143257413,"142":-0.07920020343390193,"143":-0.472203493159981,"144":0.07764722756755751,"145":-0.4046016229999942,"146":-0.22902574502662665,"147":0.05960926838210282,"148":0.11847822925069805,"149":-0.5911612503611077,"150":-0.30676985279121044,"151":-0.06940659633539506,"152":0.20795634009600442,"153":-0.1358643575366075,"154":-0.10386454284410972,"155":-0.008111600213254777,"156":-0.13415285505834088,"157":-0.16509192948409382,"158":-0.11997167454810016,"159":-0.1554992264764085,"160":0.027015916764260045,"161":0.04761457768459645,"162":0.018347023531054288,"163":-0.08513684426649025,"164":0.14543188973180926,"165":-0.5716036532311262,"166":-0.4184221926014009,"167":0.7970896266277766,"168":0.4860264770918086,"169":-0.40299280613423,"170":0.6406153349130713,"171":0.29206014798317936,"172":0.05512132536995372,"173":-0.061874676899563934,"174":0.30150405985742434,"175":-0.07576999085214686,"176":0.09397357135804081,"177":0.17571683982532552,"178":-0.5222236674936801,"179":0.01825819669570658,"180":0.05077690832810783,"181":-0.017981624802323452,"182":-0.21394592935334153,"183":-0.19493023793027858,"184":-0.1269929444470529,"185":-0.48061758320650144,"186":-0.33531519843305047,"187":-0.13707061106551588,"188":-0.1994368246244708,"189":-0.00294999956916962,"190":-0.06654605264956492,"191":-0.21316921330871122,"192":0.31744140819851724,"193":0.2011453969030508,"194":-0.06612234168756366,"195":0.3167327053358468,"196":-0.3673197781531093,"197":-0.020418851210620047,"198":-0.2272996980246843,"199":-0.559842442848462}},{"sx":5,"sy":5,"depth":8,"w":{"0":-0.06494089746850816,"1":-0.18080195723732817,"2":-0.31820527849691027,"3":-0.18979751910516435,"4":0.11329047283661442,"5":0.047598171538218575,"6":-0.1897322834524559,"7":-0.15517093488579967,"8":-0.18187995930948656,"9":-0.020738556832091474,"10":-0.15203705131534806,"11":-0.3713505615826177,"12":0.09866487071178857,"13":-0.1380843308662137,"14":-0.05050700654784765,"15":-0.02506835852247476,"16":0.009614061742612812,"17":-0.1763026659752959,"18":-0.11033306474425375,"19":-0.06677943364422509,"20":-0.047605507316336275,"21":0.052790445530102564,"22":-0.12365068510053909,"23":-0.09399953942775334,"24":-0.15867017859906232,"25":-0.03825372554332892,"26":-0.06814536859969444,"27":-0.26120840187448097,"28":-0.2697205649107916,"29":0.13524665172369094,"30":0.1726015893142204,"31":-0.17363413551368576,"32":-0.2932153814463656,"33":-0.16967657185431775,"34":-0.2836041050961665,"35":-0.13036349032907085,"36":-0.2715728785746696,"37":-0.2171283054083458,"38":-0.14171045185440242,"39":0.14996071883327172,"40":0.10167530608295001,"41":-0.022821517570072825,"42":-0.041903126519272374,"43":0.08906338642005415,"44":0.038694129514552214,"45":-0.038587147895385025,"46":-0.11038167753953379,"47":-0.24891068879253536,"48":0.08958604759499242,"49":-0.137912857409844,"50":-0.0770141020233511,"51":-0.10194040358884059,"52":-0.10539189048051163,"53":0.13814748183734368,"54":-0.06130105250833172,"55":-0.10115850242704888,"56":0.018227811349719503,"57":-0.16018716802370495,"58":0.042907874808367344,"59":-0.18325446097501283,"60":-0.07724134126075081,"61":0.34012643224986333,"62":0.3183750132325372,"63":-0.055512089967391126,"64":0.05498077304248021,"65":0.15688445016011474,"66":-0.05534196713186221,"67":-0.010370498525437815,"68":-0.018582164368569506,"69":0.1531647385875519,"70":0.26461488202743694,"71":0.048761054998368046,"72":-0.03661690109154764,"73":-0.45790992448447354,"74":-0.1724963529845596,"75":-0.2000339031486766,"76":0.018109187419693234,"77":-0.2159939603376368,"78":0.0021797729607256427,"79":-0.019452341495359165,"80":-0.08242412339781349,"81":0.3488814942788941,"82":0.17979111535456124,"83":-0.06854947535785977,"84":0.10734002616411906,"85":-0.0532561353125378,"86":0.0756125364025336,"87":-0.006257891240320452,"88":-0.11707771828011884,"89":-0.3493075951017203,"90":-0.08227971426875062,"91":-0.4811851363969719,"92":0.16843030195748382,"93":0.07607348217126013,"94":-0.043798393540085266,"95":0.052789946411388115,"96":-0.2677659869099397,"97":-0.18386213302784526,"98":0.1845270488899697,"99":0.04766527717698044,"100":0.023113070558866928,"101":-0.10918159009948387,"102":0.42162708622902206,"103":0.09899910357652655,"104":-0.3857099282529068,"105":0.48093996384694815,"106":0.04983906442641423,"107":-0.01677148288498379,"108":0.1794819538718905,"109":-0.05040918228564943,"110":-0.18392682276154815,"111":-0.09123719397803527,"112":0.19209718144490054,"113":-0.428412758937841,"114":-0.29256458861732393,"115":-0.005313470602311601,"116":0.21329826494959694,"117":-0.2379403406667002,"118":-0.23424798682717907,"119":0.05367979667634857,"120":-0.051243886182894126,"121":0.9470996148573781,"122":0.1991501858059748,"123":0.33255056137744593,"124":0.05085559626431001,"125":0.31042882758576673,"126":0.25786026412904467,"127":0.11235330739794287,"128":-0.018259962371649226,"129":-0.10033041142570673,"130":0.09263945758375651,"131":-0.09069333497736343,"132":0.18145222150140985,"133":0.12012244921413885,"134":-0.25169923542738254,"135":0.29168052789723736,"136":0.22914207507288084,"137":-0.11112435566695815,"138":0.5035376982204884,"139":0.33834268665105843,"140":-0.164172371508942,"141":0.32945767921096347,"142":0.10968596690757715,"143":0.05179830588334897,"144":-0.1768586273941158,"145":0.4688138803050557,"146":0.1490156739362277,"147":0.3209263986794132,"148":0.2784633593687791,"149":0.12238636929042027,"150":0.10346689564146487,"151":0.12664028921113474,"152":0.283737625788738,"153":-0.2715818645755193,"154":-0.03212942085137775,"155":0.17800423250912306,"156":0.2455709937228098,"157":-0.07319497492754003,"158":-0.25416966147810255,"159":0.38155364712608214,"160":0.117554291989646,"161":0.8291336139156624,"162":0.2669124539905498,"163":0.4567338183906278,"164":0.12747481032897964,"165":0.15366847517717142,"166":0.49132325191530407,"167":-0.01962568756436241,"168":-0.2151769615554062,"169":0.5635916107376534,"170":0.15128908332356997,"171":-0.3527377132557606,"172":0.14850217830305065,"173":-0.041229072762586055,"174":-0.36436337639920874,"175":0.3473856943851889,"176":0.42899883088802404,"177":0.05691755721033606,"178":0.5904702952093104,"179":0.14061523534771808,"180":-0.17701398815363545,"181":0.30785460558215744,"182":0.26850855315115735,"183":-0.03014520612031529,"184":-0.2583742050429294,"185":0.16543845473711885,"186":0.05730603436993321,"187":0.05213043617090155,"188":0.28090795819706466,"189":0.18151652235927182,"190":0.1795510242350238,"191":0.15152795199306804,"192":0.20674713283705443,"193":-0.3152386016730933,"194":0.0034010545462491797,"195":0.17726460345980047,"196":0.08309315115488967,"197":0.012313086609938032,"198":-0.20619246708419975,"199":-0.44677329461716575}},{"sx":5,"sy":5,"depth":8,"w":{"0":0.0804035810571669,"1":-0.18845803524268284,"2":0.03556294108109662,"3":0.23038559225444,"4":-0.3655412488610087,"5":-0.3618390646132733,"6":-0.06708433525222839,"7":-0.1095068093971452,"8":0.17571634666971664,"9":0.4551034762498046,"10":0.1331118799140093,"11":0.14094311569884746,"12":-0.014246844630262104,"13":0.3466015497544095,"14":-0.5268551382043497,"15":0.09248320169911295,"16":0.002379633587756485,"17":-0.20046263796468755,"18":0.1429138145645523,"19":-0.13219464899186872,"20":-0.0877317841372852,"21":0.1754337589990924,"22":-0.012944244578018236,"23":-0.08512419769747086,"24":0.12993139725751401,"25":0.4476306882976294,"26":0.39673474715654544,"27":0.243267336065661,"28":-0.0007048919894129187,"29":-0.23417814240274373,"30":-0.08347870853050109,"31":-0.23675566023791114,"32":0.3162530534911267,"33":0.24945345816742828,"34":-0.37659528096437694,"35":0.04833007140277888,"36":-0.017986501257675837,"37":-0.3289224587645318,"38":-0.7971298666086656,"39":0.009325308529309666,"40":-0.035572685629288496,"41":-0.2057866096714015,"42":0.04427322700996111,"43":-0.060464858200640945,"44":-0.4117332528784054,"45":0.10054473779613818,"46":0.32461116885715263,"47":-0.3268953823360453,"48":-0.6275714544635153,"49":0.5382062855486118,"50":-0.02861461044894334,"51":-0.005752614439924487,"52":0.2137111000230393,"53":0.11684702392268782,"54":0.019342605760374363,"55":0.009381194290763268,"56":0.283692375729126,"57":0.01947225912128831,"58":-0.00546855513569401,"59":-0.3369887496859533,"60":-0.23078750454874392,"61":-0.10436984691754632,"62":-0.556129490348137,"63":0.46391827521819506,"64":-0.07211570342238639,"65":0.0890982088972026,"66":0.5056084236853369,"67":0.05091023789916339,"68":0.4111118960649024,"69":0.035074750266700185,"70":0.1159665801273996,"71":0.14243843770008702,"72":0.08305813596603054,"73":-0.2034672137691869,"74":0.04445002693336983,"75":0.039296978224352866,"76":0.22412802698065573,"77":0.018429650473342062,"78":-0.24507429734674346,"79":0.12928929891117666,"80":0.2942816194285661,"81":-0.4054314119810102,"82":-0.17434928417936774,"83":-0.43358652621053895,"84":0.3201618648044109,"85":0.4607800257164809,"86":-0.41405212698457283,"87":0.23537605748443916,"88":-0.605446909133296,"89":-0.14734421036612647,"90":-0.08510671319418787,"91":-0.1184076558890598,"92":0.8292757173819724,"93":0.5672493157610399,"94":0.46129197813386397,"95":0.39950637517001136,"96":0.18241480600141927,"97":0.033124938237826015,"98":0.23894946984981053,"99":-0.6291301001016983,"100":0.1374848690049287,"101":0.06706404445251099,"102":-0.1588312637353801,"103":-0.0038877600246751487,"104":-0.15440101583496582,"105":-0.6200629577260774,"106":-0.023408621130003034,"107":-0.599089951161423,"108":0.4036993162293571,"109":0.4575365099434111,"110":0.22381638397400375,"111":0.6577597860702573,"112":0.04186960089379095,"113":-0.07231982504878633,"114":0.3084569866856401,"115":-0.15703847867324344,"116":-0.09358524444095122,"117":0.1846090063913351,"118":0.4664228432539469,"119":-0.5362485804044916,"120":-0.37206663212301455,"121":0.12848308550827406,"122":-0.34156036009283086,"123":-0.15286831550322003,"124":-0.2909609168625006,"125":0.030832656619042456,"126":0.3096232264058655,"127":-0.5946864894115392,"128":-0.049542946746411645,"129":0.21660760571416957,"130":0.34981262531173996,"131":-0.1499054979157814,"132":-0.37784782547485973,"133":0.156465516490903,"134":0.4511410002653078,"135":0.07789147182323536,"136":-0.6698214761084232,"137":0.22914630631969074,"138":0.32105439579907186,"139":0.41584441130511934,"140":-0.014062560234484033,"141":0.2276048504655454,"142":0.2867772316101442,"143":0.3916658369178158,"144":-0.3879480045821144,"145":-0.014892014451130886,"146":-0.44133768986333693,"147":-0.4921724273420042,"148":-0.006498898243299724,"149":-0.5155755222372815,"150":-0.34926603254663074,"151":0.4501329425547559,"152":0.5515549900934178,"153":-0.4438184909537882,"154":-0.5979598960217152,"155":-0.06397812275250322,"156":-0.029595519098196663,"157":-0.2809565682903236,"158":-0.1941735026906285,"159":-0.20872215079686673,"160":-0.18173911127534195,"161":-0.3434379119364795,"162":-0.30481345516710456,"163":-0.029234171868729977,"164":0.12601417005492438,"165":-0.08816746506667497,"166":-0.27535931911505623,"167":0.6151703676072638,"168":-0.24081976188897983,"169":-0.2426067660042719,"170":-0.103091834124147,"171":-0.1288278553021628,"172":-0.2918531513467844,"173":-0.2514161621071844,"174":0.2549670881070199,"175":-0.03793754340784141,"176":-0.05279637222551264,"177":0.1041210453034677,"178":0.018590815855767006,"179":-0.16607222974432678,"180":0.0554578235594021,"181":-0.5499701220939838,"182":0.39261689720290577,"183":-0.17762307968249946,"184":-0.20997590465750396,"185":0.16546517380212816,"186":-0.17298668219874544,"187":-0.07857413684763385,"188":0.5108349254036527,"189":-0.19318752059069594,"190":-0.3555253260922682,"191":0.15228582391300954,"192":0.007492295213161659,"193":-0.3983831340616727,"194":-0.4039860179701708,"195":-0.14160325677108637,"196":0.34798599643176586,"197":-0.4531050790796145,"198":-0.7750027973212377,"199":-0.3809628371065242}},{"sx":5,"sy":5,"depth":8,"w":{"0":0.12093436930209386,"1":-0.35613887852078663,"2":-0.3029323763693486,"3":-0.048773529723166065,"4":0.13786030299371224,"5":0.0353261183641782,"6":-0.2548973797847524,"7":-0.07718943906454444,"8":-0.2209571751954346,"9":-0.3639510585328112,"10":0.13529368819688786,"11":-0.18589842124738484,"12":-0.36523873481511815,"13":-0.017126347901826874,"14":-0.10245001849217758,"15":-0.07640334452116322,"16":-0.3598255306381652,"17":0.10365799610177445,"18":-0.0694091344076121,"19":0.11302258775079588,"20":0.3746056582216992,"21":-0.21488148794069903,"22":-0.3543348104817998,"23":0.3407801960490813,"24":0.06426521839921717,"25":-0.2843676447712084,"26":-0.11484940337403783,"27":-0.6967109694789217,"28":0.1869853917448065,"29":-0.0448252470998816,"30":-0.04964976817663308,"31":-0.13158951562837845,"32":-0.09065287045165242,"33":0.43736265314853173,"34":0.4637631976635836,"35":0.2820374708606813,"36":0.21119164906016763,"37":0.3527663576958157,"38":0.16230798217679035,"39":0.2290188854991826,"40":-0.23212338602314986,"41":0.26856395150611784,"42":-0.20276421150876853,"43":0.003289222244026886,"44":-0.12672918514299564,"45":-0.2720239836328871,"46":-0.15831161124485593,"47":-0.1710449517989968,"48":0.28163206995253753,"49":-0.04984427276552565,"50":-0.028224753954031696,"51":-0.062090555796707254,"52":-0.4296076405697351,"53":0.32312953173665476,"54":0.34254978731460173,"55":-0.4939009153216521,"56":-0.3053308463154044,"57":0.6997999580550659,"58":0.8134030449322066,"59":0.7988586284503929,"60":0.06526650208551095,"61":-0.2900917143888043,"62":0.21530402891490458,"63":-0.3912966632902449,"64":-0.06207240242051759,"65":0.7661777918360047,"66":-0.40635152242156575,"67":-0.03281809636571157,"68":-0.12340325639604864,"69":0.1511235413114966,"70":-0.7740090816119501,"71":0.7129118408035957,"72":-0.08626861233530658,"73":-0.6105082343608986,"74":-0.016177472511738573,"75":-0.5382506060957305,"76":-0.1838012024845194,"77":0.24707651335979008,"78":0.770606745426345,"79":-0.010680170507940857,"80":0.1546292241387796,"81":0.616354929919826,"82":0.44567856828527674,"83":0.42176185732905136,"84":-0.13991420714505362,"85":-0.5110173329705154,"86":0.08110163035468299,"87":-0.2623121320058141,"88":0.005606697076274453,"89":0.22225557453505604,"90":-0.1860916236415371,"91":-0.1602162226926747,"92":-0.2701751996059543,"93":-0.22557846577257673,"94":-0.5149485656486372,"95":0.04392671863001032,"96":0.06632494580586161,"97":-0.3261592213405354,"98":0.07812102198240525,"99":-0.16566941026963564,"100":-0.38474040944294713,"101":0.05494992653198309,"102":0.8061418212791414,"103":-0.018051719689154214,"104":0.16229072005083253,"105":0.6995559137075328,"106":0.20858464412459243,"107":0.5057034902232085,"108":0.17560040784029096,"109":0.060180619854541005,"110":0.16376770751963385,"111":-0.014685799757459882,"112":0.02207414520285031,"113":0.07602594048133049,"114":-0.5293710200825275,"115":-0.5054102738537362,"116":0.20484902350328157,"117":-0.5333776210712909,"118":-0.5560554770245775,"119":1.081320839674333,"120":0.1775721689997663,"121":0.4448479494588048,"122":0.4888748850147165,"123":0.3154068403244525,"124":-0.35825112956626204,"125":0.02192585522102637,"126":0.6373076073194713,"127":-0.7159696349038113,"128":-0.9891678192819826,"129":0.2846109878694538,"130":0.19288048780704914,"131":-0.054776180151816,"132":0.020180667717968604,"133":-0.05570372598762179,"134":-0.008411244700545358,"135":-0.06888694368244883,"136":0.5161629538477899,"137":-0.5646604349397428,"138":-0.3986924150108332,"139":-0.3243497990019203,"140":-0.2048220126758845,"141":0.0729164649247871,"142":-0.304306160779628,"143":0.15524896972281904,"144":-0.16261155949380451,"145":-0.35555740177719003,"146":0.1549946906019763,"147":-0.2563850624317942,"148":0.10724263828815973,"149":0.41946765907212996,"150":0.7046865724218111,"151":0.2201029117478791,"152":0.014785478240820911,"153":0.4245916951616443,"154":-0.027812521916739785,"155":0.1820967646164557,"156":-0.02607562140155849,"157":-0.32941193645723615,"158":-0.805597470808707,"159":-0.18245626848627713,"160":0.21821847720219692,"161":-0.522317973127809,"162":-0.12316152166742246,"163":0.006006304314729485,"164":0.01230673906751009,"165":0.7284311871246969,"166":0.4986562356095446,"167":0.24751676042666068,"168":-0.17919219738700942,"169":-0.04027751392200098,"170":-0.09614659060187157,"171":-0.2204611066219503,"172":-0.060666488701560446,"173":0.018004112460336737,"174":0.20192793579564,"175":-0.11247843256863103,"176":-0.073548866127847,"177":0.21936073668277029,"178":-0.22508592755780168,"179":0.019916211111739288,"180":-0.054571430271760965,"181":-0.2812810879077714,"182":-0.22561387171860317,"183":-0.32555073511764115,"184":-0.114983988341407,"185":-0.6590245701896941,"186":-0.3918911866185424,"187":-0.5464680407325586,"188":-0.01647523895095432,"189":0.048076180562826504,"190":-0.32298904335321665,"191":0.38995994593994315,"192":0.039605361960566646,"193":-0.055352366659932935,"194":0.4424671954306617,"195":-0.17337990655800303,"196":-0.00794923814574009,"197":-0.1709645238789655,"198":0.34171754571290297,"199":-0.14946077086739754}},{"sx":5,"sy":5,"depth":8,"w":{"0":0.24846710485635995,"1":-0.18589363579046392,"2":0.42052423903251523,"3":0.06271990149884048,"4":0.4175094128714355,"5":-0.20175167371366465,"6":-0.42893405296668546,"7":-0.07353713052360362,"8":0.44254921568251665,"9":-0.08635351535334804,"10":-0.026099617152272735,"11":-0.044260609287558574,"12":0.20130237926312292,"13":0.47291453563188235,"14":0.2509311581167647,"15":0.34249192963723285,"16":0.2410629218065896,"17":0.06431718230884934,"18":0.28635326935073424,"19":-0.2852369301126713,"20":-0.06755400627393636,"21":0.46116527605288865,"22":0.29379726922344257,"23":-0.181393370506267,"24":-0.027669262403102062,"25":0.31020671945716255,"26":-0.14903477604028698,"27":-0.0904691242860928,"28":-0.09894421703844286,"29":0.25661657974640406,"30":-0.03564875423769637,"31":0.07120909932535882,"32":0.059077822577419455,"33":-0.2110588131072534,"34":-0.27518140564379867,"35":-0.1295023839683345,"36":-0.14199308992476503,"37":-0.5187641310108145,"38":0.3117087468059871,"39":0.20591436423547502,"40":-0.22059681270626513,"41":-0.060416456652026045,"42":0.3735269678681874,"43":0.030478406714310635,"44":-0.07765123023464883,"45":0.2971237918612916,"46":0.004726206499884046,"47":-0.5709243448297062,"48":-0.3298971411270861,"49":0.10219335369928745,"50":-0.1498469988778899,"51":-0.00868810102098428,"52":0.27860059946079446,"53":0.12984057415799177,"54":0.07109595859118434,"55":-0.3302021346871056,"56":-0.11790578576241509,"57":-0.2220423537945709,"58":-0.014140260791844623,"59":-0.37942845533124475,"60":0.10195556794412157,"61":0.4286213889571681,"62":-0.02392237703906214,"63":0.46368379220116557,"64":-0.4504603038938499,"65":0.004924344854384477,"66":-0.03762602862753855,"67":-0.17173973881868643,"68":0.7193867774652072,"69":-0.1427077914168567,"70":0.4185484146975198,"71":0.22330616704500253,"72":0.19205006057606805,"73":-0.028649423395627822,"74":-0.1063226155530893,"75":-0.10456256185119338,"76":0.2871666763538523,"77":-0.19037819269992476,"78":-0.7538602973463202,"79":-0.1383857244104676,"80":0.1281501546829997,"81":-0.33060635862152143,"82":0.11718978879088673,"83":-0.10098215145614947,"84":-0.4646178699532076,"85":0.08114334886050036,"86":0.05041919148298621,"87":-0.003446220883728413,"88":-0.39617904008062477,"89":-0.0637860999774557,"90":0.1404576823086142,"91":-0.1674434430422899,"92":-0.10826574510489001,"93":-0.037105211631306916,"94":0.14926963972446156,"95":-0.18813552347271614,"96":-0.7847715579646198,"97":0.4343954576200337,"98":-0.11304793760597198,"99":-0.2674224575482538,"100":0.004290286426868592,"101":-0.27286564261815077,"102":-0.3646670894329773,"103":0.2505347410800489,"104":-0.1180988112842265,"105":-0.35036202737356437,"106":-0.42172338814335886,"107":-0.057380017695431655,"108":0.11748368743118609,"109":-0.4182268226373539,"110":0.16300687719391754,"111":0.10174689156089232,"112":-0.1940150746767611,"113":0.2352968418248224,"114":-0.11900366515311452,"115":-0.013165547800923348,"116":0.2106336069033695,"117":0.1984440128055351,"118":0.0782701929984958,"119":-0.06271145357633053,"120":-0.005138066629114097,"121":-0.09030168135954929,"122":0.10908034443460585,"123":0.07701705317850553,"124":0.039408934855675454,"125":0.09025677908730963,"126":-0.20961064226729073,"127":-0.2653536831964286,"128":-0.25578912740431187,"129":-0.3298746417260861,"130":0.39560903043817186,"131":0.7930470013130523,"132":-0.09419749011997787,"133":-0.12212428585245298,"134":-0.01683990551960892,"135":-0.07549468100618358,"136":-0.3223597326394491,"137":0.4160880210354658,"138":-0.5307782452391869,"139":0.183900492054681,"140":0.291440478519021,"141":0.08479186867055666,"142":-0.1819790280056496,"143":-0.12427643507787459,"144":0.246226925366248,"145":-0.5131583239227319,"146":-0.31104477501875083,"147":-0.1768302625540446,"148":-0.08505318935137275,"149":-0.17523196667290938,"150":0.0046431879771099,"151":-0.29985632408649876,"152":0.39756326300889205,"153":-0.18475639572422087,"154":-0.14468813726780333,"155":-0.58174815079201,"156":-0.8068054373205664,"157":0.010705728105423183,"158":0.3795100803641369,"159":-0.2620259025510109,"160":0.07026453345058518,"161":0.24019364464885057,"162":0.3729009321645683,"163":0.33514643395930893,"164":-0.08213955540166813,"165":0.03939438647802914,"166":0.08317751329554772,"167":-0.7259434998739995,"168":-0.34014503172288063,"169":0.10565423385905838,"170":0.4472415659366841,"171":0.6266616961821223,"172":-0.4752752416386213,"173":0.03739337925749917,"174":0.415359726362267,"175":-0.22826243851602457,"176":-0.22843907225774884,"177":0.9487238416232843,"178":0.30477210127552573,"179":0.8820966693918232,"180":-0.05691052540187639,"181":-0.015712894773005463,"182":-0.0559594616174337,"183":0.10696884614100038,"184":-0.3290427874992547,"185":0.6843602938854713,"186":0.2543737453034812,"187":0.09713857107254756,"188":0.5001231278515054,"189":0.04239031182236904,"190":-0.20157737596764996,"191":0.5065617249067235,"192":0.214578633653192,"193":-0.6922837177301869,"194":-0.5599884343782949,"195":-0.8290220443386476,"196":-0.365078957033819,"197":-0.03297118535371004,"198":-0.09778863694653718,"199":-0.05210074252128801}},{"sx":5,"sy":5,"depth":8,"w":{"0":0.24049840296566488,"1":0.3693351949708172,"2":0.19452346901815498,"3":0.12366067838237199,"4":0.1370638084146478,"5":0.11899325955715541,"6":-0.01715514433512335,"7":0.40765760568099507,"8":0.08154000403257416,"9":-0.08204178981985401,"10":0.0325344307449469,"11":0.17779554716886067,"12":0.26070245860367836,"13":0.3009554676485165,"14":0.13254151328786637,"15":0.01052461967164236,"16":-0.049368313984691437,"17":0.058216950423829586,"18":0.10981458263164101,"19":0.07305232590371677,"20":-0.21118337252638597,"21":-0.08544859718393212,"22":-0.09807463431604632,"23":-0.026469226735566107,"24":-0.14518114716899952,"25":0.09003504508694612,"26":-0.12460883090151464,"27":-0.07654884230037755,"28":0.023324716785432055,"29":-0.03490790651439647,"30":-0.018811363668159643,"31":0.07997308270405552,"32":-0.1719939371462108,"33":-0.15235674377032343,"34":-0.22867644627381498,"35":-0.05544831660292639,"36":0.18207333702402825,"37":-0.09152909230534394,"38":-0.0650539863778462,"39":0.18191824388914313,"40":-0.08332918291802137,"41":0.3002460443284519,"42":0.055080272371738126,"43":-0.05094032079348418,"44":0.11480111744353928,"45":0.009498911363207786,"46":0.1380023419678062,"47":-0.24648639887152685,"48":-0.16292740342814582,"49":-0.09979507761852674,"50":-0.1651314519620166,"51":-0.2618543193134537,"52":-0.05369886355817688,"53":0.05872457332818355,"54":0.04305724058742917,"55":-0.009789057057983785,"56":-0.15114740974480298,"57":0.06623369163770366,"58":0.19537671076678448,"59":-0.4180479904030348,"60":-0.6034397433658315,"61":0.07980622337755838,"62":0.007981361219996104,"63":-0.1652340855393611,"64":-0.5091434854450149,"65":0.33405727191790846,"66":-0.18987994774979605,"67":-0.03024791032402611,"68":0.0033731720853409025,"69":0.016716865811487337,"70":-0.2364732157870531,"71":0.0336803050826758,"72":-0.32497193827948784,"73":-0.19690489661172828,"74":-0.29633642313759423,"75":-0.21345387228502768,"76":-0.03860111100351054,"77":-0.18869963129829245,"78":-0.17243877154039378,"79":-0.5082020401866991,"80":-0.25164162617828423,"81":0.13201746461973915,"82":-0.08626718120426002,"83":-0.058197447108598234,"84":0.1634260586818614,"85":-0.12479461958452222,"86":-0.04266879426686991,"87":-0.2544385752551881,"88":-0.32926830409241553,"89":-0.3433228633572667,"90":-0.5237718981536764,"91":-0.1991723246361917,"92":-0.047306131761384713,"93":-0.43930916090146793,"94":-0.5398670355320981,"95":-0.21522650185555173,"96":-0.09746840647420622,"97":-0.4210943271467919,"98":-0.1953059108832709,"99":-0.5686225739036006,"100":-0.3596204370886287,"101":0.14942402106511743,"102":0.10845754725002316,"103":-0.06711176751450917,"104":-0.1559316434775383,"105":0.3411787987272426,"106":0.0724051045251477,"107":0.03244409275044897,"108":-0.0445723293936487,"109":-0.08828821808516776,"110":-0.029226388825438772,"111":-0.4262685983972237,"112":-0.03390104815348014,"113":0.4330633305827987,"114":0.30511731721631635,"115":0.17719587459182312,"116":-0.06538778509395822,"117":-0.27434387819073197,"118":-0.4738989888385038,"119":-0.4298203507475833,"120":-0.4596044537537798,"121":0.5929395550514879,"122":-0.29994248816049424,"123":-0.028952495711025737,"124":-0.1972762026428788,"125":0.10431262732323741,"126":0.029138774552128197,"127":-0.14881940957889486,"128":-0.06725713373379576,"129":0.062231579027559145,"130":0.23227673767211404,"131":0.39476564197055536,"132":-0.11496506986022956,"133":-0.15356306936551384,"134":-0.01892656196029073,"135":-0.3292974074329802,"136":0.2039293221284932,"137":0.014256678455779296,"138":-0.24220520232280793,"139":-0.07003418392082936,"140":-0.07266589221378633,"141":0.06869612705127631,"142":-0.07152801720431305,"143":0.3861449426224886,"144":0.16495343335440255,"145":0.07414692488893099,"146":-0.025300494986327637,"147":0.19522060952975492,"148":0.07583257154053746,"149":-0.16038075045527583,"150":0.10834817115274605,"151":0.3996550097786642,"152":-0.06131638330926384,"153":0.6748544379431465,"154":0.17196412883536716,"155":0.5886746279350101,"156":0.4773441586953775,"157":-0.1535854904057224,"158":0.2382845951228681,"159":-0.35191941600237786,"160":0.29817915839928166,"161":0.24775478154126507,"162":-0.21289431875524284,"163":0.1743468190559307,"164":-0.4458704922970308,"165":0.2814862882566752,"166":-0.17963837192907386,"167":0.3637216785621068,"168":-0.12822413630502852,"169":-0.5226149438421441,"170":0.08231997030498918,"171":0.07773316558940042,"172":0.1550155155589205,"173":0.06898577451063201,"174":0.38193698239818685,"175":0.25400561533618693,"176":0.42942029473912013,"177":0.11162090590497316,"178":0.238943895140974,"179":0.1177580157686153,"180":-0.1918509973571758,"181":0.06398899801836133,"182":-0.0859039921891449,"183":-0.03292533987005295,"184":0.4681862183829354,"185":-0.13116421093642636,"186":-0.03138356252429084,"187":-0.016200952578254654,"188":-0.14510603609210465,"189":0.11668585758017914,"190":-0.10206455090282403,"191":-0.2856027929346657,"192":-0.29200070128852534,"193":0.5896236425419149,"194":0.3690338847603628,"195":0.46817817700996395,"196":0.33488607185820896,"197":0.2867732053268221,"198":0.46687209009597425,"199":-0.012141908235388636}},{"sx":5,"sy":5,"depth":8,"w":{"0":0.27888197891385685,"1":0.20114372374331047,"2":0.3886466807718853,"3":-0.1601606234063436,"4":-0.027157629142687417,"5":0.3250187415122806,"6":0.33474091895112557,"7":-0.2817481597245582,"8":-0.21336161480397764,"9":0.7327346715292428,"10":0.3047175070505794,"11":-0.018363105466916087,"12":-0.23331980935683108,"13":0.2242454409911135,"14":0.2591604741098549,"15":-0.30460220217675543,"16":-0.4781820220938326,"17":0.6311988071442173,"18":0.3827781316246282,"19":0.2865960251392807,"20":0.0369054553801302,"21":0.052536189993212,"22":0.030006796638553566,"23":-0.23997564761784201,"24":-0.20183807979001217,"25":0.28662429355532487,"26":0.18341548275660569,"27":0.16565174990476,"28":0.2674792245804396,"29":-0.13943957196348575,"30":-0.11618581976195373,"31":0.42723201169277936,"32":-0.2917169068080411,"33":0.1976575576947331,"34":-0.07937564747934235,"35":0.14295172435803524,"36":0.46778552359575093,"37":-0.14780260582929608,"38":-0.38399051941877715,"39":0.370553471213004,"40":-0.056282029024395275,"41":-0.5216363712576925,"42":-0.35835041606105655,"43":-0.004983557371211433,"44":-0.009567320950126109,"45":-0.25258288045140737,"46":-0.2711907084013866,"47":-0.02541811816608168,"48":0.07291857896833288,"49":-0.5064709328532754,"50":-0.5088408310490227,"51":-0.16872414475422526,"52":-0.5314002575314498,"53":-0.048013373849818484,"54":0.05155299663766344,"55":-0.14316741808795952,"56":0.07251368240528508,"57":-0.2105682438173624,"58":0.0033666648586521174,"59":-0.13917686225516912,"60":-0.34560595975916203,"61":-0.15730179827668841,"62":0.17046434680507863,"63":-0.3311275580191565,"64":-0.15741894971793208,"65":0.22578434826767643,"66":0.10932751822052605,"67":-0.19059001045435675,"68":-0.05088532155843732,"69":-0.3840015732137405,"70":0.2611804683307261,"71":-0.12182633785487527,"72":0.09638341109207699,"73":0.5997473782459436,"74":0.5328007709616068,"75":0.07933782619221995,"76":0.0824786007006189,"77":-0.27634898784653567,"78":-0.04308327729914198,"79":0.1422164113381268,"80":-0.03327519463425661,"81":0.13957726238318544,"82":-0.08126653391440639,"83":-0.07928361619472368,"84":0.48689088189795815,"85":0.017832654151176453,"86":-0.37554005134330193,"87":0.4559000429329191,"88":-0.20630500861782408,"89":-0.7899176178725581,"90":-0.6692608336584908,"91":-0.04818410881787209,"92":0.6426058992607524,"93":-0.0402677291705411,"94":-0.7770598837735405,"95":0.24645907587698573,"96":-0.03341945444323903,"97":-0.8942440265460343,"98":-0.714619623326505,"99":-0.14689955591399817,"100":0.36154997631943353,"101":0.032821560924037534,"102":-0.62020154435144,"103":0.17280507872231868,"104":0.2613159669555661,"105":-0.8377169277014309,"106":-0.40890553728201356,"107":-0.24738158222676085,"108":0.29554210734890823,"109":0.17486890328528334,"110":0.06150222247232149,"111":0.07076328885821895,"112":0.2988064199316765,"113":-0.3611644174921464,"114":0.03974016117061129,"115":-0.1403434853049817,"116":0.1637345737126102,"117":0.38689407520752456,"118":0.29241078916757296,"119":-0.3995935895489998,"120":-0.2846151245723621,"121":0.20548059492148896,"122":0.1710668593733455,"123":0.30697471370973634,"124":-0.039941452744794645,"125":-0.06629284873124075,"126":0.1840242923842281,"127":-0.08037495472456412,"128":-0.3714459499353459,"129":0.22128389748138302,"130":0.14447012662911468,"131":-0.19950979105164618,"132":0.04108101247492872,"133":-0.20193780672527542,"134":-0.11137359261359787,"135":0.09344552404686057,"136":-0.4350210458067695,"137":0.019623470205996744,"138":0.22916008484457845,"139":0.09700294352222467,"140":0.1742332731989643,"141":0.12552487956492264,"142":-0.30828725991890044,"143":0.16963273305748658,"144":-0.1640737288975328,"145":-0.3029034725754544,"146":0.03211523090564011,"147":-0.3673767634553002,"148":0.21502978505643933,"149":0.29621221784558127,"150":-0.25549364026509286,"151":0.14720326247671922,"152":-0.31490222944735774,"153":-0.627209107339444,"154":-0.22545172434874394,"155":-0.020126930133023413,"156":0.30134164637345096,"157":-0.16910967215439945,"158":0.004271677254460747,"159":0.3787836633483031,"160":0.3717540828423438,"161":-0.47575874776329286,"162":-0.2540203435181614,"163":0.040213087225841784,"164":-0.1823965255191015,"165":-0.19537027831199585,"166":0.16208200859613184,"167":0.3214221660441186,"168":0.4392840488941538,"169":0.06872832437190758,"170":-0.14423044812114633,"171":-0.10976839082477954,"172":-0.6542375804729176,"173":0.16860067925894695,"174":0.39650646481920715,"175":-0.22361878155416692,"176":0.02398396262956793,"177":0.6570669942350763,"178":0.5843769147975534,"179":0.19628355044993923,"180":-0.5503957562172765,"181":-0.00753811652129883,"182":0.6891466675340553,"183":-0.9458763652394505,"184":-0.30977451957023094,"185":0.7826415022122553,"186":0.45122403900145536,"187":0.5215155325236489,"188":-0.38781948458649035,"189":-0.06642168978588377,"190":0.4623233491920317,"191":-0.034502209660491334,"192":-0.24486342670244748,"193":0.7914453768864589,"194":0.616384477847728,"195":0.7454533370536786,"196":-0.059268540122228146,"197":-0.5638612809755611,"198":0.11702374819598577,"199":-0.18043043847310106}},{"sx":5,"sy":5,"depth":8,"w":{"0":0.12764797718352802,"1":0.6154689692977721,"2":0.3580252052738189,"3":0.33944791831609905,"4":-0.1558626909372023,"5":0.39661382707147635,"6":0.12485820065443025,"7":-0.2776674052230395,"8":0.0677128655447302,"9":-0.4441019934579148,"10":0.033448011507230244,"11":-0.08834647154142858,"12":-0.33086419769237874,"13":-0.4191086376878964,"14":-0.3907982707231733,"15":-0.013341707289364279,"16":-0.15728091133326122,"17":0.5985447348627279,"18":0.23065248259709933,"19":0.2517234202704195,"20":0.07483893355205584,"21":0.2594947571561209,"22":0.3347890966707308,"23":-0.5521978650993857,"24":-0.07143365562941775,"25":0.03773550805577049,"26":0.2943513522472669,"27":0.08201207434515739,"28":0.024864632903452262,"29":-0.6532608725321496,"30":0.17849205553636963,"31":-0.3122660552332693,"32":0.061596950874545385,"33":0.16050464569573855,"34":0.17749895945047817,"35":-0.0029571302861073055,"36":0.2173892288664904,"37":0.39600320732752575,"38":0.2578381354880169,"39":-0.41838662472816573,"40":-0.6198982265772147,"41":0.8718775908309282,"42":0.4480613203311722,"43":0.23421972444631844,"44":0.2818098767821101,"45":0.38644123147852494,"46":0.11557656240802129,"47":-0.39903367002082535,"48":0.09152899503507766,"49":-0.7090542038546087,"50":-0.38620002199284864,"51":-0.10602390847740249,"52":-0.0718619174138253,"53":-0.24681911879078208,"54":-0.07236615111423425,"55":-0.3883549752408999,"56":-0.2913637739598358,"57":0.38455957928229084,"58":0.2930046587822575,"59":0.30840700360772866,"60":0.1452703898797249,"61":-0.002202601876541483,"62":0.17529279514756815,"63":0.07495933632965253,"64":-0.12220351457962024,"65":-0.20036744176266066,"66":-0.24520850605051317,"67":-0.31086713539738176,"68":0.05644605279006242,"69":-0.14999051494935683,"70":-0.28080337331070615,"71":0.18912917749031688,"72":0.4622648046445828,"73":-0.2635669899981687,"74":-0.09110091790784948,"75":-0.38209486064278664,"76":-0.4000520951394115,"77":0.4846087160211521,"78":-0.019049335561251584,"79":-0.23834498930316367,"80":0.044771476252341715,"81":0.4769382316609927,"82":-0.05132193910821196,"83":0.16021512870255075,"84":0.1764094538677919,"85":0.3504306611492626,"86":0.03505355927446625,"87":0.05715448769231631,"88":0.26927326588290545,"89":-0.3111368183923027,"90":-0.6541601367808911,"91":-0.4131731630330487,"92":-0.443053272925019,"93":-0.21956345808816863,"94":-0.7731816082881172,"95":0.35680568908974064,"96":0.04046447814157354,"97":0.33891700654072326,"98":0.6173405321618489,"99":0.008667595047459451,"100":0.033923157304494335,"101":0.6317780756403831,"102":0.2990597316191405,"103":0.2511475129695698,"104":0.3592163243428737,"105":0.21612965544937923,"106":0.5570759326079062,"107":-0.0894635869058049,"108":0.06232558860606442,"109":-0.008699090889682836,"110":-0.46533835402273427,"111":0.31484115413887276,"112":0.19541753510892781,"113":0.08419101543864277,"114":-0.3963205428637954,"115":0.07913023080751674,"116":0.18431205361058,"117":0.3540707376597441,"118":-0.6583157809755315,"119":0.446682640677025,"120":-0.5398611689539267,"121":-0.5385131358305797,"122":0.2772282767790012,"123":-0.17591980149283024,"124":0.2203782580200141,"125":0.09797579809914712,"126":-0.0990701012134844,"127":0.1536299894510524,"128":0.5913453190460523,"129":-0.6709362725731692,"130":-0.7595444311444396,"131":-0.61464477783893,"132":-0.330846557911817,"133":-0.05232245045091528,"134":-0.39931685670222444,"135":-0.44906168438665167,"136":-0.4113980290225206,"137":-0.3000875614074524,"138":0.14307434750904507,"139":0.23072232523461758,"140":-0.031018352195568987,"141":0.20606678526860472,"142":0.45507434358646837,"143":-0.051198710000125346,"144":-0.23723682060211332,"145":0.05807580726103842,"146":0.6989197367672777,"147":0.5856927725752855,"148":0.006061688629853805,"149":-0.1273238109207515,"150":0.4869978113907367,"151":-0.1315547981122751,"152":-0.3806952044260598,"153":0.12812345648573328,"154":-0.38168923063000576,"155":-0.03635676985758309,"156":0.09901066305983483,"157":-0.26368975848416104,"158":0.37885627962737634,"159":0.12985065371841056,"160":-0.3905916878189203,"161":-0.05743409415368044,"162":-0.29631870034588864,"163":-0.45557724786247233,"164":0.07594741728199966,"165":-0.22201207617471133,"166":-0.09362505294492347,"167":0.1743220361594979,"168":0.1325208345401116,"169":-0.5053323647546609,"170":-0.5011485554222792,"171":-0.9262627257889122,"172":-0.06554330940277782,"173":-0.4057738893869183,"174":-0.3055697302994887,"175":0.3337003501257123,"176":-0.38382685311057274,"177":0.26455065535572625,"178":0.3220100565791103,"179":-0.5832911702021957,"180":0.10107455629006443,"181":0.168220556224573,"182":0.18769915391134767,"183":0.12132451140704847,"184":-0.4095152726091383,"185":0.10673803791223029,"186":0.17668784308606514,"187":0.09467242032275636,"188":0.08999088729004565,"189":-0.08825474367576411,"190":0.6797709711787654,"191":0.04406923902424417,"192":-0.061121861975120366,"193":0.29428859386576345,"194":0.02888401736483577,"195":0.14198418781102634,"196":-0.05580112742290326,"197":-0.08551280436421473,"198":0.5129796917790949,"199":0.04614747459202911}},{"sx":5,"sy":5,"depth":8,"w":{"0":-0.023218766203494924,"1":-0.06735235909656696,"2":0.31634344841028367,"3":-0.094472372573689,"4":0.07072060880744914,"5":0.1906846018724655,"6":0.1215583103793399,"7":0.21400180392955517,"8":-0.08057852466853739,"9":0.3107891437812942,"10":-0.2034897667146134,"11":0.337453505711113,"12":0.45765031590972965,"13":0.17930025064529062,"14":-0.2828437359354058,"15":-0.03669919023990194,"16":0.1195621580669536,"17":-0.4673794623326987,"18":-0.4487206134426342,"19":0.043016114756459875,"20":0.27363284928058396,"21":-0.09367715387391573,"22":-0.5927406570940439,"23":-0.2317111727670565,"24":0.062460716962454345,"25":-0.3521289800986028,"26":-0.34060760547100505,"27":0.030137922263234612,"28":0.13066044594252957,"29":-0.18078196432233387,"30":-0.001453567038333376,"31":-0.291762760952907,"32":-0.22695896279107708,"33":-0.5358646477761648,"34":-0.5497523289622755,"35":-0.2393003877237553,"36":0.11263766319860256,"37":-0.3958560486069187,"38":-0.2802791464944177,"39":-0.05841426334314205,"40":0.17486828725061226,"41":-0.09293241616017152,"42":0.5013972016969219,"43":0.24781328943395253,"44":0.11652471170745693,"45":0.11141523254911237,"46":0.2978514409636701,"47":0.27560266068134104,"48":0.016717913092259975,"49":0.05947293583486564,"50":-0.057751134714660646,"51":0.5297323357890723,"52":0.7653042683644609,"53":-0.062402469910017765,"54":-0.3238206047293414,"55":0.2511517388272987,"56":0.1328437521203231,"57":-0.52388676229745,"58":-0.5233519020979134,"59":0.41240565835981013,"60":0.47480943861824615,"61":-0.26573359944637553,"62":-0.5496446022084077,"63":-0.028681119397079933,"64":0.02006337211762849,"65":-0.661269080718999,"66":-0.5699857693919375,"67":-0.27686894292457337,"68":0.6266269180583699,"69":0.005160109100371954,"70":-0.6014007480587779,"71":0.07859154802902482,"72":0.13089392099422678,"73":-0.6399123320030364,"74":-0.03818090313309808,"75":0.19978181720462662,"76":0.16392819303103806,"77":-0.02978579127628866,"78":-0.1944008095141188,"79":-0.17868378475013919,"80":0.008101027061598329,"81":0.37523872371605044,"82":0.4266266889217367,"83":0.28946034317819236,"84":0.0007881189784938156,"85":0.08696692121556553,"86":0.1398755681219616,"87":0.25371749774530955,"88":-0.6099066322839346,"89":0.30083350402671166,"90":-0.007317025941263519,"91":0.1271477941128662,"92":0.35167510946810476,"93":-0.32171300183944274,"94":0.10421964968167897,"95":-0.07680216877405059,"96":-0.5443400667972131,"97":0.032826862418996614,"98":0.039513411669252,"99":0.13285884250393906,"100":-0.08225623482272365,"101":-0.0639808522839474,"102":-0.12349487985906367,"103":-0.12693475578897676,"104":-0.4166351437410604,"105":-0.13328947141871,"106":-0.04591133744953772,"107":0.04072408777153187,"108":0.2452673410242731,"109":-0.262569858858199,"110":0.06890333081003808,"111":-0.1383293132346504,"112":-0.08852734300707917,"113":0.19108974062004266,"114":0.06650191189735381,"115":0.07201101767683558,"116":-0.21073125680364208,"117":-0.03105687675285444,"118":0.2647016141212404,"119":-0.10563700959975443,"120":0.31620587063678196,"121":-0.22398445292259508,"122":0.4083575644474614,"123":-0.11738847669079239,"124":0.07630453667172088,"125":0.2140691108957808,"126":0.3214636273945102,"127":0.22425237616022892,"128":0.18262164696247596,"129":0.25135322312833186,"130":0.0017349085600618344,"131":0.15752058163707433,"132":-0.05259401040449196,"133":0.05598740645894231,"134":-0.05213866869502029,"135":-0.3925295920530838,"136":-0.3060907777796828,"137":0.09971750218308595,"138":0.2652722258447428,"139":-0.1390764530605014,"140":-0.06824032458808887,"141":-0.05518745805613956,"142":0.07311085026605728,"143":0.15703386407149617,"144":0.14982263414086344,"145":0.02984689039433215,"146":0.30998377589190684,"147":0.7543398211458219,"148":-0.13469099221023642,"149":-0.2571399038706437,"150":0.010514057885228285,"151":0.11347044157863091,"152":0.09761790047321367,"153":0.546921897810754,"154":0.29933482174442994,"155":0.3505682729902203,"156":0.19297305570244339,"157":-0.04575544125842489,"158":0.0870249352812954,"159":-0.38762023748352886,"160":0.1158201848523258,"161":-0.18491681801910162,"162":-0.037617852947425055,"163":-0.45548299971585493,"164":-0.400353773403025,"165":0.11311172662312277,"166":-0.02138981886061722,"167":-0.2164074387783148,"168":-0.008885153821106549,"169":0.26570407565165505,"170":-0.11296925433948564,"171":0.07664652331641883,"172":-0.1818157461105884,"173":-0.18749844214711792,"174":-0.018676451575764023,"175":-0.060549289712414155,"176":0.02982594514958451,"177":0.22623325662368687,"178":0.08061598109563176,"179":-0.02429330111704079,"180":-0.354220920422382,"181":0.0028852491554966627,"182":-0.27670441584563993,"183":-0.09551741424233427,"184":0.05716430528019562,"185":-0.47648412506520343,"186":0.28874258061802544,"187":-0.2979309891475308,"188":-0.8293069420865253,"189":-0.20810915217606432,"190":-0.12949378224958313,"191":-0.0938143293976306,"192":-0.13001459431405846,"193":0.7636066594092765,"194":0.17366028421683743,"195":0.28612868555972654,"196":-0.29492245408137485,"197":0.28726495600713947,"198":0.08371675095261835,"199":-0.3042248048140897}},{"sx":5,"sy":5,"depth":8,"w":{"0":0.0038739289558340794,"1":-0.04229945075709523,"2":-0.13225808299702438,"3":-0.19741714865268553,"4":-0.25313435609538265,"5":0.08670567388923311,"6":0.18133885917250017,"7":-0.0915094870384174,"8":-0.03890387843582795,"9":-0.07771846957686002,"10":0.007925004902647598,"11":-0.18990355847231868,"12":-0.07203435941498816,"13":-0.30450545325754597,"14":0.21676644466011663,"15":0.10669035414016206,"16":-0.1501917938007204,"17":0.4167762767106756,"18":-0.13159417099046813,"19":-0.30859233996203955,"20":0.07405996400080476,"21":0.09313099518781011,"22":0.25574342489310825,"23":-0.08717548332160698,"24":-0.21625462445009228,"25":0.13626588169275522,"26":-0.1446314595035273,"27":-0.25316156309346716,"28":0.5241354792903815,"29":-0.33581562665644726,"30":0.00013874599480787409,"31":0.24226953565829473,"32":0.03095093138675302,"33":-0.14355675321937852,"34":0.12493470681830487,"35":-0.22584015850615968,"36":0.4323569543313482,"37":0.351940226739779,"38":-0.011995119669792238,"39":0.08346408137362812,"40":-0.21117902757073306,"41":-0.23781261374442034,"42":0.13187701826167678,"43":-0.06927730022066687,"44":-0.22759433274011434,"45":0.05734860922573004,"46":0.19045608955256,"47":-0.0021585719478899616,"48":0.054759457463558446,"49":-0.12625687177944497,"50":0.09115590486764595,"51":-0.16564316833757312,"52":0.027708442032236942,"53":-0.11679416368380877,"54":0.21719161320283198,"55":0.11770417777848334,"56":0.03217450901753812,"57":-0.13275776812173837,"58":-0.11607279179834613,"59":-0.11387155494914983,"60":0.2727861271679618,"61":0.343857542176394,"62":0.3717001415895288,"63":0.48580320115927905,"64":-0.3390397970770986,"65":0.027935091387367366,"66":0.15792794834177168,"67":-0.1871654600188383,"68":0.2133811216214881,"69":0.011688975186224979,"70":0.4227830863737091,"71":-0.2940933449027984,"72":0.01059271609725333,"73":0.2143300236133791,"74":-0.1263061630755222,"75":-0.3233274697047121,"76":0.011651730745951123,"77":0.11259144647494637,"78":-0.06847059242677479,"79":-0.06424053325252642,"80":0.059340945905288274,"81":-0.1920038681324445,"82":0.33303741818168375,"83":0.1906939243646009,"84":-0.571081226101854,"85":0.05807066936824726,"86":0.13717351929525784,"87":-0.09277018864111528,"88":0.18054152409808458,"89":-0.15440703425190877,"90":0.18366813301976878,"91":0.09572301829604944,"92":-0.21608611540437517,"93":0.39596270975219744,"94":0.3022016174305388,"95":0.08750919547230897,"96":-0.011152823348490435,"97":0.1803184267227694,"98":0.2554357625483291,"99":0.12844585515078075,"100":0.1214544860735604,"101":0.21607451996508084,"102":0.32978473386961815,"103":0.2537697638932433,"104":0.17178949816850345,"105":0.0650014324612938,"106":-0.11082551934821669,"107":0.2547537474646066,"108":-0.26097604468998875,"109":-0.013969347599075413,"110":0.16067574690714118,"111":0.24015590777005674,"112":0.04946873613431906,"113":-0.06167734862940043,"114":-0.21178111680359715,"115":0.23953779915707848,"116":0.03143928756693493,"117":-0.11671900481836539,"118":-0.15389447432167527,"119":0.0004768288951035247,"120":0.01640681093484565,"121":-0.09274498184456359,"122":0.10979735118848705,"123":0.015039825217381744,"124":-0.1551711490580747,"125":0.3296765676327902,"126":0.2147066213972287,"127":-0.29300204993208234,"128":-0.024044893634912665,"129":0.054162209126605014,"130":-0.09265685299097,"131":-0.21323477598672666,"132":-0.25550068853292796,"133":0.1700484902465646,"134":-0.010782599443900195,"135":-0.2169853038996474,"136":0.024207997071429357,"137":0.09910561339324828,"138":0.2661666637265539,"139":0.11303305089459706,"140":-0.4397288381482387,"141":-0.04338307836419192,"142":0.4481917034343516,"143":-0.13795610456976,"144":0.26298985356381194,"145":0.3304139172819063,"146":-0.04905890088957722,"147":0.12992477035492056,"148":-0.5112261518471908,"149":-0.18449909290793068,"150":-0.08332195688496158,"151":-0.5246901990372483,"152":-0.1938897193750788,"153":0.143962318085307,"154":-0.2681270036774741,"155":-0.13699697920764395,"156":-0.3062880080728232,"157":-0.10634354594949617,"158":-0.020889421079507715,"159":-0.3828019946630506,"160":-0.21426106620643795,"161":-0.20652704698489086,"162":-0.019690913622578323,"163":0.22452396842919753,"164":-0.0861065641555206,"165":0.2158905997535582,"166":-0.289957676877459,"167":0.1946882427981578,"168":0.007989323514559674,"169":-0.06705248230834222,"170":-0.28908987022550214,"171":0.07978962219208519,"172":0.259478501295085,"173":-0.053778413084021766,"174":-0.3602414996695051,"175":0.39343086060347826,"176":0.3117223119167758,"177":-0.0375902012284759,"178":0.11046639863650769,"179":0.26934965625429375,"180":-0.025729527683522265,"181":0.0879648922868484,"182":-0.3723895484045148,"183":0.1632750046088243,"184":0.23221210574094675,"185":-0.1773377642699329,"186":-0.430912308478556,"187":0.016199400937366132,"188":-0.08736006376343358,"189":0.15163643456388096,"190":-0.3383081801017445,"191":-0.10068166393429805,"192":-0.03958600733692555,"193":-0.22722851544803505,"194":-0.32999502376912293,"195":0.03370313795208877,"196":-0.05916894547688247,"197":-0.07480587482480332,"198":-0.14793382790886875,"199":-0.09878228241870295}},{"sx":5,"sy":5,"depth":8,"w":{"0":-0.1600933656833141,"1":-0.04096330235645111,"2":-0.049154273315950264,"3":-0.2625996556573519,"4":0.19109620608081518,"5":0.0003979738094513225,"6":-0.2602811360445671,"7":-0.24234902395737903,"8":-0.0544269093966548,"9":0.10103986295738235,"10":-0.1325478792236056,"11":-0.05372060546955616,"12":0.01483687308350373,"13":0.13599951391330029,"14":-0.19594171589828052,"15":-0.1261981488527738,"16":-0.21452125745499767,"17":0.010965899384159304,"18":-0.07251097036263375,"19":-0.1684473802857857,"20":0.052208010191655364,"21":0.10266634420051048,"22":-0.3034986749886158,"23":-0.0423206624950664,"24":-0.0770545108280912,"25":-0.1027421627134219,"26":-0.3618441769566556,"27":-0.22958786449169943,"28":0.23548935593621786,"29":-0.08674066552238967,"30":-0.4172705117488866,"31":-0.03933515968308223,"32":-0.07375564442372008,"33":-0.29959854145466963,"34":-0.06273248483711596,"35":-0.10104829694974014,"36":0.12809939947177904,"37":-0.008224939021686745,"38":-0.36279425734062093,"39":0.14807589032263443,"40":-0.22906878683655324,"41":0.23644277887723433,"42":-0.11877509542035726,"43":-0.26765833578000797,"44":0.21650678718722596,"45":0.039901594242686224,"46":-0.3113216475165335,"47":-0.12610458459056545,"48":-0.46563101126170414,"49":-0.4313322334727402,"50":-0.5047150764499919,"51":-0.6124963866161675,"52":0.19544334442865208,"53":0.07571990133256318,"54":-0.15541427795101967,"55":0.25868439224628503,"56":-0.3593415621655803,"57":-0.1301917693227921,"58":0.19905536643110777,"59":-0.2765586518120253,"60":0.06067042171108495,"61":0.16283631548725688,"62":-0.1955204223658874,"63":0.012900682748660998,"64":-0.42545367346247737,"65":-0.003243900900689839,"66":-0.23573398091158282,"67":-0.391086588613104,"68":0.3869047769212151,"69":-0.062137893919783485,"70":-0.23285926958028547,"71":0.19246354900329896,"72":-0.19596705037128367,"73":-0.24489318777332322,"74":-0.18383395309703057,"75":-0.2578938953351544,"76":0.31977066405777893,"77":-0.026512483564258803,"78":-0.3714955281721798,"79":0.171617129082032,"80":-0.4429358028218959,"81":0.10314617557485174,"82":-0.06057323931063987,"83":-0.33879239711488157,"84":-0.2556396118301732,"85":-0.20435773371637328,"86":0.03254584812926726,"87":-0.13225943731735457,"88":-0.37779659496757,"89":-0.09132622362309542,"90":0.404494659470008,"91":-0.19311154505375963,"92":-0.020239309526126546,"93":-0.3709509517698132,"94":-0.12002274893983088,"95":0.09666983419733553,"96":-0.19267779687681205,"97":-0.254881273938349,"98":-0.1386448351190676,"99":-0.2509208912637816,"100":0.2424120469827781,"101":0.04202987337010128,"102":0.1600850139470183,"103":0.42436433806152835,"104":-0.10053275671705524,"105":0.15404068024302595,"106":0.0400559993483741,"107":-0.4172036080911658,"108":0.6322709475794938,"109":-0.017509107061255306,"110":0.15015728805467163,"111":0.24191796623239775,"112":-0.12787248006932742,"113":0.2513705073764412,"114":0.3396467792900409,"115":0.013625498489037312,"116":0.15791016132251,"117":0.16686826130386612,"118":0.3548699570985741,"119":0.18120955781925382,"120":0.20824420875528543,"121":-0.18555524704208246,"122":-0.40580709284159794,"123":-0.13675485552652444,"124":-0.22331953128567275,"125":0.014725196217569599,"126":-0.11948416922545575,"127":-0.27861416408447365,"128":-0.04993784317031266,"129":0.049358813108086666,"130":0.5090312733864795,"131":-0.23470206782626066,"132":-0.05660032597133798,"133":0.16064879683010508,"134":0.534078698341878,"135":-0.16781959547440778,"136":0.0026722438151831093,"137":0.2798117561669282,"138":0.03345034722580342,"139":0.011577273633891178,"140":-0.14660298517795217,"141":-0.18408200564170119,"142":-0.16691981432284525,"143":-0.1057754473142,"144":0.18124592304409065,"145":0.43578495688694346,"146":0.20993111507203477,"147":0.11888330673390836,"148":0.35853493442795414,"149":-0.052310496042603016,"150":0.1666323602269219,"151":0.31524296538812385,"152":0.019823443938973947,"153":-0.008050368979908651,"154":0.5087135549706939,"155":0.5849305618074367,"156":0.18641457669877842,"157":0.04123270940947885,"158":0.964050025642907,"159":0.3272336178383317,"160":-0.05690598570213564,"161":-0.49990621892502857,"162":-0.21851025435141344,"163":0.20984018392455725,"164":-0.6443945876346865,"165":-0.07313974084492549,"166":-0.23597456256013086,"167":-0.6266231573309744,"168":-0.29646592395864557,"169":-0.080050311786883,"170":0.37047432585018575,"171":0.03627571526855194,"172":-0.4019878445264035,"173":-0.09824730854744809,"174":0.25267198320029055,"175":0.14472710725588644,"176":0.3665421922980555,"177":0.08148332819118177,"178":-0.23110292500207802,"179":0.5534148106845728,"180":-0.10214156195966852,"181":0.17528159490610598,"182":-0.04120378967977293,"183":-0.44346413269257706,"184":-0.06313202114210417,"185":0.43691764119011267,"186":-0.06591160954573028,"187":0.4783739284540894,"188":-0.0016526824408164484,"189":-0.1921496809974279,"190":0.3268825090765964,"191":-0.2772120390172044,"192":0.15667691211100127,"193":0.20111058195559264,"194":0.5002484904195243,"195":0.641110241090659,"196":-0.5660813012263959,"197":-0.12986886561407487,"198":0.5083809215703248,"199":-0.3141574799282495}},{"sx":5,"sy":5,"depth":8,"w":{"0":0.1784284725543607,"1":0.04917215090061787,"2":0.06559376194801754,"3":0.22505673674153392,"4":-0.047767761623090224,"5":0.30879527930788414,"6":0.17945820466406254,"7":0.03205201586114281,"8":-0.0467402623940261,"9":0.06442099164333714,"10":-0.26387433944359984,"11":-0.36359123018887485,"12":0.04691302065004728,"13":0.08341494877509018,"14":-0.47481250258705815,"15":0.19387927066071808,"16":-0.32467386957666966,"17":-0.1497712400696391,"18":0.34596750501456336,"19":-0.16872323314588017,"20":0.03924769654821559,"21":0.034574981039372774,"22":0.12596362622527355,"23":0.3459937638963726,"24":0.18299694199087643,"25":0.11677273404605987,"26":-0.39114048915039107,"27":-0.0866779489969004,"28":-0.03802010260136614,"29":-0.12843204562366603,"30":-0.6790335559907945,"31":0.018491432918224616,"32":-0.7431912780568739,"33":-0.43045919901547913,"34":-0.20114635396491579,"35":-0.09650766370768142,"36":0.23986705864054889,"37":-0.317605542746484,"38":-0.35902731656528153,"39":0.07858500689461712,"40":0.2913806852796873,"41":-0.018118300696349655,"42":-0.08514173541320659,"43":0.266781512509081,"44":-0.04005700516209976,"45":0.5320346985299218,"46":0.2136328257875069,"47":-0.012728023027647204,"48":0.15773295520652186,"49":-0.07716603291979546,"50":-0.32585883998158205,"51":-0.04262806882839246,"52":0.35884005710137584,"53":-0.025414129011364854,"54":0.08852106882196063,"55":0.015434144638226245,"56":0.06947676146853501,"57":0.0803796655112163,"58":0.3023399058161468,"59":0.3679747602820246,"60":0.17099410709044321,"61":0.5351145970196516,"62":0.3615523227802819,"63":-0.07757652636660461,"64":-0.3044341035827792,"65":0.30394059011740904,"66":-0.3879961205174666,"67":0.23488815584903,"68":0.2282298520418758,"69":-0.11664737414210818,"70":-0.23887460043919476,"71":0.17492257964178912,"72":-0.5523439395369917,"73":-0.2351571736644857,"74":-0.14036156438582081,"75":-0.06327062224029599,"76":0.22113715604909706,"77":-0.2456144813034995,"78":-0.2969986154564061,"79":-0.4755114715493687,"80":-0.17959546636221474,"81":0.20233272590409854,"82":0.09015101091335309,"83":0.10449590770918397,"84":-0.2420954424120287,"85":0.13079903744899968,"86":0.36846127952300367,"87":-0.3869395808562844,"88":0.14546166631581786,"89":0.06543706989034091,"90":-0.07914719285217288,"91":-0.11715331754932422,"92":-0.026108712069773624,"93":-0.12171921566025744,"94":-0.03214691676625975,"95":-0.18431894103189853,"96":-0.1569068592909744,"97":0.15282085581007718,"98":0.5108601793631863,"99":0.22131375643592882,"100":0.16779815810264007,"101":0.29036058936742204,"102":0.4534771871999822,"103":-0.1286299974041049,"104":-0.28882874917009965,"105":0.5264530892284605,"106":-0.08649131419939562,"107":0.01850598551081818,"108":0.6583242845209496,"109":-0.4167841587497258,"110":-0.5025228925093425,"111":-0.32396626438648307,"112":-0.1552168277775099,"113":-0.3570949819905749,"114":-0.027200958116022095,"115":0.024848678544597352,"116":0.4054336110758555,"117":-0.2575898731077511,"118":-0.21680816597920594,"119":0.12596529613298893,"120":-0.021319939788646085,"121":0.0703302222245135,"122":-0.2453150402297641,"123":-0.23802156211605174,"124":-0.2079693128959149,"125":-0.01605950027201577,"126":0.01263988702214674,"127":-0.11710001424208552,"128":0.3108100453186482,"129":-0.31247843208391435,"130":-0.5206156132611146,"131":-0.4195553637734645,"132":-0.06886068678030355,"133":-0.0680206895886752,"134":-0.12378959841925119,"135":-0.08040852324717904,"136":0.10771065487511565,"137":-0.11290108371033022,"138":0.5743407665245894,"139":0.08105436633645957,"140":-0.1573738570299059,"141":0.07362768535898814,"142":0.2629262330175496,"143":0.12560366933382122,"144":-0.4076522353514417,"145":0.5323461191171087,"146":0.3484125077631402,"147":0.28447010653508614,"148":0.22603858226588464,"149":-0.3627892100853298,"150":-0.022169893262752118,"151":-0.07254644303031664,"152":-0.21312667000622385,"153":-0.1981889803803118,"154":0.002611354929581152,"155":-0.0023669545652454703,"156":0.008508789360042734,"157":-0.10994438331682778,"158":-0.21357180708203966,"159":0.11789461318427089,"160":-0.11197680001958701,"161":-0.2302271484053448,"162":-0.17157021735585806,"163":0.0221389372759052,"164":-0.10801050086185617,"165":-0.23663061760320256,"166":0.04152497598410363,"167":-0.11130321195391919,"168":0.004218972571642389,"169":-0.47920010817115216,"170":-0.698751691436554,"171":-0.5748112479027966,"172":-0.19589907710316387,"173":-0.2669229019042272,"174":0.024597458966288052,"175":-0.044938504483769,"176":0.014368683666226515,"177":-0.2829212888210093,"178":0.21988910215960336,"179":-0.044432448720215866,"180":-0.6679165777140146,"181":-0.18360257409809486,"182":0.03293380839219367,"183":-0.11080772717152716,"184":0.17387249864749488,"185":0.6137498537997437,"186":0.30951534813154874,"187":0.4896584214405158,"188":-0.620167693142323,"189":-0.04348837391694264,"190":0.29694768460028165,"191":-0.21971136812885222,"192":-0.18623667582067643,"193":-0.09672608490922686,"194":-0.06763541517881413,"195":0.04427162555111272,"196":-0.3198355751179115,"197":-0.2952529914771668,"198":-0.176543637671462,"199":0.23869078456563383}},{"sx":5,"sy":5,"depth":8,"w":{"0":0.44627116928082844,"1":0.0023696570599983343,"2":-0.40258388204466655,"3":0.0575330366186066,"4":-0.09364459662197562,"5":0.10505857393304699,"6":0.08704147505453376,"7":0.11108930087773355,"8":-0.05854019977616234,"9":0.3346985818391988,"10":0.505726905478524,"11":0.11995290943642056,"12":-0.29897490232553864,"13":0.030045701153182235,"14":0.1954184345690271,"15":0.039148624214851505,"16":-0.1582547738462359,"17":0.693725264272692,"18":0.028223343584166647,"19":0.15856407212725157,"20":0.15801706444793434,"21":-0.15773342370190804,"22":0.05115169467924724,"23":-0.31749529149149086,"24":-0.07053498613362073,"25":-0.11296380560633434,"26":-0.7046302583090271,"27":-0.2721480386686319,"28":0.24114426674735198,"29":-0.2843723995008253,"30":-0.12517368941585275,"31":-0.155732415904689,"32":0.08848137573732966,"33":-0.8433450070367576,"34":-0.40586502078728215,"35":-0.5392053947727393,"36":-0.38839574245295005,"37":0.13449284029497857,"38":-0.4590468983100435,"39":-0.44405189364368214,"40":0.05804045808282601,"41":-0.2350118485481405,"42":-0.23693973603732435,"43":-0.14559756674542113,"44":0.16041424669028614,"45":-0.23215867776180119,"46":-0.004945770851519015,"47":-0.21354547294906803,"48":0.2903307242657224,"49":0.0024028180501519765,"50":0.5236279208458783,"51":0.1256656558415631,"52":-0.3203882929241195,"53":0.2132616429894972,"54":0.27556289380610915,"55":0.19404985530519772,"56":-0.22865818592191664,"57":0.710256073112735,"58":0.6788409259828931,"59":0.3798987497390572,"60":0.12244282234395794,"61":0.2570026754318955,"62":0.19568485168313404,"63":0.12825338885190413,"64":-0.2424332352008936,"65":-0.44962495426759524,"66":-0.2012519001440004,"67":0.17054053135400726,"68":0.4267013094006808,"69":-0.22347070564413923,"70":-0.3078199154349624,"71":0.11256456425257659,"72":-0.25615655337866866,"73":-0.6679328931525214,"74":-0.8255015523543577,"75":-0.32743824581207476,"76":0.13475706703301457,"77":-0.1504133520339663,"78":-0.49041608644467377,"79":0.22965578831017278,"80":-0.01739321274828459,"81":-0.42836709233043047,"82":-0.6884461249281676,"83":-0.6502097348982837,"84":-0.1521479443615004,"85":-0.18656850401951644,"86":-0.597785212998612,"87":-0.5322462594995576,"88":0.5010496538363083,"89":-0.05203322902579334,"90":0.26661528612716473,"91":0.15935126271577846,"92":-0.3527781001604416,"93":0.40382211244317806,"94":0.04676351663220939,"95":-0.08255667614582773,"96":-0.6023865471459923,"97":0.5981363365637865,"98":0.7679128182957187,"99":0.018021093859793367,"100":0.24536235262861272,"101":0.08723155940791524,"102":0.452048280101703,"103":-0.09133571266015511,"104":-0.338900459122062,"105":0.19436304494116965,"106":-0.17082349436372465,"107":0.10831741393427664,"108":0.20905825126293043,"109":-0.19033661583147804,"110":-0.20781212743790978,"111":-0.036570698866520694,"112":-0.12834118851655602,"113":-0.06558245022627661,"114":-0.179231688433534,"115":-0.3345854454654393,"116":0.05037187230085806,"117":-0.18767003492336756,"118":-0.051422855027783695,"119":-0.2324626696170427,"120":-0.10964497340998224,"121":-0.5439474293191,"122":-0.10918978766912431,"123":-0.1862680233572293,"124":-0.04054884223778908,"125":-0.17273018032715995,"126":-0.20025538088289985,"127":-0.3209099899920308,"128":-0.05579494479917043,"129":-0.2988929759881858,"130":0.043058562013686366,"131":-0.22552231303260026,"132":-0.5475059251056614,"133":0.11991544867119068,"134":0.34177312031551643,"135":-0.2834512212149077,"136":-0.3198883686750651,"137":0.6653654391887865,"138":0.7884142795941074,"139":0.11630430034117778,"140":0.06388209674340581,"141":0.042614335528268,"142":0.4577153593992941,"143":-0.1466941844126103,"144":0.13434856524008548,"145":-0.017858465549434863,"146":-0.23618773684197938,"147":0.008834923076828715,"148":-0.1770688915004856,"149":-0.2670518530824675,"150":-0.11647256520994186,"151":-0.0873635032304932,"152":-0.014192891938629108,"153":-0.33797194974752676,"154":-0.29832858116078237,"155":-0.0600160656391749,"156":-0.6611273175012772,"157":-0.20444447832835372,"158":-0.34831233916928733,"159":-0.513726015033152,"160":-0.00797163002487628,"161":0.3230255488845241,"162":0.03434916671318867,"163":-0.3053051227424611,"164":-0.10379082932018369,"165":0.5714793660293176,"166":-0.12552440152183097,"167":0.18896055327436972,"168":0.07043759129938694,"169":-0.2698855458652609,"170":-0.15095430325441886,"171":-0.4421973128664903,"172":0.005024592136863345,"173":0.06445047288569515,"174":-0.05227720399448291,"175":0.1363312121587954,"176":-0.18018329829033272,"177":0.05706389946966199,"178":0.8262280548172098,"179":0.21283125985392834,"180":-0.017047808192652766,"181":-0.001415061500463628,"182":0.25610760981446623,"183":0.008023500290825037,"184":0.18631628575897421,"185":0.021112408094355713,"186":-0.09684717573686392,"187":0.23577027301196823,"188":-0.20041759629908765,"189":-0.15638360350370387,"190":0.009941143526574008,"191":0.25496250757711736,"192":0.08564400173329774,"193":-0.32699233825572094,"194":-0.39842387569263454,"195":-0.4121262152918403,"196":-0.0863069833141628,"197":0.2520098482678647,"198":-0.1739584479690403,"199":-0.16183898951646092}},{"sx":5,"sy":5,"depth":8,"w":{"0":-0.5461658865780411,"1":0.054926347597571916,"2":-0.21054920403923025,"3":-0.20330822867265702,"4":0.24994289893547475,"5":0.2881322979454667,"6":-0.39106350067152396,"7":-0.27567668002588186,"8":0.24157268387219122,"9":-0.22356699698817487,"10":-0.1010495602800719,"11":0.08676991049522999,"12":0.2208202814375502,"13":0.4009608825709755,"14":-0.2566515985113277,"15":-0.14678805811451023,"16":0.0314393552017759,"17":0.13226898902465767,"18":0.41554801708024597,"19":0.16912072959470334,"20":0.0797255814947116,"21":0.42030171691861856,"22":0.1336429853597099,"23":-0.16755661533463428,"24":0.1421875961102875,"25":0.14267128942992677,"26":0.1744026209429531,"27":-0.1969948886575311,"28":0.32921831070770774,"29":0.08852775297236182,"30":-0.05011154233566839,"31":-0.05242273943344441,"32":-0.020113328896685156,"33":0.3080254002997375,"34":0.03514924590594848,"35":0.08928658255473346,"36":0.03683942755863311,"37":0.2673575898830569,"38":0.031630809869680226,"39":-0.12804993383612254,"40":-0.5160219565969346,"41":-0.11685148509867796,"42":-0.09429977253714836,"43":-0.4413683339124688,"44":-0.049047485643187755,"45":-0.1887386022581208,"46":-0.04916927491613126,"47":-0.3221408581591473,"48":0.046959817904472165,"49":-0.37653206374244924,"50":-0.31561313862329904,"51":-0.08276164478393642,"52":0.054652359942648804,"53":0.253573255344446,"54":-0.18173005769348058,"55":-0.10092056202208255,"56":-0.4525985680639067,"57":0.071785088317016,"58":-0.16777861567075747,"59":-0.049949265133950364,"60":-0.16021415464360442,"61":0.3857520142308863,"62":0.014734428104475781,"63":-0.06924844437257727,"64":-0.3054398361788534,"65":-0.024066505120225824,"66":-0.31180860561701934,"67":-0.5561364043708728,"68":0.17133556016968593,"69":-0.2071943729035085,"70":-0.2655247634528766,"71":-0.20488646255207907,"72":-0.096314155861302,"73":-0.1689863913774822,"74":-0.26940405027346226,"75":-0.10305706380479343,"76":-0.21069558489462506,"77":-0.06687408360715112,"78":-0.24563025968319074,"79":-0.042172131906134634,"80":0.41361682095780655,"81":0.12379863875942138,"82":-0.16440721790191576,"83":-0.1689516639367577,"84":-0.6511698255733851,"85":-0.29349192976754546,"86":0.66599712205423,"87":0.5936801136712518,"88":0.1276500457796952,"89":0.34969577815706865,"90":0.07968312408915754,"91":-0.5545866868769673,"92":-0.14186763114795303,"93":-0.05916402056666743,"94":1.1569043044606073,"95":-0.42942529866971507,"96":-0.18297543891335735,"97":0.6801570682980997,"98":0.2696983659460811,"99":-0.44096245754897845,"100":-0.4586202817549486,"101":-1.0482399389454558,"102":0.6818620425168547,"103":-0.7915089617807708,"104":-0.08515941010313935,"105":0.9325529038117633,"106":0.11577439085177209,"107":-0.08714926325460692,"108":-0.2763231521900737,"109":-0.9995887161515217,"110":-0.2534752679704501,"111":0.49190744699135125,"112":-0.13717299060553662,"113":0.2938453729718905,"114":0.2262950794247502,"115":0.266290574863353,"116":-0.25430243554619997,"117":-0.6782343610319588,"118":-0.5181111963622331,"119":0.3336580384398588,"120":0.5469709528307939,"121":0.08621585139293998,"122":-0.34489594928897527,"123":0.0631991424494448,"124":-0.18884747391080903,"125":0.444053165160516,"126":-0.3608239985304709,"127":0.6231440460210563,"128":0.13450747773173646,"129":-0.31999163120425217,"130":-0.4224294933567582,"131":0.7458717421856792,"132":-0.27397229935982625,"133":-0.06401296655739008,"134":-0.37728749113880655,"135":0.236344569943211,"136":0.5494270791533147,"137":-0.37444561533365417,"138":-0.42661217683943664,"139":0.3237006284979865,"140":-0.25719395794843614,"141":-0.5326846969290311,"142":-0.4639493961311572,"143":0.08460873281397031,"144":0.43096457705019464,"145":-0.12860309327942585,"146":-0.07322496119144532,"147":-0.02412904820147128,"148":0.1412431518004849,"149":0.21565533766905223,"150":0.2877747061086932,"151":-0.030721206695465433,"152":0.1845979137334671,"153":0.49309003273072455,"154":0.08697414550789397,"155":0.23138540831452808,"156":0.41520978109867956,"157":0.2358702993876912,"158":0.16302339223437348,"159":0.2584299891402073,"160":0.024841339452138667,"161":0.4662872633472962,"162":0.21336690523864432,"163":0.27767035694739967,"164":0.22061580574809903,"165":0.11865368569286967,"166":-0.18587902126197903,"167":0.09441373760700085,"168":-0.16065986855316747,"169":-0.13370607670046125,"170":-0.0038599782609143435,"171":0.006876338156454247,"172":0.07735681055865419,"173":-0.2505546377476176,"174":0.19393363289282173,"175":0.15978374065402673,"176":-0.24041433342771562,"177":-0.27572514846393914,"178":0.384280727151331,"179":-0.45047546769724484,"180":-0.34588530577889504,"181":-0.045816382296027365,"182":0.06302417124237832,"183":-0.22994460147529044,"184":0.12040334329851847,"185":-0.09746748086782799,"186":-0.22700184693650383,"187":-0.3879337492749523,"188":-0.10329248147618166,"189":0.4256707589639021,"190":-0.29798021812913755,"191":0.25423789340201447,"192":-0.03657760923014683,"193":0.08945620114458709,"194":0.5259898229698425,"195":-0.16893249949444067,"196":0.16155283473769774,"197":0.111877805954763,"198":0.4891176499142422,"199":0.14688176970917788}},{"sx":5,"sy":5,"depth":8,"w":{"0":0.1931402795135079,"1":-0.5165525930962986,"2":0.29302558602117035,"3":0.17626572747470162,"4":0.1361620044702183,"5":0.31308220459414915,"6":-0.013882857681354091,"7":-0.08619574403217385,"8":-0.020893201291029506,"9":0.5288356135719051,"10":0.07669362523846922,"11":-0.04058891807156705,"12":0.19038538098663516,"13":0.5645321105141363,"14":-0.26105446680177397,"15":-0.27182718972433795,"16":0.2078933670917437,"17":-0.5484279654087894,"18":0.22078590158898287,"19":-0.3656701056698556,"20":0.20095649334751797,"21":0.47309118336960737,"22":-0.055335391430324524,"23":0.39794624319784805,"24":-0.06651823628095437,"25":0.1562517223031939,"26":0.07598773898647128,"27":-0.23131784883098547,"28":0.5385265680960305,"29":0.5560355857848205,"30":-0.03903151242391681,"31":0.3299658537661717,"32":0.2788476170992083,"33":-0.0016545192078057007,"34":-0.0676431098382899,"35":-0.15648470321997185,"36":0.11642043429932634,"37":0.0696022047745893,"38":-0.20128490803870525,"39":-0.056235782233805466,"40":0.3452538757041603,"41":-0.40311746508140295,"42":0.18106679402172246,"43":0.017413387856162053,"44":0.14652688770707395,"45":0.6200704205012354,"46":0.4935351702744528,"47":0.2672351143933422,"48":-0.606933358040459,"49":0.17295947323387623,"50":0.03268969879047003,"51":-0.16238957421223915,"52":0.4303260143544429,"53":0.43346425844416736,"54":0.37240353128581616,"55":0.5061711612565665,"56":0.14676623722587462,"57":-0.4761117426319676,"58":0.31707209730498515,"59":0.05250790295366437,"60":-0.26843303461708534,"61":0.18478510695574799,"62":0.13623572252124502,"63":-0.05907341765207233,"64":-0.1761675182452762,"65":-0.1726294050622164,"66":-0.3093429659262158,"67":-0.4355210862610988,"68":-0.3744422774928306,"69":0.39036942851413103,"70":0.28106284231038675,"71":0.35968703143806985,"72":0.23760387515697864,"73":0.2551159811224645,"74":0.08837502760215621,"75":-0.11739920522450623,"76":-0.31924533272606426,"77":0.07074537333872426,"78":0.385345566764448,"79":0.12453557281772594,"80":0.08342659816762438,"81":0.004885945651926734,"82":0.34977667330492934,"83":0.1549603220738973,"84":0.035588060509426804,"85":0.3948657937619771,"86":0.3682480448164098,"87":0.07773289348526198,"88":-0.6008690826437431,"89":0.22355858457948605,"90":-0.21097345158291148,"91":0.1634170740293945,"92":0.3240971454767414,"93":0.046793241256669,"94":0.07981956528975033,"95":0.12186246888116829,"96":0.0159466168043046,"97":-0.1720113062868725,"98":-0.02648504945492961,"99":0.09469953220190268,"100":-0.33503416335571384,"101":-0.04463002164066021,"102":0.11983650359545939,"103":-0.046015025114724106,"104":-0.1276503927468112,"105":-0.10892101750566596,"106":-0.355989504800004,"107":0.12043753426021098,"108":-0.2931303241523119,"109":-0.47199552726073407,"110":-0.324195136390501,"111":-0.182650573281928,"112":-0.1712993879991886,"113":0.0641151175676967,"114":0.05265231052112827,"115":0.3098509052131859,"116":0.028982465760349484,"117":-0.30029574349913724,"118":-0.00029390946426248124,"119":-0.5733146307754242,"120":0.01692742483331206,"121":0.28536651501319515,"122":0.34892280891975275,"123":0.4800131214806306,"124":-0.0709730750242545,"125":-0.1308920127111766,"126":-0.10908413718152218,"127":0.1476443835831104,"128":-0.05596925648896988,"129":0.12649958300680564,"130":-0.28023070571946207,"131":0.2770724861865071,"132":-0.017858922958502933,"133":-0.8045769465043319,"134":-0.3717715431212179,"135":-0.11950414940647676,"136":0.10984092237179398,"137":-0.14472733046372893,"138":0.03735522241678454,"139":-0.0027793478994124,"140":-0.14885713662233277,"141":-0.35490586995194595,"142":-0.06023012862288064,"143":-0.12501882812734008,"144":0.17902294420321962,"145":-0.29312283922531296,"146":-0.42150859362388093,"147":-0.1309082490779685,"148":-0.33217592731002993,"149":-0.1768337774792456,"150":-0.05007397581224594,"151":-0.4164389282780937,"152":-0.22295479510400282,"153":0.02660262657196767,"154":0.06680586827447382,"155":0.16249275997758433,"156":-0.3823744059033927,"157":-0.17701379862304623,"158":0.11223344020189167,"159":-0.2761809132895599,"160":0.2706395331335349,"161":0.0879621871387783,"162":0.26238928821509705,"163":0.2114296503698346,"164":0.1480003929437721,"165":-0.2621198378511853,"166":0.12251127083177496,"167":0.31433139245224806,"168":0.05282290497014936,"169":0.1318532426051988,"170":-0.056260487982212594,"171":0.011988303725727413,"172":-0.13591870080445498,"173":-0.28332860988785286,"174":-0.19068058782857886,"175":-0.1423517492531323,"176":-0.08638346890406998,"177":0.027784753535060783,"178":-0.11582935594266472,"179":-0.3101691092668481,"180":0.08649812695172081,"181":-0.429341070135207,"182":-0.321856023598049,"183":-0.04217148449375537,"184":0.11220781824284139,"185":-0.11876458160507895,"186":0.021361246081531313,"187":-0.10999571296812037,"188":0.19007009518044177,"189":-0.17584558014375434,"190":-0.14872926397391856,"191":-0.008609890236139724,"192":-0.08046742312909864,"193":-0.09211414783992643,"194":-0.1903946949043406,"195":0.13126292839036252,"196":0.06592550834555445,"197":-0.035079217387765524,"198":-0.2175755442240058,"199":-0.2366285293580942}},{"sx":5,"sy":5,"depth":8,"w":{"0":0.036939013093619286,"1":-0.4536246563338488,"2":0.33624265626496264,"3":-0.03146191128317677,"4":0.6089139378188683,"5":1.2975710522133608,"6":0.5247506032695246,"7":-0.003546401059077073,"8":0.15708382389768075,"9":-0.20600076685987997,"10":0.04236161840308654,"11":-0.08480047070031764,"12":0.36164402301750215,"13":0.3474933349233441,"14":0.1240285072365631,"15":0.40936647278338584,"16":0.3570984774721467,"17":-0.22273603623389845,"18":0.05664093195912569,"19":-0.04429408849036393,"20":-0.04633521545530762,"21":0.48692963184638105,"22":0.19941109048465522,"23":0.7245028587889641,"24":-0.12963727588034354,"25":-0.26377135457646994,"26":-0.01446687127685036,"27":-0.17018509464857687,"28":0.4230779122773692,"29":-0.14729043639873657,"30":0.44067477873276995,"31":0.3975254438399906,"32":0.14658485740650248,"33":-0.2213015608765302,"34":-0.04385868093532758,"35":-0.04346946569558588,"36":0.15500739622252901,"37":0.056310907374350364,"38":-0.30676641113908615,"39":0.2939523424037481,"40":-0.48551178542126505,"41":0.04743016726160826,"42":0.15814426735410037,"43":-0.20505442287765036,"44":-0.4283358210225998,"45":0.6365179109848083,"46":0.577140179178017,"47":0.5086882398359757,"48":-0.24461980371955755,"49":0.1597262680118657,"50":0.4632376785096629,"51":0.2545744236734175,"52":-0.340436897196736,"53":-0.4875886203847509,"54":0.5853380268557081,"55":0.24146317266873898,"56":0.22154701242645108,"57":0.4814500906618855,"58":0.05346940463840688,"59":0.08187376295267847,"60":-0.01799970568995958,"61":-0.3713011560266228,"62":-0.10332313181415718,"63":0.177158906563482,"64":0.3424245365749983,"65":-0.08337087592894615,"66":0.12673659258426678,"67":0.20342607142003952,"68":-0.14692683926658698,"69":0.023997344645005747,"70":0.1469152320743691,"71":-0.17368569867477998,"72":-0.06398114996538447,"73":-0.037452828837634934,"74":-0.15366388117731322,"75":-0.011423497842637808,"76":-0.2749490471643489,"77":0.2883453029303037,"78":0.23658207690398306,"79":-0.10438139487752204,"80":0.084480903325933,"81":0.0025215194243396145,"82":-0.21503219750161612,"83":-0.022422645381117698,"84":-0.013253148634736017,"85":-1.3096520582042477,"86":-0.24194876524327075,"87":0.1676135191174779,"88":0.45025162770461824,"89":-0.22959266138837991,"90":0.4562828058934143,"91":0.22505908252034856,"92":-0.01865038370513858,"93":-0.5019959328685026,"94":0.10550397474379002,"95":-0.49869497184435496,"96":0.2266288247999874,"97":-0.12383108253501249,"98":-0.4928635482979343,"99":-0.10750893262329672,"100":-0.1543646940732068,"101":0.06150545335072835,"102":-0.07427676022621897,"103":-0.8177099677782982,"104":0.12425449525700871,"105":-0.01556234132092419,"106":-0.11100001724895346,"107":-0.24321045340820072,"108":-0.41527852225596273,"109":-0.032101111949869615,"110":0.20119627798704184,"111":-0.595728707377074,"112":-0.07139389028152261,"113":-0.06733078465339613,"114":-0.1630275319952672,"115":-0.3192252458541939,"116":-0.6959347955425459,"117":-0.5394974348510171,"118":0.3582008448133982,"119":-0.2705787748234652,"120":0.28141643876199957,"121":-0.18976808168964457,"122":0.027482947844807402,"123":0.13530046416488978,"124":-0.051676323646888,"125":-0.30121507390427327,"126":-0.5500640305081683,"127":-0.22775454714053694,"128":0.07131291628446328,"129":-0.273497807583878,"130":0.2023679892685568,"131":0.24129229120316473,"132":-0.20854492184398238,"133":0.3357228898384184,"134":-0.4309169936029073,"135":0.015584627926636656,"136":-0.16860768728653872,"137":-0.5155357819286754,"138":-0.6129744016520986,"139":-0.3504982121397698,"140":-0.10289534136393853,"141":0.0598684355835006,"142":-0.2518601531228994,"143":0.3366246945133733,"144":0.003814039986223721,"145":-0.5136281712921044,"146":-0.5166781461953032,"147":-0.2617119457108418,"148":-0.12331010773578176,"149":-0.1892630278981335,"150":-0.40579699068419994,"151":0.4230123721129561,"152":0.18090983316740897,"153":-0.2594726788668342,"154":-0.31131288888612296,"155":0.06149257766389441,"156":-0.06557488551523522,"157":0.019055875315850977,"158":-0.44273277488948143,"159":0.14613299271980926,"160":0.02519235027140129,"161":-0.21888039055347383,"162":0.26007420271176573,"163":-0.05860581238119811,"164":-0.08221850183173544,"165":0.19734968672516648,"166":-0.18025620866986153,"167":0.01296433171854908,"168":0.4533527113137358,"169":0.17112522994062254,"170":0.283299435601348,"171":0.2849552914832044,"172":-0.09540776621422843,"173":0.3401501281006997,"174":0.13650074877886959,"175":-0.09098026634197862,"176":-0.270803904719574,"177":0.4862300694740391,"178":0.16213345679912097,"179":0.33502198009242923,"180":0.006883116292710458,"181":0.3739285745184621,"182":0.1064359716765832,"183":-0.03589465244430711,"184":-0.1811055759268347,"185":0.37247061029739786,"186":0.05956933729527781,"187":0.5235427754824769,"188":-0.21207442205781069,"189":-0.17694561439852513,"190":0.38489145966003085,"191":-0.30520158228963107,"192":-0.23897750446801883,"193":0.4895847681149709,"194":0.31981234074521625,"195":0.5460604313281114,"196":0.06564955043367454,"197":0.106159936651226,"198":0.44141382256327083,"199":0.1675435956976891}}],"biases":{"sx":1,"sy":1,"depth":16,"w":{"0":-0.13831993131616205,"1":0.18895032852971114,"2":0.044739501523862316,"3":-0.3366379601767194,"4":0.08731457303259592,"5":-0.21748610975151172,"6":-0.029141326634603733,"7":-0.07708608750224896,"8":-0.002147726508077124,"9":0.0012730748314481021,"10":-0.09806545554254574,"11":-0.07812224302787948,"12":0.13822519511941542,"13":0.04372129448988869,"14":-0.12997333372623385,"15":-0.29158972105180536}}},{"out_depth":16,"out_sx":13,"out_sy":13,"layer_type":"relu"},{"sx":3,"sy":3,"stride":3,"in_depth":16,"out_depth":16,"out_sx":4,"out_sy":4,"layer_type":"pool","pad":0},{"out_depth":10,"out_sx":1,"out_sy":1,"layer_type":"fc","num_inputs":256,"l1_decay_mul":0,"l2_decay_mul":1,"filters":[{"sx":1,"sy":1,"depth":256,"w":{"0":-0.14968024863142676,"1":-0.007171373270610395,"2":-0.35461241718918163,"3":0.07859885931835903,"4":-0.38054474785048453,"5":-0.646788857378146,"6":0.10176420423062206,"7":-0.5649545757722935,"8":-0.8194300776476118,"9":-0.19982193405289408,"10":-0.49246033838396525,"11":-0.04228810390888518,"12":-0.3305451543850748,"13":-0.959754048613271,"14":-0.6558173445130995,"15":-0.2805652552980381,"16":-0.6604654742086081,"17":-0.5165633844615515,"18":-0.3256840339206053,"19":-0.5295455962796686,"20":-0.6543890329208276,"21":-0.03701800177802141,"22":0.568052239335658,"23":-0.34423334083321544,"24":-0.6681913485133208,"25":-0.13972017951356808,"26":-0.5875118042476467,"27":-0.18743142032862564,"28":-0.10968891426817574,"29":0.5037715006737028,"30":-0.17151540429498666,"31":0.020295145787725597,"32":-0.3104290018733187,"33":-0.48590008552173175,"34":-0.45109143726176953,"35":-0.1965848820998245,"36":-0.47834025317484713,"37":-0.33825022890864487,"38":0.41772519156986254,"39":-0.6599518316128995,"40":-0.6797125570024234,"41":-0.07349037378575352,"42":-0.5008336270350497,"43":-0.25082080469773776,"44":-0.14677585421965395,"45":0.8085336052057331,"46":-0.36341179529180856,"47":-0.3246764808582812,"48":-0.5567123961546753,"49":-0.29291962011724026,"50":-0.5518562040597689,"51":-0.22309854016112926,"52":-0.6101276161346362,"53":-0.35283790898358786,"54":-0.057438029610218454,"55":-0.9864686969463031,"56":-0.4857877710032628,"57":-0.1502129483712373,"58":-0.4300699713791628,"59":-1.1594454622611148,"60":0.03958137951817722,"61":-0.35546056898048917,"62":-0.29748078110803944,"63":-0.673285060475123,"64":-0.20820396148875517,"65":-0.1253573718394037,"66":-0.4988463900604393,"67":-0.22157418564521242,"68":-0.32641269892899455,"69":-0.08510945065361143,"70":0.014870418191735643,"71":-0.5146967653670336,"72":-0.25740189239434497,"73":-0.11520149625209028,"74":-0.07365209035837994,"75":0.26172830518527457,"76":-0.12497929844695944,"77":-0.6201792338827162,"78":-0.23956052258266375,"79":-0.6302845791397029,"80":-0.1960991610520325,"81":-0.4132083761716987,"82":-0.5215460303184546,"83":-0.7332165130081564,"84":-0.006374969770485034,"85":-0.6158134834336655,"86":0.021122162776540953,"87":-0.8171901123183044,"88":0.2510665120189297,"89":0.015405513091793646,"90":-0.0040639345942937955,"91":-0.5126463244390957,"92":0.19875185746098564,"93":-0.44791077935472345,"94":-0.38131052589109227,"95":-0.05368753591292663,"96":-0.4037566265931769,"97":-0.7285343795548974,"98":-0.42178129087179617,"99":-0.1965700460976931,"100":0.12213429746212896,"101":-0.2983995518249664,"102":-0.2970598802519273,"103":-0.6847498548683397,"104":-0.17391703663052502,"105":-0.09070957644230662,"106":-0.10392542496367146,"107":-0.823174395709907,"108":-0.31412853759429143,"109":-0.22131261689397524,"110":0.02787777903998339,"111":-0.050987566604607834,"112":-0.39768262264866033,"113":-0.08466624139885391,"114":-0.555565092911659,"115":-0.3867283094245027,"116":0.0527877628585203,"117":0.05920665247438763,"118":-0.3625739936086152,"119":-0.4903890588954247,"120":-0.20866899629659494,"121":-0.1922547170081246,"122":-0.2279482922152673,"123":-0.4491783286832914,"124":-0.3453781377012801,"125":-0.14409700541162956,"126":-0.1739044117371608,"127":-0.16853637442986488,"128":-0.20955866589856276,"129":-0.9468428651658276,"130":-0.07472085684512472,"131":-0.4677643871210253,"132":-0.3416597402939659,"133":-0.5841479356971627,"134":-0.43074734605282006,"135":-0.27259161633011847,"136":-0.6052462542859345,"137":-0.038924264130266555,"138":-0.6947250357921801,"139":-0.7541220974273692,"140":-0.29502514817005215,"141":-0.49342868399536727,"142":-0.14885533425313874,"143":-0.38835187134509586,"144":-0.24290876857444246,"145":-1.4101247577046285,"146":-0.07611323916851935,"147":-0.4341046375683095,"148":-0.5413628339244909,"149":-0.6880890725860647,"150":-0.17976063397975953,"151":-0.3754667218363349,"152":-0.3478529238104649,"153":-0.13550514098699795,"154":-0.28740622110794883,"155":-0.998882934260279,"156":-0.20403166949642773,"157":-0.5243699995555631,"158":-0.2857763494364642,"159":-0.24758728829297022,"160":-0.49087986725097527,"161":-1.2990253573298485,"162":-0.5465529039296619,"163":-0.32106815449262477,"164":-0.577689869094052,"165":-0.6750036461519777,"166":-0.37515122218655106,"167":-0.6449936814990587,"168":-0.07248370688835441,"169":-0.2496009030082756,"170":-0.12247274774565084,"171":-0.8002148484176542,"172":-1.1025016069209272,"173":-0.6195349010412871,"174":-0.4808109987560866,"175":-0.2774771797588756,"176":-0.37219539625111503,"177":-0.6412498918300554,"178":-0.2846286107079394,"179":-0.3306056203776027,"180":-0.15249219224138363,"181":-0.2386637563864961,"182":0.0022372919013448254,"183":-0.40178771198997715,"184":-0.3746263028976517,"185":-0.3567987327360603,"186":-0.1910898482971165,"187":-0.24932333295668876,"188":-0.39816705091634874,"189":-0.7059684817706449,"190":-0.38001222340364427,"191":-0.2574581955101124,"192":-0.3506501258373986,"193":-0.5073351771347527,"194":-0.5756480383778606,"195":-0.28519478648455526,"196":-0.4230446201153255,"197":-0.6563222794350425,"198":-0.546868474362699,"199":-0.5273810608810771,"200":-0.3689853149796173,"201":-0.39990642171603463,"202":-0.6105905174542073,"203":-1.1190380197039855,"204":-0.29024715015580516,"205":-0.576389533928703,"206":-0.19885280336764333,"207":-0.17256997776740235,"208":-0.49946791069142316,"209":-1.3653939683606655,"210":-0.14619659418226819,"211":-0.6347479501761033,"212":-0.47155389840880557,"213":-0.9247689313329067,"214":-0.26625369239076635,"215":-0.4518093422839071,"216":-0.7082916863585902,"217":-0.3910667881957081,"218":-0.923618232953523,"219":-0.9551060541361036,"220":-0.8488519126276812,"221":-0.30943686980387247,"222":-0.06354481070769562,"223":-0.1655062257857406,"224":-0.5865886570552938,"225":-0.9062176057853618,"226":-0.43715986369336396,"227":-0.4472709777786624,"228":-0.7516313442063431,"229":-0.8923991025729275,"230":0.05801005188556507,"231":-1.0059494296040379,"232":-0.7726553769738502,"233":-0.4390719767220246,"234":-1.0051428758840792,"235":-0.9416877727445968,"236":-1.0922580279458591,"237":-0.3502149192074272,"238":-0.5826881494529526,"239":-0.32900996688192186,"240":-0.5422988053571626,"241":-0.5616035437373024,"242":-0.5712501564514179,"243":-0.4812577322530293,"244":-0.9210916900119575,"245":-0.3242785142216336,"246":-0.25438132151622495,"247":-0.9452034583247282,"248":-0.843941295189684,"249":-0.6668556965530669,"250":-0.1944218137482276,"251":-1.0784564918873136,"252":-0.7360262358913833,"253":-0.1521572095277401,"254":-0.6622746962079198,"255":-0.40859781651416316}},{"sx":1,"sy":1,"depth":256,"w":{"0":-0.15600310622104036,"1":-0.3982271809278837,"2":-0.2178502248992634,"3":-0.11022607990553256,"4":-0.10169375323858054,"5":-0.45171390347972273,"6":0.12031986278437869,"7":-0.1811393592503863,"8":-0.45805858207503464,"9":-0.07874361392526542,"10":-0.2098163942530825,"11":-0.022833342606470054,"12":-0.06450546409807688,"13":-0.18144308714565419,"14":0.007482552470091269,"15":-0.3276611170132928,"16":-0.2608369998184816,"17":-0.6822210046080489,"18":-0.9427866247262154,"19":-0.6656595617204283,"20":-0.38905491536308373,"21":-0.4830984185038582,"22":0.061248933035649544,"23":-0.5411305172895143,"24":0.014981867120736013,"25":-0.10318134761020135,"26":-0.38282805052954466,"27":-0.1402142941908538,"28":0.2511538093664525,"29":-0.20938788254290044,"30":0.027372520771389294,"31":-0.06273112859397358,"32":-0.5265670839996285,"33":-0.6022561787675851,"34":-0.950934438977291,"35":-0.4453815491366822,"36":-0.0792699493010499,"37":-0.12150713549279288,"38":-0.04975105881749564,"39":-0.46795384615019847,"40":-0.03944922032613055,"41":-0.4852080226878499,"42":-0.2301810743158116,"43":-0.038241100716941194,"44":-0.06355273266124756,"45":-0.6930799554827015,"46":0.09555599293717988,"47":-0.257313812346719,"48":-0.6541169155278436,"49":-0.35560295882591614,"50":-0.6357332246466307,"51":-0.08602715022235477,"52":-0.3115198284554278,"53":0.12318521023784675,"54":-0.11072466522560592,"55":-0.4276774941943428,"56":-0.19652083859499275,"57":-0.4495917305054229,"58":-0.27697610369435605,"59":0.15670123645041745,"60":0.1692691265406968,"61":-0.6343401760999181,"62":-0.2505842927236413,"63":0.032678343139053594,"64":-0.3603741833542365,"65":-0.5817801200028637,"66":-0.52173366799683,"67":-0.6303569836886366,"68":-0.013514300668639507,"69":-0.33282113834019206,"70":-0.534073391486728,"71":-0.5014265099047434,"72":-0.6403960432473923,"73":-0.08517149347272343,"74":-0.23683908155631786,"75":-0.23025149136784598,"76":-0.2711487972762726,"77":-0.12340446753761301,"78":0.016811622276591432,"79":-0.07598590581078975,"80":-0.682572398505526,"81":-0.3728295071125785,"82":-0.5653750918553672,"83":-0.5540390989195979,"84":-0.4944187634112178,"85":-0.13851628939766145,"86":0.03700605632176079,"87":-0.2274719136355478,"88":-0.4730425226292085,"89":-0.21729150156755264,"90":-0.07252947845123019,"91":-0.21120860228574298,"92":-0.40325986977023204,"93":0.22020656208684333,"94":-0.19220529541171721,"95":-0.24393513081702806,"96":-0.6072003636363328,"97":0.12700377369939247,"98":-0.27724233352203415,"99":-0.9026394381232318,"100":-0.4657028254007397,"101":0.16645781494548173,"102":0.3971798871350549,"103":-0.0757804154440304,"104":-0.0035307073018829276,"105":-0.2232784047997486,"106":0.04110476770056749,"107":0.11848875398694843,"108":0.33767701839464354,"109":-0.027264318932840367,"110":-0.3757378253525367,"111":-0.7438684170439356,"112":-0.400611895904238,"113":0.02683319868189921,"114":0.12847990151993316,"115":-0.31601308975785053,"116":-0.6155761985671409,"117":-0.1756275648533196,"118":0.11645185058738818,"119":-0.040284305903450314,"120":-0.051764232204486074,"121":-0.26521649541486525,"122":-0.31596273513355433,"123":-0.239400907386958,"124":0.001625147634896489,"125":-0.074835016380516,"126":-0.3960222209186978,"127":-0.6327037662498214,"128":-0.19399043891055243,"129":-0.2993807916871254,"130":-0.27798162909817037,"131":-0.24636800802069694,"132":-0.3265030513783383,"133":-0.8098303517368496,"134":-0.8879252573045108,"135":-0.15557532652920472,"136":-0.9387348374259551,"137":-0.20612592870631966,"138":-0.470443005447182,"139":-0.13389284846940247,"140":-0.35250791104614215,"141":-0.4234080798720956,"142":-0.6292650137520137,"143":-0.5694504911795353,"144":-0.45828057091468105,"145":-0.894672021168686,"146":-0.5889710407790881,"147":-0.2913271830651402,"148":-0.8354374284597063,"149":-1.15811703386564,"150":-1.313940637438589,"151":-0.8649789125419041,"152":-0.9614743293227543,"153":-0.2871370492635488,"154":-1.2645240522948953,"155":-0.8365118168110328,