{"layers":[{"out_depth":1,"out_sx":26,"out_sy":26,"layer_type":"input"},{"sx":5,"sy":5,"stride":1,"in_depth":1,"out_depth":36,"out_sx":22,"out_sy":22,"layer_type":"conv","l1_decay_mul":0,"l2_decay_mul":1,"pad":0,"filters":[{"sx":5,"sy":5,"depth":1,"w":{"0":0.503546512293239,"1":0.17543783401716997,"2":0.40068333716619237,"3":-0.0819086672076833,"4":-0.2419601084361275,"5":0.32480064166605604,"6":0.06625624284712985,"7":0.46292585569103833,"8":-0.2505790400602649,"9":0.04449411606789117,"10":0.06303002513170469,"11":0.3232826420710355,"12":0.045589442064858134,"13":-0.2794107641666038,"14":-0.1289881547734739,"15":0.3100083358931328,"16":0.08607621724091795,"17":0.07468023512766508,"18":-0.41829733969913474,"19":-0.07878640199447762,"20":-0.26152741973086313,"21":-0.42775448692486395,"22":-0.4964478519122421,"23":-0.4343064301745362,"24":-0.01945037618483578}},{"sx":5,"sy":5,"depth":1,"w":{"0":0.35238376584114894,"1":0.2666932897361164,"2":0.21316413978789436,"3":-0.4227821212155071,"4":0.8188931572905607,"5":-0.01673083293472013,"6":-0.44239176142279163,"7":-1.1957332033956378,"8":-0.5055717768203845,"9":-0.6260744909571493,"10":0.12806857893871448,"11":-0.7062982416845265,"12":0.29534074299856744,"13":0.22749239167553725,"14":-0.04413545891458038,"15":-0.9094570579885484,"16":0.3754832794203797,"17":0.5780660479085488,"18":-0.19560473262237035,"19":0.40600434336473423,"20":-0.0014812276875641687,"21":0.3113512914359209,"22":0.24351764001869192,"23":0.10442693497672863,"24":0.05925332583485626}},{"sx":5,"sy":5,"depth":1,"w":{"0":0.30651835960702506,"1":0.3682251247279116,"2":0.16588984994089967,"3":-0.059426735450455466,"4":0.09425697938222453,"5":0.2501376093830529,"6":-0.42971758482765887,"7":-0.4326719442113153,"8":0.3061070001954449,"9":0.19540085581477387,"10":-0.08306325111595379,"11":-0.3752029765107793,"12":-0.2134113599513941,"13":-0.26968839778546655,"14":-0.19254384660808258,"15":-0.032020555556537406,"16":0.1969316596144994,"17":0.04749990165054317,"18":0.10298851581215121,"19":0.23933991599695376,"20":-0.371589342039222,"21":-0.026615357054615346,"22":0.14338238629061015,"23":0.5232533873578089,"24":-0.3528965756505292}},{"sx":5,"sy":5,"depth":1,"w":{"0":0.04024918291997044,"1":-0.029833418802450454,"2":-0.14660762836202507,"3":0.146898561195631,"4":-0.19984837836686886,"5":-0.23042131293833593,"6":0.18305750058968842,"7":-0.24242038647134245,"8":0.25735829674846533,"9":-0.13585125846645202,"10":-0.12513236665930214,"11":-0.12006896977788464,"12":0.35473946364448883,"13":0.10599298636625085,"14":0.1990999108928209,"15":-0.267825959043582,"16":0.11809483865031367,"17":-0.28408272207006097,"18":0.01417431766727629,"19":-0.13126974622844267,"20":-0.30830002391782024,"21":-0.13562574746763342,"22":-0.24004548987699148,"23":0.12097237252035313,"24":0.11658589464884017}},{"sx":5,"sy":5,"depth":1,"w":{"0":0.0679990354604974,"1":0.011424386545248758,"2":0.6590820230545824,"3":0.026891421627534256,"4":0.24987737451406236,"5":0.21602052790342116,"6":-0.19793825651609367,"7":0.07543052849230777,"8":-0.2139548377250355,"9":-0.0654315293247844,"10":0.22139917645463922,"11":-0.03921535336426457,"12":0.11574052557396387,"13":-0.36731445914303373,"14":-0.3603622773408137,"15":0.18599429240859605,"16":-0.35010887959937675,"17":-0.23888410302235993,"18":-0.15207238609694848,"19":0.11306861493539096,"20":-0.2722804245881671,"21":0.007367998313607942,"22":0.09334430260554731,"23":0.2702477187977929,"24":-0.20698975595838942}},{"sx":5,"sy":5,"depth":1,"w":{"0":0.1433000708507806,"1":-0.07174407743561194,"2":0.10810800897126072,"3":-0.05626889316400756,"4":-0.2047788698323846,"5":0.1108070829125837,"6":0.31861720705601654,"7":0.23472261879712542,"8":-0.3111189149378127,"9":-0.1139458118413907,"10":0.018187154785769377,"11":0.20737101386478135,"12":-0.4801494856938478,"13":-0.14861527245339162,"14":0.23219406865147643,"15":0.10092102214042563,"16":-0.5866661257506132,"17":0.07201468768207397,"18":0.3234008420304719,"19":0.11670031785360194,"20":-0.41908128021518304,"21":0.03259600527749651,"22":0.23079905138069587,"23":-0.0035930856665958933,"24":-0.2831377626290073}},{"sx":5,"sy":5,"depth":1,"w":{"0":-0.21051235779547492,"1":-0.11905997936501023,"2":-0.33152716951047867,"3":0.3184508476167863,"4":0.21961428660886492,"5":-0.6001278269734338,"6":0.3122376419677374,"7":-0.20279504100190512,"8":0.19453056018373527,"9":0.11297081643228835,"10":0.1449352079656053,"11":-0.6112477441816911,"12":0.08324588443405995,"13":-0.0002111039057228533,"14":0.2566973073948566,"15":0.20285132064655292,"16":-0.35659486091269516,"17":0.0951250646012665,"18":0.04879536235883021,"19":0.14238173145027028,"20":-0.17371996448834265,"21":-0.7232160061323789,"22":0.30721380075487226,"23":0.44830797455312016,"24":0.14803889877396934}},{"sx":5,"sy":5,"depth":1,"w":{"0":0.14253149228904385,"1":-0.37743458758307474,"2":-0.10899517423768014,"3":0.036550056333885875,"4":0.2084577111603292,"5":-0.06960235618825858,"6":-0.5489858022859535,"7":-0.46028219030469275,"8":0.4735882920732481,"9":0.5295893416699792,"10":-0.2458567962340596,"11":0.47963090580197004,"12":-0.3939347206909456,"13":-0.08895621277733953,"14":0.09233062986056478,"15":0.10779479539464709,"16":0.2394599201027854,"17":-0.1839427854176522,"18":-0.18053311494187552,"19":0.06391139695916218,"20":0.0001428172167276089,"21":0.24621726025058893,"22":-0.030462480096899718,"23":-0.08440877049951273,"24":-0.027746967437553567}},{"sx":5,"sy":5,"depth":1,"w":{"0":-0.22663216986682302,"1":-0.22642209653290418,"2":-0.2437472681418007,"3":0.18430674302852007,"4":-0.2664206623056386,"5":-0.04944644072557621,"6":0.2761315164145177,"7":0.39185355680344747,"8":-0.2413686620961417,"9":-0.1946812071192213,"10":0.4668135574826255,"11":0.29007750077580086,"12":-0.2920158643576489,"13":0.16501057727098298,"14":-0.3819581920011608,"15":0.25036032937436814,"16":0.09706629194402237,"17":0.020642348656221114,"18":0.07082911301532446,"19":-0.29995024519097996,"20":-0.2401723805096199,"21":-0.02765639593751657,"22":-0.1770054148226804,"23":0.05147750665876841,"24":-0.4669850621548209}},{"sx":5,"sy":5,"depth":1,"w":{"0":-0.05119166440107908,"1":-0.19759223931261394,"2":-0.18895672386073906,"3":-0.23291923577863596,"4":-0.5798138660644473,"5":0.44512982882301744,"6":0.06295994199725571,"7":0.4223946241876822,"8":0.3541639335530406,"9":0.25856748475884306,"10":-0.04876554973350446,"11":0.07290548656792625,"12":-0.34731582316129633,"13":-0.29971900122846107,"14":-0.082878823597084,"15":-0.49889565910687705,"16":0.09874422865054497,"17":-0.05041491331325293,"18":0.21584123230108276,"19":-0.08330024150003511,"20":0.3377656134240667,"21":-0.07178072513084588,"22":-0.030716705335630923,"23":0.0660617005655571,"24":0.2874986046374818}},{"sx":5,"sy":5,"depth":1,"w":{"0":0.4063042079467098,"1":0.029599408842809004,"2":0.06264624969814975,"3":0.1392562545037352,"4":0.1635354615303176,"5":0.26257175742949457,"6":0.246377265838476,"7":0.624211249707791,"8":0.4708426722543409,"9":0.3435525478879101,"10":-0.8182970606516128,"11":-0.4948602753151986,"12":-0.7097111482128364,"13":-0.5723961041162015,"14":0.004966612406213315,"15":0.18702779270766512,"16":-0.3734183272688611,"17":-0.3956890601813496,"18":-0.46557799904253927,"19":-0.31681796766336656,"20":-0.18449349887345104,"21":0.2713030473042111,"22":0.4636205021437022,"23":0.18649778360597088,"24":-0.0838993691903303}},{"sx":5,"sy":5,"depth":1,"w":{"0":-0.14068958312572924,"1":0.13068152533339603,"2":0.40774398257068,"3":0.11513373481292564,"4":-0.04764466437198217,"5":0.15136218714864183,"6":0.5516845031830889,"7":-0.17011564686167432,"8":-0.451236987852206,"9":0.09704146829744856,"10":-0.00672055757427021,"11":0.21349821346833273,"12":-0.45008019849828773,"13":-0.47336425950462135,"14":-0.08585260733397058,"15":0.493094115305209,"16":0.033721902156496494,"17":-0.4229058164250765,"18":-0.036233187670367054,"19":-0.3976150300714051,"20":0.29506393764117655,"21":-0.35904038690076123,"22":0.35660250990105935,"23":0.06525743476598776,"24":-0.051564152395628164}},{"sx":5,"sy":5,"depth":1,"w":{"0":-0.2997222021110952,"1":0.006243715301859671,"2":0.01517152315624589,"3":0.10709442282988203,"4":0.19809408476320162,"5":0.0877758723437927,"6":-0.2563110000630245,"7":-0.19981244138357018,"8":0.16265676597332746,"9":-0.1551076596469048,"10":0.0911472390900037,"11":-0.4735806049613115,"12":0.05779350236079185,"13":0.08454554613094167,"14":0.26604028475244157,"15":0.05535862448734307,"16":-0.4768602944011743,"17":0.03902186583311527,"18":0.34358200644373116,"19":0.26924944164260634,"20":0.23615180188796175,"21":-0.9995492872759726,"22":-0.03672865160644046,"23":0.4717043345304707,"24":-0.053721136700150454}},{"sx":5,"sy":5,"depth":1,"w":{"0":-0.2171874992073103,"1":-0.3202628055682941,"2":-0.3702311851834702,"3":0.3419612884136909,"4":0.49549439368752063,"5":-0.43082097354278454,"6":-0.1396563861814204,"7":0.020854239821612476,"8":0.2595879689659055,"9":0.2316137910796483,"10":-0.37943984041416945,"11":-0.16685838039784198,"12":0.23796764913845445,"13":0.2952003231916898,"14":0.21959905918569103,"15":-0.7089533487956128,"16":-0.3317503308356263,"17":0.27101356305130475,"18":0.2254786557264116,"19":0.14198981823099174,"20":-0.49387377569343727,"21":-0.11375136780397938,"22":0.438117661814008,"23":0.055076116249212825,"24":0.11386961739617905}},{"sx":5,"sy":5,"depth":1,"w":{"0":-0.4680030723461095,"1":-0.45306106899175946,"2":-0.025755983440474944,"3":-0.042754437793214695,"4":-0.1829769265731901,"5":-0.005658188030970116,"6":0.4483115424826477,"7":0.14979478476167346,"8":0.0958035220877832,"9":-0.5108813484049178,"10":0.033131078066366317,"11":0.1580723364444107,"12":0.035047725563934075,"13":-0.24152071466806388,"14":-0.12277491657142081,"15":0.30571267035907856,"16":0.2537955763726154,"17":-0.1632916828648734,"18":0.21280258776783334,"19":0.45751207339196204,"20":0.40860590397820706,"21":-0.05247628823786228,"22":-0.19173800286161158,"23":0.29212628175514965,"24":-0.2519437410394867}},{"sx":5,"sy":5,"depth":1,"w":{"0":0.14082350872628988,"1":-0.022058269117475424,"2":0.20916782793629252,"3":0.05145582971693244,"4":0.24604753655931225,"5":-0.14826684856146807,"6":-0.1366187484332401,"7":0.26230394905236465,"8":0.4698300441723062,"9":0.0471814432001799,"10":-0.49614344903085783,"11":-0.4815155282876313,"12":-0.7379223710565157,"13":-0.189458119247552,"14":-0.46816342703723574,"15":0.2342765456400948,"16":0.2898730345892671,"17":0.28023628113133886,"18":-0.3518472873565132,"19":0.23283176306214315,"20":0.04925251044148046,"21":0.3258027597998767,"22":0.07879407561494753,"23":-0.3780745379726906,"24":0.043889090620971516}},{"sx":5,"sy":5,"depth":1,"w":{"0":-0.21373904217920295,"1":-0.09832526357626852,"2":0.2089332553472261,"3":-0.2755158736241823,"4":-0.009412573310846597,"5":-0.19916632515492205,"6":-0.11198983936215219,"7":-0.4656748411871196,"8":0.050510034907068346,"9":-0.0716260581996764,"10":-0.4739183716896209,"11":-0.4034678795814288,"12":-0.18388000805427743,"13":0.1515955141231427,"14":0.19574500078501034,"15":-0.02589551903412291,"16":0.015168396296340564,"17":0.25536227111267557,"18":0.2548160867144597,"19":-0.021536313726882965,"20":0.25601308731292977,"21":0.3127675463731881,"22":0.16696576034721172,"23":0.22623181128539174,"24":0.15109293732291973}},{"sx":5,"sy":5,"depth":1,"w":{"0":0.2228091607336005,"1":-0.06843820981164078,"2":-0.6323945620432635,"3":0.3482528778234394,"4":0.1258436503483017,"5":0.1709241985539173,"6":0.12733586018600423,"7":-0.7028194106227182,"8":-0.11089822322762247,"9":0.39694917064151186,"10":0.06711197817940967,"11":0.009701248568083132,"12":-0.2859848980574853,"13":0.06700776654319812,"14":0.23394348775467097,"15":0.1415102655840797,"16":-0.1338663727769925,"17":-0.3798497056813687,"18":-0.11594542197512737,"19":0.2564749984077386,"20":-0.2597195479431857,"21":-0.013535141564322334,"22":-0.3348093801425676,"23":-0.29267351746430564,"24":0.47699476907936944}},{"sx":5,"sy":5,"depth":1,"w":{"0":-0.28304915451274815,"1":0.22270413307734546,"2":0.3058016074188735,"3":0.23750510552458878,"4":-0.41678617291318654,"5":0.2728253222547214,"6":-0.2782666060882383,"7":0.37921385897988635,"8":-0.43131401661226604,"9":0.03820171506640653,"10":-0.03761568293897551,"11":0.2794116857204654,"12":-0.45930379184150627,"13":0.16305660340360456,"14":0.08507146042662138,"15":0.5392336293132343,"16":0.11218527025036235,"17":-0.1812821333650877,"18":0.20928038759444884,"19":-0.7051317274409892,"20":-0.36054923703564656,"21":0.21266808698137177,"22":0.24281295635903447,"23":0.3859415289762735,"24":-0.7494398452360584}},{"sx":5,"sy":5,"depth":1,"w":{"0":0.2519276129993346,"1":-0.15281411740925552,"2":0.28804363050105874,"3":0.3070900322271638,"4":0.6158839821854015,"5":0.17610254984432236,"6":-0.010747760449770008,"7":0.12624459660466372,"8":0.2617925674737922,"9":0.39543325746722147,"10":0.4365649357470748,"11":0.28411426573966264,"12":0.21996011999511308,"13":0.03746870938804316,"14":0.19196784575405712,"15":-0.5154033448360658,"16":-0.885709600127369,"17":-0.4185934431287089,"18":-0.09462936492656485,"19":0.10878398718196722,"20":0.05991595879523827,"21":-0.448811246758556,"22":-0.5998473445919837,"23":-0.6470223864750962,"24":-0.5369446561438401}},{"sx":5,"sy":5,"depth":1,"w":{"0":-0.5015577907531833,"1":-0.016430024733590523,"2":0.1809867660173316,"3":-0.4303406512174955,"4":-0.045369996629386754,"5":-0.022601880603296296,"6":-0.17211310522380088,"7":0.07150507007452997,"8":-0.04285071042652157,"9":-0.0227638472033398,"10":0.0019542359047871704,"11":-0.20301742641127035,"12":-0.12481542774004162,"13":0.07721244743225285,"14":-0.0515689874775236,"15":0.011371609401333986,"16":-0.07611535120413837,"17":0.09556286665643873,"18":0.06203329489369812,"19":-0.22293592141351126,"20":0.007749024684135666,"21":-0.057033760807785445,"22":-0.13321024720173272,"23":-0.41877430116233255,"24":-0.3869708213695159}},{"sx":5,"sy":5,"depth":1,"w":{"0":-0.1887228756636063,"1":0.07431722572941478,"2":-0.3536239213751792,"3":-0.06959422655901357,"4":-0.5093024996581458,"5":0.36803714890528194,"6":0.27295415046807464,"7":-0.009994406153001144,"8":-0.08787469310451385,"9":-0.6582472057783783,"10":0.35348300116671966,"11":0.205674087424882,"12":0.07059626765798482,"13":0.3265153980835456,"14":-0.8790999870583509,"15":0.2218093938915572,"16":0.25236148543457965,"17":-0.05285106824942754,"18":0.26113325490989686,"19":-0.16011426528275724,"20":-0.5592223486808311,"21":0.033163495925621025,"22":0.04239166944379872,"23":0.1281324248204871,"24":0.542972086960667}},{"sx":5,"sy":5,"depth":1,"w":{"0":-0.21720510033106466,"1":0.06016026937692585,"2":-0.023012755167628886,"3":-0.18010363980719257,"4":-0.6661885810570788,"5":-0.38641770276366966,"6":0.406207578446728,"7":0.03250357380836877,"8":0.18292363581241522,"9":0.0596131669151994,"10":-0.059531551184095435,"11":-0.19370239710913362,"12":0.03106299952589337,"13":0.02115709620090044,"14":0.2142829778296806,"15":0.17971713491486446,"16":0.019846363179933095,"17":-0.2955434936474191,"18":0.008929818548326507,"19":0.15081975179153181,"20":0.22595219975978897,"21":0.0549761375812769,"22":-0.07912965595265685,"23":-0.01916029731355691,"24":0.06491663490059338}},{"sx":5,"sy":5,"depth":1,"w":{"0":0.08219932263088722,"1":-0.04766351336883765,"2":0.05008941159454958,"3":0.09692226160911577,"4":0.536140901440099,"5":0.2212423248338564,"6":-0.14535650678342468,"7":-0.29589034355434357,"8":0.3471920318405493,"9":0.31738233725853726,"10":-0.010619280819129127,"11":0.16930193716030678,"12":-0.3707468811750154,"13":0.21450949178981846,"14":0.18171592201773476,"15":0.024190975710081334,"16":-0.008077937554835615,"17":-0.5502626882817964,"18":0.010613157963748586,"19":0.24426974589662281,"20":-0.21105056894055926,"21":-0.5346091755262103,"22":0.08943316390377429,"23":-0.17741357267451077,"24":-0.4770016496723896}},{"sx":5,"sy":5,"depth":1,"w":{"0":0.26472341011185285,"1":0.19841392627916743,"2":0.0713356683233645,"3":-0.10593394794277243,"4":-0.4904947662936922,"5":0.16182411617860515,"6":0.21732229610983433,"7":-0.23634709750882768,"8":-0.5745287118842803,"9":0.18775227066353153,"10":0.19300067208315008,"11":-0.4375954274291787,"12":-0.4082559801159432,"13":0.19124664474206707,"14":0.272737869146092,"15":-0.44545720759579294,"16":-0.31542019483111916,"17":0.20128455718026622,"18":0.26004799608510415,"19":0.1995643094157153,"20":0.055591346908990036,"21":-0.18282056708011757,"22":0.34902942693198036,"23":0.12197545899647513,"24":0.095274405555937}},{"sx":5,"sy":5,"depth":1,"w":{"0":-0.03252246845207727,"1":-0.2082415910791002,"2":-0.4163484887802369,"3":-0.1125218929051353,"4":-0.30282620894820017,"5":-0.23063891662239694,"6":-0.22782179727147223,"7":-0.7164699682129062,"8":-0.14843425316033046,"9":0.18439725642838828,"10":-0.05685720007990727,"11":-0.24567892637085167,"12":0.3800240921427889,"13":0.19935778579997024,"14":-0.06612752056606161,"15":0.1367722667212108,"16":0.0459937443008402,"17":-0.04615336908724452,"18":0.12825164139935902,"19":0.31703927164750634,"20":0.4382372172578096,"21":-0.019731320560232777,"22":-0.013398343081555762,"23":0.6363272329142969,"24":0.03247608504471594}},{"sx":5,"sy":5,"depth":1,"w":{"0":-0.2708551402724906,"1":-0.2028938973672206,"2":-0.36736205077767475,"3":0.4474479325763721,"4":0.33952121757357473,"5":-0.16728597821725208,"6":-0.46476867854457815,"7":0.1643206795579463,"8":0.1785145341318444,"9":0.2903184465363844,"10":-0.1140879382055537,"11":0.09242090816229531,"12":-0.13084662155714477,"13":-0.19382769443499961,"14":0.3758931557419553,"15":0.1011837671143906,"16":-0.5067104676406047,"17":0.5109998384660907,"18":-0.09748777294800078,"19":-0.2855594685923302,"20":0.38108093780657737,"21":0.23527258229283324,"22":-0.3687556755194424,"23":-0.04707045612437991,"24":-0.07476742102620391}},{"sx":5,"sy":5,"depth":1,"w":{"0":-0.4281945356398745,"1":-0.05146666606006357,"2":0.3605414908711981,"3":0.11602085801899936,"4":-0.04860156938700864,"5":0.20430985327533352,"6":-0.019706536489422416,"7":-0.1621221131435819,"8":0.016501349413905332,"9":-0.043356269474869216,"10":0.04637194031411451,"11":-0.301064247193305,"12":-0.24689164671466124,"13":0.21547688904374782,"14":0.3819910220455214,"15":-0.049937940071895615,"16":-0.011035117464403284,"17":-0.5142202834665117,"18":0.2438546819048521,"19":0.31109496049757523,"20":0.027106213536253476,"21":-0.28172104638720097,"22":-0.1667675250951549,"23":0.08735511660872423,"24":0.20132488320677178}},{"sx":5,"sy":5,"depth":1,"w":{"0":-0.42074978664437845,"1":-0.0310537998723399,"2":-0.3417765584098442,"3":-0.8537093549842001,"4":-0.7748900483445854,"5":0.31112026601159765,"6":-0.18176551474057193,"7":-0.38296216220988266,"8":0.10221036954517165,"9":0.16393042999449928,"10":0.02696145377201858,"11":-0.390876269518948,"12":0.38582782723107384,"13":0.307506226031994,"14":0.19035080082246425,"15":-0.13087404173236356,"16":0.27616299398050576,"17":0.07714738442483247,"18":-0.09734419243739169,"19":0.1510965062043691,"20":0.012086042427179797,"21":0.10988745837549589,"22":0.1915488901616793,"23":0.4197086925818448,"24":0.2018793408329082}},{"sx":5,"sy":5,"depth":1,"w":{"0":0.5790913413160256,"1":-0.02882773552248527,"2":0.2930911075931962,"3":-0.14412283609222132,"4":0.2720925690672834,"5":0.060541445780970364,"6":0.24093385079325083,"7":0.28766982512725486,"8":0.030592121422025387,"9":0.0909048897753743,"10":0.2228899384199228,"11":-0.1837914048150621,"12":0.10943698444034311,"13":-0.11266821271386245,"14":0.004492178865403523,"15":-0.061127942500217816,"16":0.2444965366725381,"17":-0.05056436126369728,"18":-0.38713707178929185,"19":0.19233790646144575,"20":-0.10839316479903895,"21":-0.29614221474090974,"22":-0.4760645540727786,"23":-0.40957557047254617,"24":0.21218706609008486}},{"sx":5,"sy":5,"depth":1,"w":{"0":0.1697282098582231,"1":0.20363369962928957,"2":-0.16708934148466284,"3":-0.06883293048154157,"4":-0.10983852961611766,"5":-0.6331714737934182,"6":0.4383474319445981,"7":0.05117377970329799,"8":0.05629056969679039,"9":-0.29621791472300657,"10":-0.06975299311498889,"11":-0.3333423256823597,"12":0.5002821474627391,"13":-0.2650067654726685,"14":-0.24492993719112172,"15":0.2231128718313954,"16":-0.19445191807079087,"17":-0.15211118329982062,"18":0.25450286955741336,"19":0.07865959239620805,"20":0.5464976720306897,"21":0.0870017914344701,"22":-0.5889464378708316,"23":-0.1471180722831088,"24":0.27876119857319687}},{"sx":5,"sy":5,"depth":1,"w":{"0":0.01528712716516361,"1":0.01819501042315427,"2":0.005635816744715258,"3":-0.021200005419003642,"4":-0.514457480190808,"5":0.037759661481543326,"6":0.06552010756823755,"7":-0.2900353621387477,"8":-0.31233641394936024,"9":-0.03821951085619803,"10":-0.32631730904351086,"11":-0.3418260375792105,"12":-0.043148383900539905,"13":0.22631979205625585,"14":0.24502283503835723,"15":0.00639136903763434,"16":-0.2854008749744516,"17":0.000705826943375345,"18":0.19367419264306987,"19":0.020622916241056513,"20":0.009135270104319748,"21":0.4360657226485518,"22":0.3291012283828602,"23":0.12576351850899098,"24":0.29482482818775874}},{"sx":5,"sy":5,"depth":1,"w":{"0":0.19914210973626467,"1":-0.14876763085605374,"2":-0.22680723375012682,"3":-0.2864260581641242,"4":-0.11742742145938397,"5":-0.030422727514595134,"6":-0.15092571924381576,"7":-0.10901367560174671,"8":0.023442239440279733,"9":0.23994977643650817,"10":-0.10397471827698637,"11":0.1681871385006842,"12":-0.02058488101830316,"13":0.3715275056241759,"14":0.003308762858842575,"15":-0.7962853297360721,"16":0.26032931841924484,"17":0.03572693659129583,"18":0.3312780506134114,"19":0.16907668435490927,"20":-1.0308949106109124,"21":0.33283899660661076,"22":0.5609518025002044,"23":0.0684146578975821,"24":-0.19233283802839468}},{"sx":5,"sy":5,"depth":1,"w":{"0":-0.005999874451208686,"1":0.20082192826831397,"2":0.03966201022333849,"3":0.0005324884261204872,"4":0.047284573376809684,"5":0.39697936729960387,"6":0.2006148242388881,"7":0.1823291737255012,"8":0.47055395365798786,"9":0.09145505891365413,"10":-0.0955088907759916,"11":-0.05047501996492368,"12":0.37820748437141205,"13":0.38631749945685634,"14":0.08585590712219303,"15":-0.19285234876505855,"16":-0.22800171979001982,"17":0.2817147444145262,"18":-0.1405107254170585,"19":-0.23458935099092873,"20":-0.8310285227489085,"21":-0.5307102553220161,"22":-0.24014713590335893,"23":-0.8449461789516066,"24":-0.5565536637717914}},{"sx":5,"sy":5,"depth":1,"w":{"0":-0.48828797492818926,"1":-0.3027069701626671,"2":-0.6960671633827833,"3":-0.534106241673451,"4":-0.5643881647386633,"5":0.27177072102840183,"6":-0.3132955342717952,"7":0.4745873730198649,"8":0.21922563079553756,"9":0.16702618847473885,"10":-0.23479968754936184,"11":0.3095300199437502,"12":-0.3232306905319478,"13":0.424053660093132,"14":0.1380332523163174,"15":-0.18225464115838055,"16":0.06189664482475779,"17":-0.3187680181005439,"18":0.13231083003994612,"19":0.2984238157997646,"20":-0.4722807671155934,"21":0.22778410330565155,"22":-0.17489170143718968,"23":0.4616985574853213,"24":0.038690123236751424}},{"sx":5,"sy":5,"depth":1,"w":{"0":0.2090556797623577,"1":0.22797221256330036,"2":-0.3389650858350927,"3":-0.3796734996763153,"4":-0.6089439163826672,"5":0.17721368882766717,"6":0.15373771809654743,"7":0.18057049315477205,"8":-0.1948719844959863,"9":-0.08394472215854397,"10":0.3391329023961458,"11":0.008320038084372624,"12":0.05904391437478458,"13":0.14915271286377269,"14":-0.4618903445195267,"15":0.27902856264908815,"16":-0.23990559723594662,"17":-0.11550555312748494,"18":0.5983936379443824,"19":-0.16676838834044524,"20":0.3461787777181375,"21":-0.03417137001452995,"22":-0.48665872707235175,"23":0.11816424282717222,"24":-0.2830666710197616}}],"biases":{"sx":1,"sy":1,"depth":36,"w":{"0":0.19890543115067186,"1":0.2870094215296325,"2":0.050218891893532625,"3":0.1731395488083191,"4":0.15693525177964507,"5":0.20200001731549697,"6":0.19940159503557897,"7":0.16383527951814633,"8":0.38959660184460787,"9":0.08655607348473252,"10":0.19348909153206964,"11":0.17473459001005262,"12":0.13288637186597677,"13":0.13438916991908348,"14":0.013506921066713296,"15":0.16656393887208085,"16":0.04281811333861701,"17":0.2411590684486729,"18":0.20491111638713114,"19":0.2543406375285963,"20":0.0930078055827156,"21":0.19067579078223162,"22":0.09671368265691191,"23":0.15651313636905143,"24":0.12776387715127369,"25":0.09258203982341662,"26":0.1507028522770937,"27":0.052597343426353596,"28":0.1426119310565647,"29":0.014327620699463747,"30":0.20801689378492522,"31":0.0670999836281991,"32":0.20078980117433373,"33":0.22816851700670984,"34":0.34684511089082376,"35":0.07537258302257584}}},{"out_depth":36,"out_sx":22,"out_sy":22,"layer_type":"relu"},{"sx":2,"sy":2,"stride":2,"in_depth":36,"out_depth":36,"out_sx":11,"out_sy":11,"layer_type":"pool","pad":0},{"sx":5,"sy":5,"stride":1,"in_depth":36,"out_depth":72,"out_sx":7,"out_sy":7,"layer_type":"conv","l1_decay_mul":0,"l2_decay_mul":1,"pad":0,"filters":[{"sx":5,"sy":5,"depth":36,"w":{"0":0.0636546406055147,"1":0.07495799687929139,"2":-0.0004944731112885804,"3":-0.02055270849915974,"4":0.061816353961525156,"5":0.05494594957083342,"6":-0.024209716388055448,"7":-0.029209565054315052,"8":0.06542649430472998,"9":0.0696929440516161,"10":0.07160080583188806,"11":0.030224622593835588,"12":0.018016419581127614,"13":-0.004490586225477438,"14":0.024358699897522564,"15":0.002506389727800278,"16":-0.028648517700375173,"17":0.015905018951874253,"18":0.04278450748050193,"19":-0.03265476638720569,"20":-0.0585686829507604,"21":0.1470234702509385,"22":-0.05370082290213009,"23":-0.0018021755916748676,"24":0.0711659191000366,"25":0.11603095584647219,"26":-0.07905264917631345,"27":0.0029907082428690564,"28":0.047545905056769,"29":-0.024655430281245484,"30":-0.08994035576104138,"31":0.09953101838701309,"32":0.08931789684166207,"33":-0.015273934921298664,"34":0.06598638521198474,"35":0.045930260540091236,"36":-0.0836895968079519,"37":0.03327564405601195,"38":0.06670855286855948,"39":0.06646535611256281,"40":-0.038063213068102716,"41":-0.004068784020507227,"42":0.10267744934779001,"43":0.1579050005338998,"44":-0.07193437790341631,"45":-0.1413128853275481,"46":-0.0801048714914741,"47":0.007853594703527464,"48":0.03344806449466392,"49":0.1200873499125143,"50":0.006907137070199645,"51":-0.0808931829191674,"52":-0.045887926279518376,"53":0.10602112586827285,"54":-0.10994848243344624,"55":0.1392115143410598,"56":0.0304960403929252,"57":-0.1006361579569493,"58":-0.1357067826842888,"59":0.06918769728964543,"60":0.02536025621741134,"61":0.1319649698333769,"62":0.07880463189684775,"63":0.024514066647872677,"64":-0.06501852156207391,"65":0.0023829614042732775,"66":-0.12496672828395503,"67":0.0058662358609699265,"68":0.0457880273541253,"69":0.012167479072937281,"70":-0.015216600703504932,"71":-0.12395011240248241,"72":-0.026954763645033117,"73":-0.0794317777876349,"74":-0.029619466747507282,"75":-0.03430978678965336,"76":0.00008552359996367022,"77":-0.12134164008726353,"78":0.11745988106821635,"79":-0.04870935691376342,"80":-0.05263397160072183,"81":-0.021152710284592383,"82":0.017091380714153732,"83":-0.08778067520611803,"84":-0.03839354804446197,"85":0.11683518467515222,"86":-0.05659626151791421,"87":-0.06121285471630578,"88":0.03812770795762988,"89":-0.03248382354480665,"90":-0.07378666635322703,"91":0.09879837444661856,"92":0.02240462326806716,"93":-0.09188264461977913,"94":-0.015305280615141817,"95":0.010101524632225956,"96":-0.1362588502426829,"97":-0.10018289039468461,"98":0.07257748976319706,"99":0.03911820121355452,"100":-0.10106423565624739,"101":-0.0902847285804959,"102":-0.060455461267911355,"103":-0.10283238047044892,"104":-0.039283911639974814,"105":0.05500843462505706,"106":-0.1474161945077206,"107":-0.10696173491613355,"108":0.12546087074134965,"109":-0.06287489795502006,"110":-0.07481193174084626,"111":-0.0009866195496694907,"112":0.020746753796005823,"113":-0.009033266125557573,"114":-0.11246944746458869,"115":-0.20442840398303175,"116":0.019210800748190347,"117":-0.03629593558192508,"118":-0.06088049195300856,"119":-0.08233192906821107,"120":-0.03586258567914571,"121":-0.11910254621361,"122":0.07107694314564778,"123":-0.02175698459257376,"124":-0.06941532779276705,"125":-0.0827229279385639,"126":-0.01535245752853048,"127":-0.0019180587849292785,"128":0.08658075255463508,"129":0.035625414990112944,"130":0.012447688355736983,"131":-0.015188728151249485,"132":-0.06285034275959925,"133":-0.010798989420271802,"134":-0.13052986997658525,"135":-0.11072617684193889,"136":0.02163782217664601,"137":0.027281320079890484,"138":0.007685503857545756,"139":-0.021306786943429423,"140":-0.030230926075009722,"141":0.04778635949738717,"142":-0.037653755130462804,"143":0.10363851863729526,"144":0.11101133599896637,"145":0.04314929443956759,"146":-0.0641407062397997,"147":0.013986246681960616,"148":0.08999569363921998,"149":0.0610768792318719,"150":-0.06842872399374052,"151":0.0430672042976204,"152":0.0047745017528618375,"153":0.05205574284708728,"154":-0.024581408290769345,"155":0.02379899458719841,"156":0.017395892204113528,"157":-0.06730984102684334,"158":0.04500668331480663,"159":-0.02605875802462588,"160":-0.0358616997868589,"161":0.18046487991252264,"162":-0.08955488803086532,"163":-0.01674524747776273,"164":0.008945133400192741,"165":0.07038113160881371,"166":-0.005105580587550923,"167":0.03700880968113821,"168":0.0154084078758467,"169":0.06530889161514782,"170":-0.0580679577846102,"171":0.041022835159883086,"172":0.12871730278038201,"173":0.020614256563529113,"174":-0.06031142813859055,"175":0.06094073357801071,"176":-0.019272050194863617,"177":-0.05650112424023547,"178":0.04705387868265998,"179":0.09507543502126203,"180":-0.016052668506164533,"181":-0.02965007111172494,"182":-0.008875923081033755,"183":0.035024074111402306,"184":0.05133994177815205,"185":-0.006587090347291672,"186":0.03540472066551634,"187":-0.006487930293529742,"188":0.01690737182010354,"189":-0.06028116713821682,"190":-0.12015488178629621,"191":0.013293736509419746,"192":0.10172179645120275,"193":0.1447616548154463,"194":-0.011274270849576554,"195":-0.006810367762055718,"196":0.04808942842420736,"197":-0.000599566914079119,"198":0.06170299222283662,"199":-0.006404057003530479,"200":-0.05059108540070373,"201":0.10468910435806589,"202":-0.029257803108617326,"203":-0.04201242631844112,"204":-0.002900440430210891,"205":0.03292981305142383,"206":0.06382480952854339,"207":0.026266628856089724,"208":-0.005929770291250396,"209":-0.14244620518933396,"210":-0.0031521326690057494,"211":0.030238539399468994,"212":0.06595357857983908,"213":-0.06041260692366664,"214":0.02735864369836434,"215":-0.00037956330166699203,"216":-0.09662761043580008,"217":-0.0653372361471806,"218":0.036738954672475885,"219":-0.023832147994192584,"220":-0.05037179796675923,"221":-0.0519254555476889,"222":0.016462092509425937,"223":0.12448854713775587,"224":0.011633906738025723,"225":-0.07545396792447999,"226":-0.01302791024183158,"227":-0.010969227345342655,"228":-0.059083861055442145,"229":0.02078912402397741,"230":0.0035069028766631007,"231":0.03591101050090612,"232":-0.02671009857295884,"233":-0.023450772657136566,"234":-0.014530818642340012,"235":0.061852520713870346,"236":0.01552270442144818,"237":-0.010482949277411753,"238":-0.02747829691412504,"239":0.04005318978152812,"240":-0.14690672057014892,"241":0.09141846045169548,"242":0.11163657644268765,"243":0.028728727210160065,"244":-0.045919983386581334,"245":-0.04551521082055433,"246":-0.0444020495558203,"247":-0.06360695568278958,"248":-0.040800977481221454,"249":0.024815623530944388,"250":-0.04579687350905324,"251":-0.02615556844373381,"252":0.007567502265524156,"253":-0.07371553218675375,"254":-0.024258805163776414,"255":-0.024772579469057428,"256":-0.04585549334145992,"257":-0.002732843164141455,"258":0.01842796794415619,"259":0.0071841210286657025,"260":-0.011060036792089393,"261":-0.06033011170984393,"262":0.01637206827161691,"263":0.0050151420249710576,"264":0.030071635249331145,"265":0.007415188607389414,"266":-0.02734587881785725,"267":0.0025780395536141223,"268":-0.006256840624890555,"269":-0.11149745057663156,"270":0.028038183901668717,"271":0.03241530003456153,"272":-0.032567709804733586,"273":-0.03649233665923638,"274":-0.03643257971851589,"275":0.06711341377077201,"276":-0.002774507049068677,"277":-0.05292161039268497,"278":0.011293078895326152,"279":0.03158452905767559,"280":-0.06979945985666398,"281":-0.052123309109960485,"282":0.04583320266806523,"283":-0.031079816925093533,"284":-0.0729632382874354,"285":0.10756063814840298,"286":-0.03207661125553026,"287":-0.11539291181098117,"288":-0.001719079232945832,"289":-0.03713176335239685,"290":-0.04169060526086314,"291":-0.04886894351894975,"292":0.021086234171558194,"293":-0.02042763813571732,"294":-0.106278498356118,"295":-0.1174585665470376,"296":0.14261831433178782,"297":0.04580401216913894,"298":0.05652846152425669,"299":0.027052514018170173,"300":-0.010197612880951647,"301":-0.08890227941228418,"302":-0.0030387799120311053,"303":-0.029921876679727847,"304":0.0365714597481231,"305":0.0008979325757935332,"306":0.014086344756748938,"307":0.16086310730328168,"308":-0.002739478655430364,"309":0.032063180539479104,"310":-0.03684746053114649,"311":-0.07168173901295842,"312":0.018338806892843732,"313":-0.07764521825309248,"314":-0.032854331604869676,"315":-0.04642856511656542,"316":-0.02685661194928089,"317":0.017191458477461494,"318":0.0520708936385469,"319":-0.013770776867921457,"320":-0.046905215165458314,"321":0.06068063703830012,"322":-0.011841887352727364,"323":0.030981690460966403,"324":0.14295193183932442,"325":0.15344575489097448,"326":-0.005134261312316546,"327":0.03407407075410855,"328":0.04657888127473003,"329":0.07687990194541255,"330":0.005360638366845411,"331":-0.0426766468009245,"332":-0.021031804638609538,"333":0.03316002105418206,"334":-0.021972954866777368,"335":0.04735587595370992,"336":-0.014643267586972937,"337":0.03461456708364861,"338":-0.18235703511835044,"339":-0.10976844546295121,"340":0.04803287625334021,"341":0.038363956714358334,"342":-0.02285136343460248,"343":-0.009709533040521029,"344":0.051249906679585046,"345":-0.006166172710197409,"346":-0.03204000616820211,"347":0.00548385036028257,"348":0.1097545592426593,"349":0.0024527477670853942,"350":0.04339722683948832,"351":0.07251598049953129,"352":0.07942866903140688,"353":-0.009420401180580608,"354":-0.020057669006618244,"355":0.061423269760335325,"356":0.05594036023850308,"357":-0.03664096472690714,"358":0.05545494396730909,"359":-0.001160825429815951,"360":-0.05091626236985955,"361":0.0003099079584286419,"362":-0.07731921309266052,"363":0.06226630254708903,"364":-0.010768988377536991,"365":-0.0868206748655742,"366":-0.038961430071616336,"367":-0.031090383077930134,"368":0.022954809543293795,"369":-0.009739059804608579,"370":-0.04802754161236866,"371":-0.033883349859088155,"372":-0.014763190091136354,"373":0.028619143226532855,"374":-0.010049944825964358,"375":-0.014962401725712119,"376":0.06454774806808057,"377":0.06113163581654627,"378":-0.0022679633916047855,"379":-0.03630118903990179,"380":0.016816041012976048,"381":0.04114076845521024,"382":0.03081651328965666,"383":-0.07275035149565855,"384":-0.09313247904664855,"385":-0.08209385149995287,"386":-0.0038060414703279897,"387":-0.08162305829212757,"388":-0.09439805026061393,"389":-0.07693194278584199,"390":-0.04077502366507488,"391":-0.08314766029758239,"392":-0.03527994552271052,"393":-0.10063874893166977,"394":-0.023292572802374463,"395":-0.01957790114365869,"396":-0.042102297791111014,"397":0.0055515925027961885,"398":-0.10056000340592569,"399":-0.037860391230220725,"400":-0.003807549990800125,"401":-0.052868769139594395,"402":0.02280937488150086,"403":0.042675882646418736,"404":-0.04255443204556131,"405":0.04584436508707804,"406":0.04453543256098294,"407":0.049566297737139775,"408":-0.07232791961271037,"409":-0.06837669748716795,"410":0.002223975748042531,"411":0.0060304477217951674,"412":-0.058596890240717306,"413":-0.008071955704438756,"414":-0.07417555821174517,"415":-0.08548486049721499,"416":-0.02294109149459599,"417":0.08180036839299315,"418":-0.06107964631398617,"419":-0.060057093837169465,"420":0.02743399474166864,"421":-0.0402006653928089,"422":0.004786935925898358,"423":-0.07555540011862043,"424":0.010420848295503191,"425":-0.10233086146626712,"426":0.06960030558818135,"427":-0.018394416827110977,"428":-0.04548003963171799,"429":-0.009894046388173686,"430":-0.004267323740478567,"431":-0.0009161554253479831,"432":-0.0007081043164259537,"433":0.0722672356633269,"434":-0.006825101115699563,"435":0.014182236719467067,"436":0.07321391334410415,"437":-0.03424272020481857,"438":-0.060209259287110975,"439":0.016822708228056076,"440":-0.007111408178321001,"441":-0.028148329088155156,"442":0.05799858332926,"443":0.08914913405437805,"444":-0.01428960272581569,"445":-0.07168318810261569,"446":-0.018618418212245802,"447":0.06550088969633619,"448":-0.014853247274679463,"449":-0.03092802933057751,"450":-0.08727973906344924,"451":-0.08558193243401946,"452":0.012602016899401448,"453":-0.0013608447269916075,"454":-0.04972680007841891,"455":-0.027962582073544035,"456":-0.021117054011588875,"457":0.05852285900699118,"458":0.0265019089208753,"459":0.010736482985006665,"460":0.013639046589231835,"461":-0.08732376655315688,"462":-0.03192698613323502,"463":0.06526418869721687,"464":-0.058162424332179496,"465":-0.010123499644219111,"466":0.038213048455507964,"467":-0.014924031424132359,"468":0.050268713475170354,"469":-0.016680636224272637,"470":0.010003533044510703,"471":-0.03498328820645758,"472":0.0383229180042952,"473":0.04983277863782244,"474":-0.04013502577671211,"475":-0.014289646071429296,"476":0.03480907157662198,"477":0.10227634789057781,"478":0.10339387640662748,"479":0.0031426554414793386,"480":0.037073320917863,"481":0.030172178605888725,"482":-0.04473532270736933,"483":0.017523422356045114,"484":0.047198981276238325,"485":0.0040168439776265994,"486":0.057865707711360896,"487":0.02482569437575749,"488":-0.05298806603616212,"489":-0.0069426201732803285,"490":-0.05058374944264631,"491":-0.014316949201613863,"492":0.025882104506610496,"493":0.016207641177700852,"494":0.027702173615530148,"495":-0.05949649384031793,"496":-0.01751398121275502,"497":-0.03811244346964635,"498":0.0680197733787899,"499":0.006169732601452821,"500":0.04791606311750272,"501":0.01596736776800813,"502":0.08963088990649931,"503":-0.06225656666289274,"504":-0.009195576495927645,"505":0.0631997031821756,"506":-0.045084453258282225,"507":0.04740839101781449,"508":0.021795919273155644,"509":0.026595894306557365,"510":0.03224744247746133,"511":0.06553404179257448,"512":-0.0001720142621529897,"513":-0.06889703483192677,"514":0.02226561972873441,"515":-0.045229275114707826,"516":0.030132601928558374,"517":0.1006283014425381,"518":-0.05115871127721936,"519":-0.049519319186702215,"520":0.022812413367353936,"521":0.05319587168347572,"522":-0.11743393592787374,"523":0.05098200000158403,"524":-0.04503412021631923,"525":-0.16593055817310828,"526":-0.03193952181898074,"527":-0.006155170220123325,"528":0.022718690401393436,"529":0.06917560080647063,"530":0.1117539658499255,"531":-0.03088376995193475,"532":-0.02961527516221145,"533":0.043728670054159716,"534":-0.003997112270224807,"535":-0.00667064670651399,"536":0.0006945561702083975,"537":-0.05444675819152614,"538":0.03169300306496532,"539":-0.0519876044492343,"540":0.06777209851324732,"541":-0.05094918521406029,"542":-0.11180564500229029,"543":-0.020086662546046945,"544":-0.024865905077963813,"545":-0.005859810938137373,"546":0.001083358196238106,"547":-0.004944586775831992,"548":0.0018579960377294493,"549":-0.07919777397489441,"550":-0.05209503000067478,"551":-0.04013556317166154,"552":-0.03374803763702048,"553":-0.06646965725298543,"554":-0.012212908877764961,"555":-0.037042114860171706,"556":0.001002716824739439,"557":-0.012276792284315009,"558":-0.04959842526809986,"559":0.10132233571071345,"560":-0.000530213730006333,"561":-0.08661899210573043,"562":-0.009598225929469817,"563":-0.02340616330388536,"564":-0.03405700091450451,"565":-0.09383296712574656,"566":-0.07880366005568103,"567":-0.07962895241322061,"568":-0.03920304828735913,"569":0.027152763408746363,"570":0.012395417230174996,"571":-0.07363531793309948,"572":-0.06628472820202475,"573":0.17785302422966742,"574":-0.05240391029456217,"575":0.03404071034119424,"576":0.08889259893469821,"577":-0.037569739248610214,"578":-0.012708597583686775,"579":-0.026858303538378578,"580":0.06720481045522947,"581":-0.07835879484759899,"582":-0.05784221029046096,"583":-0.04863106684570477,"584":-0.023852117002677427,"585":0.008485997456209819,"586":-0.01261906242893446,"587":0.07562982211505867,"588":-0.03848103184160544,"589":-0.14334721277731463,"590":-0.07279361302375224,"591":-0.04170147864266341,"592":-0.06220947785562892,"593":0.1283100180873974,"594":0.03454718099615836,"595":0.011049206080595798,"596":0.05803890809094343,"597":0.04385081381742122,"598":0.012076396680103825,"599":0.05370002705585486,"600":-0.03162734994979327,"601":-0.010555313218202425,"602":-0.14481226595379873,"603":-0.008177654467963678,"604":0.04556934060895755,"605":0.10223291300453265,"606":-0.023251555012537742,"607":-0.00010050178209952427,"608":-0.0727448609659124,"609":0.1280350892350134,"610":0.025022752782648115,"611":0.09126834334407448,"612":0.12455319953056523,"613":-0.017593653475369807,"614":0.02974030737353131,"615":0.08053989189882597,"616":0.018471669563127513,"617":0.02404276936324435,"618":0.061150561493751886,"619":0.04627202261404505,"620":0.01785134068671399,"621":0.0581771254415715,"622":-0.019481790444503586,"623":-0.04886998303851332,"624":0.11146357927842013,"625":0.049373618212892836,"626":0.04139667935228231,"627":0.007515613958908519,"628":0.02633673368521648,"629":-0.04663159050191266,"630":-0.04301538860255866,"631":0.021716772713168138,"632":0.01299088398720162,"633":0.05392192179820626,"634":-0.007362513271171409,"635":0.001698327336603105,"636":0.04116954560661848,"637":0.06864469929941783,"638":-0.13893142978357154,"639":0.0511837642086077,"640":0.03599618438432718,"641":-0.058071688156945134,"642":-0.06648760813129216,"643":0.026910488111801866,"644":0.07023012439946237,"645":-0.022908386375448314,"646":-0.012142661629679268,"647":0.032885754042660205,"648":-0.029845119224605504,"649":0.011102276674495695,"650":0.023514546023813882,"651":-0.024137720421843402,"652":-0.029039448396325288,"653":-0.021011262978774384,"654":-0.10310267696982302,"655":0.045122233771762346,"656":-0.016106109912008896,"657":0.008520461641360649,"658":-0.10666781712119836,"659":-0.007532166978772341,"660":-0.04930510748812343,"661":0.018305088883800592,"662":0.02776496065782236,"663":0.043151374103227086,"664":-0.0011089650515646436,"665":0.004053926703763113,"666":0.08801273309519012,"667":0.016276952507317127,"668":0.009522201178767106,"669":0.008973027124533722,"670":0.022755014913207975,"671":-0.014554883899253414,"672":-0.03334320498892386,"673":0.020966511000998986,"674":0.011483403133778476,"675":-0.06949227220428429,"676":-0.05116814467452711,"677":-0.03459474964200124,"678":-0.038437143783688996,"679":-0.10109391393470997,"680":0.1382693898768761,"681":0.03980945458503495,"682":0.02133580246936213,"683":0.04490612786324149,"684":0.03814859807819974,"685":0.06792872095073703,"686":0.037830310707826234,"687":0.0003882190738252851,"688":0.10022792233527017,"689":0.017108207464302846,"690":0.07693417848978348,"691":0.10152476946539817,"692":0.010286690321881857,"693":-0.05079289852343753,"694":-0.04168572952550794,"695":-0.03609935931754342,"696":0.021609875509058036,"697":-0.05763952275459954,"698":0.08487934743394382,"699":0.009341997454193092,"700":0.036681310127910725,"701":0.057685854447382834,"702":-0.01214811262972277,"703":0.11419821543365932,"704":-0.01728970969344547,"705":-0.1211941899037249,"706":-0.04417282025440476,"707":0.12122623738851818,"708":0.017255317145175413,"709":0.014273120790741528,"710":0.11860409509194424,"711":-0.05054973623676524,"712":-0.0462369883361387,"713":-0.013448335641290554,"714":0.007889440964368853,"715":-0.07748192294882503,"716":-0.05265892823305749,"717":0.04017378504628183,"718":-0.01695428790945913,"719":-0.0491674545653366,"720":-0.04897759770789639,"721":0.023449269110818072,"722":0.1107000040602474,"723":-0.015309656597335899,"724":-0.013531736491242745,"725":-0.04989156757061711,"726":0.02224494250019971,"727":-0.032954413107854165,"728":-0.08062404550704481,"729":0.14395892762376905,"730":0.09160597660516281,"731":-0.04219176623106826,"732":0.05682769395248917,"733":-0.06994019797776685,"734":-0.074704361339264,"735":0.16499821302591716,"736":0.009050535795422088,"737":-0.009002306702575345,"738":-0.07990367178536269,"739":0.021770025632633624,"740":-0.04438046483796718,"741":-0.09212904203340104,"742":-0.012346508465673922,"743":-0.05579791124567857,"744":-0.07995751141594817,"745":-0.0514656272716288,"746":-0.06487198583425008,"747":-0.02178134171801493,"748":-0.1264790106851446,"749":-0.04073180087533541,"750":0.04924621630243621,"751":-0.05043273185964014,"752":-0.05718374716587715,"753":0.009164948214320012,"754":-0.0887945173867772,"755":0.009029725275007488,"756":-0.004834874625296451,"757":0.0722850576967254,"758":-0.03645853987193761,"759":-0.007469588847116448,"760":-0.030442465607392912,"761":-0.0388866381398327,"762":0.04992321561589953,"763":0.002070287305293727,"764":-0.06932563514473059,"765":0.12371958814201854,"766":0.09710803010148349,"767":0.043634465308254246,"768":0.07743144594114659,"769":0.003486114330872643,"770":-0.13895908457087508,"771":0.1890823876333447,"772":-0.01937851764569768,"773":0.06437157616221284,"774":-0.10697788306626185,"775":0.0004701153879104037,"776":-0.02768090171699069,"777":-0.07431813002742296,"778":-0.0182175531397779,"779":-0.07406956812487307,"780":-0.060475002738068606,"781":-0.02442848726963425,"782":-0.05270245317007576,"783":-0.012213786222188548,"784":0.02020102855099688,"785":0.07575442050567224,"786":0.003699762262819246,"787":-0.061268832384063034,"788":-0.07978588189964732,"789":-0.04834170697387313,"790":-0.0015144723689449072,"791":0.024280321141065486,"792":-0.14113112252251162,"793":0.03881213294851372,"794":0.08132710454012343,"795":-0.04955587429109309,"796":-0.07521597331240229,"797":-0.05268221994923387,"798":0.15754227573288498,"799":0.027904922723202132,"800":0.006714414104887009,"801":0.10462275103089849,"802":0.09230633631803775,"803":-0.1309954600388177,"804":0.05506016353223022,"805":0.0943222301775919,"806":-0.07946030721860443,"807":-0.04935556493957756,"808":0.1254338606909276,"809":0.010663453793290686,"810":-0.152629820521486,"811":-0.05784848153634963,"812":-0.04386184924528362,"813":-0.019661640114681727,"814":-0.014493121359817706,"815":-0.026534181535095562,"816":0.07190503106844476,"817":0.14770604986882596,"818":-0.0960522353897104,"819":0.08390177293222555,"820":0.04581915711673974,"821":-0.12186862707153491,"822":-0.23165353400679126,"823":0.048276306049025,"824":0.0026513281556985913,"825":-0.04366412830332277,"826":0.058707008287530185,"827":-0.03187624181155742,"828":-0.0635011164067273,"829":0.0016729111155571288,"830":-0.06191032142846702,"831":0.011198994347580038,"832":-0.06720471089693507,"833":-0.0483946291302595,"834":-0.09162191905465639,"835":-0.08270606989314057,"836":0.0081391647173455,"837":0.036542151722336415,"838":-0.005041527963551464,"839":0.027353832551540256,"840":-0.2044493970707802,"841":0.06389509941449266,"842":0.06332008792921245,"843":0.0012423384403137119,"844":-0.024036742052006323,"845":-0.0072894179199735265,"846":0.09347702383835714,"847":-0.19567169276336746,"848":-0.0407600195219938,"849":0.163243903715656,"850":-0.09680380959211769,"851":-0.17409827916105364,"852":-0.08365722787156109,"853":-0.05070151039109688,"854":-0.03683553640108026,"855":-0.17712269032583577,"856":-0.036336657852048426,"857":-0.1338276192642795,"858":-0.16268790853709375,"859":-0.000311539160577045,"860":0.01991156680511539,"861":-0.21054208648697098,"862":0.030660201058321245,"863":0.0952405950854589,"864":0.03791405497979574,"865":-0.07048305387842707,"866":0.013644887507466353,"867":-0.016488449477152452,"868":0.038238567863354764,"869":-0.01658627033067066,"870":-0.07425554749488429,"871":0.11188181821482075,"872":-0.09187952408731763,"873":0.08201948446241623,"874":0.19910935761692944,"875":0.13334922508518893,"876":-0.036673076553806555,"877":-0.17691690077036965,"878":-0.030970010179412963,"879":0.17567000315401163,"880":-0.1459208976063875,"881":0.026791054876547555,"882":0.03423133093287758,"883":-0.0550578943081229,"884":0.03833286280176458,"885":0.042750877229539526,"886":0.09674583134384092,"887":-0.0764402317167242,"888":-0.1028253005834936,"889":0.06412681977032944,"890":-0.006438476668101319,"891":-0.00912202893101919,"892":0.05957707001619837,"893":-0.00831528179075212,"894":0.017582616961306776,"895":-0.02321763842578104,"896":-0.09706303022455848,"897":-0.04165340011542949,"898":0.06275958197002983,"899":0.015481695552469041}},{"sx":5,"sy":5,"depth":36,"w":{"0":-0.052346036245804035,"1":0.05480892978381096,"2":0.011100819311263277,"3":-0.025770390997441304,"4":0.028646337372354932,"5":0.014161654640954873,"6":-0.038041475702366406,"7":-0.051643768216785825,"8":-0.0035299633309192583,"9":-0.020714627045135426,"10":-0.046680984320085564,"11":-0.0611607665768414,"12":-0.003337310274760237,"13":-0.05976536617369032,"14":-0.08889976111552095,"15":-0.0602840822623629,"16":-0.0455686762239841,"17":-0.07808482659628459,"18":0.006223749578469459,"19":-0.0061813652435593275,"20":0.051341031135990194,"21":-0.06945734283955286,"22":0.033970822224288225,"23":-0.019251885281324283,"24":-0.0014451952215490335,"25":-0.05480471721468405,"26":0.003324441739118762,"27":-0.022749727365470377,"28":0.00547059523724463,"29":-0.030698170771510127,"30":-0.00882306187309785,"31":0.0023473817205616823,"32":0.098134349516483,"33":-0.006892687392854806,"34":-0.019322329416960403,"35":-0.09070890101552662,"36":-0.03739199706830727,"37":0.011739166159182338,"38":-0.08062213755967479,"39":-0.017099977308787363,"40":0.010887629224237898,"41":0.023974362472149326,"42":-0.021537830216685056,"43":-0.04721347940473758,"44":-0.027663988771784425,"45":0.015623653873803645,"46":-0.01795738164419903,"47":-0.038311964834419364,"48":-0.0404093148831389,"49":-0.04697276071191934,"50":0.011902240253445174,"51":-0.04602854815633103,"52":-0.021046196091462743,"53":-0.00887764158062983,"54":-0.007047917514022278,"55":0.0011818486160646577,"56":-0.018885263140335385,"57":-0.09007651418615203,"58":0.001462696225075359,"59":-0.0010100723743148745,"60":0.008507636325970186,"61":-0.08323204535424579,"62":-0.04442019377313163,"63":-0.010731467638623043,"64":0.016611502622794573,"65":-0.13135022127887383,"66":-0.0784599712970675,"67":-0.03439045017593934,"68":0.01872712841576499,"69":-0.028934038501541023,"70":-0.060847798896491494,"71":-0.014006292447926505,"72":-0.06041010100262624,"73":0.0891410424937871,"74":-0.003279652270499303,"75":0.04801217967447837,"76":0.01929438831436166,"77":0.006219425073276217,"78":-0.00994793588173155,"79":-0.05948415116908093,"80":-0.06430396489285695,"81":0.01046949033830127,"82":-0.017538610484490905,"83":-0.01889903949653533,"84":-0.029202945006476397,"85":-0.0701461733479985,"86":-0.06674961626864333,"87":0.01517495267166719,"88":-0.03496449604665533,"89":-0.008130128042402507,"90":-0.019174133581052414,"91":-0.008190265675531126,"92":0.021509421370289043,"93":0.028526399445119175,"94":-0.01565140003748869,"95":-0.027842098201710953,"96":-0.018919712719918488,"97":0.0035299357151213954,"98":-0.017941792080903626,"99":0.018392731052273546,"100":-0.05260818114718762,"101":-0.07443164696323616,"102":-0.01671035557744813,"103":0.016086312327495647,"104":-0.059635009860375364,"105":-0.01982252081720328,"106":0.05673245554090874,"107":0.027959619263682182,"108":-0.007840706425214505,"109":0.05357275758216239,"110":-0.037369831179556265,"111":-0.036106454413305816,"112":-0.013048559429266209,"113":-0.060937113438547116,"114":0.030275287648980014,"115":0.022785302130473167,"116":0.03163127393470326,"117":-0.06824316394266447,"118":-0.008722985319386155,"119":0.010768431486002573,"120":-0.03189221235797238,"121":-0.08298203355437869,"122":0.056638401286060985,"123":0.060003016472035924,"124":-0.005107261086658687,"125":-0.002215099359605181,"126":0.013622816467250375,"127":-0.032598625187560355,"128":-0.04767277996823497,"129":0.032359558331214976,"130":0.015850841788496103,"131":-0.006801443903698592,"132":0.008595693246338364,"133":0.03997016746549259,"134":-0.04860779034012264,"135":-0.029052701014022967,"136":0.0372156949930906,"137":-0.05954302043625292,"138":0.03483342969173688,"139":0.02515875577530753,"140":0.006202420748360577,"141":-0.019355805925011193,"142":0.003218123118657736,"143":-0.017860776513452997,"144":-0.06716961101852237,"145":0.18474990676310946,"146":0.09596944884631624,"147":0.006216908357218818,"148":-0.004469474630173543,"149":0.012681873786127137,"150":-0.040786936239262876,"151":0.025285481985909606,"152":0.027032849810778865,"153":-0.000904498655031991,"154":-0.0025059343800379755,"155":0.0332588481398705,"156":-0.037773795821640165,"157":-0.0847308552833337,"158":0.03640810927638489,"159":0.18226188013745465,"160":0.03289515057988044,"161":-0.017165173525020085,"162":-0.0005702253933404896,"163":-0.0075708279858574985,"164":-0.03509328043358127,"165":0.006271864266946565,"166":-0.0006768529202858242,"167":-0.06271473846639886,"168":0.026911070570702952,"169":0.07438492823633082,"170":-0.034555336368099814,"171":-0.0207643197516863,"172":0.014354436762363566,"173":-0.0805128927864648,"174":0.053601852634336,"175":-0.0393294701549337,"176":-0.11351694989551221,"177":0.015217084637384167,"178":0.023017414653034637,"179":0.03814192117747784,"180":-0.019847575434786404,"181":-0.0010918410150161759,"182":0.01364287656739208,"183":0.009982311468543408,"184":-0.002735532086844545,"185":-0.049001614535501704,"186":0.03160344102199708,"187":0.05073544383273818,"188":0.03468373270308979,"189":0.004959896161953397,"190":-0.08020004689458626,"191":-0.01790998140438352,"192":-0.02065956295719279,"193":-0.009418926260425002,"194":-0.09163278022667157,"195":0.0348422645523001,"196":0.01740362251296198,"197":0.023906196056711255,"198":0.029100431923826803,"199":0.053262022444593334,"200":-0.0030126096528732375,"201":-0.044693133254452434,"202":0.01309540898084679,"203":0.054251799527022956,"204":-0.044162259129301086,"205":-0.04934128458291407,"206":0.012325788911420228,"207":-0.03289884176634358,"208":0.030800980006140122,"209":-0.025435779144114972,"210":0.04011093357157645,"211":-0.038505661745249664,"212":0.00939751845770961,"213":0.04535111894863546,"214":-0.027608957934031588,"215":-0.0721141160693925,"216":-0.08436541755001026,"217":0.039785304919875544,"218":-0.035694933819133676,"219":0.019888713897491746,"220":0.03875071498121621,"221":-0.021184744022176783,"222":-0.019794309597021706,"223":0.007767677008262191,"224":-0.0001870920289800293,"225":0.0346874192010095,"226":-0.022880602713699513,"227":-0.013361775312789894,"228":0.001041847936733234,"229":-0.008502184620418815,"230":-0.10775282434948388,"231":0.0398076600135968,"232":-0.019663783318910742,"233":-0.05581996468226453,"234":-0.023927652148818247,"235":-0.008766490369160738,"236":-0.08451697479750378,"237":-0.05389271250221371,"238":-0.014886950316660109,"239":-0.03665735892704168,"240":-0.07689704874533466,"241":-0.043245551542210936,"242":0.007883454309887596,"243":-0.006267286151468695,"244":0.019970482843898157,"245":-0.03279977429058862,"246":-0.05974598106968267,"247":-0.0936308720031377,"248":0.030429317831384813,"249":0.023579253301926506,"250":0.08055172778583133,"251":-0.039597335334645115,"252":-0.015286125639246048,"253":0.015825438647770574,"254":-0.020697856231054298,"255":-0.00290063578065549,"256":0.0178537868090667,"257":0.015299914178337868,"258":-0.06867952326612346,"259":-0.05005628015997958,"260":0.01085360833325377,"261":0.10119830380823551,"262":0.013235456097006115,"263":-0.04634842965126545,"264":-0.02404328249163013,"265":0.020618516274653133,"266":-0.04751990703462448,"267":0.008202905300583414,"268":0.028981095186572377,"269":-0.07528814716913244,"270":0.005610297049658715,"271":-0.00840953046726411,"272":0.04004572738045999,"273":-0.018689390576869098,"274":-0.03345368376560216,"275":-0.013475872306795615,"276":-0.02609575383370145,"277":-0.011460917899739433,"278":-0.029393513296691202,"279":0.00046583341168499775,"280":0.008187404955042062,"281":-0.04264148772748216,"282":-0.02632520719604217,"283":0.033590514457860474,"284":0.053865860357778295,"285":-0.06947929895965704,"286":0.03609286871980545,"287":-0.002772562075976045,"288":0.02898343128559867,"289":0.008739240739409935,"290":0.04712251141255817,"291":0.02173267392591184,"292":-0.06436244064114566,"293":0.03213790176264081,"294":-0.020464504097862143,"295":-0.021661968224345404,"296":0.021392209632290368,"297":0.005938039100197018,"298":0.002023485083910919,"299":-0.02660201635786801,"300":-0.052591296625699585,"301":-0.0587849643684755,"302":-0.012925649732227689,"303":-0.026835053853416887,"304":-0.03632513091298506,"305":0.03045010403474525,"306":-0.03388146079753642,"307":-0.04457907127255332,"308":-0.023590668606255506,"309":-0.030487392304949464,"310":0.039892176344117396,"311":0.010095036674635613,"312":-0.025143357846972806,"313":0.028171613017178698,"314":-0.012820068079062639,"315":-0.08161192031905488,"316":0.10902641491954247,"317":-0.030130177881868773,"318":-0.0552169615390034,"319":0.08239456038428669,"320":-0.011385756708095031,"321":0.06465157273885186,"322":0.04478377456002738,"323":0.07429324740790427,"324":0.04754556489997358,"325":-0.07916311685549812,"326":-0.006396783870618898,"327":-0.030954365043831956,"328":0.011226744695253537,"329":-0.0081849513157328,"330":0.030757230531159942,"331":-0.025058035875679178,"332":-0.003753097534043722,"333":0.06791951841521048,"334":0.006542473636698309,"335":-0.0222473588463047,"336":-0.024112786857794947,"337":-0.06520977163881293,"338":-0.007462044375168277,"339":-0.03352670891502865,"340":0.010768980433324638,"341":0.001130498619418369,"342":-0.01462591225231028,"343":0.009795605937957497,"344":0.030861885769141978,"345":0.09822820020144701,"346":0.07332743300492314,"347":-0.07199959161466551,"348":0.04561302746153143,"349":0.028551911041549343,"350":0.0004645105659785884,"351":-0.0452446211822104,"352":0.07869347118460798,"353":0.03811090758823937,"354":0.05920507185953699,"355":0.031871808023180535,"356":0.07629303538248715,"357":0.020357178368536913,"358":0.014433347218751072,"359":0.12421493576889553,"360":-0.1327285066315029,"361":0.05260254353815496,"362":-0.0014113321644567771,"363":-0.042404837600269606,"364":0.004286178866127849,"365":-0.027398530096846792,"366":-0.0256953887264527,"367":-0.01691941117735019,"368":0.0438120483456949,"369":0.012199352503594586,"370":0.007414154866391488,"371":0.036491760623178875,"372":0.0014531723602497506,"373":-0.018358414039288715,"374":-0.00844088625245124,"375":0.042802211233359456,"376":0.004906029668373063,"377":0.01854982433161914,"378":0.007255152668504912,"379":-0.017627350610042804,"380":0.010160710547390357,"381":-0.03817389307981261,"382":0.01551563280073414,"383":0.013043965194899653,"384":0.007234456447671702,"385":-0.040241651912407375,"386":-0.02224559600899144,"387":-0.022990073028937262,"388":-0.026849495916554125,"389":-0.06934798603451056,"390":0.04334508179651744,"391":-0.03649925400111883,"392":-0.005721580628425386,"393":-0.028279248695791903,"394":-0.019957768895863346,"395":0.00044577553346604633,"396":-0.030999844744877526,"397":-0.03022780468948871,"398":-0.011446193258060268,"399":0.021231443755769824,"400":-0.012392469939938625,"401":-0.06489937963787466,"402":-0.00657083179456975,"403":0.004143625297593958,"404":0.007363363776242194,"405":-0.007046529169458096,"406":0.08986852921926283,"407":-0.03754068460904671,"408":-0.0760822960099935,"409":0.04643803952552524,"410":-0.036629242923231595,"411":0.08894164308678347,"412":-0.0032890939127610984,"413":-0.018992721102562633,"414":0.016152982034247206,"415":0.02583522987311697,"416":0.025830862234847214,"417":-0.06192661931001086,"418":-0.030761610923884443,"419":0.014287290340137468,"420":-0.01825175483126758,"421":-0.03286240156371409,"422":-0.023611448479456905,"423":-0.034177155083606345,"424":-0.002260902020180876,"425":0.005436392468370694,"426":0.022035292608422366,"427":0.03523778053047217,"428":-0.013972751826519126,"429":0.04300246726487777,"430":0.040497548291513634,"431":0.02295562776901468,"432":0.02992121933885548,"433":0.04797482756405101,"434":-0.045293350495672915,"435":0.02052843159753382,"436":-0.011195340067121206,"437":-0.004593363362405978,"438":-0.03719761663174498,"439":-0.06537033636938741,"440":0.024618168076950896,"441":-0.030034108816210173,"442":0.015839398297850606,"443":-0.017046805013482845,"444":-0.038866889237184954,"445":-0.043955178968605325,"446":-0.06516262570798469,"447":-0.011237493450002274,"448":-0.00987288176257968,"449":-0.037694757333177696,"450":-0.027223609005641095,"451":0.06644491811649703,"452":0.054149001920407704,"453":-0.00989583484018714,"454":0.04106668864308938,"455":0.07842415581032655,"456":0.027297414066690676,"457":-0.036132895605492196,"458":-0.06589513951376864,"459":-0.07695003837521731,"460":-0.014506306150788307,"461":-0.034720954705741255,"462":-0.04767364847645986,"463":0.003915104319691552,"464":-0.05133322665117734,"465":0.09322535883031748,"466":0.043537043019213816,"467":-0.03747961360448654,"468":-0.018729073282706954,"469":-0.0815213597407472,"470":0.013369623187372224,"471":0.06302587483939597,"472":0.04631285362022431,"473":0.015863089729771147,"474":-0.011110694045714822,"475":0.01853922106162827,"476":0.005841761614615136,"477":-0.07179346297496267,"478":0.09634508231646151,"479":0.00012009874702744719,"480":-0.00057478831653762,"481":-0.11478437962953068,"482":-0.06895866622690149,"483":-0.015158776919305457,"484":-0.0429769090528427,"485":-0.017314483306889027,"486":-0.05817673135493638,"487":0.10528152379732904,"488":0.01874410152441698,"489":0.023555785026139617,"490":0.00654913015568005,"491":0.02176312265733161,"492":-0.03526786489360473,"493":-0.058941939569820474,"494":0.010224609087271512,"495":-0.03838920501566578,"496":-0.050193023394261224,"497":0.02761881993652496,"498":-0.05124010268060248,"499":-0.01637661099980109,"500":-0.08207621127111016,"501":0.04940708871942414,"502":-0.017343706377558072,"503":-0.04332318162943795,"504":0.004978613648723967,"505":0.01778145699292331,"506":0.0625775779182485,"507":-0.014658777755368302,"508":-0.020124644754006875,"509":-0.02191770067453675,"510":-0.0024918485571865765,"511":-0.08316157597399942,"512":0.05898529200470554,"513":-0.014933853670703007,"514":-0.04037590312364945,"515":0.010521135361621126,"516":-0.1256301925298231,"517":0.01695095892360857,"518":-0.12485045854222028,"519":-0.028886933400057706,"520":0.007040196427181065,"521":-0.015122028585820919,"522":-0.012750626546827497,"523":0.01156232930948267,"524":0.018054099987870352,"525":0.029719421343495273,"526":0.009604768964655503,"527":0.001428127046051158,"528":0.0004919453063288561,"529":-0.07733160898349599,"530":-0.08715197995415012,"531":0.03984717336318616,"532":0.03967670561497637,"533":-0.02129335702481448,"534":0.01635144555020607,"535":-0.03202599412360896,"536":-0.0050860811987876965,"537":-0.014439968272141609,"538":-0.014717129732584603,"539":-0.08111966981026243,"540":0.034369141980388464,"541":0.01431248986581225,"542":-0.029929882192688072,"543":-0.00910200094545178,"544":-0.07588532522311042,"545":-0.06025081252338362,"546":0.03649366026430416,"547":-0.06106952872167385,"548":-0.001888478335960246,"549":-0.05089297942098877,"550":-0.15888769824613033,"551":0.020076532235645633,"552":-0.09978439251694105,"553":-0.1632705464044992,"554":0.013022405826702343,"555":-0.10158504917610114,"556":-0.05613403073762016,"557":-0.03124034396348293,"558":-0.0644860542883034,"559":-0.014251971131532088,"560":0.044049186079830945,"561":0.006035037181761431,"562":-0.076819470663168,"563":0.004041277600698193,"564":-0.07560206306690498,"565":0.03257599785133062,"566":0.07043380169339872,"567":-0.022918715135086934,"568":0.0529877802947667,"569":-0.02447709489031933,"570":-0.05356137560384359,"571":-0.0760868867271942,"572":-0.12232531171417073,"573":0.013922057220209033,"574":-0.052205359372625944,"575":0.046751897568583486,"576":0.15587244082370863,"577":0.03262889683218596,"578":0.013610352122459098,"579":-0.0321962633088324,"580":0.01631275428530605,"581":0.03813076288449283,"582":-0.09317112157652004,"583":-0.014845720802735244,"584":0.011188061578607286,"585":-0.0002614366736490082,"586":0.021022274026656518,"587":0.00007996104785472629,"588":-0.06647937025633725,"589":-0.13790579944160541,"590":-0.09981474241928703,"591":-0.03267494763035291,"592":0.03303704872264283,"593":-0.004525012772847775,"594":-0.04327559487185237,"595":-0.02824049596015034,"596":0.03393274499405261,"597":0.08740753890106051,"598":0.01688856657791348,"599":0.021646464421749726,"600":-0.03453072418573633,"601":0.032804163601019724,"602":0.025907507043749653,"603":-0.005218908969407213,"604":-0.03261554206529271,"605":0.04236932235122209,"606":-0.06917013495137389,"607":0.017474551814454908,"608":-0.09306732872309813,"609":0.012588612561679023,"610":0.02278076763247062,"611":-0.0499153732242699,"612":0.03454908805450585,"613":0.04686704000830636,"614":0.03912258879411147,"615":0.025355953281036438,"616":0.07568142052607518,"617":-0.04130949839550497,"618":0.061310175849143785,"619":-0.05984869869330129,"620":-0.049780008999902675,"621":-0.023270739336801394,"622":0.09071928391011215,"623":-0.040270378024608304,"624":-0.031541456940297696,"625":-0.059582016440728004,"626":-0.07680549163057572,"627":0.005770371548092039,"628":0.025833873742672646,"629":-0.04071413783034561,"630":-0.10274885709658604,"631":0.005989549285084828,"632":-0.01618132888712319,"633":-0.027463530691636442,"634":0.04053114531383367,"635":0.044007633207607935,"636":0.060253588646905484,"637":0.018572819915213215,"638":-0.018349930308740003,"639":0.05261905479346523,"640":-0.013531692970736284,"641":0.05004049056127801,"642":-0.05139436041455986,"643":-0.0005859951206470065,"644":-0.05624854511280542,"645":-0.012285052532117997,"646":-0.009219787482352405,"647":-0.08558569916135986,"648":0.0029834819909509945,"649":0.02674864305694141,"650":-0.00710327544640098,"651":0.019463567227108482,"652":0.0213435547165848,"653":-0.02375839055920069,"654":0.08900973385935405,"655":-0.031197957926701193,"656":-0.04103314230220805,"657":-0.032018775884221765,"658":0.09860184452077063,"659":-0.03148403506895588,"660":0.033843843239202004,"661":0.05332907833681548,"662":-0.0017123124269165378,"663":0.05734822378355265,"664":0.11843384017640435,"665":-0.08656087662766913,"666":0.02622294383769436,"667":-0.06824141665959202,"668":-0.08419597091554747,"669":0.0032573493800608267,"670":-0.010432096408184977,"671":0.037595097490163,"672":0.07275545052618838,"673":0.03231440156767128,"674":0.04322744134184692,"675":0.01260820720314622,"676":-0.008340362099353939,"677":-0.031990930370224116,"678":-0.036651807813335185,"679":0.021234239594052826,"680":0.033353319596679344,"681":0.01777137702983716,"682":-0.04052677325000768,"683":-0.10005953926446257,"684":-0.06678538390782761,"685":-0.006409493196012817,"686":-0.029224397603181924,"687":0.019164763177942096,"688":-0.005425238871337384,"689":-0.018897496855023118,"690":-0.04410123982301542,"691":0.11156591640105754,"692":-0.021496226125206585,"693":0.05900983683425729,"694":-0.01311942833451855,"695":-0.05801946781805483,"696":0.061805229443132575,"697":-0.06198298898324295,"698":-0.11809558166500347,"699":0.026484496065970704,"700":0.03264088519730449,"701":-0.011443692279923909,"702":-0.09793597038262755,"703":0.0016931290593612924,"704":0.013484726640997763,"705":-0.018846608771222507,"706":0.003520201526638038,"707":-0.08973788188935948,"708":0.034134429479846094,"709":0.01025249417797267,"710":0.10602410889188861,"711":0.07293238487621359,"712":0.007526429968888644,"713":-0.0024352596460103424,"714":-0.04567971494942925,"715":0.07140802765416704,"716":-0.003987965862333456,"717":-0.07706663693174808,"718":-0.028095721431650802,"719":-0.046694978194947785,"720":0.16284093609359993,"721":-0.04073521070032879,"722":0.03302244422761412,"723":-0.023477416076212232,"724":0.12188442119147545,"725":0.07625894078209003,"726":0.08305421964643993,"727":-0.03628886720334562,"728":-0.04989117413179727,"729":0.018979676563674913,"730":0.059438427632661495,"731":0.10370341695118056,"732":0.018820168094590358,"733":-0.202011628528396,"734":0.0019743199988947477,"735":-0.08149290097478369,"736":-0.046483817797812826,"737":0.006316187278807564,"738":-0.07851684257656738,"739":0.09087026337302244,"740":0.009043569718172896,"741":0.11104169066451072,"742":-0.09772283927781082,"743":0.1287229224380091,"744":0.05058669865730603,"745":-0.08493494695362679,"746":0.01998994263469397,"747":0.0388358437389458,"748":-0.03445161632641823,"749":0.07248412971250519,"750":-0.07283769577632133,"751":-0.004224839263494284,"752":-0.04751084911151223,"753":0.09533633439887666,"754":0.011744526470444777,"755":0.03986564485330576,"756":0.04419248651021026,"757":0.12128526448207506,"758":0.03242931244266697,"759":-0.009887627652060403,"760":0.12858007349115597,"761":0.079911347075727,"762":-0.05776824531592204,"763":-0.14242976228752738,"764":-0.03935933464226884,"765":0.06858456995592306,"766":0.09450402991780535,"767":-0.11520993383776133,"768":0.012810783104425787,"769":-0.035256748979043566,"770":-0.10106927468105142,"771":-0.06005797718709243,"772":0.13177585249871626,"773":-0.02342017679101674,"774":-0.0230397397493068,"775":0.10561652961286326,"776":-0.02684027631952242,"777":0.05380733587290959,"778":-0.03196084358622204,"779":0.07557819635508452,"780":0.14857403957940266,"781":0.005482208807801269,"782":-0.04459057704051367,"783":0.07411434197279226,"784":0.10290327043258617,"785":-0.008050820504346029,"786":-0.05828082206724349,"787":0.11152312397783569,"788":0.04462825689600567,"789":0.04205210218386164,"790":0.03313701436177794,"791":-0.011364401344473094,"792":-0.12052364777434642,"793":0.14550338503350688,"794":0.002426889683222874,"795":-0.0666617768757812,"796":0.004195597693403004,"797":0.04370368234852824,"798":-0.0158496460471494,"799":0.07749769234782852,"800":0.01325928043525417,"801":0.11256853984644297,"802":-0.02827266709574965,"803":-0.08358786991623858,"804":-0.016108545197819967,"805":-0.03348210303253896,"806":-0.05436547125450124,"807":0.011340577887851097,"808":0.08087565164425828,"809":-0.054099022184530346,"810":-0.1204971354132316,"811":0.02559113600153813,"812":0.01663092275640164,"813":0.028703843827255517,"814":-0.027494444272360075,"815":-0.029487151115041212,"816":0.12815627824419779,"817":0.09393988808844153,"818":0.03303405982414507,"819":0.01086086415275043,"820":0.18316373540856304,"821":-0.12031075852483289,"822":-0.010916664376477769,"823":0.08914091506506622,"824":-0.007823849948283435,"825":-0.004328842799497368,"826":0.1271411017146878,"827":-0.11120275391500968,"828":-0.005207237644870383,"829":0.042798700642917215,"830":-0.020973844577659963,"831":-0.024293033929115908,"832":0.013530932314355242,"833":0.012690699370601955,"834":0.07311749583990093,"835":0.017257621365028824,"836":0.03759425655595859,"837":-0.02967350045645103,"838":-0.05790004055816365,"839":-0.052837411954130296,"840":-0.02617989360844442,"841":0.0262027626537512,"842":0.03951599612186595,"843":0.02379702840783751,"844":0.06720219350360729,"845":-0.061790382310260794,"846":-0.06268150628300324,"847":-0.1337169753295966,"848":0.07734982212655443,"849":0.01894867619155467,"850":-0.06486607305857808,"851":-0.12919487368759666,"852":0.04882773813483252,"853":0.10152907035068232,"854":0.013443561573122192,"855":-0.05912496198592371,"856":0.12061538502790613,"857":-0.10109086073140305,"858":-0.03607090453408739,"859":0.03560695433903176,"860":-0.10048993108290279,"861":0.054932510364116734,"862":0.02971887219262545,"863":-0.029692978771527788,"864":-0.09946444456634157,"865":0.03892368972271309,"866":-0.07925010170817766,"867":-0.002827033228132872,"868":-0.03962907137545924,"869":-0.005836367315155001,"870":0.032176962533075025,"871":0.08016679502957962,"872":0.017525478092611062,"873":-0.07930493559708078,"874":-0.030185996376469165,"875":0.0520276845755343,"876":-0.12250040805142284,"877":-0.0026649089899544232,"878":0.03417432960224726,"879":0.053460458709953404,"880":0.01986350077735161,"881":0.025008037904258103,"882":0.033232470087918554,"883":-0.06542709277964394,"884":0.03723805077772099,"885":-0.020625863963749436,"886":-0.06650841710643397,"887":-0.06116578742703952,"888":-0.007374460854853938,"889":0.00995973653854587,"890":0.09612494751866002,"891":0.005196907114596179,"892":0.03976255865337802,"893":-0.08738720630274792,"894":-0.04957166075220742,"895":0.017138623570032308,"896":-0.07762630897308527,"897":-0.05725240323151446,"898":-0.05143471903144171,"899":-0.06300633848729419}},{"sx":5,"sy":5,"depth":36,"w":{"0":-0.04198525829868145,"1":0.07767431865392545,"2":0.004159947253532235,"3":-0.009331521596198811,"4":-0.045034661315318955,"5":-0.011551788279880827,"6":-0.03212807512925138,"7":0.009138600798773122,"8":0.06121363502635433,"9":0.054155369262573395,"10":0.019918170161752995,"11":0.0260435882751248,"12":0.03010309306401895,"13":0.04996323245770492,"14":-0.011927702656474325,"15":0.02630494257208847,"16":0.07587130852507039,"17":0.04392843607571578,"18":-0.019311278408752384,"19":0.08439248435214736,"20":0.01082753882996075,"21":-0.037689373590663794,"22":0.004386926324617421,"23":0.0232930311273742,"24":0.003064548346457687,"25":-0.02736067524996874,"26":-0.007703776186305167,"27":0.026723726261453216,"28":0.006029600334004509,"29":0.0349297030067454,"30":-0.009524275879257707,"31":0.011509420556949718,"32":-0.007890807993276738,"33":-0.03555264009857205,"34":-0.028491745896915718,"35":-0.04562107249003648,"36":-0.008353517466824766,"37":-0.00601645389673539,"38":0.04297292212406176,"39":-0.053527075426077,"40":0.02890933842648835,"41":-0.005587695193322602,"42":0.07428016859246511,"43":0.01253702474080811,"44":0.06331702474357671,"45":-0.034072265766849914,"46":-0.02438906704239102,"47":0.018642305272069126,"48":-0.0024097011623836788,"49":0.012771962462730135,"50":-0.03329503527117513,"51":0.012927779468158866,"52":0.04129812838962098,"53":-0.022092671699583094,"54":-0.0026106469470829484,"55":0.030838322803694772,"56":0.007642077390968952,"57":-0.046591233463424836,"58":-0.013480301433645965,"59":0.00412450106597515,"60":0.0489857279031332,"61":0.0073229211674569385,"62":-0.0354822672999531,"63":0.03531543081499239,"64":-0.023056624592702416,"65":-0.06721716290161626,"66":0.009353583235642384,"67":0.0015780616817994593,"68":-0.04574121390041987,"69":0.021000341057982028,"70":-0.037176151922636264,"71":0.00877223964404182,"72":-0.026894679692548624,"73":0.02610076235408101,"74":0.03213717973253325,"75":-0.05235809597822283,"76":0.011139091227419885,"77":0.01800287124762923,"78":-0.010471796363478243,"79":0.006722845342479133,"80":0.016365828414673454,"81":0.026223313474947215,"82":0.019008148814035442,"83":0.04025009807979109,"84":0.033092191730386876,"85":0.05653518001324924,"86":-0.010346049734899094,"87":0.030367823972614734,"88":0.02683779096727194,"89":0.02925943849699116,"90":-0.013404369492464627,"91":-0.05714943519149468,"92":-0.019725656655046653,"93":0.014682912373090077,"94":-0.03306899345048003,"95":-0.007264526881911727,"96":-0.049071197512373564,"97":0.03510711717706264,"98":-0.011621307184505209,"99":-0.03600576739513832,"100":-0.03714453357942087,"101":-0.0676000446455607,"102":-0.012953499309655635,"103":0.013392898413297242,"104":-0.024128860072034967,"105":-0.01331883999938363,"106":-0.06133105492499771,"107":-0.05035808374730765,"108":0.018469874776486105,"109":0.006633871236855473,"110":0.0009367930733517006,"111":0.02842837118412987,"112":-0.049946488060054,"113":0.03485437805084814,"114":-0.0018750719121159581,"115":-0.0010725011868935102,"116":0.04107902996470711,"117":0.04689126097475,"118":-0.07056882065564352,"119":-0.03460245272751099,"120":-0.060039167585939766,"121":0.019499630122246793,"122":-0.0479524115043682,"123":-0.038815578631007874,"124":-0.04350305143290283,"125":0.010568608389124703,"126":0.03061830276639695,"127":-0.006750301428909124,"128":-0.008772778906755528,"129":-0.0181290580714406,"130":0.007293760665601246,"131":-0.029940944865101682,"132":-0.022562080531266862,"133":-0.004900895905709954,"134":-0.06937738671128602,"135":0.010937712688407117,"136":0.03523138158790763,"137":0.034120784625408324,"138":0.02102836319691166,"139":-0.037969372649667196,"140":-0.00040853421571401095,"141":0.02190897096508531,"142":-0.001560681944279334,"143":-0.017348507719068082,"144":-0.05025827080241111,"145":-0.019598231244178917,"146":0.008198133081405955,"147":0.010770788832552985,"148":-0.018829139019898532,"149":-0.037407188461876864,"150":-0.04558465388925319,"151":0.004101025230011862,"152":-0.02112776514031687,"153":-0.013273040552245423,"154":-0.05501804225230947,"155":-0.0218536217216392,"156":-0.023172894731166318,"157":-0.04256709150839625,"158":0.004658628540067138,"159":-0.011172703978768512,"160":0.02149529700866906,"161":0.025574436143262085,"162":0.034210324524893726,"163":-0.04588592053171573,"164":-0.0032903925470696743,"165":-0.004761619604234423,"166":-0.0791908202063246,"167":-0.023442835566492983,"168":-0.005903419186119256,"169":-0.006175138906396646,"170":0.039484816268936594,"171":0.03596518621844285,"172":-0.052956703010302614,"173":-0.036145051390651314,"174":-0.008558297844680193,"175":0.014419038995493499,"176":0.01672605040109007,"177":-0.001995779957442465,"178":0.009930463848551294,"179":-0.03290486501055316,"180":0.022406363936545964,"181":0.11486580374390358,"182":-0.05480158871382056,"183":-0.004997272258389022,"184":-0.00042914771210438257,"185":0.010647565720118952,"186":0.017564581585814313,"187":-0.032706017068445184,"188":-0.04889016820926891,"189":0.011828121012810236,"190":-0.04062208212815941,"191":-0.001593448814097643,"192":-0.013630881998372696,"193":0.03584369130656435,"194":0.057233426730162344,"195":-0.03722450352697411,"196":-0.005226386784070245,"197":-0.03262428108104653,"198":0.021424268030438044,"199":0.016357748272512677,"200":-0.010820383031094491,"201":-0.09294329041625785,"202":-0.02587487379226064,"203":-0.05114791890734761,"204":0.01912632314511332,"205":0.01423370374896891,"206":-0.00985882398568803,"207":-0.020971075966386112,"208":0.0036970950694554736,"209":-0.06932649174971559,"210":0.028340116233021274,"211":-0.008656406990320522,"212":-0.016981394582223152,"213":-0.02057932750931602,"214":0.07042092228676768,"215":-0.03865010714197831,"216":-0.010013098601750597,"217":0.04244456530443288,"218":0.028754541742592926,"219":-0.03933627829720781,"220":-0.026750084629362098,"221":-0.024976812813047377,"222":0.05321022789212674,"223":0.06185105996903975,"224":-0.05081577175159919,"225":-0.028607829079674057,"226":0.0027420556089800675,"227":-0.03620928834787179,"228":-0.0005423603432189601,"229":-0.01035271221541182,"230":0.06056844308358075,"231":0.00010266653781259507,"232":0.004016170171056997,"233":-0.055429400411802394,"234":-0.0015349899534252624,"235":0.03199860263338675,"236":-0.023940074795387956,"237":0.05074011410734218,"238":0.054980971364923706,"239":-0.004312463278917559,"240":-0.019828262732189208,"241":-0.0005076566056015674,"242":0.024245461831303817,"243":-0.004487638588626973,"244":-0.0029691182827835763,"245":-0.026962724544802676,"246":-0.0027618554053935,"247":0.01535103333423626,"248":-0.022015307636928702,"249":0.00100684120569111,"250":0.05999214509915373,"251":-0.014849227582244008,"252":0.013951811856966359,"253":-0.001959532907582239,"254":0.04203123041479952,"255":-0.010015300280887813,"256":-0.020827328017240618,"257":0.01914342912632939,"258":0.004503883045357725,"259":-0.09043091613287063,"260":0.05810289286868685,"261":0.014940468337286189,"262":0.04438339125775239,"263":-0.0325101491557844,"264":0.022928006128644183,"265":-0.009272946902445501,"266":-0.0571395506827076,"267":0.03022810197137606,"268":-0.024288233363565902,"269":0.020062081535289645,"270":-0.05858388916434982,"271":-0.048292852621952036,"272":-0.009713482640572103,"273":-0.012448964350621414,"274":-0.013455751648504417,"275":0.021236725000340944,"276":-0.04292915408783676,"277":0.040498140202040143,"278":0.024218040549206152,"279":-0.01670483201766173,"280":0.0016618197963346433,"281":-0.02253353732792855,"282":0.023138530376570775,"283":-0.0018111211357072312,"284":-0.011026956143623805,"285":0.061244772488389346,"286":-0.05611115976244443,"287":-0.016740044594865115,"288":-0.012096236907768149,"289":0.0321424560475483,"290":0.052836948104514926,"291":-0.02504569550751879,"292":0.03354281274001578,"293":0.02658827015533119,"294":0.03461613670202235,"295":-0.06137796460903039,"296":-0.006751164313542046,"297":-0.015461500358062282,"298":-0.013252322691364497,"299":-0.03850320085658119,"300":0.045013652830198,"301":-0.015558917785654863,"302":-0.01758141739472032,"303":-0.011992273689441484,"304":0.0005382719531335379,"305":-0.0018785887403789717,"306":-0.03696764029055907,"307":0.05788840258755228,"308":0.0547446949994544,"309":-0.0055452745079144165,"310":0.020733755101677104,"311":-0.027757968170173793,"312":-0.004849566041345052,"313":-0.05029976894599706,"314":-0.07571831523504245,"315":0.014803241416836727,"316":0.006018349393448903,"317":-0.06646186158238583,"318":-0.07303472601325968,"319":-0.009464363335242774,"320":0.00027573560715144776,"321":-0.031080767011497073,"322":0.015190409867874635,"323":-0.0077324539185864285,"324":-0.03547873560856197,"325":0.07218301709590624,"326":-0.0005435541887811174,"327":0.017593403790422683,"328":0.004772464724215418,"329":0.026615221232022902,"330":-0.025114094766622595,"331":0.017902050722719318,"332":-0.0556568262660975,"333":-0.01458073967418578,"334":0.00209900619432162,"335":-0.05263124330797391,"336":-0.04138181655904762,"337":-0.0020654543222247664,"338":-0.01811134069578943,"339":-0.017215194659037245,"340":-0.027805031599869034,"341":0.0459934094258721,"342":0.02153922581717814,"343":0.024377020277685565,"344":0.04355523448817209,"345":-0.02448779661372642,"346":0.00017908794800054945,"347":-0.0605842878140033,"348":-0.012920196716324741,"349":0.009336516194368281,"350":-0.0003588174711513075,"351":-0.009308971858387655,"352":-0.015892490434226997,"353":0.021437214197264385,"354":-0.006467155454195543,"355":-0.05949542755466129,"356":-0.038135175420399084,"357":0.029767081957373584,"358":0.0021843894695723056,"359":-0.07175950143403699,"360":0.02000252306065409,"361":-0.027374913504009113,"362":0.033033300511830455,"363":-0.07753480893550328,"364":-0.021511221557544338,"365":0.01086386877529987,"366":-0.008471241383908354,"367":0.006499433617298251,"368":0.053371397703778724,"369":-0.017560624627392492,"370":-0.0290465238458198,"371":0.008313840310892905,"372":-0.0447689696463998,"373":-0.005662296816569398,"374":0.008443042267642682,"375":-0.04671412155498545,"376":-0.03970724800125862,"377":0.04497961922237466,"378":0.012263314929277546,"379":-0.04122894669429231,"380":-0.04390590434330558,"381":0.025492401958217364,"382":0.011299385888589553,"383":-0.01867361565064678,"384":-0.017733512295491295,"385":0.015195395384420524,"386":-0.008901562304244168,"387":-0.04575841314960089,"388":-0.03965131859064877,"389":-0.023181015644883625,"390":0.04752121062115586,"391":-0.016144591733479197,"392":0.022375406393595094,"393":-0.019750377284038115,"394":0.036030308337610575,"395":-0.01397124444195662,"396":-0.00727749625759549,"397":-0.00991560326907032,"398":0.03476634590270967,"399":0.0073601631043173875,"400":-0.013294480825993878,"401":0.008473268534184612,"402":-0.008424932071305603,"403":0.006492226457140882,"404":0.03634569625874035,"405":0.06582223487650816,"406":0.08324949235139023,"407":-0.04816877179913439,"408":-0.02605038900068506,"409":-0.07375549336499952,"410":-0.017068150855703262,"411":-0.023851848356631185,"412":-0.022320082057983644,"413":-0.005325485726657482,"414":-0.0029158703955565928,"415":0.01772352817337388,"416":0.015840325194230495,"417":-0.019471637954561014,"418":-0.030918263500758082,"419":-0.00039239418442249205,"420":-0.007114753485126268,"421":0.030283104496056513,"422":0.007458654368909074,"423":0.02062117571046284,"424":-0.05373238365777631,"425":0.03116850105299352,"426":0.03621847752998447,"427":-0.02880615070606207,"428":0.008335670074126599,"429":0.03590786398170084,"430":-0.03426400193403827,"431":-0.001360993216135073,"432":0.01912910081827097,"433":0.0001605449475204675,"434":0.01852542158553401,"435":-0.03450514556496307,"436":-0.0548363669676667,"437":0.002361377866838996,"438":-0.02881981411286037,"439":-0.031279616464145635,"440":0.03739301632219389,"441":0.0018060962628472792,"442":-0.03094994110374725,"443":-0.030192293538649637,"444":-0.0009929831214814911,"445":-0.004688893839409043,"446":0.006891168759948904,"447":0.026463062664807312,"448":-0.011103119522384854,"449":0.049753890714103105,"450":-0.041175034013947065,"451":0.03176266411677578,"452":0.018048750412296814,"453":-0.0014150336014900245,"454":-0.038426613970283005,"455":-0.0018996423779907836,"456":-0.02880403026745612,"457":-0.01573743388544114,"458":0.004210176733197696,"459":0.04999091573140679,"460":0.022141750580494727,"461":0.0021544811283436497,"462":0.03732077915566152,"463":0.046886152909992776,"464":0.028182893491588236,"465":0.03926420222287072,"466":-0.008382181468748657,"467":-0.0014799384720066487,"468":-0.005414759028739883,"469":-0.01646939592111063,"470":-0.04531650562870813,"471":0.04911482617514992,"472":-0.027895537096187303,"473":0.038816206320625504,"474":-0.04655973702253443,"475":-0.004247261069237393,"476":-0.0246424938772084,"477":-0.035545445727506994,"478":0.01859357005616,"479":0.009025805568356199,"480":-0.008105530211092603,"481":0.02171069406199841,"482":-0.015080829039854913,"483":-0.044945602565628115,"484":-0.0351693812548146,"485":-0.026929950608619625,"486":0.052345410125419295,"487":0.009425988138380866,"488":-0.041710843318374574,"489":-0.020413892202745722,"490":-0.04438415122749637,"491":-0.020227092435291957,"492":0.010039218919366807,"493":-0.05715214897058722,"494":0.05471206579061093,"495":-0.008056717633550436,"496":0.01145017494334175,"497":0.0023057131047185208,"498":-0.012639531775287783,"499":0.045370437902599925,"500":0.017907898792207194,"501":-0.00023585934201298374,"502":-0.010834391792733598,"503":0.026288808220142092,"504":-0.008280988778856361,"505":0.017426778596552662,"506":0.018960710924954063,"507":-0.10561359969024266,"508":-0.005982469099819676,"509":0.012234714055916987,"510":0.010104801371343761,"511":0.009128317298846975,"512":0.039949154334897284,"513":-0.041292805857048934,"514":0.0008303890099700711,"515":0.013621233207554819,"516":0.010943558100787334,"517":0.05535747826857532,"518":0.02538056937085293,"519":0.03883935462593682,"520":0.036664105358148964,"521":-0.04697733810522445,"522":-0.01290191638634998,"523":-0.04101898209103111,"524":-0.0186442368951542,"525":0.054346293420184114,"526":0.00884239338142083,"527":-0.03162252153983088,"528":0.009301272808320776,"529":0.014200257113180872,"530":0.010830128617659416,"531":0.03902573021137854,"532":-0.0530216499590085,"533":-0.02606872148056059,"534":-0.03959734662752012,"535":0.03419764988431962,"536":-0.009210094602241845,"537":-0.04623327668976863,"538":-0.0456912099951672,"539":-0.012004091124425409,"540":0.012316220558290823,"541":-0.04161745619483652,"542":-0.01428900020081194,"543":-0.03225701586716171,"544":-0.012412932377646345,"545":-0.04151598117881142,"546":-0.018568268999684938,"547":-0.014722438480169114,"548":0.0100402055368914,"549":-0.050323378719168664,"550":-0.0038105676792308005,"551":0.014279781817974044,"552":0.04473877068158127,"553":-0.023009868061100645,"554":-0.07627929267632054,"555":-0.010936977844036544,"556":-0.008002846053524583,"557":-0.050497063041142445,"558":0.025507169533686768,"559":-0.025435919083425698,"560":-0.004717614229728898,"561":-0.0007481362571719088,"562":0.006537672395134205,"563":0.03446574342437745,"564":-0.016214050777851482,"565":-0.028922886006385626,"566":0.004709765496063505,"567":-0.048003950550450064,"568":-0.016551980873058713,"569":-0.12441088146566494,"570":-0.014312514911923674,"571":0.05384332963746032,"572":0.023722249242771668,"573":0.022530846376225898,"574":0.009758641965479951,"575":-0.056422439013780815,"576":-0.0071786840341922925,"577":-0.019396885591567534,"578":0.0016433811794568341,"579":-0.019341470492107157,"580":0.019685967657692663,"581":0.03218019364435586,"582":0.026381589802470583,"583":-0.06632384408746454,"584":-0.0009420581510326457,"585":-0.05980020445108939,"586":0.044924204737399755,"587":-0.032014845268336506,"588":-0.03917638841065975,"589":0.026230322970813777,"590":-0.008361985377305564,"591":-0.0013504370628445856,"592":0.031181624594447774,"593":-0.06695628941321329,"594":-0.04637401365434746,"595":0.002464269359699517,"596":0.028962116105986806,"597":0.015687449866689854,"598":-0.017267565777805714,"599":-0.019545350229453595,"600":0.01769202841570965,"601":-0.005712628110899117,"602":-0.023370896940828566,"603":-0.08285896077762721,"604":-0.01392319647431787,"605":0.04868069549495254,"606":-0.043143236367805676,"607":0.002905988792793317,"608":0.025957774281101333,"609":-0.00324281518810139,"610":0.04569105190516723,"611":-0.04965051691842726,"612":0.0058828997003586335,"613":-0.05691592854071195,"614":0.04835462408062209,"615":0.0053288737370303756,"616":-0.03829197542092684,"617":-0.05567708356581153,"618":0.0041255225694101175,"619":-0.0033562951658797128,"620":0.015001748592449569,"621":-0.056151565080166,"622":-0.014814832541953225,"623":-0.03588478917801814,"624":-0.03877556031922948,"625":0.010175195810386603,"626":-0.009742841484873447,"627":0.0013437318460863571,"628":-0.021031236079462473,"629":-0.0210537702392159,"630":-0.044522260176763466,"631":-0.016429208869979124,"632":-0.028370900562168885,"633":0.039359155623255926,"634":0.033879612131488684,"635":0.04994101579721285,"636":0.04134109084425454,"637":-0.05623040647940838,"638":-0.025876012780788347,"639":-0.006058976938146402,"640":0.03356158090407077,"641":-0.04788573228530347,"642":0.008402735912353526,"643":-0.0054494236604039955,"644":-0.008509989687343808,"645":-0.05088779273464341,"646":-0.0019581042832287807,"647":0.02702440368232669,"648":-0.04051572538012825,"649":0.015786353469970645,"650":-0.053353879066834184,"651":-0.017736169664341928,"652":0.03083205053769665,"653":-0.008194858351143851,"654":0.05959814066834266,"655":0.015186185686795887,"656":-0.01922717420994013,"657":-0.016429350064426702,"658":-0.010751852243009502,"659":0.02502018354861937,"660":0.024118562441339583,"661":-0.012928145771402283,"662":-0.01748090506509599,"663":-0.02371047037841282,"664":0.012657173741816335,"665":-0.022118557936798372,"666":-0.02255304339261008,"667":0.06390598331909683,"668":-0.002315632638287498,"669":-0.03293497180143578,"670":0.06296672502646786,"671":-0.03752334257212127,"672":-0.03420802277347824,"673":-0.0011735827024107156,"674":0.016290290426517612,"675":0.06435802109656927,"676":-0.025853293999762366,"677":0.005551834142245859,"678":0.009190846342275887,"679":-0.01842412306551361,"680":0.02514413632215634,"681":-0.00254791009481429,"682":-0.014330613634394343,"683":0.015229298829311497,"684":-0.024754691905108116,"685":-0.056726022376787366,"686":-0.02371389564074382,"687":-0.03792439598568895,"688":-0.01755539278284883,"689":0.025720373654658606,"690":-0.032731655491645736,"691":0.0034300993033165974,"692":-0.016866600640468726,"693":0.03553390191397857,"694":-0.03924479053610986,"695":-0.0347953900986888,"696":-0.014572206531238616,"697":-0.019747376105713203,"698":-0.023833043241039006,"699":0.0028166600031548235,"700":0.009161002914853182,"701":0.004556329462187964,"702":-0.0579926229339343,"703":0.00586888428029848,"704":-0.02015515392644015,"705":-0.02462537993197729,"706":-0.029896853901867623,"707":-0.008028739934943328,"708":-0.0028760694203621394,"709":0.056342007259110316,"710":-0.03808770052468501,"711":-0.06344729651175508,"712":0.014640166060360196,"713":0.008939902561491846,"714":-0.03781372183893648,"715":-0.05685547131312226,"716":0.017064527940985355,"717":-0.021467857099524573,"718":-0.0328994735661536,"719":0.025407919282506807,"720":0.042975277732724,"721":-0.0024254170528462344,"722":0.037201255754847944,"723":0.027884808132099505,"724":-0.02348769144882013,"725":0.0158014473326995,"726":0.039997974467824035,"727":-0.019530837113634004,"728":0.01250974510043173,"729":-0.013013105834289194,"730":0.01201185825081876,"731":-0.04705901481749265,"732":-0.019794878652424935,"733":0.008934711438163608,"734":0.03154311785674739,"735":-0.05130131089582122,"736":-0.035662048185682575,"737":0.02595762770212427,"738":0.00753030687503464,"739":0.008846164219676801,"740":0.023866089897103523,"741":-0.026051449444544298,"742":-0.02545184981825398,"743":0.014357859572130134,"744":-0.02862811001024167,"745":-0.013511101568714866,"746":-0.041754269850431625,"747":-0.01581892574218943,"748":-0.014198604041118104,"749":-0.06178668041107927,"750":-0.04830904307731262,"751":-0.0046246008677123815,"752":0.0250367688916506,"753":0.015394043953610067,"754":0.05790058781613312,"755":0.04054453408033101,"756":-0.03200054025890301,"757":0.04644516333988999,"758":0.02078755378331887,"759":0.04217500865608656,"760":0.008759749833439717,"761":-0.023257647837629233,"762":0.02493678984027038,"763":0.0231534209250919,"764":0.03169701752748742,"765":-0.038123850888798605,"766":-0.0003640488016835235,"767":0.017440575397184507,"768":-0.05854372663153852,"769":-0.052672243803185574,"770":0.013808258206577053,"771":-0.04191073357904736,"772":0.00030038636320077374,"773":-0.01235681377962791,"774":-0.010040548068288377,"775":0.018400832604124635,"776":0.014718475023013948,"777":0.02372152758402327,"778":-0.03344901142298065,"779":0.01597646316881877,"780":-0.027992950913933543,"781":0.0038322556389739264,"782":0.02893009473109426,"783":-0.05329367800042873,"784":-0.06452304554725204,"785":-0.06398079519726717,"786":0.009689470210022243,"787":0.08101953551134158,"788":-0.05898349039204744,"789":-0.04218489577406714,"790":0.053622873300919825,"791":-0.03524251745724979,"792":-0.015609746677424596,"793":-0.010046454668329492,"794":0.021011523621812148,"795":-0.05351611742101674,"796":-0.02774673891001303,"797":0.024767153603706203,"798":-0.014682366457685843,"799":-0.03084030123794113,"800":-0.022811029542791336,"801":0.018943931769610744,"802":0.009747559678301147,"803":-0.01440697203303209,"804":-0.04776336505593338,"805":-0.05734922313111256,"806":0.0015042056043210706,"807":0.0010129252728173473,"808":-0.004746424988682809,"809":-0.047590635663532915,"810":0.02843940681891801,"811":-0.004525246593940701,"812":-0.042132049490485636,"813":0.0040749724514843435,"814":-0.0027302240239290747,"815":-0.009368246362433707,"816":0.05838043041045226,"817":0.008696937396016971,"818":-0.022880060868722872,"819":-0.01382577856075581,"820":-0.06179792633041253,"821":0.02221216703311651,"822":-0.009040262163421362,"823":-0.016896968022493505,"824":0.013325258673331642,"825":0.0438306960097793,"826":-0.02144772804003725,"827":-0.011876949822470154,"828":-0.048638766783349933,"829":-0.0019568501880840683,"830":-0.013806235432132344,"831":0.04029359382978452,"832":-0.019175908941307086,"833":0.023348274623570302,"834":-0.03382810072165253,"835":0.008461987546020025,"836":-0.07775642916056939,"837":0.030697230084332863,"838":0.03662223757748405,"839":-0.0903121473690912,"840":-0.05561288008190251,"841":0.018679206609008406,"842":-0.006932755274179845,"843":-0.031483695833156626,"844":-0.022289037848030525,"845":-0.0014875867662673796,"846":0.04183340888180945,"847":-0.012629083712703479,"848":0.0478302404122706,"849":-0.05701524506441438,"850":-0.008876216139681635,"851":0.016332971045435348,"852":0.029940664549849193,"853":0.013015947013695685,"854":0.04044181335356649,"855":0.03273585128228795,"856":0.016211511478243523,"857":0.0405504900339708,"858":0.01659988127320778,"859":0.009986533604713804,"860":-0.018498120741844433,"861":0.012582956199428112,"862":-0.036889235461694606,"863":0.026076201620541806,"864":-0.023492498765017397,"865":-0.009719069501045013,"866":0.040909816289195766,"867":0.03711343964150536,"868":0.019186863064131875,"869":0.011058442574175516,"870":-0.005773829433447718,"871":-0.042421526898328996,"872":-0.08364887163938448,"873":0.002920775306160379,"874":0.023095170448192304,"875":0.02306466192897745,"876":-0.0008679346305094876,"877":-0.01232677893985558,"878":0.019276671101247464,"879":-0.03179465200649907,"880":0.03504685676218757,"881":-0.024045448519406626,"882":0.007975281112794363,"883":-0.06449861308836201,"884":-0.01045371447476494,"885":0.008767742877329029,"886":-0.011019892308529814,"887":-0.01603896197222866,"888":0.047694666621775635,"889":-0.00633051868253464,"890":-0.03391328434995809,"891":-0.0215850981856051,"892":0.014769478633723345,"893":-0.05164752953065086,"894":-0.02253426824435736,"895":-0.007495454743516521,"896":-0.0372095108063835,"897":-0.020015679807747003,"898":0.010179615553884386,"899":-0.03148749971562179}},{"sx":5,"sy":5,"depth":36,"w":{"0":0.006073523150196555,"1":0.063379579512092,"2":-0.0033420526967909894,"3":-0.026320630664937245,"4":0.04127380612653377,"5":0.0036181598231704963,"6":0.022568048914834805,"7":-0.0567924144315152,"8":0.008632834455267049,"9":-0.004810429330974761,"10":-0.0619599211514315,"11":-0.06077008801971733,"12":-0.0017663906613102072,"13":0.04055685756303878,"14":0.02501657297697465,"15":0.000302470646059474,"16":0.05409854753198607,"17":-0.008584672480381892,"18":-0.033177979943738486,"19":-0.02833856347582302,"20":0.0186343559702999,"21":0.03551626630442457,"22":0.024469911328799377,"23":-0.03699678207044387,"24":-0.09577928859147113,"25":0.030506770518095788,"26":-0.003086883750859747,"27":-0.007796373686599301,"28":0.02512848361823643,"29":-0.036717207123483836,"30":-0.0025316557039186177,"31":-0.0443788034407002,"32":0.0038385096297579024,"33":0.0025597233436810735,"34":0.06811935449371351,"35":-0.007966580545003474,"36":-0.04784053347490266,"37":-0.018227600124936568,"38":0.0034772231286279574,"39":-0.020216629204581674,"40":-0.07601199960927396,"41":-0.013752146284364287,"42":0.013605641130488793,"43":-0.025845899211770634,"44":0.004198443934300665,"45":-0.02056240304796693,"46":0.03754570056991343,"47":-0.06506905295946502,"48":-0.02385186412989161,"49":-0.06642887099605306,"50":-0.04425218875472317,"51":-0.021297751808183704,"52":-0.0009973949164582827,"53":0.03772093739222618,"54":-0.02112198492294028,"55":0.03294592322893159,"56":0.01959517173995038,"57":-0.023463743599116127,"58":0.0565653291326412,"59":-0.07031466047070917,"60":-0.023535714781639502,"61":-0.003857026658378728,"62":-0.02788102033750351,"63":-0.03529986820175671,"64":0.06042076301306846,"65":0.043172150325306226,"66":-0.038007924178980815,"67":-0.0238577437146268,"68":0.03466284572859548,"69":-0.02056303388851116,"70":0.02168103657829391,"71":0.006854786742647973,"72":0.02078219639444482,"73":-0.03933201402698629,"74":0.000570266368705928,"75":0.03587220889879514,"76":-0.01487751057892996,"77":-0.007655846907288548,"78":-0.0001102553069962326,"79":-0.02987785850976372,"80":0.015826702700501325,"81":0.004933854422721071,"82":0.024123212316514448,"83":-0.032985122240434935,"84":0.02823158894190245,"85":-0.011683520095836767,"86":0.06589322436424322,"87":0.008447555435334831,"88":-0.04067435089511421,"89":0.055242840990618304,"90":-0.0629738698596509,